%YAML:1.0
my_nn: !!opencv-ml-ann-mlp
   layer_sizes: !!opencv-matrix
      rows: 1
      cols: 3
      dt: i
      data: [ 24, 50, 1 ]
   activation_function: SIGMOID_SYM
   f_param1: 5.9999999999999998e-01
   f_param2: 1.
   min_val: -9.4999999999999996e-01
   max_val: 9.4999999999999996e-01
   min_val1: -9.7999999999999998e-01
   max_val1: 9.7999999999999998e-01
   training_params:
      train_method: BACKPROP
      dw_scale: 1.0000000000000001e-01
      moment_scale: 1.0000000000000001e-01
      term_criteria: { epsilon:1.0000000116860974e-07, iterations:500 }
   input_scale: [ 1., 0., 1., 0., 1., 0., 1., 0., 1., 0., 1., 0., 1., 0.,
       1., 0., 1., 0., 1., 0., 1., 0., 1., 0., 1., 0., 1., 0., 1., 0.,
       1., 0., 1., 0., 1., 0., 1., 0., 1., 0., 1., 0., 1., 0., 1., 0.,
       1., 0. ]
   output_scale: [ 1.0526315789473684e+00, 0. ]
   inv_output_scale: [ 9.4999999999999996e-01, 0. ]
   weights:
      - [ -3.2457836902690423e+02, -1.0260183331396857e+00,
          2.5597364208721523e+00, -2.9890598313890950e+00,
          -3.2456742094973032e+00, 3.4028407385432917e+00,
          -3.0807375670394896e+00, -3.1493239971327029e+00,
          -3.5195409073857609e+00, -2.7783913178751396e+00,
          3.1513565451038117e+00, -3.5215993544654989e+00,
          -3.3414673803164296e+00, 3.0038060349889593e+00,
          -3.1752486475026291e+00, -3.4636722617948763e+00,
          3.4429738821986242e+00, 4.6095357920693566e+01,
          -3.3883790726028380e+00, -3.0276640419343441e+00,
          -3.3616835056497556e+00, -4.1656724293413504e+01,
          3.1178864864956117e+00, -3.1916513894666028e+00,
          3.4033092166539305e+00, 3.6517312527599133e+00,
          3.2248351064288752e+00, 3.7748970184600079e+00,
          -3.3364412061363060e+00, -3.1223216528894131e+00,
          4.5835880887615224e+00, 3.0876754233292054e+00,
          -3.1483817115121426e+00, 3.6482415635101657e+00,
          3.1586447482379172e+00, -3.2094773069486151e+00,
          -3.1395570001196451e+00, -1.5644304538479778e+01,
          3.1056832633465077e+00, 3.2559204274481751e-01,
          2.7928569689664688e+01, 3.3095825249540467e+00,
          -3.4601948995408076e+00, 4.3854420618987247e+00,
          -3.3870704428210847e+00, 3.0955380917759059e+00,
          3.1697659423182722e+00, 9.5379230907710388e-01,
          -3.1777605359273089e+00, 3.4814404276178506e+00,
          -5.8572598933641325e+02, -3.0432351699180128e+01,
          -6.2133061233793594e+00, -1.9391409084943629e+00,
          -2.1970237747774144e+00, 1.6288668124344352e-01,
          -1.9095271709691650e+00, -1.9909455768474955e+00,
          -2.4796250411803973e+00, -1.3258310135472615e+00,
          2.0638585396800981e+00, -2.5829351658914943e+00,
          -1.8966828737260191e+00, 1.9603505022159589e+00,
          -1.8582207553277907e+00, -1.7145287726150236e+00,
          1.2809627932852088e+00, -3.6889361459527854e+00,
          -1.8230600703706346e+00, -2.8734935887698665e+00,
          -1.8487538871619502e+00, -1.7844211230280496e+01,
          2.0052340794096746e+00, -2.0455905973419148e+00,
          1.8537413103781011e+00, -6.6537398714435134e-02,
          1.8715982824266209e+00, 2.6423961325346577e+00,
          -1.0291890495382296e+00, -2.0129313311458570e+00,
          4.8386064095532086e+00, 2.0801429938831757e+00,
          -1.8194832271519108e+00, 1.7971940842083132e+00,
          1.9853406999033094e+00, -1.2681383771322443e+00,
          -1.9136900495058118e+00, -3.0931784624019154e-01,
          1.8859585220383548e+00, 3.1252451741450091e+01,
          1.1057095074218171e+00, 1.9275486089695772e+00,
          -2.0894071130447727e+00, 6.9819044585921279e+00,
          -1.7029520110029259e+00, 1.8952402650535201e+00,
          2.0241505934392796e+00, -5.3566389135465116e+00,
          -2.0088121626929221e+00, 2.2204071033430761e+00,
          -3.4680953238311196e+02, -1.4557880682093554e+00,
          9.9423613833098001e-01, -1.5615517216581778e+00,
          -2.2954573176199435e+00, -1.3247892548337883e+00,
          -1.6588712804832861e+00, -1.3465987713984877e+00,
          -2.5631960814176828e+00, -2.6880466125349276e+00,
          2.2972643078534483e+00, -2.6184413238211448e+00,
          -8.7852268052254012e-01, 1.7413969784539907e+00,
          -1.0150130066350473e+00, -1.7305617779377142e-01,
          2.7647241363945443e+00, -1.3252437071182674e+00,
          -3.5586615054958920e-01, 3.4127219871124653e-01,
          -6.4262428500257673e-01, 1.8853272697578205e+01,
          1.6845330420711075e+00, -2.1779315026884767e+00,
          3.8942206966423770e-01, 3.0482934151353924e+00,
          6.7720933799480543e-01, 2.9540957322828034e+00,
          8.6625746754042754e-01, -1.7504758826166871e+00,
          7.7667041093072813e+00, 1.7556923715351391e+00,
          -9.4358343915071585e-01, -8.0507299164500126e-03,
          1.1527769609465854e+00, 6.2688015361349791e-01,
          -9.9783155791649991e-01, 1.5930895328724116e+01,
          1.9700412305016270e+00, 2.8738933945108442e+00,
          -2.8020571574267777e+01, 2.3007212252587617e+00,
          -2.5030912031981383e+00, -1.1511963346713252e+00,
          -1.4216442840910032e-01, 1.4331350142675006e+00,
          1.7102346885286284e+00, 1.0523607769917191e+00,
          -1.9447305036093701e+00, 2.6907487898819178e+00,
          -9.9923382799904815e+01, -9.9630700667052530e+00,
          -6.2311033642949294e+00, -9.4595669772480606e-01,
          -1.1956015450081581e+00, -1.3022132228384156e+00,
          -9.9980124285169281e-01, -7.9888132560598024e-01,
          -1.2740071598558167e+00, -1.1340183388010239e+00,
          1.1584545605603573e+00, -1.1907937471907175e+00,
          -5.4677450013161888e-01, 1.0205265443171094e+00,
          -5.5328854141192496e-01, -3.0319333916176545e-02,
          1.6437825153544736e+00, 3.0345153219265757e+01,
          -1.7869626613423642e-01, -5.9651538460713711e+00,
          -2.8103445869152310e-01, 5.2723093229275424e+00,
          8.9711852760917632e-01, -1.1338798058435258e+00,
          2.0978729578158059e-01, 1.9567727164794568e+00,
          3.5666175094382579e-01, 1.3362136212131970e+00,
          7.9475641779794293e-01, -9.5592387768463194e-01,
          8.1525762781813871e+00, 9.5105521292051576e-01,
          -4.3708598530192255e-01, 8.0605229285846416e-02,
          6.8157622849823796e-01, 7.1055404895556495e-01,
          -5.4861148982780616e-01, 1.0497288606005721e+00,
          1.0597785521303973e+00, -5.6618090640203302e+00,
          7.6440382643065981e+00, 1.2484116579364783e+00,
          -1.3559097144014713e+00, 1.2595946558273570e+00,
          -6.5775312814519621e-02, 7.5140399660242252e-01,
          9.6325328050663583e-01, 1.8075876163572893e+00,
          -1.0682148794373039e+00, 1.3021246010721359e+00,
          -1.1195961808416146e+02, -3.2939966348544671e+00,
          2.4140833574170437e+00, -7.3431331085186669e-01,
          -4.4585477288430603e-01, 2.1327699529939896e+00,
          -7.2482098952968921e-01, -8.1676439561675485e-01,
          -3.5164043779022908e-01, -2.1711329187680848e-02,
          4.1500914958290941e-01, -4.1114319023145945e-01,
          -8.9855109493396057e-01, 7.0492921883997361e-01,
          -8.8304099767971178e-01, -1.1057796946886265e+00,
          1.6254889344185081e-01, -8.6392608530056965e+00,
          -1.0836250731144346e+00, 2.8887530709557332e+00,
          -1.0063809641461865e+00, -1.0601000711521124e+01,
          7.9557991165218322e-01, -5.3317479185959160e-01,
          9.9576487528016400e-01, 1.6573510973485125e-02,
          1.0587121283474465e+00, 2.8317949508476709e-01,
          -2.0842330151286865e+00, -6.3248550435337691e-01,
          -1.4287015564664415e+01, 6.6978298636378719e-01,
          -1.0800759636266755e+00, 1.2555106209710771e+00,
          9.1233618492429303e-01, -1.2511459708346584e+00,
          -9.5468718076826975e-01, 9.0848405072804130e+00,
          5.2608837799260744e-01, -6.2871999911780785e+00,
          1.6503549812705359e+01, 5.4139649217161401e-01,
          -3.6116688024759691e-01, 3.8686782994473563e+00,
          -1.2512501486463066e+00, 8.3768447681516012e-01,
          6.9151920235374842e-01, -1.3685367690117495e+01,
          -6.7402891302504597e-01, 3.4068079881656793e-01,
          -1.3240746298592563e+02, -1.4574046558636045e+00,
          1.8103095350150575e+01, -7.7105215667617089e-01,
          -4.5968936693200085e-01, 2.7845251897599527e-01,
          -7.4946480967187945e-01, -9.1467978931389315e-01,
          -1.2581032203185985e-01, 3.5554234689134295e-01,
          3.3982494639465788e-01, -1.4270715141221665e-01,
          -1.0584169881759899e+00, 7.6934722593095295e-01,
          -9.6482802966059622e-01, -1.0309599982401680e+00,
          -3.9971363789706171e-01, 1.8431388477449303e+01,
          -1.0829715718624011e+00, -2.5209297364733785e+00,
          -1.0344288484958430e+00, 6.7022156534348003e+00,
          8.6815950752574389e-01, -5.8957914905368802e-01,
          1.0002693936231748e+00, -1.9024737319712357e+00,
          1.0649163378244391e+00, -1.0115442339358103e+00,
          -7.5731957481242496e-01, -9.4462214337675343e-01,
          5.8793563990934956e+00, 8.3002801420609684e-01,
          -9.9342298281705166e-01, 1.0607395621702516e+00,
          1.0782067822807133e+00, -6.9124418302437840e-01,
          -9.2117844658694947e-01, -1.0936834906287414e+01,
          6.6217733658693334e-01, 4.0867041939815785e+00,
          9.8421108106607278e+00, 4.2909429154662709e-01,
          -9.7626158772995630e-02, 2.2084077742245762e+00,
          -1.0372418717188618e+00, 9.9213899327808097e-01,
          8.6108626903072127e-01, -7.7469180229980790e+00,
          -7.1701326045557778e-01, -2.0702103721055845e-01,
          -1.9257481142660171e+02, 9.6163908832483402e-01,
          2.2444194022727881e+01, -1.0479247756482502e+00,
          -1.1731376005047083e+00, 1.4223492150460650e+00,
          -1.1037824472531783e+00, -9.5805579002325247e-01,
          -1.2643382172938844e+00, -1.5191921961304187e+00,
          1.2583690395421945e+00, -1.3451733410207243e+00,
          -8.1504253236775515e-01, 1.1015538428129426e+00,
          -9.1581376210771170e-01, -7.9957182611065181e-01,
          1.7436830980033995e+00, -7.6849853133773820e+00,
          -7.7299697046761295e-01, 1.0257279895850505e+01,
          -8.3193823919196952e-01, 1.2219948369008508e+01,
          1.0616867524790432e+00, -1.1086493752370712e+00,
          7.9102985064032005e-01, 1.7369229620022233e+00,
          7.7606175744606365e-01, 1.6536214573357892e+00,
          -1.1903244342356396e+00, -1.0715148879067171e+00,
          -1.4344484118927900e+01, 1.0576582487362700e+00,
          -8.7308834078804121e-01, 8.1916175175411443e-01,
          8.0363642785727685e-01, -1.0375439510300588e+00,
          -8.0175903796264325e-01, -1.2133422329194690e+00,
          1.2278984539756512e+00, 1.3581383239489577e+01,
          -8.2667657157796466e+00, 1.2761701467623556e+00,
          -1.3548064549024761e+00, 4.3596044245592186e-01,
          -9.2480071955817211e-01, 9.6074199389427439e-01,
          1.0478325730702616e+00, 1.1108464206739553e+01,
          -1.1502503705024909e+00, 1.5060722693311444e+00,
          -1.1492697932259138e+02, -2.2599853192771189e+00,
          -8.4013337691323731e+00, -7.7507335563474711e-01,
          -4.3894955038887939e-01, 2.0743808613209480e+00,
          -7.3128194625673693e-01, -9.4073905811673808e-01,
          -2.5018530543175072e-01, 7.5333969947623355e-02,
          3.6130697085720276e-01, -2.7398493080792019e-01,
          -9.9859268510832577e-01, 5.9416222689893738e-01,
          -9.6671779884994735e-01, -1.2347747978471975e+00,
          1.2822889062054648e-02, -1.0570425532398621e+01,
          -1.0995974356050944e+00, -8.3559954812150380e-02,
          -1.1528934171537955e+00, -3.5798424125527625e+01,
          7.6736493658242089e-01, -3.9114629211610319e-01,
          1.0796195566254085e+00, -3.3370695286622037e-01,
          1.0384076000445672e+00, -1.2200155558228828e-01,
          -1.8897174322397774e+00, -6.9945893538166826e-01,
          -1.7414324225099488e+01, 6.0588104649477736e-01,
          -1.1083199984539069e+00, 1.0852507338995523e+00,
          1.0092285587859353e+00, -1.3946126961862058e+00,
          -8.8656928833453541e-01, -5.3538590436797744e+00,
          5.3750256959873988e-01, 6.2694340976238949e-01,
          6.8580372730886374e+00, 3.7933709599767501e-01,
          -2.6179275469047708e-01, 1.1154177340668485e+00,
          -1.3059595225378813e+00, 8.6746574911798391e-01,
          6.9788158204054462e-01, 5.0360024755834729e+00,
          -5.8377590728494622e-01, 1.0331456348770417e-01,
          -2.5729963909438607e+02, -1.0270920115603003e+01,
          1.5990275434163847e+01, -9.1966841208464212e-01,
          -7.9000212494951871e-01, 3.3439198706072731e-01,
          -7.9686524024748906e-01, -7.3346564267177672e-01,
          -6.3043369875205613e-01, -1.0203780781129312e+00,
          8.1134428900639055e-01, -7.9188447704541620e-01,
          -5.8808390680627687e-01, 8.9172313271106562e-01,
          -5.9958817286897648e-01, -5.5479852346437697e-01,
          8.2991663532855442e-01, -1.0983550847137035e+01,
          -5.6246117673901330e-01, -1.4064904327781216e+00,
          -6.6703946933537483e-01, 2.1231757276867608e+01,
          8.0572687579927416e-01, -8.4890386647052829e-01,
          4.5490393764769743e-01, 6.2315792692596306e-01,
          6.9945550174088000e-01, 6.0752659045501300e-01,
          -5.5131417328175636e-01, -9.2650082935530498e-01,
          -1.0525287183625347e+01, 9.1266006661477539e-01,
          -8.3728009635265799e-01, 3.4201609086419921e-01,
          7.6535210330203995e-01, -3.6525020359449495e-01,
          -6.5535108202299863e-01, 1.4463423816154999e+00,
          8.7220342369304593e-01, -5.9909320500084657e+00,
          2.1684139497153392e+01, 7.7903389655284416e-01,
          -6.9310785811552089e-01, 1.0905607419767391e+00,
          -5.3660507101279442e-01, 8.4298411402009865e-01,
          8.0144727096281243e-01, -1.4226133603057002e+01,
          -8.8935451651112440e-01, 7.5700514928593454e-01,
          -2.1086781228864402e+02, 1.2137740398194552e+01,
          3.6732172895384201e+00, -9.9629028327058777e-01,
          -1.1936417729508557e+00, 1.2231160241207004e+00,
          -1.0527164944723841e+00, -9.5358273854304110e-01,
          -1.2938910896523730e+00, -1.4103883691065779e+00,
          1.2535073531050225e+00, -1.1894004653075065e+00,
          -8.1644787542275932e-01, 1.0032232008312088e+00,
          -9.7567520238017180e-01, -9.2011618474710788e-01,
          1.7675128483551024e+00, 1.6014267415581692e+01,
          -8.8953408518705723e-01, -8.9929676080289389e-01,
          -8.6472239309348786e-01, -5.9224882326024124e+00,
          1.0153938463100549e+00, -1.2152227561632902e+00,
          8.7167633261251154e-01, 2.4428638876794873e+00,
          8.4936150251602482e-01, 1.6194246776282348e+00,
          -1.0928909486340963e+00, -9.2970958215584043e-01,
          -3.3749748728729254e+00, 1.0566877570855473e+00,
          -8.6320088627272062e-01, 9.2751591074774187e-01,
          9.6529916675071126e-01, -1.1328609170717938e+00,
          -9.5049384250319002e-01, 2.0972582429891320e+00,
          1.1634883210203564e+00, -3.1868780038787228e+00,
          -1.8397287538468188e+01, 1.2539552496785697e+00,
          -1.4367664607957535e+00, 2.6076505239829451e+00,
          -8.7613916991494833e-01, 1.0157807615203469e+00,
          9.3657632111176847e-01, 2.5176356338545947e+01,
          -1.1103610423432306e+00, 1.4721378658444138e+00,
          -1.7366378473901528e+02, 1.3136845174298715e+01,
          5.2407995909792078e+00, -8.2066781883284490e-01,
          -8.1908051685117933e-01, -3.8105837955366967e-01,
          -8.7677223538753402e-01, -8.3029173421174152e-01,
          -5.8584955274576689e-01, -6.7706569845155151e-01,
          7.8089183543891516e-01, -5.5519946974710432e-01,
          -6.5856399172975710e-01, 8.2894797466206038e-01,
          -6.8901442825271031e-01, -4.7984598132846890e-01,
          3.9709791771913300e-01, -4.3361671758238679e-01,
          -5.6915593095918826e-01, -1.7187046801839891e+00,
          -5.8153325447675885e-01, -1.7897602118173683e+00,
          7.8473919279544224e-01, -8.6748475214157428e-01,
          6.1483658633489779e-01, -6.6255651739456300e-01,
          6.6028252802988951e-01, -1.1573247060106572e-01,
          8.4140138720941143e-02, -8.4261699597713580e-01,
          1.4812947983535713e+01, 8.5382513380282199e-01,
          -7.2192713815894149e-01, 4.3465887225760075e-01,
          7.2079174921021860e-01, -4.8067151648548040e-01,
          -7.1445161208398744e-01, -3.9055498733978893e+00,
          8.4821255824494446e-01, 1.1074032998770313e+01,
          -2.3927406884995253e+01, 8.2009079912430005e-01,
          -4.7953891711898428e-01, -1.4414467629753922e+00,
          -4.0956474121552572e-01, 7.1751289393407169e-01,
          8.1435609866807335e-01, -7.1686865263562538e+00,
          -8.7455437511173373e-01, 5.2542472067846313e-01,
          -1.9526601908829730e+02, -5.8539122818095688e+00,
          -1.6211662956659442e+01, -1.5599839911161475e+00,
          -1.7833595893221763e+00, 3.7533438247916062e-01,
          -1.6093733135014117e+00, -1.4087431440519844e+00,
          -1.9238311905941292e+00, -1.9859555024315858e+00,
          1.7913124147891781e+00, -2.0258286355173181e+00,
          -1.3460802937464518e+00, 1.4894087761864265e+00,
          -1.3174463079926511e+00, -1.1584603931117314e+00,
          2.4483722583717098e+00, 3.3034017530498403e+01,
          -1.1594269448250611e+00, 6.3986081408457487e+00,
          -1.2482570358718317e+00, 5.5144686364160131e+00,
          1.5533317571300520e+00, -1.7029526943109297e+00,
          1.3200511276259781e+00, 3.1464348383047720e+00,
          1.2257883195345216e+00, 2.7293477282769523e+00,
          -5.4438554376729542e-01, -1.5223250603729557e+00,
          1.7441338787971532e+01, 1.5874957205396647e+00,
          -1.3009941319238456e+00, 1.0609839262942617e+00,
          1.4102733156423597e+00, -1.1677441662787498e+00,
          -1.2494917626720856e+00, -1.3617050874210793e+01,
          1.6474060940198165e+00, -2.0607142445846347e+00,
          -1.3935271684872951e+01, 1.8211720571781900e+00,
          -2.1870973825078828e+00, -2.5260372712982631e+00,
          -1.0338740884659157e+00, 1.4000124965047462e+00,
          1.5437158296982354e+00, 2.0525251524336575e+01,
          -1.5546757496694730e+00, 2.2842523708501186e+00,
          -1.4336630636721029e+02, 1.5028001517724232e+00,
          -6.0300802157007496e+00, -1.0678436164135345e+00,
          -1.5027109856235339e+00, -1.0517419162543558e+00,
          -1.1895603681084852e+00, -7.8814163574284624e-01,
          -1.7391171518858086e+00, -2.1116718725698416e+00,
          1.5210660240402500e+00, -1.7580073159810934e+00,
          -4.7229851576506754e-01, 1.2357384540260163e+00,
          -6.2314121399716826e-01, -1.4310352742381910e-01,
          2.4400386661883684e+00, -1.7436041340142776e+01,
          -1.4676505202083770e-01, -5.3027660540475186e+00,
          -3.5122750811112918e-01, -1.7068885453703935e+01,
          1.0285437524558352e+00, -1.3995907048081884e+00,
          3.7973208645586953e-01, 3.3137541391846193e+00,
          3.7019156925191660e-01, 2.2973586229221254e+00,
          7.8568389759198087e-01, -1.0332767698888292e+00,
          6.6502183086114410e+00, 1.1557176015744075e+00,
          -5.4162573444387196e-01, -2.6450736125976867e-02,
          6.6329386827582359e-01, -1.2081392297474600e-02,
          -6.1655731340263964e-01, -1.6042992113052129e+01,
          1.4369888429315161e+00, -1.9325490847511077e+01,
          6.1567682865879547e+00, 1.7002887200015173e+00,
          -1.8795216345786203e+00, -5.9557759279125992e+00,
          -1.3788860475930895e-02, 8.1909462809423150e-01,
          1.1601790562592378e+00, 1.7638408585172123e+00,
          -1.2480228930145638e+00, 1.9155422690496871e+00,
          -2.7476166291743533e+02, 2.2756434149893181e+01,
          3.1776268632377406e+01, -1.6937045313390768e+00,
          -1.0629556753876233e+00, 6.5337717411404939e-01,
          -1.5330105079480485e+00, -1.8159336617509962e+00,
          -7.3767395045153650e-01, -5.2686990285904500e-01,
          9.9855439758321751e-01, -6.6353627428857764e-01,
          -2.1417425511931301e+00, 1.5480800587007644e+00,
          -2.0049206780216111e+00, -1.9325253944804159e+00,
          4.9032219314661701e-02, -3.2290069265657905e+01,
          -2.1265640777981920e+00, -6.1021724507482746e+00,
          -2.0081981577333687e+00, 1.8626929070970959e+01,
          1.6891353494350450e+00, -1.2571564949887342e+00,
          2.1551328774641441e+00, -2.1600657062668347e+00,
          2.1318801247545296e+00, -7.0693772523141563e-01,
          -1.1647431150207781e+00, -1.7196827932419039e+00,
          2.3532063369791523e+01, 1.6057475863796367e+00,
          -1.8011442145725332e+00, 2.0005084834145146e+00,
          1.9913321817185208e+00, -2.1154561869113451e+00,
          -1.8642087643609977e+00, -2.4228699161021243e+00,
          1.3553490304664866e+00, 1.3081586689073529e+01,
          -7.7053688524519526e+00, 1.0773545228369830e+00,
          -5.9394768833251166e-01, -3.6673844340320323e+00,
          -1.9858077003765493e+00, 1.7863808357096629e+00,
          1.6173494916289348e+00, 1.2308434002851007e+01,
          -1.4597514903022664e+00, 3.5997973330210670e-01,
          -1.9769811223427345e+02, -1.4024119266083368e+01,
          2.3410112077079170e+01, -1.1547038150555438e+00,
          -1.2539654756609724e+00, 1.1597706960338345e+00,
          -1.2602444248688174e+00, -1.1822865201366328e+00,
          -1.2897386827190986e+00, -1.0144439807762731e+00,
          1.1678140978166560e+00, -1.3621918696892559e+00,
          -1.1429468530262639e+00, 1.2014739240011514e+00,
          -1.1225906688910774e+00, -1.1185186890854331e+00,
          9.5178373630214030e-01, -3.2489104733574614e+01,
          -1.0643027654873456e+00, 4.8916135964765388e+00,
          -1.1553820443109541e+00, 2.5869653294769694e+01,
          1.1516389726277543e+00, -1.2348439307019543e+00,
          1.0984292936232534e+00, 5.7794738891671149e-01,
          1.1842079195540434e+00, 1.2388240789088349e+00,
          -1.1315034850757510e+00, -1.3040285597525925e+00,
          2.2076237485851604e+00, 1.2045446818879793e+00,
          -1.1951663898791369e+00, 8.7904569752602724e-01,
          1.0944828284671662e+00, -1.2924991186024473e+00,
          -1.1352837337066837e+00, 9.8150288218669901e-01,
          1.2267107333836220e+00, 2.1665469350270210e+00,
          -6.5510442658242631e+00, 1.2402064062263620e+00,
          -1.1444285446391578e+00, -2.3380811382172526e+00,
          -1.0120060808037821e+00, 1.1586806369981599e+00,
          1.2712834142295282e+00, 4.5237929860644908e+00,
          -1.2145774452168876e+00, 1.1538845931341857e+00,
          -4.8941585076208590e+01, -8.0895993811905349e+00,
          -9.5509910347588924e+00, -1.0786312729693692e+00,
          -1.4004964476172546e+00, 5.8249194257497261e-01,
          -1.0853434370462127e+00, -8.3704499450831360e-01,
          -1.6622036851288033e+00, -1.2383284693253125e+00,
          1.4729163130856553e+00, -1.7153529138547878e+00,
          -5.4825427263959636e-01, 1.0348143806152525e+00,
          -7.4438220512066511e-01, -3.8800144768007955e-01,
          1.7682379858623078e+00, 5.3593332284756601e+00,
          -4.3259905906953089e-01, 7.4667954291136658e+00,
          -4.7072975768720116e-01, -2.1193842452334419e+01,
          9.8371720817209651e-01, -1.3351923667928063e+00,
          4.6089716257116026e-01, 2.8666425871852330e+00,
          4.9532703389505733e-01, 2.3482627389489172e+00,
          -4.9928357965987569e-01, -1.0561967632429605e+00,
          -1.4882969517160038e+01, 1.0910313096696735e+00,
          -7.1527448739374067e-01, 3.1902290828958413e-01,
          7.4942027057788629e-01, -2.6678562315623711e-01,
          -8.6134775642783301e-01, 8.6028546994827888e+00,
          1.1449245583658578e+00, -4.9844186068817988e+00,
          7.7501648468403213e+00, 1.3602604714781310e+00,
          -1.7088249781551514e+00, 6.6909931321146165e-01,
          -4.4975080833930287e-01, 7.9114267405218375e-01,
          1.0595944070633532e+00, -4.0388201698356729e+00,
          -1.1965559516380151e+00, 1.8115448978991293e+00,
          -2.5696166422480627e+02, -7.1834800648888377e+00,
          2.1601554294144307e+01, -1.1936473156756904e+00,
          -7.4892903916026854e-01, 3.1311585135602491e+00,
          -1.0833279002964680e+00, -1.4379940335948505e+00,
          -5.6791964892941527e-01, -2.9211643125917169e-01,
          7.3129871654782697e-01, -4.7851818417479552e-01,
          -1.5957028000087603e+00, 1.1231991489178210e+00,
          -1.5776528857435330e+00, -1.9177762449288731e+00,
          -3.3483700780806086e-01, -9.5668406739119327e-01,
          -1.7939970820605258e+00, 1.6019905591742891e+01,
          -1.8264756243625122e+00, -5.3656047120768804e+00,
          1.1051571550105930e+00, -8.2929272586713410e-01,
          1.6537808143391282e+00, -1.4757770953960383e+00,
          1.7645462887224561e+00, -3.1629363393966305e-02,
          -2.6478118372763868e+00, -1.1352615808035891e+00,
          -4.1071104735698549e+00, 1.1658182150126826e+00,
          -1.6425720560108799e+00, 1.7148167425676817e+00,
          1.5562626723208162e+00, -2.6837124413228404e+00,
          -1.4495197718937434e+00, 3.1038552923283609e+00,
          8.9936869266457398e-01, 1.6087774360802381e+01,
          -2.3866754342595780e+01, 5.2538528824784059e-01,
          -4.0602974690462740e-01, 4.0730773161204770e-01,
          -2.0336425363226067e+00, 1.3038452415293826e+00,
          1.1503730567912449e+00, 1.1664226309822437e+01,
          -9.1511870541540441e-01, 1.9394671153076523e-01,
          -1.6687868550042973e+02, -3.9087390494301384e+00,
          1.4961066656160021e+01, -9.9757724264339565e-01,
          -1.7606635001065662e+00, -7.9273977761106595e-01,
          -1.1197642082234203e+00, -5.6719859811494755e-01,
          -2.1569071756131968e+00, -2.3173517352074811e+00,
          1.8114731144496168e+00, -2.1667251734840822e+00,
          -8.4520812539547324e-02, 1.2120860524823012e+00,
          -2.2582577724167430e-01, 2.3437838913370174e-01,
          2.7910382094584509e+00, -4.8314985001847841e+00,
          3.0876870668010165e-01, 4.9245030842177941e+00,
          8.0996363449259368e-02, 5.8145786948164897e+01,
          8.4469354181852785e-01, -1.5648496461305288e+00,
          -2.0879996575895457e-01, 3.8571133673878535e+00,
          -3.2686559247160643e-02, 3.0374372146533131e+00,
          5.1414357496404284e-01, -9.4838468039770496e-01,
          3.4200126349972990e+00, 1.0662147468904448e+00,
          -1.6202299300850698e-01, -3.3015789344758906e-01,
          2.8497812207631179e-01, 6.0571461298223483e-01,
          -3.5933964925866363e-01, -1.3661030154094151e+00,
          1.4594812126613856e+00, -9.1606434905787548e+00,
          1.4310686749347257e+01, 1.8666351811012116e+00,
          -2.2587310769244215e+00, 3.4789711388907181e+00,
          4.1081511252087094e-01, 6.6026594490039914e-01,
          1.0162540915720000e+00, -6.0291327132428640e-01,
          -1.1996588587195485e+00, 2.3676904155755092e+00,
          -9.2416303280448773e+01, -4.9287513642914753e+00,
          3.1487423845695295e+00, -8.8553092957087043e-01,
          -1.1217117320722458e+00, 1.3788117604260353e+00,
          -9.9732737944066741e-01, -8.1992430687968465e-01,
          -1.2595944804361576e+00, -1.1873472610482303e+00,
          1.1283362265501564e+00, -1.1592434744916660e+00,
          -7.5430383943234147e-01, 1.0186238388575872e+00,
          -8.1830927801946551e-01, -7.0135116067832659e-01,
          1.4917750289309217e+00, -2.5302194172717968e+01,
          -6.5043342342680988e-01, 2.5970427367644128e+01,
          -6.4701136556101191e-01, 1.4167843093497101e+00,
          9.2811891857494877e-01, -1.0031493960698161e+00,
          6.8688705595522870e-01, 2.0694555541964275e+00,
          7.9874941131184907e-01, 1.7269214458622686e+00,
          -1.0474942222156256e+00, -9.2748035295676323e-01,
          -5.5271934910101772e-01, 9.6164075640851054e-01,
          -8.1813576253017328e-01, 5.7684102246112834e-01,
          7.2258830996198786e-01, -9.3888439822521186e-01,
          -8.7859704718964682e-01, -1.7207366677009992e+00,
          9.5813358526524917e-01, -1.6066430944358839e+01,
          1.3272437695826795e+01, 1.1320671539425979e+00,
          -1.2867628114711778e+00, -2.1589952504235939e+00,
          -6.5856484971217544e-01, 9.2504309716695299e-01,
          8.2410583801984805e-01, -7.5968301087031476e+00,
          -1.0102973946687175e+00, 1.2795422228014379e+00,
          -3.7652412583107122e+02, 6.3269450245554681e+00,
          3.9502840982367191e+00, -1.0169202888884454e+00,
          -1.0308616248258309e+00, 2.1212778316205911e+00,
          -9.7227230178583313e-01, -1.0754090498826716e+00,
          -1.0131655189439159e+00, -1.5108414802180328e+00,
          1.1400510508304638e+00, -1.0339380157910587e+00,
          -8.7215866358510941e-01, 1.0509014200184459e+00,
          -9.4439424658583704e-01, -1.1231792954188220e+00,
          1.2964499602989197e+00, 9.9655491984628082e+00,
          -9.2337365796193427e-01, -3.9370567453313763e+00,
          -9.5003662197870720e-01, -5.7276823117722042e-01,
          9.4315243948034766e-01, -1.0503899907481520e+00,
          7.5190402638854992e-01, 2.0400560279378235e+00,
          1.0578029936999878e+00, 1.1766202547132920e+00,
          -1.9365686517314387e+00, -9.6160490886373995e-01,
          -7.1032931817088167e+00, 9.1276934359632100e-01,
          -1.1607090107651146e+00, 8.3097085530889458e-01,
          8.9865588220683534e-01, -1.4752228529650040e+00,
          -1.0141251065182402e+00, -4.1635694216197781e+00,
          9.7978166043732851e-01, 1.7102522733023249e+00,
          -1.8176004907768181e+01, 9.9370117809289027e-01,
          -1.1076941442647947e+00, -1.5432515321061555e+00,
          -1.1834183258000663e+00, 1.0317932216220207e+00,
          9.9716968476935386e-01, 1.7775632871187572e+01,
          -9.1708274935724488e-01, 1.1004480968714243e+00,
          -3.3030255673876621e+02, -1.7107038590737864e+00,
          3.3525364990950677e+00, -8.6607283788356348e-01,
          -7.2634849472867247e-01, 1.3816435665088866e+00,
          -8.4103617942269282e-01, -7.7108842943192224e-01,
          -6.4386429457050520e-01, -7.4373836812250760e-01,
          6.8515005030465992e-01, -6.4231200074194572e-01,
          -6.5382273840253735e-01, 7.9625302020737510e-01,
          -6.1339401758415968e-01, -7.3729729485060125e-01,
          2.1931128894256144e-01, -8.6259501642925844e+00,
          -6.1321586929504002e-01, 6.9855320133931906e+00,
          -7.4396312003175402e-01, -3.2214909274178329e+00,
          8.0273368382724786e-01, -7.2613020820462437e-01,
          4.1985734023843263e-01, -8.1217206556616428e-01,
          6.4696519738681202e-01, 2.8511488624352566e-01,
          -1.3040904129742561e+00, -7.9423392632438439e-01,
          2.2522269029264113e+00, 7.0960336321818274e-01,
          -7.6070527195252424e-01, 4.8011628957628477e-01,
          7.2847701354905658e-01, -5.6320028683969425e-01,
          -7.2028818759861779e-01, 1.2155050375647937e+01,
          7.6529874659237285e-01, 1.4195376215190491e+01,
          4.4969505910655592e+00, 6.5523382982851264e-01,
          -5.2814740781419900e-01, 5.1067455309192651e+00,
          -6.1721889186158430e-01, 8.0559439163627611e-01,
          8.1539584629089945e-01, 4.8577055127488125e+00,
          -5.7999295837597376e-01, 4.9755698946694205e-01,
          -2.7143901169202110e+02, 2.3520550849172777e+00,
          9.3026914078595340e+00, -1.2574459241713782e+00,
          -1.3274834237993622e+00, 2.2324632256844446e+00,
          -1.2283006369974294e+00, -1.1652867090667987e+00,
          -1.3459244457956498e+00, -1.7020674960452238e+00,
          1.4416773501413589e+00, -1.4358987254484736e+00,
          -1.1243244657625520e+00, 1.2060982655635464e+00,
          -1.1099556240747603e+00, -1.2256067549059027e+00,
          1.7403632160342155e+00, -1.1929101321722293e+01,
          -1.1821633251511363e+00, 3.7608031040013628e+00,
          -1.1325363048385899e+00, 1.1576484305468101e+01,
          1.2546313006459002e+00, -1.3491015167420723e+00,
          1.1420244577553151e+00, 2.4377923295803918e+00,
          1.2250088671250572e+00, 1.8407808719621497e+00,
          -1.6667112643190911e+00, -1.1615420297374515e+00,
          -1.1058995544602871e+01, 1.2347876184058451e+00,
          -1.3092650025292449e+00, 1.1922189158219723e+00,
          1.0931432274376980e+00, -1.8189812632064191e+00,
          -1.2242503990404288e+00, -5.4853864140703035e+00,
          1.3228258492361897e+00, 5.2029224131166663e+00,
          -1.3299852441891767e+01, 1.3597723118906624e+00,
          -1.4076612455092830e+00, -1.0978536193117023e+00,
          -1.3714826582113571e+00, 1.1774711548775194e+00,
          1.1843400312333237e+00, 1.1835478093291478e+01,
          -1.1803211547864889e+00, 1.5301096111082091e+00,
          -1.7639309325942691e+02, 1.3168839057868990e+01,
          -1.1895715017572769e+01, -6.6060722740697231e-01,
          -1.2020383114976946e-01, 5.5113633527153338e-01,
          -6.6422275711696854e-01, -9.8760071426717755e-01,
          2.7743683191946805e-01, 4.4107757178738403e-02,
          1.4169152632737889e-01, 4.1886626983993352e-01,
          -9.3611734151528969e-01, 5.5362319217564282e-01,
          -8.2500376295742217e-01, -1.0539526977953830e+00,
          -6.8892651517907078e-01, -4.4029071388006917e+00,
          -9.1499096353131448e-01, 7.2142661790735430e+00,
          -1.0278234470162124e+00, -9.8165907682994522e+00,
          6.5268982859156566e-01, -2.2765215395596569e-01,
          9.2984902173473605e-01, -2.9241012373993382e+00,
          9.6441822440852754e-01, -1.7835356900239918e+00,
          -7.3093879481621793e-01, -6.9555580754363155e-01,
          -1.0936180436987527e+01, 7.3277039466835381e-01,
          -1.1256163386592528e+00, 9.1154532766993157e-01,
          1.0745481639949654e+00, -9.8716440614202561e-01,
          -7.9052003312919839e-01, -1.1213427706067952e+01,
          4.7688538698451066e-01, -2.1206227094797026e+00,
          -1.4605579392934898e+00, 7.4249666457676486e-02,
          3.8209245976702289e-01, -1.1180016150052376e+00,
          -9.3927587423089798e-01, 8.9348932005011472e-01,
          5.7831217100247756e-01, -1.5992230419725557e+01,
          -4.5479285354096111e-01, -5.9734773868464708e-01,
          -1.1766444038495857e+02, -4.4637708928153348e+00,
          -1.0546456015468578e+01, -7.1931864703827064e-01,
          -6.1749637514904498e-01, 1.5403021365693865e+00,
          -7.1315812007751012e-01, -9.2342930866528494e-01,
          -6.5828107116658607e-01, -5.0534201446995353e-01,
          5.6738712839014138e-01, -6.4184127760916865e-01,
          -9.7629515051068638e-01, 7.7151982789003815e-01,
          -7.9790796664274788e-01, -9.8171381933605406e-01,
          6.6016062427629896e-01, 2.4254018419554775e+01,
          -9.8895576947020691e-01, 7.0825386434610111e+00,
          -1.0445681193782785e+00, 5.3926083592894614e+00,
          8.0297889789130139e-01, -6.8947017393007304e-01,
          7.3238261120489034e-01, 1.0851193847189549e+00,
          9.4028804689066536e-01, 7.0943762834581103e-01,
          -1.5769601202991330e+00, -7.7621381921013954e-01,
          -9.1100118002603931e+00, 7.1820288520325581e-01,
          -1.0258646620321046e+00, 8.8491598266989735e-01,
          9.6729870760389203e-01, -9.8954980411846638e-01,
          -7.5343985283204096e-01, 1.1132803823787462e+01,
          7.1605477582370225e-01, -1.1026377825965195e+01,
          3.5394066759131650e+00, 6.3235867675967161e-01,
          -7.1194938679223707e-01, 4.6564489063655152e+00,
          -1.0385173984696683e+00, 9.1736167749085196e-01,
          8.1878587418553972e-01, 4.4723274259796373e+00,
          -7.5031062961953088e-01, 6.8382356926523602e-01,
          -9.4297201577047031e+02, -4.9634664861926945e+00,
          -1.7481340804250625e+01, -4.6286265707824628e+00,
          -4.5601771579363763e+00, 5.3051852076234809e+00,
          -4.5851126044824984e+00, -4.5652105522492619e+00,
          -4.5149806914206350e+00, -5.1235548727515141e+00,
          4.6429353945649945e+00, -4.4504549859734404e+00,
          -4.7001023722680255e+00, 4.6425022072834983e+00,
          -4.7779112816987057e+00, -4.8796103102201336e+00,
          4.5626788752129031e+00, 7.1357829113611493e-01,
          -4.8825223973044700e+00, 1.0735119493084628e+00,
          -4.7600669125582691e+00, 3.0052121385133690e+00,
          4.5800806606486368e+00, -4.5512055742842357e+00,
          4.8723213598697477e+00, 2.9786511711272867e+00,
          4.7605958405614475e+00, 4.5183661258739756e+00,
          -5.3077067894873284e+00, -4.5194091229845625e+00,
          -1.6730379070876918e+01, 4.5524427091062680e+00,
          -4.6991766732521913e+00, 4.9505690875139683e+00,
          4.6221222502129429e+00, -4.8070771459147128e+00,
          -4.8083519912163624e+00, 3.0478881919191401e+00,
          4.6100008652084750e+00, -3.7307881654794485e+01,
          1.3709208480840031e+01, 4.5375670854548114e+00,
          -4.5229200870337705e+00, 2.0572479346689692e+00,
          -4.9116901909526467e+00, 4.6477604811087572e+00,
          4.5514092991573403e+00, -1.2882224194963316e+01,
          -4.6170091944529288e+00, 4.6205021511878428e+00 ]
      - [ 1.4742435812299075e+00, 1.7074633700702410e+01,
          9.9604622647829508e+00, 5.1897301949691810e-01,
          1.6090676427195527e+00, 3.3837964037264254e+00,
          7.1884443199602621e-01, 2.7012156169566648e-01,
          2.2202014392916816e+00, 1.2558815380685653e+00,
          -1.4666734623572262e+00, 2.2868498570001909e+00,
          -4.2060999983964859e-01, -7.2958267207510064e-01,
          -3.4079139437215866e-01, -1.2920225229448863e+00,
          -2.6443333786228624e+00, 5.9755329484505681e+00,
          -1.1457361350935376e+00, 1.0128397260790852e+01,
          -7.4593624138774683e-01, -7.7515584066372014e+00,
          -6.8898969276897604e-01, 1.4009991255748526e+00,
          1.1155150136062129e+00, -4.6830499594206811e+00,
          6.8705623761729639e-01, -3.1250083512132796e+00,
          -2.7133690486272619e+00, 8.6358393214097195e-01,
          -8.9552997768299853e+00, -8.4953713612688064e-01,
          -3.8058930314309064e-01, 1.6049422134653171e+00,
          -3.7474137799579747e-03, -2.3313551326557849e+00,
          -3.6049760101623229e-01, -9.5007224251647866e+00,
          -1.1514321481613397e+00, 1.7433911103583469e+01,
          8.3378212658716819e+00, -1.7568985270612552e+00,
          2.1646274825555474e+00, 7.5440160742784030e+00,
          -1.4586515329940288e+00, -3.4138556191415120e-01,
          -8.7751658782663644e-01, -8.0885299499242418e+00,
          1.1856043319310028e+00, -2.4013982456104719e+00,
          -2.3895194610993342e+00 ]
