%YAML:1.0
my_nn: !!opencv-ml-ann-mlp
   layer_sizes: !!opencv-matrix
      rows: 1
      cols: 3
      dt: i
      data: [ 24, 10, 1 ]
   activation_function: GAUSSIAN
   f_param1: 5.9999999999999998e-01
   f_param2: 1.
   min_val: 5.0000000000000003e-02
   max_val: 1.
   min_val1: 2.0000000000000000e-02
   max_val1: 1.
   training_params:
      train_method: BACKPROP
      dw_scale: 1.0000000000000001e-01
      moment_scale: 1.0000000000000001e-01
      term_criteria: { epsilon:1.0000000116860974e-07, iterations:200 }
   input_scale: [ 1., 0., 1., 0., 1., 0., 1., 0., 1., 0., 1., 0., 1., 0.,
       1., 0., 1., 0., 1., 0., 1., 0., 1., 0., 1., 0., 1., 0., 1., 0.,
       1., 0., 1., 0., 1., 0., 1., 0., 1., 0., 1., 0., 1., 0., 1., 0.,
       1., 0. ]
   output_scale: [ 2.1052631578947367e+00, -1.1052631578947367e+00 ]
   inv_output_scale: [ 4.7499999999999998e-01, 5.2500000000000002e-01 ]
   weights:
      - [ 7.8033917306821046e+00, -2.4755134592218741e-02,
          -1.5076136048590671e+00, 2.9908541188420940e-01,
          2.0093556769263543e+00, 9.5659477313631891e-02,
          2.9056177549592888e+00, -6.4709476751232831e-01,
          5.4246659790500997e+00, -1.5009655160983242e+00,
          -3.3979489389760671e+00, -9.3624672280149049e-03,
          9.6075679914420370e-02, 5.1639283580308815e-01,
          -2.0415475847094751e+00, -2.8743758047389401e-01,
          2.7233009906173251e+00, -6.0697050528897245e-01,
          -5.4729237891550397e-01, -1.5528357348121416e-01,
          9.4162050358687637e+00, 3.1512731268798791e-02,
          2.2438942587173987e+00, -1.1129614021838334e+00,
          -1.0614063225427648e+00, -5.0516569322724886e-02,
          -8.7049513323262651e-01, -1.8718361355403466e+00,
          -2.8071484885359945e+00, -9.6868843017045547e-01,
          6.6877033937441306e+00, -8.7398511965137513e-03,
          8.0659835896988696e-01, 8.0975203858007239e-01,
          8.1265728878236146e-02, 2.1952869797476282e-01,
          -1.1078977671879937e+00, 1.0469354769644967e+00,
          8.2565014855103702e-01, 7.2561848382274685e-01,
          6.3165020439930428e+00, 5.3787118798165973e-02,
          -5.5761633727540683e-01, 1.1203365304639270e+00,
          -3.7958489505886988e+00, 1.8548018080459305e-01,
          -1.9183411859382884e+00, 5.7674604148696662e-01,
          -1.9392919874496490e+00, -8.8965336411929041e-01,
          3.4029484276193900e+00, -2.9235102693386170e-02,
          -1.9890776980303400e+00, -8.1909202947251000e-02,
          2.0496194832354862e+00, 1.2618416070119681e-01,
          -1.9320411207692537e-01, -3.9422994256122434e-01,
          1.7545210286958264e+00, 6.7715637292650555e-01,
          4.3144041566884468e+00, -3.8736310173106490e-02,
          -1.5053345406215274e-01, 2.5606054862606080e+00,
          4.9717060868462913e-02, 1.3190690469364286e-01,
          -1.4111543559387347e+00, -1.4874392601985069e+00,
          3.8373099486758405e-01, -1.1295339144511209e+00,
          6.1037495988721668e-01, -5.9256508746591274e-02,
          -1.6801884351788638e+00, 2.2831242383362689e+00,
          -2.4448989824202232e+00, -6.9138365967999424e-02,
          -2.6550978944851562e+00, 5.0919637656101724e+00,
          3.8889872041110531e+00, 1.4832523986001154e+00,
          6.3188778622891240e-01, -5.6652158866488209e-02,
          4.7956921492620730e-01, 1.9672040876636967e+00,
          5.6054189101089080e-01, 4.9657623969518776e-02,
          -6.7782709327196110e-03, -3.6407415772965890e+00,
          1.8569710970596048e-01, 9.2235700087273997e-01,
          -8.0536048471221100e-01, -4.9390889802919551e-02,
          -7.0788998313131501e-01, 6.3229864048440632e-01,
          -3.9592095777089167e+00, -5.7729800714305148e-02,
          -3.1856887898683413e+00, -7.5422790786144649e+00,
          6.6648865929061840e-01, -1.6130457411843862e+00,
          -2.5223553615209221e-01, -2.8135843403525656e-03,
          -8.3624299163282401e-01, 1.6289154355865348e-02,
          -7.0414824412737440e+00, 2.4224942804108229e-01,
          -3.0523748779530187e-02, -2.7377609711114990e+00,
          -1.4433950668173726e-01, 2.4379485875741134e+00,
          1.5619552408897344e+00, -1.1439437170486453e-02,
          -6.8480274085962833e-01, 2.1379698353700460e+00,
          3.2304866333743769e+00, 1.5184485111005789e-02,
          -8.0083546872781390e+00, -3.4932312003929509e+00,
          9.8947361703254644e-01, -1.6089773526496906e-01,
          -1.6898475976038678e+00, -7.9674864469066378e-03,
          -2.0642434727878464e-01, 1.2906684948804243e+00,
          3.4865842784417911e+00, -2.6093727443210241e-01,
          -8.6466678748789649e-01, -8.9637754914856433e+00,
          5.4668288277059514e+00, 1.6796464940000286e+00,
          -2.9223052008028976e+00, -4.1367166947848949e-02,
          -3.9835356347883005e-01, -1.1094429790009610e+00,
          -3.3349822028750045e+00, -1.9554681058593612e-01,
          -1.7759214264622236e-01, -1.3563041370780007e+00,
          -1.4446877522903645e+00, -4.7938941734027485e-01,
          -1.2414019299868401e-01, 4.4118673799327726e-03,
          2.7945112169093096e+00, 1.5347359781570789e+00,
          9.6824430429970618e-02, 7.5344255619599981e-02,
          -1.3354435497405637e-01, 1.8509077991859607e-01,
          2.8290683099916530e-01, -1.3814285943006890e+00,
          -1.2962974852441480e+00, 5.1369869691401386e-02,
          -8.6536206979730901e-01, -5.9378686881473108e-01,
          1.0666836724039017e+00, -4.7860594832436730e-02,
          -1.6068144654124195e+00, 1.3854415900540555e+00,
          -1.4729592865803527e+00, -9.8086925419036175e-01,
          7.7473561557799353e-01, 3.5628884487892171e-02,
          1.9529642879816311e+00, 1.9316861789151936e+00,
          2.1108737709186549e+00, 2.3158142593390457e-01,
          -2.1756917291872380e-01, 1.3607799441617690e+00,
          -3.1548192646847650e+00, 9.9888307033462087e-01,
          -2.0301012806520400e+00, 3.8204465894665189e-02,
          1.2439409935714907e+00, 1.2988623228783678e+00,
          -4.2467711539188917e+00, 8.9118341486542865e-02,
          -5.0899853116312543e-01, 2.2061476029785054e+00,
          -2.2404074555453484e+00, -9.9849132055607814e-01,
          -1.0520822900529461e+00, 7.0586429848949153e-02,
          -1.8048919214715216e+00, 1.7431199833981874e+00,
          2.1116012569839232e-01, 2.1928045377020774e-01,
          -7.6472568291780707e-01, 9.0590940556120660e+00,
          -3.0965378733217666e+00, -1.9481841963385702e-01,
          -2.1285891722010017e+00, -4.9628599295490530e-02,
          3.7763246355335989e+00, 4.2012338945349939e+00,
          -2.2687460042560810e+00, 1.7676076196332957e-01,
          9.9198605600929735e-01, 6.5577258718672979e+00,
          1.1138408228935526e+00, 1.6240752652781918e+00,
          8.7857733441165820e-01, 5.0576898370335237e-02,
          -3.3432139674527472e+00, -1.7562806275517981e-01,
          -1.1801774713105111e-01, 3.5708948182712430e-01,
          4.2642928250031048e-01, 3.4106573869544348e+00,
          -2.5000624824553945e+00, -1.9708948066207665e+00,
          4.2808942851851066e+00, 4.9283829785946219e-02,
          1.7386121790826692e+00, 7.7795112577396641e-01,
          -4.2122671898160613e+00, 1.1247254299220107e-01,
          4.3811372267150506e-01, 8.3447781395720155e-01,
          -6.1716097012561366e-01, 9.6283542094287478e-01,
          6.7150563303883484e+00, 4.3742819335981606e-02,
          -6.0876662888282942e+00, -1.3124362844280046e+00,
          2.0303849927732508e-02, 1.3614018081147342e-01,
          -2.7212984531243434e+00, -2.5213826576167248e-01,
          -2.7723035325232983e+00, -1.5721072599005457e+00,
          6.0134161347090656e+00, 7.0291960746851775e-02,
          -1.5967477929134362e+00, 2.3225393251112934e+00,
          -1.9129183833943344e+00, 2.5542158010100113e-01,
          -4.5750561403343664e+00, 1.2597659147288647e+01,
          2.0722756940302975e+00, 1.7696020234832079e+00,
          1.0311811980111475e+01, 1.8535525144379919e-04,
          4.8239493300942909e-01, -1.6217722510256214e+00,
          2.8893913987435220e+00, -5.2999542004723163e-02,
          -1.4631511588048587e-01, 2.0705980310633825e+00,
          -3.7956246704934307e+00, 1.0915802801119450e+00 ]
      - [ -1.3663215497005448e+00, 3.6788628245697272e-02,
          1.4344816951216053e+00, 1.1929175904251386e+00,
          -1.4293566690813968e+00, 6.8439362629477019e-01,
          -1.0080538896243769e+00, -1.6055085972672469e+00,
          -1.7902100018264662e+00, -1.2542860181584330e+00,
          -9.9187552366477541e-02 ]
