%YAML:1.0
my_nn: !!opencv-ml-ann-mlp
   layer_sizes: !!opencv-matrix
      rows: 1
      cols: 3
      dt: i
      data: [ 24, 50, 1 ]
   activation_function: SIGMOID_SYM
   f_param1: 5.9999999999999998e-01
   f_param2: 1.
   min_val: -9.4999999999999996e-01
   max_val: 9.4999999999999996e-01
   min_val1: -9.7999999999999998e-01
   max_val1: 9.7999999999999998e-01
   training_params:
      train_method: BACKPROP
      dw_scale: 1.0000000000000001e-01
      moment_scale: 1.0000000000000001e-01
      term_criteria: { epsilon:1.0000000116860974e-07, iterations:800 }
   input_scale: [ 1., 0., 1., 0., 1., 0., 1., 0., 1., 0., 1., 0., 1., 0.,
       1., 0., 1., 0., 1., 0., 1., 0., 1., 0., 1., 0., 1., 0., 1., 0.,
       1., 0., 1., 0., 1., 0., 1., 0., 1., 0., 1., 0., 1., 0., 1., 0.,
       1., 0. ]
   output_scale: [ 1.0526315789473684e+00, 0. ]
   inv_output_scale: [ 9.4999999999999996e-01, 0. ]
   weights:
      - [ -5.0417797678286883e+02, 3.2663607667873293e+00,
          3.0476099866983763e+00, -3.0674537896965313e+00,
          -3.4193131434615593e+00, 3.0584520502268355e+00,
          4.1861187298647797e+00, 1.0649773848807410e+01,
          -3.2390179601165157e+00, 1.2120067625635812e+01,
          -3.4056103137344000e+00, 5.8704391322443010e+00,
          -3.2369982783875879e+00, -4.0139479448004964e+00,
          7.6343095780153343e+00, -3.4277526190267387e+00,
          8.4707454250222316e+00, 3.0868841453402953e+00,
          -1.2168543619378758e+00, -3.2356921107808265e+00,
          3.6677375289742526e+00, -3.3874311876200709e+00,
          -2.9858123024667456e+00, -3.6233648200004831e+00,
          -2.8830271863503141e+00, -3.4728490364407705e+00,
          -3.2703449429886926e+00, -3.6127784640046468e+00,
          6.1282917304525135e+00, -3.2414251349612235e+00,
          -3.7277669688796102e+00, -5.4204128882613292e+00,
          -3.4670308776494569e+00, -1.2432051436524398e+01,
          -1.7186139221113610e+01, -3.5669691278660034e+00,
          3.8120837451335357e+00, 3.3502877022993194e+00,
          -1.8478440815862250e+01, -3.3472484749879610e+00,
          -3.7972539130068403e+00, -3.4335911420212506e+00,
          -1.0017420133440650e+01, -1.8687914668154235e-01,
          3.4067316003293295e+00, -3.3660880499359633e+00,
          -8.9519926866517494e+00, -3.1908134052244566e+00,
          -3.7798633506393342e+00, 3.4942777774623113e+00,
          -3.9528912905580904e+02, 2.8753599134132592e+00,
          2.4649856929981153e+00, -2.5994206280807677e+00,
          -2.8714679258670568e+00, 2.0859187612864414e+00,
          3.3994011299080737e+00, -2.0988451129809036e+01,
          -2.7855694978679080e+00, 4.2334729775780033e+00,
          -2.6043815459586455e+00, 1.0026994564997137e+01,
          -2.7321500592848165e+00, -3.0535268154458644e+00,
          -9.6713486706393219e+00, -2.8751024080079772e+00,
          4.1323810717391007e-01, 2.1289153178569835e+00,
          5.0748713697539749e-01, -2.8666773205861134e+00,
          4.7625515623938268e+00, -2.9071178444956391e+00,
          -2.3049178921957152e+00, -1.8056858098264197e+00,
          -2.1229290968063350e+00, -2.2710136703595007e+00,
          -2.7571481777187157e+00, -2.8108141152776929e+00,
          7.6491002296278987e-01, -2.7198866034332938e+00,
          -2.9657796644440824e+00, -4.6416819593156156e+00,
          -2.8761644165090527e+00, 6.3799651486650708e+00,
          -1.5586670460299601e+01, -2.9233335672806069e+00,
          2.6236674785472549e+00, 2.7911819542988403e+00,
          -6.4926884876504918e+00, -2.9114366847166844e+00,
          3.0274450851428361e+00, -2.8974936875148778e+00,
          1.8254453022322039e+00, 1.6751617771862191e+00,
          2.8485495741738611e+00, -2.8495693791806107e+00,
          4.0812455498425608e+00, -2.7130802171969077e+00,
          -3.1160522250890059e+00, 3.1744934357146297e+00,
          -2.4016942747093537e+02, 1.8119007671682408e+00,
          1.4108557115763041e+00, -1.2457399907727751e+00,
          -1.9414534743487470e+00, 1.6104029490366203e+00,
          2.7464595050879175e+00, 9.8196000607518759e+00,
          -1.6773141923480004e+00, -1.3306461377535141e+01,
          -1.1103738891260539e+00, -1.2866160343698382e+01,
          -1.5546987534043031e+00, -2.5824901102231905e+00,
          -1.1172307779964452e+01, -1.9431057103251570e+00,
          4.7219841583827860e+00, 1.7426740182479192e+00,
          -7.1046326834731888e+00, -1.6781664132772878e+00,
          2.3334153262282080e+00, -1.6560064327464734e+00,
          -1.3892204142501567e+00, -2.0117768227122288e+00,
          -1.5572651133976745e+00, -1.6197190110423425e+00,
          -1.6410997109906154e+00, -1.2354429448172384e+00,
          -2.3768444380036553e+00, -1.7643014586673393e+00,
          -2.2428900131381906e+00, -1.6223321700174489e+00,
          -2.0771558655195510e+00, 4.8423905332430612e+00,
          1.8068758358223931e+01, -2.1493339699984819e+00,
          3.8831572459343970e+00, 1.7788361432066089e+00,
          -8.6646139042545993e+00, -1.8055927056960879e+00,
          -1.3799999721208327e+00, -1.8147388018671138e+00,
          9.8214060779788070e+00, 6.3400463226616166e+00,
          1.8785332438914395e+00, -1.9767070189843641e+00,
          -9.4986927222281743e+00, -1.1571991964277064e+00,
          -2.9890183520418385e+00, 2.2188292124889260e+00,
          -1.3036522754842110e+02, 8.1991819914680852e-01,
          5.8521321989080566e-01, -6.9430603283310999e-01,
          -7.3249349024878341e-01, 5.2494692949569588e-01,
          6.7790594473877619e-01, 5.5935249184814877e+00,
          -7.2282838463694399e-01, -8.5391157301527283e+00,
          -5.8474137112947877e-01, -1.7220038918499239e+00,
          -6.8420189914524898e-01, -7.4480573147155860e-01,
          -3.7481557964099634e+00, -7.9965649243268866e-01,
          3.6586972564737010e+00, 5.7874877926647550e-01,
          -3.6880721424989433e+00, -7.6830685569918000e-01,
          4.2231408244845209e-01, -7.1433920133764406e-01,
          -6.1846911972203633e-01, 5.1933305143911594e+00,
          -6.5351236350142827e-01, -6.6369361796900805e-01,
          -7.6264842602059568e-01, -4.3821507628590611e-01,
          3.5151999928238471e+00, -7.8786638184227498e-01,
          -7.6724470673264444e-01, 9.0838560897312881e-01,
          -8.2553990520938814e-01, -5.6000832878327111e+00,
          -4.0746916599798269e+00, -8.2928604416275753e-01,
          1.9552272487093509e+00, 7.0609262605711998e-01,
          5.4502807039812682e+00, -7.0990909768842847e-01,
          -8.5356856488142174e+00, -7.4975763176998189e-01,
          -1.4539147906735197e+00, -1.0039683647518990e+01,
          8.2136369002113752e-01, -7.3571650901095687e-01,
          -6.4230420352362225e+00, -4.7205524867265608e-01,
          -1.0067146334385442e+00, 7.5760729341974842e-01,
          -1.5531747007017654e+02, 8.0463114805789981e-01,
          1.0284338813459586e+00, -9.1839337901017581e-01,
          -8.0935493310362361e-01, 1.2017191653949721e+00,
          4.7609676664018497e-01, -1.1486866473668160e+01,
          -7.6124505466570069e-01, -3.1609801659400011e-01,
          -1.0800140874719573e+00, 7.4596848464854713e+00,
          -9.0254138224699609e-01, -6.0494974363249643e-01,
          -2.2645972575966447e+00, -8.1581028639544928e-01,
          4.9439537457992433e+00, 1.4265271444746859e+00,
          -6.6532166853593786e+00, -8.7690618532770992e-01,
          4.8242941083111957e-01, -8.3841064859259196e-01,
          -1.0367591709993447e+00, -1.2110842770785273e-01,
          -1.1655167605242625e+00, -1.3992229148227284e+00,
          -8.6245641172359422e-01, -9.5429378056351455e-01,
          1.2500425548897944e+00, -7.3275313709615375e-01,
          -6.7442958651657392e-01, -2.6973680040802134e-01,
          -7.2971527618957333e-01, 6.0677851446528752e-01,
          -9.5019900736099476e+00, -6.1885341005620476e-01,
          9.1930249525821750e-01, 6.8143526192017623e-01,
          1.5397300640406559e+01, -7.0395519205230850e-01,
          -9.9109561347694142e-01, -7.4513175324237579e-01,
          -9.7160801817641591e+00, -1.6034493369161552e+01,
          7.2592988325029939e-01, -7.9503565734792803e-01,
          -2.3368618006713180e+00, -1.0739929888535769e+00,
          -6.6090650981176058e-01, 6.3299688980036417e-01,
          -1.3066968867927156e+02, 6.5067445983983685e-01,
          1.0670405106462815e+00, -9.5474076543230069e-01,
          -6.3505619986399120e-01, 8.6126694835315454e-01,
          -6.5844089261309624e-01, 7.9751761827218646e+00,
          -8.9666477926079491e-01, 1.0691074712501592e+01,
          -9.6851774202020402e-01, -2.7726658341788082e+00,
          -8.7838137062953403e-01, 3.6981928362473243e-02,
          -5.8729947499867274e-01, -7.0589570758448983e-01,
          1.0842863030982732e+01, 8.1812092261301905e-01,
          1.2449344796934838e+00, -8.5121201513742073e-01,
          -1.1682408961335919e+00, -8.6182604625737824e-01,
          -9.2174137966879732e-01, -1.8205558004017330e+00,
          -9.1567948268428589e-01, -4.3970018319789772e-01,
          -8.4630485266896971e-01, -7.5211965659392388e-01,
          2.4296347922397454e+00, -9.0870563861474496e-01,
          -3.4235933063617557e-01, 3.2126675814840784e+00,
          -4.6670552238776941e-01, 8.3746471944380598e+00,
          1.4268625942153623e+00, -4.0459320046276392e-01,
          4.1973230980170539e-01, 6.9334197318554391e-01,
          2.4540262301343509e+00, -6.7510220034768254e-01,
          1.2526446646700897e+00, -6.8651836871566485e-01,
          -6.4909950539691419e-01, -1.7030617905982240e+01,
          7.3622847891820464e-01, -7.1283762342207679e-01,
          -3.5159551303473018e+00, -1.0039965504054054e+00,
          2.0252314411490707e-01, 2.6981523610216890e-01,
          -1.6827939276569521e+02, 9.2700109427206567e-01,
          1.0659996233549889e+00, -1.0032457434691011e+00,
          -9.7331396057551400e-01, 1.2617044648177764e+00,
          1.2604457236389250e+00, -7.0361847799364075e+00,
          -8.3811128307766403e-01, 1.4740362273423630e+01,
          -1.0587540828846573e+00, -2.7590260254824641e+00,
          -9.1856973349306414e-01, -1.0685603909765664e+00,
          -4.7026247653527271e+00, -8.9081403174170903e-01,
          -1.0009580528194402e+00, 1.1364416454011246e+00,
          -1.0534193371484490e+01, -9.6940867483928095e-01,
          1.6199389649505289e+00, -9.7156152531265194e-01,
          -9.6100705088185789e-01, -3.2389659673198881e+00,
          -1.0402054716724034e+00, -1.3037238269334073e+00,
          -9.2195067091952232e-01, -9.6518937772358682e-01,
          -3.9400064510935500e+00, -8.6570012222869497e-01,
          -8.8039564657502190e-01, -2.0439582987875982e+00,
          -9.3156102788422035e-01, 3.3335412728927767e+00,
          -8.6595417641599450e+00, -9.3018061051554046e-01,
          1.0605516911207162e+00, 7.8889304437041330e-01,
          1.0612580585812442e+01, -8.6122549514549473e-01,
          1.8556539859596506e+00, -8.2376820654732497e-01,
          -7.4578203234701350e+00, -1.8308326413804021e+01,
          9.0391682366864212e-01, -8.5036592932209776e-01,
          4.8294551529836003e+00, -9.7031416974240758e-01,
          -1.2057904537675428e+00, 9.3001428888657034e-01,
          -9.7621588185585424e+01, 6.0163898451096987e-01,
          2.5632908491960094e-01, -1.8294092109842378e-01,
          -6.2671312131276868e-01, 3.3679174461297984e-01,
          9.4690754437811653e-01, -1.2640161166217503e+01,
          -3.6864869793680205e-01, -2.2343528743292909e-01,
          -2.2380763946434390e-01, 1.1768391840460938e+01,
          -3.8855769045686578e-01, -8.6827769367085939e-01,
          -4.1824079905472233e+00, -6.4122171850090948e-01,
          1.9801882322065985e+00, 3.5476565011896433e-01,
          1.7927542967278316e+00, -4.1462603665061343e-01,
          9.9172662686378110e-01, -5.0561986797642200e-01,
          -1.2777088870496797e-01, 1.1166823786529109e+01,
          -1.7787020107292020e-01, -9.3787356945602762e-01,
          -4.6838751553821684e-01, -4.6866668059211852e-01,
          5.2399040142395057e+00, -4.6904095250324979e-01,
          -7.2654054447287941e-01, -1.2552076552082755e-01,
          -6.5957314103335929e-01, -4.7127036465342762e+00,
          -3.1199941578830637e+00, -7.7242394339373666e-01,
          2.2665811580021500e+00, 4.5838565307559809e-01,
          -1.1935824076631707e+01, -6.0839715463975530e-01,
          -6.1657859666331918e+00, -6.0527404078347313e-01,
          -7.9787387287977865e-02, -6.7450487644593213e+00,
          6.1724733336885784e-01, -6.7667101779943950e-01,
          6.1790764382145535e-01, -9.5897304833763769e-02,
          -1.4212161958017109e+00, 7.4669738260276741e-01,
          -1.0555221647537215e+02, 7.7190065525250817e-01,
          -4.0497562350566840e-01, 3.3259820650872113e-01,
          -7.5888699777930091e-01, -8.8742813992910208e-01,
          1.5955017382476850e+00, -1.5238333587524785e+01,
          -4.2417552197293468e-01, -6.8205702503501913e+00,
          5.6235890772090380e-01, -9.2866215454859791e-01,
          -1.6487488518537352e-01, -1.6136237921481908e+00,
          -1.1131610259117084e+00, -8.6024177666305601e-01,
          1.7364812600213508e+01, -1.1066339249871822e+00,
          -1.1860436759461383e+01, -3.5905714574013875e-01,
          1.9182182015976443e+00, -3.6686051505153666e-01,
          3.7887491828704445e-01, -1.4006033791528101e+00,
          5.0556938024844977e-01, 1.1948294826979471e+00,
          -4.8272061590361598e-01, 5.6646979996352964e-01,
          4.0101475289374039e-01, -5.2253964235458517e-01,
          -1.2872296912752821e+00, -2.5412478381041514e-01,
          -9.6000993822088321e-01, 1.1369276716578238e+00,
          7.6617049596272446e+00, -1.3593045154238135e+00,
          4.2678646845882042e+00, 6.0959244728095807e-01,
          -1.6965483573188012e+00, -6.2808431773355122e-01,
          6.5175798075294589e+00, -7.9109655151347025e-01,
          -5.9105361550978675e+00, 3.9569108990129251e+00,
          7.1108044591743180e-01, -8.1287270013397750e-01,
          -1.0773194763715392e+01, 9.8675572025161462e-01,
          -2.4624084206266836e+00, 1.1533798211143302e+00,
          -1.1330949001427651e+02, 8.1647312435038921e-01,
          3.5234602017336476e-02, 2.5187472751344087e-03,
          -9.4766888938567917e-01, -5.5967590167728554e-01,
          2.0744410647970573e+00, -1.9570869215168030e+00,
          -4.8583002093032490e-01, -1.1764121566561312e+00,
          -1.1428800157466967e-01, 3.2927754454600733e-01,
          -2.9405476184257645e-01, -1.6641609227432184e+00,
          8.6297237072210518e+00, -8.7184880107506646e-01,
          -4.7136046404206002e+00, -8.6638672610792811e-01,
          -1.6003678795342910e+01, -4.6653004325337583e-01,
          2.2340868557978228e+00, -6.0335874232871023e-01,
          7.7708782652592453e-03, 2.9811278424573583e+01,
          2.5681773935264768e-01, 4.6383200444757333e-01,
          -6.0057410017519330e-01, -1.8005956537901113e-01,
          1.1066664991320239e+00, -6.0805252971401957e-01,
          -1.1880548652338219e+00, -3.2116713959458605e+00,
          -1.0705762876516975e+00, 4.3037282038061511e+00,
          -5.0819916169135482e+00, -1.2170064247077541e+00,
          3.0792745568291595e+00, 6.5638938638614075e-01,
          4.5572450499450392e+00, -8.1225920714822775e-01,
          2.0774232844998077e+00, -8.1168618562955142e-01,
          1.2582231482264620e+01, 5.1628278521449484e+00,
          7.9495689993693353e-01, -9.4325351821630776e-01,
          -4.9575675106059652e-01, 4.7940563849714729e-01,
          -2.3994420321852434e+00, 1.1538797418536995e+00,
          -1.4424346940832055e+02, 9.9541380752853970e-01,
          1.0273978600191672e-01, -1.8728480003649137e-01,
          -9.3475006915847314e-01, 8.3616386189403306e-03,
          1.8765580185334294e+00, -2.2144041015191714e+01,
          -6.8023511930170322e-01, 9.2498333711685916e+00,
          4.3201863365823052e-02, 6.1214641772177547e+00,
          -4.6893114253139767e-01, -1.6539872838301177e+00,
          1.0499390862174728e+01, -9.5931490025909305e-01,
          1.4390652690317133e+01, -8.7493729274945656e-03,
          -6.9548940857534109e+00, -6.0546974440290291e-01,
          2.5036721493998519e+00, -6.8315851721492804e-01,
          -2.1800354630923904e-01, -2.6638518298277958e+01,
          -3.9023647776743282e-02, -4.6468236533212505e-02,
          -6.7326538129761693e-01, 1.5072490684323819e-01,
          -3.3885622139535250e+00, -6.4193578489208092e-01,
          -1.2576253053640345e+00, -9.5518932065288320e-01,
          -1.2749866801487593e+00, -7.9429191880466865e+00,
          1.0125301210733317e+01, -1.4261067150344295e+00,
          3.6424844571929320e+00, 7.7567369410586651e-01,
          -1.5371128985600064e+01, -9.4851351570997755e-01,
          -7.6336284535134462e+00, -9.9808471807841359e-01,
          6.5370448343969452e+00, -6.2787602943464442e+00,
          8.9591925451273813e-01, -1.0816325753495954e+00,
          -2.9043652955725805e+00, 3.0366612648228153e-01,
          -2.3711042697852709e+00, 1.4397306100975273e+00,
          -2.0879840736820154e+02, 1.1039070632613508e+00,
          5.9352263781155090e-01, -6.6523510812235964e-01,
          -1.1620962267415769e+00, 2.2624432411901932e-01,
          2.5123928958619355e+00, 1.6061210639900001e+01,
          -9.2223998326029788e-01, 5.7841704619206249e+00,
          -7.0425845543517407e-01, -1.3510774978715359e+00,
          -8.1265889900427035e-01, -1.7814839073333790e+00,
          -8.6634457745973013e+00, -1.1970281161131981e+00,
          -2.1603784616015216e+00, -5.5987212546915778e-02,
          5.1405760599407682e+00, -8.8761237625696388e-01,
          2.9917842023560923e+00, -9.2770387007241772e-01,
          -5.3832004175176196e-01, 2.3505246446055949e+01,
          -5.0031274653625890e-01, 2.3162771254068257e-01,
          -1.0164296045503640e+00, -7.5321923447718275e-01,
          2.4502475548290708e+00, -1.0096949814193958e+00,
          -1.4823962042078440e+00, -4.0395193535002685e+00,
          -1.3226396081033034e+00, -7.2253948660729117e+00,
          -8.7830048433642678e-03, -1.5225758228341084e+00,
          1.8606947234547768e+00, 9.7610226273919021e-01,
          -2.0258084010218401e+01, -1.0482826047391363e+00,
          5.4712648694790174e+00, -1.0860424665845931e+00,
          9.8439092714213601e+00, 2.4499612121418899e+00,
          1.0539332115948012e+00, -1.2525433282416361e+00,
          5.0812934744807614e-01, -5.0517603742079742e-01,
          -2.1756369067501757e+00, 1.5272846832787814e+00,
          -1.2718836521675533e+02, 7.2060078717469123e-01,
          -4.1854252537135217e-01, 4.1574422735395794e-01,
          -7.5565672824025498e-01, -6.6147547384032590e-01,
          2.2389295486135707e+00, 3.6181127407685993e+00,
          -3.1559724519893140e-01, -1.2854775712728809e+01,
          3.6966256521163199e-01, -7.7445309437722640e+00,
          -1.3330920510524036e-01, -1.7434559541947370e+00,
          -4.2127954725961638e+00, -8.4367123074868799e-01,
          -7.9951800109917448e+00, -8.8179728561799497e-01,
          -3.2137953718409729e+00, -2.2642996995309803e-01,
          2.5415034675769492e+00, -4.4496775634169061e-01,
          3.6659633192071212e-01, 9.8010400427476707e+00,
          5.8380761291960126e-01, 3.4197286519996145e-01,
          -4.2962872458613804e-01, 5.9309482039180704e-02,
          -6.1947935990886793e-01, -3.1175472227535089e-01,
          -1.2923028771377385e+00, -2.5932713294847107e+00,
          -1.1156944580105359e+00, -1.0696875042142850e+01,
          -2.8947136382344154e+00, -1.4360170159072569e+00,
          3.0257111063643070e+00, 5.2286731308368117e-01,
          -2.3983474747836066e+01, -6.5888844289328685e-01,
          5.3610882970155915e-01, -7.8744911749681989e-01,
          9.5567183271247327e+00, -9.1765734003610984e+00,
          7.5534106677482826e-01, -9.4975079041876931e-01,
          3.0239756936712463e+00, 7.6233070952639137e-01,
          -2.5786006018740846e+00, 1.2265610965650742e+00,
          -2.2906829988115518e+02, 1.9159326213354184e+00,
          1.2737164842612818e+00, -1.3803093408158094e+00,
          -1.9372585885596529e+00, 1.2547551731797129e+00,
          1.7173860098809914e+00, 9.3081489414063761e+00,
          -1.5874915116753847e+00, 2.5091888012947181e+00,
          -8.5840174325434837e-01, -1.0049118925027205e+01,
          -1.4554349933136941e+00, -2.0698849158121315e+00,
          -1.1209059442369563e+01, -1.9204722029537569e+00,
          -3.9773208625903278e+00, 1.3578241558965505e+00,
          -2.0128908794415953e+01, -1.6063746590585777e+00,
          4.1025800744141272e-01, -1.5289127433586125e+00,
          -1.6095472219694305e+00, -2.1183143149997665e+00,
          -1.5031649652047059e+00, -6.0848463970275934e-01,
          -1.6435085931522120e+00, -5.8963246194868757e-01,
          4.2135133187949392e-01, -1.7620340387293421e+00,
          -1.9990289602006663e+00, -1.9453066734682276e-01,
          -1.9723706384176671e+00, 3.4693443658868621e+00,
          2.4037201758159950e+00, -2.0371067932117928e+00,
          3.8631023062876886e+00, 1.8586033626197240e+00,
          2.7762436800733910e+00, -1.8445569389131231e+00,
          -1.9325233945253379e+00, -1.7674709528908581e+00,
          9.6925407593429327e+00, 3.4237992257950964e+01,
          1.7761784002348993e+00, -1.9512227726348625e+00,
          -5.0120057285830368e+00, -1.1178412335154166e+00,
          -2.2634717400567501e+00, 1.8569657951319594e+00,
          -1.4850676981417041e+02, 6.4330591122591996e-01,
          1.2309531109747136e+00, -1.1557895109333194e+00,
          -7.6719652989647402e-01, 1.5356054107874586e+00,
          4.5130411602528904e-02, -3.5197604861321783e+00,
          -8.5374120092260275e-01, 9.6769568369838121e-01,
          -1.0874497649240424e+00, 1.0049225145648837e+01,
          -9.0562508027125477e-01, -3.1927998463213297e-01,
          -9.8586489977894800e+00, -7.0777031068850360e-01,
          2.5074945073853145e+00, 1.5006511810167580e+00,
          -9.2415935581779163e+00, -7.7072844518009020e-01,
          -2.7927573846532749e-01, -7.8661496037252077e-01,
          -1.2833436336074109e+00, -5.4665449090485305e+00,
          -1.4435472181028992e+00, -1.2032766397074286e+00,
          -8.3145752618163216e-01, -8.1548938022303352e-01,
          1.8096237078094188e+00, -7.5888909940703075e-01,
          -5.3678228094822411e-01, 1.2633914763692447e-01,
          -6.7804118337551122e-01, -1.0519567615694415e+01,
          -4.4865113426969971e+00, -4.7156493051195786e-01,
          4.0740889857392343e-01, 7.2241206215319331e-01,
          1.2736157849028279e+01, -7.8719990405996532e-01,
          3.7540407116399104e+00, -6.0172728073950077e-01,
          -1.4332820568455716e+01, 2.5216832055983858e+00,
          6.6344537801276438e-01, -6.7356087537086518e-01,
          -2.4488734291437773e+00, -1.3574340991120410e+00,
          -1.0152584535326122e-01, 5.0681602473408593e-01,
          -1.4592361843605983e+02, 5.1502377556381307e-01,
          1.3418864937780852e+00, -1.2844450646088146e+00,
          -5.5584504569226034e-01, 1.6790411082232521e+00,
          -4.8718911857762692e-01, 5.8520703675225914e+00,
          -7.4345950456141685e-01, -8.2295676425913609e+00,
          -1.2309443033556746e+00, 6.3620574586302503e+00,
          -8.1683324134322821e-01, 1.1549010360564181e-01,
          -1.6494769576754660e+00, -4.5598624801618376e-01,
          -2.7061768647468272e+00, 1.8936429700143824e+00,
          -1.0133471265768348e+01, -8.1222910523598002e-01,
          -9.7607216762969773e-01, -7.7748007965297405e-01,
          -1.4031039084079597e+00, 6.7596117773988444e+00,
          -1.5927739689311233e+00, -1.4035930573777196e+00,
          -7.2341565172768318e-01, -9.5245793640110943e-01,
          -6.5867958383798175e-01, -7.3574132551428828e-01,
          -1.7079252906050921e-01, 7.2834092849805365e-01,
          -3.5330924601170044e-01, 1.7128564402558601e+00,
          -1.2725743107009753e+00, -2.4648684597114118e-01,
          -4.8202508642719105e-01, 6.6273630358540081e-01,
          2.7004006969206111e+00, -6.4774796505793186e-01,
          -3.6582864961329946e+00, -4.6862721675020219e-01,
          -6.7197449500017576e+00, 6.9566814498920966e+00,
          5.3429295548133326e-01, -6.0109721259515092e-01,
          -5.3708614540388488e-01, -1.5255249669493924e+00,
          4.3599319695360333e-01, 1.0918005704150006e-01,
          -1.7973599136425912e+02, 8.6718828498523026e-01,
          1.0820834615658881e+00, -1.1111327873052999e+00,
          -7.7328773699207798e-01, 1.2406097019621163e+00,
          4.4651364912594665e-01, -9.3848204510942637e+00,
          -9.5146682953259110e-01, 1.2174424558285981e+01,
          -9.4337569159533896e-01, -7.5268882223638096e+00,
          -8.9583323610258614e-01, -5.9237280755007637e-01,
          -4.4116783529357173e+00, -7.4100648188119145e-01,
          1.0231890765414883e+01, 1.2705844610179498e+00,
          -1.7531986034142605e+01, -8.5716264740395220e-01,
          5.6656406218701538e-01, -9.2223601903944885e-01,
          -1.2885978812150483e+00, -1.5206228815643041e+01,
          -1.3890861139380646e+00, -4.4349273512879650e-01,
          -9.2789314782383703e-01, -7.5912502568646911e-01,
          -8.7251825144791422e+00, -8.7056186686840276e-01,
          -6.3747021486880451e-01, -9.8799367599949661e-01,
          -7.5800814080268475e-01, -5.2089011998142896e+00,
          -6.9223700995595641e+00, -6.2151180774416181e-01,
          5.2001689920237104e-01, 8.2836709178087575e-01,
          2.0173149234999450e+01, -7.5187189397216125e-01,
          4.9643576738578794e+00, -8.4260592947632518e-01,
          -2.6234419197769824e+01, -5.8841557024299194e+00,
          7.4858880697083552e-01, -7.5582980264122135e-01,
          -4.8476590074940162e+00, -1.1224555647069139e+00,
          -4.3485775307849101e-01, 6.4278600761606031e-01,
          -1.3637304332150649e+02, 6.2086762638089110e-01,
          9.6602359869790289e-01, -9.7402192377451025e-01,
          -6.4867626832539205e-01, 1.2528502739135174e+00,
          1.8667262462876436e-01, 1.0897794672918486e+01,
          -7.9274954847497181e-01, 5.8184303766421532e+00,
          -8.7040355619179732e-01, -3.1100970295176213e+00,
          -7.2603397168355222e-01, -3.6845701889489840e-01,
          1.8663708662865166e+00, -5.7393848928153468e-01,
          5.7723644732468324e+00, 1.3684631498365016e+00,
          -1.2001462728311774e+01, -7.0587505001522155e-01,
          -2.2905114405322488e-01, -6.5095446141286939e-01,
          -1.0655096770425714e+00, 1.1853388205432578e+01,
          -1.1918683477153704e+00, -9.8072477837376626e-01,
          -8.0315896781249374e-01, -5.2554664638989679e-01,
          -5.8883434808471646e+00, -7.4300540721218200e-01,
          -5.2060486624367885e-01, 6.2939871029410221e-01,
          -6.5936971559063340e-01, 1.5279495145293835e+01,
          4.7199420671465262e+00, -5.4687131449215176e-01,
          4.5770061699093789e-01, 6.9640541745919804e-01,
          -4.9266907644249107e+00, -6.5171044540761636e-01,
          -1.5246321417587113e+01, -5.6248830125787730e-01,
          -5.8843333270081963e+00, 7.2108103127276579e-01,
          6.1921027571129650e-01, -6.7075737290197424e-01,
          -4.1269080343066982e+00, -1.1181053060383244e+00,
          -3.4690645889378829e-01, 4.7313822519380078e-01,
          -1.0728383434322664e+02, 2.1061979287912855e-01,
          1.6630880168398370e+00, -1.5774568554741735e+00,
          -2.1865923513782984e-01, 2.4444761146204046e+00,
          -1.6395285780679829e+00, 6.3305815400726342e+00,
          -7.5086228162988244e-01, 1.3479415218284627e+01,
          -1.7991753458876303e+00, -3.7707658322125797e+00,
          -9.5569040604272748e-01, 1.1026464608786002e+00,
          -1.6044500379671426e+01, -1.7824752633546198e-01,
          -2.1665332216993649e+00, 3.0540416762484188e+00,
          -1.2673313087086746e+00, -6.5616713964922091e-01,
          -2.2902580585053900e+00, -6.1026085403016772e-01,
          -1.8128432897093036e+00, 2.5848635725033553e+00,
          -2.0047153718347248e+00, -2.8510042309848029e+00,
          -5.9225434717552183e-01, -1.6871370481673462e+00,
          -2.7295916342713022e+00, -5.6795497566166819e-01,
          5.2160538045166682e-01, 2.3671526777173586e+00,
          -1.8868601355315803e-02, 1.6761249059578081e+01,
          -3.4860641387822118e+00, 4.5275812914143782e-01,
          -2.0276005282295499e+00, 2.9275519724487642e-01,
          -1.2548342918243438e+00, -2.6005750899027957e-01,
          -1.4171370757563142e+01, -2.5316151186939206e-01,
          -1.9457363344026081e+01, -1.3702460116866343e+01,
          2.1997351744871588e-01, -2.3321204991738437e-01,
          2.9018039921158545e+00, -2.4108828276083032e+00,
          1.5900865129916515e+00, -5.2694940088540743e-01,
          -1.4529795375239183e+02, 4.5069409740481636e-01,
          1.1723599847636523e+00, -1.0972627200152505e+00,
          -4.4646750270845903e-01, 1.4875192459310860e+00,
          -4.0179437862150258e-01, -3.4937283907055856e+00,
          -7.5435746096729406e-01, 1.9366008128443042e+01,
          -1.4004734199791664e+00, 4.8025329698155881e+00,
          -8.8105180647748105e-01, 2.4462050790403186e-01,
          -4.0435436591745093e+00, -3.5327039508025448e-01,
          2.3949356453334674e+00, 1.2511818178668084e+00,
          -1.3233390319379934e+00, -6.7342279043484887e-01,
          -4.5857143005352674e-01, -6.0652942298445822e-01,
          -1.1145838433197592e+00, -3.1931821281793069e+00,
          -1.3423948547539832e+00, -2.3904357297812511e+00,
          -6.7357113373122646e-01, -1.3022163585723743e+00,
          1.0719434375967877e+01, -6.4238707639390080e-01,
          -1.7222395831301899e-03, 4.9401015764734113e-01,
          -2.4049518752438437e-01, -2.3749168735071282e+00,
          3.8839835624058625e+00, -1.8424252598298452e-01,
          -6.5964089165972306e-01, 6.2484285330617328e-01,
          1.4078217667278984e+01, -5.2024301797102013e-01,
          -1.3984131824179258e+01, -4.5803716744793416e-01,
          7.8165273474370505e+00, -2.1752150795627911e+00,
          4.6377829640589052e-01, -4.5045283079415543e-01,
          1.4037940772978499e+00, -1.0693693504249502e+00,
          5.3993375135757571e-01, 5.3637755299551060e-02,
          -1.0427930195153877e+02, 4.0916180538456814e-01,
          1.1522987000607559e+00, -1.1130046754855119e+00,
          -4.4700592871235006e-01, 1.2396066230131189e+00,
          -3.7790986881127353e-01, -3.3390587467804816e-01,
          -6.8224734560668454e-01, 2.6013557422682023e+01,
          -1.2814488753868694e+00, -1.2512400258028469e+01,
          -7.8791427919097079e-01, 1.0436113049558628e-01,
          3.5316638890173502e-01, -2.8195648733069778e-01,
          -7.6465196113021063e+00, 1.3040910617226744e+00,
          -4.4365734759943076e-01, -6.0328348887275740e-01,
          -5.2898612548432689e-01, -6.8533851458707140e-01,
          -9.8616037415138136e-01, 2.9047155601781940e+00,
          -1.0145422189883635e+00, -1.9852317425150390e+00,
          -5.3342382623387041e-01, -1.5206441976833780e+00,
          1.0007500514140473e+00, -5.1937213863788523e-01,
          -2.7990263674952463e-02, 6.2897663027762230e-01,
          -2.9911758371824976e-01, 1.5146356439080892e+01,
          1.4000046537106234e+00, -1.3220944044619909e-01,
          -3.1217423646568865e-01, 4.6026413563208701e-01,
          -2.0125272353871426e+00, -4.1786198102606159e-01,
          -3.4613163682375929e+00, -3.8061224470093336e-01,
          4.5087208757507984e+00, -7.3591297143607362e+00,
          4.6965166341762177e-01, -3.1380578539684889e-01,
          1.4260859911834580e+00, -1.5210522745581452e+00,
          3.7061182036447604e-01, -3.8027776334772622e-03,
          -1.8385230324547186e+02, 9.1462207732416356e-01,
          8.9133197166197864e-01, -7.1951416079492769e-01,
          -9.9012975700872297e-01, 9.8974259434977596e-01,
          1.1053235739292417e+00, -6.4208404660860561e+00,
          -9.2806209797165928e-01, 6.8911460869720855e+00,
          -8.4029473868674986e-01, 4.7721867100401036e+00,
          -8.9600718200399321e-01, -1.0618330986884645e+00,
          -4.6791668456827251e+00, -8.7761864926056921e-01,
          -5.6264062856692820e-01, 8.5062923983489136e-01,
          2.2589203367548083e+00, -9.6901248255435402e-01,
          1.5881478639385327e+00, -8.4681336731221857e-01,
          -9.8527801355082423e-01, -8.9635411368116742e+00,
          -9.9848317968123590e-01, -9.1757261878012097e-01,
          -8.5599557663636250e-01, -5.0412830113438611e-01,
          2.7516760043312729e+00, -9.3261722750679021e-01,
          -9.5754733486603405e-01, -1.5071573175081590e+00,
          -9.8749891925841471e-01, -8.1799754333298882e+00,
          -9.4748611210998508e+00, -9.9385020865662355e-01,
          1.9072249919597299e+00, 9.7498540037471859e-01,
          1.9396877929053229e+01, -9.7831204186635001e-01,
          -1.1879923242149963e+00, -9.6884856176890233e-01,
          1.9948318820552853e+00, 8.4559197629681151e+00,
          9.5339169045974592e-01, -9.7754552405341433e-01,
          -1.2809266032734945e+00, -3.3899062802619306e-01,
          -1.2877084128592198e+00, 1.0248550305938620e+00,
          -1.1877793715537101e+02, 6.7081988076800914e-01,
          9.7058315007818363e-01, -9.5680664639143498e-01,
          -6.2447361265832579e-01, 6.3639488765271635e-01,
          -3.4281053448773280e-01, -1.5998498743106828e+00,
          -8.6084019258069167e-01, 1.4321688025734760e+01,
          -1.4775777973803834e+00, 2.9202227297558412e+01,
          -9.2048840550480726e-01, -5.1521902316458597e-02,
          4.1691574118543082e+00, -5.6532241229444913e-01,
          -9.4155385175160422e+00, 3.8346075524660062e-01,
          -5.6091387337120757e+00, -8.4924940832656448e-01,
          -1.1572174810665299e+00, -7.7276688445763941e-01,
          -8.6646759884247582e-01, 3.0234301073622105e+00,
          -6.2968717211475611e-01, -9.3492771002565078e-01,
          -7.7607087099860950e-01, -1.8146285273416674e+00,
          9.8269643173556909e-01, -7.7691391781074859e-01,
          -4.1337561695560904e-01, 2.7690048994649397e+00,
          -5.1345045829740321e-01, 3.3729920526291628e+00,
          1.7941136610895256e+01, -4.0727321568424590e-01,
          1.2377883013879523e+00, 7.1540920385406725e-01,
          -3.5336084412271371e+00, -7.2622075581239298e-01,
          1.4746225365730121e+01, -6.9185155260248554e-01,
          2.5715839535180307e+00, 4.7983754136922965e+00,
          6.6770095246571126e-01, -6.3043613046343039e-01,
          -1.5046579242509828e+00, -1.2651915972296577e+00,
          -2.8954414601277501e-01, 3.6455262261979621e-01,
          -8.0790491850487399e+01, 3.6654667337716756e-01,
          1.1434174534729591e+00, -1.1068283146336957e+00,
          -3.4680610419767349e-01, 1.3666212389960701e+00,
          -8.8695059803586307e-01, -1.0986140125270719e+01,
          -6.4115342196068348e-01, -7.3758253570143024e+00,
          -1.3661837657184719e+00, 2.2432374408747290e+01,
          -7.6425463172528008e-01, 4.6492534996889001e-01,
          -2.2041931526558800e+00, -3.8454701861134871e-01,
          -1.3081301922036241e+01, 1.4103627838067094e+00,
          -1.1364032501590724e+00, -7.3742740833291798e-01,
          -1.2530778732619288e+00, -6.1712209461785139e-01,
          -1.0639565304457868e+00, -6.1434875586839226e+00,
          -1.2017171577672390e+00, -2.4770370308409144e+00,
          -6.5552559236881358e-01, -1.5727165848707738e+00,
          1.8215495211301910e+01, -5.9739791179537227e-01,
          1.2996904837952658e-01, 1.9900026661272285e+00,
          -2.4182549441346304e-01, 1.0028588783410968e+00,
          -2.7232912702377949e+00, 8.1162788315863016e-02,
          -1.2703400298081757e-01, 3.7410902606053059e-01,
          6.7023329791432147e+00, -4.6583681608245930e-01,
          -3.3585512158176529e+00, -2.6369886811963406e-01,
          3.5591668182187919e-01, 5.2117099142938219e+00,
          4.7730969360413056e-01, -3.9089077088497076e-01,
          2.8078272460775215e+00, -1.3546054989061340e+00,
          5.4392930418418528e-01, -1.2411383258190267e-01,
          -9.9855565530633623e+02, 6.5040852198855656e+00,
          5.8037639512936510e+00, -5.8751406524836804e+00,
          -6.3795927448847216e+00, 5.2196887387390696e+00,
          6.7520572181456222e+00, -3.8436879849230050e+00,
          -6.2472549483004389e+00, -7.5356740577535986e+00,
          -5.4162935463477613e+00, 9.9372651973574910e-01,
          -6.1992562417109696e+00, -6.6630509031569849e+00,
          2.6029592699067754e+00, -6.4559582524968580e+00,
          7.4644513814458566e-02, 4.7059788941827350e+00,
          9.6655784580590787e+00, -6.2624498672111741e+00,
          6.9705438823324091e+00, -6.2098177889278237e+00,
          -5.8257371702947331e+00, 1.0164728005602047e+01,
          -5.6945785524443524e+00, -4.2376476149235467e+00,
          -6.3256394857814495e+00, -5.1510602796656455e+00,
          3.9402283041117698e+00, -6.3560787244379418e+00,
          -6.6056894876450256e+00, -6.8150169813862780e+00,
          -6.4778595843844036e+00, 3.9881627109430964e+00,
          2.8555608629682877e-01, -6.6083898140092368e+00,
          5.5574985270433572e+00, 6.4617877793280547e+00,
          1.5587467469744393e+01, -6.4044736406570379e+00,
          -3.7211247167831214e+00, -6.4383941149542441e+00,
          -3.1473693361335724e+00, 1.4441581194881431e+01,
          6.4197486135487987e+00, -6.4042602520384992e+00,
          9.8337126344255725e-03, -4.8784946971429539e+00,
          -6.5160104586572523e+00, 6.6629738974594694e+00 ]
      - [ 1.2393850563094400e+00, -4.6651670847554760e-01,
          2.0944991801936186e+00, -1.9517494709461205e+00,
          4.7023801836730211e-01, 3.5831796268161131e+00,
          -3.0117264736471969e+00, 4.6605856707329210e+00,
          -4.6064913648558692e-01, 7.2170447233183381e+00,
          -2.7329532653094843e+00, 7.3647665662748949e+00,
          -9.0122814169382559e-01, 2.3785484306711999e+00,
          -9.3064906060379045e+00, 5.6011375714919354e-01,
          -1.1974160985225119e+01, 4.4001377176443270e+00,
          1.0462657793980631e+01, -4.3505321083487525e-01,
          -3.7324859192784308e+00, -4.2544243063548987e-01,
          -2.1175829778780817e+00, -1.3716148675573631e+01,
          -2.6550479207713478e+00, -4.8731541461476358e+00,
          -2.6677944348536797e-01, -3.0028472059660705e+00,
          8.7860782666710406e+00, -1.8132987914133733e-01,
          1.4417505680717315e+00, 4.6543312157692842e+00,
          9.3940764345636185e-01, 4.8728940537201559e+00,
          1.9130195565818177e+01, 1.4939069636351896e+00,
          -4.8483754130571395e+00, -1.5161514559601555e-01,
          3.7254503851017939e+00, 2.6366081278490805e-01,
          -1.2355976509923343e+01, 3.5917597152586445e-01,
          -8.6998641201185567e+00, 1.0338879915770290e+01,
          -2.8967749788055785e-01, 5.8136212265974552e-01,
          9.7710251545490312e+00, -3.6184679359874412e+00,
          3.3352023782524856e+00, -1.4287347726813433e+00,
          1.3391353571017983e+00 ]
