%YAML:1.0
my_nn: !!opencv-ml-ann-mlp
   layer_sizes: !!opencv-matrix
      rows: 1
      cols: 3
      dt: i
      data: [ 24, 50, 1 ]
   activation_function: GAUSSIAN
   f_param1: 5.9999999999999998e-01
   f_param2: 1.
   min_val: 5.0000000000000003e-02
   max_val: 1.
   min_val1: 2.0000000000000000e-02
   max_val1: 1.
   training_params:
      train_method: BACKPROP
      dw_scale: 1.0000000000000001e-01
      moment_scale: 1.0000000000000001e-01
      term_criteria: { epsilon:1.0000000116860974e-07, iterations:800 }
   input_scale: [ 1., 0., 1., 0., 1., 0., 1., 0., 1., 0., 1., 0., 1., 0.,
       1., 0., 1., 0., 1., 0., 1., 0., 1., 0., 1., 0., 1., 0., 1., 0.,
       1., 0., 1., 0., 1., 0., 1., 0., 1., 0., 1., 0., 1., 0., 1., 0.,
       1., 0. ]
   output_scale: [ 2.1052631578947367e+00, -1.1052631578947367e+00 ]
   inv_output_scale: [ 4.7499999999999998e-01, 5.2500000000000002e-01 ]
   weights:
      - [ 8.1889284254898929e+00, -6.9054387643467985e-01,
          -7.5030386039276509e-01, -7.5344402414162270e-01,
          -5.9004537082165520e-01, 7.8545027744287754e-01,
          5.8590003777549182e-01, -8.1849930257436543e-01,
          -6.8917577975181166e-01, 1.4570258257696911e+00,
          -6.7671870062172507e-03, 6.7931430700926765e-01,
          -7.1080003359404609e-01, 1.6179916995864834e+00,
          6.2274953445914494e-01, 7.6619450651009702e-01,
          -4.4074410389949281e-01, -7.6639509172710563e-01,
          -6.4358639198899836e-01, -8.0862556833524957e-01,
          7.2821272559346917e-01, -7.4567891929062369e-01,
          2.7602244246283991e-01, 6.8107050244847356e-01,
          4.3436567376512003e-01, 7.4981823256080948e-01,
          8.2920877523593151e-01, -6.1543229893407536e-01,
          1.2487793924337998e+00, 6.3233517201881939e-01,
          -7.7726555398075114e-01, 7.7317551967463294e-01,
          -8.2669320591355011e-01, 5.9524405479146081e-01,
          8.6427111884232122e-01, 3.4097057479550563e-01,
          -6.7353242879392039e-01, -1.0256981132522420e+00,
          8.0693881740260121e-01, -7.2055385009804118e-01,
          -7.7885291948304669e-01, 8.1213183703972069e-01,
          7.2386538737705541e-01, 7.3693170897808735e-01,
          -8.5636227820919164e-01, 1.1474858243515416e+00,
          -6.4969130041376022e-01, 6.2631030265023058e-01,
          3.7130539331548745e-01, -7.8791907390019822e-01,
          7.6203677247980073e-01, -8.5091956568788740e-01,
          -8.7094653516056042e-01, -8.2585379504583023e-01,
          -1.4160633068141268e+00, 8.3391784153062720e-01,
          8.8476587942633877e-01, -7.1680010005587425e-01,
          -7.5687832943544453e-01, 7.4502378049083962e-01,
          1.5297743295856541e+00, 1.1210307902756718e+00,
          -8.6366919525359886e-01, -3.3601688084265828e+00,
          8.0931445065558139e-01, 7.6608273917576997e-01,
          -1.2358171457905900e+00, -7.8008447358086974e-01,
          -8.2016396347003351e-01, -7.5537881384610994e-01,
          7.9747641849364814e-01, -7.7009702706520511e-01,
          1.2692478797552122e+00, 9.2817443438075753e-01,
          1.6563747870005820e+00, 5.0433192894212642e-01,
          6.0724767306994210e-01, -9.1645047812004332e-01,
          1.3413335371796089e+00, 8.4075939591530979e-01,
          -7.6332852212554558e-01, 7.9654307738539842e-01,
          -7.5332702992942802e-01, 9.4698625773338063e-01,
          5.7197458090232445e-01, 2.5638330882951417e+00,
          -9.7118868611404041e-01, -6.2554139302826883e-01,
          6.5340972087651206e-01, -1.0183422426365101e+00,
          -8.0193666674222563e-01, 7.9874633654942895e-01,
          7.4354853685999078e-01, 7.0322092930974300e-01,
          -7.5956644818402341e-01, 7.4085158797491235e-01,
          -8.3394701405607496e-01, 9.1323985931400065e-01,
          2.1157908308221591e+00, -8.0748611768901146e-01,
          6.3658213353617175e+00, 6.1776351866744084e-01,
          6.4398089631855637e-01, 6.7181335380759999e-01,
          3.9944826684736134e-01, -7.3728816044786438e-01,
          -4.0963752940033449e-01, 4.3997105898840883e-01,
          4.4372578793187395e-01, -1.5954250942550283e+00,
          1.9326365360581890e-01, -5.5719889764722297e-01,
          6.4405275847393695e-01, 1.3926380036217986e-01,
          -4.5920820925549993e-01, -5.1188754388787516e-01,
          6.7373530653788716e-01, 6.3921574458881247e-01,
          4.1630590893752073e-01, 5.8908640378796162e-01,
          -6.1361270672496870e-01, 5.2752718017078648e-01,
          -3.0009725292653389e-01, -6.5498401094863024e-01,
          -3.9972498822884728e-01, -3.9768825222295345e-01,
          -4.5237050631070397e-01, 7.1372566517179403e-01,
          -1.4860912177269181e+00, -5.6106993610117417e-01,
          6.2891424458001211e-01, -5.3918164961849224e-01,
          6.5327332759720036e-01, -5.3610649612121497e-01,
          -4.7309304797382101e-01, -1.5706915613254273e+00,
          6.3914677198560843e-01, 7.8215718469377848e-01,
          -4.0936340204601634e-01, 8.3811365136030969e-01,
          5.1201490871627131e-01, -7.2811080237750481e-01,
          -4.9207322178264634e-01, -4.3303427699238589e-01,
          5.7660799160379794e-01, -8.0946398913141615e-01,
          5.5318289860655334e-01, -4.8216325575556768e-01,
          -1.8761254273886166e-01, 7.0039792431091363e-01,
          2.2530174891088333e+00, 2.7381683329236312e-01,
          3.1998549719096769e-01, 2.3053101969928960e-01,
          -2.6631256243102491e-01, -3.3063633027126260e-01,
          -1.1860256624229999e-01, 2.7784069389037175e-01,
          1.7743939604539755e-01, -8.0631013270476914e-01,
          7.3318723490598359e-01, -7.0971700393872031e-02,
          2.8678231306767998e-01, -6.9515632120191750e-01,
          -1.4482082295443019e-01, -1.5709522887572777e-01,
          2.0884749859285259e-01, 2.5238251120520466e-01,
          2.1331777098385707e-01, 3.4309082241139566e-01,
          -3.4145652410837707e-01, 3.0735737527930745e-01,
          1.0861166227394824e-01, -3.0169812049607930e-01,
          2.7542332563049016e-01, -4.4159895504268337e-01,
          -2.2593359752087855e-01, 2.9830441023793797e-01,
          -5.4952010745402735e-01, -2.2506847126897966e-01,
          2.4159124109575802e-01, -2.4588609207227813e-01,
          3.3317011205103431e-01, -2.1608799638984083e-01,
          -2.1539357969896525e-01, -5.7962383889487623e-01,
          1.2067420640680872e-01, 3.9462966449971415e-01,
          -2.7073680566470976e-01, 4.3394325748100693e-01,
          2.5333234148473427e-01, -3.6753286686817316e-01,
          -2.8119520735105158e-01, -2.1643765376747934e-01,
          3.0198668288168523e-01, -3.1262966252074220e-01,
          3.3213586074330204e-01, -1.8300029087621469e-01,
          -6.2646395671422972e-01, 3.3520030180496102e-01,
          2.5581332238928107e+00, 1.0185858961208425e+00,
          1.0147873435883725e+00, 1.0964579335252429e+00,
          7.9592987807019910e-01, -1.1116644489324647e+00,
          -1.0571096324251865e+00, 7.8259115335315999e-01,
          9.4881144537261941e-01, -1.1496461724974296e+00,
          -5.4217808283465008e-01, -8.2687401138660876e-01,
          9.5111779582454714e-01, 1.8788816894934550e+00,
          -9.8386608071714710e-01, -8.7477226445424250e-01,
          1.1827248083878332e+00, 1.0759035399126393e+00,
          9.1407100819238474e-01, 9.8787432927741092e-01,
          -1.0438695286208641e+00, 9.3346950072669999e-01,
          -7.2545419953125689e-01, -1.1783582065634362e+00,
          -6.2718597618922201e-01, -5.2877675209385810e-01,
          -7.4025847325921457e-01, 1.0048133243884669e+00,
          -8.6093550275178232e-01, -9.6411860628989310e-01,
          9.8626665549186332e-01, -9.8812309837431778e-01,
          9.1470372270432543e-01, -1.1601463149883970e+00,
          -5.8911432375867123e-01, -3.1384285541300891e+00,
          9.2257155817864966e-01, 7.5843746111046895e-01,
          -7.5791343596449334e-01, 1.1619201748978683e+00,
          9.9277516307100766e-01, -1.1273402871043032e+00,
          -9.4653996299551624e-01, -8.1581432490452221e-01,
          9.4678589085396503e-01, -7.5385225791185917e-01,
          9.5738386460164815e-01, -1.0899815286697672e+00,
          -1.2672693560100370e+00, 1.0712431129753854e+00,
          2.1005428331757630e+00, -2.4585582940806039e-02,
          -9.5861756377127100e-02, -1.2544851151736910e-01,
          -2.6467933688126577e-01, 6.3031188176008807e-02,
          1.1396350543392221e-01, 1.7655889279015707e-01,
          -5.2003462241110368e-02, -3.9106055216918512e-01,
          4.8371370954096327e-01, 7.6325416350115693e-02,
          -5.7789654220053770e-02, -1.7267592937524385e+00,
          5.5099014410352913e-02, 1.2318897437829693e-02,
          3.8593694627376864e-02, -4.7059741166739083e-02,
          -4.0523428034515044e-02, 7.4129474976035795e-02,
          1.0897885091415108e-01, -6.3535624608269364e-02,
          -1.8996519160352413e-01, 4.3565815967238783e-02,
          3.0115304021524425e-01, -3.7666305318859228e-01,
          -2.3842499539141151e-01, -8.8585851507094110e-02,
          -2.8847135033209864e-01, -1.2502826770593995e-02,
          1.0347793682723554e-01, 2.9543433712003301e-02,
          1.5136670959886789e-02, 4.4487063738573175e-02,
          -2.9365526015154719e-01, 8.4752719733565673e-01,
          -1.3908434979405219e-02, 2.8304741441390097e-01,
          -2.0457671440760447e-01, 1.0120004007106360e-01,
          9.2224000146827911e-02, 7.8094736371513873e-02,
          -2.3481524946876123e-02, -2.3029286152857856e-01,
          1.0501072120673159e-01, -3.3841577717685634e-01,
          4.8471972722141203e-03, 1.7101431500110884e-01,
          -5.2574659795889378e-01, -1.3089274960837305e-01,
          1.9689631495972193e+00, 1.6137774604209951e+00,
          1.7469056372898593e+00, 1.6780871810033786e+00,
          1.8611444527642782e+00, -1.8389554138710607e+00,
          -1.7726859633434120e+00, 1.2237431345146035e+00,
          1.4971427713106595e+00, -1.2523313112557113e+00,
          -1.9005697974325311e+00, -1.5602434538318302e+00,
          1.6482923053358023e+00, 3.8276180118286547e+00,
          -1.6263954730412993e+00, -1.5502961055431976e+00,
          1.7381184434359276e+00, 1.6487230047808690e+00,
          1.6472692171741579e+00, 1.5817281532852672e+00,
          -1.7108382084468319e+00, 1.6318745354075352e+00,
          -1.3376038924560596e+00, -1.8182379414509238e+00,
          -1.6211953543859623e+00, -8.2502073957821032e-01,
          -1.1449121639001545e+00, 1.7252333315694193e+00,
          -1.1426732793667131e+00, -1.5884006399054629e+00,
          1.5269444903599627e+00, -1.7048303281448298e+00,
          1.4838121654905618e+00, -1.7891177631463777e+00,
          -1.1195706330765334e+00, -5.1819060913841231e+00,
          1.4965932033246285e+00, 1.0936057905596852e+00,
          -1.3859108539380571e+00, 1.6983567212031896e+00,
          1.4678269317290711e+00, -1.5875028009766583e+00,
          -1.4408968108774025e+00, -1.2997756812018251e+00,
          1.5651005991991018e+00, -1.0559298800592083e+00,
          1.5461717919735500e+00, -1.7157001939809324e+00,
          -1.9157721774230816e+00, 1.6935279585973684e+00,
          2.7146365482309061e+00, 6.1678411357838248e-01,
          6.7646050292765281e-01, 6.6328453533057818e-01,
          1.2284698305297383e+00, -7.4082637788849537e-01,
          -6.8902518092085974e-01, 6.5898423671328743e-01,
          6.5491425551915528e-01, -7.8551703429862918e-01,
          -1.4656840997628473e+00, -1.0169217739427843e+00,
          6.5480515254542437e-01, 2.1535539339623528e+00,
          -7.0638269150827315e-01, -6.5061967261745512e-01,
          9.1679293397556294e-01, 5.7485789433577461e-01,
          5.0668288312276499e-01, 5.8062673599012105e-01,
          -5.8356358180933732e-01, 5.4112224282654320e-01,
          -1.0663083817433188e+00, -7.0253006987130018e-01,
          -9.7227397530252413e-01, -4.7955055246520178e-01,
          -5.0025439667638416e-01, 6.6423171979796647e-01,
          -6.3994980485357220e-02, -6.6421845585227324e-01,
          5.6226001597847142e-01, -6.8961244008239231e-01,
          5.6331381224759003e-01, -7.8052636130361086e-01,
          -5.7833587186520907e-01, -3.5953203930035231e+00,
          8.1801835218199825e-01, 4.9680976588147679e-01,
          -5.5367037975472067e-01, 7.6811497575703624e-01,
          7.2033766522724663e-01, -6.6036579464232059e-01,
          -6.1428916417741952e-01, -6.7547927025247945e-01,
          5.7821159985001680e-01, -7.0107323268640831e-01,
          5.9563418635098042e-01, -6.8047717819428066e-01,
          -1.8454607088375685e+00, 7.3228225140498759e-01,
          1.5995239833702193e+00, 2.3291747005134689e-01,
          1.1776645551302803e-01, 1.5689757483356181e-01,
          4.0173255419457554e-01, -2.2559599466511379e-01,
          -7.9885897899725375e-02, 1.2414488746585502e-01,
          2.0825566097708131e-01, -3.0352574698930829e-01,
          -2.8330514816736913e-01, -3.2999731860504961e-01,
          2.4782969388596002e-01, 5.3478568921906122e-01,
          -3.1733020761120007e-01, -1.9225298118694573e-01,
          4.0753413442578812e-01, 1.9791843871072889e-01,
          1.6167299324701823e-01, 1.3922819535733486e-01,
          -1.9930145658965370e-01, 1.3991628715926901e-01,
          -5.0289189892129382e-01, -3.0355001668130865e-01,
          -1.9102832871934214e-01, -1.8838269587744311e-01,
          -1.5790745036987780e-01, 3.2104154299756987e-01,
          2.3049029526652351e-01, -2.3469696143785643e-01,
          2.0497190762709344e-01, -1.7600188111452508e-01,
          1.4529716700272469e-01, -2.7685156571692393e-01,
          -1.9988301074055725e-01, -1.9126082716460546e+00,
          3.0194193145418424e-01, 2.0807255586664306e-01,
          -2.0142762686607382e-01, 3.5286383101214386e-01,
          1.6183266234059790e-01, -1.4408993827052680e-01,
          -2.0840103571471094e-01, -2.1456947523153641e-01,
          1.2231297807009339e-01, -2.3014639494407463e-01,
          1.7949725064033176e-01, -1.4930877579235660e-01,
          -1.1623130771476906e+00, 1.6841743783171947e-01,
          1.5155169172808791e+00, 4.6938869617135548e-01,
          3.7602872469443777e-01, 4.4964713747288609e-01,
          6.0539234352167060e-01, -3.1813269972771235e-01,
          -4.4080129656758188e-01, 2.2753455030233088e-01,
          3.9751134351270034e-01, -2.1199909524613830e-01,
          -6.8268548365947113e-01, -4.1186164233717776e-01,
          4.6397192139226123e-01, 1.6094675559647647e+00,
          -4.4789893611624748e-01, -3.7083327832355634e-01,
          5.7992422558690682e-01, 2.7829244573399486e-01,
          3.7630812018682142e-01, 2.4635579097467750e-01,
          -3.1048308241207401e-01, 4.1130162589343333e-01,
          -6.2694341297619072e-01, -5.4504564336761396e-01,
          -2.9090872807310708e-01, -2.5262912855359038e-01,
          -3.2052259389294491e-01, 4.8338347297232409e-01,
          8.8484550039387710e-01, -4.5022781127801592e-01,
          3.7421426316438372e-01, -3.0900039112301730e-01,
          3.0037500467557160e-01, -4.7266584016405766e-01,
          -2.3334843836097144e-01, -3.1372240737168537e+00,
          4.4087496815015853e-01, 2.5326398734606542e-01,
          -3.0859533489863844e-01, 4.4308179652478569e-01,
          3.6027928652161295e-01, -2.9664276429256947e-01,
          -3.2701137784535755e-01, -3.1728851508340256e-01,
          2.5400025911697016e-01, -1.7623336650538460e-01,
          3.6048503736876281e-01, -4.3295443610016476e-01,
          -1.6759912076343668e+00, 3.5078378737989246e-01,
          9.5932612130807920e-02, 4.1179379770672869e-01,
          4.0627617750798184e-01, 4.2850394427609539e-01,
          1.0374439634419390e+00, -4.4618451285482535e-01,
          -3.9607790572258805e-01, 3.4060029973494843e-01,
          3.8546173564458691e-01, -2.4635189725044870e-01,
          -8.1282397531951445e-01, -7.4751445457292687e-01,
          4.3045803763674778e-01, 1.8450709748145753e+00,
          -4.1896309053757613e-01, -4.2927086910264650e-01,
          6.8292193915512156e-01, 4.6039999908427237e-01,
          2.8436550031540481e-01, 4.6244559901410931e-01,
          -3.9508349573766066e-01, 4.3045461257879142e-01,
          -8.7824465524615725e-01, -5.0591237322371896e-01,
          -5.5875554432812891e-01, -2.2885033707439506e-01,
          -1.6525537634509199e-01, 3.6648253946121423e-01,
          2.1587950933324246e-01, -3.4882632450837220e-01,
          4.2507558644085919e-01, -4.4109588797049226e-01,
          3.4162504703592061e-01, -5.2440287560201293e-01,
          -1.9609811033934901e-01, -2.2133359173535574e+00,
          5.7590417649952175e-01, 2.2791978389717790e-01,
          -3.0104429217481543e-01, 5.1812004802273881e-01,
          4.6210229397287705e-01, -4.7288467414982349e-01,
          -3.7719686741863956e-01, -2.9962352753540583e-01,
          3.1304609306203968e-01, -4.7936268928162368e-01,
          4.2458543590935327e-01, -5.4758661837698852e-01,
          -1.8126928608767492e+00, 3.7185028469595338e-01,
          -2.5922682521749785e+00, -2.5177369308995067e-02,
          -2.4631805265105822e-01, -1.6660882963419033e-01,
          -5.4849800867908527e-01, 1.7040530063420647e-01,
          7.4517818427180554e-02, -1.1340168958005577e-01,
          -7.7677610436138744e-02, 1.7353040585319002e-01,
          8.5992780131126978e-01, 3.4084403641481592e-01,
          -8.5967899119689495e-02, -1.1576393285679392e+00,
          1.2291016580659890e-01, 7.7305830786549068e-02,
          -5.1998883893411352e-01, -7.3571980187658412e-02,
          7.8797901523104605e-02, -1.2636658551501045e-01,
          7.4522159754114345e-02, -8.6531083499571143e-02,
          3.4558355193934004e-01, 2.3979145626686238e-01,
          7.7820506968490510e-01, 1.0071830376312206e-02,
          9.3996416702133115e-02, -1.7732046243208699e-01,
          2.9837319885960778e-01, 1.8441198643075113e-01,
          -1.0983935950117815e-01, 1.8655305795035199e-01,
          -1.7272096118958186e-01, 3.1152400766126420e-01,
          2.3935572551838286e-02, 1.6860607485999637e+00,
          -2.6565187375504218e-01, -4.8949779981529912e-02,
          4.1790091849933243e-02, -3.1207236557146673e-01,
          -2.8038721084307822e-01, 1.3485996578878220e-01,
          3.3319200560785668e-02, 6.4161379276096692e-02,
          5.5975882753850339e-03, 3.0605378890478568e-01,
          -1.2116833847805912e-01, 1.3811401558490743e-01,
          4.4838023296611967e-01, -1.9012678786046913e-01,
          -2.6557623951590337e-01, 5.6347837766663141e-02,
          8.5595179615452696e-02, 1.1300540200649158e-01,
          -1.4220450165175680e-01, 6.1414576608538390e-03,
          -6.5938490157190527e-02, 1.1725790685234923e-01,
          9.1332294042805566e-03, -1.7189790765306964e-01,
          3.1156015251263403e-01, -8.1752195898329230e-03,
          -1.7706496264752014e-02, -2.3194244021327862e-01,
          -3.8930968971096991e-02, -1.1675182421535155e-01,
          9.9123031449258756e-02, 5.9766670070205898e-02,
          9.7837517043957836e-02, 1.4283160595512931e-01,
          -1.0390864017707986e-01, 5.8826077543367029e-02,
          1.0718607337428532e-01, -1.5788900575955198e-02,
          3.7112030778257149e-01, -1.5810537478469822e-01,
          -2.0247838486650968e-01, 5.2355514471703266e-02,
          8.7515455121575136e-01, -1.1432550009775857e-02,
          1.2789702613782131e-01, -8.7364504242904262e-02,
          1.1823676140736628e-01, 9.5310499409094404e-03,
          -1.2276468590171907e-01, -6.9587588877622042e-01,
          -3.4627544547801273e-02, 6.4193450055183440e-02,
          -9.6104586778956502e-02, 1.2228138192094229e-01,
          2.4152954627816393e-02, -7.9420651746446441e-02,
          -2.7083059131725477e-02, -7.3114764562141929e-02,
          5.8256031383486513e-02, -4.8770712827339982e-02,
          7.7898698085086912e-02, -7.4596872261747715e-02,
          -5.2042456454751240e-01, 1.2404237649597291e-01,
          -1.8587568665623608e+00, -1.7232310161382940e+00,
          -1.5952601477106154e+00, -1.6250379462088866e+00,
          -2.0041482495624914e+00, 1.5590678934470044e+00,
          1.7082696815393084e+00, -1.7299289403468845e+00,
          -1.6896455412898019e+00, 1.2638010620745639e+00,
          2.7690420974268521e+00, 1.7457075985101087e+00,
          -1.6109186567847555e+00, -2.8979539847757398e+00,
          1.7406899359245953e+00, 1.7108372303531403e+00,
          -1.5900910324663031e+00, -1.5980112703744340e+00,
          -1.6884118690143637e+00, -1.5795849257021577e+00,
          1.5788465187734586e+00, -1.6575201978096119e+00,
          2.0588639253985552e+00, 1.5611914130210109e+00,
          2.3466702772638954e+00, 1.4509989924591582e+00,
          1.5959288399415661e+00, -1.5560209537079097e+00,
          2.6018390697070912e+00, 1.5657211780170837e+00,
          -1.5019563580037520e+00, 1.5353309340785355e+00,
          -1.5712744345842948e+00, 1.6412858287138714e+00,
          1.5239665934228346e+00, 1.5787960956494838e+00,
          -1.7432571748693937e+00, -1.5520739640205785e+00,
          1.5937746120080298e+00, -1.3774696291076736e+00,
          -1.5027519612295845e+00, 1.5721212555433643e+00,
          1.6392223603585698e+00, 1.7004983807287009e+00,
          -1.5664218114835868e+00, 1.5196567966564380e+00,
          -1.6126855004474741e+00, 1.7673497081053635e+00,
          1.4284824014558342e+00, -1.5657533964726884e+00,
          -1.3762964170604872e+00, -2.7972590746961695e-01,
          -2.7505065830268544e-01, -2.8202085482904871e-01,
          -2.7957918209159371e-01, 1.8226900275423413e-01,
          1.8913684461155653e-01, -1.3837724425210784e-01,
          -1.6657689538184137e-01, 2.9756238835600540e-01,
          5.2389444474580182e-01, 3.4159750260719662e-01,
          -2.6350099457434117e-01, -5.8685744935705186e-01,
          2.5535924677155530e-01, 2.3515965126510488e-01,
          -2.4621940858175662e-01, -2.4992539835511005e-01,
          -2.3113990619578939e-01, -3.2840636143752622e-01,
          2.7879561734396585e-01, -2.7148340499615248e-01,
          3.9901892484616042e-01, 2.7702739915504915e-01,
          6.7212421191832961e-01, 2.6157598188261977e-01,
          1.1453454513437998e-01, -2.7504838530291348e-01,
          1.1574909103422839e+00, 2.9084598303437115e-01,
          -3.3749298630117552e-01, 2.9065940137058183e-01,
          -2.3746618442058573e-01, 2.1478655609598857e-01,
          1.7444031146895178e-01, 2.3537662567784823e-01,
          -3.5394570490222566e-01, -1.7650529078452176e-01,
          2.8931388562081439e-01, -3.4200678209679852e-01,
          -2.3513996439567211e-01, 2.0458992040026575e-01,
          1.8247997781040107e-01, 2.6310497667498006e-01,
          -1.9904369887602907e-01, 3.1025074731704960e-01,
          -3.0514346928174768e-01, 2.9502669904114226e-01,
          -1.4422584510282471e-01, -2.9460979235499091e-01,
          -6.0950525200592000e-02, -1.0456561499728594e-01,
          5.4218144911148472e-02, 6.3016202278181957e-02,
          2.2152883052230649e-01, -4.7355054322391524e-02,
          -5.1037068236142936e-02, 4.0464445221204522e-02,
          -3.5840743167344855e-02, -1.3449352574721443e-01,
          -2.2702893342428254e-01, -1.9969903092371649e-01,
          -4.6608432369372864e-02, 7.8054900172150365e-01,
          -3.1333609498549145e-02, -3.8372495699939505e-03,
          2.2399983809592577e-01, 3.1887255329213646e-02,
          3.6264263784183341e-02, 3.8525540723929316e-02,
          9.6246203919140693e-03, 4.2937230768050866e-02,
          -7.5132145234275347e-02, -1.8922943279753640e-01,
          -2.2360684355253988e-02, 1.8158888476308094e-01,
          3.7648806034681119e-02, -9.2003313034360549e-03,
          1.1064154084869793e+00, -2.2455512879911110e-02,
          4.3525639398818433e-04, 3.5540341687595470e-02,
          1.0485238092235541e-01, -1.0486171493580339e-01,
          1.2089431678530262e-01, -1.5359768799702678e+00,
          -3.6267666276896010e-02, -4.8491736526589731e-02,
          9.9495552199860393e-02, 2.4254007289884894e-01,
          1.1846391007957026e-01, -9.0283160437273968e-02,
          -2.6794083599711103e-02, -4.6457733912815949e-02,
          1.1482361636541611e-02, -8.4323912446404147e-03,
          -9.8707286079456891e-02, -8.6303125213003401e-02,
          -9.1422418440560393e-01, 4.2281065773188214e-02,
          -1.2648559004056712e+00, -2.0634921670996806e-01,
          -4.7207753133455638e-01, -4.2307621385688426e-01,
          -7.9750788536643547e-01, 3.9154444848262987e-01,
          3.7566993434008966e-01, -2.7258614125712111e-01,
          -3.7142906447686191e-01, 1.7329559483384580e-01,
          1.0535087938480485e+00, 5.1687519203611421e-01,
          -3.2979175817928913e-01, -1.9875717421386607e+00,
          3.7120991800187264e-01, 3.8350310204242855e-01,
          -6.4825116719570830e-01, -4.1342984894418167e-01,
          -3.6107475907231412e-01, -4.2281492277265448e-01,
          3.9038241534713919e-01, -3.6596895698997417e-01,
          4.3561078231877770e-01, 4.9047744867536686e-01,
          1.1346253101470265e+00, 2.5590679981675574e-01,
          2.1678224805634919e-01, -3.9296730889268255e-01,
          1.6116605512876221e+00, 3.4276463908377763e-01,
          -4.3338323985662003e-01, 4.0993513904781753e-01,
          -4.6205125224573668e-01, 5.7983115780664440e-01,
          1.6892254092413961e-01, 1.6929113527449904e+00,
          -3.5610777890376483e-01, -1.6265047714342268e-01,
          2.7563197934584882e-01, -5.1548759639326547e-01,
          -5.1341241946850136e-01, 3.9275328018747319e-01,
          3.7396909711205362e-01, 2.6733882897060524e-01,
          -3.4412436413187236e-01, 3.1375763502462373e-01,
          -3.0633336902043284e-01, 4.5035279447041232e-01,
          5.6364431770414425e-01, -4.3441352697199753e-01,
          9.8767268115907991e-01, 5.7963369382087918e-02,
          2.6264569427018475e-01, 1.2001376540272173e-01,
          5.0929230559458938e-01, -7.9868135920284869e-02,
          -7.5113543452236003e-02, -4.4025038294246581e-02,
          -3.4150975584930271e-02, -3.1099787598601079e-02,
          -2.6615967279828540e-01, -2.9436686150050345e-01,
          2.4354846926034544e-02, 9.1655195671130640e-01,
          -3.5147324334002632e-02, 1.7080388708738948e-02,
          4.6142053619771223e-01, 9.0172567280537116e-02,
          -7.3992924249449629e-02, 6.1758939781161731e-02,
          -2.5554253609511184e-02, 4.8155679625185743e-02,
          -1.8597067636599315e-01, -1.8775368776272086e-01,
          -1.3501110007919800e-01, -9.4163304945668049e-04,
          6.8806469181014254e-02, 9.3985865998741994e-02,
          1.1510101515306970e+00, -7.1304694261555168e-02,
          1.4678825688574965e-01, -1.1907811861222678e-01,
          1.9293007092252068e-01, -3.0822875619761603e-01,
          8.2577500994094777e-02, -1.5714466239631484e+00,
          1.0625668244211320e-01, -4.0677655979444571e-03,
          4.7460113462223494e-02, 3.4347967205796665e-01,
          1.3375395190691056e-01, -1.0176795170815964e-01,
          1.3725528747911780e-02, -1.3989828831684578e-02,
          2.3115284740261574e-02, -2.0256994645510779e-01,
          8.3157768778236760e-02, -1.7551300574793055e-01,
          -1.4217409121236066e+00, 2.0194564156803280e-01,
          -3.8317722074793564e-01, -8.5975893487448593e-02,
          -7.5425663727440501e-02, -4.6207652212388747e-02,
          -4.9183200551756240e-01, 2.3604228386253995e-02,
          2.3745471460712420e-01, -5.9524675313706879e-02,
          -5.3100978709402662e-02, -3.7931114822215933e-01,
          8.6407946102145772e-01, 2.8177730780040378e-01,
          -1.2855113913293181e-01, -1.8049000916680698e+00,
          1.1770974485325172e-01, 7.2151693210546555e-02,
          -9.0375046957735822e-02, -4.8477433027019186e-02,
          -1.2618845578060409e-01, -6.4617690352026438e-03,
          -1.1042524042392844e-03, -4.9854463388981550e-02,
          3.0306925087371844e-01, 9.9684565344290668e-02,
          8.3476358951555174e-01, -6.3187819463165790e-02,
          6.5832246096554262e-02, -1.2412159721559379e-02,
          2.0872314627758586e+00, 6.5091253997576023e-02,
          -5.8089537034469854e-02, 9.7731892254732042e-02,
          -4.5724533696783046e-02, 6.9081146209756306e-02,
          8.5582194291381794e-02, 6.5628269890789726e-01,
          -1.4330010322985504e-01, 1.2689738828090655e-01,
          9.4793640232515769e-02, -6.5015573120118852e-02,
          -8.6496048503389114e-02, 7.1310431997640755e-02,
          3.1607097314502772e-02, 7.8014923046413262e-02,
          -4.0175849423210952e-02, -1.1530744236111256e-02,
          -6.8934944215602909e-02, 1.5635590396027021e-01,
          -2.3662962538808299e-01, -1.1212839946249015e-01,
          -2.0767458443581774e-01, 2.9793339741624331e-01,
          1.8228634951447381e-01, 2.6891836849058592e-01,
          2.7214150011658965e-02, -2.4376865063041747e-01,
          -2.8121452833431165e-01, 2.5538060363253201e-01,
          2.6632295333222233e-01, -1.9085841397119718e-01,
          1.9929628360845983e-01, -6.7198520572723699e-02,
          2.2454041590020155e-01, -5.7820439458660178e-01,
          -2.0375268387848319e-01, -2.7827358811264491e-01,
          9.7459416262813806e-02, 2.7376725383317652e-01,
          3.1074794864350941e-01, 2.5673894997865770e-01,
          -2.7797518065138782e-01, 2.0256059292548242e-01,
          -1.1105998327364443e-02, -1.3719773519302095e-01,
          1.6750340585586299e-01, -3.1907186311344476e-01,
          -2.7479064048258844e-01, 2.6049574242325768e-01,
          8.8185250124562142e-01, -2.5421306495427831e-01,
          2.2725845145268406e-01, -2.1609263701387199e-01,
          3.0658586251649134e-01, -1.2266526089560377e-01,
          -2.9118147096930874e-01, 7.6872554090168221e-01,
          1.2861595839887868e-01, 3.3420437657264257e-01,
          -3.2898773359854899e-01, 1.4071394589161462e-01,
          2.0139426537532923e-01, -2.0522374861961165e-01,
          -2.8917773982337758e-01, -2.3040099497356342e-01,
          2.6072903652296259e-01, -2.0072236891188094e-01,
          2.9998421308857443e-01, -1.5257759348569055e-01,
          -6.0881005554575089e-02, 2.7354915759759091e-01,
          3.6087125488931737e+00, -1.5547607290837254e-01,
          -1.1942444879104949e-01, -1.9352387603093385e-01,
          3.5849446996450085e-01, 1.2184351210732453e-01,
          2.0857364193650271e-01, -3.7658659371498232e-02,
          -1.0944936200739254e-01, -2.3363978440113561e-01,
          -3.8940646347569668e-01, -6.3215471213485169e-02,
          -9.3900230391442532e-02, 1.8624320350332152e-01,
          6.0502889439637220e-02, 2.0573275538489594e-01,
          2.1871781023580131e-01, -1.8959715334269553e-01,
          -1.7993046830040399e-01, -1.1997869488877416e-01,
          9.1165152664022794e-02, -1.4631072882536689e-01,
          -3.0630289535148286e-01, 5.8471598605257809e-02,
          4.1970537001112133e-02, -7.9955636414531961e-02,
          -3.4224195284956661e-02, 1.4152605781406938e-02,
          1.4331144754428309e+00, 3.9680554609767556e-02,
          -9.4205480847284806e-02, 1.7853463803796513e-01,
          -1.2125277605400273e-01, 8.9890939566808423e-02,
          3.5886027583034906e-02, -2.1613379272328421e+00,
          8.9613569193484705e-02, 2.4398362685081866e-02,
          7.8627545801525325e-02, 1.0583483267608301e-01,
          -2.9210249392766011e-02, 1.2806486782061188e-01,
          1.4571591282421228e-01, 3.6757935755992177e-02,
          -1.0090438775609242e-01, -1.9353026181425784e-01,
          -5.9096239101254916e-02, 1.3982026344292522e-01,
          -1.3227388546723413e+00, -1.5124610477913719e-01,
          -6.4302549438449000e-02, 1.3947714439932151e+00,
          1.4556061470552757e+00, 1.5134381767033260e+00,
          1.7360965899446772e+00, -1.3775478515164499e+00,
          -1.6293719823175647e+00, 1.2219149607237347e+00,
          1.4176416451074372e+00, -6.1463850555800836e-01,
          -2.2040290197220713e+00, -1.4762185844541049e+00,
          1.4523126182336128e+00, 4.0403915688756271e+00,
          -1.5277877212450166e+00, -1.5007411548418328e+00,
          1.2664276252698508e+00, 1.4672261887418365e+00,
          1.5609914183514397e+00, 1.2330342328707555e+00,
          -1.3768019466790988e+00, 1.4219891981737853e+00,
          -1.4713723031281802e+00, -1.4023846237342850e+00,
          -1.5856773383364740e+00, -8.8412757413659215e-01,
          -1.0557177838185312e+00, 1.3416885131431298e+00,
          -1.2380783905165076e+00, -1.3518009580634893e+00,
          1.1809218566739490e+00, -1.4569134908584829e+00,
          1.2917298652142344e+00, -1.5069973763919515e+00,
          -1.2273402678057375e+00, -3.4770301639871688e+00,
          1.2891612699460324e+00, 9.0189478254631550e-01,
          -1.2301794257035936e+00, 1.2029399306446176e+00,
          1.1519847368852287e+00, -1.3695170639097749e+00,
          -1.2871886731633004e+00, -1.2089126532194208e+00,
          1.3360585530554054e+00, -8.1894321532194414e-01,
          1.2685626991148720e+00, -1.4892913559979271e+00,
          -1.6653029250633262e+00, 1.3402088260730591e+00,
          5.9532437452449001e+00, 2.6858660426671105e-01,
          4.6965758510098593e-01, 2.7172853829109228e-01,
          1.8467723952160340e+00, -1.9806356716403403e-01,
          -3.0599982410356574e-01, 7.6770236879693665e-01,
          4.9940803406170919e-01, -7.1030461070639450e-01,
          -2.4650962286096947e+00, -1.2795359221577260e+00,
          3.2024985413651558e-01, 2.0221475367643023e+00,
          -3.2703565177846589e-01, -3.5049211215870785e-01,
          1.2196475342649737e+00, 1.9092145791442358e-01,
          2.5903687025421551e-01, 3.2847421426269885e-01,
          -2.5122602102339286e-01, 3.7377046493161176e-01,
          -1.7777440815313519e+00, -4.9000878309250390e-01,
          -1.6827790220936878e+00, -7.3687172891509145e-01,
          -7.9932316900686928e-01, 2.8240722205616431e-01,
          9.1636086360166424e-01, -3.8079917124950696e-01,
          5.1516805124025911e-01, -3.6365667814340441e-01,
          4.7819224324289317e-01, -5.1786517516687169e-01,
          -6.7693161041849559e-01, -4.5673919011036324e+00,
          8.1991301447339970e-01, 6.6033864256001540e-01,
          -5.9043519655287624e-01, 6.4289380557738540e-01,
          6.1762853884950319e-01, -2.6117263319406531e-01,
          -4.4903678410727588e-01, -5.5075224639593823e-01,
          3.7973213483230794e-01, -1.1665128880582691e+00,
          3.4096143239807697e-01, -4.9144915304353565e-01,
          -2.8031232265565516e+00, 3.0742350945613806e-01,
          3.0455093508146089e+00, 3.6665603140865788e-01,
          4.6491033125899928e-01, 4.0818469656977108e-01,
          4.8731580159014265e-01, -4.0320424941079619e-01,
          -2.7883042126593049e-01, 2.8104472705055028e-01,
          3.4108507560563267e-01, -9.4415168629182278e-01,
          -3.8274833621226956e-01, -4.3105729517152164e-01,
          4.9830028235853008e-01, 5.1407129342502844e-01,
          -2.9031462907444633e-01, -4.2294331251342426e-01,
          5.7710154966285665e-01, 4.3907574242273328e-01,
          3.2030189537740300e-01, 4.9539251558633263e-01,
          -3.5690142215378101e-01, 3.8964061132733585e-01,
          -3.2535104016811200e-01, -4.2414991098328564e-01,
          -1.8247674245325701e-01, -3.0849892287207004e-01,
          -2.5685715375124824e-01, 4.9128563136879033e-01,
          1.0437848144569339e+00, -3.7439942373562984e-01,
          3.4252100820931447e-01, -4.3076856849782830e-01,
          3.6509204764295777e-01, -4.5764784292700517e-01,
          -2.9592818401266952e-01, -1.9400130906186410e+00,
          4.4194068003778458e-01, 3.7862564235215262e-01,
          -4.0514328241607134e-01, 5.8853695357102687e-01,
          2.7952240988711352e-01, -3.6865065171348810e-01,
          -3.1245957255288431e-01, -3.3544666131641188e-01,
          2.8203672094752485e-01, -4.8185328772436870e-01,
          4.6516579695333682e-01, -4.0114193962193578e-01,
          -1.4831151354938659e+00, 5.3447037314266022e-01,
          3.7115852304805124e+00, -1.0864467036939407e+00,
          -1.1981296658124887e+00, -1.1520227671805343e+00,
          -1.2197003121393888e+00, 1.2837949848548589e+00,
          9.6912323063659256e-01, -7.0728046764250485e-01,
          -8.8611117190969713e-01, 1.6129207255119000e+00,
          9.8084318822467453e-01, 9.5679700020709779e-01,
          -1.1464327639553358e+00, -2.6112273860937054e+00,
          9.9535531531926080e-01, 8.6073693304007015e-01,
          -1.5605700331112269e+00, -1.0770962539801570e+00,
          -8.5718258474269637e-01, -1.0090879100375736e+00,
          1.1026774100376397e+00, -9.6147902096993765e-01,
          8.0333697655263592e-01, 1.3772641590676833e+00,
          1.2363803650618297e+00, 6.2553823747400883e-01,
          6.5833628605481143e-01, -1.3333151898005939e+00,
          -2.7737047452125879e-01, 1.0935134649011438e+00,
          -1.0310685415155065e+00, 1.0137043967826034e+00,
          -9.8355342802306445e-01, 1.3243432776472741e+00,
          6.1929998835785083e-01, 6.6910998583344918e+00,
          -1.1392572235835741e+00, -8.1029083240766331e-01,
          7.6243826830417050e-01, -1.5534201716352238e+00,
          -9.1831162693862844e-01, 1.1461689002342383e+00,
          8.8607591810441066e-01, 7.9621014491524955e-01,
          -8.8378223538725409e-01, 7.9969788309144119e-01,
          -1.0639847196353005e+00, 1.0641780079681269e+00,
          3.0664993177449107e+00, -1.2064884782063361e+00 ]
      - [ 3.8274109240137311e-01, 6.0412085556824674e-02,
          1.5115719166270117e-01, 8.4318656394887476e-02,
          -7.8593201943557497e-02, 1.4367995732388689e-01,
          -6.7797964503900451e-02, 9.0584180941467238e-02,
          1.5417550578290943e-02, 5.1710156641252936e-01,
          5.0366414817025318e-01, -8.0997426766941702e-02,
          1.1201858218231753e-01, -7.6797536929612187e-01,
          -6.2854113073183187e-03, 2.5946628021018724e-02,
          -1.7848817195236630e-01, 1.0078358390769158e-01,
          -4.9985858775831400e-02, 1.7854405396103118e-01,
          1.0490837421994524e-01, 7.4823441524121084e-02,
          -2.5562238335664583e-01, 1.9382015322918476e-02,
          -1.5974620350064442e-01, 8.1615423594701142e-02,
          7.2880501184865137e-02, 8.0393075630344743e-02,
          -3.0270549714704470e-01, 7.5484961157638461e-02,
          1.5675843734795317e-01, 9.7742246031034041e-02,
          1.6555771512378673e-01, 1.2491812805857747e-02,
          5.6312200923104246e-02, -8.1715722962185189e-01,
          2.2907531798998912e-01, 2.8474735375560023e-01,
          7.2713854044204426e-02, -2.6540185427899918e-02,
          1.5391010066365268e-01, 1.7493052721330390e-01,
          5.6004923541108635e-02, 6.5398661565683053e-02,
          1.0498711791328999e-01, 4.2512157518424448e-01,
          1.1633830173256367e-01, 4.8598686324739043e-02,
          2.9057556437628895e-01, 1.7073725284553437e-01,
          3.2884058809893542e-02 ]
