%YAML:1.0
my_nn: !!opencv-ml-ann-mlp
   layer_sizes: !!opencv-matrix
      rows: 1
      cols: 3
      dt: i
      data: [ 24, 50, 1 ]
   activation_function: SIGMOID_SYM
   f_param1: 5.9999999999999998e-01
   f_param2: 1.
   min_val: -9.4999999999999996e-01
   max_val: 9.4999999999999996e-01
   min_val1: -9.7999999999999998e-01
   max_val1: 9.7999999999999998e-01
   training_params:
      train_method: BACKPROP
      dw_scale: 1.0000000000000001e-01
      moment_scale: 1.0000000000000001e-01
      term_criteria: { epsilon:1.0000000116860974e-07, iterations:800 }
   input_scale: [ 1., 0., 1., 0., 1., 0., 1., 0., 1., 0., 1., 0., 1., 0.,
       1., 0., 1., 0., 1., 0., 1., 0., 1., 0., 1., 0., 1., 0., 1., 0.,
       1., 0., 1., 0., 1., 0., 1., 0., 1., 0., 1., 0., 1., 0., 1., 0.,
       1., 0. ]
   output_scale: [ 1.0526315789473684e+00, 0. ]
   inv_output_scale: [ 9.4999999999999996e-01, 0. ]
   weights:
      - [ 8.0391421089117969e+01, -1.0973498314159578e+01,
          -2.5959726579048645e+00, 3.0700184768683574e+00,
          -1.7069267976524560e+00, -2.8173216459066115e+00,
          2.9282570301458901e+00, -3.2829481512465168e+00,
          4.5170089236782722e+00, 1.0080732697397112e+01,
          1.0074615316872064e+01, -2.6195375098365417e+00,
          -6.5099368488668272e+00, 8.4382918062790786e+00,
          -7.6771554784765916e+00, -5.4566154315479443e+00,
          3.0770879029037035e+00, 1.1521446513535343e+00,
          2.7941131090097335e+00, -2.2633564428345725e+00,
          -2.7803418555016557e+00, 2.4119545378620533e+00,
          -1.0180488359166855e+01, 2.6660735178847839e+00,
          8.1556641937128074e+00, 8.6613694298868236e+00,
          -9.6140985128684289e+00, -3.0359495011054465e+00,
          8.1355199010914578e+00, 2.2234813650385434e+00,
          2.8952660304589282e+00, -2.7911050025870621e+00,
          2.8310783096729808e+00, -2.5734716024402737e+00,
          2.3864242592832130e+00, 1.5385104083956126e+01,
          -7.0313136021056248e+00, 2.9521174524326197e+00,
          -5.6103683315748780e+00, 2.8876195682469130e+00,
          6.9930727889899220e+00, -2.6082475135521568e+00,
          2.7226038941899198e+00, 2.2870947224330229e+00,
          2.4050815400038736e+00, 2.9890213480928209e+00,
          -2.9776040189823831e+00, 2.9034516315403236e+00,
          -1.3993333030660982e+00, -2.7932635791969718e+00,
          8.9565482077880162e+01, 9.0553990661218298e-01,
          -1.3157173425478441e+00, -1.8213907870988212e+01,
          -1.4159273518406228e+00, -1.2661140841981571e+00,
          1.3299579323849480e+00, -1.4023437050861918e+00,
          3.5823461403173629e+00, -2.4714035263342315e-01,
          -3.8925728857519248e-01, -8.9457857819415587e-01,
          -6.2737987634674708e-01, 1.8212032515124896e-01,
          -3.9411690741865923e-01, -8.8281130626707782e-01,
          1.2969549370514966e+00, -3.9529284950901249e+00,
          1.0995451715161015e+00, -1.3613358110401352e+00,
          -1.1562860928353862e+00, 1.2587348779045486e+00,
          4.9126859699812114e-01, 1.2288788080992930e+00,
          2.1035641733369456e-01, -1.7721681348110280e-02,
          2.7909082810070318e-01, -1.0987682906748046e+00,
          1.5411879613212648e-01, 1.1042708356356068e+00,
          1.1075135524193103e+00, -1.2461341063078124e+00,
          1.2875402664919895e+00, -1.2119314388346563e+00,
          6.5089899858309841e-01, -1.6425863368647313e+01,
          -3.9277949245146665e-01, 1.1498934773830587e+00,
          -8.6951151373107494e-01, 1.1064857726624697e+00,
          5.4776084257701985e-01, -1.2199973596224636e+00,
          1.3501746905956913e+00, 1.2021658736077623e+00,
          1.1589881808789047e+00, 1.1553985005454197e+00,
          -1.1037010557042224e+00, 1.3095833279573392e+00,
          8.3915947390173593e-02, -1.0689185466322129e+00,
          -1.8369920056103869e+01, 8.4040087157400600e-01,
          -1.0201580879993695e+00, -3.0036710923990828e+00,
          -1.8032600837202901e+00, -1.0674815753448121e+00,
          9.9726084074531329e-01, -1.3305113202512464e+00,
          -7.2033498023221329e-02, -2.4993984054587079e-01,
          -3.7260930190587871e-01, -1.2378263608418949e+00,
          -9.5364851835184516e-01, 3.7580397380333663e-01,
          -6.1961854497665347e-01, -1.2845811251676125e+00,
          1.2603413641810479e+00, 3.9571469534060072e-01,
          9.3735432073623948e-01, -1.1080268992346924e+00,
          -9.9584540873200633e-01, 1.2990795453554695e+00,
          3.8309972522816982e-01, 1.2071834940915838e+00,
          4.7673491281682984e-01, 2.3571919419787396e-01,
          6.0231807575215089e-02, -4.2516530666487357e-01,
          4.5556310505272418e-01, 1.5317804856737505e+00,
          8.2669948422670114e-01, -9.2334840545985120e-01,
          1.1440987338711115e+00, -1.2552913266256276e+00,
          1.7842751860620478e+00, 3.0669967396600711e-01,
          -8.6918073398600837e-01, 5.0184257494243956e-01,
          -1.1355557293960141e+00, 9.1798651389210129e-01,
          7.8396145387528959e-01, -1.1447779313168178e+00,
          1.1649385336472893e+00, 1.4164892311453858e+00,
          1.4052581240156881e+00, 7.0814425698047334e-01,
          -4.1846077483645794e-01, 9.5748780387277987e-01,
          -2.5413024904656805e+00, -1.0139708051415297e+00,
          4.7768677850860861e+01, 5.4750304481780976e-01,
          -6.7113313297297505e-01, -2.4343567404568613e+00,
          -1.1774558885015900e+00, -7.3224888566102220e-01,
          7.1947140518628838e-01, -6.4944263111805323e-01,
          1.1673614311021314e+00, -3.6870784614867169e-01,
          -3.4237976641987061e-01, -9.2012409335657974e-01,
          3.6025420108616577e-02, -1.9966275640572670e-01,
          1.8865107448415197e-01, -8.3712854458800640e-02,
          6.5189649447808184e-01, 2.6058463901236810e+00,
          7.1525108003484306e-01, -7.0887790741205425e-01,
          -7.7465576836678296e-01, 8.5365638584152037e-01,
          4.0514217957130949e-01, 7.6369842482470673e-01,
          -2.2890393837638118e-01, -3.0448526868516401e-01,
          2.7768293138143091e-01, -5.5086517968402304e-01,
          -9.9868453203694210e-02, 9.1206602200516251e-01,
          5.7015703547925967e-01, -6.8107699093799812e-01,
          7.4328681200118130e-01, -8.0825037088175056e-01,
          1.1719293801989172e+00, -2.4361927937111099e+00,
          6.1931384324292869e-02, 4.5015885513568116e-01,
          -1.4140040354601371e-01, 7.1985887389733227e-01,
          -1.3263076710605884e-01, -8.0560762021091559e-01,
          7.5104419338907979e-01, 8.4531484096321641e-01,
          8.4866427961600355e-01, 6.5647615613039911e-01,
          -4.5920602026751223e-01, 6.5753968162838861e-01,
          -1.6381603438586452e+00, -7.1122316221184356e-01,
          4.1602713076058500e+01, -1.0559658347540711e-01,
          -7.5454502165680037e-01, -5.1928849695216410e+00,
          -1.3002317357783018e+00, -5.4845729632835039e-01,
          4.6186487750131400e-01, -5.2252561674967124e-01,
          -3.3307640973501500e+00, 3.9170673350304280e-01,
          2.0840059540199160e-01, -8.1318015816874245e-01,
          -4.9820050444972158e-01, 4.1380477411804778e-01,
          -4.0882119402583833e-01, -4.1830623888111973e-01,
          6.6670257411956446e-01, 6.3623033395834820e+00,
          5.3700255935001151e-01, -8.3197024278884846e-01,
          -5.8788695332475593e-01, 8.1291938104418571e-01,
          -2.8162254689876487e-01, 6.8651570601588030e-01,
          3.9277463002031182e-01, 3.9002992547328680e-01,
          -3.6056330961637600e-01, -3.2420113998468636e-01,
          3.2758648405656460e-01, 1.0951539562114383e+00,
          4.8577264000767206e-01, -5.0633827239565377e-01,
          5.0426323277447738e-01, -8.7481629308083697e-01,
          1.2530335661493590e+00, 2.4539766482332541e+00,
          -2.6164206720133149e-01, 2.4414415775345227e-01,
          -3.9311153189252296e-01, 5.1851302248021069e-01,
          4.4129359633783077e-01, -7.4535165795407565e-01,
          5.9155305678781567e-01, 9.4295636593034127e-01,
          8.9726843608639195e-01, 4.0026211631475600e-01,
          -2.9345991088932072e-01, 4.3672804741351645e-01,
          -1.6710965501535009e+00, -6.6521888995147471e-01,
          3.9277059395608575e+01, -2.9375673119327179e+00,
          -6.7570918138968250e-01, 7.0723044861064155e+00,
          -2.6006337376513200e-01, -7.9582508813293895e-01,
          7.6821723782355311e-01, -9.3209765055714877e-01,
          5.2070650894155497e+00, 2.3685488520547651e+00,
          2.6393330280180618e+00, -8.0307723407623588e-01,
          -1.4039623909777037e+00, 1.9955950392506054e+00,
          -1.6948361494852957e+00, -1.1853240227919346e+00,
          8.5395562650118773e-01, -5.0616550534197193e+00,
          7.2693427862582427e-01, -4.9111170876478816e-01,
          -6.7767369254434551e-01, 5.3534486038403384e-01,
          -2.7829503516793932e+00, 6.6507193659500519e-01,
          1.9856297749274026e+00, 2.1836918942745780e+00,
          -2.4039054584822246e+00, -8.7068654809839185e-01,
          1.9536545293636718e+00, 4.4962612566919063e-01,
          7.7977331073023437e-01, -7.9483758914541891e-01,
          7.5056046611246285e-01, -7.3557402397468230e-01,
          8.7765444412265792e-01, 6.4103869083049503e+00,
          -1.6256505659441689e+00, 6.5741330258745867e-01,
          -1.2313821841849530e+00, 7.9614636894268864e-01,
          1.4681406054940336e+00, -6.6705440191187815e-01,
          8.1350968331924056e-01, 4.3490113528713764e-01,
          6.7900974523284818e-01, 6.7985142106408447e-01,
          -7.4403877806465391e-01, 8.5753714496246336e-01,
          -1.0761649038301095e+00, -8.0606297321686926e-01,
          4.9116299256640204e+01, 4.8359369262103680e-01,
          -7.8495783491918258e-01, -8.3099457530108882e+00,
          -1.5836489946032914e+00, -5.4285801442648673e-01,
          3.9211198295081195e-01, -2.4317790214275653e-01,
          2.7168134949497968e+00, -6.9534962183651211e-03,
          -4.9898991101683993e-01, -9.9569482785539598e-01,
          -4.7524565743575102e-02, -2.7610333249022767e-01,
          1.1963599500806571e-01, -6.3306431228068755e-02,
          3.1475836740732754e-01, 9.9140645192860539e+00,
          6.1421549704407652e-01, -1.0655345810893491e+00,
          -6.3957802425287869e-01, 1.0910295346292043e+00,
          5.4499713847277043e-01, 7.9891578003545227e-01,
          -2.8329595816913256e-01, -1.8188277798157867e-01,
          3.2325002979294509e-01, -8.8381911566351889e-02,
          -3.2670162699852989e-01, 1.4907198399158517e+00,
          4.7537030493916232e-01, -4.6857086360799471e-01,
          4.0751602925070451e-01, -9.2384131499507416e-01,
          1.4375343165265744e+00, 4.6712563033940357e-01,
          2.8347998943039082e-01, 2.5131062872116122e-01,
          -1.0404846674454485e-01, 4.6829963526381524e-01,
          -1.5167397122526963e-03, -6.4618366988848919e-01,
          5.6519282732476417e-01, 1.3133774515701628e+00,
          1.1597100047386459e+00, 2.9512415738779230e-01,
          -2.3308965770440687e-01, 4.2321429336653826e-01,
          -2.0865602779592898e+00, -7.2180759547710471e-01,
          4.5397114392050469e+01, -2.9616776422518001e+00,
          -6.1502323648396673e-01, 5.2222727396764346e-01,
          -3.3500881153675818e-02, -7.0586833131595306e-01,
          5.8184706564952582e-01, -5.7063676030979515e-01,
          -3.2800124309620773e+00, 2.6642452390580154e+00,
          2.6698068074220087e+00, -7.8389513997928018e-01,
          -1.4173922701669097e+00, 2.0587787032510110e+00,
          -1.8944588958642317e+00, -1.1039637201457542e+00,
          6.0354328943001390e-01, 1.7005931209100877e+00,
          5.8680907783261904e-01, -5.3220836160413265e-01,
          -6.0309402250633293e-01, 5.1127120890763167e-01,
          -2.7471035933220054e+00, 6.6522612382330948e-01,
          2.0842864087748425e+00, 2.1947885942239496e+00,
          -2.4464353289640739e+00, -7.2849167589114994e-01,
          1.9364325392107691e+00, 5.1256701780286318e-01,
          5.7160652339038731e-01, -7.3177356514347347e-01,
          5.7997338654194974e-01, -6.5995805609282310e-01,
          9.1194853976175227e-01, 4.0479423202843412e+00,
          -1.5394723120944334e+00, 5.5212705587909017e-01,
          -1.0641548097576685e+00, 6.0263968119631695e-01,
          1.6298197085928532e+00, -6.5415196345270687e-01,
          6.1336673585248291e-01, 4.0758693401577828e-01,
          5.7716440100954947e-01, 6.8396665568920190e-01,
          -6.5594627639006020e-01, 6.9686594874975794e-01,
          -1.4531620783016719e+00, -5.8453124850607274e-01,
          6.6411587679214520e+01, -2.0347792159645675e+00,
          -5.4536742520154957e-01, 1.6296846779086900e+00,
          -2.6517310288612712e-02, -5.2393688576911024e-01,
          4.9904878433930722e-01, -4.5418955055276894e-01,
          2.8867900700164895e+00, 1.9912586894895514e+00,
          1.5367996891898843e+00, -6.5423377568224672e-01,
          -5.3121746745597320e-01, 1.0002352583669338e+00,
          -1.0588726131153099e+00, -4.1932524706840024e-01,
          4.0295757395425291e-01, 2.2690882940610204e+00,
          5.8671304584874928e-01, -4.9040601757967650e-01,
          -5.3366014900143866e-01, 3.8139325042649125e-01,
          -1.6108942862992723e+00, 3.9046704118548708e-01,
          1.0456820638733406e+00, 1.2892443699401530e+00,
          -1.6012742878691377e+00, -4.8197886377723320e-01,
          9.4513787780744429e-01, 3.7716729516698300e-01,
          5.2764755162147681e-01, -4.8790492323451101e-01,
          4.1597899184624165e-01, -5.3031931775836672e-01,
          5.5896554373471097e-01, 1.5486406647753153e+00,
          -5.3497996986430330e-01, 5.4065847946789092e-01,
          -4.4214553623863090e-01, 5.2607905225522467e-01,
          6.9083928087973379e-01, -4.5838676788174060e-01,
          4.1803370159724484e-01, 3.8121666198323173e-01,
          3.9137339556820083e-01, 4.8482606261712746e-01,
          -5.8159833005940076e-01, 4.4714166843913372e-01,
          -6.3695797608273896e-01, -5.0626929314049007e-01,
          7.0423409243219965e+01, -4.4974477740573580e+00,
          -6.8773541364629509e-01, 1.2015961270487023e-01,
          -4.7290024039068118e-01, -5.9400506036301093e-01,
          6.0542528738331014e-01, -4.8134831949159584e-01,
          -1.0509385689118753e+00, 3.9621747046689948e+00,
          3.7386077511329909e+00, -7.2306829634240999e-01,
          -1.1855908264620469e+00, 2.5003910830150815e+00,
          -2.0190569631996285e+00, -8.1444535029416409e-01,
          5.2853547561446801e-01, 8.2304615143439985e+00,
          7.0900581312152422e-01, -7.3233036974181420e-01,
          -6.6346003116770258e-01, 7.4490444074613260e-01,
          -3.9192206730124832e+00, 5.7339921969818775e-01,
          2.4004983311804988e+00, 2.5782551919545478e+00,
          -3.5398023965231151e+00, -7.1857972563029437e-01,
          2.2723584941992963e+00, 6.2205358375672182e-01,
          7.9755356422454238e-01, -6.6034478517498107e-01,
          6.3942576188337619e-01, -7.2826318476668506e-01,
          8.9319695625810669e-01, 8.6543092216275030e-01,
          -1.3192549382008854e+00, 8.3115943073930343e-01,
          -9.4031563762050585e-01, 6.7337640893514061e-01,
          1.6446362354522968e+00, -6.4412122924508408e-01,
          6.5511599788784725e-01, 6.0057650726623479e-01,
          6.1414466674111456e-01, 7.7955230716979462e-01,
          -7.8794359440467976e-01, 6.0234893807757950e-01,
          -1.4314876201047011e+00, -7.2424661610798569e-01,
          7.4871126652216446e+01, -2.6919167751002036e+00,
          -4.9073078509578982e-01, 5.4258500715405038e+00,
          9.4273501799724213e-01, -7.4713386126119141e-01,
          7.0892862909492182e-01, -7.2919909271388417e-01,
          -7.3510806840204301e+00, 2.1903975297987723e+00,
          2.4470313694488293e+00, -5.4447448806226617e-01,
          -1.1756737467821023e+00, 1.8437829023645758e+00,
          -1.5685580520661380e+00, -9.0290274691797923e-01,
          7.5233614257481896e-01, 4.6054128816889435e+00,
          7.1973614124224283e-01, -1.4790699953586514e-01,
          -6.6451805795098862e-01, 2.4782090890469938e-01,
          -2.4215264395929634e+00, 3.7296849152630451e-01,
          1.7609518258742365e+00, 1.8623155980524477e+00,
          -2.0956860233461798e+00, -1.2092229681304769e+00,
          1.7756556115140176e+00, -9.9945357471477883e-02,
          7.8539917820869953e-01, -8.4822433580160950e-01,
          6.4481244021920880e-01, -3.5974125081200836e-01,
          3.0264918259770346e-01, 3.9282061770029082e+00,
          -1.4916345949311050e+00, 8.9825066269337628e-01,
          -8.4744408979626940e-01, 7.3814805968541053e-01,
          1.3557025556801625e+00, -6.1340984517673602e-01,
          5.7779135645770008e-01, 2.2852268698525219e-02,
          1.1135650057835057e-01, 8.9727770864125678e-01,
          -9.8300538408294325e-01, 7.1831226063390174e-01,
          -5.6741881068655209e-01, -6.4772763787567722e-01,
          1.0197170314721765e+02, 8.9341551897135851e-01,
          -7.6363570003732795e-01, -2.4992954887937355e-01,
          -1.6962973704464543e+00, -4.9093031435971335e-01,
          4.3722558691937113e-01, -4.6194991685071726e-02,
          -3.0489787968157391e+00, -9.5192282763249381e-01,
          -7.9495736399616024e-01, -6.3059687638245987e-01,
          1.0898312077907308e+00, -1.0821012800337653e+00,
          1.0710004776521578e+00, 9.4718082517642654e-01,
          2.9372018289605333e-02, 3.4790660548821970e+00,
          6.5360526780545425e-01, -8.9845732831411229e-01,
          -6.5558317103998942e-01, 8.9018473891219885e-01,
          8.3149603151261686e-01, 7.2392797119663410e-01,
          -9.2086845975003584e-01, -1.1107239748401310e+00,
          9.3341178364627420e-01, -3.0987622563476774e-01,
          -1.0786015651200036e+00, 1.2318214125404454e+00,
          6.1651010046082533e-01, -3.6457858768495238e-01,
          3.7674860965291812e-01, -7.1440802721540397e-01,
          8.9262312823961831e-01, -2.8961008008526550e+00,
          1.0373287492415524e+00, 5.6607302214255062e-01,
          9.0659194981737190e-01, 5.6594254827246993e-01,
          -1.1208930192095061e+00, -6.7068019415469393e-01,
          4.4935158875015452e-01, 1.0539540802423142e+00,
          9.6523809149674267e-01, 5.8119653901671975e-01,
          -5.0819896343259907e-01, 3.7941723274570022e-01,
          -1.1574850901283447e+00, -6.7486568590379181e-01,
          9.7080954720805963e+01, 6.8776024869654906e-01,
          -6.3178666566556563e-01, -1.1282387565796002e+01,
          -8.1852193893534642e-01, -4.7234413462408309e-01,
          4.4090300386952691e-01, 1.1206262754518223e-01,
          1.3670833659399917e+00, -2.0094020043164501e-01,
          -4.7879000612848388e-01, -8.4004381102099823e-01,
          6.1343473936390491e-01, -5.3017245934055357e-01,
          5.3642528945634682e-01, 6.2078555893069354e-01,
          1.1104250733855715e-01, 1.2915204106681538e+01,
          7.4660416185752210e-01, -6.6930571708313236e-01,
          -7.2463049753583808e-01, 6.9508910206675179e-01,
          5.1562388793335512e-01, 7.0573054114980305e-01,
          -6.0074814856377834e-01, -5.1673151852336063e-01,
          3.8099885166907410e-01, -5.5646573263623411e-01,
          -6.9342287409052838e-01, 7.6863114351963557e-01,
          7.3217446439239087e-01, -5.5878177527898498e-01,
          5.0504746191579653e-01, -6.2348612699328876e-01,
          9.1190845084857919e-01, -9.9533296092985566e+00,
          8.0379958783008598e-01, 6.2523207007660375e-01,
          6.4206049992919834e-01, 6.3733376265422781e-01,
          -5.8405221156462195e-01, -6.8310897549535743e-01,
          5.3300912696373925e-01, 6.8936983225326010e-01,
          6.9841810993114162e-01, 7.0775976646806404e-01,
          -6.2481095514755225e-01, 4.2033016110249094e-01,
          -1.2188623712384719e+00, -6.1524577628318211e-01,
          8.6470960999923363e+01, 4.2610750592868989e+00,
          -1.0436679639803713e-01, -1.5827763319686857e+01,
          1.9300200157122710e-01, -7.1504253218097794e-02,
          2.2897120320765740e-01, -2.6635146392565456e-01,
          -1.5915171278036309e+01, -4.0701769845977243e+00,
          -3.7240859354551796e+00, 3.7283244778110280e-01,
          1.7292248282123266e+00, -2.8881502308444160e+00,
          2.5149476107288837e+00, 1.4305393935275028e+00,
          7.0378539682810048e-02, -1.0338191715060550e+01,
          -7.6872612095199050e-02, -2.0664250621906405e-01,
          2.4495001090837340e-02, -1.0768455876461278e-01,
          3.9444755192132961e+00, 3.8704523317360802e-02,
          -2.7052420500422247e+00, -3.0758990174749687e+00,
          3.6830655805342656e+00, -1.6812312539729035e-01,
          -2.5864180375203580e+00, -2.7148261945017216e-01,
          1.3326671150146960e-01, -1.6417809974507561e-01,
          1.3049004624164592e-01, 1.5667530924061671e-01,
          -1.0112333601992844e+00, 3.5022635581516157e+00,
          1.8804904666785542e+00, 2.3202488063424506e-01,
          1.2948284550421234e+00, 1.1612393218228467e-01,
          -1.9835875705436259e+00, -4.4944489156057706e-02,
          1.8170874790567021e-01, -1.8413460783294408e-02,
          -9.4828172272367672e-02, 9.0722730775733396e-02,
          -1.9378162278574476e-01, 2.2454025146823747e-01,
          2.1332818253786856e+00, 9.5080240463729059e-03,
          8.8802476581260635e+01, 3.1548364486968157e+00,
          -3.1733622292547359e-01, -8.4882325466042676e+00,
          -5.3737085417103092e-01, -2.3421384924849895e-01,
          1.4701026403891523e-01, 4.9467333483895246e-02,
          -1.4955739094974820e+01, -2.9144170630385537e+00,
          -2.8578945291305056e+00, -1.1773618373182228e-01,
          1.3957346186440105e+00, -2.1965133479464929e+00,
          1.8945191779514157e+00, 1.1629544469650630e+00,
          1.5224459166881302e-01, -1.7284587359472776e+00,
          1.2163046604575219e-01, -5.4684853355289642e-01,
          -1.3964441747399131e-01, 3.1847833766424333e-01,
          2.9599414480283657e+00, 2.9979240593045053e-01,
          -2.0530189356650053e+00, -2.2239639510020606e+00,
          2.6304365046554792e+00, -9.0254292094714306e-02,
          -1.9941180133032153e+00, 4.8446431121903932e-01,
          8.8077065003641444e-02, -9.5313213513899195e-02,
          1.7335285988943455e-01, -3.3659073942788614e-01,
          5.7643138813045128e-02, 2.6194895959343936e+00,
          1.4315148849757708e+00, 2.1468066104612490e-01,
          1.2727916904664367e+00, 9.8634727604066955e-02,
          -1.5817991343003655e+00, -3.0745634152746432e-01,
          1.5760331970732938e-01, 4.8016410572048485e-01,
          3.6415948296654288e-01, 1.6588765925571786e-01,
          -1.9674678668489445e-01, 1.7596784673610333e-01,
          3.4346709964860339e-01, -2.5678183122474646e-01,
          7.8241121372971065e+01, -3.3135367769749269e-01,
          -3.2364143632764175e-01, -7.5571982754592497e+00,
          1.9266528869909563e-01, -3.3680924307191712e-01,
          3.3639039343063859e-01, -2.4284768429332371e-01,
          -1.0905976008268896e+01, 3.7095694771057570e-02,
          2.2060054634395965e-01, -2.4698232030723802e-01,
          -2.0722955588478817e-01, 3.3003280160349474e-01,
          -2.5190388287113902e-01, -5.4807357557025795e-02,
          3.0905622003962480e-01, 8.7930477245846927e-01,
          4.1366592696622029e-01, -2.7517909112917216e-01,
          -2.8991630539393259e-01, 2.4695441692199305e-01,
          -2.3983920332594191e-01, 1.9241650220771592e-01,
          1.6538826897008096e-01, 2.7296946266966160e-01,
          -1.7450200292692411e-01, -5.1491544606003592e-01,
          3.2881252550669215e-01, 3.0361709721220646e-02,
          3.3845036835349468e-01, -3.2354658477332954e-01,
          4.3650547247211152e-01, -1.9091807816269568e-01,
          8.1721602333845136e-02, 8.5138711638639819e-01,
          -3.8472469230723438e-01, 4.7382871221701572e-01,
          3.2355979435649600e-02, 4.1720905776564821e-01,
          2.4820582061124741e-01, -3.8082465317276570e-01,
          2.7291656273332032e-01, 5.1690532748017833e-02,
          1.9953055524560340e-01, 4.5143354084736859e-01,
          -5.3547243592200444e-01, 3.6644563275573877e-01,
          1.2560739985108071e-01, -3.1600905029901932e-01,
          9.5329796687548892e+01, 4.1585973244354033e+00,
          -4.6797684134518125e-01, -3.1390990451777614e+00,
          -1.1592486508523447e+00, -2.6470435814477289e-01,
          1.8369669786774098e-01, 6.0777948755131768e-02,
          -1.6332141329814945e+01, -3.7171501591313416e+00,
          -3.6573534590101926e+00, -3.1111053366226515e-01,
          1.9635129907177604e+00, -2.7740999771439836e+00,
          2.5062656063585269e+00, 1.5738368706517953e+00,
          6.3325234854154214e-02, -6.6797321385300386e+00,
          1.6885909962851514e-01, -7.0521754499687306e-01,
          -2.6270854401063531e-01, 6.1074146134340268e-01,
          3.5842291548688570e+00, 4.6621229525144653e-01,
          -2.6740852010672365e+00, -2.8732597773096678e+00,
          3.3885742025655321e+00, 3.2436164443180377e-04,
          -2.7247713112042447e+00, 8.0948117627954319e-01,
          1.7882659310713528e-01, -1.5410307995409975e-01,
          1.3037027768811266e-01, -4.0822988649079295e-01,
          2.3524975352407382e-01, 2.1504624749321777e+00,
          2.1505152884584309e+00, 2.1064212400893018e-01,
          1.5779817847744182e+00, 2.3069837356045059e-01,
          -2.2395915596414282e+00, -4.1167897861609004e-01,
          3.3455421282022269e-01, 7.2884452837925751e-01,
          5.9567674915097202e-01, 1.2071158094354836e-01,
          -7.1788307120417560e-02, 1.3787876734416543e-01,
          6.5201791724698213e-02, -3.1985865430084004e-01,
          7.8929548847531350e+01, -3.3302809326871605e+00,
          -1.5249793404129983e-01, -2.1351905606877741e+00,
          1.4712525384809578e+00, -5.0821374228532423e-01,
          6.1328977664647055e-01, -8.5574042822850815e-01,
          -1.2550037684908686e+01, 2.9680302183245915e+00,
          3.1177042633987129e+00, -1.5885364725019036e-01,
          -1.7477319025504550e+00, 2.5473625963100912e+00,
          -2.2132687947422958e+00, -1.2438905528780255e+00,
          7.9762356601887385e-01, -5.1506563594094050e-02,
          3.8578354978260831e-01, -6.3799555350629297e-02,
          -3.5222687090275762e-01, -8.1829769982958489e-02,
          -3.0954475024114858e+00, 2.0031740386077734e-01,
          2.3722318186121716e+00, 2.5334364582268738e+00,
          -2.8773482984084122e+00, -9.8799118035204814e-01,
          2.3796487557424499e+00, -5.6737794468020608e-01,
          5.8457057487221176e-01, -7.0546941768281568e-01,
          6.9230062325584363e-01, -1.3767003968744951e-01,
          -3.6329252726940126e-01, 7.0932117686704821e-01,
          -2.0637824748584901e+00, 8.1189473958319303e-01,
          -1.2662323539849301e+00, 5.8989369052943352e-01,
          1.8947827829518682e+00, -3.4733610113660224e-01,
          5.4723570508498753e-01, -3.3037736814587554e-01,
          -1.4853996373291437e-01, 6.1262717642602915e-01,
          -8.0078697596479709e-01, 6.5202407138244944e-01,
          5.7510243586148424e-01, -2.5906034157417335e-01,
          1.2206234088008982e+02, 6.8176564221554656e+00,
          -2.9733944739300405e-01, -3.9379641728697418e-01,
          3.0483503251207862e-02, -3.5958897144466195e-01,
          3.5966350510819961e-01, -1.1036334712404391e-01,
          9.9764152305900888e-01, -6.1769967196741353e+00,
          -5.9449478942205847e+00, -2.4192756589793737e-01,
          2.9991309142604181e+00, -4.4591088427893215e+00,
          4.0009935563237411e+00, 2.3185660828134553e+00,
          2.8624871323353407e-01, -1.1269101388223737e+01,
          3.4692503780340406e-01, -3.2642369791742776e-01,
          -3.8645266968182784e-01, 3.3242990420664831e-01,
          5.9685955144917884e+00, 3.4245919410476788e-01,
          -4.3906130148879088e+00, -4.7092687091291587e+00,
          5.5427847297363808e+00, -3.4069981131443794e-01,
          -4.1399957796829527e+00, 1.1461363152953845e-01,
          3.2517535895413441e-01, -3.4559341339504118e-01,
          3.5353156628304566e-01, -3.4915097611786977e-01,
          1.1267179946020509e-01, -1.6754053700066975e+00,
          3.3370782875667917e+00, 3.9157493543473504e-01,
          2.4889162481558667e+00, 2.3757022515682508e-01,
          -3.4717729346582646e+00, -3.5906262960232671e-01,
          2.9227887022909732e-01, 2.1262613134376135e-01,
          3.0177420143809713e-01, 3.5669599302837701e-01,
          -3.6290322574434236e-01, 2.5789269914225416e-01,
          3.2011013137421962e-01, -3.4038579541743619e-01,
          8.7116830189664910e+01, 5.8175092290141850e-01,
          -5.8296973050714673e-01, 7.1250871145791015e+00,
          -6.6971229564789370e-01, -4.9896643718021855e-01,
          4.5150064488729857e-01, -3.0871598377704823e-01,
          -1.0248367912302282e+01, -9.0067014024377223e-01,
          -9.1356691943446000e-01, -5.1338862262251539e-01,
          1.0867793368396406e+00, -1.1632842280528777e+00,
          1.2273065822227047e+00, 8.9589077607438539e-01,
          4.0357388998983013e-01, 2.8961697999750968e+00,
          5.0525395618244462e-01, -5.9431225957072520e-01,
          -5.4665159910535777e-01, 5.0459843704638629e-01,
          9.0217964991070954e-01, 5.9962296612934129e-01,
          -1.1401953609681759e+00, -1.1628457915439161e+00,
          9.7401438380898042e-01, -3.6774148569378001e-01,
          -1.0509152443493437e+00, 5.8321861950563925e-01,
          5.0058932326410410e-01, -4.2679764473448251e-01,
          5.6451321098012242e-01, -5.0791981061737212e-01,
          6.9603053076066623e-01, 5.9625229306077310e-01,
          1.1611629992273140e+00, 5.0045571357740193e-01,
          7.8336882178082301e-01, 4.6098249673219727e-01,
          -1.1250231733052345e+00, -4.7958855306359816e-01,
          4.5439197637592321e-01, 6.6230304701594944e-01,
          5.7564369538457216e-01, 4.7896962023989115e-01,
          -3.8865685500128400e-01, 5.3505069156934204e-01,
          -8.5949627298771780e-01, -4.5078577962590688e-01,
          7.8289947279488544e+01, 6.0090534040327853e-02,
          -3.8878286438677095e-01, 2.7480478938050692e+00,
          4.3763048883396610e-01, -4.0423999533332672e-01,
          3.6776041690296601e-01, -4.0466844213929593e-01,
          2.5543674432926631e+00, 6.4499009431438867e-02,
          -5.5260062714549119e-01, -1.8197949712937414e-01,
          4.0831017510476142e-01, -5.7416064507273434e-01,
          2.9045195241440502e-01, 3.2793841419090980e-01,
          4.9583098883674975e-01, -8.8478573221363543e+00,
          4.1242537056945461e-01, -3.6228717993834308e-01,
          -4.2141048234799927e-01, 2.4095053440950509e-01,
          3.9528578922358609e-01, 3.1779689680544293e-01,
          -3.7479778233436378e-01, -2.8023201374951878e-01,
          1.8601184485190914e-01, -4.2806327765337571e-01,
          -5.0632210113520759e-01, -3.6408604785122561e-02,
          3.5594324958416546e-01, -3.9032822729185529e-01,
          4.1934661111951615e-01, -2.0449838518926902e-01,
          3.1461051915124799e-02, -3.1109079830387230e+00,
          5.8795270769924446e-01, 4.2365206043242948e-01,
          3.0287366496038542e-01, 3.9777759539316576e-01,
          -3.7688965140495378e-01, -3.4526700144970979e-01,
          4.6499122700584367e-01, 1.2348200312573489e-01,
          2.4381222536623590e-01, 3.1775348851272767e-01,
          -3.9437978542009200e-01, 4.2187890128660971e-01,
          6.3300831254109524e-01, -3.3524527634956203e-01,
          7.7267503765636391e+01, 2.8241978538019570e+00,
          -7.6585131034377707e-01, -4.8142519374814396e+00,
          -1.8417474525795106e+00, -4.5774598016992496e-01,
          4.4013126915886891e-01, -2.0326133786779360e-01,
          -7.9468469179575560e+00, -2.6651541530229386e+00,
          -2.5247605011625622e+00, -1.0415070023202881e+00,
          1.3386618932745888e+00, -1.9741426377836049e+00,
          1.7143491800555841e+00, 8.9227871768805789e-01,
          3.2467454467015461e-01, 1.1572392130602909e+01,
          6.3374614853252831e-01, -1.1474243449589254e+00,
          -6.1318860794606411e-01, 1.0777497388276118e+00,
          2.5862981162348744e+00, 8.4097693095002501e-01,
          -1.9817679809237416e+00, -2.1191424416005349e+00,
          2.5982739691459065e+00, -2.1093166069106564e-01,
          -1.9014185908551811e+00, 1.4732619977536312e+00,
          4.6692335143821123e-01, -4.8710415921909289e-01,
          4.7648176171117612e-01, -9.9753703951025385e-01,
          1.3817382785748298e+00, 2.9151974113542503e+00,
          1.4501775170532800e+00, 3.6707884667151175e-01,
          1.0849334261642591e+00, 5.0573610473042319e-01,
          -1.5791767028861623e+00, -7.3964288522408883e-01,
          5.4501105515148018e-01, 1.3214260903795476e+00,
          1.1147474673284141e+00, 3.8565514229102810e-01,
          -3.9022512560390821e-01, 4.8943523776674053e-01,
          -2.0341373047464737e+00, -7.9776304000674714e-01,
          2.2497235454995050e+01, -5.2434382966608375e+00,
          -5.7053501479501212e-01, 2.0374270483979924e+00,
          1.7529882460769766e+00, -9.5162984084210234e-01,
          1.0208894931649604e+00, -1.2402751491274615e+00,
          1.1284690324029416e+01, 5.0363505289666888e+00,
          5.1434223823009946e+00, -8.3541642559180562e-01,
          -3.1117591327343970e+00, 4.3983123302028009e+00,
          -3.7834628734152100e+00, -2.5157392303306354e+00,
          1.4117860531967947e+00, -1.1589182313713732e+01,
          8.8810808268804153e-01, -2.4241637712730849e-01,
          -8.8504608687209119e-01, 4.5301438298442076e-01,
          -5.1272548225561163e+00, 6.2107938596522638e-01,
          4.1449319476308144e+00, 4.3371190793777048e+00,
          -4.8173050794606747e+00, -1.4093757638623232e+00,
          4.0677325854563477e+00, -1.3782902549706713e-01,
          1.0431177788185890e+00, -1.1617474630440132e+00,
          1.1127375033929341e+00, -5.8854816790805575e-01,
          7.2189803734835567e-01, 3.8732638513488564e+00,
          -3.6026027724257488e+00, 1.0911168442602310e+00,
          -2.5243819384904871e+00, 9.6423433706219175e-01,
          3.4247564831100252e+00, -7.3353029618007071e-01,
          8.8800215760873669e-01, 5.7357534344173268e-02,
          4.2294549081153954e-01, 9.8598595042959869e-01,
          -1.1447300740753743e+00, 1.0917588122225974e+00,
          -9.0460025676137357e-01, -8.0564423149326203e-01,
          7.7199329424858519e+01, 9.2123513562728410e-01,
          -5.2994012597260787e-01, 4.6494240852234130e+00,
          -6.5264801517561233e-01, -4.8115601131005159e-01,
          6.0166382077926173e-01, -5.8252384295708848e-01,
          -1.0455341232782018e+01, -9.9858900915075899e-01,
          -8.7536408997639370e-01, -5.8134103027615280e-01,
          4.0540879164805693e-01, -5.5425735338998761e-01,
          5.9318923764669962e-01, 1.3656651911210835e-01,
          6.2860382823869099e-01, 6.2758499267007988e+00,
          5.2428549248229361e-01, -4.6863201297018059e-01,
          -4.6984222445655971e-01, 5.8496110135752144e-01,
          8.8102876102023664e-01, 6.4191350616136800e-01,
          -5.8772981597497154e-01, -5.8985169400148407e-01,
          8.0670637771306508e-01, -4.9118969525033435e-01,
          -4.5300179479587027e-01, 6.0894923309257987e-01,
          4.3359087309004984e-01, -6.0959631111942469e-01,
          5.4595980834757218e-01, -5.7305242353750485e-01,
          7.0291866840178518e-01, 2.1992602890925200e-01,
          3.1546544125085596e-01, 3.9294805069804611e-01,
          1.9536538079281521e-01, 5.2419188602567501e-01,
          -5.0472505740209694e-01, -4.9633041909168607e-01,
          6.4084777111162450e-01, 5.4930435331286653e-01,
          4.7763718180614123e-01, 4.8682571355136789e-01,
          -3.8931976582067102e-01, 5.2990506945751159e-01,
          -1.0124441453656758e+00, -4.5784216210493173e-01,
          1.3451567390411998e+02, 8.9616447038036384e-01,
          -3.0155094806891625e+00, 4.4571503023756218e+00,
          -4.0845214909158969e+00, -2.9536365518048875e+00,
          2.9217969650541336e+00, -2.7868385735537560e+00,
          1.7721418114100433e+00, -5.3079436902182486e-01,
          -4.2946036462631842e-01, -2.9504885736278674e+00,
          -1.3588443252211722e+00, 3.4549075934886198e-01,
          -7.6831140655221863e-01, -1.8428723768039204e+00,
          2.6937127813778252e+00, -1.6810888630179628e+00,
          2.9488002518676413e+00, -3.1650000178860078e+00,
          -2.9559808983246572e+00, 3.1003943135908987e+00,
          5.0292557033322605e-01, 3.0307471449288808e+00,
          5.0287713352035679e-01, 3.0510683080062584e-01,
          2.1032431611267011e-01, -2.8140933794828364e+00,
          5.2903275534432970e-01, 3.3135375595199652e+00,
          2.9238625323728598e+00, -2.8744273446520650e+00,
          2.8801125436300987e+00, -3.0267357848250822e+00,
          2.6473837374688931e+00, -6.8633613944299299e+00,
          -1.0765091496487933e+00, 2.9612793412768466e+00,
          -1.8152611026936181e+00, 2.9655635507293128e+00,
          1.1856425531041366e+00, -2.9609094511421805e+00,
          2.9317270999469640e+00, 3.3184506066435997e+00,
          3.1603481122426249e+00, 2.8649166828471260e+00,
          -2.9563074658031336e+00, 2.9277369274664427e+00,
          -1.6486592732139282e+00, -3.0313426926524389e+00 ]
      - [ -3.1309257658072807e+00, -4.5024161547742425e+00,
          1.8336829330041968e+00, -1.4796102568749612e+01,
          2.3912191526745419e+00, 1.9317457744663191e+00,
          -1.7973693196498193e+00, 5.3394145848243468e-01,
          -6.1213313668528011e+00, 4.4894761040571138e+00,
          4.4134261955163803e+00, 2.6518880811430687e+00,
          -3.2479877740020635e+00, 3.9005529624930957e+00,
          -3.6637573961319645e+00, -2.8769687064014917e+00,
          -8.1300110687542249e-01, -7.2273894177971973e+00,
          -2.3042769987450828e+00, 1.4267785590214193e+00,
          2.2365284727324939e+00, -2.0304559867137453e+00,
          -4.4386911991225562e+00, -2.0826689052487115e+00,
          3.8382554398503506e+00, 3.9807630001758953e+00,
          -4.2895176296822566e+00, 2.1774492400800685e+00,
          3.7973020375357822e+00, -2.2641663916892165e+00,
          -2.3063330749261821e+00, 1.8353030902299163e+00,
          -1.6818718623601847e+00, 2.1970616618414276e+00,
          -3.2685408062269525e+00, 7.2135992530060458e+00,
          -3.3633349350471389e+00, -2.3214006066559434e+00,
          -2.9446511487780374e+00, -2.1453462925917242e+00,
          3.4498596610015264e+00, 1.8482224952390465e+00,
          -1.7307096120381420e+00, -1.9963390872574840e+00,
          -2.1244503319700896e+00, -2.3058621328287612e+00,
          2.4303914243872882e+00, -1.7846578893285641e+00,
          4.6156598582516617e+00, 2.3006586900763799e+00,
          -2.5044875731004121e+00 ]
