%YAML:1.0
my_nn: !!opencv-ml-ann-mlp
   layer_sizes: !!opencv-matrix
      rows: 1
      cols: 3
      dt: i
      data: [ 24, 80, 1 ]
   activation_function: GAUSSIAN
   f_param1: 5.9999999999999998e-01
   f_param2: 1.
   min_val: 5.0000000000000003e-02
   max_val: 1.
   min_val1: 2.0000000000000000e-02
   max_val1: 1.
   training_params:
      train_method: BACKPROP
      dw_scale: 1.0000000000000001e-01
      moment_scale: 1.0000000000000001e-01
      term_criteria: { epsilon:1.0000000116860974e-07, iterations:500 }
   input_scale: [ 1., 0., 1., 0., 1., 0., 1., 0., 1., 0., 1., 0., 1., 0.,
       1., 0., 1., 0., 1., 0., 1., 0., 1., 0., 1., 0., 1., 0., 1., 0.,
       1., 0., 1., 0., 1., 0., 1., 0., 1., 0., 1., 0., 1., 0., 1., 0.,
       1., 0. ]
   output_scale: [ 2.1052631578947367e+00, -1.1052631578947367e+00 ]
   inv_output_scale: [ 4.7499999999999998e-01, 5.2500000000000002e-01 ]
   weights:
      - [ -5.4140006727090126e+00, -1.2229732541318310e+00,
          3.1340029729576687e-03, 1.4555918442311765e-02,
          9.5370891945252348e-03, -1.7457321462626272e-02,
          1.1816006633683887e-01, -4.4316837639385466e-02,
          1.3557361671033668e-02, -3.7599870498146913e-02,
          -7.6746336683142610e-02, 2.6862298034902171e-02,
          9.2529083744523101e-03, -3.1124201742778163e-02,
          2.1143682672681040e-02, -1.2602136700317301e+00,
          1.2574794940647374e+00, -6.8365996161426815e-02,
          -3.8162943824900951e-02, 3.1328786525323594e-02,
          -4.4335215373974272e-02, -1.9036231485841073e-02,
          -2.8524245184384362e-02, -2.5275539499037214e-02,
          4.4036921110156982e-03, -1.5461130811324260e-02,
          -4.8661211872536941e-02, 3.6976718436597118e-02,
          -9.2270202175917648e-03, -2.3411289091602058e-02,
          7.4637809276942319e-03, 7.9506368195613020e-02,
          4.1016952229708525e-02, 6.3181291799279393e-02,
          -5.4902996205048835e-02, -3.2079234109706312e-02,
          7.8890872065798548e-02, -1.3168365426585841e-02,
          -4.9004653187587670e-02, -5.0313686200358976e-02,
          -1.8309111733031781e-02, 1.2485868331126606e+00,
          -3.0325382889314814e-02, -4.5250996138286044e-02,
          1.5373734618904279e-02, 9.8862633006361039e-03,
          -2.4751399903165626e-03, -6.5391753582250717e-02,
          5.5457109821311495e-02, 1.2559991119417873e+00,
          4.7084294557675238e-02, -3.9511254105743738e-03,
          -5.0111684242065177e-02, 1.1719305113757033e+00,
          -1.2391329310910399e+00, -2.2640887186664089e-02,
          -2.5509479656048370e-03, -1.1980085712156365e+00,
          1.2615939486728940e+00, 5.2968005185101551e-02,
          1.3004410347021784e+00, 2.5625178998763747e-02,
          1.1469912995611931e+00, 6.1418332787511978e-02,
          1.0202574764135271e-02, -2.5847769233653027e-02,
          -6.7388350725430438e-02, -7.0469967286156815e-02,
          -9.1301609875870850e-03, -4.9968034954626407e-02,
          -1.0440782424700175e+00, -2.9589776315621263e-02,
          -1.2992298551100347e+00, 3.0577049123765503e-02,
          -5.9926306428906360e-02, -1.2285162675942964e+00,
          -2.5564771052014296e-02, 4.8435836636215514e-02,
          -1.1904048284219295e+00, 4.3300828261043124e-03,
          -3.7847862597034676e+00, -2.7821851502161388e+00,
          1.1170122799514258e-02, 1.0268002637028220e-02,
          -2.5652173327580911e-02, -7.4192157222051714e-03,
          7.9648992352924775e-02, -7.6924442696090769e-03,
          -1.2345478044912326e-02, 3.8612913218350697e-02,
          -5.0939063380912641e-02, -4.3102485899915575e-02,
          3.8816168832839323e-02, -3.0002267984022189e-02,
          -1.4332062999057201e-02, -3.3538463659173230e+00,
          3.3593711683805783e+00, -3.0316005110928825e-02,
          3.5637879008210444e-02, 9.9510376027306321e-03,
          2.6698877579563296e-02, -5.4797885610669339e-02,
          2.3811416637508315e-02, 3.1787054742885408e-02,
          -1.6427446430113176e-02, -1.2147141463255066e-02,
          4.3742162692370995e-02, -3.4659675208470873e-02,
          4.5920647511227423e-02, 4.5638668825732601e-02,
          -2.4736001439269444e-02, -6.5153259473462982e-02,
          -1.4828916059448562e-02, -7.5118426563154199e-03,
          -5.9718977069339985e-02, -3.3814358682388017e-02,
          4.6857894593634028e-02, 1.5989038520884895e-02,
          2.0501303820638694e-02, -3.2842509893885097e-02,
          -2.4867798116267440e-02, 2.8810753181981776e+00,
          4.1734964613189901e-02, 5.5384512951809670e-02,
          3.1354396833332125e-02, 4.0725377605689977e-02,
          6.1444084538290799e-03, -6.4054699277166591e-03,
          5.0205521002625104e-02, 3.4790753158052015e+00,
          3.5179633792895355e-02, 1.7828754472164435e-02,
          -1.3324480946955092e-02, 2.5448224522324283e+00,
          -2.8698664715591007e+00, -2.2253220926241580e-03,
          -6.6192939709878692e-04, -2.9579803290947861e+00,
          2.9087602234195367e+00, 4.3217151789960620e-02,
          2.9046091628636130e+00, 1.4895063287099764e-02,
          2.5170761544483704e+00, 4.8045588460598629e-02,
          2.6174979951067920e-02, -1.4375950826694224e-02,
          -2.6229096450431075e-02, -5.3200442146597950e-02,
          8.1533738941983111e-02, -1.9905678946164275e-02,
          -2.1926113990835319e+00, -7.9865024633366932e-03,
          -3.0738539484493614e+00, 4.7286482112480236e-03,
          -8.0241936854480878e-03, -2.8801140348478604e+00,
          7.7740338808698101e-02, 2.3613945093142980e-02,
          -2.8119559807612839e+00, 6.2855120690490512e-02,
          1.0087684391975942e+00, -6.3523310731813598e-01,
          3.5721912588900895e-02, 1.9255071515461453e-02,
          7.9474279606542506e-03, -5.7436696992723531e-02,
          -3.6197982981694310e-03, -7.3277438239800818e-02,
          -1.5803099971603431e-02, -1.9530119384879602e-02,
          -1.7602123621806041e-02, -1.5721609554478610e-02,
          2.2727956049730998e-02, 3.3877810312096024e-02,
          -4.7337193202416736e-02, -6.4727980710637212e-01,
          6.7352736399529245e-01, 2.6532298736747704e-02,
          -3.3202461153649533e-02, -1.2277328840320990e-02,
          5.5148173610999197e-02, 4.0000920120085069e-02,
          1.4308507481627913e-02, 2.9884908727672892e-02,
          -6.2844175699336521e-02, -4.1627519379153523e-02,
          -4.7010867437771990e-02, -3.0178956355857999e-02,
          -5.8341914494666601e-02, -1.4379327648344918e-02,
          -3.2845867085637061e-02, 4.9761739170296151e-02,
          5.3264531799934289e-02, -7.4816626356437627e-02,
          5.1436050271339698e-02, -4.1478836764426562e-02,
          5.6166899391640783e-03, -2.7446468545374591e-02,
          4.8907400565646943e-02, 9.2237544007492071e-03,
          -1.6225088325254843e-02, 6.3657681927546306e-01,
          1.0312292344796766e-03, -4.1699382008598428e-02,
          -5.7816089791465283e-02, 5.7168270220039230e-02,
          2.8473177215914594e-02, 6.1210941942602605e-02,
          -9.1727486628046424e-03, 6.0949452459875786e-01,
          5.1676672673818175e-02, -4.4000082731529500e-02,
          -4.8880477246246279e-02, 7.2338272122579517e-01,
          -7.1994324474913218e-01, 2.2818115170691296e-03,
          -1.9278692850950602e-02, -6.9670086255026076e-01,
          7.1789137096614442e-01, -4.9469782881423181e-02,
          6.7981988154619999e-01, 5.1558588842521694e-02,
          7.8070304911622457e-01, 9.2548216131180857e-03,
          6.1497335614642011e-02, -1.5200565060286003e-02,
          1.8928351643080848e-02, 4.3481275690713063e-02,
          -4.7706305129014128e-03, -3.7253596050056029e-02,
          -7.7397903976570914e-01, 2.4251766429289851e-02,
          -6.4747411051084069e-01, 8.8363683052749779e-03,
          -3.2211414292515506e-02, -7.6138919446718545e-01,
          -1.9788103049703510e-02, -7.5064980802140052e-02,
          -8.1258082054569192e-01, -1.3223656545940678e-02,
          -5.2314997497525226e+00, 4.2792844426717608e-01,
          -1.7671461556232386e-02, -4.7687997753672565e-02,
          -9.7252385076820772e-06, -6.1189414620658612e-02,
          5.7436695860242297e-02, 5.8070199884759928e-02,
          2.1424935661202044e-02, -5.6719678706889272e-02,
          2.0858259694619311e-02, -1.7774672401117436e-02,
          1.7220962581321622e-02, 3.0344906417765778e-02,
          4.0371633505693005e-02, 4.5531690836229549e-01,
          -5.3184772514971645e-01, -7.5631611616274547e-02,
          6.5634748771059973e-02, 1.6092736578749562e-02,
          -1.8411995193521418e-02, 4.5454655539378788e-02,
          3.6492833389987038e-02, -8.4101760216439246e-03,
          2.8795215383520451e-02, -1.4876649315148757e-02,
          -5.4425180071235146e-02, 7.3558003304496694e-03,
          -7.0402721406486110e-02, 2.0333097700463352e-02,
          6.7278079359347695e-02, -2.6972996192790349e-02,
          -3.9105585390273347e-02, -1.9251109564018251e-02,
          4.1166297334916314e-02, -6.1784301215964302e-02,
          4.6658771154880860e-02, -8.3166316806499822e-03,
          -1.6842084328458837e-02, -6.1922895718771770e-02,
          -1.9309472047406181e-02, -4.8392870078037592e-01,
          -5.2826550323000640e-02, 3.1032335918854677e-03,
          4.8487750463614213e-02, -2.0916975792036455e-02,
          3.9350123539774171e-02, -4.6094434575265367e-02,
          -2.7401779190399825e-02, -4.5437319230112144e-01,
          6.1130064062463207e-04, 5.3017063252493060e-04,
          -5.2375679790715834e-02, -4.3751390408504626e-01,
          5.3096721683150028e-01, 4.5044141869158540e-02,
          -3.7232775792504613e-02, 4.1921917790905255e-01,
          -4.3493858631806531e-01, -2.9847377005094999e-02,
          -5.2581316457073857e-01, -1.9008609356625458e-02,
          -4.0112526843011986e-01, 1.0713291920425605e-01,
          3.9407979327709154e-02, 8.0131432040429981e-03,
          -7.0980665978838597e-03, -4.5655695822373610e-02,
          -3.8703854186076858e-02, -6.3758315794392437e-02,
          3.3178772752179048e-01, 2.9605756571127621e-02,
          4.1527463147667049e-01, 5.5978493962531670e-02,
          -1.8346239323164343e-02, 4.2998920087399195e-01,
          4.5296032369104827e-03, 3.7970575660234353e-02,
          4.9395681328632052e-01, -4.8029612303667146e-02,
          -6.4116214766086292e+00, 5.3208274162056968e-01,
          -6.3258625945219193e-02, 2.9699169743424531e-02,
          1.5146335488861561e-02, -5.1728496165611502e-02,
          -4.0592900522869152e-02, -2.1894500890012429e-02,
          3.3292489129325836e-02, 6.4908829033555035e-02,
          -1.6134014611270983e-03, 7.5006179989456322e-03,
          -5.4875754020511806e-02, 1.9592554716272081e-02,
          -4.6255731725203530e-02, 5.1891377942620354e-01,
          -4.3813118170632370e-01, 2.1531052465360305e-03,
          5.6582904339787105e-02, -6.6048265463058739e-02,
          1.9877528178895879e-02, -9.2487390005718692e-02,
          -1.2783637177477953e-03, 5.3360463409279023e-04,
          6.3586759590766553e-02, 5.6761630559950371e-02,
          -5.7042426291418029e-02, 3.6466989869663638e-02,
          -3.4295322830593715e-02, 2.5761652001035539e-02,
          -4.0184706884370730e-02, -1.1088007063425751e-02,
          7.8415333899025552e-02, -1.5395213159518058e-02,
          -5.5559704862514742e-02, 1.2363559289454817e-02,
          1.0463356497656316e-02, -5.6415744513580793e-02,
          3.0648897694641311e-02, -5.6731514168267633e-02,
          -9.1686435715022233e-02, -5.1468855644022760e-01,
          -1.2658260095989703e-02, -4.1609656705626816e-02,
          5.6773364244430885e-02, -4.7994882631940565e-02,
          -6.4211874003834157e-02, 4.5790511353904481e-02,
          -6.2868882865573354e-05, -5.2150153724348947e-01,
          6.8672078409623694e-02, 9.0504358395635781e-02,
          5.5161822901848505e-02, -3.5417513284559393e-01,
          3.9178637770466174e-01, -4.4030616183227764e-03,
          5.1468366843836183e-02, 4.1730910844523744e-01,
          -4.2836752304658482e-01, -1.9817357766945636e-02,
          -4.1588574341889506e-01, -7.8762220427098240e-02,
          -4.7424324707573706e-01, 9.6181798490095755e-02,
          -7.6044029443495850e-02, -2.8089113157780791e-02,
          -5.2374895197414617e-02, 7.6766325440811578e-02,
          -7.3565631460692796e-02, -2.2397705808447944e-02,
          4.5493313387906564e-01, -3.0054371450976041e-02,
          5.2247496537869798e-01, -7.2490012090920458e-02,
          -1.1939481550110384e-02, 4.9001168787828969e-01,
          5.2869329711814871e-02, -8.4822619035576398e-03,
          5.3435685387902143e-01, -1.3690469362210772e-02,
          -5.3596654554312053e+00, 3.2743049821113457e-01,
          -7.7137435488928430e-02, -1.2014968941645164e-02,
          -1.1868536900206917e-02, 5.3375482872362989e-02,
          3.4897355460104160e-03, -5.7527461357822919e-02,
          -6.0593192752881490e-02, -4.8529563650260690e-02,
          -9.5536761866505497e-03, -2.2636512507993700e-02,
          -4.8725292132751355e-02, -7.7794210962273347e-02,
          5.0082706297725876e-02, 3.0984767670058105e-01,
          -3.9786453828501084e-01, 3.8090201654403424e-02,
          4.3265561788289733e-02, 5.2955696113717927e-02,
          -5.0322196960358528e-02, 2.2375870461127871e-02,
          2.6136833023854597e-02, -7.0894193875621292e-02,
          -5.5209099609471665e-02, -4.9302370357935603e-02,
          -5.6740371279204609e-02, -4.1824285866280085e-03,
          -9.6658931175936259e-03, 5.0330936330254421e-02,
          -5.8520673861158237e-02, 9.6610994667868638e-03,
          -5.9540314080095379e-02, 2.6466631193233427e-02,
          1.9869817793813613e-02, -2.2986033265204688e-02,
          9.5004214827818980e-03, -3.7546412788684362e-02,
          -7.8215599612683345e-02, -5.9079849927603043e-03,
          4.3693709965483551e-02, -3.8504600099404895e-01,
          5.8453152122167208e-02, -1.2561379693833179e-02,
          -4.1440958296798239e-02, -1.5596653800826640e-02,
          5.2722162008973610e-02, -4.6434077364812393e-02,
          -9.6368174878879130e-03, -4.4775094427643913e-01,
          4.8416731585604479e-02, -3.3352358067761850e-02,
          -2.9225273011884308e-03, -2.9054041270182951e-01,
          4.5058702839637527e-01, 5.5605241275750762e-02,
          -4.1632907550075348e-03, 3.3330695179344738e-01,
          -3.3403629145697672e-01, 2.6517653621045092e-02,
          -4.2896370442363974e-01, 7.9639327430604243e-02,
          -3.1885455797665840e-01, -5.0691872386077808e-02,
          2.2867024056464893e-03, 5.6238193235244316e-02,
          -2.1248126043700129e-02, -2.8512773204339557e-02,
          -1.6292551869220441e-02, -5.5896137216889380e-02,
          4.0603477117471859e-01, -2.0009226771568599e-02,
          3.7393840610254014e-01, -4.2015143730040359e-02,
          -2.6021947017512675e-02, 3.7312759054970174e-01,
          -4.8506672695940806e-02, 2.5891760451093378e-02,
          3.6572044865840198e-01, 6.9499843210618084e-02,
          -7.1839774388335211e+00, -5.4203039327338068e-02,
          -5.7502245813104064e-02, -5.1123086184550949e-02,
          -6.3885867614517436e-02, -6.6991582145085717e-03,
          9.2710407155759567e-02, -7.4365368105424129e-02,
          1.6969949567821864e-02, -4.6196730687641109e-02,
          2.0843104109749367e-02, -4.2651618144985630e-02,
          6.2705786517566989e-02, 7.1327374774491324e-03,
          -5.7176453208133041e-02, 4.4616574306540792e-02,
          4.9904110843492583e-02, 5.6033084028953822e-02,
          -4.0311675211583610e-02, -6.6347613800314995e-02,
          -1.5371825798295217e-02, -6.3236977051387575e-02,
          5.6578113482828159e-02, 6.7339683545500989e-02,
          2.9794787393363605e-02, -3.4521542547915285e-02,
          7.1021055469847730e-02, 7.6786366537871492e-02,
          9.6844318403377219e-02, 2.7919613906655021e-02,
          4.2738918245711051e-03, -6.9934379693445507e-03,
          -8.6463371322694771e-02, -2.8131120518903548e-02,
          2.3857223016875925e-02, -5.1056265603644825e-02,
          -7.0120885802362675e-03, 8.6042892832455822e-02,
          5.5236509516051108e-02, 7.2664445215625220e-02,
          -1.4308591452989258e-02, 3.4654636471549802e-02,
          -3.2618667287479836e-02, -6.1236559037729850e-02,
          -4.8723226727450539e-02, -1.7471672969977748e-02,
          9.6058914318125979e-04, 5.7489899542383524e-02,
          7.7998638885702895e-02, -2.8359853494417910e-02,
          -2.9837089770936093e-02, 5.7430150371030275e-02,
          -2.7385806307364102e-02, 7.1377000916695105e-02,
          4.5220815028944254e-02, 3.9662823704875748e-02,
          -1.7349991058647856e-02, -8.3459714686591524e-02,
          -9.0427448586492071e-02, 4.5314720524247239e-02,
          -1.7945363501942056e-02, -4.3963625751544867e-02,
          -7.1075671300521281e-02, 2.9226194571180655e-02,
          -4.4833406490146145e-02, -4.3915938757689406e-02,
          -5.8973092645323827e-02, 1.6681343642530017e-02,
          3.2895653449852701e-02, -7.7285700651587533e-02,
          5.4385011223771554e-02, -1.0052934765452013e-03,
          5.9150949064801783e-02, -7.6042060179860274e-02,
          6.8363183743649372e-02, 1.6415258118143240e-02,
          -1.0639454068160303e-02, 7.1347375073638752e-02,
          7.7136887638451904e-02, 6.6873776482393191e-02,
          -8.7216203395121621e+00, 3.1006591076708989e-01,
          -2.7640511248305338e-02, -4.0987550145487620e-02,
          8.3376261522358552e-02, 4.7673864208560589e-02,
          -1.5438706423714614e-02, 4.9152513126202953e-02,
          -6.5470690084807076e-02, -3.9299106684277940e-02,
          6.9795009057374374e-02, -8.4677222718212096e-04,
          5.5208627129659314e-02, 3.5239778340897407e-02,
          -2.6919284216706887e-02, 3.6224854696057113e-01,
          -4.2223416695129445e-01, 4.6616872571464393e-02,
          2.7968216949246009e-02, 5.3938048777901884e-02,
          4.7135848907449686e-02, 4.1149214403165685e-03,
          1.0457150927752758e-02, -2.4409306276244765e-02,
          -4.4026554131719096e-02, -1.3351798942198848e-02,
          3.8285094040465803e-02, -7.3963955201681988e-02,
          9.0443010112342265e-03, -7.0168518480480543e-02,
          -1.1906947895028592e-02, -6.5196239790727514e-02,
          -1.3145485939106168e-02, -1.9269392399447031e-02,
          -4.0415133292729159e-02, 7.6824624653020729e-02,
          2.4545907432427003e-02, 4.9191611415319914e-02,
          4.0007649928499089e-02, 1.1936179703445845e-02,
          -1.2390851020588595e-02, -4.2547995006306949e-01,
          2.3561753772309700e-02, -4.6922482442982159e-02,
          -8.4076174034669784e-02, -3.1478529619054008e-02,
          9.8935320455517797e-02, -4.0010628502705368e-03,
          -6.2968520187415916e-02, -4.5444403598319499e-01,
          -4.3738196690846727e-02, -6.7356428606203333e-02,
          -3.3907188551624369e-02, -3.7235625664494604e-01,
          3.3602957377438519e-01, -5.1811599409088097e-02,
          4.9153698892353298e-02, 3.1700920097574897e-01,
          -3.1432058856192707e-01, 3.5901995894427739e-02,
          -3.3331525534442369e-01, -5.5832157902593646e-02,
          -2.9876916511134122e-01, 4.3867192719035672e-03,
          7.5297766587275439e-02, -7.0586936268972793e-03,
          5.0459569701518686e-02, -6.3791242541509890e-02,
          -3.6628035046052843e-03, 2.7512691769396749e-03,
          4.0822450335502808e-01, -6.7756431532113359e-02,
          2.9575747518156953e-01, 3.9377662776713430e-03,
          -4.6414593801478797e-02, 3.9738446805388311e-01,
          3.9106964143640651e-04, -8.0941897886268932e-02,
          2.7821849696231810e-01, 5.3339879482372149e-02,
          -9.0485948920054557e+00, 6.2390279237191504e-01,
          2.2412012075001216e-02, 3.3288052088877328e-02,
          5.4971758570520925e-02, -3.1489098294965073e-02,
          -1.1495028918806815e-03, -3.5097650467008558e-02,
          3.5005870160597592e-02, 8.7660053091295292e-02,
          1.0464339980005823e-02, -3.6436035016047509e-02,
          -3.0487423895100979e-02, -1.6881236525646322e-02,
          4.9983492721606168e-02, 5.8150775844223790e-01,
          -5.4170767072789339e-01, 6.3695549148736832e-02,
          -6.0280323727788833e-02, -1.2527183533664206e-02,
          -3.1453022533725172e-02, -2.4308528749610602e-02,
          -1.7239697860850126e-02, -5.1705320263037903e-02,
          5.6232922728156574e-02, -4.2785051755251526e-02,
          -5.9503539468105653e-02, 4.7623351901091423e-03,
          1.5433989069077012e-02, -5.8257597989595011e-02,
          8.6663409739978770e-02, -8.3476893451164588e-02,
          -6.3294666410343772e-02, -1.0159837283871455e-01,
          -1.0630628016299899e-02, -5.5843062335118543e-02,
          -5.8205477704890235e-02, 2.4762730465898369e-02,
          -7.0637013913431745e-02, 2.3880822415170096e-02,
          -6.5455204393530817e-03, -5.8439136246816692e-01,
          4.7959270215921369e-02, -4.4737365733796886e-02,
          6.1687491458026359e-03, 2.3185441095566015e-02,
          -8.2039913061087835e-02, 7.6031457383479305e-04,
          -9.9939318403351102e-02, -6.3104504663056382e-01,
          -5.5536274087380454e-02, -1.7386014218756855e-02,
          -3.1878591798928921e-02, -5.5123910280687094e-01,
          5.0047009417723731e-01, -3.7351628812101835e-02,
          -6.6623447107676051e-02, 6.2796021135061675e-01,
          -6.2597332098811942e-01, 5.7899639798966077e-02,
          -5.1226570370994673e-01, -4.2514041369745063e-02,
          -6.0085429602096485e-01, -4.4833058261080493e-02,
          -7.0293887926589083e-02, -5.5789859846043399e-02,
          -3.3029342915495176e-02, -6.1066581945706487e-03,
          7.9769138415517592e-03, 5.9627116481824928e-02,
          5.8787151033185459e-01, 6.5792392117032653e-02,
          6.4115735811912233e-01, 4.0993469324837960e-02,
          4.0215324255596631e-02, 5.3217228813732631e-01,
          3.9234103984768391e-02, -1.6929484920397361e-02,
          5.2674098955598481e-01, -5.2341607152267065e-02,
          -1.0287784249726045e+01, -7.0126304760142616e-02,
          -1.0826681941979202e-02, 4.4041066652765977e-02,
          4.7387755445226248e-02, 6.9358730672890098e-02,
          -9.9204826872610497e-03, -1.2556206774009399e-02,
          6.8577241476883835e-02, -1.0254057640286741e-02,
          -2.4969488702346176e-02, 5.5906539841470669e-02,
          -2.1731968177089927e-02, -4.5970326677618543e-02,
          4.2759828060871294e-02, -6.0603933312861194e-02,
          6.5556935337831371e-02, 3.5489899462827573e-02,
          1.9194262222562666e-02, -2.7929878068273434e-02,
          2.1722556756253921e-02, 3.6637360794028705e-02,
          7.4724990879925068e-02, -3.4978883331372314e-02,
          -3.8472446939932889e-02, -5.6043231418172905e-02,
          -2.2221340858523991e-02, 5.3719721717289219e-02,
          -6.1085070373164074e-02, 5.4564848379719803e-02,
          -2.1120706946357849e-02, -8.8291924900018331e-02,
          -4.2402188463946056e-02, -5.3437893141696766e-02,
          4.5958043778887001e-02, -4.0417220325539342e-02,
          -3.5123239990358851e-02, -4.9300945353837944e-02,
          4.5799597158949726e-02, -2.7698351235203887e-02,
          7.5373675908037572e-03, -1.3516168720927852e-02,
          1.9441719696610345e-02, 8.1887215734547464e-02,
          -3.0996503055502816e-02, -3.2457464770339589e-02,
          2.0247493683746433e-02, -6.5587252670276666e-02,
          2.8799630425538382e-02, 4.1058935827403872e-02,
          -4.5287496776286233e-02, -3.4980515273026438e-02,
          1.8079596915207715e-02, -8.1308257356501989e-02,
          1.2791502598591886e-02, 5.9427896946964785e-02,
          6.4674576835498293e-02, -4.2717865691667967e-02,
          3.2790123983876679e-02, -4.4722112666219699e-02,
          -6.0493105965674962e-02, 3.7810719178661252e-02,
          2.3357886371895700e-02, -1.1883504780081812e-01,
          -2.1999887425822692e-02, 3.6749320843700486e-02,
          -2.0581185544353196e-02, -5.3064125485202868e-02,
          -5.9106108073766775e-02, 5.0968871747155635e-02,
          5.7437118885033417e-02, 6.4401217399039923e-02,
          -2.3332992816246338e-03, -2.4886196470269260e-02,
          -4.9509038468459117e-02, 3.3183823506835901e-02,
          -7.1381729596657187e-02, -8.2396771862027623e-02,
          -6.7734712585411430e-02, -5.7853845583416316e-02,
          -7.9352736563943642e+00, 5.7945319951639407e-01,
          6.6396697057390486e-02, 4.6305611981342004e-02,
          1.9257401417967487e-02, 6.6314092247377721e-02,
          7.8730756976349403e-02, 6.4258404923297194e-02,
          -2.8652730602244316e-03, -6.5866198233752310e-02,
          -1.0036846113928118e-01, -1.5217251451433980e-03,
          5.1287501510919563e-03, -1.6209363121132005e-02,
          3.0734448808191036e-02, 6.8450134842944432e-01,
          -6.3312077410695977e-01, -7.0212449431705737e-02,
          7.9882524047211962e-04, 3.4754047733213264e-02,
          -2.6141466425937752e-02, 4.8467532713027145e-02,
          8.0848367446377124e-03, -2.9737272500473748e-02,
          5.0773084588668367e-02, -5.8943371694402523e-02,
          4.6313518349599099e-03, 2.6883639959529856e-02,
          1.9514278233246994e-02, -4.7534944295560759e-02,
          3.2604092596361135e-02, -1.4981166601412523e-02,
          6.4996890698951260e-02, -2.4551410312387886e-02,
          -6.1870551571512847e-02, 5.4512369109113855e-02,
          4.5953148440313875e-02, 5.7100649760421542e-03,
          3.2939824310284867e-02, 5.5670293349162445e-02,
          9.2047620245684886e-02, -5.3554839752691508e-01,
          4.7322924428533107e-02, 2.7494124962454226e-02,
          4.9025196030069433e-02, 6.4319574823906170e-02,
          -4.3804506872396030e-02, -5.2854747996783039e-02,
          5.7418578200502945e-02, -5.3793829189235531e-01,
          1.7221559620577458e-02, 3.9048257147722545e-02,
          7.2738929348209524e-02, -5.7177748850501231e-01,
          5.4992327134358987e-01, -4.3975782137577690e-02,
          5.5185403207383646e-02, 5.3490764474727970e-01,
          -5.5846241223392568e-01, -3.2348799149613847e-02,
          -5.0691226236365172e-01, 1.9485816169391906e-02,
          -6.3532680316394885e-01, 1.0449291673297119e-02,
          -1.9716243151817791e-03, -1.6272431416014341e-02,
          2.7012728738680940e-03, 7.6308363227992365e-02,
          1.0187808971783591e-02, 2.9867347450392545e-02,
          5.5080329280803764e-01, 2.1561479505878582e-03,
          6.3810910532281795e-01, 3.2911488450755019e-02,
          8.6904854481138813e-02, 5.9713668790788133e-01,
          -3.8183505575275473e-02, 5.5968271022947417e-03,
          5.0588823281964834e-01, -2.1292393193906568e-02,
          -1.1061211211479277e+01, -4.7149208216903415e-01,
          3.1977792293125806e-02, -3.4523615594064617e-02,
          7.0138952770199922e-02, 5.3627594505673691e-02,
          -1.1731273744003604e-01, 1.2761419290848498e-02,
          2.9528288661563960e-02, -3.6783096708247701e-03,
          4.1393924818944126e-02, 6.4589956507457150e-02,
          8.8820149499157786e-03, 8.0616069412742575e-02,
          2.3481629555959747e-02, -5.5929306691252312e-01,
          5.6936676288410637e-01, 7.8142209288403000e-02,
          -7.6704992602559308e-02, 1.3340273631923832e-02,
          8.4577373795118038e-02, 5.6696376782130473e-03,
          7.6826043740423580e-02, 7.7328667300241072e-02,
          3.6373450449429620e-02, 3.0943050864139961e-02,
          -5.0825073425436247e-02, 1.0443894958520833e-02,
          5.9977051517468863e-02, 3.6011211554076425e-02,
          -3.0287933564938151e-02, -3.2687863040075114e-02,
          -2.7285802142804141e-03, -4.1169546058180642e-02,
          4.8162406430731323e-02, -1.0972597699621217e-02,
          -5.2775718989544938e-02, 5.8121061387032623e-02,
          1.1037177388502611e-02, -4.0449509846772362e-02,
          -3.6372126203025719e-02, 5.1896686564665861e-01,
          -3.9602569116400622e-02, 2.8550009660853120e-02,
          5.8819679782069048e-02, 8.7249707262717163e-02,
          -8.7858928464437644e-02, 2.5042197973297691e-02,
          -6.3802728400781966e-02, 5.2717380060990915e-01,
          -2.9511214851491770e-02, -5.8222995157366141e-02,
          1.9084432885887168e-02, 5.3940417664708307e-01,
          -4.9695410003753965e-01, 4.6974212057714841e-02,
          1.1015843787804186e-02, -4.8951003051279185e-01,
          5.1666346272850106e-01, -6.4652401441832791e-02,
          4.9560103501207525e-01, -6.5452792098870616e-02,
          4.9888884726455834e-01, -3.3266638523935604e-02,
          -1.1151793789872957e-02, 4.2593923471112335e-02,
          -5.2663316283277369e-02, 2.5886808258216275e-02,
          -3.0413299831848886e-02, -1.3685113469971555e-02,
          -4.8575599708930234e-01, 6.6110978126360131e-02,
          -5.6789611048721600e-01, -5.1307823859291384e-02,
          -8.4162744285160365e-03, -6.3915192216697758e-01,
          -1.2554272675162229e-01, -9.8200133831972500e-02,
          -4.9969979453018781e-01, 6.0405955561931388e-02,
          -1.0393975321771551e+01, -2.3031888067930903e-01,
          -8.8583635554443027e-03, -5.3626436615655457e-02,
          7.1778158754817439e-02, -3.3242569477820220e-02,
          -5.2657037288383501e-02, 3.9548544988416173e-02,
          -2.8150523726144547e-02, -6.2344787591370118e-02,
          -4.5715499428176749e-03, -4.8444556527337437e-02,
          -5.0193857893246131e-02, -5.0619357547498862e-02,
          -2.7871428966489125e-02, -3.5118801476733674e-01,
          3.2034441454084073e-01, -6.3919748944008731e-02,
          -7.8487288403193689e-02, -6.0937098339771567e-02,
          1.2769741244029199e-02, 6.2087177516222683e-02,
          -4.0574103881029881e-02, 1.8650919732029602e-02,
          -1.2012093920392484e-02, 3.1578500551458638e-02,
          4.5851011021790379e-02, 6.9207657850460236e-02,
          2.8444347667182606e-02, 3.9344847333708688e-02,
          1.9419745173639735e-03, 6.9288717985193815e-02,
          5.8170037115088544e-02, -1.2877458213471513e-02,
          1.7499950561668184e-02, -5.6025122128730835e-02,
          -6.4096400046203636e-02, -5.2813061906404439e-02,
          2.4006533547605530e-02, -9.8148157483970589e-03,
          -1.2154780375966232e-01, 3.0016812344596694e-01,
          -4.5629035162039262e-02, 1.6169209653513369e-02,
          -1.8268850908699258e-03, -4.3369870793585411e-02,
          3.3547510510909671e-02, 4.5320841486454468e-02,
          6.5325069273959022e-02, 3.4642126881077095e-01,
          5.7493787973527145e-02, 5.3977923697417836e-02,
          -6.5271150530059885e-02, 1.5666458068821543e-01,
          -2.2280655641987598e-01, 4.9080977324242915e-02,
          -3.4854701955406436e-02, -3.2768214451275113e-01,
          2.3665353415075846e-01, -4.8888470896810261e-02,
          2.6679770924293494e-01, 7.6537726934670036e-02,
          1.6983608209955636e-01, 6.2477230688552945e-02,
          -1.7859585788980881e-02, -5.7944174043836998e-02,
          1.0231685199070228e-01, 4.6474243133356907e-02,
          -3.2551228927368552e-02, -1.8806180163602818e-02,
          -1.5872210271037793e-01, -4.7537912576237136e-02,
          -3.2270228863574069e-01, 6.1618915423733139e-03,
          2.9543046624908115e-02, -2.3448018841638066e-01,
          7.1554362588889156e-02, -9.9853015392703613e-03,
          -2.7764196943387803e-01, -4.7758534090477915e-02,
          -7.1851983615703965e+00, -7.9932809466417065e-01,
          -3.3560725788871364e-02, 3.4049070902865256e-02,
          3.2192893421024806e-02, -2.6896785995444063e-02,
          -1.0431045226204755e-01, -7.1497170998900310e-03,
          -1.6219018323969020e-02, 4.1112119116161722e-02,
          -5.8913572474007324e-02, -1.4722011843428038e-02,
          -1.9423886697976516e-03, -3.6580438714364429e-02,
          5.5716773893459859e-02, -7.4760212889890842e-01,
          8.9364686971071416e-01, 5.8801936314573179e-02,
          -2.1434308216592320e-02, 3.0239315381798977e-02,
          5.1733395806163263e-02, -1.2077924971738434e-03,
          -1.3394470896293822e-02, -6.2253754268017519e-02,
          -1.4345902966005322e-02, -3.1207169281886361e-02,
          -1.7871962572660577e-02, 2.4703388845661752e-02,
          -9.8854465851891449e-02, -6.0144601365437540e-02,
          9.6838702294072352e-03, 6.4653031757473847e-02,
          1.1883492247871079e-02, 7.4386389115241355e-02,
          3.2559705256372751e-02, -4.3609976263302770e-02,
          4.8743546223961973e-02, 3.8275709469053738e-02,
          -3.8284227304530940e-03, 3.2954098709716086e-02,
          9.7150426097669440e-02, 7.9078822611373090e-01,
          5.6118285362496072e-02, -4.6490054718539439e-02,
          -2.3840000361232804e-02, 4.5870616840392123e-03,
          3.7794072238074003e-02, 5.6466267560835455e-02,
          -7.0904517925860833e-02, 7.3312085246364500e-01,
          -5.9109116477242948e-03, -6.5170429467426225e-03,
          4.9031749304670233e-02, 7.6757026034530829e-01,
          -8.0418595277392335e-01, -2.8649739260367096e-02,
          4.8116958750929160e-02, -7.7517194150946667e-01,
          7.5966722036879186e-01, -6.5537279031623832e-02,
          7.8574188583282889e-01, -1.2271894096364703e-02,
          7.9685729024574392e-01, 2.1183580485559367e-02,
          -6.9741432434482650e-02, -7.4214893207336749e-02,
          -6.0488844422555102e-02, 7.5979544577991207e-02,
          -2.2055011043736229e-02, -2.0588119304592003e-02,
          -7.2988705184713454e-01, -3.4525124364051321e-02,
          -8.6633729944677507e-01, -7.3096786989368237e-02,
          8.9362060909329202e-02, -8.2889510290227408e-01,
          1.1702641841091080e-02, -6.6121660538295060e-02,
          -8.6746788000828357e-01, -5.0760560825280909e-02,
          -9.8291391208410648e+00, -6.9943999233839704e-01,
          -5.6629884384035538e-02, -4.3048818980033987e-02,
          4.9981760801761387e-02, -3.8504654809258999e-02,
          -3.6906543718764243e-02, -5.5344391903116297e-02,
          4.0397048335432416e-02, 2.2385105020041953e-02,
          6.3718316678961121e-02, -5.3445605392528399e-02,
          1.1005524783808743e-02, 1.2010626109265012e-02,
          5.5718649858333014e-03, -6.0945426065642527e-01,
          6.7023647811545262e-01, 1.8238160714493485e-02,
          -2.8941838737492263e-02, 2.9005076428641793e-02,
          -4.4636323135736157e-02, 1.1085248536500477e-02,
          5.5773901106283212e-02, -2.9805839523803508e-02,
          -1.0559678091135607e-02, -4.0450876263233390e-02,
          4.8452487136880974e-02, -9.9136184116609093e-03,
          9.2616107163972922e-03, 6.2139211810845259e-02,
          1.4603838333202911e-02, -4.5956230939419529e-02,
          4.1943674180471145e-02, 6.5304008064676039e-02,
          9.8227448023613440e-02, 6.1579801638885524e-02,
          -7.7496007093556168e-02, -1.3878126805035270e-02,
          3.7668265419285606e-02, 7.7888882829517378e-02,
          -2.4454388299291491e-02, 6.2638264330173821e-01,
          -2.5580164229028417e-02, -3.9370681212140053e-02,
          -2.3716686361664199e-02, -5.7360011947453687e-02,
          1.5446325647362016e-03, 5.5034292736164024e-02,
          2.0531544517736783e-02, 7.0579839236819808e-01,
          -9.7196055853606533e-03, 5.5840448880775960e-02,
          -3.7017756790668745e-02, 5.7921477217323625e-01,
          -7.0824232948235899e-01, -5.3737933612944877e-02,
          -6.9023344609977763e-02, -7.2187391697345582e-01,
          6.8432897736769405e-01, 4.8708762338721817e-02,
          6.2990498609425460e-01, 1.7675824428199653e-02,
          5.3592821195309515e-01, 2.2358818887875807e-02,
          4.7667070831701006e-02, 5.3837332579636563e-02,
          1.9231097935260399e-02, -4.2586956972804943e-02,
          -2.4315981211464322e-02, 3.8490645520102437e-02,
          -4.9555710551218013e-01, 4.3417650326716080e-02,
          -6.1163460288971394e-01, 4.5568466693489740e-02,
          2.3313882960759591e-02, -6.9603530208640663e-01,
          -4.2090655645615288e-02, -4.1084038392907418e-02,
          -6.8764299762833703e-01, 1.8841896446837047e-02,
          -9.1441407788072837e+00, -1.7909246120304176e-01,
          4.7756463463575823e-02, 4.4478173706028100e-02,
          -4.2547547051593748e-02, 9.2916295064025250e-03,
          -7.6677876194571157e-02, -2.6310105816541647e-02,
          9.5407750342381172e-03, -4.8870087876946272e-02,
          5.5885924115868818e-02, 5.8102309364836497e-03,
          -5.0093535208852090e-02, 5.8417156383825053e-02,
          -8.7034384851791630e-02, -1.5275541896342917e-01,
          8.6225782555320984e-02, -5.2795540071975115e-02,
          -1.4051154050542865e-02, -5.6657205416094682e-02,
          -1.9609788002607841e-02, 2.2361124206084788e-02,
          2.8504860047286078e-02, -2.6533041174463017e-02,
          -9.5799683827898947e-03, 5.2522278576013798e-02,
          -6.2441533384101050e-02, -7.4282867561447821e-02,
          1.8587645037119929e-02, 4.9226418157629643e-03,
          -1.7613820317612806e-02, -7.8039461298089141e-02,
          -1.3944108966914500e-03, -7.4558766248628431e-03,
          -1.3792564742656723e-02, 6.5800008550864486e-02,
          4.1462568375952337e-02, -5.8686407322660276e-02,
          -1.7140167785515809e-03, -8.8507623452758658e-02,
          3.2552037921904503e-03, 1.8924915869411579e-01,
          5.0158264985832382e-02, 9.5697916486077433e-03,
          -4.3872262007566734e-02, 5.3899470944659092e-02,
          -3.8341753532602420e-02, 4.0009552194823890e-02,
          -5.2890275639413058e-02, 1.6650798572005091e-01,
          3.8647280829101467e-02, -6.8932181631429050e-03,
          2.2319294470954494e-02, 2.5308172570009186e-02,
          -7.7967797695876029e-02, -3.3241463658446692e-02,
          -2.3812991170776013e-02, -4.5747828005325258e-02,
          1.1789695379093422e-01, 2.4566531753339119e-02,
          1.4509117401988517e-01, 2.4366267251311482e-03,
          9.2249166322883727e-02, -6.1611831304159030e-02,
          5.4539983218515248e-02, 6.4353813362990356e-02,
          3.6921000402465057e-02, 5.9709876812454800e-02,
          3.8537401119660683e-02, 6.5258606007089909e-02,
          -3.6838234489246204e-02, 9.1712700872892353e-03,
          -1.4418443176292475e-01, 4.2701308381660523e-02,
          7.1243515690799744e-02, -9.8748937762189681e-02,
          -9.0622006268349289e-03, -3.9270517201177475e-03,
          -1.0774986031826053e-01, -1.4970050994067063e-02,
          -1.1194685318036951e+01, -5.7964695428929025e-01,
          -4.2624148323147044e-02, -2.6202062235836578e-02,
          -6.3978533227135134e-02, 3.8756411897543752e-02,
          -8.8311580318519101e-02, 2.1775155917023694e-02,
          -7.0799100328002990e-02, -4.5487687249588828e-02,
          1.6272282901622415e-02, 8.4185993630984200e-03,
          -6.5671987754664526e-02, -4.1121507545214056e-02,
          -1.5602787091298613e-02, -7.2497293468801549e-01,
          7.1276123155556548e-01, 4.3600125963544997e-02,
          5.3609003796944193e-02, -5.2827400282596554e-02,
          2.0325942559476552e-02, -2.7822001030554717e-02,
          -4.2852215924908739e-02, 2.9283724966729815e-02,
          -4.1748865877192266e-02, 3.5066414959479243e-02,
          3.6015612996284870e-02, 1.0413825734263870e-02,
          3.4194518004478480e-02, 1.6738321252462697e-02,
          -7.0902425705257727e-05, 3.2010328216578274e-02,
          -8.4880084245261112e-02, -5.4627048119559297e-02,
          -5.6926424735274346e-03, 2.1103218389492404e-03,
          -6.8490146302119345e-02, -6.4135165258498106e-02,
          -4.8259313832738231e-02, 2.9566467811389548e-02,
          3.2093688936817542e-02, 5.6077136683208306e-01,
          6.3289729410169859e-02, -1.9444187486642579e-02,
          -2.1914711010865926e-02, -4.4143431642209657e-02,
          8.1504087571187323e-02, -2.0104630718233103e-02,
          -8.3374997122449501e-02, 6.4006891386971632e-01,
          3.0897221326972906e-02, 1.5268729329744391e-02,
          7.4016183644680586e-02, 6.4325258812371489e-01,
          -5.7721240469635848e-01, 4.9706490187136024e-03,
          4.7597552751405030e-02, -6.3480773855693939e-01,
          6.2523033021592844e-01, -3.0607742133693812e-03,
          6.0120341831855917e-01, -1.5949953906774086e-02,
          5.7338178138493856e-01, -5.7832994552222419e-02,
          4.1365045055568407e-02, -3.9064849612226435e-02,
          -3.7759970659053427e-02, 9.0529282875237593e-02,
          2.6821925009261682e-02, -1.6039845802204168e-02,
          -4.8221497654581624e-01, -1.9402393761571119e-02,
          -6.7110352479275981e-01, -5.3532608620070771e-03,
          -5.6769846189210216e-02, -6.1319661482138343e-01,
          -2.4778368374908318e-02, -3.5666503732436405e-02,
          -5.2963991690093315e-01, -2.1008562043520234e-02,
          -8.8965229739572180e+00, 4.4534972811428836e-01,
          9.2055458222542769e-02, 1.8040153216587078e-02,
          -2.4051247739271250e-02, -5.9305771629783545e-02,
          2.8267794367565709e-02, -3.4975226963488176e-02,
          -3.1803981442965513e-02, 5.9511672381771817e-02,
          7.2597040152389783e-02, -6.2542533534881997e-02,
          5.2741544174220070e-02, -2.3093053721908490e-02,
          -5.4145523510554398e-02, 3.4873687910905243e-01,
          -4.1393882659507020e-01, 4.7821224262588509e-02,
          5.9640189329060615e-02, 1.0179987551683291e-02,
          -2.7333930076016835e-02, 5.8243786729369910e-02,
          6.7640533636546388e-02, -2.6829218512137407e-02,
          -4.6393302246538641e-02, 4.0127794528034375e-02,
          2.0296504477205619e-02, -1.0846725566573142e-02,
          -1.3498383688802303e-02, -5.0926019435653613e-02,
          -5.4246316587979210e-02, 1.1204035727845028e-02,
          -5.1785169949534575e-02, -5.9556857043454356e-02,
          -5.6622194570620683e-02, 2.7967775724561928e-02,
          4.3126787479912693e-02, -2.6358093095831422e-02,
          -3.8255924170497425e-02, -6.2313586141150970e-02,
          -6.2503527812200296e-02, -3.1430524659800968e-01,
          -5.4394618802471366e-02, 3.1932047860836796e-02,
          -4.6435015980910335e-02, -2.5624912904951894e-02,
          3.1354373829352258e-02, 5.0461398396908545e-02,
          4.7493380775012979e-02, -3.3908860494203225e-01,
          -5.9076066602899505e-02, -4.4377825761568589e-02,
          5.7271546921047523e-02, -5.0447535838401880e-01,
          3.5059566067958486e-01, -3.9581226178793762e-02,
          -4.0928443779913511e-02, 3.8777081395913388e-01,
          -3.8596983741307067e-01, 6.2274125422762505e-02,
          -2.9916874947057437e-01, -1.8601677415350200e-03,
          -3.5928566863241435e-01, 1.8553904699162328e-02,
          -1.9988897392625306e-02, -1.9251497965045911e-02,
          -1.6885842760393861e-02, -9.0702782013745015e-03,
          2.4649144735669610e-02, -2.0287022211056386e-02,
          4.0177085287331749e-01, 7.2600751736382474e-02,
          4.3173272465525481e-01, 3.7867611267428880e-02,
          -6.2574692802349396e-02, 4.0983049558143148e-01,
          1.5220648309048771e-02, -6.0708922322925109e-02,
          3.5788349101313721e-01, 5.7212036935028215e-02,
          -1.0295897160200084e+01, -2.0072044415242429e-01,
          8.0177587435980621e-02, -4.2860542460795625e-02,
          -7.3323932376792578e-02, -3.2061590875185508e-02,
          -1.1638967645651124e-01, -3.0033499151098507e-02,
          3.5382420011547157e-02, 4.2261360360934037e-02,
          4.1939990276684123e-02, 6.8037426583349089e-02,
          2.8273384215598024e-02, 6.5075748130026340e-02,
          1.8817340710293968e-02, -1.9118864936383381e-01,
          3.0917116725657123e-01, 3.6913542283929839e-02,
          6.8541474425898849e-02, -2.3424516973775279e-03,
          -1.2305683144929495e-02, 2.9677857271193223e-02,
          -6.2257996888849150e-02, -2.3906205493087144e-02,
          -4.4206627146109956e-02, -2.3568124879304957e-03,
          -6.4188193262545712e-02, -8.1756372200444502e-02,
          -1.9985354144354501e-02, -5.8677559774640821e-02,
          6.1649679457154341e-02, 2.8997188451936159e-02,
          -5.0769050658712334e-03, 2.1937191888264585e-02,
          4.7866627853434263e-02, 3.3102132163902891e-02,
          1.0304472039182656e-02, 3.4291350005300363e-02,
          -7.5582689903539012e-03, 1.3888761000385377e-02,
          -5.3640159114832303e-02, 2.5151589578614575e-01,
          -3.1576321195646358e-02, -1.1934250328598702e-02,
          3.6533293175176215e-02, -3.2438233596151597e-02,
          4.0894316597642637e-02, -2.7762958184159792e-02,
          -1.3792167595728780e-02, 2.4071796955185815e-01,
          -6.5488429058355002e-02, 3.5000746665930921e-02,
          -8.0776266167605013e-02, 1.7947575878152194e-01,
          -2.6512413063261497e-01, 4.9632033845820385e-02,
          4.1183529070878536e-02, -1.7944924706125631e-01,
          2.2303227367577122e-01, -2.6379922010117836e-03,
          2.5463698203970730e-01, 6.6227168403168377e-02,
          1.4126162336475556e-01, -1.0921547629216120e-02,
          -2.0333909568148633e-02, 3.1267973960055963e-02,
          5.1026363205214080e-02, 2.1325900893452921e-02,
          -4.4868447395697945e-02, 3.6074117776921683e-02,
          -1.9330298097678941e-01, -7.8900070833734168e-02,
          -2.3435700818653235e-01, 4.7385014066712236e-02,
          -2.4566258168300947e-02, -1.7622526361018898e-01,
          7.6916950534007692e-03, -2.9649978757666142e-02,
          -1.9157527609090624e-01, 2.3430796038035242e-02,
          -1.1962985172993351e+01, 1.4225516829392998e-01,
          -1.7067811642104482e-04, -5.4112621907227328e-02,
          -1.1127358664774063e-02, -2.6614178231392439e-02,
          -4.1166130606020986e-02, 5.0788418958444999e-02,
          6.4351824197411658e-02, -1.2416237080801270e-02,
          2.6009323985003299e-02, -1.4215449188929969e-02,
          2.7281455450958725e-02, -2.9348680540657389e-02,
          3.1083605083050494e-02, 1.3085789250868235e-01,
          -7.3872480798583924e-03, -2.5019873943612009e-02,
          3.8378753455086352e-02, 6.7478753558927670e-02,
          -1.9474385664854196e-02, 1.4722130672159028e-02,
          -1.4794528438907249e-03, 6.4234187128198528e-03,
          -2.4060973646932417e-02, -6.4409388777910567e-02,
          3.3434804050063098e-02, -5.3735191870452302e-02,
          -6.1177494086505524e-02, 2.5556473161974520e-02,
          6.3849753821068689e-03, -3.9458375714641492e-03,
          2.7346975785445215e-02, 2.9563784970028463e-02,
          5.3676322545417487e-02, -8.6711298803716433e-03,
          -2.2610724657594648e-02, 6.5301722130659032e-02,
          -2.5652393847268588e-02, 1.8629041063994228e-03,
          7.3321361824597184e-02, -1.2973570778344062e-01,
          -3.8326333107436467e-02, 7.6486680050379410e-02,
          8.2757817503924427e-02, -1.5941676627233312e-02,
          3.1214179812271457e-02, 7.2844672128805882e-02,
          -4.6320511201911087e-02, -3.3948131627135655e-02,
          1.8684379906940655e-02, 1.7303080512478929e-02,
          2.2118403160228315e-02, -3.2301798626022164e-02,
          1.4271742758891254e-01, -5.5679267950547749e-02,
          -6.5702153279277281e-02, 1.5668115115249212e-01,
          -5.7048866434791928e-02, -2.2505256738362981e-03,
          -1.4967365840439981e-01, 2.0972337885637499e-04,
          -6.4089790596720611e-02, -3.8282653949655354e-02,
          3.7426620477879695e-02, 1.2120487574326311e-02,
          7.3006493209371012e-02, 5.6056020659257737e-02,
          -7.6308765143908899e-02, -4.4417130617635102e-02,
          1.8927145725468195e-02, -1.7459814413460693e-02,
          1.1581181778263937e-02, 4.4463970180005967e-02,
          -3.4034665922834308e-04, 1.3998196632944904e-01,
          -1.2061236186238701e-01, 1.8519605143443668e-02,
          9.7503049467408578e-02, 4.8945778066396224e-02,
          -8.3119664266183531e+00, 4.6417910149659858e-01,
          -5.0895190763524722e-02, 3.6044143259932777e-02,
          -3.1412337211738049e-02, 3.1230610509182622e-02,
          -5.0601724351005337e-02, 3.2755189841435814e-02,
          -1.4185324733426468e-02, -2.0733791448531672e-02,
          1.3667887803166577e-03, 3.9065431049836126e-02,
          5.2248100712539096e-02, 4.5545760104950234e-02,
          -4.2857321862281132e-02, 5.2342051664747780e-01,
          -5.4606197803134293e-01, -3.7128368168762534e-02,
          -7.5829047098563201e-04, 5.7076257072621449e-02,
          -3.5728426504453285e-02, -2.5663997135737689e-02,
          -6.8589292927756951e-02, 7.5973732853821474e-02,
          -3.0220385580871079e-02, 5.6271728791131299e-02,
          1.2300797488943690e-02, -4.6157674396618609e-02,
          -6.5294159107867631e-03, -4.9431843228885122e-02,
          -4.7436750572153248e-02, 5.8073574740491393e-02,
          5.9935481863674388e-02, 5.4162609185786331e-02,
          8.4507791031762494e-02, -4.5333360046990717e-03,
          -6.4140351789214387e-02, -1.1716662308231077e-02,
          -8.5298850290518868e-03, -4.2663448225829965e-03,
          9.2657485062755771e-02, -4.7939160032809142e-01,
          -4.9963793195177277e-02, 3.3352348749828564e-02,
          3.6298559974910299e-02, -1.4330237495301370e-02,
          -6.4609606656892166e-02, -3.2664475340169766e-02,
          2.0357849525655825e-02, -4.5595317571118760e-01,
          -4.8331961460271571e-02, -5.4791990753963953e-02,
          -3.3278867335312053e-02, -4.2216710730373452e-01,
          5.1116362652812242e-01, 6.0045554180235779e-02,
          1.7424742313845509e-02, 5.4310300497592789e-01,
          -4.3682574182597705e-01, -6.0390145535698788e-03,
          -4.8158987910614226e-01, 1.8440917663035641e-02,
          -4.9167585678749665e-01, -1.2753543673067743e-02,
          6.1691919300705264e-02, 6.1388160615834270e-02,
          -2.6213144734646955e-02, -4.3946713004574554e-02,
          -7.6441318788432966e-02, 6.7247613151755217e-02,
          3.7879967470280701e-01, -5.9547808985327445e-02,
          4.3324982587518884e-01, -5.9527959828817638e-02,
          -4.1041961618653325e-02, 4.2891082068266184e-01,
          -1.4206493670706739e-02, 1.0711646353774627e-01,
          4.3780502266687421e-01, 6.0429203633999833e-02,
          -9.0256496106915076e+00, -2.9281104408662517e-01,
          -4.4973316508251690e-02, -2.3513119806872887e-02,
          -7.1510477022053806e-02, -4.6865062531446450e-03,
          -4.8087554821741936e-02, 2.9256513973124138e-02,
          1.4690591504757109e-02, -3.7794936518160049e-03,
          1.6931658537821172e-02, 7.6589032989151040e-02,
          -6.1807480789778234e-02, 3.9272831949444247e-02,
          -2.4810509779692642e-02, -3.6893550989688145e-01,
          3.1714474779303808e-01, 4.3761815976499474e-02,
          1.3062086660233743e-02, -3.0204326265628790e-02,
          -4.8000218552491640e-02, -4.8773649204724531e-02,
          -8.1481353608120421e-02, 3.2726991144871091e-02,
          3.5246033258203788e-02, 7.6927213736665079e-03,
          -5.4463696796679352e-03, -2.8040045228787734e-03,
          -6.1861392489564154e-02, 4.1937123702479623e-02,
          -6.1511947495955746e-02, 1.3256303753289712e-02,
          4.1691532055261007e-02, 3.2159794939466427e-02,
          -4.0936277944801938e-02, 6.4734153473262779e-02,
          -2.3769592100692367e-02, -2.3977823957266896e-02,
          1.4521909704484144e-02, 3.0510024959607876e-02,
          -3.3911336231866825e-02, 3.1324849042570141e-01,
          -2.3385463337328633e-03, 1.9236679901196888e-02,
          9.3574887500386759e-03, 2.7831927828987649e-02,
          -1.9342216257289945e-02, 5.7747170128393796e-02,
          2.5559079339344006e-02, 4.3649119328295333e-01,
          1.2354672970934125e-02, -5.6176338157214574e-02,
          -4.1473596601013338e-02, 2.2148804241467032e-01,
          -3.5861247661162987e-01, 5.0019616311607062e-02,
          -5.4627287981725441e-02, -3.4366965183427239e-01,
          2.6376070791981304e-01, -7.4198730941516494e-02,
          3.6300116275251115e-01, -2.9783604655194369e-02,
          3.0297251878015313e-01, -4.4193390913770204e-02,
          2.0347631681845901e-02, -4.2541923338699501e-02,
          7.5455191875901773e-02, -5.4741172239021300e-02,
          6.5200230687252683e-02, -7.6502083608209356e-02,
          -2.4926362678856739e-01, 3.3636387481467724e-02,
          -3.8950554544639560e-01, -1.8344224314431088e-02,
          -7.3311859115373660e-03, -3.7057779998727419e-01,
          1.3995598813900553e-02, 2.9233739356675177e-02,
          -3.5647158534055723e-01, 1.8348147352518274e-02,
          -4.9997757545670751e+00, 4.3183590038659009e-01,
          -5.2743156913851730e-03, 7.4462433114756230e-03,
          5.6152490489090469e-02, 6.3242908862064975e-02,
          2.9324185825377679e-02, 5.3674115029057196e-02,
          3.5567551532996778e-04, -3.2615035235104580e-05,
          -3.8335857533227082e-02, 4.3811666849277280e-02,
          -7.5270821581534697e-02, 1.5090013967393238e-02,
          5.0847493253948092e-02, 5.0537708075951238e-01,
          -5.2042907763155555e-01, 1.2884851936332039e-02,
          -7.3596158998892214e-02, -2.6699888418709693e-02,
          4.2449392063882756e-02, -5.9561872217960804e-02,
          -6.1474626269742393e-02, -4.9673419732557143e-02,
          -2.7595689592783544e-02, -1.9438410936909685e-02,
          -2.4041332662976243e-03, 7.3712636158111064e-02,
          -2.2425042871347025e-02, 5.6475269508695157e-02,
          4.7722407482995111e-02, -2.2429048908321376e-02,
          2.8130308648491534e-02, 5.3074335356627707e-02,
          -6.5249578870896843e-02, 5.3704306767543538e-03,
          1.6630052044460442e-02, 6.0490762895682677e-02,
          -2.9774518876389416e-02, -2.6893262820687640e-02,
          1.2279815115407718e-02, -4.8398904279591876e-01,
          -3.2178329294735873e-02, -6.2296857835427218e-02,
          3.6541076469843274e-02, -3.5568298162542977e-02,
          -3.0433879301408902e-02, -6.0888904816909895e-02,
          1.6078881129950009e-02, -5.0025987417343742e-01,
          5.2798756478657220e-02, 6.1596563690008294e-02,
          9.3790098340733787e-03, -4.6378654245632828e-01,
          4.8425022371166038e-01, -6.0512829647611718e-02,
          7.7096679685447034e-02, 4.9371759371377427e-01,
          -4.5072265402827455e-01, -5.7992764921559706e-02,
          -5.0300597889551801e-01, -4.4165368539119641e-02,
          -3.8756293989091389e-01, 4.4297687414652898e-02,
          -7.0940133778622488e-02, 2.2740814797053657e-02,
          -4.3064756101702489e-02, 1.4212237672388137e-02,
          -2.4575553010404368e-02, 6.1169068396837367e-03,
          4.4768239386961733e-01, 6.1134383842510860e-02,
          6.2242667108843797e-01, -4.0124091619422854e-02,
          4.0556607215669629e-02, 5.6259830369182873e-01,
          3.4903781484191772e-02, -4.1579742784663254e-02,
          5.3611266040516359e-01, -2.0508651235563370e-02,
          -7.2001387979492470e+00, 4.9253822436817529e-01,
          1.9298311654809548e-03, 1.8277642225767624e-02,
          -3.9931447032913819e-02, -2.8513591314069636e-02,
          -7.9313146241270921e-02, -8.8231594717929226e-02,
          -5.2457045350357230e-02, 8.1707563120420310e-02,
          -8.9209582060595774e-02, -3.2934652839760495e-03,
          5.7052830485129193e-02, -2.8822087400656088e-02,
          6.2622311514527448e-02, 5.2100043290318820e-01,
          -6.5307913467939482e-01, -1.6538085716793927e-02,
          2.1968409520152526e-02, 3.8088147935131038e-02,
          7.8858405915362403e-02, 4.4232126121157712e-02,
          1.9208688348622674e-02, 5.6634269873531998e-02,
          5.7347537804741777e-02, 6.5929529991637495e-02,
          4.1527992547059238e-02, -9.9066201344053494e-03,
          6.7929802000223347e-02, 2.5097893270839663e-02,
          -2.5719790283412588e-02, 1.9892845574622921e-02,
          -1.6048910202270318e-02, 8.2557476105848501e-02,
          1.0130596142375155e-02, -2.3965024344352968e-02,
          6.3947476097679479e-02, -4.4112538026482025e-02,
          3.7227432214865068e-02, 4.2771026554446673e-02,
          3.5755858974050189e-02, -4.9390247387146469e-01,
          6.4507772017471432e-02, 5.0689021049960065e-02,
          6.7833114542498449e-02, 5.5664918678742278e-02,
          -1.0699019300244198e-02, 3.3286229867712036e-03,
          -6.0908423674553708e-02, -6.8345228363386745e-01,
          -1.4692173874280479e-02, -5.8137898454637751e-02,
          7.8060036467717225e-02, -4.5811785013789524e-01,
          4.7430055758106732e-01, -4.5141059869889810e-02,
          -3.8227070188592914e-02, 5.8057118067168145e-01,
          -5.4528318472476167e-01, 4.5717687083068316e-02,
          -6.0088769579557588e-01, -5.2505557366178124e-02,
          -4.4938917323163607e-01, -5.9487908748167090e-02,
          -2.2215194220525793e-02, -4.7251505550248145e-02,
          -3.6748810407054144e-03, -3.3352335988096303e-02,
          1.1747878180731726e-01, 4.0213612032800598e-02,
          4.1016601041006384e-01, -6.5786152697355327e-02,
          5.6314237886799245e-01, 4.5949669521140768e-02,
          -2.1997986452632491e-02, 4.5155677389568638e-01,
          -1.0300992687330877e-01, -2.1747560058718567e-02,
          5.8218700752323460e-01, 4.2703519045993794e-02,
          -2.7759853912089477e-01, -2.5812934931619722e+00,
          4.9554996939541150e-02, 2.1983413978730389e-02,
          -1.3320668723159073e-02, 1.6679181262037754e-02,
          1.4439034083232988e-01, 6.6919460221652113e-02,
          -1.6013772139041007e-02, 3.9514027379790442e-02,
          2.3600917998596468e-02, -2.5281294226465561e-02,
          3.3347316168195603e-03, 7.3093191779971074e-03,
          -1.1583256915046825e-02, -2.6454213138551022e+00,
          2.7081002837717798e+00, -5.5395182057058047e-02,
          -9.1003077086462027e-03, -3.4001893477216535e-02,
          -7.4280896915930273e-03, 4.0277804148119252e-03,
          -1.2734689862669816e-02, 2.6517337942600886e-03,
          3.5325881212768487e-02, 5.9385037804776150e-02,
          4.6443402848752792e-02, -1.5600106904349556e-02,
          3.2865725393910403e-02, -2.3086473163303749e-02,
          3.8200482704480149e-02, 4.0019740078963154e-02,
          -2.2260713156046847e-02, 1.1417636101452886e-02,
          -3.3486014786250753e-02, 2.9969963303529162e-02,
          1.5195581400966850e-03, 1.9528802412960625e-02,
          1.0947117015880664e-02, 3.5820708819527820e-02,
          2.6032283561154314e-02, 2.6374083529476540e+00,
          -6.1171368463057057e-03, 1.4180646260847737e-02,
          -5.5162443443419105e-02, -7.6573254864551717e-03,
          -1.3274045621505562e-02, -5.7520015005556528e-02,
          2.1708975298289985e-02, 2.7366593919518363e+00,
          -2.7545220046038679e-02, 1.2694519800227707e-02,
          2.7926569010283040e-02, 2.4333572992982044e+00,
          -2.5665064460388085e+00, 1.6262775121036140e-02,
          9.2075316167062847e-03, -2.5269009295149734e+00,
          2.4992623940624332e+00, 1.2801520231254094e-02,
          2.6343920033811168e+00, 7.5556320704987341e-03,
          2.4229510500695945e+00, 1.4326958493007023e-02,
          -1.6093144266422270e-02, 5.3120328930256748e-02,
          5.6641878036663255e-02, -2.2223748158670023e-02,
          4.0888027127104251e-02, 6.1191753155478340e-02,
          -2.1929160479002605e+00, 6.8035624901583219e-03,
          -2.6935005955914142e+00, 1.5588093457838872e-03,
          2.3950624770006985e-02, -2.5658938669855691e+00,
          1.4885262007690767e-01, 9.7807697575514330e-02,
          -2.5164822297901197e+00, -8.8854485793716895e-02 ]
      - [ -2.2443435713691762e+00, -3.3674843466918301e+00,
          1.2627078153581084e+00, 2.5095450074317688e-01,
          7.0968179914258966e-01, 8.1485196559737894e-01,
          1.0129381871107934e+00, 1.0542725958194077e+00,
          2.6000291798517322e-01, 6.8596086042896876e-01,
          6.5243362152244599e-01, 7.5124265940739687e-01,
          1.0685978182028288e+00, 4.9819063290384835e-01,
          4.4589503441829531e-01, -3.7935753127953293e+00,
          -3.9057361517555309e+00, 8.5551143501615101e-01,
          -5.4831765579457470e-01, -4.8240709628262485e-01,
          6.7384703520957134e-01, 8.4320743707472667e-01,
          5.8613905169273517e-01, 4.8893564853199278e-01,
          5.5508388256082020e-01, -1.1481649085258622e-01,
          9.0094484105387418e-01, 6.5406644571882888e-01,
          7.8397236193511088e-01, 1.0231517206031786e-01,
          7.2551754476482644e-01, 1.0041748988332913e-03,
          2.9126932573389669e-01, -3.1021272612915335e-01,
          9.2212340321349717e-01, 7.9661784512042688e-01,
          7.6731589052966420e-01, 9.4968799077124455e-01,
          -2.1958672740673280e-01, 1.6194637657857455e-01,
          1.2089918107504074e+00, -3.4593364786453442e+00,
          2.5963724650949638e-01, 2.6676511583000934e-01,
          1.7137367195065339e-01, 3.6099665246534063e-01,
          4.0822903493418500e-01, 9.0627492333427173e-01,
          8.4317375788569437e-01, -3.9734729883247781e+00,
          1.1553889490463822e+00, 4.8236552114273423e-01,
          8.5642192605515932e-01, -3.1169420569654869e+00,
          -3.4022906325762352e+00, 1.8886112614806003e-01,
          4.6157310331180962e-01, -3.4211984588573157e+00,
          -3.4087020071497371e+00, 7.5255348240346798e-01,
          -3.4911818073671177e+00, 6.7401897727610816e-01,
          -3.1069054869645760e+00, 1.2149549590269704e+00,
          8.7401507095237219e-01, -5.2519887813230670e-01,
          3.7251379847406113e-01, 9.9224012973802178e-01,
          7.4073896975670439e-01, 7.8484860405185952e-01,
          -2.6817958500491357e+00, -4.0588587382540758e-01,
          -3.6888276469609003e+00, 4.0682635612905560e-01,
          1.1848356752901874e+00, -3.4521809430833672e+00,
          1.2037388612585678e+00, 8.0188073074476574e-01,
          -3.3790983258264555e+00, 1.7870305577715501e-01,
          9.2556627328678129e-02 ]
