%YAML:1.0
my_nn: !!opencv-ml-ann-mlp
   layer_sizes: !!opencv-matrix
      rows: 1
      cols: 3
      dt: i
      data: [ 24, 30, 1 ]
   activation_function: GAUSSIAN
   f_param1: 5.9999999999999998e-01
   f_param2: 1.
   min_val: 5.0000000000000003e-02
   max_val: 1.
   min_val1: 2.0000000000000000e-02
   max_val1: 1.
   training_params:
      train_method: BACKPROP
      dw_scale: 1.0000000000000001e-01
      moment_scale: 1.0000000000000001e-01
      term_criteria: { epsilon:1.0000000116860974e-07, iterations:200 }
   input_scale: [ 1., 0., 1., 0., 1., 0., 1., 0., 1., 0., 1., 0., 1., 0.,
       1., 0., 1., 0., 1., 0., 1., 0., 1., 0., 1., 0., 1., 0., 1., 0.,
       1., 0., 1., 0., 1., 0., 1., 0., 1., 0., 1., 0., 1., 0., 1., 0.,
       1., 0. ]
   output_scale: [ 2.1052631578947367e+00, -1.1052631578947367e+00 ]
   inv_output_scale: [ 4.7499999999999998e-01, 5.2500000000000002e-01 ]
   weights:
      - [ -6.8824932380664663e+00, 1.5908652547658029e+00,
          -2.1274998421318851e-02, -8.5058818752944826e-02,
          7.1099633760425074e-01, 3.1617282312391723e+00,
          2.5648968133129796e-01, 3.4403487270484789e-01,
          4.3756288479420374e-01, -1.6114151647758936e+00,
          2.1293462087693621e-01, -1.9104655782315314e+00,
          -2.9900205904138383e-01, 2.0339517171798288e-01,
          -7.5224079903096830e-01, -3.1024774334372557e-01,
          -5.8742618703647931e-01, -1.8977739565278418e-01,
          -1.7022921713690468e-02, -6.0862575262964413e-01,
          5.4587750513823929e-01, -7.7595482305227864e-02,
          4.6991988926426727e+00, -1.4175791871880966e-01,
          1.0155136577634813e+00, 6.1866323908547027e-01,
          4.9450389047446969e-01, -8.9595898526018358e-01,
          -5.1826283835501243e+00, 2.9960660587648386e-01,
          2.4070459693025041e+00, -9.1461144017273766e-01,
          -3.2217373488582800e-02, 4.6032991945464230e-01,
          1.0281785547897147e-01, -2.3521606333080194e+00,
          1.7866313231638364e-01, 8.0492300659127047e-02,
          7.7287088758538403e-02, 7.7550517730133262e-01,
          1.0735683130863491e-01, -2.4890379933519737e+00,
          -4.6669955964933796e-01, 2.9324620075189958e-02,
          -1.1530327062072716e-01, -5.6739382744252130e-02,
          -9.1648828269224741e-02, -2.8748586360227157e-02,
          7.0157435343391999e-02, -4.3209655903022059e-01,
          1.0995586713288283e-01, -1.6582399610410036e-02,
          2.2512357346664152e-01, -2.4352395338977872e-02,
          1.3223635149467558e-01, 9.0395227795203495e-02,
          -1.6413577565963683e-01, -1.4677521092359694e-01,
          1.5455997458449464e-01, 6.0327557367472945e-02,
          7.7806770936856326e-02, -1.0866556886589029e+00,
          -7.6737930309576821e-04, 7.3307980203493861e-01,
          -5.9567834366885619e-02, -8.7360586485107450e-01,
          5.0521654290916380e-03, -1.4347169025451675e-01,
          -1.0300048340856773e-01, 3.0607644554946623e-01,
          1.2651043857336106e-02, 4.6403046871223577e+00,
          -4.2847539570826848e-01, 1.9410411456263932e-02,
          -3.4525758628766440e-01, 9.1698457117790955e-02,
          1.4839782892234604e-01, 7.6206941488165064e-02,
          -1.4984471567011914e-01, 1.0804413222611973e-02,
          -1.4529360517017875e-01, 2.5339372489559243e-02,
          -1.3534050457894031e+00, 1.0265575252521333e-02,
          1.9432961133140852e-01, -1.8990623212526941e-01,
          -2.3966605483475218e+00, 2.2028478020483629e-02,
          3.1284714906385269e+00, -1.0788699116865068e-01,
          3.9096290730764760e-01, -3.8171484337409528e-01,
          5.0330487124971353e-02, 2.2459927511256519e-01,
          -2.5533484061273265e-01, 4.5965405370238333e-01,
          -8.2784477063356468e-02, -1.5895885992367995e-01,
          -2.4217784293713909e-01, 1.3662045603455224e+00,
          -1.3599471518986203e-01, 1.1961805859878456e+00,
          8.7003853166827669e-02, 9.1302910247397034e-02,
          2.6589049451186098e-01, 1.8557785186566469e-01,
          2.4972618064834545e-01, 9.4098597346307142e-02,
          4.7987530428317944e-02, -6.2178244678271592e-02,
          -2.6512559008164616e-01, 2.4554303893490356e-01,
          -8.8343264279821421e-01, 1.1603912487968557e-01,
          -2.7966120328243438e-01, -2.4488887257052908e-01,
          6.5988567074755855e-01, 3.1866566196726848e-01,
          -5.0527501909083761e-01, -1.8285176559488078e-01,
          -6.8801623241568688e-02, -2.6540609077345068e-01,
          2.5015445976762137e-02, 4.2079724519189277e-01,
          -1.6736368663081799e-01, -2.7088091114051760e-01,
          -6.0626322118770646e-03, -2.2507282314191829e-01,
          -2.2330931232850323e-01, 5.0666125031097919e-01,
          -7.6489808168061380e-03, -1.2441167371089659e+00,
          -6.8099473202136412e-02, 1.2858387304760691e-01,
          1.1569109658813018e-01, 4.8572629627557762e-02,
          1.8209231175746884e-01, 1.0853677020397694e-01,
          3.5582473255837076e-03, -1.2888918778835365e-01,
          -1.6777936306699959e-01, 2.1115292359160681e-01,
          -6.8538910000129794e-02, 1.7955045550392994e-02,
          3.9078539079428730e-02, -1.5655992529955853e-01,
          -2.3915862373004887e-01, 1.0834040912016608e-01,
          -2.5148898751403215e-01, -6.1756164759600884e-02,
          6.0470417007023136e-01, 4.9615803591930498e-02,
          3.5291147061572804e-02, -1.7982670104057061e-01,
          -2.9356149390215558e-01, 8.6020982660656264e-01,
          -1.2684499853205070e-01, -1.8613452009815648e-01,
          -1.5362639892636301e-01, 1.9404410531849112e-01,
          -9.1759178657650237e-02, 1.0526953214316170e+00,
          1.2748647017074843e-01, 5.5642017720264831e-03,
          4.5146404817651092e-01, 2.3405911216403319e-01,
          3.1126581609547271e-01, 9.3955699489436578e-02,
          -8.5122044967188337e-02, 9.1716470590818955e-01,
          -2.4420600360072683e-01, 1.3191772264779056e-01,
          8.5041083422247765e-01, 1.2307946742571972e-01,
          -2.3516713784507068e-01, -2.9614070462329395e-01,
          -1.1608966990793941e-01, 4.2202372159233464e-01,
          -6.9785418973810243e-01, -2.0543068336151055e-01,
          3.8777005428549435e-02, 2.7719848729818547e-01,
          -2.8470323223160090e-02, 3.4199198835117045e-02,
          5.9278776405740474e-02, -3.6291082724354634e-01,
          -3.1411516924723673e-02, -1.0287815614406665e-01,
          -6.4176111462019084e-02, -8.8962843377959233e-01,
          -8.4220495934283254e-02, -1.1700670541082494e+00,
          -2.3469636325726878e-02, 3.1326126626995182e-01,
          -3.1853948089652767e-01, 1.4959449570553165e-01,
          1.2676090214655833e-01, 5.7362743791049900e-03,
          9.2358889689831955e-02, -7.0885549740704556e-01,
          -2.4479541658680208e-02, 4.1172615138941460e-01,
          9.4549004884412913e-01, 1.0320032826953308e-01,
          4.2155388882177591e-01, -1.4990234496067231e-01,
          -3.9600595075793010e-01, -2.1341366351932328e-01,
          -9.5010848558973959e-01, -1.8704983534374012e-01,
          1.1146287827375176e+00, -1.0263391830986237e+00,
          1.0180962847297453e-01, 9.0338957382272078e-01,
          -4.0478770461615343e-01, 1.4405232033725326e-01,
          -2.6923448576706294e-01, -1.4855437347841971e-01,
          -2.3474203709221952e-01, 1.3027271013504884e+00,
          -2.2626571257614739e-01, -1.6565171980419564e+00,
          5.1265099695874339e-01, -2.5454515481917843e-02,
          6.8103527912835582e-01, 2.4191589600295021e-01,
          2.7610253365553167e-01, 1.5117485535276945e-01,
          5.1267688296944058e-01, 9.6563839781975347e-01,
          -2.4500962361470524e-01, 1.0590201001101059e-01,
          -4.7040048676369073e-02, 9.1986134264879893e-02,
          -5.4769116094023240e-01, -2.6238543993879021e-01,
          2.5484330901873662e+00, 4.7573942074092496e-01,
          -2.0047089631960171e+00, -1.9085443821706399e-01,
          -2.0495523802635529e-01, 6.7531850995980702e-01,
          9.7748341382205284e-02, 2.3638659097163736e-01,
          -1.8974291440026239e-01, 6.2250024212384436e-01,
          -9.3585478454069532e-02, -1.6822493886187787e-01,
          -1.5010087803593664e-01, -1.8184925233691445e+00,
          -1.7590020679794202e-01, 2.9030433833579248e+00,
          1.3402172599059689e-01, 2.1323260265202582e-02,
          2.6253956421370106e-01, 2.2876731918534191e-01,
          2.1271903785497698e-01, 1.0919779275964578e-01,
          3.1915992875417720e-01, 1.2354582442754887e+00,
          -2.6053325883776596e-01, 1.3693179711791237e-01,
          1.7869041285244616e+00, 1.4503896633925328e-01,
          -6.3425135133485071e-03, -2.0927149105103451e-01,
          -7.1145224523494721e-01, 1.6334387602896008e-01,
          5.9403473858748901e-01, -1.1899971806689102e-01,
          1.5156085832220628e-01, 1.0888082239834247e+00,
          1.1616247496900635e-01, 3.0280700958729750e-01,
          9.4754964769635727e-02, -3.4107461050829610e-02,
          -1.0314859550416546e-01, -7.2664866067296691e-02,
          -1.4912704444446412e-01, -2.8950437618569751e+00,
          3.7043106411778902e-02, 5.7605872607593667e-01,
          -3.7367903761327070e-01, 8.2750232012165678e-02,
          -2.3374269001466561e-01, 1.3636937232677335e-01,
          2.5540941321607287e-02, 1.0653607970206209e-01,
          1.6340571714158733e-01, 1.2793367401320372e+00,
          -1.8400664846739828e-01, 6.0059002365531133e-02,
          1.6483668536669844e+00, 1.4237232010112337e-02,
          5.0240715396256175e-01, -1.3148425594775187e-01,
          -1.0848817644198641e+00, -8.8337514400445946e-02,
          4.2245064477585076e-01, -1.3393879696454544e-01,
          -1.9299003723870398e+00, 1.3951822228695367e+00,
          9.8906524997185788e-02, 8.4659309727070442e-01,
          -1.4166127907035761e-01, 5.9188990385680684e-01,
          -1.1231163554676200e-01, -2.4362887852506476e-01,
          -1.5611102703421345e-01, -4.2244491158050108e+00,
          -1.4388796883162550e-01, 1.3507513345155273e+00,
          1.5310212806664475e-01, -1.3006045344990336e-01,
          5.3496334658574995e-01, 9.7565965563469831e-02,
          1.4136153301331397e-01, 1.2203755819245804e-01,
          2.9459851259266712e-01, 2.3579124800657882e+00,
          -2.6420738289544599e-01, -1.9939113584057319e-01,
          2.8627204315263772e+00, -1.3488394127749430e-03,
          1.8368784795224505e-01, -1.9513219851808952e-01,
          -2.7180794810457060e-01, 1.8820634063787656e-01,
          -9.2149823493045324e-01, -1.7192171161313394e-01,
          -1.5439130525078618e-01, 2.1594676488292421e+00,
          4.7265903964064153e-02, 6.0027243000684730e-04,
          8.5487821189092636e-02, 1.1821658333927327e+00,
          6.6891421611002436e-02, -9.8399583782675062e-02,
          -3.5527241700213784e-02, -3.6056913373331270e+00,
          4.4829509786277234e-02, 2.5773939192477440e+00,
          -1.5279294260167539e-01, 6.1553805901521187e-02,
          -3.4338866654978450e-01, 1.7054718636939085e-02,
          -2.9993408035885225e-02, 6.3662589493266419e-02,
          -1.5997920019911149e-01, 2.4743430150952173e+00,
          -3.1826065765900392e-02, -1.7976549563617028e-01,
          2.3912954958908719e+00, 2.8354845569851430e-02,
          8.5490743822796778e-01, 4.0780980269737163e-03,
          -5.3234738049317654e-01, -2.8677984241765986e-01,
          -8.9338278479963307e-01, -2.9878770341401430e-02,
          -1.1962788628491885e+00, 1.9301604869723286e+00,
          -1.3133323056186263e-02, -2.3082869369102688e-01,
          5.5496137069783139e-02, -6.7401606251435475e-01,
          1.2014811981699184e-02, -6.9055079261664085e-02,
          -1.4491536454292850e-01, -7.0305059264015188e+00,
          3.1951333579347568e-02, 3.5221404123044810e+00,
          -5.2390337800422004e-01, 2.0325128222631086e-01,
          -1.3716463950432792e-01, 1.0963212942118042e-01,
          9.2084247183503012e-02, 7.8818847139237990e-03,
          -1.7499082381100325e-01, 8.2783944692122147e-01,
          -4.2918015323173291e-02, 3.3810797382922703e-01,
          4.2750634079842715e+00, 7.9426213790040265e-02,
          5.3472662233385371e-01, -1.1559560569443414e-01,
          -2.7847418508476030e+00, -2.3638933161876940e-01,
          -5.4615862028962903e-01, -6.3767171157033703e-02,
          2.6920187575254091e+00, -2.2119007914756348e+00,
          2.2528668596566093e-02, 1.0389491245144520e+00,
          -1.6783684408051283e-01, -1.7089121700424101e+00,
          2.6056156035553241e-01, 1.4491223476952245e-01,
          1.4096256916206309e-01, 1.3907157008568878e+00,
          2.3087304496333572e-01, 2.9259508905810012e+00,
          -7.1192504836443260e-01, -3.8509690045027267e-01,
          7.4837240223766743e-01, -8.6569210120189727e-02,
          -2.7270351223391446e-02, -1.1449034272279038e-02,
          1.2339888947845311e-01, 1.0035714803004256e+00,
          -1.2226708088386171e-02, -5.3247169140780959e-01,
          -1.8618770747873730e+00, -1.8877649150653746e-02,
          -7.0313907654378871e-01, 5.9245267422253681e-02,
          -8.6496879901814494e-01, 3.5516157468368870e-01,
          3.8338932450818817e+00, 3.8219030452082900e-02,
          6.0436227816816090e-01, -3.2956211351655185e-01,
          9.3820353236282981e-03, 2.0990766800617868e-02,
          -1.4526426742165427e-01, -8.2399255717121023e-01,
          4.6884796635738100e-02, -9.1012344240062090e-02,
          -1.4291713598825886e-01, 5.1330347352516970e-01,
          -3.8661319345571342e-02, 1.1747415162338795e+00,
          -1.9970305489174825e-01, 1.1204619623748213e-01,
          2.8191695398768307e-01, 3.0541937223564127e-02,
          7.5247430267491672e-02, 3.8959129936037097e-04,
          -8.2954259746975276e-02, -5.2055758874609759e-01,
          -5.2492935094447718e-02, 1.8749749015919193e-01,
          -1.6747456230001553e-01, 3.5834003475199286e-02,
          -2.5405676230908086e-01, -9.7434110596020015e-02,
          -4.3036531147303869e-01, 1.6322671761521351e-01,
          5.2857125990302423e-01, -1.4081924995434120e-01,
          1.1718248042093726e+00, -2.9134854046950392e-01,
          -1.2970572229187169e-01, -8.1069373634004405e-02,
          -5.9815807749383124e-02, -9.1848637230647190e-01,
          8.7133609772825346e-02, -9.5337877948410865e-02,
          -8.2599239875284072e-02, 2.5828114862150209e-01,
          1.0544934151499319e-01, 6.0856030190061372e-01,
          -4.2713909834006858e-01, -2.3202539015719951e-02,
          1.4742404240956417e-01, 3.8052101029100297e-03,
          1.0561958239213635e-01, 1.7393099276907049e-03,
          -3.6419464725010109e-01, 4.1105576492813684e-01,
          -1.2618672188400215e-01, 5.7679346159464483e-02,
          -3.7591323116081055e-01, -2.4650676788633374e-02,
          -1.1268648900455154e-02, -7.0874859947632693e-02,
          -6.7520083646526707e-01, 1.9858034925390336e-01,
          4.9762086236117670e-01, -5.3917456468426640e-02,
          1.1649559057260937e-01, -9.9366002085567950e-01,
          -4.7035831219766656e-02, -1.5473361908191166e-01,
          -1.0231131419605068e-01, -8.5305401948757920e-01,
          -8.3737576950038112e-02, -7.8876036968136484e-02,
          -1.3993710209647925e-01, 3.6010081921640524e+00,
          -5.4603661677597955e-02, 3.7568232984564518e+00,
          1.0786743185661160e-01, 3.6186478582586973e-02,
          5.4675618615657373e-01, 1.3701428104276922e-01,
          2.1041941145697454e-01, 7.8121495499146390e-02,
          -3.7474116119653567e-01, -2.8085333381427408e-01,
          -9.8454378657729255e-02, 1.7604329457849160e-02,
          -3.5035773682442923e+00, 5.3655844814254880e-02,
          -3.9111655550851471e-01, -2.0892039106956084e-01,
          -8.4135453897018264e-01, 1.6850745567795425e-01,
          1.7220760040034364e+00, -5.5165195156486838e-02,
          2.4838226344184653e+00, -7.7038787733573577e-01,
          -1.3054991704883287e-01, 5.4208824723769372e-03,
          -7.1738432973979319e-02, -1.7037325480451653e+00,
          2.8985159540509070e-01, 6.1433132732300749e-02,
          5.5891774613707444e-02, 2.2355994991359336e+00,
          1.0897168429337263e-01, -5.8028767461893349e-01,
          -3.6931054271115676e-01, 1.0250895644770545e-01,
          -1.6727028751957429e-01, -3.2284879528591180e-02,
          5.0946388293108269e-02, 2.8860104143316342e-02,
          -4.9611960838559571e-01, 7.1063781646074431e-01,
          -1.2221490324621029e-01, 1.7218797072330022e-01,
          -2.3077043042524346e+00, -4.8077594257519000e-02,
          -3.5758059178570187e-03, 6.2680231293376432e-03,
          -3.6916059398951584e-01, 1.3849449311942444e-01,
          1.3649306169525832e+00, 6.6781436474846342e-02,
          3.1340358218497704e+00, -2.1529156601519088e+00,
          5.0395227367485348e-02, 4.0426988830910626e-01,
          -3.4442111570289025e-01, -2.5960614880408156e-01,
          -2.3978990489410992e-01, -1.0486742260291346e-01,
          -1.1982066820646961e-01, 5.0730834069595279e+00,
          -1.6881449336200072e-01, -6.0343434665114937e-01,
          4.8291560392340743e-01, -6.4079534404170163e-02,
          4.6557398094000035e-01, 1.8286750213792763e-01,
          2.4181598275582963e-01, 5.0112565933220658e-02,
          1.9114958655308914e-01, 1.7868415073626356e-01,
          -1.7719579980535241e-01, 1.5730295574490044e-01,
          -3.5494660561307021e+00, 4.8183996338210966e-02,
          -7.7397985080613751e-01, -2.4323654715206591e-01,
          2.7889293395383370e+00, 3.8589660773455531e-01,
          6.3278184700107196e-02, -6.3860950400584260e-02,
          2.7493421490007321e+00, -1.7068843332955146e+00,
          8.8730276731774124e-02, 1.3558975602192993e+00,
          -4.1178442057389664e-01, 3.9979778706195790e-01,
          -2.2257144859922653e-01, -1.5842115370780888e-01,
          -1.4372099938085200e-01, 3.0530117206842942e+00,
          -1.7533084344287994e-01, -1.3765396003929802e+00,
          4.4945151210034057e-01, -3.7534340132688256e-02,
          6.0915620885517630e-01, 1.0318084743914210e-01,
          2.6525548901350204e-01, 3.1451134070590865e-02,
          4.9544279394067825e-01, 9.4728838579616070e-01,
          -8.0703984879379340e-02, 2.1436441991192218e-01,
          -2.9022891877365514e-01, 5.7751847381252816e-02,
          -7.2201438370826365e-01, -3.0523796260369268e-01,
          3.0732965365446852e+00, 4.0288363616200989e-01,
          -1.5418494581284818e+00, -1.5456660366217032e-01,
          2.8518739934614690e+00, -8.9228208918887064e-01,
          9.0709534113791207e-02, 8.1292364826230512e-01,
          -3.6676111387014232e-01, 7.7637218999640267e-01,
          -3.6475320730382144e-01, -1.9485190479264011e-01,
          -1.9291305016570723e-01, 2.4525632249597891e+00,
          -2.0199319726071233e-01, -2.2965584988719696e+00,
          7.5428793064810151e-01, -2.5112999076025244e-01,
          7.6069919201614911e-01, 1.2556319281591460e-01,
          2.6089278756909196e-01, 1.7721144998089591e-01,
          4.7487618727467945e-01, 1.7854818366523326e+00,
          -2.9618836855352565e-01, -2.1335658473688213e-01,
          -1.0593117500921865e+00, 9.1950875079421610e-02,
          -6.5375282434495685e-01, -2.1008571656515757e-01,
          3.3450393007079198e+00, 4.8963729457031746e-01,
          -8.3894113305625151e-01, -1.2481129004297789e-01,
          8.0455883630893887e-01, -1.2248903687904997e+00,
          2.9449256975487746e-02, 1.0901438745412724e+00,
          -1.1995862666403616e-01, -6.6316465494967081e-01,
          -1.9318248069517974e-01, -6.7113006185255064e-02,
          -1.7434030412266424e-01, 1.1349476114438410e+00,
          -9.6793199241052869e-02, -1.3231149538986908e+00,
          1.0048260674488638e-01, 1.2327001925353599e-01,
          -7.1805060133465021e-02, 1.0860667398610731e-01,
          1.4765883328273993e-01, 7.8699152559108865e-02,
          3.7989329181637771e-01, 6.6028131004876900e-01,
          -2.7975963813610281e-03, 2.9066470171562347e-01,
          -4.2564932592405991e-01, 5.6795832570460857e-02,
          -2.6773447578267742e-02, -3.7920684921730965e-02,
          8.2409975747219244e-01, 6.5319022421632844e-02,
          6.5541635053065384e-01, -1.2314921010797664e-01,
          1.0926148736041825e+00, -3.8777164613411248e-02,
          6.2107477591437373e-02, 3.9400657676565770e-01,
          -2.7066502720419200e-01, 1.1343534499527890e+00,
          -2.7020645461175524e-01, -1.2054947853253901e-01,
          -2.3390340176782423e-01, -4.3605353721408657e-01,
          -1.1671627579687992e-01, -2.5165819329531253e-01,
          3.9169352708787558e-01, -3.7015403279784054e-01,
          6.4880118414208132e-01, 6.0891621641389497e-02,
          2.4732335318186138e-01, 4.9576887565280642e-02,
          4.1267508607215053e-01, 3.0574441594540014e+00,
          -3.0913823797949030e-01, -3.0590799840112870e-01,
          -1.1850888491654325e-01, 2.4909049135102494e-02,
          -4.0057861927310423e-01, -2.3163800761571868e-01,
          1.0584603409414570e+00, 5.2594622496658583e-01,
          3.1825423328896324e-01, -1.9356616550334452e-01,
          1.2002638684253686e+00, -1.3315393259494963e+00,
          -8.9378584520167555e-03, 5.8201770670516129e-01,
          -4.3716996600869684e-01, -3.9712920897121660e-02,
          -1.9347842541539786e-01, -1.4046613946771658e-01,
          -1.8270313308925906e-01, 2.5073742586883752e+00,
          -1.8408950392465182e-01, -9.1369585589340563e-01,
          3.0932074020492140e-01, -3.3150783772128774e-02,
          7.9496347882547402e-01, 9.6528269250077972e-02,
          2.2774269686254822e-01, 1.4248631165572898e-01,
          3.5778880454462753e-01, 8.6721507238245388e-01,
          -2.5301173261330323e-01, 4.4394457511603515e-02,
          -1.6936304361800207e+00, 1.2274406937015120e-01,
          -7.0432547184559458e-01, -2.7636268014471221e-01,
          2.0398369971964132e+00, 4.4320793120861107e-01,
          -1.1905409375210096e+00, -1.0275687140834083e-01,
          5.5305116426740399e+00, -3.8975758123026818e+00,
          -3.3703744140537333e-02, -1.1467789679449156e+00,
          -5.7319681664770299e-02, -9.6317118093090492e-01,
          -7.8243221440755406e-02, -8.0455272878032762e-03,
          -2.5441999508289959e-02, 5.0841158877264041e+00,
          -7.6569577302469258e-02, -3.0106091629847703e-01,
          2.4868217561630829e-01, -1.3414963944600358e-01,
          -1.6333709725767173e-01, 9.4720762754275708e-03,
          6.7090043956187879e-03, -2.0061355325999480e-02,
          -2.6269135934853460e-01, -9.1775935486107985e-01,
          1.1540031260748826e-02, -6.6446693101361545e-02,
          -3.9348500707738832e+00, 8.4655585378750273e-03,
          -3.8313448519123022e-01, -2.2298359858938115e-02,
          2.9389971353561226e-02, 7.6572258686347872e-02,
          5.0825253759333240e+00, 2.3561320637903636e-02 ]
      - [ 5.5608219748993448e-01, 1.6439716975043921e+00,
          -2.8470835948171835e-01, -6.5376567644237871e-01,
          5.6993011300304053e-01, -1.2201791073398855e+00,
          -3.5998806990712595e-01, 1.2545706862064346e-01,
          2.2634052383036354e-01, 1.4220001673860772e+00,
          -2.4220317033135746e-01, -1.3785300894454102e+00,
          -7.8945094670002869e-01, 9.3311311434687627e-01,
          1.0067953417223041e+00, 1.8216405070711400e-01,
          3.9690494240927005e-01, 2.5792651636395320e-01,
          -6.8180686169756355e-01, 1.2122364491306232e+00,
          4.6946198897026209e-01, 8.8483925538477215e-01,
          -1.7838372655911632e+00, 1.2123756501075676e-01,
          9.1685739328697768e-01, 4.0044024708045917e-01,
          -1.2120895239291143e+00, 7.4273657618816891e-01,
          -2.2595260743294991e+00, 1.7529784956066588e-01,
          5.5456941485711519e-01 ]
