%YAML:1.0
my_nn: !!opencv-ml-ann-mlp
   layer_sizes: !!opencv-matrix
      rows: 1
      cols: 3
      dt: i
      data: [ 24, 30, 1 ]
   activation_function: GAUSSIAN
   f_param1: 5.9999999999999998e-01
   f_param2: 1.
   min_val: 5.0000000000000003e-02
   max_val: 1.
   min_val1: 2.0000000000000000e-02
   max_val1: 1.
   training_params:
      train_method: BACKPROP
      dw_scale: 1.0000000000000001e-01
      moment_scale: 1.0000000000000001e-01
      term_criteria: { epsilon:1.0000000116860974e-07, iterations:500 }
   input_scale: [ 1., 0., 1., 0., 1., 0., 1., 0., 1., 0., 1., 0., 1., 0.,
       1., 0., 1., 0., 1., 0., 1., 0., 1., 0., 1., 0., 1., 0., 1., 0.,
       1., 0., 1., 0., 1., 0., 1., 0., 1., 0., 1., 0., 1., 0., 1., 0.,
       1., 0. ]
   output_scale: [ 2.1052631578947367e+00, -1.1052631578947367e+00 ]
   inv_output_scale: [ 4.7499999999999998e-01, 5.2500000000000002e-01 ]
   weights:
      - [ -2.0790441909828647e+00, -1.4404009094416768e+00,
          1.5517789803856129e+01, -8.0805317928288858e+00,
          2.1798691689236609e+00, -3.3612072304289788e-02,
          1.2768077931296762e+00, -3.9515276298383673e-01,
          -9.2788517784582663e+00, 8.1002193693960951e+00,
          1.6074131317455401e-01, 2.8624005297815169e-01,
          1.8897761438853555e+00, -3.3460329456605784e+00,
          -1.2953471627730098e+00, -4.5953767281430808e+00,
          1.0816773397770623e+01, -4.1237130894724388e+00,
          4.7074101086748117e+00, 3.8851533397553117e-01,
          2.1967564344167433e-02, -4.1092340267470338e+00,
          3.8069928516814927e-01, -9.4533071008755787e+00,
          5.8889727717204314e+00, 2.3399301634898464e-01,
          1.4609754658759122e-01, 3.3941617251466266e-01,
          -2.9816384808794949e-01, 1.0587702256512987e+00,
          -1.1268482759407506e+01, -3.5657671968947768e-01,
          -2.9767761699907473e+00, 3.8780938644909297e+00,
          -1.3693105581208367e+00, 1.9921534793810708e-01,
          1.4874293464057038e+00, -1.2485130431376787e+00,
          -2.2717197045397417e+00, 2.9514444245850338e+00,
          3.0829234218772389e-01, 1.0265270583285793e+00,
          4.9640849665571102e-01, 2.2708870808854007e+00,
          -8.5206590084887668e-01, 7.9419330967371078e+00,
          5.5717227911402922e-01, -5.6480634285035141e+00,
          -1.0840379473617527e+00, 7.1639484046731583e-01,
          6.2622459831087718e-02, -6.8681778100614448e+00,
          -1.6580607295295913e-01, 2.2195974307018047e+00,
          3.4657664844392935e+00, -1.3516828499381348e-01,
          2.9302691301410888e-01, 6.7359108403770518e-01,
          -2.6810623455924459e-01, 9.3294882818134162e-01,
          -3.5875882000604559e-01, 1.3213961001688039e+00,
          -6.3160581065792396e+00, 3.6107308192980292e+00,
          6.0057973130804756e+00, 2.9215654064363491e-02,
          5.5118765273636039e-01, -1.1754911593790380e+00,
          5.3556312915035447e+00, -2.1767292488353900e+00,
          3.9486850742419971e-01, 5.0743325093392910e-01,
          -5.4239092288597079e-01, -9.7305517394245022e-01,
          -7.1213503522822155e+00, -4.0753835864563170e-01,
          -9.7857664478375939e-01, -5.8532891974410006e-01,
          1.6497757208485664e+00, 1.3895475024060864e+00,
          1.7066888418321585e-02, 3.0298077379481439e-02,
          9.4150338311230389e-02, 3.4631610774940920e+00,
          -9.8109688151270102e+00, 4.4007785757563012e-01,
          4.6149699023224683e-01, 1.5523822314020101e+00,
          -2.3794831719498455e-01, -3.8721206469082547e+00,
          1.0618780079333190e+01, -2.4417317752571382e-01,
          1.3299532812852333e+00, -4.7584055394709823e+00,
          3.2006274925704465e+00, -9.5281910929703492e-02,
          -9.4649796654374008e-01, 3.3125326377648547e+00,
          -3.2993176375419973e+00, -3.3755343657660428e+00,
          -1.5866532827164642e-02, 1.5517778273522518e+00,
          -3.1290317255357608e-01, 2.7886180365296376e+00,
          1.3697791456191730e+00, 3.8560586584055963e+00,
          -3.0796989998378006e+00, -2.5494367012411359e+00,
          -2.5277902447718472e+00, 1.9825260754709553e+00,
          3.9075708895190367e-02, 1.8666531014039738e+00,
          8.1694647728962688e-01, -3.8101274144665047e+00,
          3.0661148371856237e+00, 5.9806452296476342e-01,
          -1.5453947563931500e-01, 5.0279405032747404e-01,
          2.2792617484915297e-02, 1.9936959823545735e+00,
          1.0893117793271854e+01, -8.4670967373208020e-02,
          5.3650143433400226e+00, -1.3544947908459286e+00,
          2.0989017262432630e+00, 5.8004279311024221e-03,
          -9.8871870860624989e-01, 3.1572224726291509e+00,
          -3.3988171274430949e+00, 1.9625718424333827e+00,
          1.4449950894155839e-01, 9.2277064415946231e-01,
          6.4583900753903534e-01, -5.0634749489810860e+00,
          5.0334797622594074e+00, -1.8177214224548839e+00,
          2.1376401575719797e+00, -3.6021130768376519e+00,
          -2.0191604443888989e+00, 1.4340496752050287e+00,
          5.1865278256320348e-03, 4.8175375401969598e+00,
          2.8641261885951907e-01, -2.5867885688086050e+00,
          1.1701194099381758e+00, -2.5309754252941657e-01,
          1.2587472776796964e-02, -2.7905757984452756e-01,
          -8.0744556022243716e-02, 2.1257717446132340e+00,
          1.1146524957089600e+01, -1.2335749148878112e+00,
          4.0973501449302301e+00, -8.3914237066175379e-01,
          -1.9027817351014669e+00, -1.1123397146326544e-01,
          -1.5435473914402684e+00, -5.1822940648290619e+00,
          -2.8955053800905244e+00, -7.1074842090914858e-01,
          2.5867566824780469e-01, 1.1289832777008919e+00,
          7.2633868514200195e-01, -1.0270445714884998e+01,
          -3.4953518414410611e+00, -4.5622290958949856e+00,
          -1.1955283998490647e+00, -1.9241740532062086e+00,
          6.2297648949766851e+00, -4.2815253493502370e+00,
          5.9603422507395996e-02, -1.1129253441758198e+00,
          3.1174487370678206e-01, -3.6933652307028897e+00,
          6.9214680052971751e+00, -1.6939310409983099e-01,
          1.1856426981781128e-01, 8.0300250712847143e-01,
          2.0617995761066804e-01, -1.8987122946016206e+00,
          8.0469889813860018e-01, -2.1794985458118568e-01,
          3.0056571123445490e+00, -3.3886546363731052e+00,
          -4.7331504051589155e+00, 4.9784206060197303e-02,
          -1.7990367130050404e+00, 2.7315121999194667e+00,
          -3.2687486912198116e+00, 6.2238892892655082e+00,
          -8.4162795190786330e-03, 4.7143257623406548e-01,
          9.9819020176547084e-03, -6.2080625385692949e+00,
          3.2274157874418670e+00, -3.4386988025142853e+00,
          2.8645727980154141e+00, -1.0659258494692569e+00,
          -2.4014611708723499e+00, -5.7735536614575933e-01,
          5.3164607605035784e-04, 1.6729551381925325e+00,
          -1.9696387231406526e-01, -1.7946335216143821e+00,
          -1.5561226648296758e+00, 4.4941012532327650e-02,
          9.6488913018786919e-03, -5.5028863760735314e-01,
          -6.2156893261461156e-02, -1.5861624500235991e+00,
          3.5731174837545021e+00, 8.7520609498136637e-01,
          5.1162160752623418e+00, -1.5351380973859550e+00,
          1.4829871514949236e+00, -9.4710388374738663e-02,
          4.2009421679069989e+00, 2.1758738112552187e-01,
          4.8439040281049628e-01, -2.6715616033138203e+00,
          2.5125817515574139e-01, -3.3683960648145228e-01,
          -1.2557971958282816e+00, -5.1408136607536177e+00,
          2.0595331931619900e+00, -4.8800966034240503e+00,
          -4.8395055503373996e-01, 2.2840919459583861e-01,
          -5.6045057861295504e+00, -7.1545369460752473e-01,
          6.8438885212501119e-02, 7.6667916963558191e-01,
          -9.5797284939839050e-02, 3.4780842361781605e-01,
          -1.1706426448935467e+00, 5.9551650577634918e-01,
          2.0370169181500294e-01, -3.5380368730603506e-01,
          -3.9883013388124694e-02, 4.8035212658540899e-01,
          6.3846291333636414e+00, 1.5670384670666140e+00,
          2.1470107121166890e+00, 1.7417999004946565e+00,
          3.0958768214043726e+00, -1.9574235948238300e-01,
          -7.6464009026300517e-01, 9.2885479157193596e-01,
          -2.0530717121139852e+00, -6.8376969340291457e-02,
          -8.2026112734511256e-02, 9.9311745961572231e-02,
          1.3843221796155178e+00, 7.5558138391286445e-01,
          -4.4041133679707434e+00, -1.4228291708936185e+00,
          -1.4911494861311945e+00, 6.9376652286816609e-01,
          4.6912667852397885e+00, -2.3000055281255354e+00,
          -2.4559858026981830e-02, 3.2567611237114797e+00,
          -1.0090215366550170e+00, 8.8563331461714134e-01,
          -5.7522998467709774e-01, 2.1599959265566737e-01,
          -1.4832565418639693e-01, -4.0311590111927709e-01,
          2.0167753438855968e-01, 1.8045103348470726e+00,
          4.0483141559258931e+00, -1.0548853028021929e+00,
          -1.3229460623927274e+00, 1.0492166647807801e+00,
          4.5719837140588726e-01, 8.5768160828434512e-02,
          4.8114240213755481e+00, -8.1893175430233189e-01,
          1.0290114078662163e+00, 3.0084384963204389e+00,
          -2.1344455037975574e-01, 5.3728780145025923e-01,
          1.7544269333910154e-01, 4.3989194709773658e+00,
          -3.7016019191764484e+00, 9.9832075615007210e-01,
          -1.3708671601719364e+00, -8.4195223645789963e-01,
          -3.2116314786108306e+00, 3.9233178383486078e+00,
          -3.0382084292547129e-02, -1.9673265246770280e+00,
          -8.8298558536334559e-01, -4.8722472733937949e-01,
          -1.8482311597879306e+00, -7.7164618259972573e-01,
          -3.1683660535081265e-01, -4.0745199137109789e-01,
          -3.4479565158953202e-01, 1.2945882113019938e+00,
          1.7513601710316820e+01, -1.8179444221689023e+00,
          -3.4921535072057472e+00, -2.9434790156041579e+00,
          9.6891117235498214e+00, -2.6938374377371893e-01,
          -1.0210927682220442e+01, -5.3192833991854975e+00,
          3.5334031856455175e+00, -2.4457588091989613e+00,
          -3.2659478581620544e-01, 7.5348991005980703e-01,
          8.4718082414352924e-01, -1.6586774881664419e+00,
          6.7782263639761346e+00, 1.5445983229585103e+00,
          -5.2791651548041738e+00, -9.1237657576260622e-01,
          -6.7848864088148284e+00, 5.0573533837488380e+00,
          -1.1135154715926783e-01, -8.2896563819067082e-01,
          -1.1259765630248394e-01, 2.6350644600817987e+00,
          1.9837968940891639e+00, 1.9055963402234954e-01,
          -3.0919388646651463e-01, 2.7125344973292415e-01,
          1.4285353975738233e-01, 3.8820977683996212e+00,
          6.7922073968861891e+00, -1.6937960503863583e+00,
          2.2325450295460243e+00, 7.6130428760406721e-01,
          -2.0227919538516517e+00, 3.3506424600511155e-02,
          -4.4260412899012520e+00, 6.4700487139504537e+00,
          -5.7320942615823781e-02, 5.7607495841410463e+00,
          -1.5055499215900642e-01, 3.7666461494299317e+00,
          -2.0595203623463401e+00, -1.3517681754001245e+01,
          -1.1510298628806048e+00, -1.7037828308824265e+00,
          -4.1119303942771577e+00, 9.6177219733400854e-01,
          -5.0390811403178919e+00, 7.4164434385099813e+00,
          -7.5019187969421865e-03, -3.1300923900789259e+00,
          4.0677285658471468e-01, 1.8984530942225448e+00,
          1.0077336912789830e-01, 1.1811093136819335e+00,
          -1.4994247969102065e-01, 1.3713632766260782e+00,
          5.1408961905595030e-01, -1.1879866276779318e+00,
          3.4709843204521915e+00, 1.3668337784384448e+00,
          3.1116806556271297e+00, -2.4202153419212333e+00,
          -1.4901471938934854e+00, -2.4110026465703505e-01,
          -7.5700734195361874e-01, 6.3454799665099451e+00,
          2.1739462005406293e-01, 1.5768051297181918e+00,
          -5.3639923148035484e-01, -5.0895744748614486e+00,
          -1.2145697838648375e+00, -5.7496240597076334e+00,
          4.0911947709967383e-01, 2.5141843317523489e+00,
          5.6440644421585384e+00, -7.4714395287795599e-01,
          1.8329201605072267e+00, 8.6291523250291602e-01,
          -1.3982772351773848e-01, -8.4813991871642913e-01,
          3.7568490839269214e-01, -3.7881239531531952e+00,
          -1.2361778003109041e+00, -3.9804919401861333e-01,
          -2.6313791309067847e-01, -1.3605918565512476e+00,
          -2.8113057309731956e-02, -3.6841872374611428e+00,
          6.3726956672567481e-01, -2.2573348733497633e+00,
          2.9159052271652328e+00, -4.8804770594291691e+00,
          -2.3231359472161803e+00, -3.1657358558415616e-01,
          5.5937227201921411e+00, 2.4318550527243782e-01,
          -1.4743998064232402e+00, 5.3633391487531430e+00,
          2.9305514744590028e-01, 5.8267353811485014e+00,
          -2.5025324466081331e+00, -4.4041359535395852e+00,
          -1.8751356755344100e+00, -2.0969792712915272e+00,
          6.3455272221501202e+00, -2.9877029068542114e+00,
          -5.3688607837455598e+00, -8.7341791583216928e+00,
          8.8025959999271389e-02, 1.8342631556130064e-02,
          -1.0396298417392087e+00, -3.6657402285105989e+00,
          9.8851042379349821e+00, 2.4318041486514450e+00,
          1.8377594742887826e-01, 2.7663100946217791e+00,
          6.4295644211215641e-01, 5.5191108466183643e+00,
          7.1514964294674508e+00, 3.7373842033999842e-02,
          -8.6091234208278600e+00, 3.9618140570287390e+00,
          7.8021003204447137e-01, 2.7922584506384995e-01,
          -2.1738229828374864e+00, -1.1765984981441120e+00,
          4.8983830693126640e+00, -3.3498808655816474e+00,
          4.6160136757236642e-01, -2.8757951109896074e+00,
          4.7044698429835812e+00, 1.7085078114053660e+00,
          1.4406550680844890e+00, 7.2043037219390698e+00,
          -9.0729970124802595e-01, 2.8750065911215650e+00,
          5.9856845757193735e+00, -4.0629634035113043e+00,
          5.3266986568910712e-02, -1.2902771373724356e-01,
          -5.8887680914353577e-02, 1.7205407329797295e+00,
          1.2415935010598844e-01, -8.5711141815360681e-01,
          5.2343276848237941e-01, 5.3294379825540872e-01,
          -5.5409531975160931e-01, 3.6722180106582218e+00,
          7.0890227142798548e+00, 9.3608812361753679e-01,
          -1.1046864154936753e+01, 7.4259256342350071e+00,
          -3.3183133942880523e+00, 2.6124457494444797e-01,
          -2.8231925147081407e+00, -1.8559102214131123e-01,
          -3.2313916796752945e-01, -4.3293423809944702e+00,
          5.5251150100715476e-02, -3.2806776039390018e+00,
          5.3321847677454839e+00, 2.6945814323596462e+00,
          -9.2877461281464520e+00, 5.1613387636314805e+00,
          -2.5548671562711394e+00, 3.4592942399638678e+00,
          -1.0807564915084389e+00, 3.8499795586720520e+00,
          -9.5811293673558184e-03, -4.0195699945819783e+00,
          8.5276779528946700e-01, 6.8282562775628435e+00,
          -2.8545427779442214e+00, -8.9030425506479816e-01,
          1.3559137167652158e-01, -1.4980266362940551e+00,
          -4.5959428258379442e-01, -1.0057188156453842e+00,
          9.9085411603117848e+00, -5.5726631230935675e-01,
          -2.8974900093354448e+00, 4.2278605910432994e+00,
          8.1675179268282943e+00, 1.5072473095094574e-01,
          -4.5697662113695019e+00, -7.4411543323457154e+00,
          8.9003766600628893e+00, -4.7753871309468403e+00,
          9.2935690675023397e-01, -1.2715908702673600e+00,
          3.9828801405940464e+00, 1.9605178910358572e+00,
          8.8706540180010158e+00, 3.0840543924724897e+00,
          9.1853205317371978e-01, -2.4910143308409021e+00,
          5.7693839067314601e+00, -8.1925370074329029e-01,
          1.4391897085659389e-01, 4.3383438001947079e+00,
          -3.6446749199354748e-02, 7.6558857913227438e+00,
          3.9483516090383324e+00, -9.0737714910325185e-01,
          8.7721016543569574e-01, 2.1409455386753882e+00,
          -4.6172595014878032e-01, 2.8047767237652588e+00,
          8.5175199608102385e+00, 2.7900454432113242e-01,
          -1.6403792481326429e+00, 9.8257215668166449e+00,
          -1.6530254065312766e+00, 2.3796135483477185e-01,
          4.0807865103140424e+00, -9.9608789164005312e-02,
          2.3262647941995653e+00, -8.0092987825389572e-01,
          -8.5797988118482793e-01, -7.6982664930367262e-01,
          1.7139506812044097e-01, 6.6286893166448846e-01,
          -9.4713286748272498e+00, -1.0960155211217561e+01,
          -3.6409518088631501e+00, 4.7969767292510337e+00,
          3.2744714859899977e+00, 2.1827648770515653e+00,
          -1.3142340544616876e-01, -3.7535201387818313e+00,
          5.8222080759768646e-01, 2.3949472089613981e+00,
          -5.5210123083226810e+00, -1.6371706207353260e+00,
          -9.8447283903084459e-01, -3.0054349260511453e+00,
          5.8026552395479145e-02, 2.7052875263676248e+00,
          8.0667051859472174e+00, 1.1993262166338530e+00,
          -3.3792663177640119e+00, 2.5906095120707002e+00,
          -3.6118836877114280e+00, -4.3495880706914458e-02,
          5.0050855931259015e+00, 3.6325421342935615e+00,
          -4.3759495768289920e+00, -2.9405150722857241e-02,
          -3.6560772620989379e-01, -2.5716430360757827e+00,
          2.3899658823785752e+00, 3.6468354734033652e+00,
          -8.7011735273514546e-01, 8.5091494201986126e+00,
          2.1745532646520354e+00, 8.1448490861843936e+00,
          -7.2589497181204088e-01, 3.5911120926480562e+00,
          -3.7700489260381533e-02, -1.6750638992370512e+00,
          7.8981965034542512e-01, 2.4839209682967125e+00,
          -2.4016819327913241e+00, -4.0018806998706685e-01,
          -2.4004940079636525e-01, -1.0202670338631545e+00,
          4.3668923935586322e-02, 3.5792970081848972e+00,
          7.5158002188037267e+00, 1.3560123789598550e+00,
          -3.1789624455896415e-01, 1.7775471123070790e+00,
          6.8346353212956079e-01, -2.7735877094308048e-01,
          -7.6694914762314363e+00, -1.1286357355024017e+00,
          2.0258465096696172e+00, 2.9848454453170703e+00,
          -3.2845184487016410e-01, -3.6460512140329850e+00,
          1.9872183954287150e+00, 2.7492916906629833e-01,
          1.0905105748432149e+00, 2.8530439833785581e+00,
          -2.8026690179072706e+00, 2.1373791321361590e+00,
          5.4087605724943479e+00, -3.5339430133838130e+00,
          -2.2875576265670595e-02, 6.7133228450630158e+00,
          -2.3421037595317548e-01, 1.6570527253015253e+00,
          -1.8336544623495630e+00, -3.9135867148191944e-01,
          -2.9929610341860929e-01, 1.9978214591318155e-01,
          1.8910156000393619e-01, 1.7183432099356066e+00,
          1.0702194588957282e+01, 1.4892455875001036e+00,
          6.1102995484526956e-01, 5.7130078302273934e-01,
          2.4406926205793926e+00, 3.0377579125663390e-01,
          -4.0652371250510670e+00, 4.2596807628340044e-01,
          2.6980367395123941e+00, -5.0617063273013851e-01,
          2.1036706868539148e-01, 4.2556256980402205e+00,
          3.2167312061870851e-01, 5.4891726626750081e-01,
          2.5215209979901765e+00, 4.9775113427458710e-02,
          3.6172972822515757e+00, -1.4914952652657203e+00,
          1.4995878851400550e+00, -6.5389428972093278e-01,
          1.8319858084904026e-02, 4.7625859490529254e-01,
          -2.6500031699291343e-01, 2.1157756335319085e+00,
          -7.7999049600904946e-01, -2.0964503827845857e-02,
          3.1937958321153002e-02, -1.9738512531567540e-02,
          -7.3021021153051355e-02, 2.9270554629894265e+00,
          7.7013422077003648e+00, 2.0540703597882586e+00,
          6.2552850789541461e+00, -1.8400831229589165e-01,
          -5.0169163348055257e-01, 1.4289345544098261e-01,
          7.1606237827747066e+00, -3.6037884404130662e+00,
          -3.1126773139176396e+00, 1.9079511526538189e+00,
          -3.8316087190829351e-01, 2.7011577881451023e+00,
          2.1280957417744131e+00, 4.1157934829095568e+00,
          -6.1888374393454191e+00, -5.6200336189017284e+00,
          -1.7176854914648156e+00, 1.5915102759410169e+00,
          -2.0864545800666012e+00, -7.3222276575349299e-01,
          -3.4970153985967277e-02, 2.1855949183537007e+00,
          4.8931423796458468e-01, 1.0967127828350465e+00,
          2.0673750371581261e+00, -8.8479330606789075e-01,
          -5.5509044652445827e-01, -1.2571259915481219e+00,
          1.7779053987399288e-01, 2.9811556563115704e-01,
          1.4546228949108020e+01, 3.1882972031726867e-02,
          -8.7014659160576429e+00, -6.1067262283162860e-01,
          -1.9659004074144368e+00, 1.9714013943265915e-01,
          4.3178513688944298e+00, -2.5659400289818310e+00,
          -5.9864727669601947e-01, -1.2259144092218102e+00,
          5.9236133899082721e-01, -1.8113786375188337e+00,
          3.7431595164509317e+00, -5.6744247285555387e+00,
          -1.4249896882860775e+00, -8.7971194643373285e-01,
          3.2858412769238754e+00, -3.2950723430122983e+00,
          2.4298277072992627e+00, 1.6760560704554367e-01,
          1.6302362735063514e-01, -3.6731593833671718e+00,
          -2.9886010059369411e-01, 6.1593281842119030e+00,
          3.7967789505248266e+00, -3.3584172503830079e-01,
          7.0775733571029464e-01, 3.0107660019161928e+00,
          -5.4484857725562963e-01, -6.5498817874537183e+00,
          4.2699220473097563e+00, -1.1085596578985644e+00,
          1.3940585331509876e+00, 1.5215261984944721e+00,
          -9.1382321796820332e+00, -1.0831433142849189e-01,
          5.2805026608725241e+00, 2.7802243953001615e+00,
          -5.9451284781562155e+00, -1.7627709470018125e+00,
          3.9765877741363770e-01, 2.6855550063995124e+00,
          1.1333495165084730e+00, 1.7958050860961317e+00,
          -6.9152743878016985e+00, 5.0874434700680213e+00,
          4.1801128074769112e-01, -5.0640764093636177e+00,
          2.4243850975010919e-01, -5.4163323007613906e+00,
          2.6844758207478118e-02, -3.5945996916697891e+00,
          -1.5999086727435968e-01, -9.4623529722822411e-02,
          6.2311846471678844e+00, 3.2521727749446185e+00,
          7.6077578403794899e-01, -3.1945447105835367e-01,
          6.0027493149683075e-01, -3.1730418632416537e+00,
          4.2083780760158840e+00, 8.3091557430793550e-01,
          -7.8837984621452790e+00, 7.1348004355429726e+00,
          -2.3082353214448106e+00, -4.6244469051801740e-02,
          -7.4498575069860085e-01, -6.1282315561292422e-01,
          6.0782728277100277e+00, -6.7442556490945389e+00,
          -2.9724956339458830e-01, -1.6648335112469286e+00,
          2.5798276196146266e+00, 1.1113790756710527e+01,
          3.0179473793699243e+00, 1.4301345340311498e+00,
          -1.4549796243501367e+00, 4.3992437002227325e+00,
          -2.0999026216710570e+00, -4.2358582879438861e-01,
          -5.5213849465131609e-02, 2.9856834814699189e+00,
          -1.3165733130975693e-01, 4.0992015408027918e+00,
          -6.9016180292439868e+00, -2.7812545642749248e-01,
          -2.4936968662021144e-01, -1.1754560899202577e+00,
          2.1831917072329976e-01, -1.0478470731751921e+00 ]
      - [ -3.8723634998561468e-01, -1.2429727030058944e+00,
          1.1095274912062085e+00, -4.1459557153989843e+00,
          7.5853760798712666e-01, 6.0263655203487188e-01,
          -7.9770361643259091e-01, 6.1565384909806420e-01,
          8.3476765124678198e-01, -1.0903721061843894e+00,
          2.7591628396145468e-01, 7.7352413360594974e-01,
          6.8570698982613010e-01, 1.0187675639233453e+00,
          1.5653371796306657e+00, -1.3216422119214597e+00,
          2.0070172605214096e+00, 7.0102709857752454e-01,
          -8.3763411093676465e-01, -9.0776508439092074e-01,
          3.0016415868156937e-01, 1.0058918481808692e+00,
          -8.3269119460363894e-01, -3.0456771081479892e+00,
          -7.2207947317763288e-01, 5.2336036275466546e-01,
          2.7145435250421118e-01, -4.2686736134963521e-01,
          6.8300985345592879e-01, -1.3089231795439922e+00,
          -4.3685135142560333e-01 ]
