%YAML:1.0
my_nn: !!opencv-ml-ann-mlp
   layer_sizes: !!opencv-matrix
      rows: 1
      cols: 3
      dt: i
      data: [ 24, 30, 1 ]
   activation_function: GAUSSIAN
   f_param1: 5.9999999999999998e-01
   f_param2: 1.
   min_val: 5.0000000000000003e-02
   max_val: 1.
   min_val1: 2.0000000000000000e-02
   max_val1: 1.
   training_params:
      train_method: BACKPROP
      dw_scale: 1.0000000000000001e-01
      moment_scale: 1.0000000000000001e-01
      term_criteria: { epsilon:1.0000000116860974e-07, iterations:500 }
   input_scale: [ 1., 0., 1., 0., 1., 0., 1., 0., 1., 0., 1., 0., 1., 0.,
       1., 0., 1., 0., 1., 0., 1., 0., 1., 0., 1., 0., 1., 0., 1., 0.,
       1., 0., 1., 0., 1., 0., 1., 0., 1., 0., 1., 0., 1., 0., 1., 0.,
       1., 0. ]
   output_scale: [ 2.1052631578947367e+00, -1.1052631578947367e+00 ]
   inv_output_scale: [ 4.7499999999999998e-01, 5.2500000000000002e-01 ]
   weights:
      - [ 4.3763354383800790e+00, 1.6698646600264530e-01,
          5.8290798892035767e-01, -4.1853496174531442e+00,
          8.1081569795742436e-02, -2.0236830825319096e-01,
          7.8488889705590439e-02, -5.8047941833326490e-02,
          -5.6896544891356426e-01, 4.5101042838538115e-02,
          1.4194688806374050e+00, 1.5393086661375677e-01,
          -2.3839995629587170e-02, -4.5297585548298339e-02,
          -1.3248405908258762e-01, -4.2963035814257861e-01,
          4.9933309758556990e-02, -7.0807417541075016e-02,
          1.0567705029181018e-01, 4.1656899175789075e-01,
          -1.2521859940071136e+00, 3.1620517741984455e-01,
          6.2490223644223708e-01, 2.0641421401173869e+00,
          -1.7757064069576250e-01, 1.5374222072344890e+00,
          -9.6085282366905400e-01, 6.4988352456014559e-02,
          -3.9522883159226144e-03, 2.3664068483683103e+00,
          -6.4354901707221135e+00, -7.5555518114393871e-02,
          -2.8408962464483201e-01, 4.0477862789886538e+00,
          -1.3993868877628857e+00, -6.2371264776670168e-02,
          4.9626713257176727e-02, 8.7209949654633911e-02,
          3.4322379724486600e+00, -5.4833143434624344e-02,
          -5.7558937550206302e-01, 5.6736234899562699e-01,
          7.8571050267493229e-03, -2.2352360577554128e-02,
          1.5058682987485192e-01, 1.2251836145703878e+00,
          -8.0268041692379208e-02, -1.1347795112123285e+00,
          2.7470655885768031e-01, -2.4685189449806860e-01,
          -1.0478036353385809e+00, 1.8661314391220277e-01,
          -1.7858390441346106e+00, 5.1795730199368988e+00,
          -2.2015976998020034e-01, 6.6924809019064335e-01,
          -4.8520041313602302e-01, -6.3767524317561908e-01,
          9.8915646552199213e-02, -1.8515493727186532e+00,
          3.1672026513989309e+00, -9.9530345662982064e-02,
          -1.2531172353833903e-01, -1.2231498771714560e+00,
          -9.4995283687108453e-02, 6.8361877197545190e-02,
          -9.3425521966488248e-02, 2.3661522337671402e-02,
          9.3929693911732115e-01, -1.1959528781595934e-01,
          5.7070948497299531e-02, -2.1421869036879437e+00,
          -3.9423950252195993e-02, 8.1212979647128283e-03,
          8.6088722850841178e-03, -1.4138419177852610e-01,
          -3.5744195335631210e-02, 7.3593288666475742e-02,
          -2.0682454450237683e-01, -1.0089119808349147e-01,
          1.4725559039853142e+00, -1.6209231351913833e-01,
          7.9760234293484289e-01, -4.7625163170795597e+00,
          1.7543699333912169e-01, -1.2473341263484057e+00,
          6.9561164684883237e-01, -5.3716781750539278e-01,
          -8.9727740246329082e-02, 4.9639184321237351e-01,
          2.5288762259804756e+00, 3.5660407671425552e-02,
          -6.8046040290792109e-01, -5.8648807767848121e-01,
          -1.3503928312260410e-01, -1.9527662289598811e-02,
          -4.6703737469479742e-02, 3.9785909190618918e-02,
          9.5174981579045259e-01, 5.1144144312900456e-03,
          -2.1819892373601465e-01, -1.3878174583995855e+00,
          5.8135072627028189e-02, 3.3615393076886005e-02,
          1.4070556457372554e-01, 1.8724462248694596e-01,
          -4.4687816561322799e-02, -1.7466338005561924e-01,
          -6.0265639409539683e-02, 2.1138800043317021e-01,
          5.2637274099931963e-01, 5.9807768411914569e-03,
          8.6597662112530971e-01, -2.5738323625850130e+00,
          1.0913354400634047e-01, -3.1744627712044476e-01,
          2.1653045827125519e-01, -1.9016206977830108e-01,
          2.3243197135479829e-02, 9.9118107380968989e-01,
          1.5730961563405692e+00, -1.8295401082965280e-02,
          -5.3121578877971576e-01, -3.3005479405423621e-01,
          -2.0209240134374171e-01, 1.8060282112443171e-01,
          3.6718922327257323e-03, 2.6169179244366389e-02,
          6.4377526691664300e-01, -1.6658092401404031e-02,
          -6.9301745394936221e-02, -1.6952873078957362e+00,
          3.9378295071364304e-02, 9.4399866073336704e-03,
          5.1889651198631453e-02, 1.6945987636801779e-01,
          4.6906319014928588e-02, -2.3735154033258699e-01,
          -1.9489348453808794e-01, -7.1045799776984969e-02,
          8.1069233574405097e-01, -1.5784402548753607e-01,
          3.5873904094982378e-01, -1.8487724563796302e+00,
          2.0105552084441053e-01, -7.7598558986530297e-01,
          5.4695167125252608e-01, -1.3086513891659321e-01,
          -6.6511083060657297e-02, 7.0043494378217552e-02,
          1.7372384650738351e+00, -8.6696868980356819e-04,
          -3.1344231197913819e-01, 5.8813181805113979e-01,
          9.5546617425429733e-02, 1.6507317079491002e-01,
          -8.1765976913832611e-02, 7.0929032207176779e-03,
          2.5256921378824698e-01, -6.2672412622680571e-02,
          2.2545549898735701e-01, -4.2870385594680099e-01,
          -4.8747005588215313e-02, -3.5993589857926472e-02,
          2.1706600663050739e-02, -3.5023175894285641e-03,
          -3.1102377246310760e-02, 1.1314837130086992e-01,
          -2.2522460689765836e-01, -1.3789484833583490e-01,
          1.3401656215289854e+00, -1.4416659387515718e-01,
          1.2113813853326012e+00, -2.5719718872227197e+00,
          2.8696468697390448e-01, -1.0601411034241388e+00,
          8.1299079440551092e-01, -1.2777133432876053e-01,
          -1.0835585236641643e-01, 2.7779980239877156e-01,
          -1.8327270634998745e+00, -8.9514887514489730e-02,
          -1.0137721545346181e+00, 1.9813164854556715e+00,
          -2.7344185498561668e-01, 2.6001034209188373e-01,
          -6.0665224220558062e-02, 1.0675351295251134e-01,
          4.3105737033811875e-01, -5.8481238558050645e-02,
          -5.0492569163074763e-01, -2.0496742953417204e+00,
          3.8560431396296974e-02, 2.7727860836436330e-03,
          1.7633450508693307e-01, 2.5053055162256699e-01,
          -4.3555755394880810e-02, -5.5156130408696036e-01,
          -2.5018460714696611e-01, -3.8929554247459386e-01,
          8.5297755020041133e-01, -5.0419604168391030e-01,
          -5.4994377971215092e-01, 1.4730027971532160e+00,
          2.3601945407448593e-01, -1.1808031278188886e+00,
          9.3239005187780111e-01, -9.4342896936622692e-02,
          -4.4132102833301309e-02, -2.4353697682941489e+00,
          1.1940573504179863e+00, -8.8043443457041170e-04,
          -1.4330572253865677e+00, -2.2622137388601771e-01,
          -5.1319941673792102e-01, 4.8502401285845195e-02,
          -3.6375155966953203e-03, 7.4501232785214797e-02,
          1.3577179781218702e+00, -4.8253265039610541e-02,
          -3.6776164764458819e-01, -1.6391218982954141e+00,
          4.5559138912041906e-02, 6.5002845406322826e-02,
          1.5744604415879937e-01, 5.7617649445220809e-01,
          4.1071536925955103e-02, -9.3360848019271236e-01,
          -1.6925202158113997e-01, 1.0768198734355422e-01,
          -2.9428550697881439e-01, -1.5536095113991852e-01,
          2.1441048557878484e-01, 9.7264624776590730e-02,
          1.1754718544985988e-01, 3.9454249481283304e-01,
          -1.9798753790052304e-01, -1.8116227439324015e-01,
          4.1100816041518003e-02, 9.4387826102668360e-01,
          1.1497026687085410e+00, 2.6355464459563466e-02,
          -6.7490955978722289e-01, 1.6338769143207483e+00,
          -2.0653431603008296e-01, 1.0133837502468997e-01,
          -7.8489255806100701e-03, 6.4899013313761911e-02,
          5.3445507913723356e-01, 3.1037685831914602e-02,
          -1.8523859166255000e-01, -1.2687375574560176e+00,
          -5.1669970984788763e-04, 3.3588579561279829e-02,
          1.3309879648179063e-01, 2.0007068150873475e-01,
          -8.7395423079982923e-02, -7.8593025072529646e-02,
          -2.9282083748578647e-01, 3.0042766191492855e-02,
          8.8240048381604141e-01, -4.1427522247879667e-01,
          7.4085981868109674e-01, -2.1878150064263222e+00,
          2.4292626904755640e-01, -8.2109554424025855e-01,
          6.2492729340042508e-01, -2.9563559096938585e-02,
          -4.0559826998240477e-02, -6.8278538098509492e-02,
          1.7340635984226920e+00, 4.9475954926845332e-02,
          -1.0609519844145587e+00, -1.0448964961707015e+00,
          -4.9771545305627933e-02, 3.5261452893153702e-02,
          -5.4306933452251245e-02, 1.4740907304246886e-01,
          3.5153187940195335e-01, -8.0348667778395791e-02,
          -4.6499975258732951e-02, -1.6496886339536363e+00,
          -1.4604551195822765e-02, 6.6189856945883752e-02,
          5.3582909832854679e-02, 1.7864891012746428e-01,
          1.2973033614381816e-02, -3.1571905599283606e-01,
          6.0098609585420001e-02, 4.5820213487283393e-02,
          -7.2558509490065326e-01, -1.9812455958242315e-02,
          -1.8621127761799805e-01, 3.4524737500091823e-01,
          5.6468346477824033e-02, 6.7579774979538310e-01,
          -4.3950722372364165e-01, 1.1960457858411033e-01,
          -1.7039742742999547e-02, 1.3182390879109189e+00,
          1.1279759920567318e+00, 4.1026314038975671e-02,
          -1.1296343192611301e-01, 9.7291578185573901e-01,
          -4.0058279086884774e-01, 1.6222220803989429e-01,
          2.1213851432521962e-02, -1.9211788155736070e-02,
          6.2341330265340278e-01, 1.0664119098818726e-01,
          2.4694696886804748e-01, 8.8179749595024126e-01,
          1.1014591649797248e-01, -4.3201134847925468e-02,
          -4.4235567722641263e-03, 3.1521823051383097e-01,
          -8.0294702056797583e-03, -2.2229960672386798e-01,
          -3.3412431326622094e-01, 2.6729068582351821e-02,
          -2.8344179910078421e-01, -2.5810279636891170e-01,
          2.7481907013751050e-01, 1.4013450917512907e-01,
          2.1371097165828831e-01, 1.2442632107241548e-01,
          5.9259071767337060e-03, 2.0487171112312141e-02,
          -6.9645733050575379e-02, 5.0506201159830588e-01,
          -2.4333836811989298e+00, 2.3888797086481822e-03,
          -1.1466005937225254e-01, 1.9566309292308597e+00,
          4.8448540879558029e-02, -1.1249491204552675e-01,
          7.3959962221688408e-02, 1.3073775589393136e-01,
          -4.7979474295359126e-01, 9.2769464759397846e-02,
          1.0734258991430898e+00, 8.8349862270600488e-01,
          -2.8166335948288580e-02, 6.2301694240010912e-02,
          9.2456927014662287e-03, 4.0525140362840001e-01,
          1.4642507486514827e-02, -2.0911206904473509e-01,
          6.8028159881267730e-02, -1.6548254300907519e-01,
          4.0965739951261299e-01, 1.7964252133398867e-01,
          -4.2969432027586524e-01, -3.6379551038151547e-01,
          -1.4813214621636553e-01, -4.9202198928134228e-01,
          1.4845426826850297e-01, 5.6483045187403147e-01,
          2.7509085084918099e-02, -1.3001401222233642e+00,
          3.5378535959158641e-01, 6.4512586221713575e-02,
          7.1664289072963766e-02, -7.6082087322854219e-01,
          -2.3792279407314679e-01, -2.9837728340126483e-02,
          -6.7629736272687146e-02, 1.2254141720734323e-01,
          -7.6023835174205023e-02, -1.9455997152045715e-02,
          4.3011562425094058e-01, -1.0239287149631987e-01,
          -4.4811323206763003e-02, -6.1217015561066618e-03,
          -4.2817919352490928e-02, 2.3638845416452101e-01,
          7.8390957227227401e-03, -2.8795980580986469e-01,
          -1.8554183820851028e-01, -6.8051458178308169e-02,
          -3.6490135236463037e-02, -1.7481186131368828e-01,
          4.4981157632036534e-01, -4.4061913451528933e-01,
          1.8402889371275430e-01, 4.0511387360043866e-02,
          9.6574718638612903e-02, 2.7586903178411615e-01,
          5.1707648861742443e-02, 8.3080940118799029e-01,
          6.2196006958352568e-01, 1.4548894917436622e-01,
          6.2431127548654386e-01, -3.3496497911220038e+00,
          -6.0366804894378456e-01, -2.7234787517226472e-01,
          1.1133456087005424e-01, 2.9741125492834589e-02,
          2.9429838683363790e-01, 1.7375239816592714e-01,
          9.7420522508339302e-01, -7.9206580323993236e-01,
          1.0991622379029863e-01, 2.4396400931551779e-03,
          -7.1623483430556800e-02, 6.6443534571308682e-01,
          -7.8204794705995409e-02, -7.3038288341058066e-01,
          3.6422674841902114e-01, 4.6851585813868468e-01,
          -1.5453032595806877e+00, 4.9408350665262896e-01,
          1.7903161470747306e-01, -7.6947933118435186e-01,
          -4.2840020684906210e-01, 1.7821094957356534e+00,
          -1.2255467392900754e+00, 6.2423745458688773e-01,
          3.2234344976539424e-02, 4.0337723600668225e+00,
          -1.4305090807631984e+00, -1.1843453648601400e-02,
          7.0694420282893755e-01, -2.8893937167638695e-01,
          -2.3880372819995904e-01, 7.5989278948972491e-02,
          -3.0763946415188207e-02, 6.1263894343410792e-02,
          -2.1456649635349692e-01, 1.7301759921758220e-01,
          8.5929131508138579e-01, 9.6144020937314012e-01,
          5.9156347926797332e-04, -3.7872776089591824e-02,
          -3.2295686465992783e-02, 2.8719257114028568e-01,
          -9.4519489189142214e-02, -1.6784723804602394e-01,
          2.0422879205168065e-02, -5.4699677525708638e-02,
          6.5948147977150062e-01, -1.0136663775873921e-01,
          2.1698219682819314e-01, -6.1274116352645458e-01,
          -4.6746212959765443e-02, -5.8728598243506913e-01,
          2.9649849071008705e-01, 4.5636219292389280e-01,
          -4.0113442412151319e-02, 2.0669324054693436e-01,
          -1.5081581848065713e+00, 1.9799968756148480e-04,
          1.0806301775317868e-01, 6.7660240456162568e-01,
          -1.6145841426441643e-01, 7.0461101127128015e-02,
          -6.0673964238818823e-02, 1.4871384459265860e-01,
          -5.2799084603353752e-01, 1.1551254400896878e-01,
          8.1052748188972390e-01, 6.0964092939118786e-01,
          -7.5007613111846921e-02, 7.2763150278215394e-02,
          1.0083263563955999e-01, 4.7289084661574093e-01,
          -6.0984004225799825e-02, -3.3461981381291850e-01,
          -1.0778576229006351e-01, -1.0917858444741508e-02,
          2.6502299791865108e-01, -8.1756234369694425e-02,
          2.2913298866360246e-01, 2.6974085050778418e-01,
          1.0418463312656520e-01, -6.4699597879904161e-02,
          9.2010192319815040e-02, 5.1558245644917289e-01,
          1.7165958752949507e-03, -1.4985081206778436e-01,
          -3.7492718855616880e-01, 6.1007541545226723e-02,
          1.4230803064753822e-01, 8.1282074437255203e-01,
          -2.6771080634120631e-01, -2.2164721639037707e-02,
          3.5238049077621160e-02, 7.4960788081028393e-02,
          4.3596720886416651e-01, 1.2373844943864666e-01,
          3.8631099999801988e-01, 1.0502704626454735e+00,
          7.3341872008816589e-02, 6.7655102410249801e-02,
          -8.2552747964191722e-02, 1.3791932434837983e-01,
          -1.1172192351808340e-02, 3.0961139258939892e-03,
          1.0702952698357411e-01, -2.9611348141428365e-02,
          5.1457309064179634e-02, -3.4905692062358766e-02,
          1.6132475210634875e-01, -2.1008628741509644e-01,
          -3.0634505983374832e-02, -1.7471494187079062e-01,
          -7.7328366451472610e-03, 1.2031904341627420e-01,
          -2.4264545157732451e-02, 4.9948348056920699e-01,
          -1.0988780080486549e+00, -1.5948240761832936e-02,
          -1.1557601160271237e-01, 3.0067510095756084e-01,
          -8.9501589361511508e-02, -1.9312552084754988e-02,
          2.7010811595929326e-02, 1.4720691392440488e-01,
          -6.3191222528997049e-01, 1.0150821602790960e-01,
          7.8853951420799262e-01, 1.6871182171883239e-01,
          -7.5014802816249254e-05, -3.5587107818376693e-02,
          2.7256087457753576e-02, 4.5749073813749180e-01,
          -1.6611238484533753e-03, -3.3693385811243337e-01,
          -1.1471052242622941e-01, 8.4191270964526277e-02,
          -2.8947199418919729e-02, -7.9276933248565190e-02,
          1.7059267298890116e-01, 5.4139721049321438e-02,
          1.5144357564818098e-01, 4.2619232501901853e-02,
          -7.9651440032667623e-02, 5.0118554576816809e-01,
          -1.2476679673415616e-02, 1.1867056605386749e-02,
          -6.6997615684235623e-01, 9.0506311602322087e-02,
          -9.8222669636201565e-01, 8.4152870102338106e-01,
          -3.5677707829979560e-01, -1.3529628515586195e-02,
          4.1880319488101073e-02, 7.9924982643087436e-02,
          6.1576722139278206e-01, 4.7342896348421773e-02,
          -3.1942970690640349e-01, -9.4498379324756343e-01,
          -7.3156954050739688e-03, -2.4560253164659124e-02,
          4.3600178519225465e-02, 5.4036416277902155e-01,
          3.2918901646329587e-02, -7.6037477687740140e-01,
          -5.4853798871065604e-02, 2.3981710948695525e-02,
          -5.3538764281460871e-01, -1.6712890498755240e-01,
          -3.3672035773771702e-02, 7.4315362836519105e-01,
          2.0216851484169608e-02, 5.6096900040558406e-01,
          -1.2237324558476628e-01, 5.6827677563922402e-02,
          6.3617081731217551e-02, 4.8141615114720365e-01,
          2.5012635215871932e+00, 1.9608858197838891e-02,
          -6.8852765439218699e-01, -2.3392061669410102e+00,
          -5.5910013982400066e-02, -7.0464276374011439e-02,
          -2.3081456344877946e-02, 3.2160737932813988e-03,
          -1.0260649748203966e-01, 4.6591253493117497e-02,
          9.6878490607751999e-02, -1.1380486705321706e+00,
          5.2577021385508425e-02, 1.6837536476367231e-02,
          1.1860588019230840e-01, 1.3419412697689601e-01,
          -4.6376706172505090e-02, -1.7936424149932204e-01,
          -5.6787156365971821e-02, 1.2754315029412797e-01,
          -9.8488400681807997e-01, -1.5455108636919663e-02,
          -1.0048442908465420e-01, 3.6440112208403863e-01,
          9.4628379689429207e-02, 9.8529989165282206e-01,
          -5.5490996293404304e-01, 7.9260591930958076e-03,
          -8.1370079436690584e-02, 1.9467133292299361e+00,
          -5.2488979804531077e-01, -1.0347478735779948e-01,
          -6.1297364803848642e-01, 1.5350232550890155e+00,
          -2.0921352942358959e-01, 1.6233947984074876e-01,
          -5.3753950809462214e-02, 5.5032138406574102e-02,
          3.6756976062077562e-01, 1.4010853965317788e-02,
          -1.8988829113502159e-01, -6.5550464479199055e-01,
          -7.2198863931976831e-02, 3.1083565317541050e-02,
          5.8734199673689258e-02, 1.2458400600169857e-01,
          -7.8139953559282119e-02, -1.2372918330649718e-01,
          -2.7321851635847533e-01, -1.3417872860888613e-01,
          4.6893399252760243e-01, -3.8340702656781250e-01,
          1.2583787351358286e-01, 5.6949805937422437e-02,
          2.0325241122833787e-01, -6.2829825249464843e-01,
          6.1014233685741048e-01, -8.3726221247678215e-02,
          2.6895758031239753e-02, -2.2802210146012625e-01,
          -3.2871584964892966e+00, -1.6581663922648410e-01,
          -4.8952782225043145e-01, 2.6545854502845723e+00,
          -8.2175780874523777e-02, 1.2542077973918417e-01,
          -9.6154833397102582e-02, 1.2430248260697713e-01,
          -4.6057055970985178e-01, 1.4023351598470069e-02,
          1.3579847555492944e-03, -1.2551393371724782e+00,
          -8.1106563469638369e-03, 6.4435549269486830e-02,
          6.2063573993121415e-02, 3.4593574762709078e-01,
          -8.4599638812804162e-02, -2.9705571252639229e-01,
          -3.5211916603214370e-02, -3.7252236099466601e-01,
          8.0840286519094806e-01, -2.7429074217361077e-01,
          -9.1129264659152187e-01, 3.8450382202355597e+00,
          1.9588927137623455e-01, -1.2069748189206877e+00,
          9.0061419300698342e-01, 1.7748151078122729e-01,
          5.4254246042030607e-03, -3.1210981428521807e+00,
          6.0813681354355675e-01, 3.0119768518894984e-02,
          -9.2276809317845898e-01, 1.9458481885893468e+00,
          -2.3210966757882567e-01, 8.0533877679192067e-02,
          -5.9023390357302974e-02, 1.0008006014858176e-01,
          1.0846869506014112e+00, 5.4835921656523233e-03,
          -1.4745048750494286e-01, -1.0707202186155689e+00,
          -9.9142492740042970e-02, 1.1883256603875510e-01,
          1.0336944730568748e-01, 1.6576072287934143e-01,
          1.7879438579832832e-02, -8.1621507454415820e-02,
          -2.7205527876166274e-01, -1.3469023888534859e-01,
          8.2491999543506123e-01, -4.0862609267203370e-01,
          6.3339894987405732e-01, -1.1988951600683446e+00,
          2.6988858419599537e-01, -8.1725131191809552e-01,
          6.2242105228023603e-01, -3.2029182087119323e-01,
          -7.6285732024847008e-02, -5.5725139993432671e-01,
          -1.8458976374139291e+00, -9.5394373136981958e-02,
          -2.4842298712346153e-01, 2.6344242215309053e+00,
          -3.3725545438514654e-01, -1.2520164422244203e-02,
          2.7031444679334823e-02, 1.2208449593886725e-01,
          3.9398763203659826e-01, -4.0723891280908080e-02,
          5.4870604120998853e-02, 2.3226592553682698e-01,
          -9.8681898308583038e-02, -4.1532087057958925e-02,
          8.1814403202499900e-02, 4.5044418799413538e-01,
          -3.4537302295931951e-02, -3.9933238519065856e-01,
          -1.0419138961131355e-01, -2.2555672307315544e-01,
          1.3035270296674240e+00, -1.9293714938666018e-01,
          -6.2192499647030552e-02, 8.6409826441969029e-01,
          2.5618526535262282e-01, -1.2959071358726006e+00,
          8.3127576241296686e-01, 6.5299468633556621e-03,
          6.7407967228123575e-02, -2.2262154864441390e+00,
          2.3319619569561434e+00, 3.0369231174387005e-02,
          1.2041392420680797e+00, -2.5171515274228020e+00,
          1.1239238921324537e+00, -2.2092903101559914e-02,
          1.1474117795290086e-02, -1.2618938451921424e-01,
          -2.1619727556725601e+00, 5.9032089263088665e-02,
          2.8638908410463091e+00, 3.4551443483257946e+00,
          4.7114281316743938e-02, 3.0660782495627566e-03,
          -1.1046615261983785e-01, -7.7787553232326101e-01,
          4.7163805354522692e-02, 1.2533367527998502e+00,
          1.3595841372338591e-01, 1.0409136146020503e-01,
          -3.6342503275722338e-01, 1.4584085680073480e-01,
          -2.6708225529985204e-02, 1.6906466449471940e+00,
          -1.7016789810118324e-01, 3.3349068300131240e-01,
          -2.8731391813545343e-01, 6.2834346510576422e-01,
          3.2493545607331212e-02, 4.5423468931006084e-01 ]
      - [ 7.0256501891090695e-01, -4.5108847320485834e-01,
          9.2292946177362212e-01, -3.6555673780480089e+00,
          1.1211970506816582e+00, -5.3213550108971841e-01,
          -1.8827456619802449e-01, 4.2964071131552803e-02,
          1.9413891419820646e+00, 1.4056267895139181e-02,
          1.2366129306253217e+00, 1.8665746044065470e+00,
          -7.8318429383243926e-01, -1.3132785360217314e-01,
          6.7616879232028596e-02, 1.1565047595026501e+00,
          -3.5433331102617392e-02, 1.3785210550189642e+00,
          -3.5708084908012461e-01, -5.7809393245723439e-01,
          -1.2185211683610440e+00, -2.8313120157776517e-01,
          -1.4698066319566303e+00, 4.3998478388754334e+00,
          -2.8081951910829028e-01, -1.1165263689298477e+00,
          -7.1805419790219105e-01, 6.6945532417841824e-01,
          -5.2415380449391324e-01, -1.5747091488955796e+00,
          2.1762201211860524e-01 ]
