%YAML:1.0
my_nn: !!opencv-ml-ann-mlp
   layer_sizes: !!opencv-matrix
      rows: 1
      cols: 3
      dt: i
      data: [ 24, 30, 1 ]
   activation_function: GAUSSIAN
   f_param1: 5.9999999999999998e-01
   f_param2: 1.
   min_val: 5.0000000000000003e-02
   max_val: 1.
   min_val1: 2.0000000000000000e-02
   max_val1: 1.
   training_params:
      train_method: BACKPROP
      dw_scale: 1.0000000000000001e-01
      moment_scale: 1.0000000000000001e-01
      term_criteria: { epsilon:1.0000000116860974e-07, iterations:200 }
   input_scale: [ 1., 0., 1., 0., 1., 0., 1., 0., 1., 0., 1., 0., 1., 0.,
       1., 0., 1., 0., 1., 0., 1., 0., 1., 0., 1., 0., 1., 0., 1., 0.,
       1., 0., 1., 0., 1., 0., 1., 0., 1., 0., 1., 0., 1., 0., 1., 0.,
       1., 0. ]
   output_scale: [ 2.1052631578947367e+00, -1.1052631578947367e+00 ]
   inv_output_scale: [ 4.7499999999999998e-01, 5.2500000000000002e-01 ]
   weights:
      - [ 1.6688961223200931e+01, -5.9445596142165217e-03,
          -2.8687593161435205e+00, 7.4944698477470836e-03,
          -2.4213828318924444e-03, 5.7852298631478405e-01,
          -2.0154371354449085e-02, -6.4007868203176370e+00,
          -4.5826763762306225e-04, -2.3629710568086651e-01,
          -6.8494497134470524e+00, -1.2464603893101700e+00,
          -8.2386941947083236e-03, 3.6615610126581093e-02,
          -2.1290456104990005e-01, -4.6934277309381073e-02,
          -2.3045010789373441e-03, -8.1564461784920411e-02,
          -8.3684515055111282e-04, 2.4057161539739725e-03,
          3.3119246039205246e+00, 3.2537392609403898e-03,
          -2.1690906629738129e+00, -9.1180511884578347e-03,
          -2.3600469219661462e+00, -2.5107053539684700e-02,
          -3.1907608344979865e-01, 6.1792429831518749e+00,
          9.1046212445977453e-04, 1.4297312090734806e-02,
          8.2451697383171645e+00, -1.2856564271626958e-01,
          3.5993035673960985e+00, -9.0713492342969076e-02,
          3.3459759232355858e-03, -1.3361550258115824e+00,
          9.7511601538957070e-03, -2.3560042403660346e+00,
          2.0676146733300785e-03, 1.2312539222889625e+00,
          -2.2690175632919152e+00, -3.0481932853282672e+00,
          1.4525255872405635e-02, 1.5922999453320191e-02,
          -3.1246063189908641e-01, -6.1539517854611883e-02,
          -9.6296354936090405e-04, 2.0159094825090865e-01,
          2.3970633363852084e-03, -1.3899668798470562e-03,
          1.8614620061814700e+00, 1.5820530040413648e-03,
          -8.5405000169379719e-01, -4.9784555005362614e-02,
          -2.0542364113731977e+00, 8.2408117830216118e-03,
          1.6574502601692212e-01, -4.4973957272148934e-01,
          3.8900634988538125e-03, -1.1987916655755338e-02,
          -5.3688061083410057e+00, 3.1765856003534099e-01,
          4.8550443173828857e+00, 5.8240324995664927e-01,
          -5.6463179584070001e-03, -3.7344046420533528e+00,
          3.3821769152839937e-02, -1.5845300764348824e+00,
          8.5949503155309144e-03, 9.8957844740611001e-01,
          4.8592667316098757e+00, 2.1816157714354190e+00,
          -4.0128976161108399e-03, -1.9487626232521724e-01,
          5.4488208618754297e-01, 1.8330880972569072e-01,
          -3.5517520313409948e-02, 1.0155848562915151e-01,
          -9.7545188628170489e-03, -2.0827323747834092e-02,
          -4.8348421000124944e+00, -1.8112311758020066e-02,
          3.6180607198123957e+00, 7.4787503774700903e-01,
          5.5968466031252415e+00, 2.4121275146626694e-02,
          -8.8962142925424925e-01, -8.8887428220281723e+00,
          -3.8930733575328648e-02, -1.5314028537067560e-03,
          8.9408538985644839e+00, 4.3126092172400865e-01,
          -3.8881316469690534e+00, 8.4437708349671556e-02,
          6.7352001561832409e-02, 1.7317834954637616e+00,
          -1.0491936745190451e-02, -2.5031396002340633e-01,
          4.8056550032341263e-03, -5.1721233296676072e-01,
          -1.1063778995005398e+00, -8.4644027615570189e-02,
          -3.0464516148376641e-02, 3.8484536087305720e-03,
          1.0045184342154270e+00, 3.7914325369972102e-01,
          5.2321152771971552e-02, -2.2917209557764273e-01,
          -1.1658793033394045e-02, 4.1227800884102501e-02,
          2.3014775266547143e+00, 7.3246517920654000e-03,
          1.4347125483106720e+00, -3.7744938324677563e-01,
          1.5099889245779338e-01, 6.8839283945919955e-02,
          -1.8424963015784983e-02, -2.7349364968175816e+00,
          5.9947922082982774e-02, -4.3612764801333498e-02,
          1.4247090946028305e+01, -5.0639746661305696e-01,
          2.6588547088130219e+00, -3.1444961706966490e-01,
          -2.8256703215347623e-02, -1.4376488944240529e-01,
          3.6457034300030278e-02, 5.1045544750604599e-01,
          -7.2533059619763904e-02, 7.7230308404841408e-01,
          1.2695062791172285e+00, -4.2445238847894320e+00,
          5.4056197726442622e-02, 1.7572484558859106e-01,
          -1.1370940519505921e+00, -3.3440330059309314e-01,
          6.3841740586750975e-02, 5.4163138510833049e-02,
          9.4086457693817443e-03, 3.0119976049520426e-02,
          4.5795279810325790e-01, -2.6899411002605251e-02,
          -1.5679047107528601e+00, 4.6653705493880281e-02,
          -6.4819577962705299e+00, 3.3027982814448201e-02,
          -5.6008112994554193e-01, 5.1066820922629077e+00,
          -9.5231233423450478e-03, -4.7817380058792748e-02,
          1.6773592758499831e+01, -2.8863348488645341e-01,
          3.6299760945103019e+00, 1.1539869612085822e-02,
          -5.5722838550520515e-02, 9.5991901625827769e-01,
          -3.9965249890294333e-02, -7.8783043372431401e+00,
          2.0387007016510254e-02, -2.0076718377184890e+00,
          -5.0805824109031539e+00, -2.4797906539550452e+00,
          -3.8564619657913135e-02, 1.9768936124122743e-01,
          -1.7665622823308178e+00, -3.4181106983488935e-01,
          -2.2924456138887266e-02, 1.9634872407377871e-01,
          2.4098491787090840e-02, -2.3053797391282462e-02,
          4.8409363065524662e+00, -1.2492917904132780e-02,
          -8.0391240138186915e-01, -7.6402307916696921e-01,
          1.5555607897753454e+00, -5.9260745111320630e-02,
          5.8210311197053488e-01, 7.2282352195349597e+00,
          -5.7827008860212019e-02, 6.9635796655919777e-02,
          3.7722943568342133e+00, -2.9611593715533441e-01,
          -4.6687398595230265e+00, 1.7609576219750117e-01,
          2.0708519727715653e-02, 3.0943571756143196e+00,
          -1.1878955232572073e-02, 3.3731233084149284e+00,
          1.9788102849681296e-02, -1.8780904411151813e+00,
          7.3010258815763562e-01, 6.4974609191733068e-01,
          3.8102996692763139e-02, 1.0834311232129340e-01,
          5.4814255911077392e-01, -4.3600376630030540e-04,
          -2.6047877973331066e-02, 4.2610953887236713e-01,
          3.8264216740303476e-03, 2.5593025182199927e-02,
          1.8438338551050364e+00, -2.0312806159194171e-02,
          4.0986610206013880e+00, -8.2650500924081183e-01,
          3.9211287365863829e+00, 2.0315877179033433e-02,
          2.2496148967720875e-01, 4.9148754103083891e-01,
          -5.8707574675856333e-03, 1.8217427283542163e-02,
          1.1878908714627824e+01, -3.7660416485405446e-01,
          4.6600614513202858e+00, -3.1986492683238399e-01,
          -2.2431005464490117e-02, 1.4054342334558452e+00,
          2.4019064464578507e-02, -2.5730976967712643e-01,
          -1.3091668064684250e-05, -3.1532330648041125e+00,
          3.4883061400801765e+00, 1.4851438604699945e+00,
          9.1899734376849791e-03, 2.8171068526881959e-01,
          -6.6093589079412951e-01, -1.4689722576788958e-01,
          6.3967039615286894e-02, -2.8967500613053199e-02,
          -1.5865438676390786e-02, -3.7377579637767971e-02,
          7.7953664708845514e+00, 5.8172086116285056e-02,
          -5.6468043347020185e+00, 1.0637779065833459e+00,
          -6.2178358265011235e+00, -2.3146361411804008e-02,
          -2.1784735343371238e+00, 3.1764570794823315e+00,
          3.3145098673900426e-02, -5.2106338473231614e-03,
          3.1197513092705931e+00, 2.9177387757859802e-01,
          7.0220674126570231e+00, -8.8349985853482332e-02,
          3.2768896645853096e-04, -1.0493716947154599e+00,
          5.9933382242987221e-02, -3.5414292959894182e+00,
          -3.9617040095878728e-02, -1.8506982759090800e+00,
          2.7934898971677531e+00, -3.2470582219009797e-01,
          6.4996223828117330e-02, -1.6574043295568991e-01,
          3.8259606706758548e-01, 8.6826429497719904e-02,
          -1.1474184627886852e-02, 3.4646462746830205e-02,
          -2.7062023465772137e-02, 1.8405548440574005e-03,
          -2.8906508651922165e+00, 1.9801517732016344e-02,
          1.4968166985872720e+00, -2.2824288541777094e-01,
          -3.9950992997344228e+00, -9.0414752489425029e-02,
          1.2633369858687349e-01, 3.2323632464027812e+00,
          -2.0224437158980514e-02, -4.4558887788994528e-02,
          5.1689543351119163e+00, 3.7599093631040842e-01,
          -4.1768337348127691e+00, -8.7656960154910576e-02,
          9.7330768908930713e-03, 1.1706097177351569e+00,
          -1.9292564410586445e-02, 1.5829624786783152e+00,
          4.0317170147521890e-02, -1.0142563186515428e+00,
          -4.6093988925942266e+00, 4.1488314368208288e+00,
          -2.7420804779442559e-02, -1.6166997559292956e-01,
          1.5828155367945584e+00, 3.0922096772525159e-01,
          -5.3078765284370798e-02, -1.4811733398822541e-01,
          -4.4073287719572182e-02, -8.1261055940828109e-02,
          1.9560635013506504e+00, -4.5963394244854058e-02,
          1.3156197234006295e-01, -1.4522870831227905e-01,
          3.1471644498637938e+00, -7.7433579550009013e-02,
          -1.0786472834302316e+00, 7.5561099266732534e-01,
          3.8324710506386521e-02, 4.3466627443680336e-02,
          1.2286321518899879e+01, -6.0495222569795948e-01,
          3.4357348257346052e+00, 5.8127904124034430e-02,
          3.5378291451558672e-02, -5.0501223096238883e+00,
          4.6803822126138581e-02, 2.6685945384831005e+00,
          -1.0106089145345661e-02, 1.1472919077112707e+00,
          -2.4576201080898126e+00, 7.4038284626787423e+00,
          5.7520578648220612e-02, 1.6742468335397522e-02,
          2.2079294808993430e-01, -1.4422524827729841e-01,
          -6.2576669802797885e-02, 3.1007700304204139e-01,
          -1.9450071512956666e-03, 2.7441982329992832e-02,
          3.9934483180678257e+00, 1.4243729790920432e-02,
          1.0361303339334392e-01, 9.6385159448481722e-02,
          4.5830190549564582e+00, 1.5429512820827965e-01,
          2.8707700267955025e+00, 8.6466669127748574e-01,
          1.1316951964762798e-02, -7.8635963720770863e-02,
          4.6766397836538198e+00, 7.4311218599011297e-01,
          -4.3195715032405868e+00, 5.4513755834321842e-01,
          -9.6761500673182288e-03, -1.0005960326994227e-01,
          1.4898117387550354e-02, -1.9197971714242126e-01,
          3.4044998404935474e-02, 1.8559998017172585e+00,
          -7.2260476123322022e+00, -2.4718245284279248e+00,
          4.2875154953629216e-02, -1.7568578329541973e-01,
          1.2772755970200229e+00, 5.1205794432398932e-01,
          8.6141466214336302e-05, -3.3445429571213534e-02,
          -3.2787641480283625e-02, -1.6390681698378391e-02,
          -5.4526953758170926e-01, -1.5186587708121703e-02,
          -1.0979086104630220e+00, -1.0008096880012958e+00,
          3.8917822170194141e+00, -5.3799087957983396e-02,
          2.0764969391867916e+00, -6.4857042972636121e+00,
          -9.2019992381300198e-03, 5.3707224426360410e-02,
          4.8001003893718588e+00, 3.2902576187335558e-01,
          -2.7067833935175885e+00, -1.5533472952197641e-01,
          5.6400931466386188e-02, 4.3611948304168306e+00,
          -1.1616896575802274e-01, 3.6183097826365498e+00,
          3.3831004927781835e-02, -6.8374600858453860e+00,
          4.5407931461617030e+00, 3.6495703667412465e+00,
          -6.7195211842913202e-02, 8.6783617212496472e-02,
          2.2829089809568370e+00, 1.7904807151047269e-01,
          -3.0246903038348663e-02, -4.3066527657877063e-01,
          6.9064061195305088e-02, 2.1596785166558607e-02,
          3.3841898396154807e-01, -3.6775154535119675e-02,
          -3.2618101935334631e+00, 1.5333356280049872e+00,
          2.5324221065116341e+00, 8.8314297071388118e-02,
          4.6092690202503694e-01, -1.8145670534760734e+00,
          3.2449364550367253e-02, 5.4172332376821487e-02,
          1.0195772076718489e+01, -4.0751953320393958e-01,
          -1.3039268256613372e+00, 1.7647617514312866e-01,
          -9.9508080686298798e-03, 3.1541567259246817e+00,
          -2.1226204134050731e-02, -3.6425996612388056e+00,
          1.9241591634438199e-02, -3.9289058644924446e+00,
          1.4459785729798982e+00, 1.5100166814923952e-01,
          2.5777687172883916e-02, 2.1732972532766132e-01,
          -1.2485640178469055e+00, -2.7276162485057859e-01,
          2.4325460453724797e-02, -1.2709359793307656e-01,
          1.9099880142279070e-02, 1.0366475828858888e-02,
          6.9428940652841433e+00, 2.0524440496181021e-02,
          -1.4038495363086093e-01, 2.7302157034358232e-01,
          3.7466756110847617e+00, -6.5143454769256551e-02,
          1.3836152894580960e+00, 5.6327252133988166e+00,
          4.8398850590433730e-02, -1.1337513867617466e-02,
          7.4249002687408492e+00, -3.9364719539378784e-02,
          -1.0445268113767978e+00, -1.6126111290696115e-02,
          -3.1631063175516450e-02, -2.4231243901500275e+00,
          4.8718783934887565e-02, 4.1247329459905862e+00,
          -8.7090680737588161e-02, 3.1115826715850350e+00,
          2.8518661425135070e+00, -1.5075325533009762e+00,
          -3.6965512274804262e-02, -6.5460916168445585e-02,
          -5.6734258105121871e-01, -4.0200091171040078e-02,
          -3.5552023750215602e-03, -1.5769760776965802e-01,
          -8.4775445395252891e-02, -1.4983337061279706e-02,
          -6.7754540587386713e-01, 6.3645393677969064e-02,
          2.7586763716675646e+00, -3.9849410116356615e-01,
          -2.0681313419784209e+00, 1.5981254690379781e-01,
          4.3950136911294535e-01, 5.1942081842064978e+00,
          -8.5051601307309821e-02, -8.5570945799507567e-02,
          5.6949658720937864e+00, 1.3070836406113129e-01,
          -5.4868676115290169e+00, -2.2266382587649550e-01,
          2.7076920786194541e-02, 3.3250951790286434e-02,
          -5.7686758694611560e-02, 3.3217091598840112e+00,
          5.4858758276916796e-02, 2.9439604429064259e+00,
          -1.7705423822949053e+00, -2.8971936365856865e+00,
          -8.0258070602783615e-03, 1.1376547141239748e-01,
          -2.1496616778059918e-02, 4.8370475573737519e-02,
          -3.6943457054899945e-03, -2.1682561609543965e-01,
          9.2092720791000476e-02, -7.7695036776619991e-03,
          -8.5056633431402817e-01, -3.9283295043473734e-02,
          -1.5359268258475889e+00, -1.4279786768100897e-01,
          -5.8332259841147742e+00, -2.2939468417899178e-02,
          -1.1700959994568592e+00, 2.1473406123322439e-01,
          -2.2788610600942918e-02, 1.9558913606908340e-02,
          9.4487143184737938e+00, -1.0207065895652006e+00,
          2.2825976362295730e+00, 2.6312967671883269e-01,
          4.4151990724434390e-02, -3.0594344934818483e+00,
          4.9412088526354980e-02, -8.4684807852120203e-01,
          -3.2060500816829582e-02, -4.8481921601921779e-01,
          1.6533334445304126e+00, -4.1261762311239814e+00,
          5.7026973770806589e-03, 2.8223826117523226e-01,
          -2.7633079087423460e+00, -7.7737058711761065e-01,
          4.3358283275091315e-02, 4.2995199807924961e-01,
          3.1784667706067429e-02, -2.1959070375366634e-02,
          1.2265073306646461e+00, -1.5976706027887825e-03,
          1.6036108590003066e+00, 1.9018891434748583e-01,
          -6.4176992161706345e-02, 7.7802578139592377e-02,
          -6.9836938104926560e-01, 7.7157946194044911e+00,
          -1.4783149191628508e-03, -8.3758015735331787e-02,
          -1.7120501140573119e+00, 7.8112178029959523e-01,
          4.1726618175337693e+00, 4.6428662281709598e-01,
          -6.8609572192186163e-02, -6.6154106368346666e-01,
          1.3798811643981447e-02, -5.0657627491035910e+00,
          -2.7283591771743144e-02, 3.7584748413378921e-01,
          3.8046458209488767e+00, -1.0358751768767196e+00,
          -8.0970377785471059e-02, -1.9864049656737115e-01,
          1.2801515390299383e+00, 4.1349473371765533e-01,
          2.7564433761810097e-02, 2.0956751955654648e-01,
          -7.8159194423535444e-02, -1.3630276552378456e-02,
          -1.1403179314056455e+01, -6.9535643674320136e-02,
          8.5372093120346424e+00, -1.2478427887434957e+00,
          2.9836372699045444e+00, -9.3913364527545090e-02,
          7.5798950183668823e-01, -2.3700487463712867e+00,
          -6.0174505672111800e-02, 6.4397558248518394e-02,
          4.5620824594169251e+00, 6.0516070022126678e-01,
          -4.3354438571271414e+00, -1.1750298692047327e-01,
          -2.9061579540779030e-02, -3.0894049624273543e+00,
          2.6986392108938138e-02, 4.5096452007360650e+00,
          -9.2085406411744814e-04, 6.0968851192169851e+00,
          4.2376467320697921e+00, 3.1737996398473300e+00,
          1.0821075103788186e-02, -4.1280908442423986e-01,
          1.1300371959934559e+00, 4.3225886181571249e-01,
          -4.5650290072183290e-02, 7.2947583810794719e-02,
          -1.6983728250671306e-03, 7.6031596555255654e-02,
          -4.4146715320765617e+00, 1.1515113264659689e-02,
          -1.9644649043906509e-01, -1.8438660264519294e-02,
          -1.6682844211143764e+00, -6.6475956437790057e-02,
          2.5435699734594031e-01, 1.8504906402287089e+00,
          5.9142706418591233e-03, 9.2725667423301489e-02,
          2.2847483890940099e+00, 3.1517167659024703e-01,
          4.3387371775950152e-02, -2.3154551413517763e-01,
          8.8914102550331012e-03, 1.1505868325795037e+00,
          -1.8533302839786246e-02, -1.2587097433648164e+00,
          1.4765238610050805e-02, -9.8182762046508221e-01,
          -8.9903729550036349e-01, -1.6426796213330976e+00,
          -5.0702950100579146e-02, -9.1162521525985529e-02,
          -6.1189769733520216e-01, 2.6286711865039378e-02,
          5.8735637711488124e-04, -3.6821139136192982e-01,
          2.0144326872675568e-02, 1.4236008965390717e-02,
          -2.8747494200643162e+00, 1.6307320261939970e-02,
          -3.6196777919606865e-01, -8.0966566806666293e-02,
          5.9939790331094018e+00, 1.3181292744417188e-02,
          3.6558165303415280e-01, 6.2567743429018385e-01,
          -1.7109450582791556e-02, 1.2618086265143123e-02,
          1.6609981885907270e+00, -7.0686388880007367e-01,
          3.3809199399057523e+00, 2.1085877556597912e-01,
          -5.2669282541869204e-03, -1.3227675751515480e+00,
          2.6468976965765272e-02, 1.6136693784065270e+00,
          -1.3423909251408838e-02, 2.1559466016263049e+00,
          -2.2063283062483134e+00, 6.4781423859655862e-01,
          7.1283032899294496e-02, 6.2269369889679418e-02,
          -9.2151859797071778e-01, -3.0562504114476713e-01,
          3.6569350691365292e-02, 1.6155144139305566e-01,
          -1.6803818721230303e-02, -5.3744655969005718e-02,
          1.3959764765745346e+00, 5.6229547214363311e-03,
          3.0112533927556728e+00, -2.0708826954475121e-01,
          -3.6045015695252460e+00, 7.4536048060961244e-02,
          -2.0702224432315610e+00, -6.3331067960182190e-03,
          -1.4241532756046995e-03, -4.8664111614958289e-02,
          4.6307851271053586e+00, -4.0117724163985480e-01,
          -4.1186122626193622e-01, -2.6548095731411392e-01,
          -5.3173339001318702e-02, 7.7336548947244121e-01,
          1.9975769401125262e-02, 1.9640926852296736e+00,
          -9.4938274581968084e-03, -1.4375881084310791e+00,
          4.8105354095927453e+00, 2.4361490525067140e+00,
          2.5994197595706859e-02, 2.4332075501244587e-03,
          2.2905747536457660e-01, -1.5984359274256614e-02,
          -3.0785159304770889e-02, 4.7046812445338504e-01,
          3.4957413563479395e-02, 4.2173287744268192e-02,
          -1.7230328083575388e+00, -2.9658917731990343e-02,
          -1.5416447458736031e+00, 1.5035327176640743e+00,
          5.1881557681464106e+00, -4.4644247643571097e-02,
          -8.4415072261980206e-01, 2.2047501612446205e+00,
          -8.1206857406025733e-04, -4.9444883817007540e-02,
          8.1959695394684058e+00, -3.7053628730420296e-01,
          6.8689720612942038e+00, 2.1815962180483865e-02,
          1.2123492250084793e-02, 4.5648165256486868e+00,
          -4.3294998000027320e-02, -2.2372178467191723e+00,
          9.8737840199686448e-03, -4.8253982255900425e+00,
          1.0240954509576372e+00, 1.0594656908189304e+00,
          -2.0684754459780623e-02, 1.5551906523011633e-01,
          -1.2926889499791061e+00, -2.5290229644029338e-01,
          -1.9245281048209627e-03, -2.3324795598672864e-02,
          4.0973754339638159e-02, 1.3517481971360092e-03,
          6.0373376465048656e+00, -1.3633293830747728e-03,
          -4.1686700526326970e+00, 1.9730186905726679e-01,
          -2.7798375298209690e-02, -3.0798859087453379e-02,
          9.2295305454095389e-01, -5.8737147786601255e-04,
          2.7588930128362672e-02, -2.8346485934337261e-03,
          5.5986312658858157e+00, 6.9785103805069759e-01,
          9.7910511986876907e-04, 1.9013309975580833e-01,
          2.1546920815991646e-02, -1.4548118569275679e+00,
          -5.3273173546484774e-02, 1.3610105034518158e+00,
          4.4945830604243120e-02, 5.3197033870134014e+00,
          -1.1174949272250734e+00, -5.5855640221626546e+00,
          -4.5847583481056310e-02, -1.1859573156422298e-01,
          -1.4105414624458279e-01, 5.7361938670711321e-02,
          1.1374833865779291e-02, -4.8655226100348531e-01,
          -1.5810521476754415e-02, -1.0859043790106750e-02,
          -3.1749050538726866e+00, 7.7622337581029072e-02,
          3.4674997552658077e-01, 2.2637174576924701e-01,
          -3.7773029593699090e+00, -4.8945234130733331e-02,
          -2.1506302949110112e+00, 1.3015095295952066e+00,
          4.7845691687062486e-02, 5.6007714613848021e-02,
          4.6763547900973448e+00, 8.4816982329979154e-02,
          1.5541830751653340e+00, -2.5030063443942152e-01,
          6.1830891225553349e-03, 4.6612332645932841e-01,
          -4.0699717560495697e-03, 1.4884639912920923e+00,
          -8.6298057379048717e-03, 9.2512678664139270e-01,
          3.1341714015527935e+00, 1.9259376718642889e+00,
          -7.1160844752132975e-03, -3.6577907034813062e-02,
          3.6418632752509544e-01, 4.6492205967140147e-02,
          7.5200647412095633e-03, -1.2748650660327593e-01,
          -4.1388547053330740e-03, 1.3351525705776661e-03,
          -4.1808838271469231e+00, 5.6239832036024829e-03,
          1.8292300195239103e-01, -2.0945282812343136e-02,
          -1.9201502281432195e+00, -2.2310755316818079e-03,
          -1.2875683415819927e-01, -3.5530979934611242e+00,
          6.0386577218447231e-03, 1.0512983711064317e-02 ]
      - [ -4.0931677830876234e-01, -5.3487610844745770e-01,
          -1.2605040520519806e+00, 7.5114543622380980e-01,
          -5.7388224526448345e-02, -7.5328442166628073e-01,
          -2.9657817366906225e-01, -8.0348264111586909e-01,
          8.9761815563467448e-02, -7.0976622769641939e-01,
          1.3719874190019130e+00, -9.7684184420450582e-01,
          -2.6881436793357166e-01, -4.3309946923518650e-01,
          -1.4440195208413578e-01, -2.9183989976167535e-01,
          -1.0113696493846731e-02, -7.3810490777191506e-01,
          1.0027749869856509e-01, 7.6320853208834666e-02,
          -1.2761332402230710e+00, -1.1209820413923191e-01,
          1.0595400627829299e+00, 9.3465244194937380e-01,
          9.9522639246700939e-01, -4.7839949135415533e-01,
          7.7624292288045815e-01, -2.3915995607876925e+00,
          -3.3439834660408813e-02, -3.1351234884977675e-01,
          6.5888924947350924e-01 ]
