%YAML:1.0
my_nn: !!opencv-ml-ann-mlp
   layer_sizes: !!opencv-matrix
      rows: 1
      cols: 3
      dt: i
      data: [ 24, 30, 1 ]
   activation_function: GAUSSIAN
   f_param1: 5.9999999999999998e-01
   f_param2: 1.
   min_val: 5.0000000000000003e-02
   max_val: 1.
   min_val1: 2.0000000000000000e-02
   max_val1: 1.
   training_params:
      train_method: BACKPROP
      dw_scale: 1.0000000000000001e-01
      moment_scale: 1.0000000000000001e-01
      term_criteria: { epsilon:1.0000000116860974e-07, iterations:200 }
   input_scale: [ 1., 0., 1., 0., 1., 0., 1., 0., 1., 0., 1., 0., 1., 0.,
       1., 0., 1., 0., 1., 0., 1., 0., 1., 0., 1., 0., 1., 0., 1., 0.,
       1., 0., 1., 0., 1., 0., 1., 0., 1., 0., 1., 0., 1., 0., 1., 0.,
       1., 0. ]
   output_scale: [ 2.1052631578947367e+00, -1.1052631578947367e+00 ]
   inv_output_scale: [ 4.7499999999999998e-01, 5.2500000000000002e-01 ]
   weights:
      - [ 1.3052917156639960e+01, -1.3276208016870295e-01,
          1.3404971646137065e+00, 5.5903902168374757e-02,
          -2.4596276958534818e-02, 1.0931291478012881e+00,
          -1.9469926978414567e-02, -9.6288306576913352e-01,
          4.3607754869381310e-01, 3.0649429822265199e-02,
          2.9382814509374196e-02, 3.3343135188159714e+00,
          1.7836055593186051e-03, -1.7139776549385285e-01,
          6.0789754043345867e-01, -3.3953320987269497e-01,
          -6.1481593383220912e-01, 1.2284939287069034e+00,
          -2.9835914738962072e-01, 9.2256664187387727e-01,
          -1.3007992473739316e-01, -4.4632912179811239e-02,
          8.5496019319520722e-02, -4.0614519124260973e-01,
          9.3657406691035350e-01, 3.2062054425827502e-01,
          3.4478948315704799e-01, -2.9911881451556011e-01,
          4.7352018479229230e+00, 4.2594427302643817e-01,
          -5.7607156701895610e+00, -3.3482953099535202e-02,
          -2.3197504078165873e-01, 3.3628640453288658e-02,
          1.6229184878403607e-02, -3.7466507152309636e-01,
          3.0151813358384036e-03, -4.5957428297961944e-01,
          2.5018096181560090e-01, -4.7465598543089509e-03,
          -3.0040390368058146e-04, -2.5494595809710332e+00,
          5.7228614329099840e-03, -4.4649596015714971e-02,
          -7.0153168563151014e-02, -1.0085543509028818e+00,
          1.8143608173542192e+00, -8.4599577215671395e-01,
          1.4324538694725775e-01, 6.7564829255938152e-01,
          -3.7221678706842648e-02, -1.3590975686233789e-03,
          1.3335747303086448e-01, 4.5081018098021619e-02,
          -1.4469843142932695e-01, 1.0573829180961587e-01,
          -5.6541711043915965e-01, -9.2517538079859435e-02,
          3.8824993927452920e+00, 5.5560241477113192e-01,
          2.5192697901260193e+01, 3.7890620741562624e-02,
          -2.0329133796928409e+00, -1.1727295203019798e-02,
          1.2784904893610560e-01, 3.5758886739707146e-01,
          -2.7207245388719613e-02, -7.1031921129236664e-01,
          -1.6404460281438574e-01, -4.1641949564469052e-02,
          -5.7836949281446282e-02, 4.0940044713079510e-01,
          1.6664989689990886e-03, 1.3971006397035794e-02,
          -4.6775412392967919e-01, 1.2433328327161175e+00,
          -4.1709207514474843e-02, -3.4685049474442792e-01,
          -5.3510026532969068e-01, 5.2121240938251775e-04,
          -3.4382628574940434e-02, 2.0451064828003549e-02,
          -4.7631134019897892e-01, 4.9927338068457083e-01,
          -1.8482776022191301e+00, 1.1667673098563990e-02,
          6.7576924010560713e-01, -4.4579206191594285e-02,
          1.1977456048191280e+00, 1.8638338722604297e+00,
          1.3827417396342760e+01, 3.9958066981244725e-02,
          -5.3831043745256635e-01, -1.5839961953727860e-02,
          -1.9591465115531701e-02, -9.1596123204210456e-01,
          -6.6868158319590587e-02, -1.3112475528162080e+00,
          -2.2418509630284802e-01, -1.2416651065043715e-04,
          3.4964704078676537e-02, -1.2998767419407691e+00,
          -1.7716274152629431e-02, 6.7465358886253976e-02,
          -1.7596952044385231e-02, 2.3441566158589860e-01,
          -1.9201184179292630e+00, -3.6172546592588334e-01,
          -8.5102064664372956e-01, -5.8004866387569798e-02,
          2.9246756406573572e-02, -5.2006267733747296e-03,
          -1.4622389996147192e-01, 1.4527975519267175e-01,
          -7.5869457724794653e-01, -9.5336053186375086e-02,
          -7.7949453581946071e-01, 9.7568129361809960e-02,
          -2.5623670468755189e-01, -8.3730064475448251e-01,
          1.2476473693396267e+01, 2.6569333313852957e-03,
          -4.4488695294988154e-02, 6.5014851457982109e-02,
          -1.0153668258090619e-01, -3.3005384301283369e-01,
          4.1294907659903367e-02, 1.8372690687191318e+00,
          1.2973316775532900e-02, -4.2884783513185934e-02,
          1.4032954807637889e-02, -8.3184224215192148e-01,
          -3.1913695427626870e-02, 5.1396370644292033e-02,
          6.0668862671357177e-03, -3.0414478191490502e-01,
          3.3085988281074574e-01, 2.6681808068844964e-01,
          -1.4835189318544065e-01, 1.6442792549443816e-01,
          -1.6499547734926040e-02, -3.7058758196259409e-02,
          5.9257277962201586e-02, 2.0432099520670724e-01,
          -8.1024967554858962e-01, 4.6417867880476103e-02,
          -1.4438203390238848e+00, -2.2009980117307450e-02,
          -3.8892635114762060e+00, -5.7778973633228803e-01,
          6.0019206259153179e+00, 8.9454962748246880e-02,
          -5.0307089360191559e-01, 1.8613556281222028e-02,
          -7.7555304896284359e-03, -1.5696119381906870e+00,
          1.7510097501886146e-02, 2.1483087401445999e+00,
          4.3157669365003620e-02, -6.3927032306030904e-02,
          2.6622710921016139e-02, -2.3078100486785491e+00,
          6.5725838819615828e-02, 1.3771266400690177e-01,
          -1.5105127276627914e-03, -4.3769302770483742e-01,
          9.8212888952935695e-01, -1.5659934421867951e+00,
          8.0666919143430127e-01, -3.3217917033057343e-01,
          9.2031996230900859e-02, -4.2534002916757574e-02,
          2.0457705904404960e-01, 8.7391527188087209e-02,
          -8.7441282579973634e-01, -1.6259632295054649e-01,
          -1.5355303071184423e+00, 1.3182322464258467e-01,
          6.1105766024863672e-01, -1.2205569088112240e+00,
          9.1738278729673635e+00, 5.7368914416882119e-02,
          -7.6327712693705585e-01, -9.7590888561100458e-02,
          -3.5533493384440639e-03, -9.2774149275905204e-01,
          4.1604071616879275e-03, 2.4374162147371710e+00,
          -4.2021919360213447e-02, -4.2449986555533975e-02,
          2.1087851351923974e-02, 2.3220840176368518e+00,
          3.2415130667566905e-02, -5.0777953153845215e-02,
          -1.9578337393961950e-01, -5.0862487150310487e-01,
          1.9092418763335326e+00, -2.3961748226749616e-01,
          2.0987220075242713e-01, -2.4786170656709536e-01,
          6.9248758382145809e-02, -4.4526792798052627e-02,
          3.4230420463172145e-01, 2.7577433730422124e-01,
          -1.2161460993042892e+00, -1.0327032443318317e-01,
          -7.4910707962889578e-01, 8.0100676460105893e-02,
          -1.9508224334400375e+00, -6.2496475258519846e-01,
          1.0093511657117439e+01, 1.4532843260321494e-03,
          4.1643335302551648e-01, -6.2888770780827399e-02,
          -5.7958773861712439e-05, -2.2455765327504102e+00,
          -3.0367098074694666e-02, -2.5885474578886174e+00,
          -4.6732284100268895e-01, 7.6025986097076143e-02,
          -5.9419906797207857e-02, 1.1526499834917938e+00,
          -7.6582954118660701e-02, 3.5177871984140970e-02,
          5.1711158480961583e-01, 1.8416310505684537e+00,
          -6.5363923753713271e-01, 2.3214535892646881e-01,
          -7.7675818680748376e-01, -1.0963577575286199e+00,
          2.3435472125059878e-02, -6.1469757599365515e-02,
          -6.5884011168576090e-02, -4.2378047376281647e-01,
          2.7568542123746032e-01, -2.0067131249206469e-01,
          5.3147981622501650e-01, 1.4270064300899626e-01,
          1.6269643409609622e+00, 1.6814774239861012e+00,
          8.0776842517812444e+00, 9.5990688450340866e-02,
          -1.0782985016549502e+00, -6.5349953515402973e-02,
          -1.0725300375600816e-01, -9.4981030384244047e-01,
          -5.7282720229315534e-02, -3.0534817073125144e+00,
          -2.8212391146711274e-01, -1.9005827159173479e-02,
          -6.1741754342446789e-03, 2.1219042024529341e-02,
          5.3371627480637215e-02, -1.2501144981361073e-02,
          -2.5564423147239529e-01, 3.3819759240008382e+00,
          1.9414913676889454e+00, 7.0206611669494934e-01,
          -8.5689702864990802e-01, -3.5567401330612258e-01,
          1.7650067510650968e-03, 2.6369998276843717e-02,
          -2.8235340755749616e-01, 4.3499932661016166e-01,
          -8.7208617315900772e-01, 4.7278519155249865e-03,
          1.8225319967747367e+00, 1.8738352641197269e-02,
          3.4991724817889569e+00, 3.0105020178678696e+00,
          1.2853861810292203e+01, 5.1198949592503346e-02,
          4.8424312660298223e-02, -3.1029829870090200e-02,
          5.7750531658523813e-02, -1.1984153829778699e+00,
          -6.3349286821799675e-02, -4.3155213120761360e+00,
          -1.6757142890997057e-01, -5.8354197714072043e-03,
          1.0270329295589749e-02, 2.7666674141903154e+00,
          1.8698513121858048e-02, 1.0686862654550149e-02,
          5.1341319537399187e-03, -9.8383768929311621e-01,
          -4.1134164147355046e+00, -1.7126537252376677e+00,
          -2.0686075199730953e+00, 5.0290289863523463e-01,
          2.8432325893380201e-02, 8.7906742948755473e-02,
          -1.4279476830060869e-01, -1.9534763239702921e-01,
          1.0241073819220604e-01, -4.5954875846894089e-02,
          2.1101011269768959e+00, 6.9923637287494234e-02,
          1.3189744875703386e+00, 3.6643618298030550e-01,
          -1.3196419246686779e+00, 8.9239735450827917e-02,
          2.8409844789716693e-01, -3.4953228008276722e-02,
          -3.5729055754046467e-02, -2.3991660913976669e+00,
          -3.0614617835240488e-02, -3.4817551644388306e-01,
          -4.5458533928655381e-01, -5.0583283257344167e-02,
          2.7573236453712104e-02, 4.0469154841664574e+00,
          1.8686695765196285e-02, 9.3693620716252965e-02,
          1.5707447203066799e-01, 2.0293464677396722e+00,
          4.6803315471279019e+00, -3.0746988234155676e-01,
          -3.2673237483035655e-01, -1.1208341845085961e+00,
          -5.1754442231189648e-02, 2.4558985811194870e-02,
          -6.6667478341867203e-01, 4.0648277147766435e-02,
          -4.9934056179447300e-01, -1.3871579718350205e-01,
          3.2971049526058360e-01, -5.5770903178101378e-04,
          2.8650987209599457e+00, 5.5438228450112614e+00,
          5.8449780380136636e+00, -5.5578092159891965e-03,
          -4.3104631736736515e-01, 2.0502902047716150e-02,
          -3.1546885569632199e-02, -1.8134872274129035e+00,
          -4.1245638918910463e-02, -1.9738595456322168e+00,
          2.8967680352313681e-02, -4.3529280072752280e-02,
          4.6857342476805197e-03, 2.2049058836628963e+00,
          -5.6335494281888263e-03, -9.1382324493616024e-02,
          -2.4847080056131687e-01, -1.1767074258315464e+00,
          -5.2079320375507425e+00, -2.4483064191187801e-01,
          -2.2319516995151258e+00, -7.7193026633510214e-02,
          -6.7776102485410009e-02, -2.8054220104791572e-02,
          -5.2068199303284202e-01, 3.0129151661183368e-01,
          -4.9342325490500144e-01, 7.8102334790311617e-02,
          1.5476609502765659e+00, -4.2682532473133236e-02,
          6.1494695217177844e+00, 3.7958705487240861e-02,
          1.1061905652593840e+01, -3.3647743228107999e-03,
          -2.0593826437854870e+00, -8.3133061170336253e-03,
          1.7249350114676798e-01, -1.1104703271139884e+00,
          -2.7078751474936470e-02, -6.9213018722285149e+00,
          1.7252596554802135e-01, -2.0605386759727447e-02,
          -3.6947937063322840e-02, 6.0733216918560879e+00,
          1.2009081674120565e-02, -6.5998329956931140e-02,
          2.3701666743809000e-02, -3.0137382129615449e+00,
          -1.3167727958426731e+00, -1.5702125033959521e-01,
          -3.7394217367342875e-01, -8.5873339655291633e-02,
          -8.7506789998305121e-02, -7.9397481852602758e-02,
          1.2775623474043987e-01, 2.2685302376615143e-01,
          -1.5671022317604393e+00, -5.7702129924683272e-02,
          4.2925054929800597e+00, 1.2560358129902269e-01,
          3.8886047172781262e+00, 7.3710772941459612e-01,
          -4.1952023336295561e+00, -3.0756752082252946e-02,
          1.3683246031764504e-01, 3.4309147137386267e-02,
          6.3969197750396598e-02, 2.4966562041337043e-01,
          -3.5380662668450177e-02, -2.8008998872646824e+00,
          -1.8813939675748023e-01, -2.5987300222969557e-02,
          5.5919692346712943e-02, 1.0928632559296625e+00,
          4.3228478984148958e-03, -2.0308706255981307e-03,
          -3.7568922402868093e-01, 1.5832875477189530e+00,
          -1.3506167515375205e+00, 2.3049749767296261e+00,
          -7.4996711285593842e-01, 2.2355037014774987e-01,
          2.5670631618809614e-02, -2.5836552754353398e-02,
          -1.9056105762199158e-01, 3.5100575558959235e-01,
          5.5629188675995056e-01, 6.7189710072197593e-03,
          -9.0632146321518114e-01, -8.1760609999730172e-02,
          1.1523209195292385e+00, 1.2996615763155279e+00,
          -3.2200947651661385e+00, -5.9742184977318882e-02,
          1.7162506092510962e-01, 5.0565623610511513e-02,
          -1.3144146539286680e-01, 3.7580747866889530e-01,
          -1.8311775363439427e-02, 2.3856824956391303e+00,
          1.6016701738568132e-01, 4.0700011904924810e-02,
          1.1434793938940778e-02, -2.2482199204871414e-01,
          4.5229330360189939e-02, -1.7099990357120141e-02,
          -7.3396147385966143e-02, -9.3588565987170358e-02,
          2.4939719621233221e+00, -4.9344817519461048e-01,
          8.1487494681583938e-01, 3.1897177172608204e-01,
          -5.4815566342210312e-02, -8.9872172057465626e-03,
          1.7372796434170423e-01, 8.2561877422320115e-02,
          -6.0821683990023223e-01, 6.2857847014725923e-02,
          -1.9650468533210415e+00, -4.7011421685705969e-02,
          -2.0949554842792528e+00, 8.9928939465270652e-01,
          -6.1672069113184484e+00, -1.7387310125554827e-02,
          -1.3873387463793857e-01, 3.0551313435202721e-02,
          -1.1257058236162443e-01, 1.0385824237578489e+00,
          -5.4778047025741829e-02, 1.8213757534521557e+00,
          1.5244615443382015e-01, 2.6304736229724051e-02,
          -5.1412867022146862e-02, -2.2195385752875945e+00,
          5.0785062954891755e-02, 4.9475533525924160e-02,
          1.6044451755137044e-02, -9.8431052934558694e-01,
          -9.3794036920592061e-01, -7.9199495019262744e-01,
          6.4338075061680899e-01, 1.2780974349568189e-01,
          5.5594506992154999e-02, -4.4426580177278234e-02,
          2.3012482449740027e-01, 1.7879023154356388e-01,
          -6.0843345654919112e-01, -2.4884039417942198e-02,
          -2.4978275742911435e+00, 3.4702232194521072e-02,
          -2.5742527301621050e+00, -1.4238300301141633e+00,
          -5.3408188042531357e+00, 1.6082387892027230e-02,
          -3.5787612295391569e-01, 8.9462952989901850e-03,
          -2.7346949098380474e-01, 1.2212921495121236e+00,
          3.6802840984073784e-02, 1.8379025185397324e+00,
          1.3213566976217286e-01, -4.7432555508496690e-02,
          -2.8898993043927988e-03, -2.9531825611007108e+00,
          -6.7902928018542419e-02, 3.9798542609613664e-02,
          -5.5110942535726315e-01, 1.2487651452030275e+00,
          2.2744048501712166e+00, 1.4858843614118902e+00,
          7.0719285687886346e-01, 5.8685296013071542e-01,
          -3.7232114329184184e-02, 9.3767922149429639e-02,
          4.3328652668435413e-02, 6.4562786318784315e-01,
          -9.9152628255063968e-01, 1.0117094406169293e-01,
          -2.2607961056683088e+00, -1.5443815382275108e-01,
          -4.8584758921999498e+00, 8.5128577723074272e-01,
          -8.3563426934917491e+00, 4.4879111341386321e-02,
          -1.2889928846683389e+00, -3.5685516116258566e-02,
          -1.3342039025760283e-01, 1.7439417046282319e+00,
          6.5944816897127306e-02, -7.2348587855834356e-01,
          -1.2727679718656820e-01, -6.4474228522718793e-03,
          2.5835944952053800e-02, -5.6732342000512128e+00,
          -8.5656379401237298e-02, 6.8404092603894878e-02,
          -4.3065925639002317e-01, -7.9381142657780665e-02,
          -1.9464940564526614e+00, 7.4702807996129883e-01,
          -3.1358081490443716e-02, 8.8307019110869245e-02,
          4.3806543934487380e-02, 2.3681507398979194e-02,
          5.6175047729348955e-02, 4.3189188160452574e-01,
          -1.1773818186844749e+00, -4.8673170251279430e-02,
          -1.7387247561497974e+00, 1.0671724523158592e-01,
          -2.2988237192771530e+00, -9.3577054247113778e-01,
          -8.5443040405797674e+00, 1.8167091982478779e-02,
          5.3946878268434839e-01, -5.3281103609437282e-02,
          3.8994793516925579e-02, 7.4409266860429846e-01,
          6.5053427104835637e-02, 8.4934550527394492e+00,
          1.7487736927928749e-01, 1.6817152134449589e-02,
          -7.0344295801883186e-02, -3.4929101356759369e+00,
          1.5925409880023240e-02, -3.7441075056748138e-02,
          1.8625105122632535e-01, -1.2173840983442219e+00,
          4.0607596879457597e-01, -1.5335158710548575e+00,
          1.7274313292776109e+00, -1.6501332982741107e-01,
          1.1067032484409801e-01, -4.7925416273614366e-02,
          3.9058515706207914e-01, -3.1678004422230052e-02,
          -9.0948975124692333e-01, -3.5439212632334571e-02,
          -2.2792556561828614e+00, 9.9090722512030729e-02,
          -4.1012892539118644e+00, -1.2954422837221227e+00,
          -2.1513130942949736e+00, 4.0364269929284106e-03,
          1.2812351583896442e-01, 1.6312552042449892e-02,
          1.1256789421502762e-01, 1.6408160066013859e+00,
          9.1823821564333427e-02, 2.3245147123636936e+00,
          1.0347773947801919e-01, -2.9663206443470209e-02,
          2.0267737989014503e-02, -2.0143636518881722e+00,
          1.5443181383118431e-02, 4.5841094575743604e-02,
          1.6355223105279015e-01, 2.4400037543660782e-01,
          1.3044257564515689e+00, -3.6520356246240073e+00,
          1.1756033597077988e+00, 3.4058390703953390e-01,
          6.9226823296905257e-02, -5.9687977275672301e-02,
          2.3911226769744340e-01, -1.0602792188362159e-01,
          -4.0609335976904759e-01, 5.2738324032311338e-04,
          -1.9726931915303070e+00, -2.0593663354520745e-03,
          -3.2163535705610697e+00, -5.7366126411782636e-01,
          -7.8910390341623478e+00, -3.1132583101708782e-02,
          4.2457772903704331e-02, -4.0233763460616689e-02,
          1.9783373919274486e-01, 1.0165756577258620e+00,
          -3.2635519015470446e-02, 1.2939116052200357e+00,
          -3.1021785552238813e-02, -4.6537455258826251e-02,
          -4.3969230934745751e-02, -3.9707656331811019e+00,
          -4.0359130887345808e-02, 5.5376042979732282e-02,
          -2.9908591803751922e-01, -1.0754009594802201e+00,
          -9.8497743965143481e-01, -2.3820857555087640e+00,
          4.6752004332680736e-01, 1.4031817372307034e-01,
          -6.3049472596877374e-03, 5.5145998794159407e-02,
          1.9104714053258864e-01, -5.6379613808473956e-02,
          -6.1015397937574545e-01, -7.7950875450663593e-02,
          -1.5944317681930060e+00, 6.3071944370960129e-02,
          -6.7988193700876010e-01, -1.5066117149883009e+00,
          3.8116513721915206e+00, -2.9967358552968835e-04,
          8.7510581764288098e-01, 5.9309677758107041e-02,
          -1.3362803469277984e-01, 4.5473629725819842e-01,
          2.0929530000066570e-02, 1.8668666301001571e+00,
          -6.2911019458273376e-02, 5.1124764081171871e-02,
          -1.8869284997359934e-02, 3.3485058340727103e+00,
          4.2062543706043141e-03, 1.0978129079810126e-01,
          4.5915580688884641e-02, 7.9873695067822481e-01,
          2.4015392404481339e+00, -1.0786370274168964e+00,
          4.8604497006405445e-01, 1.4254221295888736e-01,
          -1.3068730536947338e-02, 1.3849685339299103e-02,
          -2.2847534549470708e-01, -6.7563508623358109e-02,
          6.9207596642409375e-01, -2.4948465106053964e-02,
          -1.0166533482128268e-01, -3.2987056629586987e-02,
          -4.8315149200880478e+00, 2.0651315961199828e+00,
          -3.5493180192681213e+00, 4.0686795158148714e-02,
          2.7270115838548801e+00, 1.5018775424289725e-04,
          -4.4356595868517000e-02, 1.4947072110089326e+00,
          3.9719437175167654e-02, 3.2284369721990624e+00,
          -4.9257041481247688e-01, 6.4169695609541597e-02,
          -1.5404250683622528e-02, -1.3519584330756567e+00,
          -4.3070055757424945e-02, 7.3962670940052114e-02,
          4.0273755288669161e-01, 1.2578132537338567e+00,
          -1.9304673765867548e+00, -4.1820400468152279e+00,
          -5.7616594555877651e-03, -7.9729115479875179e-01,
          1.1466404613122308e-01, -8.9703840388030680e-03,
          -1.5479555079434662e-01, -5.6051731083987943e-01,
          2.1251254946804647e+00, -2.1765878569508829e-01,
          2.2928138851716781e-01, 1.7865867111822586e-01,
          4.2463651688390218e+00, 5.6989307477810867e-03,
          -5.0823313576635858e+00, 7.2113247356394346e-03,
          1.8235669109829407e+00, -6.1832562757398639e-03,
          -2.1306423898937884e-02, 8.4120458452973579e-01,
          7.8240445539541376e-02, 1.8802276085825558e+00,
          -1.7394483331810248e-02, 4.8829133546167032e-02,
          9.4247034760796530e-02, -2.3965900768671347e+00,
          3.1873021965354326e-02, 6.1016872406555643e-02,
          5.8118055362054422e-01, -5.7468013554527053e-01,
          -5.1140700195983035e-01, 8.8084807713002578e-01,
          1.0820121570610002e+00, -1.3597167761829870e-01,
          1.3413358108874188e-01, 5.8281047656855524e-02,
          1.0328080554583637e-01, -7.8029712701659382e-01,
          2.2268629583405666e+00, -1.6449760106415989e-01,
          -2.3152806390352354e+00, 1.6497451442534225e-01,
          -3.6189333656768254e+00, 2.8190781917096402e-01,
          8.1008735425287561e+00, 3.2071287075272244e-02,
          -1.4317681180918615e-01, -4.0789865052088863e-02,
          2.2079735112434388e-02, 3.1472524193644255e-02,
          1.6065192588513761e-02, -3.4268175291273961e-01,
          -8.2068308201095688e-02, 1.9176718813290444e-02,
          -1.9351440451030232e-02, -3.2244093950380766e+00,
          -4.5034739955465315e-03, 3.8451021795320048e-02,
          7.0842925830964286e-03, -4.3554326913054658e-01,
          8.0005913902241432e-02, 8.3588384447035369e-01,
          6.5606811068900328e-01, -5.9158056674162784e-01,
          5.4899295020848747e-02, 3.3566987743121439e-02,
          1.8316809656534119e-01, -1.6278661031810343e-01,
          6.7358017258164893e-01, -1.1617441876558744e-01,
          -4.0982943553545654e+00, 1.4321775237473794e-01,
          -6.9042251099001772e+00, -1.9903442993560638e+00 ]
      - [ -1.6905446995794762e-01, -1.9682624636855742e-01,
          9.3728444487296381e-01, -1.3596277433886808e-01,
          5.3724066359296474e-01, -1.0675103146960456e+00,
          2.6202886350937782e-01, 1.3512351450783524e+00,
          -6.6345077829578791e-01, 1.5499307749816590e-01,
          9.8856518081868697e-02, -2.1426401827928854e+00,
          2.5245917132432051e-02, -2.9313486524824534e-01,
          7.5130285330013968e-01, -1.0071733084370338e+00,
          -1.1757742113495331e+00, 1.3402498127975127e+00,
          -8.5105153218378560e-01, -9.6842031410822593e-01,
          -2.2686910826805062e-01, 2.3358532110716812e-01,
          -8.5903407721656355e-01, 7.9241438160263233e-01,
          1.1237415325468252e+00, -4.0480425220584887e-01,
          1.6762784748262516e+00, -3.9136549259956360e-01,
          -2.1627462980549099e+00, -1.0119648627116558e+00,
          6.2303174340058487e-01 ]
