%YAML:1.0
my_nn: !!opencv-ml-ann-mlp
   layer_sizes: !!opencv-matrix
      rows: 1
      cols: 3
      dt: i
      data: [ 24, 30, 1 ]
   activation_function: SIGMOID_SYM
   f_param1: 5.9999999999999998e-01
   f_param2: 1.
   min_val: -9.4999999999999996e-01
   max_val: 9.4999999999999996e-01
   min_val1: -9.7999999999999998e-01
   max_val1: 9.7999999999999998e-01
   training_params:
      train_method: BACKPROP
      dw_scale: 1.0000000000000001e-01
      moment_scale: 1.0000000000000001e-01
      term_criteria: { epsilon:1.0000000116860974e-07, iterations:200 }
   input_scale: [ 1., 0., 1., 0., 1., 0., 1., 0., 1., 0., 1., 0., 1., 0.,
       1., 0., 1., 0., 1., 0., 1., 0., 1., 0., 1., 0., 1., 0., 1., 0.,
       1., 0., 1., 0., 1., 0., 1., 0., 1., 0., 1., 0., 1., 0., 1., 0.,
       1., 0. ]
   output_scale: [ 1.0526315789473684e+00, 0. ]
   inv_output_scale: [ 9.4999999999999996e-01, 0. ]
   weights:
      - [ 2.0986469483851172e+02, 5.6623301625573719e+00,
          -2.8774302222907009e+00, -3.9394992243213283e+00,
          3.7370478097384603e+00, 4.3058679296053972e+00,
          -5.1798759780073720e+00, 3.4621852792313312e+00,
          -3.9679022048999348e+00, -3.8297260657527286e+00,
          -3.4450529018508838e+00, -2.9492941110877759e+00,
          -2.4822926536836087e+00, 2.6172269255155340e+00,
          -3.4157621365639628e+00, -2.7681560941110992e+00,
          -3.6906638690361517e+00, 6.8337525416786056e+00,
          -3.1256976927915128e+00, 2.3391865190351604e+00,
          -2.0426383897737783e+00, -2.8779735316858424e+00,
          -2.9181247036394899e+00, -2.7225008969318214e+00,
          8.8133024657350276e+00, 2.8034808942075164e+00,
          1.0372822587910238e+00, 2.7318507079507448e+00,
          3.6265768470496140e+00, 1.3824866256745336e+00,
          1.5202552307061518e+02, -2.5161668479597967e+00,
          -2.3585333642365409e+00, -2.1443064426955307e+00,
          9.7771648561731128e-01, 3.3995557867487523e+00,
          -3.2000298130454068e+00, 2.5148792242042046e+00,
          -3.5498799403522394e+00, -2.6196812211431566e+00,
          -2.1551836302869600e+00, 1.2754203094916778e+00,
          -1.6510806925838521e+00, 2.3194644308915997e+00,
          -2.5094166991074829e+00, -2.2245779098100464e+00,
          -1.7342148123513064e+00, -6.0547152556422867e-01,
          -2.4388050341387109e+00, -1.6148014436019824e+00,
          -1.5018982830085670e+00, -2.4634319237490057e+00,
          -2.4014161620071577e+00, -2.4197299354818154e+00,
          -6.5698792223004299e+00, 1.9661175231602717e+00,
          -1.3716165337172015e+00, 2.3864742281242668e+00,
          1.8546311963337434e+00, -1.7185601907297072e+00,
          8.4961863068499511e+01, 2.6479998181661037e+00,
          -1.2141828823723453e+00, -3.0714838708940921e+00,
          4.2184557965724530e+00, 1.9756762207525862e+00,
          -2.4807462756391887e+00, 2.0921892305567455e+00,
          1.4586475298717998e+00, -2.2623118611168742e+00,
          -2.4490928349212719e+00, -6.0698267262445549e-01,
          7.4057633149345881e+00, 8.3026823193100874e-01,
          -2.1012316226239709e+00, -1.4019208485676140e+00,
          -3.5092575648483573e+00, -2.3547533690813349e+00,
          -1.7930179412301559e+00, 8.5226527528738050e-01,
          -1.0921451484184961e+00, -1.5037631311756943e+00,
          -1.3178506785686570e+00, -1.4801648369093370e+00,
          -2.9494333156439829e+00, 7.8452471196787166e-01,
          -4.9417066001537755e+00, 9.6617449425199442e-01,
          3.2461761154581930e+00, 2.4335620089309296e+00,
          3.3374304628781275e+01, 2.3143449774637692e+00,
          -6.6413481400163976e-01, -8.4556365106251263e-01,
          1.7727132572206308e+00, -1.1383906980972433e-01,
          -1.4419193990865772e-02, 6.7152201879907913e-01,
          3.9086208358133971e+00, -5.5861547086692176e-01,
          -7.9097462605297864e-01, 3.4640272306050124e-01,
          1.8336955693521582e+00, 6.0276412775171062e-01,
          -6.3298102952424384e-01, -6.5252060643120824e-01,
          -1.3906478369862585e+00, -1.7872913930046674e+00,
          -5.2570440895999360e-01, 1.0158467322081197e+00,
          -6.3862757982235374e-01, -6.8043691896683611e-01,
          -6.6695044643875789e-01, -6.9044487364790585e-01,
          -4.1946159177564546e+00, 6.6361180008503184e-01,
          1.2151655677701332e+00, 6.0831673973108691e-01,
          1.2471998292515862e+00, 2.0854441517539919e+00,
          3.8080098430685403e+01, 1.6375210950885419e+00,
          -6.8984163687630484e-01, -6.4388897866025607e-01,
          7.1499465570696930e-01, -2.4304908728801893e+00,
          -3.1373166966050631e-01, 4.5801647532966483e-01,
          -3.0567033371018133e+00, -3.4678275624121646e-01,
          -6.5266518971582999e-01, -1.1568174998236034e+00,
          -1.0833972805695367e+00, 9.3059081228914142e-01,
          -4.4055329128064941e-01, -6.7694961555713951e-01,
          -6.2383080564261051e-01, -1.0625685483957936e+00,
          -4.6990798357284352e-01, 2.5702750072907428e+00,
          -1.2378984010120908e+00, -6.9027484409496120e-01,
          -8.0209870422600071e-01, -7.1657344585838445e-01,
          -1.7583518698067597e+00, 1.0675506687871144e+00,
          4.7503983753285874e+00, 8.0994106043415814e-01,
          7.6919993974608236e-01, 3.9804020745910660e+00,
          3.4363083589697808e+01, -1.9644717616930534e+00,
          -8.2853499787029661e-01, 1.5043690105095534e-01,
          2.5408615199223739e-01, 2.6906152844610229e+00,
          1.5154660561410140e+00, -1.7648255863513575e-02,
          9.2820198206107225e+00, 2.6888478023900014e-01,
          -1.2916018182758626e-01, 8.4711383612833269e-01,
          -6.6947716463017148e-01, 1.0738507911126494e+00,
          8.3976016004515486e-02, -7.1481373147826466e-01,
          -1.9087979667190896e-01, -2.8655035796153044e-01,
          -3.5928069853049754e-01, 1.1543720327392233e+00,
          -1.2613498801132219e+00, -6.6142351540072297e-01,
          -6.6632577165489559e-01, -6.4216115719321265e-01,
          -2.0999164134136468e+00, 1.0900661782827676e+00,
          5.0332980230810147e+00, 9.2872439317810151e-01,
          4.7933658619665181e-01, 1.0442137700759717e+00,
          4.1131106530781373e+01, 1.2269187950824516e+00,
          -8.0185997690903044e-01, -7.4170787026684559e-01,
          6.6976352259410232e-01, 7.3652306552970381e-01,
          -9.1911217007402890e-01, 8.3417260853576569e-01,
          -5.4288218918204754e+00, -7.4219885120997098e-01,
          -7.5468181176859028e-01, -1.3033291296524163e+00,
          1.3725069587256098e+00, 8.8094972228503099e-01,
          -6.9155012331777455e-01, -7.0564945175447402e-01,
          -7.4967473613894586e-01, -5.1971989863202872e-01,
          -7.8590774735720015e-01, 2.3796719558712125e+00,
          -1.1166948693307985e+00, -8.0186215556735851e-01,
          -7.3765761917632477e-01, -7.9798284453452362e-01,
          4.3149692998355809e+00, 1.1054480261600381e+00,
          6.4282347613559834e+00, 7.2714737429460796e-01,
          8.1410567606816331e-01, 3.3309650651904921e+00,
          2.1894330360725696e+01, 2.2754431944152231e+00,
          -3.8950243019751929e-01, -1.1010315817622387e+00,
          2.2067719959871788e+00, 5.9069372356645617e+00,
          -3.1947545865780708e-01, 6.1111954212518871e-01,
          2.3007877609249267e-01, -4.8095984841570510e-01,
          -1.0979357429698777e+00, -9.3490851231031302e-01,
          -3.5020372524227223e+00, 1.4913816314653056e-01,
          -5.2798266743439570e-01, -2.9902612149701552e-01,
          -1.4832140104797342e+00, -6.9427233739249434e+00,
          -5.7962065341808844e-01, 3.8883427425827943e-01,
          -2.6483291609258705e-02, -4.2252025840052376e-01,
          -3.8974762259549889e-01, -4.4940028061154097e-01,
          8.6695790856722660e-02, 2.4369593065992676e-01,
          -2.9973958143514570e+00, 2.0307562291041856e-01,
          1.3393228960652861e+00, 1.0094003173606818e+00,
          2.1853745679088224e+01, 9.7786902459946905e+00,
          -2.7970193907857499e-01, -1.9449178257376916e+00,
          4.1371602500660494e+00, 2.4053751871514479e+00,
          -5.3551561350927790e-01, 1.1281198846073157e+00,
          1.0217238502570497e+01, -9.0610251254211771e-01,
          -1.5710286746697024e+00, 1.9903578933502799e+00,
          1.6489820942425055e+00, -3.3739591880290043e-01,
          -1.0441329994498167e+00, -2.7218185286813712e-01,
          -2.7888298340236704e+00, -9.2856336338680681e+00,
          -8.9484410525413194e-01, -1.2317253920174789e+00,
          3.6658897239179267e-01, -4.3222396025573800e-01,
          -3.2749375000743663e-01, -3.8686823566369888e-01,
          1.4384057682964990e+00, -4.6025667937963616e-01,
          -2.9689278196740423e+00, 5.0617099614170803e-02,
          2.4506228777934616e+00, -2.8157604812038213e+00,
          2.8665265621761954e+01, 1.1587637625010604e+01,
          -4.8395726019080304e-01, -1.8956025270830805e+00,
          3.5872118197000504e+00, 3.3812725849620491e+00,
          -1.8246617628215398e+00, 1.2349539736416217e+00,
          -1.3428816054005553e+01, -1.1545124934376736e+00,
          -1.7150767920908481e+00, 2.1237922596896003e-01,
          -3.6064694791751778e-01, 2.8924399289254370e-02,
          -1.0646868039853910e+00, -4.0982486807199109e-01,
          -2.5602543665049051e+00, -4.2371916671283136e+00,
          -1.0018300573748289e+00, -2.1192484520024371e+00,
          3.3647185747768871e-01, -6.5501777989762222e-01,
          -4.3593913452655492e-01, -5.4289851757830199e-01,
          -1.5310511980591379e-01, 1.3190480991690287e-01,
          -1.8282058580770288e+00, 2.1322444805717991e-01,
          1.9824798937699841e+00, -3.7988513692251273e+00,
          3.9631674664390971e+01, 2.5846503866696917e+00,
          -3.8996445842686539e-01, -1.6819739624650583e+00,
          3.1086625664291341e+00, 9.3361612224419108e+00,
          -5.7303625415126458e-01, 1.0767436975637292e+00,
          7.6309953287614549e+00, -1.0906999775099546e+00,
          -1.4936420679916387e+00, 1.8844337238088871e+00,
          -1.9456393731649653e+00, 8.1957966995188855e-02,
          -1.1281306461978091e+00, -5.2690938777293428e-01,
          -2.2331761337661451e+00, -5.1007974438899790e+00,
          -9.4970465704255136e-01, 6.7277171489588283e-01,
          4.1669006812391211e-02, -6.1862297092505025e-01,
          -4.6206773120281075e-01, -5.5781051071769616e-01,
          9.9069050030223664e+00, 5.0552905675921916e-03,
          5.1737190613043307e+00, 3.0970909927127627e-01,
          2.0155531058475260e+00, 1.6052136559449453e+00,
          4.8019166955142765e+01, -2.8060615528355615e+00,
          -8.7867010964623415e-01, -1.4172774423909886e+00,
          1.5155513278292578e+00, 1.6687816784517334e+01,
          -2.2718824588352837e+00, 1.2773940140279445e+00,
          -4.9343131720623035e+00, -1.3698217988212735e+00,
          -1.3313411820441838e+00, -4.7619135450598660e-01,
          -5.1054547571045306e-01, 7.3196773164744444e-01,
          -1.3664587345559511e+00, -7.1729045665779245e-01,
          -1.4052235653266951e+00, -5.0615408245375004e+00,
          -1.0672971897732737e+00, -2.6064027313152915e-01,
          -1.5030627569225985e-01, -8.8616642569958048e-01,
          -7.5131512522256005e-01, -8.3228537795633029e-01,
          1.6757812365259199e+00, 7.5691435223109904e-01,
          1.5602938736974259e+00, 7.7909043459070948e-01,
          1.1941946532656909e+00, -1.4532072334609103e+00,
          2.1329601262960775e+01, 3.2408014971452661e+00,
          -2.4639681060653060e-01, -2.1653110565598443e+00,
          3.3420188579905425e+00, 1.1770790479414590e+01,
          -1.8530885566749715e+00, 1.4380670164985072e+00,
          -7.0964032898967639e+00, -1.3676515827234164e+00,
          -1.9276446075727269e+00, 8.1711735734792179e-02,
          3.9069049436961274e+00, -5.0043847783186335e-01,
          -1.2892410400154610e+00, -2.3333353925905634e-01,
          -2.6077835712946587e+00, -2.4115465085000851e+00,
          -1.1138634492597543e+00, -9.1660145792303171e-01,
          9.1607771080617995e-01, -5.7080341940019552e-01,
          -2.6213524354334167e-01, -4.0220347454436917e-01,
          6.4758747370363716e+00, -4.3028171280367639e-01,
          -6.7094106611772153e+00, -8.4192793986587813e-02,
          2.1149746170997168e+00, -2.2939689748965708e-01,
          1.0840917044412768e+02, 1.4008135035445285e+01,
          -1.1335231127852072e+00, -2.4608544017802272e+00,
          4.7455769753142425e+00, -4.5411419374130855e+00,
          -7.2133685948636139e-01, 1.6630421996294613e+00,
          2.9983871230722130e+00, -1.5249800500113462e+00,
          -2.2744409038583093e+00, 1.6748739527642638e+00,
          6.7563256891904491e+00, 9.1517947906359032e-01,
          -1.6276241197816375e+00, -1.3805709496587792e+00,
          -3.1919310070281752e+00, 8.2884448555860910e+00,
          -1.6824799843774658e+00, -5.1463062794621173e-01,
          -1.2206376646521717e+00, -1.3735498123414962e+00,
          -1.3054732720316864e+00, -1.4421114043112153e+00,
          -4.3069014553061908e+00, 3.5393535985659785e-01,
          -2.0521335666843106e+00, 1.0405917956067727e+00,
          2.8650032751617447e+00, -1.0542466155248931e+00,
          4.6086550361631417e+01, 3.2181063055627934e+00,
          -6.4301770545930792e-01, -1.3902884515878761e-01,
          3.1989033482648610e-01, -1.5593994880467790e+00,
          2.0415586267886837e-01, 1.8410298063305786e-01,
          -4.5890980976319806e-01, -1.6224517157709392e-01,
          -3.0681823701576816e-01, -5.1440842904654804e-01,
          -1.4673650532814242e+00, 9.6955291782724529e-01,
          -2.6419869560997888e-01, -7.5921815131124004e-01,
          -2.1915181813243523e-01, 6.6680283294040974e+00,
          -3.8384371381975302e-01, 2.5221830301726684e+00,
          -1.4707613183906940e+00, -5.4829062719859156e-01,
          -6.4637861441624667e-01, -6.2625730712396677e-01,
          4.9004897375211067e+00, 1.0231689867972675e+00,
          3.2139950249819482e+00, 8.0535857356840168e-01,
          3.3265664235237674e-01, 3.6387397451291021e+00,
          4.1963631646628755e+01, 3.0778235533024638e+00,
          -7.0892073160911850e-01, 2.0145618708403279e-01,
          -2.4171451945465175e-01, -7.6488049961109705e-01,
          7.2310055799551487e-01, -2.4219076727737498e-02,
          -2.7856215710306498e+00, 2.2345280955617919e-01,
          -1.0867008176676610e-01, 2.3737972049631689e-01,
          1.9548292864119190e+00, 1.2923171933251958e+00,
          7.5751910606352515e-02, -6.8377664751257516e-01,
          1.6072864389056124e-01, 6.4860226180949185e+00,
          -2.5670746919612963e-01, 2.4266160352176742e+00,
          -1.6223119081048338e+00, -4.8181295434975713e-01,
          -6.3891567535617155e-01, -5.7737769401961325e-01,
          -2.0788011909221620e+00, 1.1479956903409880e+00,
          2.7160440961121974e+00, 8.9860209998780172e-01,
          1.0582270475378875e-02, 4.2055224118868599e+00,
          5.0510997951831818e+01, 6.5633497897357129e+00,
          -8.4844518340997110e-01, -3.2585116076521214e-01,
          5.3790939279227590e-01, -8.5343124445288243e+00,
          -2.7067995122647298e-01, 3.9811939689440956e-01,
          -8.4807801575267239e-02, -4.1599170768377469e-01,
          -3.8738708339103339e-01, 1.1976681777092870e+00,
          5.4483090390729245e+00, 1.1112588350393677e+00,
          -3.5299038229701812e-01, -8.3768898181791163e-01,
          -2.9249717135635522e-01, 6.7117605448581728e+00,
          -5.1191613500004041e-01, 2.5316983312949142e+00,
          -1.5376142346505077e+00, -7.3651797020700094e-01,
          -7.8503620118267647e-01, -6.9879723395440452e-01,
          -1.3551701480561271e+00, 1.2693719704202564e+00,
          9.4456023922931074e+00, 9.8170352863955113e-01,
          4.3362673577444355e-01, 2.8493394292423240e+00,
          4.3830187752020414e+01, 5.0990436546527729e+00,
          -5.9377860577725861e-01, -3.2877301646029777e-01,
          4.4452170588885276e-01, -3.6735431928392361e+00,
          5.3225605934281062e-01, 3.4272250372267654e-01,
          -8.4149104889355320e-01, -3.4182251162435021e-02,
          -3.9504510749476557e-01, 2.1326398968506100e+00,
          4.6741154685552164e+00, 1.0098694928398015e+00,
          -2.5750659992049696e-01, -6.2895682385922513e-01,
          -4.1539193928254364e-01, 4.8486120038161928e+00,
          -3.1180104239385903e-01, 1.6953817148782113e+00,
          -1.2651919663694418e+00, -5.8497070414103847e-01,
          -5.6892757937183214e-01, -6.0032988656981945e-01,
          -9.7665363937468079e+00, 8.2850318493706365e-01,
          5.2669342828459005e+00, 7.2927997474909734e-01,
          4.8832524863970456e-01, 3.2312973840295931e+00,
          3.7359153684921708e+01, -3.8554160335094347e+00,
          -8.2599693720589418e-01, 1.3580941161577000e+00,
          -2.3728031440649833e+00, -2.7847993368004902e+00,
          1.9516862972096631e+00, -7.2374669667444180e-01,
          1.2571721591717744e+00, 9.1124388017750879e-01,
          7.1465817121562059e-01, -2.3036447778810536e+00,
          1.7250583980001807e-01, 1.6624576585080397e+00,
          7.7462010196955633e-01, -5.7619536452073883e-01,
          1.6677466078248124e+00, 9.2078621111638306e+00,
          2.2737440776901172e-01, 5.2233783652536321e+00,
          -2.1968913257818667e+00, -3.6851455311402181e-01,
          -5.9160822557470671e-01, -4.2214649620294686e-01,
          -5.6004048559676720e+00, 1.8576208326152712e+00,
          9.9567960156624391e+00, 1.2318054195478780e+00,
          -1.2475745831656713e+00, 9.1876120953837574e+00,
          1.7820960172231192e+01, -2.9553001781594429e-01,
          -7.3205038353280949e-01, 4.4854277698622741e-01,
          -7.8302314781433713e-01, -2.0183120700497619e+00,
          5.0001823981086413e-01, -1.6213544221038198e-01,
          -2.3646416520957048e+00, 2.0898059629806451e-01,
          1.9724686045721068e-01, -3.1802627887059232e+00,
          -4.7033986296318675e+00, 1.1188731630933630e+00,
          8.7650563876746107e-02, -5.5780167309802453e-01,
          6.1134483433779341e-01, 7.7662482072018368e-01,
          -8.8778110398123139e-02, 1.9044757622390018e+00,
          -1.4680522177707520e+00, -4.7147768948661040e-01,
          -5.9921263720274631e-01, -5.8862667290528348e-01,
          1.1860379108382815e+00, 1.5705372194698071e+00,
          7.0827121538970381e+00, 9.0298060697986304e-01,
          -4.2213979288144132e-01, 2.7464344835442365e+00,
          1.9309484581919882e+01, 9.0363603207810994e-01,
          -6.3514665943864390e-01, 1.0476045466545687e-01,
          -1.1786609708518068e-01, 5.8511495563757006e+00,
          7.6415463443203124e-01, -1.5250337179564127e-01,
          -1.5142048181090491e+00, 2.6965167557278186e-01,
          -4.4069995973147418e-02, -9.7728492381757293e-01,
          2.7918147640623321e+00, 1.0816373178442542e+00,
          8.1678674069056795e-02, -5.3584603826067867e-01,
          1.0070847550089033e-01, 4.5153699309607722e+00,
          -8.0038769169652829e-02, 6.5127704097502448e-01,
          -1.1157532557403507e+00, -5.2411167677289894e-01,
          -4.7096518052917624e-01, -4.4419546349273892e-01,
          -1.3585504099231258e+01, 1.4347167593607149e+00,
          7.3935828911367913e+00, 8.3372413441404558e-01,
          -7.3245500092334173e-02, 1.0909441103387303e+00,
          4.6280131801232876e+01, 1.5573476869522260e+00,
          -7.9713232644139831e-01, -8.2014603673896280e-01,
          1.3284067826918009e+00, -6.4325185426177827e+00,
          -6.7815807699222197e-01, 6.6328415502667515e-01,
          -1.1731325807303286e+00, -5.8428369999895624e-01,
          -8.5360814025948395e-01, -2.3824224056832000e+00,
          -1.2713344053456828e+00, 8.1058028004396554e-01,
          -6.5737332138736393e-01, -8.8220734520924038e-01,
          -1.0801370252170879e+00, -5.2754259218761801e-01,
          -6.2957664431278382e-01, 2.8021651469747555e+00,
          -1.1831068008778052e+00, -7.5518629245644997e-01,
          -8.3479132550628898e-01, -7.1730189013506462e-01,
          1.1778953118298380e+01, 9.9552633872609242e-01,
          8.9467203159449795e+00, 7.4619941800411849e-01,
          9.6339422240481709e-01, 3.3704564624147397e+00,
          4.0790401890193174e+01, 5.9354555459971268e+00,
          -9.6488363072469141e-01, -2.0791541268926389e-01,
          1.3577698463402592e+00, 1.4120224783685630e+01,
          1.3458892584524638e+00, 3.3364826236445683e-02,
          6.0441889031584024e+00, 2.7874386861016875e-01,
          -3.4800911155103187e-01, -1.7453142592899755e+00,
          -2.0069945936281478e+01, 1.3421178435093513e+00,
          -6.3145238202416118e-02, -8.0277817421383446e-01,
          -6.7963077477663636e-01, -6.1076361828686010e-01,
          -3.3803057215295795e-01, -5.9493122879970495e-01,
          -8.2299008204127633e-01, -6.6797715739559493e-01,
          -7.8966413943680980e-01, -6.2368959576294913e-01,
          -8.4661266342411565e+00, 1.5207087393642154e+00,
          8.6744387689272937e+00, 1.1164045565269258e+00,
          5.9868625980739831e-01, -2.3127362891936456e+00,
          3.2077757391925850e+01, 1.9605697709549670e+00,
          -6.3537110000868213e-01, 6.1433619608437984e-01,
          -2.7234203105654586e-01, -4.0536744926471950e+00,
          1.5429129743480807e+00, -3.2375923033760351e-01,
          4.2515713075775334e+00, 6.2024246721720677e-01,
          2.9827658795461176e-01, -5.9543134249678706e+00,
          -1.5012864916115252e+01, 1.2002793074387639e+00,
          3.3761297608517638e-01, -4.9718191178311738e-01,
          4.3821721067769004e-01, 4.3181213759338615e+00,
          2.3289906508012423e-02, 2.0441071374509048e+00,
          -1.4297484392129802e+00, -3.9843220822702785e-01,
          -5.8999383871306410e-01, -4.2168407463956403e-01,
          -1.5634854744313968e+00, 1.5604532358740975e+00,
          -1.8716528123223330e+00, 9.8460456588603507e-01,
          -3.3358609265601430e-01, 2.3583946871060113e+00,
          3.3599163745283602e+02, -4.1729145054479106e+00,
          -5.2171090588022997e+00, -4.5865219289499626e+00,
          3.3006239133495154e+00, -1.1420842842420670e+01,
          -4.6504222696070467e+00, 5.1553739653195061e+00,
          -5.3614335432351439e+00, -5.2039629061091315e+00,
          -4.8455227776275880e+00, -4.5741544537250443e+00,
          -5.9122142751241018e+00, 5.0604827460251389e+00,
          -5.2273155232668174e+00, -5.2933770944547680e+00,
          -4.1621921977353358e+00, -8.0035492878539074e+00,
          -5.2569691401623011e+00, 3.0750846450767866e+00,
          -5.1613979144622819e+00, -5.2380955986776891e+00,
          -5.2299037108792295e+00, -5.3031802331204894e+00,
          -2.3903834112812312e+00, 4.8655914363357562e+00,
          3.4709870313358671e-01, 5.2307744228190147e+00,
          4.2857292742573243e+00, 1.0860626964788700e+00 ]
      - [ 4.8076866350523345e-01, -1.1914038210377278e+01,
          -4.0803126370355319e-01, 3.0966419016873536e+00,
          -5.1466219937233246e+00, -4.4390168526284981e+00,
          3.4619089705666983e+00, -1.8282966032940497e+00,
          5.8998825173885869e+00, 2.1630185700722171e+00,
          2.2745614097328821e+00, -4.7278643206239854e+00,
          -8.5749948869683976e+00, 1.5743879341570510e+00,
          1.8101615539040927e+00, 5.5550702979947256e-02,
          3.8341775943920759e+00, 2.9667121096975935e+00,
          1.1782778889988803e+00, 5.2227758828643607e+00,
          -1.6018599161850868e+00, 1.5623983868687824e-01,
          -5.4289074952246733e-02, 2.2877564180234428e-01,
          -3.3495473098956206e+00, 2.0626436185562538e+00,
          8.7456680160068139e+00, 9.4194654273733502e-01,
          -3.3249003057238022e+00, 7.0282113404769833e+00,
          3.3365404773949043e+00 ]
