%YAML:1.0
my_nn: !!opencv-ml-ann-mlp
   layer_sizes: !!opencv-matrix
      rows: 1
      cols: 3
      dt: i
      data: [ 24, 30, 1 ]
   activation_function: GAUSSIAN
   f_param1: 5.9999999999999998e-01
   f_param2: 1.
   min_val: 5.0000000000000003e-02
   max_val: 1.
   min_val1: 2.0000000000000000e-02
   max_val1: 1.
   training_params:
      train_method: BACKPROP
      dw_scale: 1.0000000000000001e-01
      moment_scale: 1.0000000000000001e-01
      term_criteria: { epsilon:1.0000000116860974e-07, iterations:200 }
   input_scale: [ 1., 0., 1., 0., 1., 0., 1., 0., 1., 0., 1., 0., 1., 0.,
       1., 0., 1., 0., 1., 0., 1., 0., 1., 0., 1., 0., 1., 0., 1., 0.,
       1., 0., 1., 0., 1., 0., 1., 0., 1., 0., 1., 0., 1., 0., 1., 0.,
       1., 0. ]
   output_scale: [ 2.1052631578947367e+00, -1.1052631578947367e+00 ]
   inv_output_scale: [ 4.7499999999999998e-01, 5.2500000000000002e-01 ]
   weights:
      - [ 1.1126464323287828e+00, -1.1715298514747017e+00,
          -5.7247195560185260e-01, -6.8807933410750766e-01,
          2.7654982326383643e-01, -4.4685100465170535e-01,
          5.6957739440001842e-01, -1.6911676910054543e-01,
          6.4271199868228368e-01, -6.8268515398854235e-01,
          -7.4530656537110596e-01, 7.3772384889954556e-01,
          1.7133606169518575e-01, 1.1388264099216271e-02,
          3.7910563579936946e-01, 5.5124559201246026e-01,
          -5.9709008757367943e-01, 7.4680581782704980e-01,
          4.1439540569568883e-01, -6.9299777824721986e-01,
          2.3119278798492926e-01, 1.3074032926498620e+00,
          2.1140753742782764e-01, 9.1092811056067657e-01,
          -7.3690265229210672e-01, -5.7034998128331749e-01,
          1.0454486459745527e-01, 7.4477301593251932e-01,
          -6.7199089935052847e-01, 4.1092273756541542e-01,
          2.4498076969436267e+00, 2.1499670992045913e-01,
          6.3653511985750200e-01, -4.4132111086438547e-01,
          6.9282575443005390e-01, -2.6722615908412171e+00,
          6.3059875728540982e-01, -7.1583700979627385e-01,
          5.5883804853362662e-01, -4.2288268105488747e-01,
          -4.4471562702622025e-01, 3.8613730294985621e-01,
          9.1353784740869481e-01, -1.3655572212448286e-01,
          6.2056766892309190e-01, 5.2340138495219546e-01,
          -6.4294298785717174e-01, 3.6752771375950399e-01,
          8.9590734326396193e-02, -4.4467145759787147e-01,
          8.5850355834127479e-01, -3.0640405604113137e+00,
          7.2664770043280924e-01, 1.8149907821345246e+00,
          -4.4623785868698451e-01, -5.1309278582769990e-01,
          8.0467299054505781e-01, -1.6429515975547804e+00,
          -4.2567116885556844e-01, 6.6276272900647626e-01,
          -3.4819441377369813e+00, 2.6457649627810381e-01,
          4.6621569647148070e-01, 3.2963341355178477e-01,
          -7.2222510567544043e-02, -2.4800772519792461e-01,
          -3.7203330276328805e-01, 1.7630393911737468e-02,
          -3.2955584641764391e-01, 3.1611130850369890e-01,
          3.3617149820977155e-01, -3.2133140200557186e-01,
          -1.6219481113984033e-01, 3.0213026904060216e-02,
          -1.2956087610728836e-01, -3.8507230624217093e-01,
          7.2520933384396635e-01, -3.7219214927033556e-01,
          -2.7567221597529418e-01, 3.4529698175763596e-01,
          -2.9188102028924745e-01, 4.0002916916422976e-01,
          5.0397071604385661e-02, 5.5541775607086352e-01,
          2.9693760988588158e-01, 3.0452595548538164e-01,
          -1.6684143172868780e-02, 1.7350534751583360e-01,
          3.2951550442482358e-01, -1.4639325335711509e-01,
          -1.3489512915395949e+00, 5.1906708803118029e-01,
          4.1581409096859234e-01, 3.8343242829044238e-01,
          -1.4992330741242013e-01, -4.6572361465047657e-01,
          -1.8273711541889823e-01, 3.2985436389918528e-02,
          -3.4776277087223528e-01, 4.2031155291819006e-01,
          4.0817908039755374e-01, -3.9790483098270457e-01,
          -7.0977852373030115e-02, 4.5849440730027349e-02,
          -3.0999392477653126e-01, -3.6265025845355542e-01,
          5.3477861222641410e-01, -4.2061377212223783e-01,
          -2.7337448186484375e-01, 4.2676357116529018e-01,
          5.2839523804655156e-03, -4.0770216006905891e-01,
          -2.0929173805759391e-01, -6.9173139052591939e-02,
          4.5464584064124869e-01, 3.3348013599837878e-01,
          -1.0920338174167379e-01, -3.5843240509202995e-01,
          4.3981808010818224e-01, -1.4813778246396347e-01,
          -1.3832874469787155e+00, 5.9471006774903856e-01,
          2.5727220941251711e-01, 5.3811974203616364e-01,
          -3.7826489528658569e-01, 9.1432147276137810e-01,
          -6.9398312463026157e-01, 3.6727121549365094e-01,
          -4.8048934798633897e-01, 3.2240326194068653e-01,
          5.2534975018646513e-01, -4.9391182832403951e-01,
          -6.0442145488057220e-01, 5.4370249866213839e-02,
          -3.9564296675711058e-01, -4.2570862305840024e-01,
          9.7855809824392015e-01, -5.3902529385487352e-01,
          -2.2991262787358971e-01, 5.1125998799051231e-01,
          -7.6819355524759259e-01, 1.6894732885181873e+00,
          -3.8297397006045319e-01, -9.1399988006727051e-01,
          4.3321098815897369e-01, 4.3752573379490678e-01,
          -4.5845113063379100e-01, 1.1279921848019627e+00,
          3.9258339435372763e-01, -4.4461987583198292e-01,
          -7.9541852561299398e-01, 4.4322822465193679e-01,
          3.4962455583730540e-01, 4.8753655102345544e-01,
          -2.6317899710821363e-01, -6.4450403982124616e-01,
          -1.1924866305281603e-01, 2.2572305913292068e-01,
          -2.4554565891748140e-01, 4.7266271067689913e-01,
          4.6789691906248887e-01, -4.3837759015429129e-01,
          9.8763906173453250e-02, -1.1519738357428951e-02,
          -2.8695988121122118e-01, -3.7719273279364252e-01,
          2.0019038243936671e-01, -3.8844777468530561e-01,
          -2.7825411386777538e-01, 3.9527865874871237e-01,
          4.7160145084078495e-02, -1.0532177071951601e+00,
          -2.9236467389510196e-01, 1.8585627840098179e-02,
          4.6535835150661720e-01, 3.7038215339557823e-01,
          -1.5427126770286906e-01, -5.8433380550022773e-01,
          4.9580379482580911e-01, -2.8516402320927520e-01,
          -8.0976810558172108e-01, 9.2264046486181128e-01,
          2.4055706197230431e-01, 6.9843949037081698e-01,
          -7.4601670045558088e-01, 2.2326917667865414e+00,
          -1.2153332686826614e+00, 7.6453005000144758e-01,
          -9.3345276985743164e-01, 5.1508438665982648e-01,
          4.9499878657770596e-01, -5.9230086995731346e-01,
          -1.4147412452096082e+00, 1.5882902736706700e-02,
          -5.5273237285958599e-01, -5.6529092414866533e-01,
          1.6256717406669186e+00, -6.0812211733189403e-01,
          -3.4322678287508318e-01, 5.5114051419223486e-01,
          -1.3628338100310722e+00, 3.6076288254349165e+00,
          -6.1691003235609765e-01, -2.1120761082547546e+00,
          6.3309401784648978e-01, 6.0144958627301515e-01,
          -9.8586905361565813e-01, 2.4584549469100403e+00,
          5.3853281769650674e-01, -7.9946585900951039e-01,
          -2.7078474633321237e-01, 3.3271985681503941e-01,
          -7.6583959235228344e-02, 4.2623618293406956e-01,
          -7.3794045802880504e-01, 1.4354569835298843e+00,
          -6.8904479695789622e-01, 6.8986874111039331e-01,
          -5.4890931005620169e-01, 4.5894029937633379e-01,
          3.8108229985824316e-01, -4.7908949390633476e-01,
          -7.1732718198216672e-01, 5.9545537708913174e-02,
          -5.0568249737840043e-01, -5.9457949544478839e-01,
          2.4305809755210978e-01, -4.9609526963716394e-01,
          -2.7683216906622565e-01, 5.2522805796652527e-01,
          -6.9585212511578121e-01, 1.4637691693475174e+00,
          -5.6935216964544122e-01, -1.1265871252717787e+00,
          4.6909178956680742e-01, 6.1943987612971196e-01,
          -6.4589937786902574e-01, 1.1653740949365523e+00,
          5.1088168781356613e-01, -6.5647600601548783e-01,
          1.9360682761789272e+00, 1.8744423229914459e-01,
          -2.4444339167091639e-01, 3.4735356443537790e-01,
          -3.2733466457274896e-01, 6.2945096859619354e-01,
          -3.3900083665564945e-01, 3.6511920798063452e-01,
          -3.7269140926247574e-01, 3.5213395218753080e-01,
          3.4906466144185744e-01, -3.4368916671717203e-01,
          -5.0099846427594175e-01, 4.6420347272438031e-02,
          -4.0513864962390583e-01, -3.3083169130058132e-01,
          -7.2231940065273142e-02, -2.5812296670018436e-01,
          -1.0376442871059419e-01, 2.9499358396082209e-01,
          -1.3707081090361906e-01, 1.0148441024194123e-01,
          -4.5758348389931586e-01, -1.2561348340979328e+00,
          2.9858678450078019e-01, 4.2298557116152968e-01,
          -4.4015308225872773e-01, 3.6662692431318239e-01,
          2.9159530848173726e-01, -3.9403379534476263e-01,
          1.3523110610209745e+00, 8.1482900513805939e-02,
          -2.0047957973038508e-01, 2.0420347784354764e-01,
          -3.3690309729219159e-01, 1.0343134856402505e+00,
          -4.5710714807130043e-01, 3.2425535682122153e-01,
          -2.8826820047534391e-01, 1.9074859832691363e-01,
          1.6337641662347566e-01, -1.9421206347987366e-01,
          -5.2493037328477388e-01, 7.9519187048266118e-02,
          -2.8719270992506202e-01, -1.9188049287848755e-01,
          6.6771011228319258e-02, -1.6117857360304749e-01,
          -3.2998840464361377e-02, 2.1415395616971697e-01,
          -4.8989293267773248e-01, 1.4584821848978435e+00,
          -3.8300039652427115e-01, -1.1645505463497150e+00,
          2.1775472316233643e-01, 2.4790053818698624e-01,
          -3.8051240370440903e-01, 9.8336153765636758e-01,
          3.0375807874415156e-01, -2.9980728582049493e-01,
          2.1430554879672905e+00, 9.4076740436737881e-03,
          -3.8668085042524247e-01, 2.7409761713387787e-01,
          -6.4477632473984647e-01, 1.3635806846059211e+00,
          -3.5628046342127456e-01, 7.5651213514094251e-01,
          -4.2391609545463588e-01, 1.9460607185270182e-01,
          2.7466811177325423e-01, -1.8284938736125708e-01,
          -5.8157242552675226e-01, 2.8207960167746966e-02,
          -3.7694445568815077e-01, -4.6909582372522185e-01,
          -2.2210909931269815e-01, -2.4952382520022137e-01,
          -1.1982472095269048e-01, 4.0260598405682851e-01,
          -2.5775939350641680e-01, 7.1319837867032343e-01,
          -5.5413939491904807e-01, -1.5675998309966568e+00,
          3.8270206497643855e-01, 4.8560228385392779e-01,
          -7.0062929622463577e-01, 1.0349464773524168e+00,
          2.7163673856633380e-01, -5.9666687095164417e-01,
          1.6727840322604983e+00, -3.8015436316545265e-03,
          3.8359290423834735e-01, -1.3103721321692258e-01,
          3.7070908218434201e-01, -1.6223761142373034e+00,
          9.0941984189628094e-02, -4.8671106266030156e-01,
          4.0899141896282479e-02, 2.6907242487496409e-02,
          -6.2112636852760042e-03, -7.2567475736338956e-03,
          3.6712064000804268e-01, -5.4303227589403966e-02,
          2.4155176756818880e-01, 1.6099046569655068e-01,
          2.4923959597646020e-01, 1.1753357122451485e-01,
          1.2066735729848785e-01, -1.2041679307079295e-01,
          8.8391873841244820e-02, 5.3226831050280643e-02,
          2.4336386164406992e-01, 4.6512416497112763e-01,
          -1.0567677305668532e-01, -1.2445756490408282e-01,
          4.2135572674563698e-01, -4.0412115858014219e-01,
          -1.1815647056471325e-01, 1.9542064137515283e-01,
          9.2359375934450827e-01, 2.2989656894948962e-01,
          1.7062269789676129e-01, 1.6695197443602949e-01,
          -4.5903804181086062e-02, 3.1272981843357056e-02,
          -2.1004780922179508e-01, 8.1569013194825665e-02,
          -1.3732701108467668e-01, 1.0494126487531770e-01,
          5.6844855876833682e-02, -1.4241520892400597e-01,
          -1.4758370738934884e-01, 2.9895637599245975e-02,
          -1.1659321677871887e-01, -4.4333796148685732e-02,
          3.7766175278174835e-01, -2.0238117813902867e-01,
          -9.9203019385286792e-02, 1.2644225614809179e-01,
          -3.6667994780126181e-02, -4.1802888490033585e-01,
          -1.1061403283865831e-01, -7.9349612212122844e-01,
          1.5340159403860487e-01, 1.2433593006112399e-01,
          -1.1001767539999584e-01, -5.7082874163011214e-02,
          1.7368299544305596e-01, -1.0624122122391039e-01,
          2.9993747995529159e+00, -1.0515183276811770e+00,
          -3.7982294995607860e-02, -1.1380498252856786e+00,
          1.4190953460076696e+00, -2.0698204983700528e+00,
          1.2691766577351229e+00, -1.3870575996978822e+00,
          1.1828647876978908e+00, -1.2625317190463525e+00,
          -1.2068399322184993e+00, 1.2680299868023928e+00,
          1.2577840570425292e+00, -6.5895045786936557e-02,
          1.1837380951455374e+00, 1.0431036673023679e+00,
          -1.1601578613681705e+00, 1.1451844950558077e+00,
          5.0676722667098273e-01, -1.2610680139515151e+00,
          1.3166647933410360e+00, -2.8061272218973454e+00,
          1.3032435458423131e+00, 7.7611349337871616e-01,
          -1.2545505383597926e+00, -1.2272072691217428e+00,
          1.2748401576827308e+00, -1.9228728177941845e+00,
          -1.2453959142697157e+00, 1.3832912425975781e+00,
          1.5152389274479365e+00, -2.6380561116919499e-01,
          1.1073987304779552e-01, -2.9687587456722925e-01,
          3.6962074086660190e-01, -7.2904706696252508e-01,
          2.8234822503767226e-01, -4.4323747347557813e-01,
          2.0318408135241439e-01, -3.3880320529632996e-01,
          -3.3634762207232455e-01, 2.7050523408518584e-01,
          2.3753044119772040e-01, -7.0091061649870751e-02,
          3.6805367823108520e-01, 2.5278128126481336e-01,
          -8.7400015456061603e-02, 1.8599349489200875e-01,
          1.3944753319389014e-01, -1.7878562873881898e-01,
          1.1287920002489066e-01, -3.4885806963703714e-01,
          3.6585993242921733e-01, -8.4915610312723419e-02,
          -2.5161198339831620e-01, -2.8401987403126000e-01,
          3.5319240690820025e-01, -1.1664265601179383e-01,
          -3.2003638528108375e-01, 2.7664906138145445e-01,
          1.8657632479086239e+00, -2.5287834165386103e-01,
          -1.7482125367809900e-01, -3.0415021940120815e-02,
          -1.3589523112523330e-01, 5.6387203003053155e-01,
          -2.2618689054420119e-02, 1.5707460230895459e-01,
          6.9229660935433618e-02, -2.8320106271023793e-01,
          -1.6089540726514998e-01, 1.6372938651922617e-01,
          -1.4630054472662771e-01, 1.4616818192420068e-02,
          1.7892109386556615e-01, -4.0073401547531300e-02,
          -1.7891952233716124e-01, 1.6087302931907838e-01,
          1.1277923548314359e-01, -1.5829113805051528e-01,
          -3.8695452282368870e-02, -1.6067964637845093e-02,
          2.3411819109902345e-02, -7.7348639060317037e-01,
          -1.3754949508959005e-01, 2.8416638115107945e-02,
          -2.0260476035663719e-01, 3.3215130792813635e-01,
          -2.1340884147971070e-01, -1.9400049042706202e-02,
          1.4505894093969938e+00, -2.0954523067324377e-01,
          3.0002134545567727e-01, -3.0220275652197615e-01,
          4.6784859719736732e-01, -1.6207818640876142e+00,
          2.9281541420043539e-01, -5.3818615343729548e-01,
          3.6036311722071013e-01, -2.9178108070496384e-01,
          -1.8324960729663473e-01, 2.5080754412874601e-01,
          5.2856068165731651e-01, -1.2704064019896708e-01,
          2.6170323510464810e-01, 2.9779587446328404e-01,
          -3.0255068551884018e-01, 2.8097015634520489e-01,
          1.8232662571574354e-01, -1.9671552506061041e-01,
          3.0687129661970469e-01, -7.7385088627012000e-01,
          5.0231571240706263e-01, 5.3297744431417404e-01,
          -2.9080473423134084e-01, -3.7294780634863567e-01,
          6.0996161331870424e-01, -8.3441104674234978e-01,
          -1.7165333985346848e-01, 3.8877897288323648e-01,
          2.1015816282719193e+00, -1.2884123678851420e-01,
          -4.9889011886581708e-01, 9.9983323082361839e-02,
          -3.3480277715382234e-01, 9.2370999555681377e-01,
          -1.6515507154275622e-01, 5.0024681726351883e-01,
          -5.6755338472917624e-02, -2.2107127266297422e-02,
          -2.3222009815958539e-02, 1.4379900054802540e-02,
          -2.8314276244059483e-01, -2.2933417437995405e-02,
          -1.5920690161227571e-01, -1.7184092505745163e-01,
          -4.8319288820297246e-01, 2.2969391363136790e-02,
          -3.8098702862612674e-02, 6.4384211282499618e-02,
          -5.7622894405186316e-02, 1.0947705027695933e-02,
          -1.8809028142952461e-01, -1.0046043178619823e+00,
          1.3842138995236994e-01, 2.3675316524752940e-01,
          -4.7813737010320601e-01, 4.9749689591908897e-01,
          6.7853717998764121e-02, -1.6011829486707807e-01,
          1.3742708947128832e+00, 1.9411163338692111e-01,
          2.0114057063763305e-01, 2.0151111877916034e-01,
          -5.8428202598648046e-02, -6.7774801725607214e-01,
          -3.0287284701080969e-02, -5.3478302553305879e-02,
          -4.5442795528917918e-02, 8.1872922992508673e-02,
          1.4346724739374039e-01, -7.0796342129550840e-02,
          2.0227334463723415e-01, 2.8440486329177877e-02,
          -9.2937555141227549e-02, -1.7506805318062323e-02,
          -3.9638852725388479e-01, -1.4829260020760371e-01,
          -6.1128034927406608e-02, 1.3070203836780375e-01,
          2.6368544587999210e-01, -1.2577848073273368e+00,
          3.5583522827061703e-02, -1.1451531094066432e-01,
          1.2855951857463835e-01, 2.8834226029434418e-02,
          2.1037662308286462e-01, -7.8281172560449053e-01,
          9.4198475827386344e-02, 5.7017140232916525e-03,
          3.2821568661266154e+00, 8.2763237056285924e-02,
          2.4213280114317826e-01, 2.7328452809589449e-01,
          -4.6871134751594067e-02, -9.8880244584408117e-01,
          -2.2197463237096704e-01, -3.8344988855917070e-02,
          -1.4984054182435813e-01, 1.7162222122525589e-01,
          2.1030091505479040e-01, -2.6941139812988973e-01,
          4.1242917437239748e-02, 1.1200138116375038e-02,
          -8.4430838938641381e-02, -1.3672553794676837e-01,
          3.4180461750448515e-01, -3.0606496889652551e-01,
          -1.2774774964416874e-01, 2.8393592013769375e-01,
          -2.8371631720585766e-01, 7.7198465618314172e-01,
          -4.6789860017691247e-02, 4.3823557320424572e-01,
          2.2905065567326319e-01, 1.6610866143499345e-01,
          1.2158477092190706e-01, 9.6924767623626798e-02,
          2.0593878594506898e-01, -9.5852258712952138e-02,
          2.8177456898145055e+00, -2.2054688402988326e-03,
          -3.3938455596226019e-01, 3.1231620191114517e-01,
          -4.3007284071238222e-01, 7.4427460555195868e-01,
          -1.1824359288735947e-01, 5.0791533274749112e-01,
          -3.1449019171742665e-01, 2.3092704889875185e-01,
          3.3655549791197831e-01, -2.5617766012501347e-01,
          -2.0612562475983981e-01, 1.0488194295422468e-01,
          -4.0083192396805917e-01, -3.7051042044051280e-01,
          -9.8724385646035817e-01, -3.2650743895253953e-01,
          -2.0237750049608086e-01, 2.6059922933287683e-01,
          7.4034224112459704e-02, -6.7886778390276548e-01,
          -4.5038804475166461e-01, -1.0163483036969214e+00,
          2.7260563169964730e-01, 3.0482811949451333e-01,
          -4.0756972369863559e-01, -1.5385805197667143e-01,
          2.7219395471658703e-01, -4.0599984838848918e-01,
          2.7413798966926478e-01, 8.2515275356168949e-01,
          3.7222436752011884e-01, 5.8104895162591563e-01,
          -8.5959702598192955e-01, 1.4848957305386838e+00,
          -1.1521164209668409e+00, 8.6288146039754665e-01,
          -8.8784852416184312e-01, 4.9595203442711422e-01,
          6.4591616892380421e-01, -4.8925435356610442e-01,
          -1.2238981541232103e+00, 5.3965311765733374e-02,
          -4.4851128224348641e-01, -5.2774608478585505e-01,
          2.0769617101467990e+00, -5.9905964828878677e-01,
          -2.7226705578035426e-01, 6.9832653897345565e-01,
          -1.5071333921771299e+00, 4.3380525276861235e+00,
          -6.3811431618112369e-01, -1.4484382532476636e+00,
          6.9493322636648203e-01, 5.8940760454006991e-01,
          -8.6200656449300039e-01, 2.7046278387527294e+00,
          4.9021580188514852e-01, -6.5803194881831129e-01,
          -4.4967043222005493e-01, -3.1156922738159714e-02,
          -9.0832880850342734e-01, 6.5512246638766813e-01,
          -1.2054519596604372e+00, 2.7354713664323111e+00,
          -5.5454811340686605e-01, 1.5147869529127709e+00,
          -7.1175650745041508e-01, 4.3717031616648605e-01,
          5.8703412881244388e-01, -5.3142583203615446e-01,
          -1.0507649314305834e+00, 1.5998076913571072e-01,
          -6.8877483282804997e-01, -8.3762215512336902e-01,
          -1.0541297376333787e+00, -4.7210324005580417e-01,
          -3.3723229834312096e-01, 6.7159152478620432e-01,
          -5.9643129256047522e-01, 6.3523871406305699e-01,
          -9.7762117231575907e-01, -1.8309676609453100e+00,
          6.1557998499551447e-01, 9.4505207030637317e-01,
          -1.2430748029351169e+00, 1.3540846759029797e+00,
          5.6134772095578844e-01, -9.9439126710991310e-01,
          -4.3075577883998339e-01, 9.0191154766129267e-02,
          3.8065229361128064e-02, 3.8747535840795594e-01,
          -4.2846158279349722e-01, 6.6218975153974480e-01,
          -2.1823580125066599e-01, 4.2326252296664346e-01,
          -3.9078284062411839e-01, 3.1872807081718807e-01,
          4.0480488344797932e-01, -3.6023004464813996e-01,
          -2.5113057909026848e-01, 1.1161480847198920e-02,
          -3.2596936693982936e-01, -3.2121796643108880e-01,
          3.0600628905428627e-03, -4.4296619694346601e-01,
          -1.8470948771778911e-01, 4.6890335690116475e-01,
          -2.8873912723511869e-01, 5.5688760246246616e-01,
          -4.0130852251371385e-01, -5.7322880143524024e-01,
          4.9433115578682035e-01, 4.7826358013148568e-01,
          -2.4453317397284569e-01, 3.7270427474727996e-01,
          3.8729780776164874e-01, -3.3501564732716949e-01,
          3.1716985663637822e+00, -4.4330211634387390e-01,
          2.0514912279821720e-01, -7.3398348669932567e-01,
          6.9362366282060872e-01, -4.4019827313902073e+00,
          8.1869350374020178e-01, -7.1092150227008122e-01,
          7.3529208080580521e-01, -5.7055660286762244e-01,
          -6.3812703606820442e-01, 6.3944166564402616e-01,
          8.0016864487453843e-01, -8.3249683116112153e-02,
          5.7740876745622183e-01, 7.2535803660198561e-01,
          4.0836973218720006e-02, 7.0512319376780586e-01,
          3.5372066248800177e-01, -7.1848931779286596e-01,
          7.6596083729160125e-01, -9.7878204454227027e-02,
          6.0585339801123073e-01, 2.7914726174349993e+00,
          -6.6185799373664367e-01, -7.2598704086359567e-01,
          7.1491795562507332e-01, -8.7217240268465623e-01,
          -6.8221981544420929e-01, 6.3006433376298721e-01 ]
      - [ -2.2012334432620953e-01, -2.7306424421856390e-01,
          5.8815035135058646e-01, -1.2759229025483829e-01,
          4.9431487443113438e-02, 3.1319880225586122e-01,
          3.4209626786819762e-02, 8.5089209657199932e-02,
          -2.8519832434243865e-02, -3.9563261175576792e-01,
          -2.3761868649130377e-01, -2.6922639591667935e-01,
          1.1514474566941699e-01, 3.0637455287180809e-01,
          -1.9816969641612067e-01, -1.0014258269923813e-01,
          1.2252194687038452e-01, -1.8376491822727617e-01,
          9.4482598531580017e-02, -1.1749694258885346e-01,
          1.0940246949425332e-01, -1.8795918457167013e-01,
          -6.0566538033476891e-02, -1.9775144549663551e-01,
          -1.3969512038772533e-01, -4.6098627506069315e-02,
          6.4747011598447812e-02, -3.8360121886889154e-01,
          -2.4966186791040135e-01, -3.1751805324037451e-02,
          -9.1901571481178368e-01 ]
