%YAML:1.0
my_nn: !!opencv-ml-ann-mlp
   layer_sizes: !!opencv-matrix
      rows: 1
      cols: 3
      dt: i
      data: [ 24, 20, 1 ]
   activation_function: SIGMOID_SYM
   f_param1: 5.9999999999999998e-01
   f_param2: 1.
   min_val: -9.4999999999999996e-01
   max_val: 9.4999999999999996e-01
   min_val1: -9.7999999999999998e-01
   max_val1: 9.7999999999999998e-01
   training_params:
      train_method: BACKPROP
      dw_scale: 1.0000000000000001e-01
      moment_scale: 1.0000000000000001e-01
      term_criteria: { epsilon:1.0000000116860974e-07, iterations:500 }
   input_scale: [ 1., 0., 1., 0., 1., 0., 1., 0., 1., 0., 1., 0., 1., 0.,
       1., 0., 1., 0., 1., 0., 1., 0., 1., 0., 1., 0., 1., 0., 1., 0.,
       1., 0., 1., 0., 1., 0., 1., 0., 1., 0., 1., 0., 1., 0., 1., 0.,
       1., 0. ]
   output_scale: [ 1.0526315789473684e+00, 0. ]
   inv_output_scale: [ 9.4999999999999996e-01, 0. ]
   weights:
      - [ -3.5207167822256895e+02, 4.8293884364638098e+00,
          3.9539742138281850e+00, 1.7941440237501403e+01,
          -3.3083629335341413e+00, 8.7762261929242005e+00,
          3.4807068016930125e+00, -2.3009997939648502e-01,
          1.2164783705529962e+00, 3.3902337694556071e+00,
          4.0141861407778787e+00, -3.2571463744720575e+00,
          2.9882919205965961e+00, 1.7498537377659957e+00,
          -2.5414250405538557e+01, 2.9030560386818065e+00,
          -3.0757655214881519e+00, -3.0089728025548106e+00,
          -3.2966473804093575e+00, -3.2682923506900572e+00,
          -3.4707477927422292e+02, 1.0766677203502230e+01,
          3.0906344154951020e+00, -8.3080275767521545e+00,
          -2.9455434319116001e+00, 6.2969601454271658e+00,
          2.8039412782680180e+00, 1.9246938214610260e-01,
          -7.5655455914148799e+00, 2.8966918623363589e+00,
          2.2415339489520356e+00, -2.8823062362706020e+00,
          9.0003962304267204e-01, -3.3171816220881731e+00,
          -6.6378945391675021e-02, -6.7210190271894277e-01,
          -2.7630057043553227e+00, -2.9956464752746994e+00,
          -2.9251704602066448e+00, -2.8960399413642985e+00,
          -1.8976870097479812e+02, -8.8456837182593944e+00,
          1.7421918313235540e+00, -1.1105870847237272e+01,
          -1.7939200253452305e+00, -1.1178513707915043e+01,
          1.8616858796447902e+00, 2.7824752546191296e+00,
          3.9057721614309169e+00, 1.9986698987631224e+00,
          1.1422205799698202e+00, -1.7904983896933249e+00,
          -8.4809715585199541e+00, -7.4644745821101530e+00,
          6.2185220630183728e+00, -4.5843986964849988e+00,
          -1.4176471480393857e+00, -2.1244236548115807e+00,
          -2.1987963745865224e+00, -1.8909548329339412e+00,
          -8.8692520889804754e+01, 6.5281197281540104e-01,
          2.8896475397129202e-02, -6.8720123658823595e-01,
          -3.4894403684268482e-01, -5.2208570167680266e+00,
          3.3464707982614811e-01, -9.5964078255859295e+00,
          1.6584000240297101e+00, 4.4752676748251063e-01,
          -4.2099933097528808e-01, -5.6430138944026464e-01,
          3.7714864536807400e+00, -4.3302638172849770e+00,
          -3.5387199757120977e+00, 3.1971192973058682e+00,
          -5.8785046333695312e-01, -5.4971378650567781e-01,
          -4.1490698081474037e-01, -4.2624207051939211e-01,
          -8.1531442374439905e+01, 6.3295655638937749e+00,
          2.5114508446999706e-01, -1.9094302940284704e+00,
          -5.6688123993430539e-01, 1.6438657754132613e+00,
          5.4124834858097370e-01, -7.3115729640828571e+00,
          2.6074922247009598e+00, 5.6189483396102247e-01,
          -4.0566842757906424e-01, -6.5454770745209168e-01,
          1.8812409300062632e-01, -7.5826329537954766e+00,
          -5.2434324111305939e+00, -5.7696116246535727e+00,
          -5.7167506219594078e-01, -8.6213571032361880e-01,
          -6.3190083149442511e-01, -7.1929767147007939e-01,
          -9.8699769678109149e+01, 4.3170095010836880e+00,
          -3.2212763014179208e-01, 1.2270220364589658e+01,
          -6.0619495709082774e-02, 3.2259441808120415e-01,
          1.4133329409608200e-01, -2.8806045061156085e+00,
          5.4856460413841814e+00, -7.0755000534556634e-02,
          -4.6357828337827306e-01, -1.9526081421874572e-01,
          3.5038487142774652e+00, 9.6204995400860738e-01,
          -3.1454175831879891e+00, -1.6440358184444852e+00,
          -7.5559773830756138e-01, -1.8033410737176159e-01,
          1.7693077118718373e-01, -2.2826549007760022e-01,
          -7.9328617784079611e+01, -6.0779039988008208e+00,
          9.0537871399597081e-01, 1.0820604883278464e+00,
          -8.9111540244473042e-01, 1.6325448029522296e-01,
          8.8307960269696917e-01, 1.1777249166119272e+00,
          -2.5538729163610743e+00, 9.6881269978649298e-01,
          5.4150425223360976e-01, -8.7307514879475423e-01,
          3.9412521976667079e+00, 4.8716575904453419e-01,
          -5.6320542963710256e+00, -3.2564630175361717e+00,
          -6.6456583187983453e-01, -9.4799690531439351e-01,
          -1.0060919386020699e+00, -9.0740423234657952e-01,
          -5.4331421749095725e+01, 1.2523279587553949e+01,
          -3.2751454611660374e-01, 9.6688091447830402e+00,
          5.8321832781608254e-02, 7.5250967328380725e+00,
          -1.4509729966200266e-01, -4.9490896070242423e+00,
          3.4781310628411060e+00, -9.8951269383317664e-02,
          -8.0128382172800383e-01, -6.8827553602304165e-02,
          8.8246395769402568e+00, -3.9908294798819610e+00,
          5.9632474995391682e+00, 8.4486897011386581e+00,
          -2.6681835233863804e-01, -2.4051537687359259e-01,
          4.5244329394064073e-02, -8.8512371937339601e-02,
          -6.0659595654681240e+01, -3.4019166146820973e-01,
          1.1715843500555239e+00, 6.7815856308986466e-01,
          -8.8233710000590426e-01, -4.6372158583783332e+00,
          9.9432286419179583e-01, 1.6314725966543200e+00,
          -6.1364489894317771e+00, 1.1568920493866039e+00,
          1.5719714941099976e+00, -9.9227004952731535e-01,
          5.6167835350293931e+00, -1.0012245682836058e+01,
          -1.3455543419477889e+00, -8.1551388855982809e-01,
          -4.0888229427172162e-01, -1.2922746439771402e+00,
          -1.4682278643699405e+00, -8.1273847185184145e-01,
          -5.3005385202078124e+01, 3.3737358032631726e-01,
          1.6705985321876520e+00, -1.9573012917623798e+00,
          -1.2384409343472409e+00, -4.5709853489640020e+00,
          1.3063375383906235e+00, 2.4914453546282278e+00,
          -4.8103401091316336e+00, 1.4887254810650927e+00,
          1.8225709556580532e+00, -1.1647371858216866e+00,
          1.3205417657931381e-01, -7.3156018167697345e+00,
          6.4453763987902315e+00, -1.1005544118152374e+01,
          -3.1975296719443869e-01, -1.4932208452110305e+00,
          -1.9553171839327737e+00, -1.1274929408518963e+00,
          -9.1014218944423533e+01, 2.0085565174874290e+01,
          1.7288607127044939e+00, 5.0963439867541869e+00,
          -1.4564537978213705e+00, 9.0279606362354610e+00,
          1.3684350135461423e+00, -2.4330378354259317e+00,
          1.7078270125568094e+00, 1.5743468150589592e+00,
          2.1973385128140759e+00, -1.4322430300939764e+00,
          -1.8725825102761542e+00, -6.8034626102116285e+00,
          8.1115225201134002e+00, -8.3300535331755317e+00,
          -6.7939104804121619e-01, -1.6480116913028517e+00,
          -1.8622870481284892e+00, -1.2060819895305264e+00,
          -5.2148052253172352e+01, -1.4754573947084641e+01,
          2.3040550130224173e+00, 3.2149980837779530e+00,
          -1.7919860368748395e+00, -2.5473525527765766e+00,
          1.8618786736105164e+00, 7.8703631322412107e-02,
          -7.8699770747714162e+00, 1.8744730077731069e+00,
          3.4185620581854210e+00, -1.5572602536174600e+00,
          5.5684602596176571e+00, -2.6908980517163936e+00,
          5.0360164189807355e+00, -1.1369547574412726e+01,
          -6.7730496086986192e-01, -1.7871566617824928e+00,
          -2.2641399281932340e+00, -1.4229638663281921e+00,
          -3.7809887525235958e+01, 2.6268464692971616e+01,
          3.0988843433613407e+00, 4.7327797683708663e+00,
          -2.1093236882607069e+00, -2.2368266430351116e+00,
          2.1399445676653523e+00, 7.6586106448752300e+00,
          -2.3226759920599429e+00, 2.4791690994476125e+00,
          4.4447235768575011e+00, -1.8634050967643359e+00,
          6.0401209187197971e+00, 7.2855677455490175e-01,
          -1.3724002851430168e+00, -5.0983207305250611e+00,
          -4.9823717943103479e-01, -2.3699790757970751e+00,
          -3.3489465767126325e+00, -1.6568383305386312e+00,
          -1.5081891553506730e+02, -7.7259004734376600e+00,
          2.1749553903401795e+00, 3.6067592527909977e+00,
          -2.0293802159190664e+00, 5.0982899553684184e+00,
          1.7934161852010302e+00, 5.3945785533042256e+00,
          2.9202511307200392e+00, 2.1489032261259320e+00,
          1.2364310233543756e+00, -1.9515201447753274e+00,
          -9.1060372642546383e+00, -1.0261445260007671e+01,
          4.0424325731265736e+00, 2.8513158973762427e+00,
          -1.4272467743935850e+00, -2.6625131810486335e+00,
          -2.6192665531065171e+00, -2.0704550090375196e+00,
          -7.2822671601178570e+01, 3.9001287038870243e+00,
          1.1335509946815645e+00, -1.1315516488374648e+00,
          -8.7214195339041967e-01, -1.9159422118047047e+01,
          7.9038708692449633e-01, -1.0906569946296244e+01,
          3.2393317488296898e+00, 1.0001561521578848e+00,
          9.5449324523334089e-01, -9.7593089451751858e-01,
          -9.1757810762577527e+00, -1.2725877716448767e-02,
          -4.3845607039352057e+00, 2.6779996799503505e+00,
          -6.9163841595338371e-01, -1.1833761785451709e+00,
          -1.3111391184348717e+00, -8.4466741527724198e-01,
          -6.3113980888983171e+01, 4.5404658164359919e+00,
          1.2020639786661338e+00, -1.3217592818900357e+01,
          -8.5183010158895400e-01, 4.1796450018442455e+00,
          9.0376399346822067e-01, -5.0343346446527510e+00,
          -2.7464678796918407e+00, 1.0435195145913700e+00,
          1.2369667022914859e+00, -9.6776984805391386e-01,
          -4.9510769712051044e+00, 8.0071753923817690e-01,
          -3.7613033469539818e+00, -6.8101047427441204e+00,
          -6.7344088011029091e-01, -1.1519034828399437e+00,
          -1.3010592833099570e+00, -9.2285537087440150e-01,
          -8.8484500523739143e+01, 1.5171787457730981e+00,
          5.0292553279814400e-01, -1.3371635215440653e+01,
          -6.6616982651297307e-01, -1.4279879618165607e+01,
          5.4337050780420848e-01, -7.5872403703265521e+00,
          2.4671478432829521e+00, 7.3967966071514835e-01,
          3.8107856698686909e-01, -8.1455009084127217e-01,
          -8.4754294246818702e+00, 2.5845617445108244e+00,
          -3.0506801633972619e-01, 8.4779380678824068e-02,
          -8.2732181018948869e-01, -8.4635394533669384e-01,
          -5.3642608671193248e-01, -6.7069575037120011e-01,
          -6.8876583884532039e+01, 1.3719364210626116e+01,
          7.8258597787670825e-01, -1.4135094325807072e+01,
          -6.7267863735572064e-01, -1.3699524623912194e+00,
          7.0272650120577618e-01, -1.1398653405460468e+01,
          -1.9795722754743426e+00, 7.2187877201929751e-01,
          1.0329964791827253e+00, -6.8573748576947602e-01,
          -4.1701741215397634e+00, 5.4206706172670371e-01,
          3.7760152833000080e+00, -4.8987956277108796e-01,
          -7.6250515059124291e-01, -9.3071122971455222e-01,
          -8.4988971722861095e-01, -7.5960789231199077e-01,
          -3.6591265585910264e+01, 7.1475918279579276e-01,
          -9.0035981604531357e-01, -1.3453736238950246e+01,
          6.3424827423314323e-01, 8.3321824988310293e+00,
          -7.8929032246328423e-01, -2.8208572887742235e+01,
          3.8911950489342191e+00, -5.8366765654936092e-01,
          -1.0698568582145860e+00, 3.9081372418036503e-01,
          3.9026403593321679e+00, 3.4208872325812578e+00,
          -3.6996742891003600e+00, -2.1268718982802159e+00,
          -1.4249883265898575e-01, 4.0707536501652664e-01,
          7.9722443928034137e-01, 3.5153531958506318e-01,
          -4.7214429416569111e+01, 1.6235031078110314e+00,
          -1.0797942574977499e-02, 1.0960834855367819e+01,
          -1.0609301003235559e-01, -4.0724968773717327e+00,
          -1.0464318777648951e-01, -1.0870072937874225e+01,
          -3.8467613698509080e+00, 1.1684073822256417e-01,
          -1.4348878484574473e-01, -1.1708349617898468e-01,
          4.6684421555706592e+00, -3.4956528108663267e+00,
          2.0455774969536415e+00, 3.3262492846956668e+01,
          -3.3330655133237530e-01, -4.4721604648403551e-01,
          -1.6506613023067010e-01, -1.2738620424433444e-01,
          -6.1316637272845142e+01, -4.5699401977389575e-01,
          -3.5358012890433210e-01, -3.9136689365061854e+00,
          1.7856763176147483e-01, 4.5708250775106585e+00,
          -2.6070091405036949e-01, -1.7599127114131594e+01,
          4.5230224237413097e+00, -9.4834184885872683e-02,
          -3.1957658828693286e-01, 1.0675754097247628e-01,
          -6.7843297956021962e+00, -2.2726146021237579e+00,
          7.0495699453950182e+00, -1.8844166408204259e+01,
          -4.2866732147607917e-01, -1.8912450162047425e-02,
          1.8502408730859257e-01, -1.8414605098954474e-02,
          -8.6388468700352547e+01, 7.2520443890690123e+00,
          8.9082001670968947e-01, -5.9042971506870578e-01,
          -7.8099505023088489e-01, -2.3482560425029040e+00,
          6.9693224321884151e-01, 1.5568549389553841e+00,
          6.9614046014215241e+00, 8.0807583169266306e-01,
          4.3917590884820246e-01, -8.4293722933621207e-01,
          -6.9996281128582483e-01, -4.2268579892188569e+00,
          5.6280971620432156e+00, 8.5188671792532880e+00,
          -6.2534400681268543e-01, -1.0513412940542493e+00,
          -1.0348160126564241e+00, -7.5523838893571593e-01,
          -9.6265002819199935e+01, -1.1762668408850179e+00,
          -6.1560318602657066e-02, -7.3138493325733114e+00,
          -3.2947795749683845e-01, 1.9175851982677457e+01,
          2.5514172664756013e-01, 5.4003028737377861e+00,
          2.4907698643821097e+00, 2.0705353006134899e-01,
          6.6983566341013911e-03, -3.5669523564948430e-01,
          -2.6872928306003994e+00, -1.2414241201456029e+00,
          7.8183382429896691e+00, -1.1828613969963824e+01,
          -7.2908107333151750e-01, -4.0304251019570747e-01,
          -3.1658897225942240e-01, -2.8127527102205280e-01,
          -5.8818144876588377e+01, 7.1856887367327573e+00,
          -7.8942591934676121e-01, 1.4840834436652743e+01,
          1.5184745318606613e-01, 2.4208720166714627e+01,
          -3.7974558342129455e-01, -2.3074185101425634e+01,
          1.1782961738630551e+01, -2.6985380450174934e-01,
          -1.3246855511458107e+00, 4.8302794794369400e-02,
          4.2960029612462316e+00, -8.9212422440985439e-01,
          8.6625515445619730e+00, 3.5626563142491343e+00,
          -3.9170734002890495e-01, 9.9043463724225508e-03,
          4.0811304815966654e-01, 9.3048529672013991e-02,
          -6.3147266661136825e+02, -1.5512550757764596e+00,
          5.6257759998852421e+00, -4.8985168561774941e+00,
          -5.9254994871776301e+00, -3.1806582523906174e-01,
          5.9851517574402999e+00, 2.1404085485826543e+00,
          4.1626149101454768e+00, 5.7553156972207633e+00,
          6.0896058773995891e+00, -5.8829835885163089e+00,
          -6.0682302609574634e+00, 2.5261793708127525e+00,
          -2.7304806638145798e+00, 7.2926788412814840e+00,
          -6.0365392895122900e+00, -5.4715913880338807e+00,
          -5.4268760295080813e+00, -5.9078227568502912e+00 ]
      - [ -8.9806376118357412e-01, -1.2527196821403482e+01,
          -1.5381749061475734e+00, -3.1908541704545983e+00,
          4.8792473877962467e-01, 6.0296740203090078e+00,
          -3.9816771642171661e-01, -1.3841691022657896e+01,
          4.4891641023573667e+00, -9.4903277063183911e-01,
          -2.0971716833844418e+00, 2.9961453445535796e-01,
          -7.7664425891575117e+00, 8.6403432036272108e+00,
          8.9114738274624692e+00, 4.0235403280314372e+00,
          -1.4826354572242542e+00, 1.3107579271040317e+00,
          1.8979768414300486e+00, 2.1085175179522525e-01,
          2.1856326837149944e+00 ]
