%YAML:1.0
my_nn: !!opencv-ml-ann-mlp
   layer_sizes: !!opencv-matrix
      rows: 1
      cols: 3
      dt: i
      data: [ 24, 80, 1 ]
   activation_function: SIGMOID_SYM
   f_param1: 5.9999999999999998e-01
   f_param2: 1.
   min_val: -9.4999999999999996e-01
   max_val: 9.4999999999999996e-01
   min_val1: -9.7999999999999998e-01
   max_val1: 9.7999999999999998e-01
   training_params:
      train_method: BACKPROP
      dw_scale: 1.0000000000000001e-01
      moment_scale: 1.0000000000000001e-01
      term_criteria: { epsilon:1.0000000116860974e-07, iterations:500 }
   input_scale: [ 1., 0., 1., 0., 1., 0., 1., 0., 1., 0., 1., 0., 1., 0.,
       1., 0., 1., 0., 1., 0., 1., 0., 1., 0., 1., 0., 1., 0., 1., 0.,
       1., 0., 1., 0., 1., 0., 1., 0., 1., 0., 1., 0., 1., 0., 1., 0.,
       1., 0. ]
   output_scale: [ 1.0526315789473684e+00, 0. ]
   inv_output_scale: [ 9.4999999999999996e-01, 0. ]
   weights:
      - [ 2.0871778920611303e+02, -2.8530440368901369e+00,
          2.8231699655177889e+00, -2.7800186155609725e+00,
          2.9636257540379947e+00, 2.8980597708031031e+00,
          -2.7254034813973091e+00, 2.6422606311105173e-01,
          2.8131489401547021e+00, -2.9489943808346686e+00,
          -2.8222646434078649e+00, 2.8222291709130647e+00,
          -2.7717852977408182e+00, 2.9113088203112429e+00,
          2.8063749406506564e+00, -2.8963695204949431e+00,
          -3.4124698281817096e+01, 2.6797085126472595e+00,
          3.0165720852536300e+00, 2.8227539172630283e+00,
          -2.0069045935996080e+01, -2.8927959429058152e+00,
          3.7444299388167508e+00, -1.0969276325022397e+00,
          -2.9506438919472804e+00, -2.7126175916602824e+00,
          -2.3835998757240691e+00, -2.8555492268366889e+00,
          3.2312732642684407e+00, 2.8921474608652420e+00,
          2.2674203302509923e+00, -2.8554753157369936e+00,
          -3.1618834267199589e+00, 2.7515098066525190e+00,
          2.8675183453778947e+00, -2.8924660926578518e+00,
          -2.9854986070276688e+00, 2.9445702589737341e+00,
          2.8237744920397789e+00, -1.1075375368072480e+01,
          1.9336347511420386e+00, -1.8836392032018390e+00,
          -2.6712471974182694e+00, 3.5097452491708072e+00,
          2.5047519648827876e+00, 2.8256159192511361e+00,
          -2.5759630646153222e+00, -2.2968114184271489e+00,
          2.6267179719225631e+00, 4.1270659784041204e+00,
          2.8668096511731513e+00, 8.1728012103688492e+00,
          2.8415947861580149e+00, 2.7116181821922045e+00,
          -3.4550274309284386e+00, 1.6326467400794193e+00,
          -4.1564779159669074e+00, 2.9127781234085246e+00,
          -3.3826077168838364e+00, -2.7727179385764544e+00,
          3.0706554422424279e+00, -2.8835604967385793e+00,
          -3.1577936026702003e+00, 1.0812934725910321e+00,
          -6.9036430399951563e+00, -3.2227767329242947e+00,
          -3.2970261876552143e+00, 2.1309105447715726e-01,
          2.8929196118709659e+00, -3.2261338595023883e+00,
          -2.1483225590688311e+00, -2.8559927599997681e+00,
          -3.1742534484486815e+00, 7.1990477074532038e+00,
          5.1544271102948409e+00, 2.0788444105369441e+00,
          -2.6508206856494279e+00, -8.8745453241025380e+00,
          2.6893784056914249e+00, -2.8442569117013479e+00,
          1.8838156580006168e+02, -2.7677075569244232e+00,
          2.0028998567797296e+00, -2.5367684098662364e+00,
          1.5459653284861932e+00, 2.6199754264042365e+00,
          -2.2049312706388084e+00, -8.4670809781549519e+00,
          2.8873453725867866e+00, -2.6990862947808143e+00,
          -2.7825880083076804e+00, 2.7771644637527433e+00,
          -2.6598311114756394e+00, 2.1722343967749991e+00,
          2.7601958995495872e+00, -1.3725963757410564e+00,
          2.5267012471996346e+00, 3.0524616438608287e+00,
          2.5659014917699383e+00, 2.0994397787621946e+00,
          7.2721949230425587e+00, -2.6777747401758845e+00,
          2.7313341727045297e+00, -1.1194206588172186e-01,
          -2.6884661993811116e+00, -2.9803961183460612e+00,
          -1.9070908731705607e+00, -2.7655564943685511e+00,
          2.7378002116100078e+00, 2.4575017366917002e+00,
          3.4559193626552447e+00, -2.8027560518283625e+00,
          -2.6670970207988871e+00, 3.1113578922574474e+00,
          2.7871035543815643e+00, -2.5877419432835773e+00,
          -2.5978578742010003e+00, 2.6267067391889918e+00,
          2.7586875149158652e+00, -3.0085724675385435e+00,
          5.7018157934050617e-01, -2.6996467181849554e-01,
          -1.4000659078590902e+00, 2.7883406883029624e+00,
          6.7076974850143933e-01, 2.7364361285113850e+00,
          -1.5852924145203249e+00, 2.5120316216854564e+00,
          1.5450110785809554e+00, 1.6902562951175497e+00,
          2.7814606169909828e+00, -1.1834853451470295e+01,
          2.6948539745547841e+00, 2.5373137321110120e+00,
          3.9734360362040992e+00, -2.4052911680646325e+00,
          -1.1687599178414770e+01, 2.6600536867506337e+00,
          -2.7672557266945277e+00, -2.7865894483611471e+00,
          2.9518554168290692e+00, -2.6965122466978162e+00,
          -2.5373866860658287e+00, 3.4240922487848899e+00,
          1.2346068405442248e+01, -2.5560637306199077e+00,
          -2.8301567108860475e+00, -2.2536486905074091e+00,
          2.6511192192860489e+00, -2.7101544879713471e+00,
          -2.6115260130645210e+00, -2.6366594786948623e+00,
          -2.8797746862508071e+00, 3.2662215744553893e+00,
          2.9090986930221030e+00, 3.3066127655967215e+00,
          -1.6116442764342840e+00, -9.2280582543230683e+00,
          8.8202858340706147e-01, -2.5401045425449880e+00,
          1.1581628248767491e+02, -1.5731944293198086e+00,
          1.1527559044086928e+00, -1.5091610434954599e+00,
          1.2404139212403704e+00, 1.4554130586948015e+00,
          -1.1867092828970933e+00, -6.4389290638305177e+00,
          1.6166176754225641e+00, -1.5012607448326778e+00,
          -1.4590053166687980e+00, 1.5844969690779094e+00,
          -1.3747168527497111e+00, 1.0957649385685544e+00,
          1.5641207455949666e+00, -1.3136727482862112e+00,
          -1.2206899363273049e+00, 1.5651359074283311e+00,
          1.4106528054113705e+00, 1.1483115986501302e+00,
          1.6743748289977216e+01, -1.5310619563530363e+00,
          1.8706909562139848e+00, -3.3555863103332575e+00,
          -1.5018311055219882e+00, -1.8536176935079405e+00,
          -1.4172539744312485e+00, -1.5063598226129413e+00,
          1.9386644719904329e+00, 1.3110543426965733e+00,
          1.8255747422241866e+00, -1.5846720769732892e+00,
          -1.6576641673635562e+00, 1.8099481456634823e+00,
          1.7190512385664649e+00, -1.3051564246086609e+00,
          -1.4780482645202733e+00, 1.3848184215875730e+00,
          1.4052100985042628e+00, 4.7824963603133419e+00,
          1.5397700382452038e+00, -1.6371944837022139e+00,
          -1.0095541652927171e+00, 2.0056011641300446e+00,
          2.8792539717775876e+00, 1.4278293706000662e+00,
          -1.2248262641666956e+00, 9.7082713615712191e+00,
          9.9028305783888626e-01, -4.2176816327792279e+00,
          1.5675644440155643e+00, -8.0836574007870265e-01,
          1.5794640200508492e+00, 1.3546464532381559e+00,
          3.4151168532379006e+00, -3.3535216055143633e+00,
          8.2816542018209116e+00, 1.4572787402025174e+00,
          -1.8629802985533499e+00, -1.7860452983360011e+00,
          1.9038239206213698e+00, -1.4670910383612241e+00,
          -1.3264942448860928e+00, 2.8472639380571363e+00,
          5.2724002702975827e+00, -1.2863047393958249e+00,
          -2.3390683300215467e+00, -3.3484333122439751e+00,
          1.4103954918800645e+00, -1.8730961259421732e+00,
          -2.6301249812191143e+00, -1.4198833142781113e+00,
          -1.5050274412618458e+00, -1.5302448640688198e+00,
          1.9463791103363079e+00, 2.0947381151163267e+00,
          1.4813350325383692e+00, 8.2342260252336921e+00,
          1.5323404290215301e+00, -1.2981848206838946e+00,
          4.5788914346946882e+01, -5.3150123449811904e-01,
          8.4846871166932192e-01, -5.8473035308863275e-01,
          9.4028686183168397e-01, 6.5736667228822221e-01,
          -7.4694194826600779e-01, -8.6073549160639260e+00,
          3.8533170339791389e-01, -5.9695636770478222e-01,
          -5.6873689332434196e-01, 5.5384503149635911e-01,
          -6.0480714211594555e-01, 7.4764950833955046e-01,
          5.1659048512013628e-01, -9.5436353013508879e-01,
          -8.3938851977941678e+00, 4.3415140747080588e-01,
          6.2645998424396310e-01, 7.6170907273681343e-01,
          -4.6461281239844254e+00, -5.5314702721888476e-01,
          2.1740522588752065e-01, -2.1214816517845936e+00,
          -5.5040208545623892e-01, -4.4994984964891233e-01,
          -7.2645259740268020e-01, -5.3688842387972435e-01,
          3.8009986151988023e-01, 7.4069046359982604e-01,
          4.8441408952726733e-01, -4.6814795208999022e-01,
          -4.1585109300439327e-01, 3.5337602882841140e-01,
          4.1261593554344805e-01, -5.9024192687651356e-01,
          -6.3911399707801586e-01, 5.4579843747223145e-01,
          6.2943819949807300e-01, 6.5495559399575622e+00,
          1.3685548304118549e+00, -1.7912542473468149e+00,
          -9.4662533235204227e-01, 2.8498925163016664e-01,
          9.7521276867450712e-01, 5.3702073037375875e-01,
          -8.9704846613957734e-01, -2.2686793261469242e+00,
          9.9723184852460334e-01, -4.4731166722115001e-01,
          4.7929466434457035e-01, 4.0944771237603677e+00,
          5.2777816906805053e-01, 6.2052255093734832e-01,
          4.0456662314340619e+00, 8.9950258394670630e+00,
          1.6168500601688085e+00, 6.3820513247720612e-01,
          -3.3169871431954273e-01, -4.1999652039146218e-01,
          2.6340907498661015e-01, -5.6201420586585638e-01,
          -6.9361349584564147e-01, 4.9147849659946374e-01,
          6.7534404337986356e+00, -7.9449279142821860e-01,
          -1.3785496329430788e-01, -4.0493945067743364e-01,
          6.3147411041128554e-01, -4.5214584409725450e-01,
          -5.2086829397425904e-01, -6.8440428271702891e-01,
          -3.3510812514542504e-01, -3.2343007817725002e+00,
          -4.5790053860933272e-01, 5.8212496447031370e-01,
          -2.7221826990338247e+00, 4.1966530479256390e+00,
          1.1560571099914243e+00, -6.7825209927428054e-01,
          3.8812159379147396e+01, -6.7444487522349439e-01,
          4.0409508685869933e-01, -6.3157064750311087e-01,
          4.2027841839946395e-01, 6.3462659468696803e-01,
          -4.9394804725993274e-01, -9.4872367475423012e+00,
          6.2014526049946883e-01, -5.8722653834842986e-01,
          -5.6098006755260388e-01, 5.9199560678270580e-01,
          -6.2159018387956422e-01, 4.4564256102328731e-01,
          6.1464848784155501e-01, -3.9723275575390066e-01,
          -6.9912628518819897e+00, 7.6386260940019246e-01,
          5.7033279142078563e-01, 3.4483007510587138e-01,
          -3.3991539057785808e-01, -6.3140047838172919e-01,
          5.9058554667015140e-01, -7.4654159784908891e-01,
          -6.4331586404784247e-01, -7.9204744099877999e-01,
          -2.8612219495640007e-01, -5.4992994769804482e-01,
          6.9943322864529478e-01, 4.4112557984062578e-01,
          8.7792668009437758e-01, -6.8988762226515354e-01,
          -6.7250225870895075e-01, 6.6448613666660272e-01,
          6.7514113274708065e-01, -5.2234731928866018e-01,
          -6.4018528543856057e-01, 6.1256211251231263e-01,
          6.1568397339045344e-01, 9.1791862582605044e-01,
          5.3637519022023050e-01, -6.3896589694449668e-01,
          -4.8028300413233976e-01, 6.8153681361689256e-01,
          5.3241305012139928e-01, 6.5848565987447805e-01,
          -4.2262512458245666e-01, -1.1332659509866976e+00,
          5.8597661773966403e-01, -5.5107632618475400e+00,
          5.9888751868630752e-01, -4.8674940710838026e+00,
          5.8581037210566933e-01, 5.0220203958284282e-01,
          -1.0824322874955774e-02, 7.6342234049080515e+00,
          -2.2474180467784950e+00, 4.9629676069050777e-01,
          -5.4659683073744958e-01, -7.8587614034009456e-01,
          5.9249518145535240e-01, -5.2335539576317192e-01,
          -5.6751680336464505e-01, 1.5643274452460985e+00,
          4.3854014438328379e+00, -5.1358503254626142e-01,
          -6.6117832122399312e-01, -2.1220172065136103e+00,
          6.0151597178954430e-01, -6.5645422632003658e-01,
          -1.0683625444318152e+00, -4.6313174858089584e-01,
          -5.3270649197846520e-01, 1.4885976279648208e-01,
          2.7849481253800029e-01, 9.1227646429423948e-01,
          5.8370262033950987e-02, -4.2028107839091842e+00,
          4.8758192321933191e-01, -5.9932869484108897e-01,
          4.6349865957828513e+01, -4.0573732692654085e-01,
          1.1772633298572517e+00, -5.9225806568164729e-01,
          1.4009982502124583e+00, 5.8577425492834934e-01,
          -1.1197383653033062e+00, -1.9526777980344359e+00,
          2.9639066528929181e-01, -5.6968800226169969e-01,
          -5.5482044633131200e-01, 4.7682375410525907e-01,
          -7.7756621702087525e-01, 1.1387006239761677e+00,
          4.0164765634008748e-01, -1.5236973316267954e+00,
          -9.0517778830195645e+00, 1.7745922573743972e-01,
          7.1855670788000792e-01, 1.1390643298073617e+00,
          -1.7638628102379176e+01, -5.1386992569072754e-01,
          -1.5776745389002000e-01, -8.9425569913337277e-01,
          -4.3347040229519040e-01, -9.4952447411537660e-02,
          -1.1261187851671619e+00, -4.8074683234792936e-01,
          4.5698994825826671e-02, 9.6115649399524816e-01,
          6.7166780506229665e-02, -3.5408386553934434e-01,
          -3.4483096829273691e-01, -3.5505033927672215e-03,
          3.2072341685972700e-01, -8.9844509594447186e-01,
          -6.2884158849584015e-01, 6.1120099729059729e-01,
          5.6791243521842760e-01, 3.9158659473624029e+00,
          1.0622579122484248e+00, -1.3122007699329128e+00,
          -1.0986815659026168e+00, -1.8670340063809882e-01,
          1.5902043080510366e+00, 5.9172027209660871e-01,
          -1.2097809446756578e+00, -2.9041414765341877e+00,
          1.1007165424165597e+00, 3.5583651706326975e+00,
          4.6609017873682834e-01, 2.6693379996134401e+00,
          5.4563580076720275e-01, 9.0581592389047028e-01,
          -1.9319851519104632e+00, 1.2555061540055907e+00,
          -6.4134967140322781e+00, 6.4959143900228755e-01,
          1.5005541739782222e-01, -2.4016939730642325e-01,
          -3.3412416693658242e-02, -6.1786578952173199e-01,
          -8.9200680869929405e-01, -2.2752475452773510e-01,
          1.6729581828358047e+00, -1.0280149404939305e+00,
          3.1235548298810167e-01, 7.6978737439828016e-01,
          6.9720532008552460e-01, -1.9425073452483652e-01,
          1.7548753181282149e-02, -8.1844244187643578e-01,
          -1.1514521494382696e-01, -3.7362885045672729e+00,
          -9.9515412227138678e-01, 2.1638460769075787e-01,
          -4.9326053403314081e+00, 7.6801691167252739e-01,
          1.5071544024297499e+00, -7.1257600510705543e-01,
          3.7003512097362268e+01, -9.3292597916244779e-01,
          1.6151792104215135e-01, -6.1041247003279786e-01,
          -3.6392847172130605e-01, 6.2609988368664260e-01,
          -1.1921022719600026e-01, -1.6942089261099569e-01,
          8.9775535745086166e-01, -7.1094461509305151e-01,
          -8.4591653924422061e-01, 7.9319828309726614e-01,
          -4.8521618280438628e-01, 1.8284759579337784e-01,
          7.5114405803939865e-01, 4.7512530824474242e-01,
          -6.1548725891367706e+00, 9.8240882678852215e-01,
          5.6092941890346482e-01, 1.7392223398413717e-01,
          1.6345801481308291e+00, -7.6364727273133393e-01,
          1.0236036329559759e+00, 8.3999938083730796e-01,
          -8.3823580079661852e-01, -1.0665500567164596e+00,
          1.8541195036163466e-01, -7.5728186835132305e-01,
          1.0772678024695248e+00, 3.3588381643257309e-01,
          1.1452723572231307e+00, -9.0409937374544147e-01,
          -7.7320483832145104e-01, 1.1284305961947600e+00,
          9.8462437932871893e-01, -4.1895877365331213e-01,
          -6.3748729122092218e-01, 6.5964130632555196e-01,
          7.2178259539400580e-01, -2.4965202210533408e+00,
          -3.4116908274567315e-01, 7.9230522833161532e-01,
          -6.9907239401883467e-02, 1.1142894052937260e+00,
          -1.0167476492718803e+00, 7.5619588013908845e-01,
          7.3345526268046038e-02, -2.1987336313339356e+00,
          1.5002508308563392e-01, -3.4213822472423177e+00,
          7.7686987385781692e-01, -6.9602642688947522e+00,
          7.0825073839253783e-01, 3.3145238489125073e-01,
          3.4014891277182286e+00, -1.9398428606281295e+00,
          1.2423929184354674e+00, 6.4286843518530234e-01,
          -1.0135706694985083e+00, -9.7387684415377251e-01,
          1.1755350630925672e+00, -6.2759979735154015e-01,
          -5.0752622072249831e-01, 1.5440000929971258e+00,
          -4.5304821520747520e+00, -4.7698202134339340e-01,
          -1.3499026890846701e+00, -1.9355640230159523e+00,
          5.1779520756548869e-01, -9.7055058751961187e-01,
          -1.3580659168803371e+00, -5.2953590591670663e-01,
          -8.7862220511703171e-01, 1.5569131061935160e+00,
          1.2506440144219817e+00, 1.1781571633640526e+00,
          -2.3970179059463081e+00, -3.2941305904276592e+00,
          -6.1044671788962079e-01, -5.7864168881002120e-01,
          2.6019412391519907e+01, -8.7051773036910793e-02,
          1.1457072924535756e+00, -3.2012195186072551e-01,
          1.4305912034626260e+00, 3.4438961319847555e-01,
          -8.5501792301106239e-01, -7.9222431672106000e+00,
          4.2631256377723845e-02, -1.9899492727806950e-01,
          -2.4135832091956491e-01, 1.4539783727024450e-01,
          -4.1509225182050580e-01, 1.0129556288448669e+00,
          2.1304630782028464e-01, -1.4267337899732568e+00,
          3.2254009445525016e+00, 6.2163120792995151e-02,
          4.8775777475577481e-01, 1.0180524991457083e+00,
          -1.3477337871605377e+01, -2.8610567395567471e-01,
          -6.6304920497935560e-01, -2.2480435258591447e+00,
          -1.1815700016752566e-01, -4.5107934000827410e-02,
          -9.4119161431191833e-01, -1.2087951270848021e-01,
          -2.6587426007781423e-01, 7.5752600292459571e-01,
          3.0936992861591772e-01, -6.3483037384351224e-02,
          1.3823604991552035e-01, -1.8377275500301354e-01,
          8.0521016909808646e-02, -5.5034891638059780e-01,
          -2.0318967799888216e-01, 2.8489699498276749e-01,
          2.2374472689214664e-01, 5.9956631480748230e+00,
          1.7476789439123797e+00, -2.1190147146248028e+00,
          -1.4966003202510547e+00, -5.8960563046833991e-01,
          1.6426278840917459e+00, 1.8438162998033039e-01,
          -1.1590345733653258e+00, -1.8139932176415476e+00,
          1.3055326888590999e+00, -2.7671083076655600e+00,
          2.0835880468467266e-01, 6.2590409853283226e+00,
          2.8433276334044227e-01, 5.8126939544433087e-01,
          2.5009113788756476e+00, 5.4413841302672132e+00,
          -1.3220551006469076e+01, 4.0332336217243181e-01,
          4.6432761373192344e-01, -5.5039758707602993e-03,
          -2.6013627352912744e-01, -3.4384334265135874e-01,
          -5.8932031420554953e-01, 5.6834092231154709e-01,
          -7.2828268720223258e-02, -6.1353869169098907e-01,
          5.7661744054820085e-01, -8.9709356140954122e-01,
          4.1766988121806481e-01, 2.3776073331330430e-01,
          -6.7255213384030524e-02, -5.5576804976188121e-01,
          2.0931417012668513e-01, -3.3331583197662562e+00,
          -1.7605315417992033e+00, 4.2051589941078166e-01,
          -3.8629554037121108e+00, -6.4244316265342025e+00,
          1.7052673284007511e+00, -4.6815038224212341e-01,
          2.5895186952523535e+01, -7.9817521892662990e-01,
          -1.9379556088844435e-01, -3.0025004752812434e-01,
          -5.4470382584076915e-01, 3.1496857177031051e-01,
          1.3575139908170825e-01, -1.9585021221276442e+01,
          1.0143492609004159e+00, -4.9909224935426039e-01,
          -7.0140869620169732e-01, 7.5465490837779559e-01,
          -2.4610105648974923e-01, -7.8661432741276446e-02,
          8.0490595166960965e-01, 5.8024637438253623e-01,
          -5.1744927300948413e+00, 1.1151936332981465e+00,
          2.8247914890688408e-01, -2.1530363236279870e-01,
          2.8233450633137280e-01, -5.4346056802821097e-01,
          1.2284061837068758e+00, 2.0869098304331812e+00,
          -8.3532597921973939e-01, -1.2074909257043309e+00,
          5.6197086429541954e-01, -6.0433286993439805e-01,
          1.2038553957226483e+00, 5.9305932633403301e-02,
          1.8018353965928660e+00, -8.7038941745563836e-01,
          -8.4960997643685754e-01, 1.7390279485052018e+00,
          8.7473229503298633e-01, -2.1773241761180923e-01,
          -5.4463118133460708e-01, 4.8403977980683105e-01,
          5.2381247176337897e-01, 8.6134455486832806e-01,
          -1.1368768051790272e+00, 1.2113506145548045e+00,
          5.2078275392875051e-01, 1.2018266840591121e+00,
          -1.5171692578697971e+00, 5.5156667771140200e-01,
          5.5055875748667216e-01, -4.8205721572412568e+00,
          -5.5542527165747113e-01, -4.7480883533130900e+00,
          6.2204844234577505e-01, -1.4238564882678137e+00,
          5.8885446076946013e-01, 9.0368734821981836e-02,
          -3.5362544823709197e-01, -3.3011609232556111e-01,
          1.2936525654289052e-01, 2.9963071278050013e-01,
          -1.1523642467115054e+00, -1.1315525318197213e+00,
          1.3497527014718809e+00, -5.0166843875169287e-01,
          -1.5996412850799499e-01, 3.3285403490414374e+00,
          -4.3853150226435522e+00, -2.0065630365917200e-01,
          -1.9282405818182757e+00, -3.6553829912762303e+00,
          2.7300747289262006e-01, -9.5553632696712432e-01,
          -2.3406146868526392e+00, -2.8679893425996988e-01,
          -8.0202967300765593e-01, -1.1028501221598603e+00,
          1.4345196899332684e+00, 1.9031584839331694e+00,
          -3.2694532670375596e+00, 3.5822389097002985e+00,
          -8.3896187441089876e-01, -2.0855572776196132e-01,
          2.2651997154224532e+01, -8.8315118488685462e-01,
          -5.6778696586812005e-01, -3.4448084972924914e-01,
          -1.0401398919990148e+00, 4.2745554770384736e-01,
          5.2547262876098366e-01, -7.3838393935729743e+00,
          1.2802196367590111e+00, -5.4422823052158698e-01,
          -6.7004592041506783e-01, 8.9568589966902012e-01,
          -3.0311448310307437e-01, -4.0641588305241255e-01,
          9.9097021738045021e-01, 1.2535674129305172e+00,
          4.9549947660413896e+00, 1.3502253215424342e+00,
          1.5831833862407690e-01, -4.9241510138867473e-01,
          -3.0799402137931620e+00, -4.7945924961209713e-01,
          1.5530751413194868e+00, 4.3083324779030656e+00,
          -9.5222544329325354e-01, -1.5912383628187750e+00,
          9.5849989408418801e-01, -6.0864036170226277e-01,
          1.5674202617170758e+00, -1.7499228804995129e-01,
          2.1277027187019035e+00, -1.0874750359725505e+00,
          -1.0137391091496248e+00, 2.0417249577057150e+00,
          1.1200406984238283e+00, -1.8481650659610693e-01,
          -6.0049781969023730e-01, 4.4777241417967450e-01,
          6.0953706310767886e-01, 3.4394510505980365e+00,
          -2.6812919401646229e+00, 3.0071431904596539e+00,
          1.2283411166291829e+00, 1.5893330261891110e+00,
          -2.1634392773685520e+00, 6.4589826384590354e-01,
          1.1614984740702827e+00, -3.2295782737942655e+00,
          -1.0640691943535074e+00, -1.4167528600561926e+01,
          8.0113658375644514e-01, -2.0873226571543345e+01,
          6.4322103859999991e-01, 5.9295095915135711e-03,
          -8.4484550033174379e+00, -1.1376426510692703e+00,
          -7.8139771133655733e-01, 2.5571470233847260e-01,
          -1.6016061985079773e+00, -1.4142277391309723e+00,
          1.6870698245562261e+00, -5.4032786619740858e-01,
          -2.2208975191881747e-01, 3.9715955864912544e+00,
          -3.8679639829274461e+00, -1.1942205479188814e-01,
          -2.5622629699291335e+00, -5.1387944521176072e+00,
          2.0562731665512585e-01, -1.3583039566658501e+00,
          -2.8901490596202999e+00, -1.9512060199592796e-01,
          -1.0599643789584163e+00, 3.3482292810452924e-01,
          1.9451427437953168e+00, 2.1677577686947322e+00,
          1.0329249555361292e-01, 6.6906072816901141e-02,
          -1.7735007850907898e+00, -8.2075138160205729e-02,
          4.3207193041990443e+01, -1.1460965483208752e+00,
          -1.8879021893339204e-01, -6.0562198271853696e-01,
          -2.5296594246901127e-01, 7.4184172810565796e-01,
          1.3075426104195345e-01, -1.0592804684035899e+01,
          1.3465291023125039e+00, -7.0344613390193333e-01,
          -9.2944523497869769e-01, 1.0399102560216391e+00,
          -4.5067922176689795e-01, -4.4082390749684210e-02,
          1.1667897246163914e+00, 2.7503580930578575e-01,
          1.9734220503298419e+00, 1.5663698457457147e+00,
          4.0540751110277079e-01, -1.1477762257014389e-01,
          -6.3304039666578777e+00, -8.5699003278864749e-01,
          1.2880482173683376e+00, 2.1942453452961832e+00,
          -1.1481434558796497e+00, -1.5527313422797204e+00,
          3.9261823653230188e-01, -8.7835564746170736e-01,
          1.5153596005776933e+00, 1.4690417307339679e-01,
          2.2374091971974845e+00, -1.2375724320198764e+00,
          -1.0637235647899888e+00, 2.1042890480185870e+00,
          1.2197758004911039e+00, -3.8635656966961757e-01,
          -8.7708959743792803e-01, 6.3474029247321018e-01,
          8.3755385816429317e-01, 1.5659431315099723e+00,
          -1.2934748749888967e+00, 1.3134612277090352e+00,
          5.4848509641396126e-01, 1.4983126087911562e+00,
          -3.8833465069609613e-01, 8.8059705237065045e-01,
          4.3125557582633106e-01, 2.2796346883167136e+00,
          -4.8970902958299600e-01, -3.3492977369865224e+00,
          1.0216967036229843e+00, 1.1616685233736237e+00,
          8.5235721869775527e-01, 3.3206590040533446e-01,
          -6.0941709525021510e+00, 3.6543313778088899e+00,
          -1.7932376961583774e+01, 4.7176772210393486e-01,
          -1.4907402097869042e+00, -1.4474727087304540e+00,
          1.6459601429848787e+00, -6.9293651703354875e-01,
          -3.5794499662862606e-01, 3.0736796957083699e+00,
          9.6215521408683742e+00, -4.9771708789332481e-01,
          -2.0265879017246866e+00, -2.7494135725593223e+00,
          4.9555397762652748e-01, -1.2463244026477667e+00,
          -2.2598545412677336e+00, -4.2743930884311832e-01,
          -1.2100747143744917e+00, -9.7636333130880737e-01,
          1.0040789848329499e+00, 2.1561331518566358e+00,
          -5.2820002563704405e+00, -1.0362403090079292e+01,
          -4.3666613038091556e-01, -3.8887277138204102e-01,
          3.9118313655193425e+01, -1.2000012982143231e+00,
          -1.9514020006574329e-01, -6.4286467295359251e-01,
          -6.9675324423402474e-01, 6.5297845222301232e-01,
          4.9803729416792855e-02, -2.5697067944346443e+00,
          1.4619609297882259e+00, -7.7288920410622219e-01,
          -1.0032193360647232e+00, 1.0108743633705479e+00,
          -6.1580264520669092e-01, -1.8519555149628081e-02,
          1.1506618539963653e+00, 9.2045568607661121e-01,
          4.1910228342362998e+00, 1.3725225984632421e+00,
          6.3234583414325451e-01, -8.0154303295185678e-02,
          -3.4966511220476586e+00, -8.9422248088866130e-01,
          1.8018606765393301e+00, 3.6531240784468384e+00,
          -1.1843693216822968e+00, -1.5522182975809977e+00,
          6.4053715571348280e-01, -9.2689161154673283e-01,
          1.6802054178497754e+00, 1.6482630941960194e-01,
          1.5578518018751109e+00, -1.3462116118209855e+00,
          -1.2118573235664902e+00, 1.8373678997175300e+00,
          1.2836534689721568e+00, -4.2098856445255189e-01,
          -8.8911649219207856e-01, 8.0653641096887496e-01,
          9.1215279143327688e-01, -6.9552777837051201e+00,
          -1.6872428545269700e+00, 2.1609529809802344e+00,
          6.0873527526536808e-01, 1.7849615703693165e+00,
          -2.3856122990817270e+00, 8.9292095593946685e-01,
          6.7988251631836483e-01, -7.5236792617778816e+00,
          -5.1721310104176643e-01, -3.9275992031696814e+00,
          1.0037840803124893e+00, -6.8594221070049546e+00,
          9.2607358216943891e-01, 2.5906655150434715e-01,
          -2.1567307560307252e+00, 1.9773561749623498e+00,
          1.7449983013769941e+01, 5.8461374360516893e-01,
          -1.7126862164025354e+00, -1.5044948717754925e+00,
          1.8287578558621038e+00, -7.9095184429913090e-01,
          -5.0283406909627082e-01, 1.8629518167098207e+00,
          -1.9155741955178694e+01, -5.2909257996858972e-01,
          -2.3315354856975206e+00, -2.3035809931945095e+00,
          4.7875806011352201e-01, -1.5416056740885615e+00,
          -2.2391088121074532e+00, -4.8938984181998590e-01,
          -1.3975365615815762e+00, 4.2574445421966614e+00,
          2.4560689803542815e+00, 1.6403308706716084e+00,
          6.5700939224402358e-02, 1.3933334112183902e+00,
          -1.3753306121590398e+00, -5.2220546987451955e-01,
          2.1259583782382361e+01, -1.3312763679910551e+00,
          -1.1189532033791925e+00, -2.1740059462936076e-01,
          -1.3228054408298611e+00, 3.0605170618885974e-01,
          1.0251047191447420e+00, -1.7939688994521492e+00,
          1.8947995958398947e+00, -5.8231556155147224e-01,
          -8.5783506292629330e-01, 1.0734996104989005e+00,
          -5.8377969479164252e-02, -9.9709185487284047e-01,
          1.1071551011610754e+00, 1.4122756249757122e+00,
          -2.3902034972352650e+00, 1.8626698291041497e+00,
          4.2181446000417705e-02, -1.1104436835157041e+00,
          -7.8593495392294095e+00, -6.4103283748464324e-01,
          2.3408217728148069e+00, 1.8400646643166201e+00,
          -1.2401746903595994e+00, -2.2887725270102401e+00,
          1.4734094881425042e+00, -6.8224267943184791e-01,
          2.4580535052264967e+00, -7.0611874785813966e-01,
          2.8917757788232286e+00, -1.4184577595825407e+00,
          -1.3116324770782093e+00, 3.0899719312769127e+00,
          1.6403728894207685e+00, 7.4545281644886330e-02,
          -6.1360090378527077e-01, 5.8069319032729283e-01,
          8.1915453318078157e-01, -4.1407258481651086e+00,
          -2.0290664301059813e+00, 1.7926918050670368e+00,
          1.6255206510220477e+00, 2.5198244631216506e+00,
          -1.2696467669552727e+00, 6.3060511984185064e-01,
          1.5275397301435152e+00, -1.1609807792662461e+00,
          -1.6241842659695909e+00, -6.5870520970654249e+00,
          1.1173219340429608e+00, -9.7512780541297257e+00,
          7.9170017126272607e-01, -4.5228167646733058e-01,
          -2.8435342820779241e+00, -5.1434893630943064e+00,
          -3.3516577480354918e+01, 8.2495223879429105e-02,
          -2.4701311175296921e+00, -1.9244317618325764e+00,
          2.7184110657191867e+00, -5.6051835997057620e-01,
          1.1806032668637818e-01, 4.4191099948454555e+00,
          -3.1239646952438299e+01, 9.1271290567523367e-02,
          -3.7232667091214569e+00, -4.0422047231615883e+00,
          -5.3512484913398661e-02, -1.8378728501241199e+00,
          -3.5135528674444783e+00, 9.0204379652710318e-02,
          -1.5501659376691808e+00, 1.2933116522626622e+00,
          3.2497914834105708e+00, 2.7834347108857491e+00,
          -5.2997684048881579e+00, 7.6751147195008740e-01,
          -1.3778978936289585e+00, 1.1222905775351047e-01,
          9.7946256325240952e+01, -1.7033242501437766e+00,
          7.0252456233089899e-01, -1.3790302980193763e+00,
          6.1151286170329100e-01, 1.3276332661818879e+00,
          -9.6654965240748603e-01, -9.9389323054361984e+00,
          1.7782988370544255e+00, -1.3049800468935375e+00,
          -1.5401753781882699e+00, 1.5213702157194988e+00,
          -1.2894154912773337e+00, 7.3688129929367929e-01,
          1.7618060227229295e+00, -5.8537127521395516e-01,
          2.2645761412906977e+00, 1.7992134853370190e+00,
          1.0082800454281220e+00, 7.3610931511792288e-01,
          -1.8235842295764888e+00, -1.3948069319468279e+00,
          1.0634751087677234e+00, -1.0567320068925301e+00,
          -1.6210949022703756e+00, -1.8904919876185009e+00,
          -1.2447314780034138e+00, -1.2672710156812115e+00,
          1.8824589256285840e+00, 8.5072175197754041e-01,
          2.2177416650744215e+00, -1.6439189342581744e+00,
          -1.3328444095621168e+00, 1.9481986713759729e+00,
          1.7521766451511420e+00, -1.0463425076547364e+00,
          -1.4071018768724612e+00, 1.3459250083331542e+00,
          1.4494684624767227e+00, 8.7381195553008197e+00,
          9.9212821329981526e-01, -4.4480591313596030e-01,
          -7.9307600642459852e-01, 1.4399117482828196e+00,
          7.1804270512198509e-01, 1.3662305863305870e+00,
          -9.4121847554234872e-01, 6.5238874718496431e+00,
          8.6971230890224605e-01, -7.1061748439517931e+00,
          1.5533726851792935e+00, 3.3882259984628971e+00,
          1.3474955039627459e+00, 1.1992798116403225e+00,
          -5.0883390788627132e+00, -3.6322872797402188e+00,
          9.1144357242744150e+00, 1.2462199781733347e+00,
          -1.5607875389796737e+00, -1.8769801109232278e+00,
          1.5432724222493484e+00, -1.4304628673135440e+00,
          -8.3479820919698133e-01, 3.5955511887391767e+00,
          1.0600252590911015e+01, -6.2834396606170118e-01,
          -1.6562348773958737e+00, -4.6375547423905150e+00,
          1.0953495765777470e+00, -1.4943763594006774e+00,
          -2.5581312897381689e+00, -1.0974317442233381e+00,
          -1.2707403713817902e+00, -2.6558045427374624e+00,
          1.5319336256641733e-01, 2.5571249759909298e+00,
          1.1261723246312057e+01, -5.7674386918477270e+00,
          4.8698246242176696e-01, -1.1330986846996023e+00,
          4.3643000733237294e+01, -8.6133398142688478e-01,
          3.9960603027582903e-01, -5.8582636218499795e-01,
          7.2226193733660307e-02, 6.6860110931885341e-01,
          -3.9034357864642999e-01, 9.9662013561775453e-02,
          8.1435647430620173e-01, -6.0298572672909267e-01,
          -7.7663438895546788e-01, 7.9500899002910907e-01,
          -5.2108364850160616e-01, 3.0113427190469150e-01,
          8.1296744346988203e-01, 1.8813884122068087e-03,
          -3.4080236837759608e+00, 1.0226527293842180e+00,
          5.2110024343612527e-01, 3.2513660942184469e-01,
          3.1085323185889524e+00, -6.3022106572536529e-01,
          5.4367481768648762e-01, -1.8187761462499421e+00,
          -6.8858196067628641e-01, -1.0333066815473262e+00,
          -4.9791091665936049e-01, -5.4824915195694246e-01,
          8.9070632281782425e-01, 2.5037577632245828e-01,
          1.1806337946111096e+00, -7.4968143936606402e-01,
          -6.8555763405280956e-01, 1.0151449789392006e+00,
          8.4231611886079460e-01, -5.0394328404538113e-01,
          -6.7517798372488402e-01, 6.2061606897739718e-01,
          5.5699769270266830e-01, -5.1797979950280730e-02,
          9.7909540583297650e-01, -9.4465941130615394e-01,
          -4.7001162485993642e-01, 6.7050058097939857e-01,
          3.7173982762080338e-01, 7.1570824008848377e-01,
          -3.9860917022188674e-01, 6.2735376378710903e+00,
          5.0479453096457949e-01, -1.7293106328527441e+00,
          8.0241819585661867e-01, 9.6436554376724111e+00,
          6.2071451152303925e-01, 5.5625747591709263e-01,
          6.7783542906234180e+00, 4.7567685349177387e+00,
          -4.1491664048249408e+00, 5.6707406895976198e-01,
          -8.3686698158456552e-01, -9.6243979306527117e-01,
          8.1454078444279188e-01, -7.0587821229138004e-01,
          -2.7856691419395407e-01, 1.2052774615911048e+00,
          -4.1081714568157164e+00, -2.6697919518370539e-01,
          -9.2729338751745993e-01, -9.9896944326604709e-01,
          5.2111287495854597e-01, -5.8357417420227520e-01,
          -1.0823425317840083e+00, -4.3792917390962172e-01,
          -6.2494986457621160e-01, -3.0956594943168675e-01,
          4.6777063177225048e-01, 1.2295411630948510e+00,
          2.9561561914895993e+00, 1.9096104050672178e+01,
          1.9413987332027152e-01, -5.2726867468242677e-01,
          4.5324718587113153e+01, -7.4729294013869796e-01,
          6.6553793925614535e-01, -5.8758661401152046e-01,
          5.5277602006211657e-01, 5.7607816499195275e-01,
          -6.2406667800455229e-01, 4.7853360415243185e-01,
          6.8492986153685931e-01, -5.3155305093803618e-01,
          -7.2496944970896027e-01, 6.6603952085435758e-01,
          -5.9152421621924356e-01, 5.0230379390023649e-01,
          8.1731118405707248e-01, -5.8797131825831450e-01,
          -2.0310847813781927e+00, 9.0445953628664588e-01,
          5.0317175796164160e-01, 5.4903812151392362e-01,
          1.2297449601301484e+01, -6.0307588589363348e-01,
          4.0054187964505689e-01, -1.4327086301695318e+00,
          -6.4610785850485219e-01, -8.8157894866787490e-01,
          -6.8361385223702398e-01, -4.9532014062120966e-01,
          8.2198877782146196e-01, 5.0559540108470058e-01,
          1.0148596437137034e+00, -7.3208643438527887e-01,
          -5.5908731938384659e-01, 9.8109905727328395e-01,
          7.0641424791625929e-01, -5.3260343056518822e-01,
          -5.5943684749223721e-01, 6.1427184596651330e-01,
          6.2843780879147704e-01, -1.1985968854887499e+00,
          1.0759980615982643e+00, -1.2352173562190776e+00,
          -8.3181185516766343e-01, 5.9753775328127690e-01,
          8.4078751346592118e-01, 6.8554235780101336e-01,
          -7.5188465443967545e-01, 3.1004204127006858e+00,
          7.5864286348834131e-01, -1.5820408881660333e+00,
          6.6414780794125405e-01, -1.3333277662756768e+01,
          5.6579166632162015e-01, 4.8332725199436083e-01,
          2.5686592457985284e+00, 8.3465726569080925e+00,
          -6.1416641203608693e+00, 6.1098777941196203e-01,
          -7.1830726120823951e-01, -7.2800965899352377e-01,
          7.6414061110880882e-01, -5.7772074134821616e-01,
          -4.6673249079472967e-01, 1.0781720844999148e+00,
          -5.6394906551023363e+00, -5.0016815921025304e-01,
          -8.7581038705530212e-01, -1.0863661003170773e+00,
          5.2835404088980997e-01, -6.0082513466912535e-01,
          -9.2249530726593065e-01, -5.7541219452790171e-01,
          -5.0281425862039264e-01, 5.2197456494064620e-01,
          4.2841381837059539e-01, 1.0330741884783305e+00,
          4.2557850461687892e+00, -3.0289277781522568e+00,
          8.1670371293990263e-01, -6.6384253043199448e-01,
          4.9074071070563953e+01, -6.9933328613873769e-01,
          7.3774601985870969e-01, -8.2013833014795723e-01,
          8.1908926776565882e-01, 6.8018969645989558e-01,
          -8.3670872927617501e-01, 8.3359271551987291e-01,
          7.6603849803547586e-01, -7.8258098466703485e-01,
          -8.1697864969106937e-01, 7.9927392614368098e-01,
          -8.0302666329323702e-01, 6.1548940647229500e-01,
          7.8007724550923319e-01, -8.3181666821427480e-01,
          -2.4858170815133454e+00, 8.2960205681415655e-01,
          6.8058051129208297e-01, 7.5382028363570885e-01,
          1.6836957863156048e+01, -8.2483123751855003e-01,
          3.9512388555405142e-01, -2.2535916415679673e+00,
          -7.3224878649177350e-01, -6.3179060011197474e-01,
          -1.0568828124858018e+00, -7.2400831521631015e-01,
          5.1931158058407823e-01, 6.8728811267910184e-01,
          7.5846250005658011e-01, -6.8339627813191484e-01,
          -6.4457113293111123e-01, 6.8402563969170638e-01,
          8.2996847348666580e-01, -7.5830278382746175e-01,
          -7.2532339814880364e-01, 7.6694865886792751e-01,
          7.2613682830797466e-01, -1.6678955802896758e-01,
          1.6840979972096519e+00, -1.6193002227321047e+00,
          -1.0358986395304199e+00, 4.6864665214655526e-01,
          1.3671088700384291e+00, 7.2621067171353781e-01,
          -1.0107179431506477e+00, 8.5942288287660098e+00,
          1.0938469882490724e+00, 1.1411238139406721e+00,
          8.1722985943701754e-01, 9.8122502449610955e+00,
          6.9960290229328337e-01, 8.3727089597686821e-01,
          6.9854572195391906e+00, 6.2203050460134319e+00,
          -1.3221744706718559e+00, 7.0626867801427584e-01,
          -4.7837754432004598e-01, -7.0759145966005610e-01,
          5.5910363929432316e-01, -7.5697643495950573e-01,
          -6.3221374179334111e-01, -1.2513779197952030e-01,
          -4.3769025630372891e+00, -5.9386961337498234e-01,
          -2.8424315529053579e-01, 3.8791052533398729e-01,
          7.5251439545180743e-01, -4.2240113670602020e-01,
          -4.4449313388625433e-01, -7.5452627296204300e-01,
          -6.2455168198235844e-01, -1.0851169877791389e+00,
          -1.2481276630570078e-02, 7.2815036761685714e-01,
          1.0952575419333892e+00, 1.2095357608151183e+01,
          9.0385240283673851e-01, -8.4484825426034726e-01,
          5.7757657774254355e+01, -5.7154375218621190e-01,
          1.2046062864965030e+00, -7.8408990005843993e-01,
          1.0983017961050716e+00, 7.5664850965413488e-01,
          -1.0332517288095258e+00, 2.0769281943513369e+00,
          5.4586891348531175e-01, -7.9273397507605770e-01,
          -6.8698993795734542e-01, 6.2297395448440029e-01,
          -8.6336340118797450e-01, 1.0005008431241005e+00,
          7.2367672926403459e-01, -1.1334725865591793e+00,
          3.2149894179058127e+00, 6.4088152158131784e-01,
          8.2277143167702405e-01, 1.0177456982108826e+00,
          1.1721193104287101e+01, -7.3842623325590917e-01,
          1.4060434977673003e-01, -2.0229228543740563e+00,
          -6.3176533605660046e-01, -4.6721673813831260e-01,
          -1.1514735611008369e+00, -6.9150747622391484e-01,
          4.5016406693036864e-01, 9.1565841039702167e-01,
          5.7613584643468607e-01, -4.8522014927595702e-01,
          -4.2905571058954389e-01, 4.6307143178549603e-01,
          6.0097050945461328e-01, -8.1608030770732154e-01,
          -7.1794252142330395e-01, 7.6440901882305812e-01,
          6.5370376278197395e-01, -1.1901592286468681e+00,
          1.8402572904103411e+00, -1.9168624913643479e+00,
          -1.4293820487350215e+00, 2.4718691408424592e-01,
          7.7427126501689336e-01, 6.9536504748416905e-01,
          -1.2973518531600157e+00, -6.1924705893809728e-01,
          1.4196504449016376e+00, 8.2575958466444710e-01,
          6.3560360560157925e-01, 1.9784301937019968e+00,
          7.3698196049541065e-01, 8.9471767586531414e-01,
          6.9188228751520215e+00, 8.7933811469647818e+00,
          -1.0972815553802231e+01, 7.4556317151952134e-01,
          -3.9323185034802810e-01, -5.8528721533371331e-01,
          3.3825614862108322e-01, -6.5882635900267761e-01,
          -8.1864643142600824e-01, 2.3839156962106203e-01,
          -6.0792711207963182e+00, -8.8009912773950927e-01,
          -2.7552164217892050e-01, -5.6928774874766594e-02,
          8.3409131718400487e-01, -3.5187886513863953e-01,
          -3.2360155354684872e-01, -7.2960218719967507e-01,
          -5.5274293849209388e-01, 1.4754487481727929e+00,
          6.5238283492815144e-02, 5.8259010233217678e-01,
          6.3895942715759793e+00, 2.3343654650961845e-01,
          1.2432384719395426e+00, -9.0290102683786211e-01,
          2.5921766801982759e+01, 2.2085341733213715e-01,
          1.8832965803999770e+00, -3.9003315151413676e-01,
          2.4572791315663882e+00, 2.0475457869906341e-01,
          -1.5963626014779029e+00, 5.0626030827367865e+00,
          -6.0923177787936966e-01, -2.4794375168915636e-01,
          6.4169223162164155e-02, -1.3284997059241599e-01,
          -5.7563981832665123e-01, 1.7364971484854621e+00,
          -1.8313281980577109e-01, -2.6069505268591424e+00,
          -1.1226947701531913e+00, -4.7285250983333160e-01,
          4.8969554312188951e-01, 1.7835741944731343e+00,
          1.4995935089362259e+01, -2.0882034529820462e-01,
          -1.3397972633287429e+00, -5.3186093650510147e+00,
          2.9982701254402827e-01, 7.7095178711566159e-01,
          -2.1288780960891893e+00, 6.1955562284923965e-02,
          -9.4023753249532915e-01, 1.1526947151215496e+00,
          -8.7241591952047370e-01, 5.6415199491233303e-01,
          5.3225781434059594e-01, -1.0656583792388077e+00,
          -4.2128776064605777e-01, -7.9454337723248802e-01,
          -1.0550573110544460e-01, 2.8339346324021597e-01,
          1.3406568756479756e-01, 1.1573802535913425e-03,
          3.8148279892298138e+00, -4.2750327781595843e+00,
          -2.6049723372946594e+00, -1.2551395269310079e+00,
          3.5229351847301120e+00, 5.1725716302244554e-02,
          -2.4731885850786517e+00, 4.0168169977639563e+00,
          2.5416451494308165e+00, 5.9865093686428811e-02,
          -1.0978668832217957e-01, 8.2151270394747544e-01,
          3.0247920548822697e-02, 9.7937243050510658e-01,
          1.2934536782416506e+01, 3.2320024501248419e+01,
          -8.7590035045873971e-01, 4.0000855694735338e-01,
          1.1796696878110606e+00, 6.4236869000721120e-01,
          -1.0981148187863756e+00, -9.1747021386404823e-02,
          -6.4022782889395680e-01, -1.2341031638169992e+00,
          -1.0428074060875083e+00, -7.3483506184788216e-01,
          1.4647038363447615e+00, 1.0272670544426590e+00,
          5.7846174457134647e-01, 9.7141179014402856e-01,
          1.2075454321454506e+00, -7.1183387030852996e-01,
          7.3591551261578092e-01, -8.5115477057447819e-01,
          -1.8937250552139777e+00, -7.6876457026038447e-01,
          -2.2628606296630460e+00, -8.1431249745631593e+00,
          3.2181188518237236e+00, -7.3949102423939883e-01,
          3.3737778264826098e+01, -2.2355608312585595e-01,
          1.2091851696753446e+00, -5.8204098325899423e-01,
          1.0566189468380698e+00, 4.0661374722729010e-01,
          -9.5378765307469793e-01, -5.4199926551803674e+00,
          7.7554362510197219e-02, -3.6087891495400021e-01,
          -2.3576095060150154e-01, 1.4892254026562488e-01,
          -4.6078850030674673e-01, 1.1073504436161179e+00,
          1.8266115618800771e-01, -1.1307882971056380e+00,
          9.8040349788386494e-01, 1.3654626440359133e-01,
          5.1719113445899245e-01, 1.1117030867134419e+00,
          -1.1716336071225532e+01, -3.3975738047900039e-01,
          -3.6995383064238829e-01, -2.6223236052566943e+00,
          -1.3862450975084709e-01, -3.2236026098696274e-02,
          -1.0350622127181932e+00, -3.0846979388175738e-01,
          -1.0018681707427492e-01, 8.9578572424885916e-01,
          2.4814331195303035e-01, -4.6308893606759459e-02,
          -1.7679827829895993e-03, -3.7405329406695081e-02,
          6.2125137696436378e-02, -5.9346399341506562e-01,
          -3.3141446780530648e-01, 3.4260395752921674e-01,
          3.0795581819998563e-01, 1.8926549443289906e+00,
          2.2508565137264784e+00, -2.3919532901700604e+00,
          -1.6196869106910214e+00, -3.2252356841502217e-01,
          3.9505821554891163e-01, 3.0309234156350628e-01,
          -1.2532034905392972e+00, -2.3069103113733735e+00,
          1.5199767687227264e+00, -2.0190088755533395e+00,
          2.4391979803925296e-01, 3.0799140506671367e+01,
          2.1363175285654679e-01, 7.2788730837324800e-01,
          1.5685441506702196e+01, 9.3667460527208473e+00,
          -2.0857906929114516e+00, 4.9928183185549729e-01,
          3.0610776767791720e-01, -1.3008282099621549e-01,
          -2.5655485831375174e-01, -2.8506347398261855e-01,
          -6.1179078625731886e-01, 5.4481263532357327e-01,
          5.8117654800323111e+00, -4.2379011269936084e-01,
          2.6332541275723836e-01, -8.5317834253458502e-01,
          4.9638809290586422e-01, 2.2191174427684593e-01,
          3.5660229812333091e-02, -5.9203097908988656e-01,
          1.0664892186767981e-01, -9.5623987590712800e-01,
          -8.7759637724628170e-01, 3.2694905647345446e-01,
          3.6001982057665183e+00, 6.3821937887011870e+00,
          1.3645507482316972e+00, -5.7257393356354358e-01,
          2.9889135026855467e+01, -1.0587533360218500e-01,
          1.4507067918548875e+00, -5.3185592483671917e-01,
          2.1929445948505588e+00, 4.4031364325118827e-01,
          -1.3466102192031084e+00, 2.3272534779573972e-01,
          -4.5370589415060961e-02, -3.7242136860169694e-01,
          -1.9819891518110169e-01, 6.0132971937842401e-02,
          -5.2398693468520685e-01, 1.4930096174623781e+00,
          1.7467918157021425e-01, -2.4366931243071939e+00,
          8.1914900692489212e+00, 7.9606993177297969e-02,
          6.9011091949888170e-01, 1.5711198753435920e+00,
          5.6229068239729596e+00, -4.0341480364723908e-01,
          -5.7908837002565283e-01, -1.8112818706837868e+00,
          -2.7703844408689719e-02, 7.1431642236060647e-02,
          -1.7482572421414557e+00, -2.6268919468409568e-01,
          -3.0476868146192065e-01, 1.1468423285689302e+00,
          -1.4395745942932645e-02, 2.5053687489208994e-02,
          1.5962295584885514e-01, -2.1792746870142771e-01,
          -5.9006919590096449e-02, -7.3269575994410097e-01,
          -2.5457157354702681e-01, 4.6254286788696608e-01,
          3.4234076138065916e-01, 1.3661406741989914e+00,
          2.0228464814894815e+00, -2.1915884710103977e+00,
          -1.8251500428187160e+00, -5.1885233256189811e-01,
          3.4129157741200324e+00, 2.4874631737361219e-01,
          -1.7788795290512938e+00, 7.4463514801501676e+00,
          1.7406218015313724e+00, -2.5286814081057023e+00,
          1.8191189402353367e-01, -1.1089449417407575e+01,
          3.3219165867652678e-01, 8.4152951786822983e-01,
          -3.5236913730960175e+00, 2.7638103620880965e+01,
          6.9797455832102673e-01, 5.7754326503108078e-01,
          4.4056003703906421e-01, 1.1535494148893857e-01,
          -4.1176900494531454e-01, -2.9676686002864144e-01,
          -7.3685636175592484e-01, 1.2580372956257863e-01,
          -2.6276177674948498e+00, -8.1342278710140670e-01,
          5.5125206974120566e-01, -3.9871736931224527e-01,
          7.4709719982054290e-01, 3.2753077831972960e-01,
          2.7729864070095789e-01, -6.6415523244611907e-01,
          2.3583974556245771e-01, -1.8842206698743944e+00,
          -1.1113138261437132e+00, 6.7595652668349165e-03,
          -2.2366530579721418e+00, -3.3419248782093827e+00,
          2.5765903515188393e+00, -6.9248646281525583e-01,
          4.6085671356778782e+01, -7.2263834543695349e-01,
          4.6780712772621352e-01, -6.5090879255565082e-01,
          7.4714852796666800e-02, 6.2434918245437876e-01,
          -4.2360735290389567e-01, -3.7601180848214315e+00,
          9.0599515597523594e-01, -6.0184752865221680e-01,
          -7.6001719412554902e-01, 8.1642151058201962e-01,
          -5.3286694743676588e-01, 3.9304178410344370e-01,
          8.0395281158014309e-01, 3.0189846355239917e-02,
          1.2271401177290885e+01, 9.5422910961927943e-01,
          5.6226782508107698e-01, 4.2913023960456242e-01,
          5.7112746683866717e+00, -6.7327079240409538e-01,
          6.5597754355689097e-01, 9.1501638965647303e-01,
          -7.9838040592283821e-01, -1.0487928668028703e+00,
          6.2290126612591985e-02, -6.0241619465506890e-01,
          8.6720916767443845e-01, 3.4332601875312568e-01,
          1.3958836769653695e+00, -8.5443062229702527e-01,
          -6.9144119706269780e-01, 1.2983936383929258e+00,
          9.1391592353138207e-01, -5.0996910538898366e-01,
          -6.8591717887877035e-01, 6.9430123544911493e-01,
          7.3361995332005925e-01, 2.0801099656369422e+00,
          7.7179929049279755e-02, 7.8661085661522315e-02,
          -4.4089462505544141e-01, 7.7588065998545475e-01,
          -8.5380786428471034e-01, 7.3263610128894974e-01,
          -2.2867245863617433e-01, -5.2729944267420292e-01,
          5.9348325449304751e-01, -6.0323019775965250e+00,
          7.2826758601725150e-01, 1.8616817735736404e+01,
          5.8084211418074028e-01, 3.8525358195861464e-01,
          1.1881194107257818e+00, -6.4919040223530500e+00,
          -9.3008541649610930e+00, 5.1784652564392575e-01,
          -8.5054809518820640e-01, -8.6357008125575585e-01,
          9.7032785891043261e-01, -7.2553109383954528e-01,
          -5.4640656052057768e-01, 2.3980016170955163e+00,
          1.1883097762353013e-01, -4.9456922674964415e-01,
          -1.0769439043495708e+00, -2.8250251669547923e+00,
          5.4317061200982975e-01, -7.3573892931295259e-01,
          -1.5051340722914994e+00, -5.7867996778913844e-01,
          -6.1927818950756020e-01, 6.4540407767759467e-01,
          3.7108694570522371e-01, 1.5374371233083486e+00,
          7.6700695913707118e-01, 8.7493413673098019e-01,
          -1.6301842960468410e-01, -6.3814229830282376e-01,
          4.8276345570222468e+01, -5.2567116053851970e-01,
          1.1484879711745002e+00, -5.8150394011411743e-01,
          1.7016486347635518e+00, 5.7892281793984179e-01,
          -1.0755222942845428e+00, -3.4956138714389362e+00,
          3.8112298573314418e-01, -5.6150424929956255e-01,
          -5.1767113693327127e-01, 4.8879726328719264e-01,
          -7.2463762356319095e-01, 1.2030951259994023e+00,
          4.3069485915836414e-01, -1.9518790819924707e+00,
          8.4320563337852281e+00, 4.1728245297299338e-01,
          8.9289771715214572e-01, 1.1318913871778031e+00,
          6.2438229020765590e+00, -6.2421054596538195e-01,
          8.3187927601518344e-02, 3.6794663234162533e-01,
          -5.3716436531104605e-01, -3.7824463207724285e-01,
          -9.9910968944766398e-01, -6.1281739536988356e-01,
          2.2175862244676869e-01, 1.1557389721022027e+00,
          3.7214743916179271e-01, -5.1471050259601192e-01,
          -4.1299577685948574e-01, 3.4783813606855885e-01,
          4.9480512720701764e-01, -7.8980725095390880e-01,
          -5.5914220628515987e-01, 5.5542794524185024e-01,
          5.9330813242968716e-01, 3.6323882282113802e+00,
          5.2388076530866112e-01, -9.8565491666999139e-01,
          -1.2663975846154478e+00, 8.3659405616807792e-02,
          2.0131933451065938e+00, 6.3605485276195017e-01,
          -1.2575288653567316e+00, 1.1157528274335120e+00,
          1.1259709045409774e+00, -3.4109164892102750e-01,
          5.4646148313886345e-01, -8.0433286883364250e+00,
          6.1951728791950555e-01, 8.9648171302211710e-01,
          -7.0844374206435647e+00, 2.1098101147146364e+00,
          -8.2133541766483487e-01, 7.7500501954489376e-01,
          -2.4423232168293876e-01, -4.8234911677598352e-01,
          2.8568886312919811e-01, -5.1227560721018295e-01,
          -9.5806336491898658e-01, 3.3298313380786382e-01,
          -1.1638336736225474e+01, -1.1744875548299254e+00,
          -1.0926908905692534e-01, -3.7874906246685891e-01,
          8.3343150235442864e-01, -2.9700118248498186e-01,
          -4.5093852619045921e-01, -7.5947106034826095e-01,
          -2.9742045474799134e-01, -3.3493951461837832e+00,
          -8.6407663104809596e-01, 4.2223134383636834e-01,
          -1.8274079125002900e+00, -2.6918342954880206e+01,
          1.8080290251771913e+00, -7.5164645577424327e-01,
          3.3054067707755799e+01, -2.4358790970183141e-03,
          1.6806153942081627e+00, -4.9324758358379639e-01,
          2.5009742536018020e+00, 3.1444606075165094e-01,
          -1.3559632225038778e+00, -1.6658298598001717e+00,
          -1.0042143759852476e-01, -3.6968555889857035e-01,
          -2.5797349166630124e-01, 5.4598376605288580e-02,
          -5.6581799653873177e-01, 1.4302018940275081e+00,
          1.8951031036140797e-01, -2.4960554266261714e+00,
          1.1700148501857958e+01, -1.6312845946324309e-01,
          7.4290166413450531e-01, 1.5035182056635967e+00,
          -1.5271748836331714e+01, -3.6449768462381760e-01,
          -1.0400438308166551e+00, -4.4195305688169277e+00,
          -9.5604818085106319e-02, 3.7131848094844799e-01,
          -1.3571307997278854e+00, -2.0476744577241082e-01,
          -5.6541550520105732e-01, 1.0364417604246592e+00,
          -3.3239195238461988e-01, 1.1163182558592605e-02,
          1.9367234596227473e-01, -5.2217144971907692e-01,
          -1.3193129943170667e-01, -6.7840594587808845e-01,
          -2.9243727128113423e-01, 4.1247028923705203e-01,
          2.2626197079137092e-01, 4.2893775889133137e+00,
          3.4934909596128412e+00, -4.5526927916804167e+00,
          -2.3889093384578963e+00, -7.8108847101432122e-01,
          3.0925625064969315e+00, 3.3900630637337115e-01,
          -2.0638500786537541e+00, -1.0626146757887140e+00,
          2.2617047359371449e+00, -1.4844900923937634e+00,
          1.8650308226187928e-01, 1.5921258345556058e+01,
          1.5609663182538955e-01, 7.1964594841437668e-01,
          1.0858669235705026e+01, 2.3408698187932757e+01,
          -5.2016628046354789e+00, 5.6776822742685573e-01,
          6.3205162939548953e-01, 1.8722893210979427e-01,
          -6.5603536417680264e-01, -3.3964399851827526e-01,
          -1.0066171320222705e+00, -8.1692191191560659e-01,
          2.2815019661666103e+00, -9.3559754196274236e-01,
          1.2581048451093606e+00, 5.3966734828102225e-01,
          5.4509217061096282e-01, 5.4412578092710495e-01,
          6.7010711400525425e-01, -5.8368328306936301e-01,
          3.6159707314941270e-01, -2.8208001590349028e+00,
          -2.3222499887721857e+00, -3.0534212295876223e-01,
          -5.3048344539213526e+00, -2.5571535435340557e+01,
          3.2301722711759333e+00, -7.5357949979921679e-01,
          3.8468068739178813e+02, -5.3848687692994295e+00,
          5.4494821836918446e+00, -5.6617928248618608e+00,
          4.9418970573260061e+00, 5.6576286143415766e+00,
          -5.5865644147047249e+00, 8.0793118461551501e+00,
          5.2320476561867624e+00, -5.5961161820729881e+00,
          -5.4954837259033864e+00, 5.4778377968220058e+00,
          -5.6388923147000902e+00, 5.5292066003363081e+00,
          5.4024792550072300e+00, -4.8608631288025137e+00,
          -2.4690846841904926e-01, 5.0875926317656033e+00,
          5.6104252955051335e+00, 5.5538721131674178e+00,
          6.2319980967951398e+00, -5.5596568674165558e+00,
          5.2805924112241485e+00, -3.8385723087809271e+00,
          -5.4075683846704452e+00, -4.9835725141129670e+00,
          -5.6298613693202277e+00, -5.5699788725622996e+00,
          5.0224018352205215e+00, 5.6068287497101066e+00,
          4.3361776186366878e+00, -5.3568110092317704e+00,
          -5.4695924433079082e+00, 4.6005643019356270e+00,
          5.2754574265856542e+00, -5.6723807662457526e+00,
          -5.5635875465993170e+00, 5.6055116041838682e+00,
          5.5604288266048547e+00, -4.3954415107926037e+00,
          4.8005661061625808e+00, -4.2445699739647846e+00,
          -5.2443500982586979e+00, 5.1342273018715856e+00,
          3.7367049404825887e+00, 5.5725039074142684e+00,
          -5.3303165376517327e+00, 3.4988629830167848e+00,
          5.3021403786741788e+00, -1.2565273924539493e+00,
          5.4581434478398245e+00, 4.1022622060092369e+00,
          5.5657134652173532e+00, 5.6880868941695546e+00,
          1.6831848174785453e+00, -2.9787963592345759e+00,
          2.0987271597835662e+00, 5.6302230915005058e+00,
          -5.1543584268612097e+00, -5.1546155477686026e+00,
          4.9993321258066308e+00, -5.6094761101894077e+00,
          -5.5546165247636559e+00, 2.8574959497814980e+00,
          -1.0817832343181411e+01, -5.4952723067721418e+00,
          -4.5479597281181094e+00, -2.8020829013079576e+00,
          5.6476353482852586e+00, -5.3316688987490197e+00,
          -4.2473676866562755e+00, -5.6377860122204613e+00,
          -5.4504671553179831e+00, 3.5883543609226178e+00,
          4.8953306368321217e+00, 4.2227158915827339e+00,
          9.9122188992919149e+00, 4.0445163366967982e+00,
          4.5035780399143839e+00, -5.6165637824727295e+00 ]
      - [ 6.7116323702586533e-01, 1.0094345770576476e+00,
          2.8423410970130027e+00, -3.9054065188206893e-01,
          4.0256494190559646e+00, 2.3754441453953956e-01,
          -2.4584011305502353e+00, 1.0176751821285125e+01,
          -1.6369733722943753e+00, -9.0016715726726398e-02,
          4.8247548708740512e-01, -7.5454350218688160e-01,
          -6.7747929525407291e-01, 2.6304037754687157e+00,
          -9.4121597786519917e-01, -4.3501215015891672e+00,
          1.3845480761249490e+01, -1.8594504999835657e+00,
          9.6479169602179682e-01, 2.7555944539206023e+00,
          6.2062047344038564e+00, 5.1068743083822275e-02,
          -2.2655313254425677e+00, -6.7370653789797288e+00,
          8.5554732360048746e-01, 2.2457126295319925e+00,
          -3.2224816409821355e+00, 2.0051646202790024e-01,
          -2.3142752240605464e+00, 1.9815699571058405e+00,
          -3.2563044804093706e+00, 1.1813997044851186e+00,
          9.8981659004243661e-01, -3.0429348902579232e+00,
          -1.3916649201702012e+00, -1.0742955715287503e+00,
          8.8457715282041341e-02, 1.4259646067631673e-01,
          -2.0569471450517021e-01, 9.3718343975089677e+00,
          5.2614027558475858e+00, -5.8266265655451068e+00,
          -3.8100113315510442e+00, -2.4109617323581838e+00,
          5.6451016230504942e+00, -1.7115163298782915e-01,
          -3.6568515416546905e+00, 9.9003733284794517e+00,
          3.5131471782471961e+00, 6.6380327075356327e+00,
          -6.4391997214863128e-01, 8.0085840744956780e+00,
          -2.1941643362113089e-01, 1.3305233364490261e+00,
          1.2033030262882399e+01, 1.4681758347598123e+01,
          1.5710526841077744e+01, 6.5251605464952811e-01,
          2.2782944651681940e+00, 1.8484311189688700e+00,
          -2.4646209227157891e+00, 3.0944100258155992e-02,
          -1.3961008966254795e+00, -5.3075804784878446e+00,
          1.6614435966688340e+01, -1.6030724956629470e+00,
          3.5932587669255693e+00, 5.7628798642665684e+00,
          8.6898657014689240e-01, 1.6788283593966020e+00,
          3.8030756734628790e+00, -9.0259514209570957e-01,
          1.2824144679093552e+00, -6.5629227894005506e+00,
          -3.7949389068473107e+00, -3.3916479559241863e+00,
          8.1561749645023678e+00, -1.1230255777931738e+01,
          4.9091574156293474e+00, -9.8420319325843209e-01,
          2.0519653219317777e+00 ]
