%YAML:1.0
my_nn: !!opencv-ml-ann-mlp
   layer_sizes: !!opencv-matrix
      rows: 1
      cols: 3
      dt: i
      data: [ 24, 80, 1 ]
   activation_function: GAUSSIAN
   f_param1: 5.9999999999999998e-01
   f_param2: 1.
   min_val: 5.0000000000000003e-02
   max_val: 1.
   min_val1: 2.0000000000000000e-02
   max_val1: 1.
   training_params:
      train_method: BACKPROP
      dw_scale: 1.0000000000000001e-01
      moment_scale: 1.0000000000000001e-01
      term_criteria: { epsilon:1.0000000116860974e-07, iterations:500 }
   input_scale: [ 1., 0., 1., 0., 1., 0., 1., 0., 1., 0., 1., 0., 1., 0.,
       1., 0., 1., 0., 1., 0., 1., 0., 1., 0., 1., 0., 1., 0., 1., 0.,
       1., 0., 1., 0., 1., 0., 1., 0., 1., 0., 1., 0., 1., 0., 1., 0.,
       1., 0. ]
   output_scale: [ 2.1052631578947367e+00, -1.1052631578947367e+00 ]
   inv_output_scale: [ 4.7499999999999998e-01, 5.2500000000000002e-01 ]
   weights:
      - [ 1.3021554354287526e+00, -9.3892268360690534e-01,
          -5.4623751847104801e-02, -2.7284975756881869e-02,
          2.7474794783619357e-02, -4.2119614309983226e-02,
          5.0421319966208933e-01, 2.6102226538392882e-02,
          8.6331057228080460e-02, 2.8546035154462360e-02,
          4.6513405703678685e-02, -3.1693331892343263e-01,
          5.2329435204801517e-02, 3.9381934942091364e-02,
          2.3548873390210511e-02, 2.8299570259944662e-01,
          6.0541520862619040e-02, -5.2002295001251607e-03,
          -5.4249357304340684e-01, -5.3987918066060868e-02,
          3.0259844856320401e-02, 5.9355631491711872e-02,
          3.0274159307270617e-02, -1.5106505808969382e-02,
          3.6638228614033347e-02, -1.8975455949685454e-02,
          9.3889788045011593e-03, 1.0163487387135603e-01,
          5.5270861024159200e-02, -1.1584721231581688e-01,
          4.6250579774632400e-01, -6.6466259486418818e-03,
          -4.0630538564136322e-02, 2.9457716536228180e-03,
          -6.1630286139291827e-03, 7.1644825502252138e-02,
          6.0105283669332576e-01, 5.1158642139310290e-02,
          1.1332692613022619e-02, 3.2519089333985299e-02,
          3.0087031485940208e-01, 4.0939446180692694e-02,
          -9.1319091027591712e-02, -5.4243157922370122e-01,
          1.3220053288007436e-01, -5.4083140721633997e-02,
          3.1561045712355219e-02, 6.8233374615071241e-01,
          1.7604062360258321e-01, -2.5478244770156720e-02,
          -6.1623732554454774e-02, -4.1520728662936178e-02,
          4.3292468325171328e-02, -1.4673164951914590e-02,
          1.1651817047904821e-01, -5.8350060736265259e-02,
          -1.0231218513922391e-02, -1.9574875101209404e-02,
          -7.9222051851497888e-02, 2.8555593063642009e-02,
          3.6881376450286890e-01, -1.2278534029732524e-02,
          3.1943217309131094e-01, -9.1551280183095732e-02,
          6.7531315368079478e-02, -7.4206867391589035e-02,
          -5.6832860843209973e-02, -7.4232070064402772e-02,
          1.4200562754460423e-02, 9.7233903396749699e-02,
          1.2022578515348055e-01, -4.6653037593355510e-03,
          -7.9566477544176881e-02, -1.9854433276847858e-01,
          -5.9478387156272329e-02, 3.3653529238391313e-03,
          2.3955266665012112e-01, 5.7783309680731521e-01,
          4.2922663000108378e-02, 3.6333946193823269e-02,
          1.5085909657974808e+00, -6.1459228664041121e-01,
          9.4834702779797928e-03, 1.2863182787879755e-02,
          -4.1960480164692150e-02, -3.6328256130431461e-02,
          2.4936086174561542e-01, -1.1969948602415183e-01,
          3.1542291043554543e-01, -8.5920342119938403e-02,
          -1.0527189672747315e-02, -1.6964432533903950e-01,
          -2.1634086955862258e-02, -8.1984485995903272e-02,
          3.3884710007728663e-03, 4.4292551286048870e-01,
          -2.5054563550873649e-01, -1.1676332409639945e-02,
          -2.8994275319617185e-01, -5.0955763390612340e-03,
          -3.6515584275752154e-02, -9.4462259039171145e-02,
          2.3146163119582445e-02, 5.7697216428065544e-02,
          3.8040674325762767e-02, -2.9299750292948311e-02,
          2.1714308824119666e-02, 3.5012780665884279e-02,
          3.8296059786446686e-02, 1.6751683867865103e-01,
          5.9152944992072920e-01, -3.1599522128876852e-02,
          1.9231588847593309e-02, 2.8026331248787329e-02,
          -2.5792870921582389e-02, -1.8537603215401058e-01,
          3.8521287158851297e-01, 4.2774980788967257e-02,
          -3.9386114959510533e-02, -1.4679120580560556e-01,
          4.5094002099163849e-01, -1.3260646222684006e-01,
          2.6128278684723442e-03, -4.4388552637306294e-01,
          1.1150054517612443e-01, -8.5168683525184766e-02,
          5.5285155727668747e-02, 5.7935590087344591e-01,
          1.2166443074566227e-01, -1.9869864102596821e-02,
          -1.2753618737145735e-02, -3.4012166802119360e-02,
          -5.1840792418358934e-02, -8.8508981031718045e-02,
          -2.6261560221041966e-02, 5.4389842892071924e-02,
          2.0612043657808757e-01, 3.5499439072173163e-03,
          1.9109175995043140e-01, 4.3209982680867544e-02,
          1.5402840454860234e-01, -7.4655788936222919e-02,
          8.1483410861550781e-02, 1.7923410585402030e-02,
          2.9596457889015337e-01, -8.0921616221398360e-02,
          1.2622120802202927e-01, -5.0839993459340975e-02,
          -5.8252537293512915e-02, 9.0711256514433555e-02,
          7.4453074818762288e-02, -6.3884849398205726e-02,
          6.9216477479476554e-02, -2.8671885922401368e-02,
          -9.2214903031540944e-03, -2.5849214541146270e-03,
          4.6570630800158813e-01, 5.6934405806381794e-01,
          -6.3580096584809995e-02, 3.3873325078954929e-02,
          -4.1305176621092361e+00, 5.2865502733973957e-01,
          7.5804177508351431e-02, 3.8933224657610274e-02,
          1.6604621917969745e-01, 9.2099220964869680e-02,
          -3.1922501487816157e-01, 8.3812547150406105e-02,
          -5.6700662048549277e-01, 1.1637705538786955e-01,
          -8.6976082261936122e-02, 8.3406916092971975e-02,
          -2.4774307305337126e-02, 8.3794179807084895e-02,
          1.1914058848951316e-01, -7.8920818257424274e-01,
          3.6818618299929218e-01, -4.0663887740078765e-02,
          2.7832813170907567e-01, 5.0927037519271703e-02,
          2.3492429953498983e-02, 5.5308602016019781e-02,
          -4.6528036144843056e-02, -7.0998110767625050e-02,
          -1.5841136110609534e-02, 1.0923999025648962e-02,
          -2.4544211260862790e-02, -3.4332467571894808e-02,
          -6.8283406287709750e-02, -3.2064170224404381e-01,
          -8.8179151168876457e-01, -2.2187587644273397e-02,
          -3.7384814458092854e-03, 5.8356976586420112e-02,
          6.4845623419566317e-02, 2.7405002241089199e-01,
          -3.4240707164848189e-01, 1.2891041127160115e-02,
          -2.6035319051423748e-02, 4.2123775610636105e-01,
          -6.6255133252520471e-01, 2.5775854144229465e-01,
          4.1998097983451055e-02, 9.9379571396796285e-01,
          -7.1998554451665253e-02, 1.4942831452151750e-02,
          2.9633342223997793e-03, -1.0406349395798891e+00,
          -3.5200565122851073e-02, -1.7170845269565232e-02,
          7.8860022002567018e-02, 2.2811047289606728e-02,
          2.1783779781845330e-01, 4.5651278436119262e-02,
          8.6180419898355017e-03, 4.0306308491589435e-02,
          -4.1673518168194285e-01, -5.4111464322953396e-03,
          -3.2071463192707789e-01, -7.8585143392923152e-03,
          -1.4647767968419562e-01, 6.5492131444704102e-02,
          -1.6812619226760905e-01, -1.9396523513313196e-01,
          -5.4844696761009515e-01, -2.6503977941669810e-02,
          -1.7187662934270909e-01, 8.7907247104143313e-02,
          -2.1942431501157460e-03, -4.4330502528016374e-02,
          -1.1387359223458948e-01, 5.9858367922776080e-02,
          2.3341954033587756e-02, 7.4207418547883416e-02,
          -2.9724580211146625e-02, -4.3278195640807813e-03,
          -7.4479987943628767e-01, -1.0176881232870314e+00,
          7.3681688947482334e-03, 3.8443550403556542e-02,
          -2.1512973183190924e+00, 2.1960906187455678e-01,
          9.1448151210367659e-02, 7.4460059465384046e-02,
          8.2681714809783285e-02, -1.0704653382691328e-02,
          -1.0431535532521281e-02, 1.2513474025443336e-01,
          -2.8555962015775838e-01, 5.3283836662012321e-02,
          1.1195642382934414e-02, 6.2647574892461672e-02,
          4.0892468226484416e-02, -5.2586204255757520e-03,
          3.4233766073865669e-03, -4.5233702511712998e-01,
          2.4948809128273200e-01, 5.8501387062630368e-02,
          1.5506630877984950e-01, 4.5189583602289599e-02,
          7.0436583255595639e-02, 1.1701445916769497e-02,
          4.3462932446899742e-02, -1.3620843991419317e-02,
          6.7571576066532635e-02, -7.9966732721152303e-02,
          4.5455610804166373e-02, -1.2535852751352668e-02,
          3.4797376350518529e-02, -1.3194571975085007e-01,
          -4.1722884809838706e-01, 6.5315041423307157e-02,
          -1.3147970577971459e-02, 2.5105463142602341e-02,
          1.3524606001636361e-01, 2.2346790978976525e-01,
          -1.9748566951902102e-01, 3.0211546571158997e-02,
          4.3064265953735456e-02, 1.5618345860270766e-01,
          -4.1068798495731251e-01, 1.5681630091841603e-01,
          2.6139147556135757e-02, 4.3659626910484595e-01,
          -8.8312042293987467e-02, 4.6118686023831228e-02,
          1.3739730070148034e-03, -5.1018968557897415e-01,
          -9.3580221256313087e-02, -8.6613351477748679e-03,
          -6.8284048562610999e-02, -7.3150430891132184e-02,
          1.1800986225090640e-01, -3.5326972115525203e-03,
          -8.1373615479281389e-02, -3.8279470982548448e-02,
          -2.4489052550465104e-01, -2.1740914592119000e-02,
          -1.0822336172916572e-01, -9.5824368889244754e-03,
          -1.4692677364315665e-01, -7.4847388330037970e-02,
          -4.8957295486125658e-02, -2.5956693238597776e-02,
          -2.0637210615121582e-01, 8.9987314594456053e-02,
          -4.9617401165864820e-02, 5.6285300319670911e-02,
          3.2541960460342888e-03, 1.2126222996198600e-02,
          5.0380259535731671e-02, -5.9616239729788419e-02,
          -3.9985821165349995e-02, 4.1723097516691031e-02,
          -1.2561331673555998e-02, -5.6412055362104037e-02,
          -2.8639468276541308e-01, -4.1481166131562630e-01,
          -2.4096718350115110e-02, -1.2931788107256828e-04,
          -3.5742861333077842e+00, 4.3940417230285228e-01,
          1.3759936399175637e-01, 3.9696605854734598e-02,
          2.2909566227142755e-01, 5.6570162273765670e-02,
          -2.8690497844206914e-01, 2.0634680572810765e-01,
          -5.5795582343365258e-01, 1.6064022042101994e-01,
          7.2461763070523239e-02, 1.9213466896580936e-01,
          -6.3127311015486576e-02, 1.1889217344825483e-01,
          2.5601535650259560e-02, -6.8265751400836505e-01,
          4.0644325883243754e-01, -8.7049220826930090e-03,
          2.5239588345671560e-01, 7.1139239064808096e-02,
          -6.4128590237035085e-02, 1.2206591779426562e-01,
          -1.5504657097875156e-02, -5.2940335220299790e-02,
          -5.7579366826738830e-02, 6.4056279586657702e-02,
          -3.2796228077601540e-02, -9.1387847937384178e-02,
          1.8220200991959101e-02, -2.1846323194188755e-01,
          -8.1363886668610941e-01, 7.0492322449829448e-02,
          -5.4378382580682616e-02, 2.7636471684196740e-02,
          1.2614784834563131e-01, 3.9353610160020230e-01,
          -2.7348974342781474e-01, -1.0051163522782271e-01,
          -5.5098410094921252e-02, 2.6474670312882093e-01,
          -7.5157692716438973e-01, 2.3959727774607578e-01,
          9.7116621889557747e-02, 9.0780822456153709e-01,
          -7.4493877631687924e-02, -5.2385686250196739e-02,
          -5.0628991344695111e-02, -9.0644899182806671e-01,
          -3.9342254621918857e-02, -5.9089341433177433e-03,
          2.2404014760162634e-02, 4.9131948712642974e-02,
          7.5915023114499117e-02, 7.5953720796508223e-02,
          -8.1205827012245768e-02, -5.2872982681709382e-02,
          -3.8288977962685400e-01, 1.7564899404309060e-02,
          -3.4671197127314868e-01, -1.4285756243875449e-02,
          -1.1862734066433465e-01, -3.3079290314025435e-02,
          -1.4315212487082415e-01, -7.1841594300576322e-02,
          -4.4874158333024311e-01, 5.3067463387935131e-02,
          -2.0491407604070250e-01, -5.8374101367242262e-02,
          3.8395832242257767e-02, -3.7019812988573292e-02,
          -9.7578651778487707e-02, -8.7556585874121757e-03,
          4.9508703181503751e-02, 1.3184240025238531e-01,
          -1.2606711168454202e-01, 1.1759182114427632e-02,
          -6.7192196579208852e-01, -9.2115827867043121e-01,
          -5.2233370645452686e-02, 1.0581576573485532e-02,
          -1.2497477414003790e+00, 7.2585583890482266e-02,
          -1.7288669878516428e-03, -5.7682843280584345e-02,
          -6.4546444614221104e-03, 7.6192276798555687e-03,
          -1.3369283976141405e-02, 4.2766746891402509e-02,
          -1.4430725601988884e-01, 8.4651679100588198e-02,
          -4.3382039864978489e-02, 1.3857316614376627e-02,
          6.8069732046493386e-02, 5.1282326415840268e-02,
          -4.1687575168283600e-02, -1.2249319423224239e-01,
          1.6204732866314067e-01, -4.2313378347618766e-02,
          3.1574330402855906e-02, 2.5797987623392520e-02,
          -1.7843458140858220e-02, -3.7568494292018965e-02,
          8.9405493629317202e-03, -3.2231867095225769e-02,
          3.3463379938449569e-02, 7.3187269149925682e-02,
          1.0826676944077443e-02, -3.2246118498631050e-02,
          6.7343082062509857e-02, -5.4046327126386434e-02,
          -2.0643470104561287e-01, 1.0310152598033508e-02,
          6.2493321013620616e-02, 3.8251500818300407e-02,
          4.2080695325170531e-02, 1.0800039365441845e-01,
          -8.7676133339120679e-02, -2.2195366165564480e-02,
          -3.0662955409561325e-02, 1.3184471686597678e-02,
          -1.8126009051783787e-01, 7.8717336286769676e-02,
          3.3650587606103288e-02, 1.7163324887046452e-01,
          -1.0817247815193336e-01, -2.3098468043710827e-02,
          4.4614232792467871e-03, -1.5813186096919862e-01,
          -7.2357584034348785e-03, -5.5827009252402880e-02,
          8.4347081508044874e-02, 6.6197772947958547e-02,
          -4.1316071865979895e-02, -5.8398422662816803e-03,
          3.8883313518246441e-02, -2.7625794524275729e-02,
          -6.9371989147380034e-02, -4.0636490804471147e-02,
          -3.8870322582480334e-02, -3.0481525987309112e-02,
          -7.9102915790457612e-02, 7.1513495723497217e-02,
          -7.0753080891348588e-02, -2.7325338100969380e-02,
          -1.7267304091855734e-01, 7.6155069702340206e-02,
          8.1793249673678906e-03, 7.9743754654239038e-02,
          -5.5621011104766520e-03, -8.2448398337679016e-02,
          1.0460259140331165e-02, 2.3309204522552512e-02,
          2.4077553310721977e-02, 7.3406087649619247e-03,
          7.6251186183026549e-03, -5.9524098466644075e-02,
          -1.1124621283403498e-01, -1.4511303255059932e-01,
          3.9864734673277433e-02, -3.9195659148711849e-02,
          -4.0519610182258399e+00, 5.5212384734850184e-01,
          3.0932039715837138e-02, -5.1457907048492936e-02,
          1.7427518272375117e-01, 1.2664548266304207e-01,
          -3.2951574227081804e-01, 1.4368198551040579e-01,
          -6.8817443526857092e-01, 1.4869242567503499e-01,
          -4.1771307441000730e-02, 9.1559696400794380e-02,
          -5.1467304096576488e-02, 1.1591486486889892e-01,
          1.3795342123437274e-01, -7.4522721660237035e-01,
          3.6978748011832369e-01, -5.1750016456491375e-02,
          4.0267633353515841e-01, 4.3655224005047781e-02,
          2.1948954159670804e-02, 9.4813491208473391e-02,
          -5.9239212144069679e-02, -1.1540305680062143e-01,
          -5.9660034122203151e-02, 5.9658285231487237e-02,
          -4.8687491337959375e-02, -9.8591961067567069e-02,
          2.6079132443585677e-02, -2.4567279906640621e-01,
          -8.9867116392067670e-01, 8.4045309876181473e-02,
          4.2320386153824378e-02, -9.5375657220499149e-02,
          2.2103169643689224e-01, 3.4591527854178894e-01,
          -2.8652702610647429e-01, -1.7696051535625735e-03,
          -2.7497886735357601e-03, 3.5206121328861667e-01,
          -7.1766227376462044e-01, 2.6117935422245137e-01,
          5.9853055208844846e-02, 1.0182154580525413e+00,
          -9.3446525488566412e-02, 6.5970032757391939e-02,
          5.8795049437378018e-02, -1.0197479904407716e+00,
          -8.5226869676868391e-02, 6.2881014961592195e-03,
          -4.6293586331782474e-02, -1.6973215826569937e-02,
          1.5015490872081269e-01, -5.3263600771067940e-02,
          -8.1143076526646582e-02, 7.6686626542754460e-02,
          -4.4879521914969939e-01, -2.9572228086060377e-02,
          -4.0770631991503292e-01, -6.3835557081731401e-02,
          -2.7101377969468782e-01, 6.2335928390070787e-02,
          -2.1288790923323384e-01, -2.3078036216893710e-01,
          -4.8795361556584643e-01, 1.5542786059855934e-02,
          -1.0926958018819230e-01, -2.8523990919592995e-02,
          6.6056546899849369e-02, -1.0121220230534557e-02,
          -3.3496629327439111e-02, 5.8088405008544418e-02,
          -5.2401188028516239e-02, 7.6130682447751244e-02,
          -5.7326195952046834e-02, 3.3099842043422235e-02,
          -7.3353527323218404e-01, -9.8494872205643469e-01,
          6.9546620137123566e-02, -5.3171750693259870e-02,
          -3.3829110255245998e+00, 2.9857116947275869e-01,
          9.0013477097483918e-02, -2.1593173112156822e-02,
          1.8153697628394214e-01, 6.4321490038340992e-02,
          -5.9634941901011915e-02, 1.7530223416774957e-01,
          -6.8574112424710432e-01, 1.9521067026121244e-01,
          7.9888724963051175e-02, 1.3355057149326849e-01,
          2.3700199999067108e-02, 3.8844564835608858e-02,
          1.0415961667142504e-01, -7.9747962883013568e-01,
          4.6223330722500128e-01, -4.3166855046843033e-02,
          1.5771358693512236e-01, -2.4778771207262976e-02,
          -1.0808230180705957e-02, 1.2079457024515486e-01,
          -5.7998471648099396e-02, -1.7346017295603205e-01,
          4.0061987754003041e-02, -2.3921120319183357e-02,
          3.9622949937736643e-02, 4.3401049818369682e-02,
          -5.7686513246060465e-02, -4.3764166434356955e-01,
          -1.0385034522016601e+00, 1.6042837172486737e-02,
          7.7930544790966894e-02, 8.4490482917090447e-03,
          1.8624193744469988e-01, 3.7016587264655160e-01,
          -1.5719378786911695e-01, 2.7520156092335130e-02,
          -1.5307036292371744e-02, 4.5325925314991167e-01,
          -8.0005726999803928e-01, 3.4668986323046341e-01,
          -5.0521093377386424e-02, 8.5342650050194169e-01,
          9.5857961181737648e-03, 2.4320809976802780e-02,
          -3.2277012910806424e-02, -1.0335581734858921e+00,
          -6.4573321512676765e-02, 1.4152051153491892e-02,
          -2.2396507851865109e-02, 1.5260742215156031e-02,
          1.5942303219489215e-01, -3.3840510387035901e-02,
          -7.0293562613927510e-02, -1.9499441560778090e-02,
          -5.1247285099089124e-01, 5.3511251679815512e-02,
          -3.4896113451660610e-01, 1.2021158731314574e-02,
          -4.9665812151573181e-02, 8.5866636854052443e-03,
          -1.2225727963274699e-01, -2.3802809277158105e-01,
          -6.7569107872022593e-01, 7.6921996022228628e-02,
          -1.7647699019179311e-01, -2.6556260276033726e-03,
          1.0138557694711098e-01, -9.6503834239345096e-02,
          -7.7064113340439694e-02, 7.7480318530041642e-02,
          -5.7061556832935893e-02, 8.9881772278765384e-02,
          -8.3769055793133915e-02, -7.1424049331685916e-03,
          -7.1549750772451748e-01, -9.8464272320714274e-01,
          6.5725491425698376e-02, -7.1605612616103154e-02,
          -1.1907280865827188e+00, -2.1975078253462486e-02,
          2.5667049628994482e-02, 1.4924768318209210e-02,
          9.3337690870713239e-02, 1.9369471017876637e-02,
          -3.7538467990265362e-02, 1.0652681576792514e-01,
          -2.1139100041560976e-01, -7.2100346112161555e-03,
          4.4717120553994474e-02, -6.9643837338694378e-02,
          5.8490829069746418e-02, -8.4629742005782257e-03,
          7.4804218366341255e-02, -1.6028268692783787e-01,
          1.9603459767014997e-01, 5.8077437318321830e-02,
          7.5693323961644757e-02, 2.2086578985421990e-02,
          4.0302820703449344e-02, 1.1602044636774761e-01,
          -6.0968183289174249e-02, -1.1096445321831952e-01,
          -3.3944987883763773e-02, -2.2807090489645899e-02,
          4.7960159961351050e-02, 1.6470889574469218e-02,
          5.5792877574074369e-02, -8.9227271511691894e-02,
          -3.7075470954432282e-01, 7.2453294150861729e-03,
          -3.5225561794920202e-02, 5.4596710814353237e-02,
          -9.1485404002242861e-03, 1.5477121638283736e-01,
          -9.3508639339296609e-02, -5.1943908815853812e-02,
          4.2368220508871859e-02, 5.7845707575721286e-02,
          -2.0011379788130820e-01, 1.3603404421547419e-01,
          -6.3223840138554213e-02, 3.3952365914609639e-01,
          2.9732847283060578e-02, 7.3648884260737860e-02,
          -7.5564829294270136e-02, -3.5030453402766931e-01,
          1.2370182207807853e-02, -4.7035385728355902e-02,
          -7.7215197782450951e-02, -8.2992736431114295e-02,
          1.5044028232475065e-01, -1.7436859433929572e-02,
          -6.1718306954972560e-02, -1.8232989461670932e-02,
          -1.2831804887586154e-01, 3.5656354407545068e-02,
          -1.4474148116779142e-01, -5.7807286309481121e-02,
          -5.1562252469162247e-02, 6.1357239903079244e-02,
          5.1498666444949860e-02, -1.3123081264315353e-01,
          -1.8189864535677894e-01, 3.1243676761557065e-02,
          -1.0739945345719208e-01, -2.7813570770482944e-02,
          -1.7394974963493199e-02, -6.8792395736081133e-02,
          -2.7228851830813253e-02, 8.1380702355131923e-02,
          -6.6375642405425914e-02, 9.0195371524820211e-02,
          -1.9436470249576569e-02, 8.1767003867829605e-02,
          -2.7574448125611517e-01, -2.3436926903718611e-01,
          5.0658026940423248e-02, 7.0483819700031716e-02,
          -1.6857573444139871e+00, 1.7385695218690261e-01,
          9.3525439341131431e-02, 6.7628744787649450e-02,
          1.6147067241168378e-01, -5.4049179950378320e-02,
          -4.3686121691440871e-02, 5.4427351934783964e-02,
          -3.2306450253956792e-01, 4.0025008843533869e-02,
          1.2284100164498957e-02, 6.6413151887623506e-02,
          6.3330088454534384e-03, -1.0163996287962477e-02,
          4.8838546735314708e-02, -4.1269854867088296e-01,
          2.2556241423535758e-01, 3.5784133725616243e-02,
          1.1804888349928543e-01, 2.4976970986050614e-02,
          -5.7807345848406917e-02, 1.1894812360560965e-01,
          8.2010044443492858e-02, -2.4247292889866472e-02,
          -6.7093480710738581e-03, -6.8257988022035906e-02,
          -4.4772851677503299e-02, 4.1612458384718151e-02,
          -3.3535917255176607e-02, -1.6223756452939025e-01,
          -4.7770278457758025e-01, -9.2092476252137068e-02,
          -5.2247478068675302e-02, -3.1276740627161549e-02,
          1.3338546588452535e-01, 2.3722691893181982e-01,
          -1.2545151512817315e-01, 6.2616301822709969e-02,
          3.4658795448061927e-02, 1.0683378058166880e-01,
          -3.6425139991424238e-01, 1.2390500988150251e-01,
          -2.8940292264009121e-03, 3.2618428155399520e-01,
          -2.0321803642818440e-02, 7.1280458975501004e-02,
          -7.5943913993648957e-02, -4.5557131079860252e-01,
          -5.3630770265987678e-02, 7.0512321772203618e-03,
          4.2312613787721269e-02, -4.1784427210922355e-02,
          9.8720702604112254e-02, 7.8953690146090980e-03,
          -5.5967967004074991e-02, -4.0924725400319807e-02,
          -2.8299332098281910e-01, 3.6830610116586456e-02,
          -2.3386273282800574e-01, 7.8110437639018163e-02,
          -1.1100491161438919e-01, 1.5591818598518190e-02,
          2.5781991808498567e-02, -1.5663905400065611e-01,
          -2.4347468368665623e-01, 5.7481617773994492e-02,
          -6.7537484839732126e-02, 1.7571173868701030e-02,
          3.7223994892394375e-03, -7.7311077252375543e-02,
          -8.2251657717618942e-02, -6.6750106639317616e-02,
          1.8229669868754094e-03, 3.4928803253361423e-02,
          -6.3760511694348140e-02, 7.1079951868553592e-02,
          -3.6740346820951142e-01, -4.4962939250354123e-01,
          -3.1918647962084221e-03, 8.9751165708027714e-02,
          -7.7667863828469674e-01, -1.5831282993082924e-01,
          1.2358142154506197e-02, -5.9465861144928793e-02,
          3.4466468129210351e-02, 2.8529324459241463e-02,
          -4.1580252119619819e-03, 8.3598238463381908e-02,
          -2.2020650117981327e-01, 9.0133578924355348e-02,
          -7.3022884042965343e-03, -2.4263873488328265e-02,
          8.4476574518703301e-02, 1.4974558648485917e-02,
          -1.0458654521463519e-02, -2.3143500876680095e-01,
          1.9253493455254958e-01, 2.4495688493043025e-02,
          -4.4383689154980879e-02, -5.1667715546904677e-02,
          8.9142043356181339e-02, 1.0632456993897990e-01,
          4.9141641827382683e-02, -6.1074188783846479e-04,
          -3.5396762459970484e-02, 1.5418785942477302e-03,
          6.6482132617655412e-02, -4.0798221604952493e-02,
          6.2280362917165131e-03, -1.0879020356175946e-01,
          -2.9921906969293832e-01, 2.7676341975775742e-02,
          -2.9830852582344261e-02, 6.1423997648659447e-03,
          6.2820965593486239e-02, 2.3413142174065571e-01,
          6.0803470268656228e-02, -3.7334491271458360e-02,
          1.3124008557930857e-02, 1.0055864988803231e-01,
          -1.8194658509249009e-01, 9.3695608770734684e-02,
          1.0525524225125651e-03, 2.5490589829706933e-01,
          -1.0120227966230369e-02, 4.8601894760674669e-02,
          3.6151998388819155e-02, -2.5625836778736122e-01,
          -4.2864751033045025e-02, 2.4090816880927034e-02,
          2.5340719506532191e-03, 5.3228413451306827e-02,
          1.6736168299124654e-01, -8.7372056405369929e-03,
          1.6428853321622566e-02, -5.6107213840298271e-02,
          -2.2226807298191900e-01, 9.0893291139394941e-02,
          -1.5310223603670309e-01, -2.9585643997542658e-02,
          8.8727113549755668e-02, -9.8988886798141735e-03,
          6.1537310161646146e-02, -1.2307384751160926e-01,
          -2.6482752594067355e-01, -5.2999756131489752e-02,
          -1.4526476437334701e-01, 8.0851352805827073e-02,
          -9.5626480844265505e-02, 4.4936674341953281e-02,
          1.0127052338410008e-02, 4.2804492903148125e-03,
          4.9879976353679217e-02, 3.2083763420467135e-02,
          4.0995613239815848e-02, -2.0147053231864467e-02,
          -1.5987865174579294e-01, -2.9723206868110547e-01,
          -5.7307124644799291e-02, -1.5633312811390167e-02,
          -3.9232338845809323e-01, -3.0329702360662878e-02,
          8.7397858583076665e-02, 7.2832723710418143e-02,
          -1.5205258865213771e-02, 1.5193270784548811e-02,
          1.5835186707015524e-02, 1.2912451769167629e-02,
          -4.1460998781165978e-02, 1.0297506425189638e-01,
          3.9576204141641785e-02, -1.5237558727953314e-02,
          -4.3369844168710356e-02, -4.1894440302977141e-02,
          -2.6397296257689388e-02, -7.4206404871168835e-02,
          1.5223668422540654e-02, 4.0752929817252752e-02,
          -5.5034378812213285e-02, -9.5600715000727740e-02,
          -6.3793860692982277e-02, 8.1022143251959070e-02,
          -4.5589929685040970e-02, -5.5771723459753217e-02,
          -3.1930404059598586e-02, -6.4868678331956420e-02,
          5.9884665774636294e-03, -1.0605051701017327e-02,
          -3.5370996221948170e-02, -3.2787076695537189e-02,
          -2.2528088174671779e-02, -5.4149508222157902e-02,
          -3.5365706010607130e-02, -7.3494986537760335e-02,
          -4.5162801891669185e-02, 1.5431547336912552e-01,
          1.0650313977682747e-02, -7.3052182624117903e-02,
          6.2393005206634850e-02, 1.4122671114179142e-01,
          -6.7850475771924504e-02, 4.4814791455522274e-03,
          -7.7055131912700681e-03, 1.0386438201626902e-02,
          1.0150663929351163e-02, -1.4321849488428467e-02,
          -8.2093570468706953e-02, -3.6812236375710281e-03,
          -6.1740495514925206e-02, -3.5920848629303399e-02,
          3.6061450761137592e-02, 6.9108804429310377e-03,
          5.9707266592866071e-02, 4.1907143310934349e-02,
          -4.6862880568179971e-02, -6.7203703897366586e-03,
          -8.1155980947486356e-02, 6.3208167108389654e-02,
          -1.2024194227649071e-01, 6.8594443048657222e-02,
          -8.4580345001834631e-02, 6.9080072748923790e-02,
          -8.6173231579775730e-02, -7.0758055717057011e-02,
          -6.8288566783430898e-02, -3.0256731476685540e-02,
          -5.2242591040067128e-02, -1.8552424018641203e-03,
          4.0890750616055523e-02, -4.4577704042158155e-02,
          -3.2504080122167787e-02, -3.7948418078123720e-02,
          8.2748927960778360e-02, -1.9296578996113672e-02,
          -3.4235455990137664e-02, -3.6064654154468113e-02,
          -9.8482090341483225e-02, -5.2450790177941548e-03,
          -4.1912758683969936e-03, -3.4317487083860627e-02,
          8.3502741466561070e-01, -2.4901887653811994e-01,
          6.7993381058124219e-02, 6.2216216146986549e-03,
          -7.0305531633338914e-02, -3.3601594988786322e-02,
          1.7390115494308117e-01, 9.0046510392674986e-02,
          9.9973665525592226e-02, -4.3554424157789894e-02,
          2.4902583781571938e-02, -5.5122790821808140e-02,
          3.8631993611822679e-02, -1.7026918216515286e-03,
          -5.4950875419450478e-02, 1.0345752569990391e-01,
          -9.1396201197816121e-02, -8.0065429532040738e-02,
          -8.9930836788571306e-02, 3.0678679065887896e-02,
          8.4578713146665707e-02, 4.2939804865366027e-02,
          -4.4660824301299890e-02, -6.7244470859414429e-02,
          5.3389852042895557e-02, 1.1183759847834540e-02,
          4.0815454536572426e-02, 1.9859521355399659e-02,
          4.1029878137365139e-02, -6.5009393243468079e-03,
          1.9833044482084977e-01, -4.5118513419372071e-02,
          -7.1229289043311383e-02, 1.7860807631193333e-02,
          -5.2348010664586858e-02, -1.2859430574304722e-02,
          1.7469570094329662e-01, 1.4366143502934865e-02,
          -5.7334951338853309e-02, 4.3469913995869153e-03,
          2.3070057790872261e-01, -6.7071283517025376e-02,
          3.3985953196622704e-02, -3.3575427252392481e-01,
          2.3975482601923052e-02, -8.5445139405352463e-02,
          -4.3483442887563013e-02, 2.6350871022186895e-01,
          -1.3358406170076633e-02, 5.8789308312559171e-02,
          3.0303503913707199e-02, 6.1487969266701928e-02,
          -6.4304439382389625e-02, 5.8380608375384918e-02,
          -3.3071790282609391e-02, 3.4934684573886279e-02,
          2.6135972879149708e-02, -3.2801895818494145e-02,
          4.4889765323443589e-02, -4.8104127321818249e-02,
          5.3750640553878765e-02, 6.3916006283924196e-03,
          7.6969859840979510e-02, -4.0246282849679188e-03,
          1.9577167964173598e-02, 2.8997232191861053e-02,
          -5.6137276583583737e-02, 1.2194389666972984e-02,
          3.2550607838612876e-02, 7.9724347171144724e-02,
          -1.2599142481816423e-02, 1.5701809150687702e-02,
          -6.0715136525577463e-03, -2.6753226867116300e-02,
          -9.3311930747554492e-02, 2.8625928995761264e-02,
          1.2242027188840719e-01, 2.4449715652511758e-01,
          -3.0623748406001638e-02, 1.6716643073305993e-03,
          1.9323850981997144e+00, -6.4814856784787800e-01,
          6.4227610689245346e-02, -6.8984258985193350e-02,
          3.0368987509690158e-02, 8.3531218339946534e-02,
          2.9015631531508246e-01, 4.7765694747920556e-02,
          2.0708054792963160e-01, 1.2726503001738890e-02,
          -3.1187108259356808e-02, -2.3594357371063876e-01,
          -1.9836288360829079e-02, -3.9555603449802357e-02,
          4.0433732892537308e-02, 3.3477477800098593e-01,
          -9.9156893975042348e-02, -4.7463358251980226e-02,
          -3.6421669210806751e-01, 1.8387209520018124e-02,
          -1.8965534599796070e-04, 2.1093768639812761e-02,
          -5.3870841727413445e-02, 7.7252007860449529e-02,
          5.6095336991763660e-03, -6.7808612670028079e-02,
          -6.4115559563306154e-02, -5.4969841115310118e-03,
          -6.1058682650341214e-02, 9.6064611241863038e-02,
          6.2476987702888476e-01, -1.0631577433366289e-01,
          -1.0702577556635383e-02, -5.1622134519021555e-02,
          1.0664195637129471e-03, -1.4797057756872433e-02,
          4.0689603074800840e-01, -1.2999561362728734e-02,
          2.3713672889367571e-02, -9.0383714182303121e-02,
          4.1046004621467469e-01, 4.5298777184883648e-02,
          -5.5400626376773211e-02, -6.5986992527479738e-01,
          1.2614960680823895e-01, -1.1752583190348859e-01,
          -2.8893524441719475e-03, 7.1839236121532402e-01,
          8.8249339551100633e-02, -1.9293910841396294e-02,
          6.3732052756356678e-03, -9.8575696728777959e-02,
          3.8567351758644175e-02, -4.3817186218405531e-02,
          9.7181515475458960e-02, 4.2962913190977815e-02,
          4.8541877761704356e-02, -2.5510220507153174e-02,
          1.2588571295363790e-01, -1.7253287008778557e-02,
          1.6264576278861384e-01, -4.1041441521055363e-02,
          2.0032847086260669e-01, 9.5372530894684879e-02,
          1.9401830514725424e-01, -8.0935405031962990e-02,
          -5.1064292269312896e-02, -3.6895112124015507e-02,
          5.1081699337411919e-02, 1.3908925119616683e-01,
          7.8980998474873124e-02, -8.1163517265506524e-02,
          -5.4391384590344025e-02, -8.5450282448946036e-02,
          2.6506294233313841e-03, -4.7139067647250441e-02,
          3.5591545257451446e-01, 6.4939414757663683e-01,
          -3.2362137471227723e-02, 7.1625920816570932e-02,
          1.4428950567668623e-02, -2.5530786312774045e-01,
          -1.2910611828675008e-02, -6.7614332727515075e-02,
          6.9201864439746505e-02, -7.2877011301854935e-02,
          1.0025823929369246e-01, 1.2480473521337977e-01,
          6.7781765076170897e-02, -2.7098643753334456e-02,
          -6.9166075426312978e-02, -5.3894498883059395e-02,
          -4.4375238086694704e-02, 6.3385248556848031e-02,
          3.4992195960813932e-02, 2.3557273314620087e-02,
          4.6851601912330128e-02, 3.1798485526496743e-02,
          -8.1561832797164946e-02, -5.7333869192973577e-02,
          4.3595541023150858e-02, 7.3599213683632814e-02,
          -4.2933159820250123e-02, -5.8659421140403845e-02,
          1.0050681587818996e-01, -1.8128118171072315e-02,
          -9.5005618663687813e-02, 2.7442913022532978e-02,
          1.3418023661491514e-02, -1.3267637972432569e-01,
          1.1368694069529691e-02, 5.0918510533033187e-02,
          -7.9409100400161581e-02, 6.2277489147405853e-03,
          5.1609593081896256e-02, 7.4739636908351392e-02,
          1.0465426183229122e-01, -2.7405978750480228e-03,
          -9.0311507118157344e-02, 3.2748407418212062e-02,
          2.6307334122202184e-02, 1.2530029195310119e-01,
          -1.9617364334886620e-02, -4.0525181413234353e-03,
          -9.9673342824781914e-03, -5.9389380732039025e-02,
          3.6691106985002629e-02, 1.7094346438783370e-01,
          7.1397180765240487e-02, -2.1892466080130728e-02,
          4.0127042540969333e-03, 3.4682214587046220e-02,
          -1.2970592194181242e-02, 3.5317852738559856e-02,
          6.6828285965986944e-02, -2.4813741814034979e-02,
          -3.7281377020487445e-03, 2.1419476938005718e-02,
          -1.3134094152827247e-01, -7.0271633593611974e-03,
          1.1556253359625386e-01, -6.1677179683571400e-02,
          5.7768375911839177e-02, -2.4872184708456681e-02,
          -1.1298806281790448e-01, -7.9436805259856136e-02,
          -3.7414309064502920e-06, 2.4806365436865926e-02,
          -5.7508498748040249e-03, 5.5997702274396932e-02,
          2.7826033089482536e-02, 4.3699783281253408e-02,
          -3.3309034044784878e-02, 7.4116821610063402e-02,
          -7.7240211982868082e-02, 7.1122722808915533e-03,
          5.8130458652269200e-02, 1.6419388993166908e-01,
          3.9669187610020334e-02, -3.2040048789375601e-02,
          4.4685734339880473e-01, -3.0882504411458134e-01,
          -4.3492671380858947e-03, -1.4543306803326337e-02,
          -2.3959304299617831e-02, 6.3717224105998338e-02,
          8.8163546062646189e-02, 9.7465193093184826e-02,
          9.4984450885919350e-02, 1.1485719395854063e-01,
          -3.1127759925467263e-02, -4.8582981150456029e-03,
          1.6254999963739931e-02, 9.8993837317230202e-02,
          7.8866349322060519e-03, 5.3431401294108401e-02,
          7.6622697721206112e-02, 3.0381867458162341e-02,
          -5.3746889405249139e-02, 3.7074393865652915e-02,
          -5.4019515843460264e-02, 8.3908793129910675e-03,
          -1.9292380510166029e-02, -6.6471256566167328e-02,
          2.4989783615148746e-02, 9.8454046661797912e-02,
          1.0195304977629275e-02, 7.1220482735489723e-03,
          1.1262058306986655e-01, -8.1495217628849231e-02,
          1.3989343499646173e-01, -1.9421237429488643e-02,
          7.8301594291184398e-02, 3.4862967007917522e-02,
          -4.4637717771455858e-03, 1.5828420588163500e-02,
          1.8233411186096324e-01, -1.9710319745185806e-02,
          1.6509296255958424e-02, -3.5825635067469490e-02,
          1.4863125368408128e-02, -2.4641404708372321e-02,
          -5.9668820713210828e-02, -1.3825300700421631e-01,
          -1.4096126461432231e-02, -8.9657127084952631e-03,
          -4.4990091018296617e-02, 2.4332478340320707e-01,
          9.4711953167881155e-02, -1.2865648718887797e-02,
          -1.2082841024433767e-03, -4.6626724859589214e-02,
          5.3438258420995456e-02, -3.9241079662129516e-02,
          2.3288587629284683e-03, -2.8709912756848591e-02,
          3.1113788687751779e-02, -6.4383964137948876e-02,
          -9.2545919655867184e-02, 5.4536896893171802e-02,
          1.3328184716538360e-01, -6.6175111766742678e-02,
          4.9505849384663271e-02, 4.1243797949264055e-02,
          7.1520204057468756e-02, -6.3745338330167267e-02,
          -5.5158317813484896e-02, 2.6172838545342185e-02,
          -8.3921848762060838e-02, 2.2761721873593510e-03,
          5.9515892185411041e-02, 3.1612240096222789e-03,
          1.1335305753655862e-02, -4.3130307571322135e-02,
          3.1599979634056689e-02, 1.3847560990779932e-02,
          3.7903024437676902e-02, 1.7054242079321694e-01,
          -6.0697117371291853e-02, 2.2620813279102456e-02,
          -1.0780029599111083e+00, -6.8616096882836465e-04,
          2.2369098605973473e-02, -5.6289535166751184e-03,
          1.4362084539688638e-01, 8.1271322631350201e-02,
          4.4047787836918997e-02, 1.3779757758999100e-01,
          -2.1422465636516264e-01, 2.5990101778832191e-02,
          6.0411224674364314e-02, -1.8104960066610349e-02,
          -4.7215672442374748e-02, 4.3477879571059676e-02,
          3.0645201065818643e-03, -2.8844523018639578e-01,
          2.2623980674393057e-01, -6.0631062221939459e-02,
          2.4076314549395354e-02, 4.4656161083065374e-02,
          8.3676793456383368e-03, 7.2279247878666020e-02,
          -5.3633880278200596e-02, -6.4481493700725381e-02,
          6.4895470696064037e-02, 3.8097581465269315e-02,
          -6.2388184826188183e-03, -4.8078750738356997e-02,
          -2.6589027019567703e-02, -2.5548047396262225e-01,
          -2.6410984153064038e-01, 4.1860664476796865e-02,
          2.1474161546887201e-02, -4.6680402208882877e-03,
          8.6644197803730283e-02, 1.3732177258397843e-01,
          6.7360403012556871e-02, -4.2040693861464487e-02,
          3.5790751175234524e-02, 1.3282813913707803e-01,
          -2.3898187386695086e-01, 1.7362868915698251e-01,
          -3.2937379272412158e-02, 3.2496267535047230e-01,
          7.6491821264202314e-02, -6.4574617414337532e-03,
          2.4008926903083531e-02, -2.2511712332405401e-01,
          6.8315602611533494e-02, -4.4953833635803186e-02,
          -2.7962422349077753e-02, 2.7678499436706114e-02,
          1.4418124778409902e-01, -8.4384288012603989e-02,
          3.8783387399202778e-02, 7.8663696210237319e-02,
          -2.2899671956933570e-01, 3.9685863600408267e-02,
          -1.6542379352813871e-01, -4.4464449375416874e-02,
          3.9770820700064838e-02, 2.3338668107326731e-02,
          7.3535532988258700e-03, -2.0064162124207519e-01,
          -2.6545373693720742e-01, -2.7193269917688404e-02,
          -1.2931519497506158e-01, -7.5049125774718450e-02,
          -4.6923704378553747e-02, -1.9595680192703666e-02,
          -6.9813382130827391e-03, 7.9084046224595653e-02,
          1.8365300890641815e-02, -6.7274722263682807e-02,
          -3.7039847337959828e-02, 4.4538866581989960e-02,
          -3.4121854487356579e-01, -2.6582671422766940e-01,
          -6.0764767017265228e-02, 2.3937496557389755e-02,
          -1.9372976434818661e+00, 2.3075916305210022e-02,
          7.6920885824363849e-02, 4.5854548096600813e-03,
          2.3509508330624737e-01, 2.8227177428747759e-02,
          -9.6715172106643016e-02, 1.6029511015402331e-01,
          -4.7337970921002881e-01, 1.6869521434392465e-01,
          -4.4483543781418285e-02, -4.1412104394902101e-03,
          -3.7601930751670357e-02, 8.6972870752717285e-02,
          1.3755515727955517e-01, -5.3653595285838840e-01,
          4.0178360230097943e-01, -7.7579104013804562e-04,
          -5.7443257702112192e-02, -2.7675516641770499e-02,
          2.4167166439044846e-02, 1.2447787564096562e-01,
          2.8808370563761683e-02, -1.4923343514973553e-01,
          -2.5786217886440387e-02, -1.1445326509174092e-02,
          4.4211301220862691e-02, 5.0946270772295202e-02,
          5.3749228406708505e-03, -3.2514413144910675e-01,
          -5.3723289075162994e-01, 6.7963379415793392e-03,
          3.3669294787380032e-02, 4.3520751944494424e-02,
          1.4947559462385465e-01, 2.5546732549470330e-01,
          -6.5332334946357970e-02, 2.2882676798248812e-02,
          -7.1850852373365661e-03, 3.8335204198451184e-01,
          -5.2090702551798063e-01, 2.7150713981078206e-01,
          2.7862030862517786e-02, 4.4775911053262235e-01,
          -3.8225917470855887e-02, 5.2842117693256654e-02,
          -6.5767293121452214e-02, -4.8279308969499646e-01,
          -1.3234351145642977e-02, 1.0121962174702051e-01,
          -3.7851094577068735e-02, 4.0011111601997336e-02,
          1.7916052568028307e-01, 6.8887358595307147e-02,
          3.0358354372964667e-02, 5.1814112655402950e-02,
          -3.4728041068037585e-01, -6.8316628775036845e-02,
          -3.4066635114090027e-01, -2.1563890958727426e-02,
          -4.1713674010320639e-02, -4.4093899835538061e-02,
          -4.2978104506899178e-02, -1.9467718726958122e-01,
          -3.8289647389429465e-01, 3.2538019623707788e-02,
          -2.2532650580345243e-01, -5.7486589429911292e-02,
          2.0360195809517864e-02, 2.7492907879838647e-02,
          -5.1989815193498511e-02, -2.2419474077305400e-02,
          -6.9899942789073174e-02, 4.3951420461430343e-02,
          -9.7180230763493317e-02, 7.3062190755438003e-02,
          -4.3679201118279087e-01, -5.7854670471395586e-01,
          3.2218933945695062e-02, -3.9864730382567562e-03,
          -1.2459591532450116e+00, 4.7134522542850331e-03,
          2.1961375287787264e-02, 5.8199873381083504e-02,
          1.0244049449435579e-01, 1.0446713291263542e-01,
          -6.0444911749388631e-02, 2.2666929354701614e-02,
          -3.5230992420420815e-01, 1.6329709244152740e-01,
          -7.8037902753089874e-02, 1.2411632688785522e-02,
          -4.1080826972104689e-02, 1.2352825255221407e-01,
          1.0787332254426722e-01, -3.7484754737162068e-01,
          3.0141366008138976e-01, 2.9594275969440142e-02,
          -1.5657442660252784e-02, 5.3487356062447436e-02,
          5.1655351082793600e-02, 1.4263516294030629e-01,
          6.8789506429218911e-02, -1.0625610121823090e-01,
          2.9525757656077588e-02, 4.0504729748064995e-02,
          -5.3114186665901071e-02, -6.9360498265870138e-02,
          -4.6019214354927521e-02, -1.6018602308310312e-01,
          -4.0514727841033671e-01, 3.5915941636124049e-02,
          6.4500750912546770e-02, -2.8407989581980143e-02,
          1.4727906379646513e-01, 1.8986939744779235e-01,
          1.3746112483135456e-01, 2.6715344482719179e-02,
          -6.4569794855422150e-02, 2.0205467994448706e-01,
          -4.0695936443664360e-01, 1.0733886773958369e-01,
          -4.1851064257920574e-02, 3.6648921402245166e-01,
          -3.6886351307820926e-02, -6.6496301427833124e-02,
          2.1274104962823663e-02, -4.8797174278103311e-01,
          -3.5143837497201300e-03, -5.8974519533756944e-02,
          6.4462793908540858e-02, -8.1463252589202312e-02,
          1.4216144442283191e-01, -6.9120689093139689e-02,
          6.5156273095698047e-02, -3.9972101794459688e-02,
          -2.7911172959706709e-01, -1.0486552787475201e-01,
          -1.2054111786990661e-01, -2.1164065735103110e-02,
          3.3558788654542850e-02, 1.6939054335706593e-02,
          2.3332957621713279e-02, -7.6618839558578927e-02,
          -3.4392133406291658e-01, -6.9436467269348892e-02,
          -1.7939955534226984e-01, -3.4874527626841206e-02,
          -7.6745529786695826e-02, 7.2722455717905338e-02,
          7.2633299917869196e-02, -9.7568488167820919e-03,
          6.6255749405252293e-02, -5.3205641081362429e-02,
          -7.9014915845248571e-02, -7.4728337431849715e-02,
          -3.9314655831851369e-01, -4.7626885629109789e-01,
          3.9855613917479313e-02, 8.6584426785400959e-02,
          -2.5641007727201446e+00, 2.1845217994137600e-01,
          1.4442919918032507e-01, -6.2320821059400469e-02,
          2.3245622111748887e-01, 4.3312570450805644e-02,
          -9.9257505514994321e-02, 2.0675521023218307e-01,
          -5.6733958064065149e-01, 2.1812226934951084e-01,
          -1.1314412386532312e-02, 3.6312278231481150e-02,
          -1.4425032701833618e-02, 7.7469055970545778e-02,
          7.6491498461942684e-02, -5.9168048008119623e-01,
          4.1419549186851745e-01, 6.0962638378484944e-02,
          4.8794556794748492e-02, 2.6084546080887901e-02,
          7.6285743307529130e-02, 5.5964625257716935e-02,
          9.3102995417338567e-03, -1.4402981320105451e-01,
          -6.3383404257061141e-02, -5.6858514254964458e-02,
          4.4493637579882929e-02, 3.1389077931637213e-02,
          5.7325348992103989e-03, -2.8985558949871015e-01,
          -8.1021036992599016e-01, 6.7912605876399440e-02,
          2.7803921805655270e-02, 1.9236734121519217e-02,
          1.8924304166039346e-01, 2.9329034251873493e-01,
          -1.8999415375746531e-01, 5.5896007955732005e-02,
          -3.1119220503609296e-02, 3.6537612921603774e-01,
          -6.6979976361788107e-01, 2.4312494071671384e-01,
          3.8765569520117137e-02, 7.2962531457985513e-01,
          -8.0684542621772118e-02, -4.0938340036384878e-02,
          2.5536801471429046e-02, -8.5243812355434767e-01,
          -5.2677117985506880e-02, -2.2494383468684761e-02,
          7.1657398921929960e-02, 5.2877431349661538e-02,
          2.2743180129358087e-01, -4.7023123183957662e-02,
          -3.4197165659080164e-03, -5.4524347019698084e-02,
          -4.3045333354075055e-01, -1.0169793174391281e-01,
          -3.8382159717593306e-01, -4.1021734153842353e-02,
          -1.4377139390744842e-01, 3.3850323836061132e-02,
          -7.1852207329567833e-02, -1.5818449986690744e-01,
          -4.5054183240317308e-01, -4.6330649417110209e-02,
          -1.5379197708140396e-01, 7.7667606528469518e-02,
          -2.0356859797316912e-02, -6.9424691651939416e-02,
          6.1321402376605487e-02, 2.1701949054727485e-02,
          -4.8245902406821424e-02, -2.7477155076982718e-02,
          -1.3463849841300057e-01, -1.9753538311782083e-03,
          -5.7548139235434381e-01, -7.1549317978693427e-01,
          4.0598276609333364e-02, -7.0626275234706409e-02,
          -1.4876863515806846e+00, -3.5750235431599624e-03,
          4.9637874352075929e-02, 4.0892252721400339e-02,
          4.2438855473960410e-02, -3.9464444112335677e-02,
          -5.1190574732666257e-02, 1.0789073457496380e-01,
          -3.4368386161786163e-01, 1.0053893670203150e-01,
          -5.8397142515593838e-02, 9.7926551706617959e-02,
          9.5667245200860649e-03, -1.1894078738128672e-02,
          1.0369373174091852e-01, -2.9664812174635230e-01,
          2.6308423614773230e-01, -6.0165668303928430e-02,
          9.4524965005977818e-02, -5.4621427295759528e-02,
          -1.7520409531856376e-02, 9.6790718939268813e-02,
          -2.2511452921172024e-03, -9.3549205865608928e-02,
          -7.2084338238422127e-02, -2.8180035165608099e-02,
          2.3008280280674824e-03, -5.2475823335545714e-02,
          -7.3512609378705809e-02, -2.0247385877579574e-01,
          -4.0525548503432057e-01, -4.7070900823453984e-03,
          -3.1037662180517560e-02, 6.0054135851914332e-02,
          -5.3200381252983568e-03, 1.7811866272083796e-01,
          6.2101886244366787e-03, 6.2619019572882448e-02,
          6.1863141748667257e-02, 2.0921071571622443e-01,
          -3.1446879563272179e-01, 1.4400866723857900e-01,
          5.2204873033110763e-02, 4.9094543767681004e-01,
          9.3007608987697873e-02, -4.0931004774469038e-02,
          -5.5425477630644648e-02, -5.3073232208950405e-01,
          -1.0084279214020480e-02, -3.9471768019643423e-02,
          6.6736926980824358e-03, -2.9375388568952887e-02,
          1.3449565851835688e-01, 4.5088214888592486e-02,
          2.9964441553480596e-02, 3.7574507949729427e-02,
          -2.4459019794042586e-01, -5.5222176452747664e-02,
          -1.1413970556108298e-01, -6.1942135462732216e-02,
          3.4932274889735881e-02, 2.2617785553694918e-02,
          -1.3483059788308133e-02, -1.4406592514562419e-01,
          -3.3042639373286720e-01, -2.2291627931943906e-03,
          -1.4259326048215001e-01, 4.3499340244955199e-02,
          -5.2488356847122185e-02, -9.2567930104354018e-02,
          3.0621179961770051e-02, -7.2540741863244329e-02,
          -4.8287673267108843e-03, 5.7502120395285815e-02,
          -9.2430777268561554e-02, -3.7364831209348803e-02,
          -3.9411049140658128e-01, -5.0490784988773352e-01,
          5.9518617457185390e-02, -4.8062773769076118e-02,
          -3.7873749501218819e+00, 4.8762421350443591e-01,
          1.7647755778120095e-03, -3.2885843405425629e-02,
          2.2197176318610262e-01, 1.0649323809621936e-01,
          -2.8224689286333138e-01, 1.9680454874447181e-01,
          -6.1428559849845632e-01, 2.1562216930149353e-01,
          -3.3993864047625749e-03, 2.5344071800609586e-01,
          -5.9603963537371171e-02, 3.5581708409899063e-02,
          2.7139530978338346e-02, -6.2296266642107245e-01,
          3.4468980378451469e-01, 4.9735615900893565e-02,
          2.6357392882920011e-01, -1.4420167553679811e-02,
          9.5188905979419411e-03, 2.0530533883044100e-01,
          -5.0019854475195011e-02, -1.3072525144862318e-01,
          -7.9370165990765559e-02, 3.5352674117977564e-03,
          -8.9644095623137132e-02, 4.7609898334947477e-02,
          -1.2962935926505726e-02, -2.7029212053973395e-01,
          -8.2543568826118241e-01, 1.0544386820300365e-02,
          5.6944819238069808e-02, -1.1113322554821219e-02,
          1.3763377964416776e-01, 3.2884628416518169e-01,
          -2.7576764800226589e-01, 1.3090048250123068e-02,
          -3.7530621361815425e-02, 3.9657255913403827e-01,
          -6.7209180908222510e-01, 1.8939736441061192e-01,
          6.1733289021332904e-02, 9.3745953008800398e-01,
          -4.5010948620648868e-02, 1.3754175115000769e-01,
          6.9571339658594550e-02, -1.0041714864352840e+00,
          -1.9295470700961687e-02, 1.0285140099907993e-01,
          -7.2291436205362852e-02, 3.4630965661827662e-02,
          1.3778301340000812e-01, 5.4052267191309046e-02,
          9.9904865636035057e-03, 4.8532310078769167e-02,
          -4.0790762672358355e-01, 2.1047438843701860e-02,
          -3.3658275554268996e-01, 3.6235347887952560e-02,
          -2.3467739065029083e-01, -1.1803533236735157e-02,
          -9.3523879451271746e-02, -1.6538588385631778e-01,
          -5.7590296529429663e-01, 8.5037688451236507e-02,
          -7.2736198492582310e-02, -3.4067349311338209e-02,
          -4.1226734432600973e-03, -6.5470746176180011e-02,
          -1.7920484541383272e-02, 2.5672533863612223e-03,
          1.7048704035541699e-02, 9.8552705870511514e-02,
          -4.0289496904663540e-02, -2.7183267603129526e-02,
          -6.2640298593358723e-01, -9.5415789946309126e-01,
          -1.1134160597606468e-02, -5.4039722830132482e-02,
          -1.6343904926130759e+00, 1.7930313540138751e-01,
          7.3615627188325081e-02, -3.1650216939106461e-02,
          1.2020403153564309e-01, -7.3571352350018989e-03,
          -1.3735436212685265e-01, 1.4419325086573287e-01,
          -2.2746842572975925e-01, 1.1573713884679851e-01,
          -4.7031055770197706e-02, 1.0859156610729252e-01,
          -7.1945347481381053e-02, 2.1785289872119334e-02,
          7.6775217046336830e-02, -2.9023261696207164e-01,
          1.7845724817970982e-01, 9.6438480218296128e-03,
          1.2935734185943798e-01, 6.5199275227225878e-02,
          6.7920549166676780e-02, 1.1410209111007769e-01,
          -2.5432505352593546e-02, 1.5303030402554528e-02,
          6.2888237368960556e-02, 6.6239232419916649e-03,
          -3.1864460946629688e-03, -2.3979871991660236e-02,
          4.7255451253979452e-02, -1.4886712391070928e-01,
          -3.0052815872141819e-01, -5.6902892489521040e-03,
          -6.9551600956711821e-03, -1.4859474279154008e-02,
          9.4118302598587597e-02, 1.5561192876794752e-01,
          -3.6274448848409781e-02, 2.2410012506705879e-02,
          7.2173905955158421e-02, 7.2334244796587996e-02,
          -2.3843734877452419e-01, 4.1613521272400089e-02,
          2.3495315684604445e-02, 2.8715525217157717e-01,
          -1.8206873062868629e-02, 1.1182515444844093e-02,
          -1.5087056755690652e-02, -2.7713083047677894e-01,
          -9.3740837289526147e-02, -5.0239659904612238e-02,
          6.7998467348130948e-02, -3.9507246431015920e-03,
          8.0878441750290700e-02, 4.9021945874869119e-02,
          -1.1777452346409910e-02, 8.0606643688063903e-03,
          -1.5129570280176308e-01, 2.0241290011232888e-02,
          -1.5576821246238187e-01, 4.4729888713787691e-02,
          -2.2582537407367102e-02, -4.1349731610991924e-02,
          4.2976273717792550e-02, -7.8866887140819880e-02,
          -1.3473059185053879e-01, 3.2447937532300082e-02,
          -1.2286998843127062e-01, 2.6403483238067630e-02,
          3.6665798371338244e-02, -4.8925026652144023e-02,
          7.4676034221364280e-03, -5.7852970103296091e-02,
          3.8720924819173975e-02, 6.4639685778109232e-02,
          -3.7857243426285582e-02, -7.4864890275335993e-02,
          -2.3656029736731216e-01, -2.1547804834621659e-01,
          7.3709023152583417e-02, 2.7528900674884463e-02,
          -3.0853277069002094e+00, 3.2506808606510601e-01,
          1.4055751166706901e-01, -2.4451611586563206e-02,
          2.3170036688772466e-01, -9.6368206414404762e-03,
          -2.3876252989156843e-01, 1.5416048896952342e-01,
          -6.0964708359876529e-01, 2.1475429469034504e-01,
          6.2333377324284102e-02, 1.8121761363747055e-01,
          1.8516356745330715e-02, 1.2078992948126467e-01,
          1.4934644194338775e-01, -5.7260242931775573e-01,
          4.1036029736250029e-01, 4.0786423546002967e-02,
          2.1386376195108459e-01, 5.5117832686209286e-03,
          -6.3691092642576316e-02, 4.2958612052961982e-02,
          -2.0200343676387535e-02, -5.6654897480833147e-02,
          -1.1679412699311331e-02, 1.9759192245260539e-02,
          -9.2732579521343173e-02, 1.6814493802604909e-02,
          -4.9645185706722487e-02, -2.4816859505674332e-01,
          -8.2318065240569993e-01, -7.6527233719189985e-02,
          -6.2870156288646922e-02, 7.3097146310947009e-03,
          6.1381935396369103e-02, 3.7655129902799928e-01,
          -2.7258744491849635e-01, -6.7680725215147980e-02,
          6.3666905290712353e-02, 3.2689222909420090e-01,
          -7.1387164474103226e-01, 2.3451479575681183e-01,
          -3.5868476443120537e-02, 7.3820076229423603e-01,
          4.0056823197490203e-02, 8.6695000216914675e-02,
          1.6030972797279968e-03, -8.0294258097030291e-01,
          -1.3132428649940145e-01, -1.3239515929103333e-02,
          2.9718837132457186e-02, 4.3479818962335444e-02,
          1.6808605236147553e-01, 3.1969496124988679e-02,
          -3.7862127692362746e-02, 5.6233814948922566e-02,
          -4.2019255183209486e-01, 1.9087904785644750e-02,
          -3.0396728228787712e-01, -5.6159440500565483e-02,
          -9.8963262847323541e-02, -7.6538493212645789e-02,
          -1.4537398156777359e-01, -1.4378488258611066e-01,
          -4.6667363078270646e-01, 3.2244586319253983e-02,
          -1.3702721839820881e-01, -7.8881530484369283e-03,
          5.3904429558884921e-02, -9.9227352695266419e-02,
          -2.2901062177030859e-02, -1.1642101925065972e-02,
          -5.2326969584230009e-03, -1.3870699353663699e-02,
          4.1473359626437176e-03, -3.8566223418510077e-02,
          -5.4953888975651033e-01, -8.9344008962754851e-01,
          -4.5929417572987880e-02, -4.2094698136256076e-02,
          1.1635616639813815e+00, -6.3499055286593187e-01,
          -2.9031055341246204e-03, 2.8967825239674754e-03,
          1.0187318875631193e-02, 4.8508171163508272e-02,
          3.9817959802989750e-01, -1.1276848088969553e-02,
          3.9386552570963151e-01, 1.7149556275435129e-02,
          -4.3632534178044861e-04, -1.6373069398603651e-01,
          2.8653501715408706e-02, -4.2073390780130136e-03,
          -9.3785604618574440e-03, 4.6220262372909604e-01,
          -1.2059573782757171e-01, 7.4422721027806362e-03,
          -3.6351189827334557e-01, -5.5732132753239384e-02,
          -2.3318134363296255e-02, -3.5442776876901715e-03,
          2.5589613213827488e-02, -1.9610592532411437e-02,
          2.6809155058097056e-02, 7.3122923820450952e-04,
          -6.0938770029817339e-03, -1.0000227777304936e-02,
          -1.9391860115073250e-02, 6.1480046985077405e-02,
          7.3579629307838967e-01, -7.0632499293569517e-02,
          -6.7836798947304182e-03, -5.2854297217530599e-02,
          4.3190896900437488e-02, -9.9032971853805996e-02,
          4.0753153994393798e-01, -3.9597794412259739e-02,
          2.5490354194166445e-03, -2.9700341665619506e-02,
          4.4342694813156797e-01, 1.8267164447199950e-02,
          -3.7709367927319409e-02, -7.1147388043074833e-01,
          5.8073759056200845e-02, -8.3870145638798910e-02,
          -3.9802948720138127e-02, 7.5273735492157434e-01,
          5.7674374038920083e-02, 4.2916842206463843e-02,
          9.3369466820444717e-03, -1.1232953226957106e-02,
          -1.7860182497527872e-02, -1.5178739832757901e-02,
          1.7373702058685127e-02, -1.1601981305422464e-02,
          1.1747421852707492e-01, 1.1500768064759729e-02,
          6.0888070060261049e-02, 1.0195362956666742e-02,
          1.9952219929924339e-01, -1.9582536630733858e-03,
          1.9582592927688303e-01, 4.8511462115343067e-02,
          2.1518872503743838e-01, -4.2327596900047254e-02,
          6.0276675890350339e-03, 1.8310590379972107e-02,
          -6.8646751894583368e-03, 1.2431148461242797e-01,
          4.6129155701804224e-02, -4.9744232893357020e-02,
          2.0640882586506201e-02, -8.1707983229242664e-02,
          6.5084325012570457e-02, 3.2958893567558475e-02,
          3.8081161917180689e-01, 7.6616433669996220e-01,
          -2.4451640100842439e-02, -1.9509163574630409e-02 ]
      - [ 3.1034860080726827e+00, -1.3307346997872394e+00,
          4.0593888803717115e-01, 4.6288255810359911e-02,
          7.6531263372025315e-01, 4.1788240885333505e-01,
          -1.0678293549235700e+00, 5.5697534030689466e-01,
          1.6242839335534056e+00, 5.9463641455818672e-01,
          -2.0704012002886232e-01, -9.2125676726215699e-01,
          -1.1704143274142996e-01, 3.8157989732695452e-01,
          5.6655795387061136e-01, 1.9245331289884460e+00,
          1.1216661875569522e+00, -1.0574402645896328e-01,
          -1.0387443890027750e+00, -4.8314326609697394e-01,
          1.7152225241329871e-01, 5.8484701721172316e-01,
          4.0765736560862673e-02, 3.8918627600282119e-01,
          -2.2070672715018766e-01, -3.8992242555239962e-02,
          4.4505167092091086e-01, -4.7576242486944770e-01,
          -1.1221212174948612e-01, 9.6971943244349024e-01,
          2.5219863662726842e+00, -3.8521599526416483e-01,
          -1.7750337810574915e-01, -2.6899962250523740e-01,
          6.3226095679598016e-01, 1.0165611120165179e+00,
          -9.8991509952559154e-01, -3.0422038132675683e-01,
          -4.2229098641928220e-01, 1.0995261429554453e+00,
          1.9693866453711002e+00, 7.9268284023227487e-01,
          -4.6625005425174615e-01, 2.5187247851465733e+00,
          -4.0739166574975616e-01, -6.9647733299676662e-01,
          1.4722366854632277e-01, 2.7831614096820787e+00,
          -8.0788819479138563e-01, -2.6178294386179279e-01,
          -2.8139861254891141e-01, -2.6945486184731210e-01,
          6.3503980260367021e-01, -7.6449786154943689e-02,
          -2.6843968641384763e-01, -3.9687465386886783e-01,
          1.1213530950452257e+00, 1.1526289609941043e-01,
          1.0453811028266224e+00, -1.0156537228253222e-01,
          -9.6005342684221795e-01, -9.3188811476609290e-02,
          -6.3761018226837074e-01, 7.1398052807980839e-01,
          1.4102020548793495e+00, -3.7029187847350065e-01,
          5.5168661222226778e-01, -3.0722022483571448e-01,
          1.1636286678882374e-01, -8.7832461998745093e-01,
          -3.2377079221660865e-01, -4.1411623554208460e-01,
          8.8365829753395096e-03, -8.8678112266096287e-01,
          2.9627748630985390e-01, 1.1756255477601311e-01,
          1.8171601746395998e+00, 2.6848816398418638e+00,
          1.1013293873327541e-01, 1.9633973522031809e-02,
          1.2922234558822412e-01 ]
