%YAML:1.0
my_nn: !!opencv-ml-ann-mlp
   layer_sizes: !!opencv-matrix
      rows: 1
      cols: 3
      dt: i
      data: [ 24, 10, 1 ]
   activation_function: GAUSSIAN
   f_param1: 5.9999999999999998e-01
   f_param2: 1.
   min_val: 5.0000000000000003e-02
   max_val: 1.
   min_val1: 2.0000000000000000e-02
   max_val1: 1.
   training_params:
      train_method: BACKPROP
      dw_scale: 1.0000000000000001e-01
      moment_scale: 1.0000000000000001e-01
      term_criteria: { epsilon:1.0000000116860974e-07, iterations:500 }
   input_scale: [ 1., 0., 1., 0., 1., 0., 1., 0., 1., 0., 1., 0., 1., 0.,
       1., 0., 1., 0., 1., 0., 1., 0., 1., 0., 1., 0., 1., 0., 1., 0.,
       1., 0., 1., 0., 1., 0., 1., 0., 1., 0., 1., 0., 1., 0., 1., 0.,
       1., 0. ]
   output_scale: [ 2.1052631578947367e+00, -1.1052631578947367e+00 ]
   inv_output_scale: [ 4.7499999999999998e-01, 5.2500000000000002e-01 ]
   weights:
      - [ 3.7249224406848491e+01, -8.5223043941520060e-01,
          -2.0527874818038407e+00, -4.7754842753433628e+00,
          -9.6927241193278224e+00, 3.4005689645838189e+00,
          1.3287529014397266e+00, 1.6117995677396331e+00,
          -5.2355216150832695e-01, -1.2067772977872639e+00,
          -5.2283478243808181e+00, -4.0677747240216773e+00,
          -1.9079874763280922e+00, 8.0700318067654542e-01,
          -1.1817173454763560e-01, 5.3104486285722696e-01,
          8.8192728459333503e-01, -4.6641231411660589e-01,
          4.4967193063257760e-01, -2.8488131794073648e+00,
          1.0656645100145592e+01, -6.6767529382801777e-03,
          2.4794258137615466e+00, 2.1392140572505918e+00,
          9.4881527360391313e+00, -1.6594943583163757e+00,
          -2.7457563512663725e+00, -1.0272224409064030e+00,
          -1.7622076036815496e-01, -1.5985172388216304e+00,
          6.6767739571651061e+00, -2.4827070117798722e+00,
          -2.3943774213880159e-01, -6.4761012984427415e+00,
          -7.6774518666708351e+00, 2.9969030620580144e+00,
          1.8122567892247381e+00, -2.2301099004985292e+00,
          -1.4836332111697985e+00, 1.0576086245141327e+00,
          4.5430556671182859e-01, 3.5869829181559667e+00,
          3.0967723837415910e+00, -5.0236285339153834e+00,
          -8.7177588512182336e+00, 1.6848803467780655e+00,
          -2.5275656623275125e+00, 1.2937800875057948e-01,
          2.2081304995283695e+00, -4.5137356264162998e+00,
          1.2869968220005580e+01, 8.6994489083916111e+00,
          1.0459559907674085e+00, 1.5035837840358823e+00,
          -1.5591468713283141e+00, 1.7044520905197218e+00,
          7.1372980442159584e-01, -2.1983977162108808e+00,
          2.1381930310454442e+00, 4.5455762013390510e-01,
          9.1806823044116292e-01, 1.6989994244539901e+00,
          -3.4736845039535837e+00, 1.5170499270883264e-02,
          -6.1740851396561158e-01, 4.8186484129261506e+00,
          -1.8567902720759673e+00, 2.1066884792897622e+00,
          -1.6513355511790537e+00, 2.3522494535304426e+00,
          3.6361856908810624e+00, -1.8205415220121097e+00,
          1.5866230926995504e+00, -4.9196291833396355e+00,
          -4.6790858150291337e+00, -1.7580035444697921e+00,
          -5.1677802582477135e+00, 2.0479718675873189e+00,
          -1.2734822169488500e+00, -3.2505865186937002e+00,
          8.9801152312914478e+00, -1.8145512448761814e+00,
          -7.4395456604361876e-01, -2.3100905053670648e+00,
          9.3314557202007542e-01, 5.6661380533534569e+00,
          -1.9149033668968649e+00, -2.1532109981761565e+00,
          -4.0513569562914995e+00, -1.8871785140299189e+00,
          1.1743721463613261e+01, -4.8507980469777436e+00,
          4.2602313475587499e+00, -4.6457975494895738e+00,
          7.6736513678017026e-01, 9.0732049247013868e-01,
          -2.5960591200087513e+00, 1.8585724152688474e+00,
          -1.0971279472256215e+00, 1.3177404343672061e+00,
          -9.7504220585036261e-01, -1.6376220767166985e+00,
          3.1620313246144773e+00, -6.2727164024997313e+00,
          -4.0660174079731704e-01, -3.8026547292646268e-01,
          -2.1311962346014957e+00, -1.3101434402955134e+00,
          3.3893316750554452e+00, -1.8061639022206177e+00,
          1.0077865443021905e+00, 3.7173376355216536e+00,
          -5.0780356418832040e-01, -5.4851021645731750e+00,
          -2.7810674081232478e+00, -1.3328169229495932e+00,
          -1.3261808140999849e+00, -3.0590957185502115e+00,
          -2.0307611741083004e-01, 3.5719128973688949e+00,
          8.6991907712078778e+00, -3.4297866013476508e+00,
          -1.8143937334398772e+00, -7.2272448673705352e+00,
          3.1155961393815259e+00, 2.5104797793588403e+00,
          8.9088679391175933e+00, -1.2228453424465983e-01,
          -3.6290094095138161e+00, -8.7958613222199639e-04,
          -4.2175783133365705e+00, -1.8318559977057536e+00,
          -1.6214586629757810e+00, -3.2705792722337819e+00,
          1.3469510420297466e+00, -1.0911493683444737e+00,
          -3.7163255004946274e+00, -7.7838938241477093e-03,
          -2.4673020119689026e-01, 6.5425787384358636e-01,
          -2.1485231372203906e+00, -3.2082427725097101e-01,
          2.2245705192272895e+00, 1.1415989323727973e+00,
          3.1604320898101737e+00, 5.5843134488259301e+00,
          -4.5270519758067724e+00, -4.7307412554010619e-01,
          -2.4873439000834767e+00, -2.8337960252127989e+00,
          -2.8624143575463448e+00, -8.8240654332949453e-01,
          -3.3291944468657384e+00, 1.1173759579165957e+01,
          6.7536595279431699e+00, -8.8686372496481547e-01,
          4.7046021598114933e+00, 4.0504703490580551e+00,
          1.1879298689403459e+00, -2.6896618483002368e+00,
          -1.6681415168657650e+00, -3.6055760497841804e+00,
          2.4356182204347978e+00, 5.9164134276858720e+00,
          -4.7867548208561681e+00, 9.2336381779905374e-01,
          -1.0221360696618651e+00, -7.1994923242980702e-01,
          -5.9895340778143180e-01, -1.7594523488781473e+00,
          -1.0495061565687710e+01, 3.2642928704477314e+00,
          -2.4967118293554740e+00, 2.9347644485782607e+00,
          -6.8532035127852682e+00, -1.3479146454395068e+00,
          -4.5066814166378171e+00, -5.8690772616566322e-01,
          -3.8320830102665018e+00, 5.6167286888300030e+00,
          1.7834142994976150e+00, -2.6070811628061552e-01,
          -2.4089162796169510e+00, 7.0353855453156404e+00,
          2.6282531783334271e+00, 3.9667541778975393e+00,
          3.2439968651377526e+00, 5.0358253827161070e-01,
          -2.1457868128683675e+00, -8.6803370704554106e-01,
          4.9342765498352206e+00, 5.0727594128979614e-01,
          1.7067471874366491e-01, 2.7083885410333641e+00,
          -8.2713350947049791e-02, -8.7441520021001418e-01,
          2.9614548637429197e+00, 2.0820836131196796e-01,
          2.6411956335591396e+00, -2.0352301360673848e+00,
          7.6425410526555160e+00, 3.0144782532443295e+00,
          -3.5448035754570562e-01, 2.0297507052512596e+00,
          -1.1689879931718872e+00, -2.5015269989313560e+00,
          2.0552143664159233e+00, 2.2232310507160209e+00,
          1.1390554948263454e+00, 4.5933782925304040e-01,
          1.3397825976821775e+01, -3.1215829562342172e+00,
          -6.6165473223305893e-01, 3.4139966479194733e-01,
          8.8126013319439955e-01, -2.7495473570975459e+00,
          3.0997428120932935e-01, 7.3580196085000119e-02,
          2.6708607406009373e+00, 3.1251186657916770e+00,
          1.3698526397765598e+01, -7.5902654136621130e+00,
          -1.4593156998319727e+00, -1.2227186055367905e+00,
          1.6391873901797469e+00, -4.5562801535045008e+00,
          -2.3491800842189261e+00, -2.0004613517512135e-01,
          -1.0779583162314421e-01, 6.7877924182972054e+00,
          1.3915038276607177e+01, -8.2187795854343038e-01,
          -4.8318150903815376e+00, 5.2312405557829980e+00,
          2.4946771927753542e+00, 8.2508111230309614e-02,
          2.6676188979968867e+00, -1.1269184391909528e+00,
          -6.2904007679949636e-02, 3.3832773555977416e+00,
          4.6151246217662667e+00, 4.1533092602660080e+00,
          1.8498653274955716e+00, 1.9671564139448139e+00,
          1.2202798921644933e+00, -2.4370914714145457e+00,
          1.3707671590961505e+00, -1.0306006167879149e-01,
          3.5494754685679974e-01, 3.9102658373190502e-01 ]
      - [ 1.7335513203481318e-01, 6.7410614047387973e-01,
          -6.2209441688121991e-01, -1.4099606757014704e+00,
          -2.6368974733056052e+00, -1.0624742823569597e+00,
          6.7885773653463810e-01, 9.7071860817366973e-01,
          1.1605312181554754e+00, 8.1922941435732066e-01,
          7.4340656004874245e-02 ]
