%YAML:1.0
my_nn: !!opencv-ml-ann-mlp
   layer_sizes: !!opencv-matrix
      rows: 1
      cols: 3
      dt: i
      data: [ 24, 10, 1 ]
   activation_function: GAUSSIAN
   f_param1: 5.9999999999999998e-01
   f_param2: 1.
   min_val: 5.0000000000000003e-02
   max_val: 1.
   min_val1: 2.0000000000000000e-02
   max_val1: 1.
   training_params:
      train_method: BACKPROP
      dw_scale: 1.0000000000000001e-01
      moment_scale: 1.0000000000000001e-01
      term_criteria: { epsilon:1.0000000116860974e-07, iterations:500 }
   input_scale: [ 1., 0., 1., 0., 1., 0., 1., 0., 1., 0., 1., 0., 1., 0.,
       1., 0., 1., 0., 1., 0., 1., 0., 1., 0., 1., 0., 1., 0., 1., 0.,
       1., 0., 1., 0., 1., 0., 1., 0., 1., 0., 1., 0., 1., 0., 1., 0.,
       1., 0. ]
   output_scale: [ 2.1052631578947367e+00, -1.1052631578947367e+00 ]
   inv_output_scale: [ 4.7499999999999998e-01, 5.2500000000000002e-01 ]
   weights:
      - [ 3.4224822507220320e-01, -9.5514539268407680e-02,
          -2.8924722135706193e-04, 3.8590036609372489e+00,
          3.6667794359129000e+00, -2.3030676813183626e+00,
          -2.3389302750034915e-01, 1.6732280229456314e-01,
          9.5276971738335589e-02, 2.5654338998209814e+00,
          3.8593291112803256e+00, 1.0340351438715523e+00,
          -5.8720884817371877e-01, -1.1324439933750383e+00,
          -3.2391528801166172e+00, 7.4549620710679235e-02,
          -5.0840882905255285e+00, 4.1560676758061038e-01,
          -1.3243161791705298e+00, -9.4628955090944278e-01,
          2.8419086626040353e+00, -1.0361101486788200e+00,
          2.4932282025093580e-01, 6.2148748075652338e-01,
          1.8114000723489208e+00, 3.0262394314763321e-02,
          -7.5522134466932711e-01, 3.7702335550154509e-02,
          7.8200707125240509e-01, -4.7785122507255046e-01,
          1.3338569874355877e+00, -3.2074382165489337e+00,
          2.0398837638391734e-01, -6.6595604606127456e-02,
          1.9027808710421614e+00, 9.5675826662390684e-01,
          6.3660019049431527e-02, 3.4101596248769062e-01,
          6.5454625101261510e-01, -7.5862573380453613e-01,
          1.6600345971159154e+00, -2.9096779094660636e+00,
          3.9223322469072133e-02, -1.6653719721937648e+00,
          -1.2062275883562538e-01, 2.2090611888699003e+00,
          -2.6278817693899081e+00, 5.8657733542868667e-03,
          3.7286718436693839e-01, -6.0447006556047311e-01,
          1.5309644164499812e+00, -2.5890993342044823e+00,
          2.4745390038993123e-01, -2.1200362467549883e+00,
          1.3254812855824467e+00, 2.4018468704178515e+00,
          9.1788282544339983e-01, 2.5993227723766117e-02,
          4.5918010418952027e-01, -1.3176134661038166e+00,
          2.1765467103590050e+00, -4.6839231700726938e+00,
          5.3339305481509849e-02, -2.8734876116484442e+00,
          1.4135916560866018e+00, 3.7191252874512521e+00,
          -1.7983351853378693e+00, -5.5386352789691218e-01,
          7.0151001515164424e-01, 1.2515462017985883e+00,
          -7.1167045843760823e-01, -1.1200989598739628e+00,
          -8.4634224192770490e-04, -7.0838942978757513e-01,
          2.5232040650673038e+00, -1.2538275659355200e+00,
          -4.8221082542809590e-01, -5.3323228388169919e-01,
          9.9176102117482401e-02, -3.4918954148359153e-02,
          -7.9539601899277690e-01, -1.3758536722063648e+00,
          -6.0042670382588915e-03, -2.4476088311279880e+00,
          -7.1567314345582522e-01, 7.8354720288580959e-01,
          -2.9602831201873441e+00, -6.1348385573830710e-01,
          9.9978563010337182e-02, 9.8665473830108807e-01,
          -9.0895283787071135e-01, -1.0757054062270011e+00,
          9.5506008527519004e-02, -3.4474695353020999e+00,
          -2.9184707439604309e-02, 1.0018241027047061e+00,
          2.6410982764572268e+00, -2.1640407875732295e-01,
          2.8574570070254240e-01, -1.8650581211588699e+00,
          -1.9881837679466703e+00, -2.3055079987642113e+00,
          -6.6539247835100845e-02, -1.8327713000156121e+00,
          -3.9019837745407422e+00, 4.1501066989702512e-01,
          3.2620024034868295e-01, -1.1288555607280593e+00,
          -5.8021298272834421e-01, 9.6509806278033661e-01,
          -2.0855049913105352e+00, -2.3219048988524786e+00,
          1.7267776350904601e-01, 1.7183584020094678e+00,
          -4.3471525188497457e+00, -1.2369658813696236e+00,
          1.5468399353444784e+00, 1.3681772506468706e+00,
          1.8544489139244635e-01, -4.7859408399006292e-01,
          -8.5412612697139356e-01, 1.6844523156604319e+00,
          4.4136010678007188e-02, -2.3987884739327558e+00,
          1.0622181596617279e+00, 4.3128207339794988e+00,
          -1.7244666450107684e+00, 5.1649327059186657e-02,
          4.0521299013210377e-01, 1.4799045938395343e+00,
          -2.4878755281545590e+00, 4.6921173701169270e+00,
          -3.1167330353607198e-01, 3.5952590354977576e+00,
          1.2445588324476939e+00, -3.3591257686988820e+00,
          9.2187482660405606e-01, 1.0946811410858417e+00,
          -4.2176604259477068e-01, 1.8451675226199244e-02,
          -3.0397589413959286e-01, 3.2148739133734892e+00,
          -1.4370994824824415e-01, -2.3728351470620099e+00,
          -1.4554681382999635e+00, 2.3069302384467978e+00,
          1.2682369222469096e+00, 4.0187861259610415e-02,
          -3.0684693313051320e-02, -1.1341530872007588e+00,
          -2.2160181349021690e+00, -2.3602798514415881e+00,
          -1.0680868300624589e-01, 6.3627339811574446e-01,
          -5.8823733541280743e-01, 5.5232204257856332e-01,
          3.6412241372357373e-01, -4.6634148749875831e-01,
          -2.6347293996212257e-01, 6.5639382781729516e-01,
          -1.2199132662357979e+00, 1.6103111265478096e+00,
          -2.1152287471844257e-02, 6.9338482131055301e-01,
          -1.1322328210204828e+00, -1.7612451636054735e-01,
          1.9740471711416228e+00, 6.3585844268840952e-01,
          1.0845586953958716e-01, -7.5504673633858477e-01,
          -1.5165511464451045e+00, -3.2591584513071306e+00,
          -1.8012251584297875e-01, 8.0362639795054891e-01,
          -3.3012261566151304e+00, 4.7824011821322848e-01,
          -2.3233377152863754e+00, -3.0078829163802212e-01,
          -7.2432052294102811e-01, -2.4953030699503692e-01,
          -2.5879679716086259e+00, 2.7093950270716993e+00,
          1.8614781977712566e-01, 1.8088624715542594e+00,
          -1.3819223315378804e-01, -8.4224489586529105e-01,
          1.3893588493439604e+00, 4.1665458509910036e-01,
          3.4506995311325850e-01, 8.3033669827100631e-01,
          -1.6815208181380812e+00, 3.3054839616724179e+00,
          -2.6176678230927009e-02, 1.3313517616506214e+00,
          -7.8467954307482435e-01, -1.9003802105899765e+00,
          -3.3592950080256738e+00, -5.3006921728241385e-01,
          -4.2378966156696446e-01, -1.4771864201504294e+00,
          -2.5485675873757021e+00, 3.1452595666718794e+00,
          7.9508075855014279e-02, 2.4062050174768159e+00,
          -6.8121607422549668e-01, -2.1778515292910465e+00,
          -1.9789811117608713e+00, 3.9717212292226051e-02,
          1.9129881578851729e-01, 2.2088301356473909e+00,
          -7.1833412461300561e-01, -2.9583894401078190e+00,
          1.3638924548223019e-01, 4.6835747522642418e-01,
          -2.8994746189493297e+00, 6.6868971852149584e-01,
          5.5416139466815617e-01, -2.1819298631732104e-01,
          3.9385000236917635e-02, 2.1594688047284136e+00,
          -2.2110010489151759e+00, -5.0087793594393268e+00,
          2.2262388623242499e-01, -2.1701461548800434e+00,
          -1.6345729295195541e+00, -1.3654969661301466e+00,
          3.3459458997151181e-01, -1.1057007239060386e+00,
          4.1025966902372207e-01, -4.3684251377843397e-01,
          -1.6337214974373133e+00, -2.4513125831873310e+00,
          1.2453648105815572e-01, 6.9085218346712740e-01,
          1.8792616454497549e-01, -1.1425090752656117e+00,
          2.7185546180806219e+00, 2.0187741202212331e-01,
          1.3622979369043384e-01, 2.4669985228883984e-01,
          3.5852305988818594e+00, 4.3994526982214115e+00,
          -3.3436812661488576e-02, -2.6975882047580910e-03,
          -2.0591172323042648e+00, -6.3480196346133755e-01,
          3.7189454539077320e+00, 9.8944394693769866e-02,
          -2.1749046422374591e-01, -1.3636637123208779e+00 ]
      - [ 2.1177870142582134e-01, -2.1428239338641162e+00,
          5.3403782071003525e-01, -1.5382161164792159e+00,
          1.8111700865837783e+00, -1.6036786737215663e+00,
          1.7899771917725502e+00, -1.1707515119426992e+00,
          1.2138517029835552e+00, -1.6603377706201119e+00,
          2.6958849186568327e-02 ]
