%YAML:1.0
my_nn: !!opencv-ml-ann-mlp
   layer_sizes: !!opencv-matrix
      rows: 1
      cols: 3
      dt: i
      data: [ 24, 10, 1 ]
   activation_function: GAUSSIAN
   f_param1: 5.9999999999999998e-01
   f_param2: 1.
   min_val: 5.0000000000000003e-02
   max_val: 1.
   min_val1: 2.0000000000000000e-02
   max_val1: 1.
   training_params:
      train_method: BACKPROP
      dw_scale: 1.0000000000000001e-01
      moment_scale: 1.0000000000000001e-01
      term_criteria: { epsilon:1.0000000116860974e-07, iterations:500 }
   input_scale: [ 1., 0., 1., 0., 1., 0., 1., 0., 1., 0., 1., 0., 1., 0.,
       1., 0., 1., 0., 1., 0., 1., 0., 1., 0., 1., 0., 1., 0., 1., 0.,
       1., 0., 1., 0., 1., 0., 1., 0., 1., 0., 1., 0., 1., 0., 1., 0.,
       1., 0. ]
   output_scale: [ 2.1052631578947367e+00, -1.1052631578947367e+00 ]
   inv_output_scale: [ 4.7499999999999998e-01, 5.2500000000000002e-01 ]
   weights:
      - [ 2.0182040918287097e+01, -3.1879804959097955e+00,
          -1.5974927791377380e+00, -7.9753368754372360e+00,
          -1.4996488983727059e-02, -9.9597599158289599e-02,
          4.3626706874616639e-01, -1.2414625432733082e+00,
          2.6684082710653128e+00, 2.6801835974614381e+00,
          -7.7757159829461964e+00, -9.9015487813453240e-01,
          7.1158617624532094e-01, -1.3581040382681600e+00,
          1.9245522779069355e-02, 3.1498803740043851e-02,
          1.4842875441940018e-01, -2.6516281017373382e+00,
          -1.4809866771399782e+00, 2.5158914443040004e-01,
          2.8439109124790743e+01, -5.2456564236482583e-01,
          -2.9830419331859825e-01, 5.1923589835831336e+00,
          -5.7581702054332398e-03, -9.7778532407526125e-02,
          1.1063751295999382e+00, -3.4479550975522327e-01,
          -3.3549425098852246e+00, 2.4840359670943668e+00,
          2.4683056744178579e+01, -3.5225843504487759e+00,
          -2.1508047641902834e+00, -2.4971510266816748e+00,
          -6.6128699384717035e-03, 7.7760546561187055e-02,
          -6.7847936748045812e-01, 2.3941500247983197e-02,
          1.9395107888876517e+00, -8.3017616181854181e-01,
          2.6757862269247305e+01, -3.2782466542925864e-01,
          1.5449109626827584e+00, -4.1041097908670121e+00,
          -5.8349146107588352e-02, 1.1386723546582907e-02,
          1.2907652190665193e+00, 4.8119312146532085e+00,
          6.4442878616471777e+00, -7.6293314945095458e-01,
          1.5186635720265606e+01, -1.2152658419819728e+00,
          2.1406310240633895e+00, 2.6264816563502822e+00,
          2.7835763472363589e-02, 8.5012649623552886e-02,
          3.3515854312834259e+00, -1.2492520252699675e+00,
          -8.4711569760945409e+00, -3.1364617562706285e+00,
          2.6344780958556321e+01, 3.7367797642893437e+00,
          9.2321050908742611e-02, 3.4100672831385510e+00,
          2.3310273313929611e-02, 7.6189397528365954e-02,
          1.0349863336588625e+00, -2.7810634227493711e+00,
          -1.9069239205666784e+00, 1.7658639669472576e+00,
          2.5920684120970449e+01, -5.1836386015622427e-01,
          -8.6931646998039813e-01, -5.1991277842079544e+00,
          8.4953679573887570e-03, 2.1859844444743502e-02,
          -6.4188395475627260e+00, -5.1487364101975541e-01,
          -2.8690262739509503e-01, -2.1859249357854482e+00,
          3.3889401105720971e+01, -7.2721146964395389e-01,
          -1.9547565409116316e-01, 2.3968073182265562e-01,
          4.2062228877829382e-03, 5.7472934522219611e-02,
          -5.4881678460445515e+00, 2.4544848371372280e-01,
          -2.0368170340047329e+00, 1.0252730202517220e+01,
          4.4599868624104495e+01, -5.4791084758480668e+00,
          2.3055104616644511e+00, -2.0727420489181010e+00,
          3.7539652788105900e-02, -2.0983015666636164e-02,
          -5.7106630084329453e+00, -9.6157069470053880e-01,
          1.6645473250558343e-01, -1.4753932624345407e+00,
          2.0833190692013442e+01, 2.8174885116250259e+00,
          1.0362040333579303e+00, 7.6811185690462072e+00,
          1.3092656555118128e-02, -1.0338824681641412e-02,
          1.3394184026476486e-01, 1.9721428520754232e+00,
          -1.0726843785709272e+01, 7.1804364234201357e+00,
          3.9328595021329292e+01, 5.8759868119642766e-01,
          -1.2049791231949807e+00, 6.9361703081554993e-01,
          -5.5112974137045134e-02, -8.1663967046207070e-02,
          -6.0226048237572112e+00, -3.8168503145830410e+00,
          -1.4927382247743808e+00, -9.2341895231284550e+00,
          4.0940332476606628e+01, 7.9597396007883212e+00,
          -1.3782797643228781e+00, -2.1680545414777130e+00,
          -2.9905069046122640e-02, -1.2485362215173762e-01,
          -7.1850469794868115e+00, -5.6500536655564266e+00,
          -3.0097380102443245e+00, -8.8710154593105663e+00,
          9.9923534869764143e+00, -7.4615890120580586e+00,
          -3.3995058352502356e+00, -4.5935707428988790e+00,
          -2.3579797177645179e-02, 2.6141767392794939e-02,
          2.4985062682451114e+00, -1.0948725830957202e+00,
          2.8241944349408903e+00, 5.3607794722722648e+00,
          2.2882500357342160e+01, 1.1023510768581264e+00,
          4.8545378216504318e+00, 3.2605271267037682e-02,
          4.1812870076959392e-02, -6.7300537619266604e-02,
          1.6554026786491651e+00, 8.1975469981692086e+00,
          -2.0922175739453226e+00, 3.1211148929969839e+00,
          1.6786005364959522e+01, 2.3405787446663711e+00,
          1.8790034553491384e+00, 1.5326626736761255e+00,
          4.6525567385099706e-03, -5.0833304608147424e-02,
          -3.1977373156826814e+00, 5.9764669576512863e-01,
          4.1977497725467519e+00, -1.7190407538816086e+00,
          3.2683683125438485e+01, -4.4932198125365508e+00,
          -1.2484390487316159e+00, 7.2483171839498359e+00,
          -5.6861157704333233e-03, 3.7198426984111757e-02,
          6.9169219287155572e+00, 3.6173591678939614e+00,
          2.5318221280112718e-01, 7.1897611535734320e+00,
          1.3904383528874154e+01, -7.5731668448832778e-01,
          -3.1051291612147414e+00, 5.8829926733459654e+00,
          -3.7548187094710667e-02, 1.6689345838784251e-04,
          1.8928938650272480e+00, -8.5950365177138477e-01,
          7.2712460407243711e+00, -2.6302423753190620e+00,
          1.6351582639404633e+01, 4.2086506626921469e+00,
          -2.3854024652861697e-01, 9.2562656003695629e+00,
          5.0844453990013659e-02, 2.6954753638644458e-02,
          1.1561467579700851e+01, -9.3634870174673757e-01,
          -3.1398277301181525e+00, -4.3749252654439870e+00,
          1.6190273446282745e+01, 1.2891654140835884e+00,
          3.5090487786105693e+00, -1.2681629470030242e+00,
          -1.9453399034754992e-03, 4.8903581533695228e-02,
          3.0686774725155672e+00, 1.3967546774578501e+00,
          2.9448321339387769e+00, 3.9407064016442200e-01,
          1.5239543812229929e+01, -8.8936772363718608e-01,
          1.1131321519525392e-01, -8.9051574375936715e-01,
          -1.8731460170225769e-02, -4.1241203387793343e-02,
          1.8642071186856046e+00, -2.1421503706628506e+00,
          2.0799145596062552e+00, -7.2688762081989067e-01,
          2.2508030551929973e+01, -3.9595814525390773e+00,
          3.5806788679401897e+00, 1.5852009985594540e+00,
          1.7747536390107781e-02, 7.6809982070758190e-02,
          1.4995409030401785e+00, 3.8230275217685286e+00,
          -3.9864398663414509e+00, 2.5792605790537464e+00,
          9.0403910555403115e+00, 3.7079714075422521e+00,
          5.1902254086818216e+00, -1.7454578894703867e+00,
          -5.8698366297272750e-02, -6.1775403457628754e-02,
          1.6674530554012268e+00, -1.6327668014575434e+00,
          7.4295277075586199e+00, 9.0598820008738279e-01,
          3.4278380130880373e+00, 5.4254241475706233e-01,
          -6.3726807282792752e-01, -1.3479942584441686e+00,
          4.9170894015880359e-02, 1.8461852484637619e-02,
          9.9072327111112362e+00, 2.4665204147200490e-01,
          -4.8135880036987810e-01, -4.3548792747080928e-01,
          2.0786201282674091e+00, 4.5935243271823953e+00,
          -1.2984058925278336e-01, 5.8550306534691314e+00,
          1.1252974353414985e-02, 6.1130147294249468e-02,
          -1.2222574986605299e+00, 1.5232819027473303e+00,
          2.9343959559635047e-01, -4.3023010702930682e+00 ]
      - [ -2.8057978964221841e-01, -8.8136390151531441e-01,
          1.3471109081114296e+00, -9.8942472530683478e-01,
          -1.5684969186183650e-01, -3.8998016454675793e-01,
          -1.3023794628123342e+00, 1.2787514890278291e+00,
          -1.0250473286523845e+00, -7.7734744129048883e-01,
          2.9534383122091884e-01 ]
