%YAML:1.0
my_nn: !!opencv-ml-ann-mlp
   layer_sizes: !!opencv-matrix
      rows: 1
      cols: 3
      dt: i
      data: [ 24, 10, 1 ]
   activation_function: SIGMOID_SYM
   f_param1: 5.9999999999999998e-01
   f_param2: 1.
   min_val: -9.4999999999999996e-01
   max_val: 9.4999999999999996e-01
   min_val1: -9.7999999999999998e-01
   max_val1: 9.7999999999999998e-01
   training_params:
      train_method: BACKPROP
      dw_scale: 1.0000000000000001e-01
      moment_scale: 1.0000000000000001e-01
      term_criteria: { epsilon:1.0000000116860974e-07, iterations:500 }
   input_scale: [ 1., 0., 1., 0., 1., 0., 1., 0., 1., 0., 1., 0., 1., 0.,
       1., 0., 1., 0., 1., 0., 1., 0., 1., 0., 1., 0., 1., 0., 1., 0.,
       1., 0., 1., 0., 1., 0., 1., 0., 1., 0., 1., 0., 1., 0., 1., 0.,
       1., 0. ]
   output_scale: [ 1.0526315789473684e+00, 0. ]
   inv_output_scale: [ 9.4999999999999996e-01, 0. ]
   weights:
      - [ -1.2521851100561852e+02, 6.7529801552995066e+00,
          -4.4065373944845598e+00, 2.9479680556149752e+00,
          1.3579157668065513e+01, -8.6516629523793909e-02,
          6.5151497229519642e+00, -3.0038120773743375e+00,
          -1.5748279892916335e+00, -3.9180948831477296e+00,
          -3.0921322815722974e+01, -1.6837023686511856e+01,
          -5.8126109565266726e-01, -7.0034715735158963e+00,
          -7.4853829989763847e+00, -1.9149446577460141e+00,
          1.7437965105788409e+00, -2.5901199531020693e+00,
          1.1786797799644560e+01, -3.2137393396251707e-01,
          -3.4490593195345141e+01, -9.1048659280200916e-01,
          -8.4579059404026768e-01, -3.6276276510161081e+00,
          -5.2775113332788317e+00, 2.3439984452846793e-01,
          -3.2611642239022856e+00, 3.9190561621504307e+00,
          -1.2155688698733486e-01, 1.1588428269144349e+00,
          -1.9806801895759737e+01, 1.1250026408254170e+00,
          -2.7629221591328784e-01, -2.6013072356798301e+00,
          -6.5268778442844266e-01, -1.1697999431215012e+00,
          -1.6504366852110361e+00, 2.8625877737468186e-01,
          -2.1638458151237723e+00, 8.1052122671626092e-01,
          -3.2713719506581079e+01, -2.1318351429595674e+00,
          -1.6462164279312791e-01, -4.1663183937688180e+00,
          1.3880001218077724e+00, 8.9608354777829052e-02,
          -1.4973409940906484e+00, 4.1187244608561606e+00,
          7.7019607148072800e-01, 2.9993157872178400e+00,
          -1.2328278179924530e+01, 6.7107849878036010e+00,
          -5.6911235865293386e-01, 1.3232715300937781e+00,
          1.8664026238111195e+00, -3.1082588616672142e+00,
          1.9507585335227389e+00, -2.8296342969990227e+00,
          -6.3534087315712808e+00, 2.5927980682653655e+00,
          -3.7884224996558203e+01, -5.1158560766950671e+00,
          3.5995260607765334e-01, -7.8454633938146285e+00,
          2.8471239555141237e+00, -7.9216970526618569e-01,
          -1.7605881662726757e+00, 3.7305005502845363e+00,
          3.6811754701891584e+00, 5.5988556905470235e+00,
          -3.7609206451184541e+01, 4.0286132883617887e+00,
          -5.3275013847270747e-01, 9.7019335011919994e-01,
          4.5637055843557741e+00, -1.0087718631372502e+00,
          1.1182078942811498e+00, 9.6093027004226883e-01,
          1.3155126048626793e+00, 4.4515454672151984e+00,
          -1.9540304441861601e+01, 8.7783711707429501e-01,
          1.7312954922573107e-01, 8.0819789164550004e-01,
          3.4589126254764229e+00, -2.5792100953331980e+00,
          1.9684657277021518e+00, -5.2599237936836429e-01,
          -3.0317284291013924e+00, 3.7835161552144116e+00,
          -5.2576414550925840e+01, -2.0440040787673124e+00,
          -7.2585196474335756e-01, -7.1707393443126606e-03,
          1.0819534507365391e+01, 9.5738383924956802e-02,
          1.6377648227209101e+00, 2.3745232395949096e+00,
          6.9290245961899444e-01, 2.3799601935823547e+00,
          -2.6967182666359463e+01, 2.6289241089831252e+00,
          -4.7531623667745765e-01, 3.2164284147769009e+00,
          4.6263267022314558e+00, -2.6822327120402596e+00,
          1.6305973062065813e+00, -3.9530552826831804e+00,
          -5.8746599214208195e-01, 4.8003433536258315e+00,
          -5.7002488689265981e+01, 2.6140741813290020e+00,
          -1.0700114667337450e-01, 1.8377358407764972e+00,
          -1.8853456920014708e+00, 1.2078639688579493e+00,
          -1.2273876083598585e+00, 7.6759897667729833e+00,
          1.3241296607285524e+00, 3.3649023467281602e-01,
          -2.3500804619529188e+01, -1.0912444392303057e+01,
          7.2007834499086110e-01, -1.9908273488273458e+00,
          1.8768567805654137e+00, -3.5973641526145808e+00,
          -4.9821573348684902e+00, 1.0895180797722248e+00,
          3.0560285215776024e+00, 3.7145195390126227e+00,
          -3.9949478329060724e+01, 5.0543708463207109e+00,
          -9.4103224492457060e-02, -9.9187360477771982e+00,
          -3.7666449159930724e+00, 1.8348949474712060e+00,
          -3.0805993540342920e+00, -6.2801314382937727e+00,
          6.8483945388817844e+00, -6.9664560116986971e+00,
          -4.6311460852886256e+01, 5.0223649466099651e+00,
          1.4197814886212337e-01, -7.1622095342508878e+00,
          -9.2426353172874753e-01, 1.6068397675699226e+00,
          -2.2391479671083330e+00, 3.7286471426840700e-01,
          5.0593920404159327e+00, -2.6854314648325781e+00,
          -3.9273029049878822e+01, 1.3373429186307226e+00,
          -2.0356381535397303e-01, -2.5080423209525589e+00,
          5.7078392690725561e+00, 2.4780086045168961e-01,
          3.2333486954810385e-02, -2.8937227938542378e+00,
          3.0746073160384890e+00, 1.0357933354600590e+00,
          -5.9555390731202706e+01, 7.7979656694656025e+00,
          1.1677297038909357e-01, -5.1826708944987852e+00,
          -4.8811895507888172e+00, 2.0134625142457101e+00,
          -2.9634596858389814e+00, 1.7783242470961225e+00,
          5.7827870459725021e+00, -4.9886459168137360e+00,
          -3.6667816829524774e+01, 7.0722555849757618e-02,
          -7.8938456661114786e-01, -1.1982443914565659e+00,
          7.5120144969387601e+00, -3.0934013395341388e-02,
          2.4981992986848622e+00, -4.8601105811645775e+00,
          3.6143927942903781e-01, -8.0713345811989290e-01,
          -2.9616016139643158e+01, 5.7800491542903398e-01,
          4.2735635177672737e-01, -4.7269774958561088e+00,
          -9.0293625128818640e+00, -1.8417854821633384e+00,
          -7.0604351957598794e+00, -3.0809469109942591e+00,
          -4.7743794982446680e-01, -2.6149917640353242e+00,
          -4.9058536151904434e+01, 3.3432702375314207e+00,
          -2.8506432820643640e-01, 1.6670361918487397e-01,
          -2.8120295636213402e+00, 7.1788319283469038e-01,
          -1.5289587543360188e+00, 4.1450220200470085e+00,
          -9.8956111074169206e-01, 2.7468382095448489e+00,
          -1.9895137285930378e+01, -1.5817140457587502e+00,
          3.1089908605769062e-01, -5.2902261820644689e+00,
          -1.0098022888038936e+00, -2.2632726534963425e+00,
          -3.8158376426495577e+00, -2.1884633289026310e+00,
          -1.9811727175901421e+00, -1.1743834127089643e+00,
          -5.0751107366953207e+01, 1.2497407529627107e+00,
          1.0234774677593882e-01, -5.0256411451924867e+00,
          -3.1487496440230327e+00, 1.4164020066990934e+00,
          -1.8813434462219518e+00, 1.0267698294646628e+01,
          1.8379017346297655e+00, 4.9828401440607619e+00,
          -3.2476636230196291e+01, 4.8631855288795105e+00,
          -1.4223273206234170e+00, 5.2762458742561762e+00,
          1.1236215826150680e+01, -5.1489777675857615e+00,
          4.5477341285405490e+00, -9.8959367421614495e+00,
          -1.2637513620216854e+00, 2.9236815479289606e+00,
          -4.2638346621309289e+01, 3.0033294955721229e-01,
          -4.3146414684267664e-01, -1.0633774116454384e+00,
          1.3415971387799974e+00, 1.2420295662757104e+00,
          -1.4542014898818463e+00, 4.7448495887423654e+00,
          3.2013851704340679e-01, -1.9002233911320749e+00,
          -1.1568676322133381e+02, 2.8733400345840479e+00,
          -3.2120838901956303e+00, 4.1401647060462565e+00,
          -1.9397730739174527e+01, -2.8803473763016001e+00,
          4.1107496855680594e+00, 2.9925287852179090e+00,
          2.4807011470264792e-01, 3.2827961347245935e+00 ]
      - [ -5.5545083307265020e-01, 6.5984812781057665e+00,
          -1.8719176158145340e-01, -6.8996625734304251e+00,
          7.3376251207802925e+00, 4.7224143680561479e+00,
          9.1620715774637205e+00, -4.8037563197591746e+00,
          5.8121369251381614e+00, -8.1604534014558219e+00,
          8.1764385832802122e-01 ]
