%YAML:1.0
my_nn: !!opencv-ml-ann-mlp
   layer_sizes: !!opencv-matrix
      rows: 1
      cols: 3
      dt: i
      data: [ 24, 50, 1 ]
   activation_function: SIGMOID_SYM
   f_param1: 5.9999999999999998e-01
   f_param2: 1.
   min_val: -9.4999999999999996e-01
   max_val: 9.4999999999999996e-01
   min_val1: -9.7999999999999998e-01
   max_val1: 9.7999999999999998e-01
   training_params:
      train_method: BACKPROP
      dw_scale: 1.0000000000000001e-01
      moment_scale: 1.0000000000000001e-01
      term_criteria: { epsilon:1.0000000116860974e-07, iterations:500 }
   input_scale: [ 1., 0., 1., 0., 1., 0., 1., 0., 1., 0., 1., 0., 1., 0.,
       1., 0., 1., 0., 1., 0., 1., 0., 1., 0., 1., 0., 1., 0., 1., 0.,
       1., 0., 1., 0., 1., 0., 1., 0., 1., 0., 1., 0., 1., 0., 1., 0.,
       1., 0. ]
   output_scale: [ 1.0526315789473684e+00, 0. ]
   inv_output_scale: [ 9.4999999999999996e-01, 0. ]
   weights:
      - [ -3.1132404692307713e+01, 1.4979526158275904e+00,
          1.9437039236050331e+00, 1.7156580358377891e+00,
          -2.3271714126195189e+00, -1.1715872073130900e+00,
          2.0944430422172755e+00, 2.1735128543005962e+00,
          -1.9143478051535636e+00, -5.8343154178717009e+00,
          -1.7613233592917104e+00, 1.6262988516105235e+00,
          1.6316312417990020e+00, 2.0817800076485118e+00,
          -2.4665266538677177e+00, -4.8907630603882474e-01,
          2.5651336251714332e+00, -2.3360394542907374e+00,
          2.2489135486907652e+00, 2.4961812611870302e+00,
          -1.2404693212789484e+00, 1.8259119013885898e+00,
          -2.0433505573192279e+00, -2.6156033756183508e+00,
          1.9896472828134841e+00, -1.6457738665290633e+00,
          3.6473782986153367e+00, -2.6630994286143630e+00,
          7.4729281191223118e-01, 1.7703141965956908e+00,
          1.8929340371140884e+00, 6.6612838212169945e-01,
          2.4165827687787638e+00, 2.0360854444434433e+00,
          1.0758572410692699e+00, -9.0026339337893291e-01,
          -3.9841752300516720e+00, -1.1764432087428078e+00,
          -2.4587057683056868e+00, -2.2288171564484744e+00,
          2.0152927476611695e+00, -2.3983512515323362e+00,
          -3.8684060709797180e-01, -2.0360981275266612e+00,
          -2.9113577003596145e+00, -1.9292204220401765e+00,
          -2.5140440207107480e+00, 6.3116796760615912e-01,
          -1.4767277979222870e-01, -2.1858195092086965e+00,
          -1.6320842163708623e+01, 7.0270497945010169e-01,
          1.1573816647094277e+00, 1.2775379393686945e+00,
          -1.6854545929875300e+00, -5.6477855971141477e-01,
          7.6552188705165258e-01, 1.4276247729778329e+00,
          -1.0202455781203548e+00, 1.8721051894753785e+01,
          -8.2005413335830479e-01, 6.7984247520435326e-01,
          7.0977632265429980e-01, 1.3810884334589288e+00,
          -1.6915754345533742e+00, -3.8907376316690323e-01,
          2.4663006670684977e+00, -2.2152697327369753e+00,
          1.3863478946665735e+00, 1.3394173201579054e+00,
          -5.1241816473397428e-01, 1.0209351487298162e+00,
          -2.5440748151914261e+00, -1.8281743269103594e+00,
          9.6184081816285383e-01, -7.5203546359898965e-01,
          9.4792247621367820e-01, -2.0187383598779807e+00,
          5.1554854143390982e-01, 9.2931282471609211e-01,
          1.1911297330436610e+00, 5.4032746539577969e-01,
          9.8459991396561519e-01, 1.4943053661073886e+00,
          5.3810876750215997e-01, -1.1833483376736120e+00,
          -7.8442752898172730e+00, -5.3074261466484873e-01,
          -6.4515921303715296e-01, -3.9860144964055162e+00,
          1.1756862674405746e+00, -1.3109043826827962e+00,
          -6.9560124871903461e-01, -1.5447065995324272e+00,
          -1.2208406372819873e+00, -9.2359134506813845e-01,
          -1.9410102001714109e+00, -5.0895590742397423e-01,
          5.4762220258126471e-01, -1.0536467737173376e+00,
          -1.7672422235216608e+01, 1.0537521711973989e+00,
          1.0136266154408962e+00, -1.9362216886743608e+00,
          -1.0192956062135259e+00, -1.1714779342328556e+00,
          -1.7027422620530748e+00, 1.1293349450051346e+00,
          1.8595533214960618e+00, -8.0755370269473072e+00,
          -1.0842778979182723e+00, 9.0005885231668858e-01,
          1.1148825552907160e+00, 7.9076044955281766e-01,
          -1.0544084764961350e+00, -1.4370973076475688e+00,
          8.7718673998482177e-01, -7.9988302325834026e-01,
          -2.6010508316794292e+00, 1.1374274031351406e+00,
          -1.0953708576367769e+00, 1.1734072576370063e+00,
          1.8255986885360848e-01, -8.5024310773164424e-01,
          1.1649094252763055e+00, -8.9657726123858128e-01,
          2.1802643069386756e+00, -1.3057384288760592e+00,
          1.2972281801068017e+00, 9.3027203734381636e-01,
          1.0068089601468351e+00, 1.3424265517772207e+00,
          -8.1003539956680548e-01, -2.9801312720806679e+00,
          1.2899329438322911e+00, -1.0777765932459478e+00,
          -2.7020099171325076e+00, -1.1618564689355408e+00,
          2.3556889060853052e+00, 3.1194729723780862e-01,
          1.1717089890086285e+00, -1.2443885902498906e+00,
          -1.3877003153096934e+00, -7.0334880573529057e-01,
          -1.3037190380149986e+00, -1.0518770235724204e+00,
          -1.0312544877654921e+00, -1.4665753411177651e+00,
          1.3850555448351027e+00, -1.1731830395266771e+00,
          -8.5891193236547334e+00, 7.0517138903506338e-01,
          2.9965221922173779e-01, -1.9533025229524903e+00,
          -1.0265728167259544e-01, -8.7019785315015730e-01,
          -2.0102387023755508e+00, 4.7383248542210321e-01,
          1.9586392695482389e+00, -5.7330405352006402e+00,
          -4.3154846738724761e-01, 6.8247136850331003e-01,
          6.1879208106014194e-01, 1.7164231827473730e-01,
          -2.6731428918899880e-01, -1.1008076427413385e+00,
          -2.4696142754045683e-01, 1.3640417324713242e-01,
          -2.6071515623476809e+00, 4.6791773327937802e-01,
          -7.2406761979855461e-01, 5.7148853982550651e-01,
          8.0130991045819622e-01, 3.5942178602137172e-02,
          4.3872735857554007e-01, -5.2882710861076077e-01,
          5.0223134327192698e-01, -2.0095229357908603e-01,
          1.1667510898198750e+00, 4.6181847133783499e-01,
          3.9939964660292887e-01, 1.1924386897552646e+00,
          -1.4912239794347313e+00, -2.8645510614854932e+00,
          8.6240397749695996e-01, -8.1668418742087701e-01,
          -1.7079721727939325e+00, -9.2370819758636113e-01,
          2.5680853585555363e+00, 9.7303871928180830e-01,
          4.8370229474171594e-01, -3.2933916999373242e-01,
          -1.1099973315665908e+00, -1.3866619653712944e-01,
          -1.8339720608071750e-01, -6.1275760190507655e-01,
          -1.5420206101629513e-01, -1.6244398605940973e+00,
          1.3908596813056155e+00, -5.2179537983153634e-01,
          -8.6747695447251871e+00, 4.2425669060146259e-01,
          4.4075608146050355e-01, -3.1040745006732662e-01,
          -4.6369009730390937e-01, -3.8118608944083116e-01,
          -1.9086860100409064e-01, 5.8767991373881678e-01,
          3.5752332835186929e-01, -4.1072608604366492e+00,
          -5.0717211198174594e-01, 4.2765777173558928e-01,
          4.5786749243120323e-01, 4.2407884102981447e-01,
          -4.7696655463908705e-01, -4.2153909111925675e-01,
          3.3644829763475748e-01, -3.5206391124527608e-01,
          -4.3702018601516751e-01, 5.4658239785049612e-01,
          -5.2021011222813907e-01, 5.4964839987387482e-01,
          -5.8616196375703240e-03, -4.2245392746427018e-01,
          5.4885411753041724e-01, -4.6411243091450677e-01,
          8.0899733795640727e-01, -5.9134193547586178e-01,
          2.3957794671005803e-01, 5.4336496832295500e-01,
          4.4296325418047078e-01, 2.2280851641485500e-01,
          -2.5985675646118658e+00, -4.7749301834697971e-01,
          4.6089781983253697e-01, 7.7347408883217095e-01,
          -9.2613041889220205e-01, -3.8244679712353646e-01,
          3.3624218501757225e-01, -8.3202170643989923e-02,
          5.0007713753240690e-01, -5.1044383254598247e-01,
          1.3963297784102163e-01, -3.4207216044693745e-01,
          -5.8516177762056520e-01, -5.9153305630612874e-01,
          -4.8566269472207685e-01, -8.0853477682919353e-02,
          -3.0094471596968219e-02, -5.2674187982008214e-01,
          -6.8443610440734464e+00, 9.7897485843200915e-01,
          8.5646810306840793e-02, -2.4637552711655424e+00,
          4.1005013434676829e-01, -1.1047938424593300e+00,
          -2.7459325105367305e+00, 1.1467289804574175e-01,
          2.5706609425023021e+00, -6.6750122032809367e+00,
          -4.4801588835360912e-01, 9.5043892227519966e-01,
          7.4529275846025111e-01, -2.0564975267997704e-01,
          2.7618645059003094e-01, -1.4593634008293497e+00,
          -9.1645368973256858e-01, 8.5455615717346389e-01,
          -3.5070732496420609e+00, 6.7010460966937649e-02,
          -1.0589829136359996e+00, 6.1771330942074176e-01,
          1.6932473889309065e+00, 7.4714280206393091e-01,
          3.9040070136395094e-01, -6.3728196596614739e-01,
          -1.7790445441465522e-01, 6.1879664310261839e-01,
          1.5132721742428377e+00, 3.2082854747609563e-01,
          3.2214243997549907e-01, 1.6741598034144234e+00,
          -3.6127851484196705e+00, -3.5761722732582317e+00,
          1.1449307564333744e+00, -1.5209589258776881e+00,
          -6.9049282091675857e-01, -1.1920703677040247e+00,
          3.4699336556408911e+00, 2.0509846337111513e+00,
          4.6992938322250621e-01, 1.2313558527757391e-01,
          -1.7647296050524364e+00, 2.6149576055431140e-01,
          6.1230112129290559e-01, -5.2128515707096357e-01,
          7.1429204465261464e-01, -2.8218564172182976e+00,
          2.5031730900506752e+00, -2.8308194622874855e-01,
          -7.3802225932029426e+00, 5.4250512721579747e-01,
          4.0390094393185200e-01, -1.5964946437977381e-01,
          -4.2439678442993178e-01, -2.1697358025021338e-01,
          -1.7696529279761417e-01, 4.1165131573698233e-01,
          1.1244619044511293e-01, -1.6291223022498846e+00,
          -3.6628870288560517e-01, 5.1155039464390328e-01,
          3.4399542339389239e-01, 4.0428652887169769e-01,
          -3.9000342887578121e-01, -1.2253661288648295e-01,
          3.9756045877577223e-01, -3.0163700934708271e-01,
          -4.7373733256872325e-01, 4.6920644587095067e-01,
          -3.7327500413108472e-01, 4.5365886876199618e-01,
          -2.2687877847235316e-01, -2.9604938264585545e-01,
          4.3482203724928115e-01, -4.2012073544842110e-01,
          4.0335714908872877e-01, -3.0904470654537813e-01,
          1.3163476392210395e-02, 4.2934479722580082e-01,
          5.0240787505090589e-01, -1.1570036061769623e-01,
          -4.6559667826276296e+00, -4.9268389624532832e-01,
          2.7445843393194624e-01, 8.2891374234493198e-01,
          -3.7137137877281357e-01, -2.7751043902009276e-01,
          2.2271952269356673e-01, -3.9610797153632366e-01,
          4.9336476843102600e-01, -4.3081494118527303e-01,
          3.2534430235487605e-01, -3.5866335906920210e-01,
          -2.4484478700091405e-01, -5.2845366066286825e-01,
          -3.9968537412339172e-01, 3.0386305784336520e-01,
          -2.0124094438939003e-01, -4.3289441356934394e-01,
          -4.5216757751309160e+00, 2.7799413124634183e-02,
          3.0076421253942287e-01, -3.3618297020209625e-01,
          -5.8003382862849018e-01, 3.4108063199888150e-01,
          2.2113366605455133e-02, 4.7177624552159525e-01,
          1.2671934654195185e-01, -6.1664390665763253e+00,
          -2.4304827681724731e-01, 8.4542998017226270e-02,
          1.0150004939248079e-01, 4.5885911345421698e-01,
          -4.2898435742529017e-01, 3.5953596135806920e-01,
          5.5839320287403149e-01, -4.8520088824839597e-01,
          -4.7948329446044918e-01, 4.7079608532249739e-01,
          -6.6463573149089891e-02, 2.9643847697338482e-01,
          -4.7729621980939169e-01, -6.1052195175741131e-01,
          3.5779089521388058e-01, -1.6419523231093275e-01,
          1.4350190471203637e+00, -7.7041575337977231e-01,
          -6.9920692041198984e-01, 3.0011975628522036e-01,
          3.0842536262270781e-01, -8.1935021740143343e-01,
          3.8987800229968066e+00, -7.8387373789761527e-01,
          -2.9523100925880408e-01, 1.8940792923934973e+00,
          -3.6490015728362044e+00, 2.4366441972206040e-01,
          3.4429069271822293e-01, -6.7585721185227277e-01,
          3.4395390179480467e-01, -4.3211865943761180e-01,
          1.2564367806213095e+00, -4.3829923464850545e-01,
          -7.3577386842508707e-01, -2.5276758714624231e-01,
          -5.8449338260907424e-01, 9.6377396991358699e-01,
          -1.0809945984898086e+00, -3.4993256389009791e-01,
          -2.7260050411657017e+00, 5.8283656441765741e-01,
          -9.0403887436183111e-04, -2.3353795834131481e+00,
          3.6303942145326967e-01, -4.6146348027950645e-01,
          -2.4468924162103316e+00, -1.2223467967986053e-01,
          2.3011599379799099e+00, -5.5882933254544982e+00,
          -2.5889398133197583e-01, 5.1851343617155432e-01,
          3.2729040062903442e-01, -1.5691577711035040e-01,
          2.4288177150280976e-01, -8.3233921573727654e-01,
          -7.5810222197206334e-01, 6.1788673052855703e-01,
          -3.3337438658339629e+00, -8.0852713517309632e-02,
          -5.4784089771658906e-01, 3.2033397921348622e-01,
          1.3700092885900836e+00, 7.3357636571992968e-01,
          1.6411095391003760e-01, -3.5860028582695030e-01,
          -7.9393318605013585e-02, 5.7894366644942830e-01,
          6.8366239426684539e-01, 1.5402530438723078e-01,
          1.4522027427027154e-01, 7.7556224163109555e-01,
          -2.8642488863967741e+00, -3.4963092553940860e+00,
          5.1100062433714077e-01, -6.2538240749516263e-02,
          -1.7315066190828801e+00, -4.5783520105318282e-01,
          3.2738591559665080e+00, 1.4327612759695165e+00,
          1.8356070856512474e-01, 1.8981772838507691e-01,
          -6.7555367132158339e-01, 2.3598315030070699e-01,
          5.8948721640636625e-01, -1.8891650208106375e-01,
          5.9945900269410557e-01, -1.7099169458651493e+00,
          1.4242923823697309e+00, -1.3310545771282667e-01,
          -2.9901031159293052e+00, 1.5737396941213749e-01,
          1.6722925564295016e-01, 1.1272651210517584e-01,
          -3.8615160548160737e-01, 3.5928692986251808e-02,
          4.2663183886059053e-02, 1.6778135915142151e-01,
          -1.3325612118229818e-01, -2.5425519618102657e+00,
          -1.4634500922558480e-01, 7.0985183981146380e-02,
          2.0294535416097323e-01, 1.9402752413434596e-01,
          -2.7104135548548419e-01, 6.3061749671848147e-02,
          2.4036871396188855e-01, -2.2534825078453197e-01,
          -9.7009109637455293e-02, 2.5133746715406829e-01,
          8.9772174873688215e-04, 1.3438370344752026e-01,
          -1.7718293971727933e-01, -2.1638545232713613e-01,
          1.2159877699946688e-01, -1.4033058130246540e-01,
          -3.0392636577236027e-02, -1.5921759254076792e-01,
          -1.4684497318950443e-01, 2.4417098180681243e-01,
          2.3538476441913331e-01, -2.5295502200587966e-01,
          1.9718881869478539e+00, -2.2708763194521292e-01,
          -3.9072703500338042e-02, 7.1189720800636602e-01,
          -1.0829052351903492e+00, 1.5587616452473624e-01,
          1.6924419756017519e-02, -2.1848375226099914e-01,
          2.5394217526377538e-01, -3.4146209768918395e-01,
          5.0527643380296416e-01, -2.8552068540532527e-01,
          -2.1661731006844925e-01, -1.6741065941657299e-01,
          -2.6149342877904197e-01, 4.5764203469015519e-01,
          -5.4890958758473829e-01, -2.2506094523243825e-01,
          -3.6411217060184731e+00, 1.8883219302215037e-02,
          6.0039741021939597e-01, 2.9207816310792518e+00,
          -8.1589442839361737e-01, 9.3005551119338015e-01,
          3.3705473080915795e+00, 4.9868027577714374e-01,
          -3.0228877418907492e+00, 1.6000239071886047e+00,
          -2.5187852086658358e-01, -7.8899484178541646e-02,
          9.6158065418496766e-02, 8.3451977305307812e-01,
          -7.9779567099779636e-01, 1.5171246978954598e+00,
          1.2327339467564435e+00, -1.0947971709171644e+00,
          4.2458159806460927e+00, 5.1170905727734228e-01,
          2.1276298401898330e-01, 1.5083745875185944e-01,
          -1.8035359261285941e+00, -1.0970143135696182e+00,
          4.2980734977059021e-01, -1.5849866705575380e-02,
          8.6411902097066084e-01, -1.0150619197808237e+00,
          -1.7047198551290488e+00, 4.4892324047963261e-01,
          4.4537734123211259e-01, -1.8786521260928617e+00,
          -1.8299994005517857e+00, 4.3635167433251052e+00,
          -8.7281978823458028e-01, 3.3025979606783649e+00,
          -5.1817391558064441e-01, 8.8193784881140569e-01,
          -3.9861048085248991e+00, -1.9867128082704175e+00,
          3.5295061972421538e-01, -6.3982546711330213e-01,
          2.5296696417515969e+00, -8.3624288969157012e-01,
          -1.0281650593868625e+00, -3.1750411340855933e-01,
          -9.4970324613506252e-01, 2.9370030136294965e+00,
          -2.8602325616916904e+00, -3.5783569107343710e-01,
          -1.1646005279369263e+00, 5.3007133432836639e-01,
          -1.0964454993885273e-01, 6.9920443974789526e-01,
          5.8383894742717976e-02, -7.1580403440370899e-01,
          2.0529841455132747e-01, -1.5645632834464060e-01,
          -4.7089846578889460e-01, 4.4595048499307772e+00,
          -1.5993764272329614e-01, 4.6225721711986534e-01,
          3.3373787897432755e-01, -4.0701110506522795e-02,
          3.0877386523799510e-01, -7.0706196502278995e-01,
          -1.0458897415180866e+00, 5.8186804896113453e-01,
          7.9472901911605587e-01, 6.2386439092668947e-03,
          -5.2384796762367114e-01, 1.9734112247608937e-01,
          5.0665989025150093e-01, 4.8704317757030524e-01,
          1.4625557158530553e-01, -4.3547872046192532e-01,
          -2.5934626439374320e+00, 9.9074391389975747e-01,
          1.1298695912894385e+00, 5.1565983527790162e-02,
          1.5965720753242849e-01, 1.2268387021548885e+00,
          6.4087816436787026e-01, 1.3705409552221162e+00,
          7.2582175243330582e-01, -2.4051130388282109e+00,
          7.8494169525595456e+00, -6.7439674428921537e-01,
          -7.0092726628429292e-01, 9.8310874306156537e-01,
          1.6522589805153270e-01, 1.8086867515453586e-01,
          -1.7727762614169271e+00, -8.7996151189144389e-02,
          9.4470298032558164e-01, -2.5063883437109841e-01,
          4.2731946893436529e-01, -1.2645073752801825e+00,
          1.5185383889629549e+00, -1.4218187852083083e-01,
          -2.7644464310714134e-01, 2.9246935659299073e-01,
          -1.1652262710335141e-01, 1.0735889804834334e-01,
          2.7861253194092672e-01, -2.8620095449561034e-01,
          -2.0249849108226700e-01, -2.1101624456516754e-01,
          1.1865817337091583e-02, 1.2931342260471708e+00,
          -1.8248511209567216e-02, 2.4038018981756282e-01,
          1.9706784225498900e-01, -2.4518047446692262e-01,
          2.9923697926854564e-01, -3.5175903164379102e-01,
          -6.6807211443378645e-01, 5.6223934833514466e-01,
          -6.1403613820126032e-02, -3.4050780985247060e-02,
          -2.8742109919934333e-01, 9.8574176909279970e-02,
          4.7367543381265409e-01, 4.6574625034539946e-01,
          -9.4249664274774797e-02, -1.8149256325604382e-01,
          -9.9618275401043210e-01, 7.4668709894695373e-01,
          4.3250386030856663e-01, -1.2320087730550688e-01,
          8.3849255376896737e-03, 4.6480832588721943e-01,
          -1.2065906126396186e+00, 2.5532757131025668e-01,
          3.6103505113493312e-01, -5.2709250895755455e-01,
          9.2617580622594120e-01, -2.9492134377729773e-01,
          -7.8478032740022848e-03, 4.6905915542254434e-01,
          -1.1707473515694098e-02, 2.3591039035645861e-01,
          -5.3675258836007822e-01, 2.8936699614538253e-01,
          8.2206866856843541e-01, 4.1686832004016842e-02,
          5.1551751911705179e-01, -7.1543348345743052e-01,
          6.8348812921700486e-01, -1.3266284362668017e-02,
          -6.8876785460459411e-01, 1.2178742856725107e-02,
          -2.8565791542842833e-02, 4.4475712244512622e-01,
          -2.3627189386549668e-01, -1.1817127126960432e-01,
          3.2267618122118163e-01, -5.0951105043405755e-02,
          -3.9009818376777727e-01, -3.6105247931038207e+00,
          -7.8502427365917102e-02, 5.4553355517299687e-02,
          6.0425062963421518e-02, -1.2757404987298037e-02,
          1.5282706896258939e-02, 6.8976190300686122e-02,
          -1.5318181341519008e-01, -2.4480839842305909e-04,
          3.4526364792358838e-01, 2.2158934081458798e-01,
          -2.2503655432769477e-02, 5.2320120412321244e-02,
          -1.3995093442860981e-01, -8.6005877039315067e-03,
          -3.5992667887615869e-02, -1.1218026931196813e-02,
          -4.3220352642399495e-01, 2.6273271826797856e-01,
          1.8666188808285702e-01, -4.2503892149243980e-02,
          1.0645808878635057e-01, 2.4170629940988592e-01,
          9.7881151868327816e+00, 5.9302503479052315e-01,
          6.6657741624277039e-02, -1.1662905663719554e+00,
          -2.0887900710360738e-01, -1.8253524461829024e-01,
          -3.2580516076545041e-01, 1.6890621173698123e-02,
          4.4422148106052058e-02, -2.2718090917747701e-02,
          -2.9727269248042648e-01, -9.1707123710208727e-02,
          2.1240476284841142e-01, -9.0712256915850234e-02,
          -1.3432163420967752e-01, -1.9394662918243077e-01,
          1.6024202075981422e-01, -4.4081214368789555e-02,
          -9.6374278688363513e-01, 2.1500844143234304e-01,
          6.9899016618257329e-02, 1.0660229819957134e+00,
          -1.1009315226892376e-01, -7.8133686249925977e-02,
          9.2947550633942977e-01, 2.4731159875234800e-02,
          -1.0651071038411879e+00, 4.5025658042962959e+00,
          -8.4849477205761900e-02, 2.0288868826698506e-01,
          1.6781755648363145e-01, 2.8692911324455273e-02,
          -4.0613570245955598e-02, 1.9986712475712983e-02,
          -1.4665356299322818e-01, 3.3528008820267477e-02,
          1.5284923097481056e+00, 5.7349968994892579e-02,
          -1.7747383785170298e-01, 7.8276012440480935e-02,
          -3.1321496173332036e-01, 6.7676080834432354e-03,
          1.6324608985671468e-01, -1.6150146444326241e-01,
          -1.0212829398279886e+00, 3.0049080397537598e-01,
          4.8156835365173324e-02, 5.3903826048398530e-02,
          8.9517000656322399e-02, 2.0791356624459287e-01,
          1.1070309293966623e+00, 2.0075870911558829e+00,
          4.4410792978711047e-02, -3.2133733438688411e-01,
          2.5927391911518698e+00, -1.1670748705605631e-01,
          -1.4551188182614625e+00, -2.3761131263955412e-01,
          5.8764059220668449e-02, -7.8726546979829365e-02,
          -1.4350383700147820e-01, -2.3897894741532902e-01,
          1.8080585766160925e-01, -5.8016193819685029e-02,
          -3.9977225396766319e-02, -2.0016090576136497e-01,
          1.9170787243873713e-01, -9.5826163649178495e-02,
          -1.7752274338925691e+00, 1.1238307189647957e-01,
          2.4386316514336398e-01, 1.0615183659859062e+00,
          -1.8349806535109231e-01, 1.1317160123739407e-01,
          9.3901105998171019e-01, 1.7040502413180439e-01,
          -1.0078155433796394e+00, 3.2883181584418506e+00,
          -2.2747885445454288e-01, 1.3345849711865193e-01,
          1.2106813902424220e-01, 1.3027936633605353e-01,
          -1.7660151631393656e-01, 2.5245296618751151e-01,
          6.7109776139456873e-02, -1.6243640943790311e-01,
          1.5295256232732064e+00, 2.8630214373417290e-01,
          -1.2853194402215837e-01, 1.8600872827871925e-01,
          -2.7339010121548368e-01, -2.5650282688337744e-01,
          1.9495199796609361e-01, -1.1684789268564981e-01,
          -6.5151088930880796e-01, 7.1739709158181231e-02,
          -2.4838202736767145e-01, 1.8994616021521479e-01,
          1.8770421863826506e-01, -1.4167458814820380e-01,
          -6.7750114016570140e-01, 1.6817329260365665e+00,
          5.5725544452215586e-02, 5.1639857527263155e-01,
          4.0224922561997696e+00, 3.0349253363191837e-02,
          -1.4482031541882479e+00, -1.4456700348122309e-01,
          2.0906878389820038e-01, -2.6010601002715095e-01,
          3.5027609654169811e-01, -1.9760063667952579e-01,
          -3.3655327563294930e-02, -6.5864287895992357e-02,
          -1.5859212567860112e-01, 4.2480557787884055e-01,
          -3.5574682982396838e-01, -1.7591582833582900e-01,
          -2.3539782649510195e+00, 1.3556080263354914e-01,
          2.6293638133943359e-01, 8.0310807401305540e-01,
          -3.0121761334685909e-01, 7.9612601260920429e-02,
          7.4034066319082370e-01, 1.8932038373621421e-01,
          -7.3089267738033692e-01, 4.3203670368628977e+00,
          -2.8661490699609288e-01, 2.4817883136364596e-01,
          2.4610249192617972e-01, 3.2377612533400763e-01,
          -1.7818074982949422e-01, 2.2973519136240089e-01,
          3.5513393122889914e-01, -3.7887809425257590e-01,
          1.1330030985358637e+00, 2.1650883119778480e-01,
          -6.8432272205873002e-02, 1.2366501911514072e-01,
          -5.0997355085348128e-01, -2.7557349047073543e-01,
          2.8189903529385335e-01, -1.0863104874820181e-01,
          4.7223266578934116e-02, -1.7559611269673397e-01,
          -3.8882462213216051e-01, 3.3516546168452599e-01,
          1.7096502233052480e-01, -3.4967584455279077e-01,
          1.3253333894895849e+00, 1.2845920680058656e+00,
          -1.4265337414047352e-01, 5.4133292163008540e-01,
          -2.2548910024839861e-02, 1.0943827330411032e-01,
          -1.0363325143614928e+00, -6.7591516404500440e-01,
          2.7768390523483250e-01, -2.1476175578775661e-01,
          4.6138625049592130e-01, -3.2505481517496554e-01,
          -1.2663664812745626e-01, -1.7932935391614746e-01,
          -2.8812666777162271e-01, 2.6243122152287701e-01,
          -4.3401787644746131e-01, -2.8696064549978662e-01,
          -2.9501401338810358e+00, -8.0512118340812525e-02,
          5.1490978492736794e-01, 3.2650112137245078e+00,
          -8.4373584814897862e-01, 7.1608932193061614e-01,
          3.5916190877502396e+00, 5.3060470786257585e-01,
          -3.3665018556046493e+00, 1.5307948821129629e+00,
          -3.2801399134179743e-01, -1.5227249275590357e-01,
          1.0023216707023595e-01, 7.5788973646649871e-01,
          -7.4794268181359835e-01, 1.2624086522973392e+00,
          9.3311690507243161e-01, -9.1661043824246935e-01,
          4.5696151947161860e+00, 6.0852194374223012e-01,
          2.2600090627867772e-01, 2.4311176863884421e-01,
          -1.7961058913876484e+00, -9.9806086093733437e-01,
          3.5578020895521512e-01, -1.1378023370101827e-01,
          -1.8595216645228546e-01, -6.7181016285811002e-01,
          -1.3385654830558482e+00, 4.0048697165118652e-01,
          3.3826122218122406e-01, -1.4440819316250548e+00,
          -1.4568318391255519e+00, 4.8144132393348817e+00,
          -5.8325483729865879e-01, 2.1836773626508426e+00,
          3.3935508362488327e+00, 6.4996841509137071e-01,
          -4.4472730022895686e+00, -1.7384919596190735e+00,
          3.3226490769000983e-01, -6.8427744547949365e-01,
          1.8861696588601533e+00, -7.8701611778445768e-01,
          -9.5525007507185455e-01, -2.0649997640457737e-01,
          -9.1425603216660556e-01, 2.7415813749044990e+00,
          -2.4473106210540534e+00, -4.3536733694348279e-01,
          -3.1294087439680327e+00, 1.3872433472508577e-01,
          2.7146321598558659e-01, -1.1460954231125775e+00,
          -1.6420763976838360e-01, -1.4070623741563230e-02,
          -1.0202371047805836e+00, 2.5972099743593352e-01,
          1.0943223381875005e+00, -1.8117185600297966e-01,
          -1.3923296227174170e-01, 7.8070227826858477e-02,
          2.5890572057684064e-01, 2.0391932216007871e-01,
          -1.4568038677763320e-01, 1.9223419319711567e-03,
          4.4830509866005286e-02, -6.8269016168149815e-02,
          -1.6243327994997654e+00, 2.5069647438191339e-01,
          -1.5258968440458123e-01, 1.9001431359875992e-01,
          2.1838424662508174e-01, -1.6915180757079420e-01,
          1.9361109130661575e-01, -1.4948673545737820e-01,
          6.0213997108803852e-01, -1.9508654984435428e-01,
          -1.8154789466862581e-01, 2.6155667313322173e-01,
          1.4909273960179284e-01, -2.8365618674169585e-01,
          -2.7391547057668808e-01, -1.8394356288368967e+00,
          -1.2364431618369365e-02, 1.2678192845870366e+00,
          -9.2919615890983009e-01, 3.8821926786268598e-02,
          1.4975139035203484e+00, 2.0345051664653249e-01,
          1.7242133912161567e-01, -2.7459804999975229e-01,
          6.8646655570467696e-01, -2.3575848162553484e-01,
          -2.4998948757848688e-01, -1.1573073646773845e-01,
          -2.2597309858168008e-01, 5.4890052819075427e-02,
          -1.9978911077181966e-01, -1.4792862393542855e-01,
          -3.9358764146527472e+00, -1.3372410671667112e-01,
          6.3750621715776279e-01, 1.3268269458152311e+00,
          -8.3971311441052576e-01, 6.8602662048944407e-01,
          1.7644277830960737e+00, 5.3086888447331992e-01,
          -1.5271355424659678e+00, -3.3039531608402668e+00,
          -2.1832684377192907e-01, -2.2719205801441678e-01,
          4.5452393148748757e-02, 6.4632891488976307e-01,
          -7.6755762642936343e-01, 1.1010579699776737e+00,
          1.1338435280045882e+00, -1.0546536769138084e+00,
          1.8492722122218210e+00, 6.0599294223321509e-01,
          3.1431990399740151e-01, 1.7967244610261582e-01,
          -1.2638611135570867e+00, -1.0556283675207443e+00,
          3.4841747033086862e-01, -5.7277941122202691e-02,
          1.4551534905676866e+00, -1.0085478674164552e+00,
          -1.4677453838214329e+00, 4.8052195847179863e-01,
          4.2140200059040606e-01, -1.7304443812303822e+00,
          1.3662601624993944e+00, 1.7076944653740638e+00,
          -7.0672336869251073e-01, 3.0882987353196376e+00,
          -1.4289438683817954e+00, 6.5401269519171590e-01,
          -1.8814672064512437e+00, -1.4170153934547887e+00,
          3.6709336857294411e-01, -6.4898886197809114e-01,
          2.3020264815470024e+00, -7.7123353996472510e-01,
          -1.1460889145183466e+00, -2.6581963678571779e-01,
          -9.0121259179939017e-01, 2.5470062238895466e+00,
          -2.4603836271357271e+00, -4.6080879908643729e-01,
          -3.5603488637223597e+00, 3.4196667744730669e-01,
          1.1270399602218457e-01, -1.0391318261413209e+00,
          3.8339281373653583e-02, -1.7378506679187999e-01,
          -1.1654502846801078e+00, 1.2224090324755113e-01,
          1.1827616011060920e+00, -1.2296736217009998e+00,
          -2.0090095440479053e-01, 3.9244298487799423e-01,
          3.3371083699008197e-01, 1.6031233879990406e-01,
          -1.7545746887252193e-02, -2.5109545018726198e-01,
          -1.4900102575602464e-01, 7.2266972428608606e-02,
          -1.5988706618389732e+00, 9.6988858685337388e-03,
          -3.7925560798229568e-01, 2.1861015606228024e-01,
          4.5527590463345202e-01, 1.6988872501210714e-01,
          2.7633183708826037e-01, -2.9141819326297141e-01,
          3.1905762644946108e-02, 7.8727317470741145e-02,
          1.9084600635543300e-01, 1.7062619419953279e-01,
          2.6564881635353466e-01, 1.4083066769093061e-01,
          -5.3394644806018849e+00, -1.8927539661639832e+00,
          2.1170080541359523e-01, 5.7847016140737861e-01,
          -6.6225286964621355e-01, -1.3611998589159452e-01,
          1.7088765199757558e+00, 5.5693206512439253e-01,
          2.2643049160013931e-01, -4.3574829896028185e-02,
          6.3071639658196135e-02, -7.9890411996697899e-02,
          1.3192901055648326e-01, -1.9639173685779085e-01,
          4.7682661067937858e-02, -5.8077448963549938e-01,
          4.3876036180876216e-01, -2.4796987792950267e-01,
          -4.8124116435046451e+00, 8.4464891151640220e-01,
          1.3444060030061400e-02, -8.4615406962271522e-01,
          1.9998263088144180e-01, -7.5746603850883565e-01,
          -1.4370117381409580e+00, 9.6436486417177988e-02,
          1.1612261539176090e+00, 3.4821280496103348e+00,
          -3.1362678669413568e-01, 8.1389446952800859e-01,
          5.5752717265331653e-01, -6.6319805434033360e-02,
          1.8280989294505892e-01, -9.8614180327699186e-01,
          -9.3200322373852806e-01, 6.2305722752879544e-01,
          -1.5828663671244911e+00, 8.3843933763806958e-02,
          -7.0355363052525122e-01, 4.7986219164503818e-01,
          9.2734377711797988e-01, 6.8061339171378121e-01,
          2.6039020041549071e-01, -3.9988995724869059e-01,
          -1.5481328673439545e+00, 7.5379828570005680e-01,
          1.0839148670983156e+00, 1.2244928462643737e-01,
          2.8388685496466443e-01, 1.1983277087451834e+00,
          -4.1814820188736492e+00, -1.4417510026534461e+00,
          7.2712232035376234e-01, -1.3794423294358207e+00,
          3.8767367603095444e+00, -8.5586641708677769e-01,
          1.5448956746393601e+00, 1.0503414110427647e+00,
          4.1114492896241628e-01, 1.5547317334611921e-01,
          -1.5241098620521996e+00, 3.0066899922841426e-02,
          8.9901536877527788e-01, -3.9051156028747519e-01,
          5.1450554739142251e-01, -1.5777185849661468e+00,
          1.5253593518960216e+00, -2.6884773551289587e-01,
          -6.9522079524200393e+00, 4.8480874499346915e-01,
          5.1780254416549509e-01, 2.7731053683165818e-01,
          -3.6534485550867896e-01, -3.1129732647152664e-01,
          5.4922604760132487e-01, 4.5110768435601972e-01,
          -3.5178342431588983e-01, -6.2349098398025520e+00,
          -4.7313589332373096e-01, 4.2180790043008987e-01,
          3.8870005831092530e-01, 3.4543309010666456e-01,
          -3.1843111108667260e-01, -8.6794296330662365e-02,
          2.1135354960594077e-01, -3.5576780572540756e-01,
          5.1317118491854918e-01, 4.2689720670873449e-01,
          -4.0672016593598759e-01, 4.5255034097470298e-01,
          -2.4356555366841148e-01, -3.3362829703427554e-01,
          4.5857968941487909e-01, -3.5622625983734363e-01,
          4.6000378001494058e-01, -3.1288338615787009e-01,
          2.0579073880620982e-01, 3.6468828403461345e-01,
          5.1075508478896869e-01, 2.0166558224736550e-01,
          -3.2774315689910800e+00, 5.5987131307499483e-01,
          3.3718020868420717e-01, 5.1106405217117512e-01,
          -1.8641952618709789e+00, -2.6600941253512589e-01,
          -4.7028045863890328e-01, -1.2972838425107672e-01,
          4.1260378344718246e-01, -4.9082240980393682e-01,
          5.8172175263099993e-02, -3.8612891058558757e-01,
          -3.6872623996692278e-01, -4.9339501237011463e-01,
          -3.1658557901152112e-01, 8.3128862531067299e-02,
          -1.3845228848422553e-01, -4.7150104869051140e-01,
          -7.1333238749147299e+00, 5.1405984178268882e-01,
          4.0145236488592329e-01, 6.7159420465388475e-02,
          -3.8568074016984666e-01, -4.8701566871414531e-01,
          -6.3441722569299391e-02, 4.8951715349139657e-01,
          -7.8290522023217304e-02, 4.4274011531062243e+00,
          -4.3255711906386074e-01, 3.9796136297483492e-01,
          4.9866632869358818e-01, 4.4729900422630037e-01,
          -4.2312429062402973e-01, -6.0858525356716275e-01,
          1.7779001684077836e-01, -2.7966362042137699e-01,
          3.8521030739068579e-01, 4.2051144028025933e-01,
          -6.6278061170130420e-01, 5.1728824363809889e-01,
          -3.5760019686572206e-02, -3.1918089677991368e-01,
          5.5610617932291662e-01, -5.2895732954921715e-01,
          -1.7066963826764017e-01, -1.6679680828819646e-01,
          6.7569319768881664e-01, 3.9974841620242091e-01,
          4.8236300374118313e-01, 7.4789480944586761e-01,
          -5.2594744231895350e+00, 6.0502725846694383e-01,
          6.4370332701661082e-01, -1.6207665019722520e-01,
          2.7487859327135347e+00, -5.5958109095769704e-01,
          -2.9589223754594146e-01, -1.9029503222142051e-02,
          5.1677449880016912e-01, -3.5783421298319490e-01,
          -6.1013212799323702e-01, -4.3083646509954049e-01,
          -3.4447034650964403e-01, -4.7246491708106086e-01,
          -3.1950634426185132e-01, -6.5186181504190477e-01,
          6.4882075577253251e-01, -5.4014187825515236e-01,
          -3.2067871319824995e+01, 2.5316448948722572e+00,
          1.9151057493597496e+00, 2.0280110731082286e+00,
          -1.8768324051748162e+00, -2.0252681346227117e+00,
          1.7210409995327030e+00, 1.9914428190482820e+00,
          -1.8864580805304942e+00, 2.2833504465854038e+00,
          -1.9738793433881401e+00, 2.4654807303867954e+00,
          2.1888777194140694e+00, 1.9127934281110621e+00,
          -1.8322121345617481e+00, -1.2566116917323240e+00,
          1.0928119985824416e+00, -1.4280244085911362e+00,
          2.4422074366535469e+00, 1.9988265743466982e+00,
          -2.1052723269907334e+00, 2.2490510477401671e+00,
          -1.2086006610617730e+00, -1.5256132456653608e+00,
          2.1053942090294706e+00, -2.0320584587827790e+00,
          6.3533949497396414e-01, -1.3396994099543549e+00,
          1.9786360897217290e+00, 1.8784107521957285e+00,
          2.1063399248900851e+00, 1.9493614135982682e+00,
          -2.7441188683050814e+00, 2.8276447867247709e+00,
          1.9108600217541696e+00, -3.5469899361728139e+00,
          3.4533744209500945e+00, -2.0424028304441322e+00,
          -2.2701937144739732e+00, -5.0142391726491398e-01,
          2.2676809110266376e+00, -1.9542184626540609e+00,
          -2.4064747089858010e+00, -1.9329868982387834e+00,
          -1.5661938763656451e+00, -2.1700848869312024e+00,
          -1.5053210835338480e+00, -1.0597015748900427e+00,
          1.5925671911470820e+00, -2.1161254627151411e+00 ]
      - [ 6.0626820811057880e-01, -1.2276092036690875e+00,
          -2.3531098025488348e-01, 3.0732782987043570e+00,
          -6.3063461100887375e-01, 1.4088589767589348e+00,
          2.9800543139037927e+00, -2.6850439009480681e-03,
          -3.0059155131791178e+00, -9.5075420773736425e+00,
          7.0382475182170023e-01, -1.1770406581725614e+00,
          -1.0081156340646988e+00, 1.3478202410824358e-01,
          -5.1128900626929819e-01, 1.2646229834512397e+00,
          1.5859425948984125e+00, -1.1755792877624156e+00,
          4.6122198367992651e+00, 1.2970295820927294e-01,
          1.4042264627328984e+00, -6.7336075498310521e-01,
          -2.0239382428437209e+00, -9.9892388225186535e-01,
          -5.4397757059912444e-01, 9.0167089036263681e-01,
          2.2083000824415722e+00, -1.1982590129308326e+00,
          -1.7645696883767354e+00, -5.2095464215149501e-01,
          -3.6718110509691876e-01, -1.9333107248634065e+00,
          1.1133476207017207e+01, 5.2245250597807660e+00,
          -1.4583453976792025e+00, 3.7738046341046143e+00,
          -1.0644385105665881e+01, 1.4512877152605632e+00,
          -4.2791685294885884e+00, -3.0059611605164509e+00,
          -3.7696639035679186e-01, -1.5193114994548254e-01,
          2.3635751694005518e+00, -3.0044724889316082e-01,
          -7.2768475849600367e-01, 6.1883327945425537e-01,
          -9.5343410230488757e-01, 2.0580273817234556e+00,
          -2.1190872073962219e+00, 3.7373770808234924e-01,
          -2.2205261136259509e+00 ]
