%YAML:1.0
my_nn: !!opencv-ml-ann-mlp
   layer_sizes: !!opencv-matrix
      rows: 1
      cols: 3
      dt: i
      data: [ 24, 80, 1 ]
   activation_function: GAUSSIAN
   f_param1: 5.9999999999999998e-01
   f_param2: 1.
   min_val: 5.0000000000000003e-02
   max_val: 1.
   min_val1: 2.0000000000000000e-02
   max_val1: 1.
   training_params:
      train_method: BACKPROP
      dw_scale: 1.0000000000000001e-01
      moment_scale: 1.0000000000000001e-01
      term_criteria: { epsilon:1.0000000116860974e-07, iterations:800 }
   input_scale: [ 1., 0., 1., 0., 1., 0., 1., 0., 1., 0., 1., 0., 1., 0.,
       1., 0., 1., 0., 1., 0., 1., 0., 1., 0., 1., 0., 1., 0., 1., 0.,
       1., 0., 1., 0., 1., 0., 1., 0., 1., 0., 1., 0., 1., 0., 1., 0.,
       1., 0. ]
   output_scale: [ 2.1052631578947367e+00, -1.1052631578947367e+00 ]
   inv_output_scale: [ 4.7499999999999998e-01, 5.2500000000000002e-01 ]
   weights:
      - [ 1.1486263571881299e-01, -2.8272232872222684e-02,
          4.7181701228062319e-02, 8.1890645920523822e-02,
          3.8508092587191144e-02, 9.5082201748976202e-03,
          -6.1202336032628181e-02, 5.9298171563480391e-03,
          2.6854213580543285e-02, 6.9373686055011000e-02,
          3.4526800010061379e-02, -1.4057798338112968e-02,
          -2.9236085607772411e-02, 1.9031486365523664e-02,
          1.7228461525304568e-02, -6.7539479838327260e-03,
          1.0066032036273657e-02, 4.0992339829432640e-03,
          7.3925758382960879e-02, 2.4160989077769392e-02,
          -6.4790340399439261e-02, -7.2319392599904206e-02,
          -5.6820893251508749e-02, -1.1762022148155443e-02,
          -2.4725971119666929e-02, 5.1328346717155297e-02,
          8.1495233039408296e-02, 5.1409139136755849e-02,
          1.1780369285468165e-01, -1.7509313604221522e-02,
          -6.1003520525554980e-02, 6.2499218200381908e-02,
          2.0341639927098244e-02, 5.0598473397047476e-02,
          6.1041521611120940e-02, -1.1538162631062127e-02,
          -2.9096926750977175e-02, 2.3298272777661062e-02,
          5.0060817613899695e-02, 2.2806814044139229e-02,
          1.3052841364953582e-02, 1.5737503308533105e-01,
          -2.8199202846335421e-02, -4.1925965700661608e-02,
          -4.1567654839184474e-02, -1.2531473106912361e-01,
          -5.0420294651120884e-02, -4.4186453424692969e-02,
          2.4477227438347574e-02, 1.9794671068098847e-03,
          -3.4418928452976595e-02, 6.5981380045076851e-02,
          -4.7109586111549187e-03, 5.5019124593192831e-02,
          -6.6738445152401488e-02, -3.4684502677160792e-02,
          -1.1800770343295457e-02, 6.9864553940645349e-02,
          -5.4338339640764510e-02, 1.3323143764866820e-02,
          3.3806919840614984e-03, -2.7423968316579127e-02,
          2.8166024051432072e-02, 6.9628415754715081e-02,
          -7.2412946935294847e-02, 4.8756956430167947e-02,
          -1.9603607355444613e-02, 9.4108399112212263e-02,
          2.2847422728093418e-02, 7.0060694797322975e-03,
          -1.1080027122326913e-02, 1.6066491222834673e-02,
          9.4540760148841052e-02, -1.0022180377444592e-02,
          1.1206777286741358e-01, 6.4183356347747383e-02,
          -5.7812553773521583e-02, -4.3200533952997514e-02,
          2.0226677949075365e-02, 4.2821585761781801e-03,
          5.6429423543437074e-01, 1.8534865275630186e-02,
          3.0480433131517933e-02, -6.9710164131386474e-03,
          -7.8180541979192927e-02, 3.6213018809826615e-02,
          -2.0353913926148978e-02, 7.5774969739396555e-02,
          -1.1795831486775769e-03, 3.5028805211765192e-02,
          4.6517000667920402e-02, -1.3499573752769662e-02,
          -1.6771356377175195e-02, 7.7576104494212986e-03,
          2.2115744110174907e-02, -8.0626791907703402e-03,
          7.9385355446056016e-02, -5.2865281325072087e-02,
          7.2341990750353621e-02, -5.5010011792275947e-03,
          -4.7354808670138950e-02, -8.7059891929104682e-02,
          -2.7272224895871500e-02, 2.8897096600952427e-02,
          -2.6543247681337393e-03, -1.9421345614944501e-02,
          8.0542589489905059e-02, -7.5353234688684484e-03,
          4.9903788250693568e-02, -2.2966651336793181e-02,
          -1.4064723114246782e-02, 3.4919269209621887e-03,
          9.6906007367607017e-03, 3.3520371514781939e-02,
          -4.0239204578919871e-02, 1.1044949246763433e-01,
          -1.1199573111370650e-02, 1.5082249865758349e-02,
          1.5848242828866255e-03, -5.1860536039919448e-02,
          4.4272694986340087e-02, 5.1242009140099867e-02,
          -5.1837108825994613e-02, -7.9746548413274623e-02,
          -5.5939104360366011e-02, -7.2578229195847388e-02,
          -4.9250776813309298e-02, 2.9219208181021576e-02,
          -7.0653571295223275e-02, 6.2927697972736840e-02,
          6.4446701757231453e-02, 7.5215895012096370e-02,
          -2.5386026329196530e-02, 7.9672461418366203e-02,
          -6.1412840055230941e-02, -6.1756173179043583e-02,
          -6.1044706539122619e-02, -5.9631852322021332e-02,
          3.6542565849536877e-02, 1.5291807032012768e-02,
          3.8007067678397073e-02, 6.7881961763620699e-02,
          -3.9977143564208471e-02, -3.6063733250126358e-02,
          -1.8926305999503602e-02, 1.1839765520175852e-02,
          6.5478282011807040e-02, 9.8629948995967859e-03,
          -1.1615714387791733e-01, -2.7554987680930867e-02,
          -5.0155604254052334e-02, -1.7859433536604075e-02,
          1.4610345470137306e-01, 7.6164991844434246e-02,
          1.5392189035384210e-01, -2.9135210157129699e-04,
          -1.8726872856934698e-01, -6.4918923253582159e-02,
          2.8112140558011697e-02, 6.3115123084293873e-02,
          -5.1172638769425383e-01, 3.8273361856068451e-02,
          2.6920347318651495e-02, 1.8232497384341663e-03,
          -2.7780039138987130e-02, 9.6853686983014390e-03,
          -2.4928269756964810e-01, -3.3603392731938230e-03,
          -4.7952136196294182e-02, 4.4280645048995415e-01,
          -5.4700651346840705e-02, -4.0831867848060185e-02,
          1.1410342645780240e-01, -6.7413712217935587e-02,
          7.2147404240542973e-02, -1.4484555293919239e-02,
          -6.4452374576113830e-02, 9.6898941416485848e-02,
          6.5491873726659089e-01, 5.4592123190365563e-02,
          7.3458623350755314e-02, -5.0332757156934704e-01,
          5.3446767359330280e-02, 1.2722671450423390e-01,
          9.5721166269934890e-02, -4.0516343488498821e-02,
          1.8118965175573368e-01, -3.8074120959309128e-02,
          6.3533985947863236e-01, 4.4853559642675941e-02,
          6.3295958909037053e-02, -5.3387882554766612e-02,
          5.6621834797296107e-02, -8.0904713089472544e-02,
          -3.0976311094400313e-02, -2.7125389310319461e-02,
          2.8130374780120680e-02, 1.0824038152120735e-01,
          2.4241237850423585e-02, -1.6302072958023661e-01,
          -2.3715483711393145e-02, 4.9659877278614867e-01,
          5.0646972758407616e-03, 5.5666229033849997e-02,
          3.5584404475093169e-03, -3.3114305500039926e-01,
          -4.9468506201894608e-01, 1.3855589013804572e-02,
          6.1120339012385089e-02, 3.1202774554113792e-02,
          9.0712171644162737e-04, -3.7964167793576219e-02,
          5.0715528855852954e-02, 2.3556167611034712e-01,
          -3.0411215031261540e-01, 9.6567584575005819e-02,
          1.1500910730004305e-01, -2.7436212089742021e-02,
          4.0356514723901026e-02, 3.8493598276454190e-02,
          -3.2629671660409525e-02, -7.1072089279766645e-02,
          -1.2521664943875625e-02, -5.2419090151628244e-03,
          1.2461788563670965e-02, -1.2577549325656220e-01,
          -1.0439786939247993e-02, -8.0134213983462169e-02,
          7.8311643404293321e-02, -3.0482306188464495e-02,
          2.2611840659612973e-02, -6.3605437558878611e-02,
          5.9969034476336880e-01, -2.8917624379675842e-02,
          8.6848226742853996e-01, -6.8960475748088668e-02,
          -2.4522059038606750e-01, -6.5783234429811401e-03,
          1.2629897719513091e-02, -6.0551014277189667e-02,
          -3.4280624974475848e-01, -4.6682320667521475e-02,
          -1.2602463857623585e-02, -4.2087350783780536e-02,
          2.9928999166954313e-02, 2.7086162175490303e-02,
          -4.3435599806402513e-02, -1.1880175411605489e-02,
          -2.3348088774772836e-02, 1.5429405724967854e-01,
          -2.2448063100873418e-02, -1.3943375498101401e-02,
          5.4440200144682920e-02, -9.8033536299531446e-02,
          4.7063785354277091e-02, -6.4729809060042947e-03,
          -2.2223136099418898e-02, 7.1986835022396891e-03,
          2.8454261849822887e-01, -3.4460959754747542e-02,
          4.6422805068810580e-02, -2.9378209708223235e-01,
          3.8046956208675139e-02, 1.0825656888853677e-01,
          1.0867066068395381e-01, -9.7319905533590871e-03,
          1.4051615189389180e-01, -6.6029566252034350e-02,
          2.0271196568497929e-01, 2.8224252498168241e-02,
          2.8063457244683902e-02, -3.0771744799939299e-02,
          -5.9327028160446625e-02, -2.6471545307386855e-02,
          2.3400219933646351e-02, 3.3901855708750227e-02,
          8.7435896299142543e-02, 1.0455510864113950e-01,
          2.8522234945151498e-03, -8.7187836336656346e-03,
          -3.5285122194111868e-02, 2.7266499725399046e-01,
          5.4676132335886883e-02, 2.6612032360513797e-02,
          8.5330972192692922e-02, -1.1956003080411051e-01,
          -2.4300114400038764e-01, 8.8876865057414493e-03,
          -1.1155150297150460e-02, 5.9452013182566578e-03,
          3.1634765378185305e-02, -2.4934558956269393e-02,
          3.4385266893964352e-02, 1.1427313873377060e-01,
          -8.0725429705503934e-02, 3.8851899478362706e-02,
          1.0680688851370580e-01, -1.8068315527211824e-02,
          3.7955465128562522e-02, -5.8056581708159437e-02,
          -6.2578447918705954e-02, 3.3848211988520699e-02,
          -1.1422383674636886e-02, -1.1770231151117949e-02,
          -3.9069450351023473e-02, 7.0810473620813311e-03,
          2.4841784821469929e-02, 7.7176487889964868e-02,
          9.6297340608179863e-02, 3.1211294376418845e-02,
          3.5164393518412589e-03, -5.4089701280932802e-02,
          2.1330176986333541e-01, 5.4264315150782012e-02,
          2.6079093854056662e-01, 3.4118123017751197e-02,
          -1.1028500938998355e-01, 2.7767267607001038e-03,
          -6.1309652255980146e-02, 1.7104655657869880e-02,
          -4.7176000233232129e-01, -6.7730378168462169e-02,
          -5.9558325020308868e-02, -1.1435789332410885e-02,
          -2.9283940857264056e-02, -2.7637866017156506e-02,
          -1.9837239714991441e-02, 2.6845720360950058e-02,
          -2.9425059607079047e-02, 7.2994563080370861e-02,
          -3.3824256048624893e-02, -3.9764751044313262e-02,
          5.3658786836573436e-02, -8.2906751806540807e-02,
          1.1015884595804522e-01, -7.6233286240136477e-02,
          -4.9692310952350993e-02, -4.8518566515621926e-02,
          1.8306886573156697e-01, -7.7945576733352132e-02,
          -4.9941150675699868e-02, -2.1457863775498628e-01,
          -6.5306710833065898e-02, -9.9835751404601745e-03,
          1.8054486412944878e-02, 2.7170878184868259e-02,
          8.5166261066715723e-02, -2.9799108339498306e-02,
          9.5570991628208868e-02, 2.4791924083882977e-02,
          -2.5062376600610003e-02, 2.9596171342694252e-02,
          2.0528188996851104e-02, 6.5516773782048537e-02,
          -1.1742238326035372e-03, -9.5508480735028628e-02,
          9.9912137272345380e-02, -1.3595178452174151e-03,
          -2.2068309731967932e-02, 5.3212071758021251e-03,
          4.2686107208027430e-02, 1.8555915433441617e-01,
          -3.8495640481774958e-02, 5.7821537875619201e-02,
          1.6774690397689890e-02, -4.4350158690016177e-02,
          -2.3534472031787335e-01, 8.8316977212473280e-02,
          -1.2139385927851650e-02, -3.7499923982185941e-02,
          3.8893699767783514e-02, -2.1265183045453929e-02,
          -4.2937875857555666e-02, 1.3056290457160077e-01,
          -9.3528814353006196e-02, 1.5892279429537810e-02,
          1.0912486592147515e-01, 5.1554563072662075e-02,
          1.8153840398922580e-02, 3.1108391394443095e-02,
          5.5473907391774310e-02, 4.2994238919081100e-02,
          -2.6168764784415080e-03, -3.5827648207745970e-02,
          -6.5561934086146814e-02, -8.2208823986592280e-02,
          -4.9268623629556869e-02, 2.1124721179831517e-03,
          6.1897951877243597e-02, 6.9799052663008371e-02,
          -9.3859351310568689e-02, 5.9934026279588005e-03,
          1.7999109131416496e-01, 1.5107295134633257e-02,
          2.9575421945338626e-01, -9.1276887640535834e-02,
          -7.2058253642891382e-02, 4.8716010990286628e-02,
          -1.2043155559254245e-02, -7.6474183211179339e-02,
          5.2569620454806246e-02, 6.9659632826265222e-02,
          -5.9693688689014035e-02, 3.7612626281140107e-02,
          3.1462532816070199e-02, 2.7312079014449243e-02,
          -1.4530694652316667e-01, 3.4844417389964015e-02,
          -4.6782061254448018e-02, 2.1549436633515442e-01,
          -3.3701539343000797e-02, 9.6630125408682363e-02,
          1.9225751951332027e-03, -6.5467687608118830e-02,
          8.0573388127574266e-02, -3.5954450252161825e-02,
          2.5027499041060004e-02, 2.6311441348881043e-02,
          1.9545950504383963e-01, -4.6657708510102855e-02,
          -4.0455002568443331e-02, -1.4470312573454153e-01,
          5.5798859900640846e-02, -3.8087412243920503e-02,
          2.7035613499792732e-02, 4.0982158928181141e-02,
          5.0341941025061468e-02, -6.6315665369282198e-02,
          2.5053068483393737e-01, 6.7333597456636529e-02,
          -9.2475499106263487e-02, -4.2008720201767179e-02,
          5.7231563441304117e-02, 4.2690217358340703e-03,
          -1.6104938291697308e-02, -7.6663996657237804e-02,
          5.3517861586771048e-02, 2.7766062943937173e-02,
          -4.5029874560324569e-02, -1.2961112453451579e-01,
          2.7291008198182153e-02, 2.8531330127583371e-01,
          1.3365221694711778e-02, 8.2975466662485314e-03,
          2.8704924734416815e-02, -6.7804336794645231e-02,
          -1.2284410388563992e-01, -2.5371896380902578e-02,
          -1.4331100016564031e-02, 7.0904481136071021e-02,
          -3.8875187145521128e-02, 3.6187067258355007e-02,
          -2.5631657790932849e-02, 2.0729526954209768e-02,
          -5.8686493276891606e-02, -5.3807853885173125e-02,
          9.0462802366295531e-02, 6.9136499450510244e-02,
          5.7339647278740344e-02, 6.6325597681622175e-02,
          3.1444687271979473e-02, -7.2505611685606611e-02,
          7.1304113253024090e-02, -4.4797426413689508e-02,
          -2.7586364060980140e-02, -1.9486511913916642e-02,
          -7.6212312820627071e-02, -1.8373304872517345e-03,
          6.1041896197846737e-02, 1.0052590491188582e-03,
          -7.3582567621265318e-02, 8.3853290865436816e-02,
          2.3740891506814837e-01, 5.4188930909596714e-02,
          3.7420591808737319e-01, 2.3262927355231132e-02,
          -1.0987759311854906e-01, 5.2961881847902868e-02,
          5.8649560722207679e-02, -6.3967920698332195e-02,
          -5.2879583704607946e-01, 4.1290747583576197e-02,
          -3.8695556436510181e-02, -1.0514610080533417e-02,
          6.7348052994294222e-02, 1.7379852602124986e-02,
          -6.6898066416940488e-02, -4.6380659274228735e-02,
          5.6117787099303776e-02, 8.9326789323416922e-02,
          6.3306525534076008e-02, -7.0511504735764046e-03,
          4.4358778442465566e-02, 2.3898421343248964e-03,
          1.0463724715357030e-01, -5.1467936993296055e-02,
          2.8834828430905395e-02, 6.9983048975000251e-03,
          1.7224977735114341e-01, -8.2948515982662167e-03,
          3.6757770585505993e-02, -1.3360131315218168e-01,
          9.6714954323764129e-03, -4.2771190442376997e-02,
          3.4749970914328104e-02, 4.7060982668911053e-02,
          1.2315183169943235e-01, -5.1912559386143774e-02,
          5.7584349161390193e-02, -4.0054040786049405e-02,
          4.1739712230198588e-02, -8.8396614488109801e-03,
          -6.1364723859361576e-03, -3.5292791143974708e-03,
          1.4510099672094776e-02, -9.9775855146293016e-02,
          -4.8235220783120175e-02, -3.6036872219696786e-02,
          -1.2195799112933012e-03, -2.6270768146692366e-02,
          -3.7400034357031903e-02, 1.4945954923415383e-01,
          3.5161865689772018e-02, 2.1967154379038244e-02,
          -2.8459354120613780e-03, 9.8816037857937578e-02,
          -3.8050260753476145e-02, -3.6792879584602096e-02,
          1.0192064592410098e-01, -7.3108964706828736e-03,
          -6.7275007589602087e-02, -9.8418029060896944e-02,
          -1.9339901750061001e-03, 1.0611241113358733e-01,
          -1.0328962430390203e-01, 4.6763313623710022e-02,
          3.3488052159290072e-02, -6.2288386609637508e-02,
          1.0708428458096863e-02, -1.6955068564934759e-02,
          6.4131249617011082e-02, -1.4754135432823851e-03,
          -7.0780499493563062e-02, -2.7716368892653279e-02,
          4.0806682121441118e-02, -6.8446183291802229e-02,
          3.8563695923861975e-03, -7.2298379213859038e-02,
          1.6810351857626131e-02, 2.3735198455471049e-02,
          -1.3802922692596557e-02, -3.5582860539211704e-02,
          3.8771311086051238e-02, 1.7305368504927317e-02,
          1.7490700646458815e-01, -4.8860617541909963e-02,
          -2.8091730800038198e-02, 4.8741211922326132e-02,
          -2.8339957050373614e-02, 1.0373364162305733e-02,
          -3.2009310925145834e-01, -2.6740622626977621e-02,
          1.9882240083831305e-02, -3.2365887578370445e-02,
          6.1505120864085633e-02, 1.1592538750616374e-01,
          3.4248703524370178e-02, -7.9301662737843379e-02,
          6.2498569351867608e-02, -1.0952565873682254e-02,
          -3.7277036656477781e-02, -3.9358556932468178e-03,
          1.0405963409764666e-02, -1.0607588413305297e-01,
          -4.5758284566453047e-02, -1.5158125944301194e-02,
          -1.8196859932453405e-02, 2.7117244520469656e-02,
          3.6608521444089215e-02, 2.4997414825353823e-02,
          -5.1701011701302868e-02, -4.3490298389605636e-02,
          6.0299692990018187e-02, 8.4075740873873858e-02,
          3.8197109543319695e-02, -7.7631295560895791e-02,
          4.6749863843610046e-02, -3.2927974984294534e-02,
          1.2558839964743040e-01, 1.0843853918629432e-02,
          -5.5693218226577863e-02, 1.7313467099723756e-02,
          6.7102657402790047e-02, 9.4298549638809626e-03,
          2.8063455277779443e-02, -9.0911110649980489e-02,
          -3.0636859205831608e-02, -4.9102226780360990e-02,
          2.4345324116978224e-02, -9.1463577267010077e-04,
          2.3954034613184599e-02, 4.1825898523577092e-02,
          8.6578563822249877e-02, 1.2193938744858810e-02,
          6.8643788988138582e-02, 7.3324783349252229e-02,
          -4.5054124421270533e-02, 1.4250250158005053e-02,
          -1.9308890473480205e-02, 6.4375412460491444e-02,
          -5.8816525448419109e-02, -9.3225409535931725e-02,
          8.1954788187751107e-02, 1.1518708202402307e-02,
          -8.6066644735105002e-02, 2.0998180887247739e-02,
          2.6993227738498850e-02, -1.6700451412746686e-02,
          7.0635645722819634e-02, 3.1682577250650830e-02,
          -7.7993615749555059e-02, 1.8921766290605976e-02,
          -2.6778932061631018e-02, -3.7898205740097016e-02,
          1.7321507260898553e-02, -1.6047860274534666e-02,
          -4.6270617107927813e-02, 5.3168111988395633e-02,
          3.7352770476404069e-02, 7.3518585993627053e-02,
          2.3023012586452760e-02, 5.2479130998798779e-02,
          1.0431095975317753e-01, -7.0978761107368504e-02,
          -1.2122793681173473e-02, 5.1171149985607442e-02,
          3.3909951499727087e-02, 3.0858427268479004e-02,
          3.7269714189593545e-02, 3.2996568857053502e-02,
          1.2504110498462084e-01, 8.4543616741160260e-02,
          7.8256686430320743e-02, -7.6489792358120326e-02,
          6.7993280091666747e-02, 6.4107665169527081e-02,
          -3.0509468213489699e-03, -1.1002060810667427e-02,
          -3.4422414253440482e-02, -5.5826135926920310e-02,
          -5.6672497525024471e-02, 1.5546896899144911e-02,
          -4.4219974535638959e-02, 1.4289513664602259e-02,
          -6.5880532942070483e-02, 2.0843723325792598e-03,
          -6.2851216837170668e-02, 5.3886269975583476e-02,
          4.7588816419931013e-02, 6.5403410431059808e-02,
          1.3220173578329714e-02, -5.2234215557542922e-02,
          -6.9429670220517575e-02, -6.9955057215078040e-02,
          9.0750401614416096e-02, -5.2190031477038663e-02,
          -3.4601530809924154e-02, -4.0880607649014800e-02,
          4.8733168653457663e-02, -6.4640291252702473e-02,
          -6.6266461472799507e-02, 5.0168426485134802e-02,
          -8.9350125150478868e-02, -1.8336723427331288e-02,
          1.7856878210112521e-02, 3.9357555250543498e-02,
          1.3379677062094241e-02, 6.8228145108677959e-02,
          -2.1848399599353495e-02, 1.0173527972208142e-02,
          -7.0100629747014670e-02, -5.6941872093193235e-02,
          1.8660391445741668e-02, -7.5442777166487424e-02,
          6.8048332695458111e-02, 1.3299566897135989e-02,
          4.0294618130834667e-02, -7.7511650879405605e-02,
          -2.2035230111114891e-02, -6.4503319199169865e-02,
          2.1536968901881063e-02, 3.1984933007838307e-02,
          -5.2594020060346129e-02, -3.8020158518426224e-02,
          4.3929795134880364e-02, -2.4570251558211992e-02,
          1.2123647817184870e-01, 2.4712881200513612e-02,
          1.1909394336374132e-01, 3.0000060995399123e-02,
          -8.0972737094719402e-02, -6.0998191351346799e-02,
          -4.6387454363049918e-02, 3.9512364897033907e-02,
          -3.4921669937417563e-02, 4.0646416038410751e-02,
          2.0765923405457357e-02, -8.3666431981031311e-02,
          4.8404147216917034e-02, 5.9285377081964935e-02,
          -5.2399702971269821e-02, -7.4055026487746450e-02,
          9.7711304693568521e-02, -1.0961814228003125e-02,
          4.5903953000036933e-02, -5.1642041145175739e-02,
          6.5695529591941609e-02, -2.2522289095909257e-02,
          -3.7187727966794100e-02, 1.2328130896292660e-02,
          -3.8592676772113066e-01, -1.8369555990441315e-02,
          2.4298855721515213e-02, -1.8688919089887582e-02,
          6.4860247371960736e-02, -2.1125889182736998e-02,
          -4.4208077731446874e-02, -9.6261211992219889e-02,
          -2.4574659220896501e-02, -5.5718188205504206e-02,
          -6.3051409035323996e-02, 8.2658034658969898e-02,
          -4.7634798255870789e-02, -1.1474470823394170e-01,
          -7.9981038687722938e-02, 1.4747063715545796e-02,
          -2.8043253709607355e-03, 2.0519443764888904e-03,
          -1.0019279760262792e-01, -6.1419536890508525e-02,
          -3.4415904940890564e-02, 4.5289582996746285e-02,
          6.4061716132275126e-02, -1.8801912987042653e-02,
          4.2877594196439904e-02, 7.0968553683267321e-02,
          6.2874645558232453e-02, 4.0959782109843815e-02,
          -2.4232496258850360e-02, -1.5048534108634199e-03,
          -2.0758046348314116e-02, 4.8196432817158803e-02,
          2.4804963251667228e-02, -6.3129587320853622e-02,
          -4.2532494947626502e-02, -5.9486762487361754e-02,
          7.2860082373079555e-03, 3.7947959154326617e-02,
          -3.5437246463885241e-02, 5.3561082328668040e-02,
          -5.3828161763206936e-03, -1.0429682462763265e-01,
          -3.6755040415018786e-02, 5.7463779242718539e-02,
          -2.2254849134923239e-02, 1.5880465658796425e-01,
          8.3173843179031343e-02, -4.9022943207865877e-02,
          -4.0182473799209584e-02, 9.0458147246996634e-02,
          4.8887064412182317e-02, 2.8028950196426652e-03,
          -5.9488145324267556e-03, -3.9872776641390939e-02,
          -1.5812226569134426e-02, -6.3979363052833665e-02,
          1.2450234316769436e-01, -7.2923964742665354e-02,
          -1.7031396247658238e-02, -7.9459675772584962e-02,
          -4.7841380999322301e-02, -5.8585317887533239e-02,
          -4.2312081555703346e-02, -1.1692067940556057e-02,
          -1.0264154530589148e-01, 5.7522231186472282e-02,
          -6.6767960116217814e-02, -5.7931275092663057e-03,
          8.0836051406154741e-02, -5.9436069035444287e-02,
          7.3807806750895114e-02, 6.5962978165981498e-02,
          -4.1411159453526240e-02, 2.8991788481939274e-02,
          -1.4262807212035875e-01, -3.7972672417147496e-02,
          1.2895549526767433e-01, 3.3229040906520547e-02,
          -2.2559024933878642e-03, 4.7071616182108575e-02,
          3.2090691509304065e-01, -3.4277209992879150e-02,
          -4.1377608690498328e-02, 2.7206466942140083e-02,
          -2.8858864589863210e-03, -5.7054981029425564e-02,
          7.0500170354655903e-02, -8.7169280875359120e-02,
          -4.8237651904780340e-02, -1.0606042524326677e-01,
          2.8860417828197777e-02, 6.2665292159231056e-02,
          -7.3717899563600406e-02, -5.9319323771499115e-02,
          -1.1089816011335830e-02, -5.0857768760762340e-02,
          -5.5659592094698077e-02, -5.9803030542941851e-02,
          -1.2048554692218276e-01, -5.6778977491404710e-02,
          -4.0107762142414995e-02, 1.8099659398824502e-01,
          -2.1552649086370064e-02, -4.9519643037001015e-02,
          9.6827728554845047e-02, 7.5026465774249179e-02,
          -6.2935226364544239e-02, -3.5161092027246765e-02,
          -1.2035614747148367e-01, -6.9918079616269613e-02,
          -6.2530822997871688e-02, 4.7901335021244315e-02,
          -7.3754367887506785e-03, 5.7318185533337472e-02,
          4.9313316112935782e-02, 2.3771479493672816e-02,
          -9.4058372669642135e-02, -8.0156453566181673e-02,
          6.7131832910888756e-02, -3.9224106841274850e-02,
          2.1847913615081333e-02, -1.2679970895496878e-01,
          -1.4871994213579782e-02, -3.2626824633660956e-02,
          4.7487715769505522e-02, 1.7727971931481434e-01,
          1.0335150095257085e-01, -2.9854263186406996e-02,
          5.2703284311242507e-02, 1.7859399862313111e-02,
          -5.4368001758191742e-04, -7.5339254978528461e-02,
          -2.5930996191514719e-02, -1.3113832952101534e-02,
          -2.6233359870894528e-02, 4.5051967256194501e-02,
          3.3632143437932221e-02, 8.2451263816493897e-02,
          7.8156965870149905e-02, 9.1211754199914549e-02,
          -2.6442781671696183e-02, -6.3399717073286552e-02,
          7.9090622209546605e-03, 5.6420959979171258e-02,
          -7.7718767342228684e-02, 4.2526554042055159e-02,
          3.2156166179419389e-02, 7.9792286683574631e-02,
          8.6651890529358178e-02, -7.6669926465981933e-02,
          -2.0247450368837353e-02, -3.9902336959149173e-02,
          -1.8569000002361388e-01, 6.6156990364495738e-02,
          -2.4708239892776920e-01, 8.0167056871693499e-03,
          8.1009900559838269e-02, -7.0762619832749618e-02,
          8.0278253505671106e-03, -2.0693212447951380e-02,
          -3.4137623932525690e-01, 9.2424132997580635e-02,
          4.8618774399463938e-02, -8.2696444674637090e-02,
          -1.4587170326621770e-02, 4.9461732368120702e-02,
          1.2069627735909319e-01, 4.1977963880096981e-02,
          -5.0915225169110645e-03, -6.0721653160900939e-02,
          -2.8567139147437085e-02, -3.6046130508497462e-02,
          -4.6605759544477876e-02, 3.7917111269430627e-02,
          -1.2203679085185133e-01, -6.5018228682659079e-02,
          -3.4000396560832112e-02, -8.4923828451977365e-02,
          -1.5020462854805736e-01, -7.0569887294802763e-02,
          2.2044248653698351e-02, 1.3698977443269880e-01,
          -3.6741784520182411e-02, 3.7746038241228373e-02,
          -4.6194915402812418e-02, 3.8980736830367027e-02,
          -7.8419603007986061e-02, 3.3582776354611522e-02,
          -1.6060177507688048e-01, 5.3231667686652141e-02,
          5.8511048758580646e-02, -1.1002375008558497e-01,
          -8.8704789566753678e-02, -3.3650867737822013e-02,
          -6.0187191857086021e-02, -1.4694259858591774e-02,
          4.5790028933497269e-02, -4.0741056055651870e-02,
          -8.7212346647853614e-02, 4.7693872135584903e-03,
          -4.1000338185851999e-03, -2.3209364330251084e-01,
          6.6209864889609185e-02, 1.4764709549351810e-02,
          -3.1766745946979896e-02, 1.4848703561449356e-01,
          9.4168210347600409e-02, 1.8409267618820446e-02,
          4.1288206965978749e-02, -4.6207068887696247e-02,
          -3.5938078538741265e-02, 7.0717634109272676e-02,
          -2.1165056157680030e-02, -2.2068054724009221e-02,
          1.6221706080978324e-01, 6.7599602500614036e-03,
          2.0776364518229260e-02, -2.8058774617309740e-02,
          -1.0565942737928248e-02, 3.6424125809126705e-02,
          1.4957178316545831e-02, -5.1354844738390311e-02,
          9.8035198664942494e-02, 6.4962258644933574e-02,
          2.9846099276625338e-02, -5.2111644849043418e-02,
          2.2807816341985070e-02, -5.5045391585824360e-02,
          -2.7095845638620331e-02, -4.0096575920664151e-02,
          -1.6031591134274045e-02, -3.0734039724061288e-02,
          -2.4562244935463334e-01, -7.9796933040015505e-02,
          -3.5177481151929557e-01, -2.9048353175088044e-02,
          2.2020721560686404e-01, 2.4773011575710754e-02,
          -7.2676980563160201e-02, 6.8628084665067826e-02,
          -3.5384740269139472e-02, -1.7400475241501383e-02,
          1.2326346867024288e-02, 9.0763355462402578e-02,
          -6.5918648207380998e-02, -1.6822141396276052e-02,
          9.7201131703050295e-02, -3.7456610515429090e-02,
          4.0286756859744838e-02, -1.0148618759866103e-01,
          6.7362538867028893e-02, 7.3099025026103215e-02,
          4.6827127087805440e-02, -6.2967429136478001e-02,
          1.3079483705798459e-02, -1.8813021672413589e-02,
          6.6205015139009102e-02, 6.4654483370299998e-02,
          -1.0338795207320325e-01, 6.2034250753834785e-02,
          4.6031996666792183e-02, 2.0177883258996807e-02,
          -2.4355488286792140e-02, 4.5279384359824926e-02,
          7.9717131914986528e-02, 2.5430822800840001e-02,
          -9.0989134231366856e-02, 3.0830963152268003e-02,
          -1.6715783932857931e-01, -5.1230459132557499e-02,
          5.7613339340128245e-02, -2.7031285969649640e-02,
          -1.3059707017491685e-02, 6.8278663245199406e-02,
          -6.3615704798757028e-02, -1.4181488996544216e-02,
          -4.5213332519677532e-02, -6.3140528993639561e-02,
          1.9672423205259120e-02, -4.3148338443864259e-02,
          -1.1217861444546827e-02, -2.0094857904661365e-01,
          2.3699353389262625e-02, -1.3522067357889430e-02,
          6.8776158796153369e-02, 1.6426885190601825e-01,
          1.4468594406439922e-01, 5.2939987862777836e-02,
          -7.0978512611096674e-03, -1.2018021984119045e-02,
          -9.6107135059398975e-03, -3.3095384263183231e-02,
          -5.6305446362397600e-02, -1.9896973606222498e-02,
          6.1355905505003208e-02, -6.3911090340389123e-02,
          2.9481328190006116e-02, -6.0370844644476090e-02,
          -1.5537304491760823e-02, -6.4821378521678505e-02,
          6.9677502012783471e-02, 2.7251969724458792e-02,
          -5.7133127332629645e-02, -7.5889982273686291e-02,
          -9.1698018277350704e-02, 7.7853255650584166e-02,
          -6.9590304192182234e-02, 1.0247166367034775e-01,
          8.4024874018126763e-02, 3.7709383060421174e-02,
          2.9241471008646023e-02, 1.8970076114593105e-02,
          -2.0955536955048984e-01, 2.5730432297066039e-02,
          -1.8336449909492503e-01, 1.0520346579956884e-02,
          1.9112375625250805e-01, 6.4989151401463496e-02,
          3.9748545075487328e-02, 6.4868581806302075e-02,
          -1.0161873446677678e+00, 8.8682278628264458e-02,
          -8.7995671908376136e-02, -2.8693219623032350e-02,
          2.3272962995670346e-02, -8.5930099469729460e-02,
          1.6912639290242548e-01, 4.2248246967038654e-02,
          4.8517754162738257e-02, -1.8691530277823001e-01,
          -6.9985760753743478e-02, -9.4353574709150359e-02,
          -6.3382108223626527e-02, 7.8294310754607466e-02,
          -1.0805993551076920e-01, -1.0980717412592150e-01,
          -3.1132678083217971e-02, -2.9974911676176958e-02,
          -3.2378396491016864e-01, -2.0313812984736911e-03,
          1.9585156533460369e-02, 3.2095461198771924e-01,
          -6.0123063527373774e-02, -2.3253940496107745e-04,
          -8.3719808894821921e-03, 4.5508534700593718e-02,
          -8.8048512913684499e-02, 5.2342541805278218e-02,
          -3.6528075534102200e-01, -2.5773294917066394e-02,
          7.7932150510652248e-02, 1.9901135445222665e-02,
          2.7865865428312056e-02, 9.0254742538767065e-03,
          3.4783047018544684e-02, 6.3541533564351882e-02,
          -8.2269143446150383e-02, 1.5301402936746379e-02,
          -5.5631435810122948e-02, 5.5517046812561727e-02,
          2.6555561672306966e-03, -4.2761831952039370e-01,
          -4.8275785302235627e-02, -7.3219882612513845e-02,
          -2.2290537726070710e-02, 3.6408513233614209e-01,
          3.2279323546645949e-01, -3.8826011552249837e-02,
          -3.1287084929950248e-02, -1.4344751501011954e-01,
          8.4639344252208822e-03, 3.0059501746080890e-02,
          -3.5983754201459404e-02, -8.7339077676717947e-02,
          2.3182805036927590e-01, 1.9434199636654006e-03,
          -6.0084551579319488e-02, -4.7073647590780282e-03,
          -8.3345572370625738e-03, -8.8696492727204215e-02,
          -5.0586737904938339e-02, -2.8791740515297315e-02,
          1.0392412797685417e-01, -6.2377386007640291e-02,
          5.5417405779204357e-02, 8.3767914614196998e-02,
          5.1408488575816529e-02, -3.9737353172154856e-02,
          3.1156333199825657e-02, 6.9221989223217220e-02,
          -2.8097659661502083e-02, 5.0972507096948505e-02,
          -4.9527509979028250e-01, 1.3753027052480975e-02,
          -4.5181561617809296e-01, 7.2395258979075866e-02,
          3.9666268658880754e-01, -8.7404003808116804e-02,
          1.6111081641565880e-02, -1.5911961296688495e-02,
          -6.9585818549446343e-01, 4.3869175052956157e-02,
          5.0327671256608177e-02, -1.0728169292160894e-02,
          -1.4135237148039064e-02, 9.8947739970300291e-02,
          1.0579002154537855e-02, 3.8409557713466408e-02,
          3.9906632837728127e-03, -1.8089282005925963e-01,
          -3.1323541652578543e-02, -3.7289260534665310e-02,
          4.5412513780495642e-02, -3.7389842290086526e-03,
          -9.2015786265180491e-02, -4.8688680225137115e-03,
          -4.9470086236119502e-02, 1.6857293389683076e-02,
          -2.6780696555753836e-01, 6.8289240362031475e-02,
          9.3755956974607327e-02, 2.0641246001217714e-01,
          -4.5897082062388954e-02, -7.6057885170314893e-02,
          8.9234967372280677e-02, 4.4919547731231101e-02,
          -3.8202444640391929e-02, -5.8886087390195484e-02,
          -2.0263343093106731e-01, 8.4336042949187964e-02,
          -2.6257534445282102e-02, 3.4960066927256499e-02,
          -6.2813763216330622e-03, -1.4893815766759541e-02,
          1.8530801215883692e-02, -6.8040230596233750e-02,
          2.0129451473388245e-02, -6.2027460206584742e-02,
          -8.9601195269738629e-02, 1.2643465526497616e-01,
          9.2591220212855596e-02, -2.9935202000508959e-01,
          -6.3697957477463537e-03, -1.0492549523107450e-02,
          -2.7615473111424326e-02, 3.2199787282818615e-01,
          2.3036861759645347e-01, 8.4468326431394632e-03,
          7.0284593340893223e-02, -1.1397604073421121e-01,
          3.9508644344956732e-02, 1.0830336248685336e-02,
          -3.3955967395175445e-02, -4.8747706492645933e-02,
          1.2965018177750365e-01, -2.9213323884101090e-02,
          -6.8311609322404751e-02, 8.2889672122309882e-02,
          1.5240162058734283e-03, -4.1413898351359045e-03,
          -1.2356245535576984e-02, 5.2949593882054037e-02,
          -6.7818178436568552e-03, -2.3854723535849279e-02,
          -7.0121225497024153e-02, 9.2366835321856841e-02,
          8.4862294934212934e-02, -1.1480229817993983e-02,
          -5.8234547271694713e-02, 3.1551287181244510e-02,
          -1.4625715550116491e-02, 5.0166272056913685e-03,
          -2.7015270106947009e-01, -5.1355202810468202e-02,
          -3.8889921101117875e-01, -5.7709461507241960e-02,
          3.6864672178243174e-01, -1.0352870618498546e-02,
          -2.4000048299035546e-02, -6.8209567232678001e-02,
          -2.6999680364126810e-01, 4.9796868463556472e-02,
          -8.4946580132423566e-02, 2.5070263988944293e-02,
          -7.1993602529396405e-02, 3.7582035278693015e-03,
          1.2227054433230387e-01, 1.4553221041864347e-02,
          5.1404456057849296e-02, -1.9846041478804230e-01,
          2.0984147458601495e-02, -9.7299462129143508e-03,
          2.4279033982867377e-03, -2.1458549399341564e-02,
          -9.3598363475491275e-02, 2.7506194147843433e-02,
          -6.8680160551707642e-02, -6.9703070328788877e-02,
          -2.8472798001525945e-01, -2.5182551514288679e-02,
          2.6776886381374695e-02, 1.3910309261436801e-01,
          -4.4025951602751079e-02, -1.4068833295617702e-02,
          9.6562856593091564e-02, -5.3098194913496523e-02,
          -1.2592545651093076e-01, 5.5089257698120730e-03,
          -1.9700510442169020e-01, 6.1864909309475559e-02,
          -4.7158795062254177e-02, 3.9032385675521003e-02,
          2.8765516258783975e-02, -5.4339541337174259e-02,
          4.4042959362318092e-02, -3.3560007505082398e-03,
          -3.5136606321116955e-03, 6.7759440280246667e-03,
          -2.4213657365246607e-02, 8.0036741222325292e-02,
          3.7281770871081359e-02, -1.5497833551411183e-01,
          -3.5499424470943154e-02, -4.3993566244147679e-02,
          -2.8912354356520131e-02, 2.5609844753702987e-01,
          2.3938801108069863e-01, -6.2955873279957511e-02,
          1.0870594169548628e-02, 1.5740306973295287e-02,
          2.4046167160104635e-02, 1.2862029264742970e-03,
          4.8332514833469946e-02, -1.3148942639114819e-01,
          1.3379872765696796e-01, 7.1708183632491998e-02,
          4.1254778384767259e-02, -7.0432991174936121e-02,
          -4.4542320894076587e-02, 1.5159477863584075e-02,
          -2.8192996809840356e-02, -6.0785876456243143e-03,
          6.2017394350861697e-02, -2.4611405490538224e-02,
          -1.1530758403949359e-02, -2.1803749930657788e-02,
          6.9198703091771230e-02, 2.2807818846290542e-02,
          -1.0363298806916957e-03, 5.8870177658547435e-02,
          6.2887265205667994e-02, 5.7045317161855326e-02,
          -2.2163016234019475e-01, -5.0374073969480390e-02,
          -3.1288612101952934e-01, -1.7676779252409316e-02,
          3.0664546730894571e-01, 6.5247466924098649e-02,
          -4.2164173364024532e-02, -1.9394359804447890e-02,
          -5.7386382162676597e-01, -5.0707841758461901e-02,
          -4.5289175086902474e-03, 9.1326236993954108e-03,
          -3.7514391193623924e-02, -7.6519363062416260e-02,
          1.1304824861157654e-01, -1.3283837267184729e-02,
          1.7529849452873506e-02, -2.1991823104288657e-01,
          -2.6560190955168404e-02, 3.0717898458803371e-02,
          -5.4112306998638761e-02, -1.8839779953996549e-02,
          -3.4140048223308607e-02, -8.8689362652367099e-02,
          -1.7815554621414161e-02, -4.4185770412320434e-02,
          -2.6759449457749052e-01, 1.3545517065122342e-03,
          -5.1048520316439673e-02, 1.8440563709799934e-01,
          6.0091543707142675e-02, -1.8780366841224260e-02,
          -3.2894050963625431e-02, -3.9616168654698233e-02,
          -1.2293573664277323e-01, -3.1942258696938869e-02,
          -3.0606480151041882e-01, -4.1382201846662206e-02,
          4.8953220270736571e-02, -3.7174270518790256e-02,
          1.9320208588061067e-02, -1.5800739729855372e-02,
          -8.3995201961786670e-02, 9.6092557725044499e-03,
          3.9808482392035743e-02, -3.4988955164858074e-02,
          4.5940145044278430e-02, 6.3709196064848317e-02,
          6.8447286386618469e-02, -2.3491766940418793e-01,
          -3.2705921945643403e-02, 5.8446145867273550e-02,
          7.0377992417554103e-02, 3.0795961456179155e-01,
          2.7352751221046184e-01, 3.1119498746596274e-03,
          -3.3386666255219070e-02, -2.5225448889702372e-02,
          -6.0219541495608570e-02, -5.9370222495414439e-02,
          7.7956135469978968e-02, -1.3859310226059823e-01,
          5.4418179778639469e-02, -2.2420119444186482e-02,
          7.1267527226493849e-02, 1.7851593292057669e-02,
          1.3364354050411816e-02, -5.0582165639797241e-02,
          5.3933901798508321e-02, 7.4616681738890009e-02,
          1.5029685736032814e-04, -8.8092634320300511e-02,
          3.0512040482457647e-02, 7.4125663428992530e-02,
          -7.7680343032769397e-02, -4.0005823569291728e-03,
          -5.2539458935509910e-02, -9.5414744597532800e-03,
          -1.4659871846172800e-02, 1.5838015409051089e-02,
          -3.1743512297209459e-01, 6.9929717726762763e-02,
          -3.8413527828528393e-01, -3.6122751845500900e-02,
          1.9551293488699684e-01, -1.3330599087432745e-02,
          7.9136980098530485e-02, 1.4126097671295600e-02,
          4.6614872510207994e-03, -4.8925903062760311e-02,
          3.0409700427022512e-02, 9.6239271669933263e-02,
          3.9188624171739163e-02, 2.1059769702971777e-02,
          1.1398189447378318e-01, 4.1924067604360411e-02,
          -2.1013889253391121e-02, -1.1808332701332547e-02,
          -2.3257403547488786e-02, -4.7988322101508774e-02,
          8.1972814265646680e-03, -8.1770525744812875e-02,
          -1.0178620514922318e-01, -1.2530628540961682e-02,
          6.7106202052919450e-02, -6.9847261539829342e-02,
          -9.8819921596483146e-02, -4.4623528157477109e-03,
          -4.7287110268914495e-02, 1.7113505127549883e-01,
          4.7171955476831208e-02, -1.9058503301700499e-02,
          4.6399271864327310e-02, -5.9902608446363199e-02,
          -4.5692009029779428e-02, -4.4776702822106142e-02,
          -2.3182871226617530e-01, -5.2809728454583815e-02,
          -8.6373423008741373e-02, -5.4809746386680597e-02,
          7.1327742777388625e-02, 7.8650744688754951e-02,
          6.0106171211521751e-02, 3.7911129792953878e-02,
          -1.5783425441633848e-02, -7.1967211131608394e-02,
          -4.1522420126796002e-02, 5.8181647211703769e-02,
          7.0951684887116437e-02, -1.9469608226682772e-01,
          2.1792083103078588e-02, 2.4348248892242800e-02,
          -4.1011536077721608e-02, 2.5110182848564477e-01,
          9.8085937002394846e-02, 4.8791113275443221e-02,
          4.7401704197954905e-02, -9.4322252949468645e-04,
          7.3198027028422610e-02, -4.0481404707110522e-02,
          4.7232498725543665e-02, -1.1905245108557054e-01,
          3.8108658880893403e-02, 4.8124485002750655e-02,
          -5.9056857231255316e-03, 3.0158448417536277e-02,
          -5.6770883942421593e-02, 3.1513533661650162e-02,
          6.4787422585190794e-03, -6.9056587523686052e-03,
          -2.5151002983537642e-02, -5.0617998792912233e-02,
          3.3922591207319920e-02, 1.6274676977339499e-02,
          -6.2667538937232703e-02, 4.2181020300832650e-02,
          2.8878020089519289e-02, 5.9895858828752584e-02,
          6.4823461972941296e-02, -6.5458445959573855e-02,
          -1.2402764405910595e-01, -8.1709690422938658e-02,
          -2.5347357324264314e-01, 5.7882644060586845e-02,
          1.5597420820490449e-01, 2.7053033000253034e-02,
          -3.4812391421246439e-02, -5.6538591824387294e-02,
          -3.2017862652208279e-01, 2.9810640546035733e-02,
          7.5784253174210170e-02, 1.2913449789094129e-02,
          -3.7989617930255654e-02, 1.2492304804517501e-01,
          2.9751751713332948e-02, 3.2988966778781395e-02,
          -2.6884198477070400e-03, -4.9595654286890938e-02,
          -7.2551377770764952e-02, -4.1837860322486924e-02,
          -5.2175691741499074e-02, -9.7892223428583169e-02,
          1.7420866069346373e-02, 2.3319362001087120e-02,
          8.7934184135557980e-03, -5.5058913943846271e-03,
          -2.3521786336874004e-01, -7.2528818930065908e-02,
          -1.3635227102022794e-02, 1.9534523863489225e-01,
          4.1043523042414355e-02, 6.6775718309536172e-02,
          9.7216415145417664e-02, -1.8813757748036876e-03,
          -5.8542260170630703e-02, 2.2622493895334151e-02,
          -2.4199189949105573e-01, 7.1661241318755828e-02,
          6.4672303751353568e-03, 3.9813182640196535e-03,
          -3.9641532738705257e-02, -5.3821935539160204e-02,
          6.2048006805347264e-02, 2.7820019349772351e-02,
          -4.8902490660706004e-02, -5.5975054917789847e-02,
          -7.2324002419973998e-02, -1.0972543945524077e-03,
          -1.9112306708434369e-02, -1.8784325845367886e-01,
          4.2054642096280896e-02, 6.8624054686905148e-02,
          5.1258284468792773e-03, 2.0468114044764002e-01,
          6.8631069880177559e-02, 7.2689494525968831e-02,
          -4.9957840442888674e-02, -7.5005385633394057e-03,
          -2.0137613861702441e-02, 3.7524483185965553e-02,
          -4.4256527024322680e-02, -2.5625534076497938e-02,
          8.4755827066405456e-02, -5.2006869701587105e-02,
          -1.1052745618522397e-02, 1.6643861392415069e-02,
          3.8915230762369989e-02, -4.4469586492603651e-02,
          5.6675086936920582e-02, -5.7067989566583745e-02,
          -3.8052078857223552e-02, 4.3516641569758263e-02,
          -1.3349214921648133e-02, 7.7963957220911997e-02,
          3.3571613647975965e-02, 1.2588240538029399e-02,
          4.1104873769958000e-02, -4.6532865289049284e-02,
          -4.3873928457102565e-03, -5.1982238853075860e-02,
          -2.6429928833876537e-01, 6.3191550249337911e-02,
          -2.4141529940063503e-01, -3.9812092867075793e-02,
          2.3845829268704924e-01, -8.1943412062176868e-02,
          7.7159578060880668e-02, -5.3057855575293085e-02,
          -2.2080720474291976e-01, -4.6160746743919484e-02,
          -8.0893304314822519e-04, -7.8874616223295640e-02,
          -2.8117785688366766e-02, -4.0933995901222112e-02,
          -5.4514226041198592e-02, 3.6574269333388462e-02,
          -5.8130619888192301e-03, 7.8817705737010430e-03,
          4.7514048291268547e-02, -7.3793693484460479e-02,
          5.9561355650874580e-02, 1.6759178707277271e-02,
          8.7467914542684363e-02, 1.0773203547329467e-01,
          -6.4826887973813956e-03, 6.9466176480126041e-02,
          -1.4579011397193217e-01, 5.4943141132929627e-02,
          2.0282552405444583e-02, 1.4360658267132473e-01,
          2.1915894707376107e-02, -5.2101193126516876e-03,
          -5.4732635909198572e-02, 5.3027018278138261e-03,
          -7.4786047952341991e-02, -2.3146324074331277e-02,
          -9.7544915710181895e-02, 4.4089413300318840e-02,
          -2.2615606613435896e-02, 1.8208090471921380e-02,
          4.4749021098917124e-02, -3.9386451474968396e-03,
          3.2531219082501180e-02, -3.4597481907660738e-02,
          -1.3211468769814499e-02, -4.3495358221639066e-02,
          -6.7244279970505874e-02, 2.0950784430555956e-02,
          -2.2194892738194749e-02, -1.4106613139297591e-01,
          -5.3321996256259170e-02, -5.8160869455686881e-02,
          -4.8027303600946661e-02, 1.4156760640412230e-01,
          8.2001162624323540e-03, 4.5698235215100386e-02,
          -3.2066468419691151e-02, 3.8912993285117367e-02,
          6.5709466520384452e-02, 2.9558613985827854e-02,
          4.0724850545999065e-02, -8.5072538694400360e-02,
          6.3593078439704104e-02, -3.9256021552710442e-02,
          4.3800273403260988e-02, -1.0284009978031907e-02,
          -3.1703046811148397e-02, 2.1589326730869440e-02,
          -1.3191935285918437e-02, 6.5272193846605459e-02,
          -6.4473495194453029e-02, -2.0716522675319204e-03,
          3.2869928267296469e-02, 5.6049662799513601e-03,
          -6.5039165363651633e-02, -1.2380071151865592e-02,
          1.7235485304598321e-02, -4.4285678636884339e-02,
          -8.5652917543762433e-02, -1.3726096269655865e-03,
          -7.6581542636937186e-02, 7.2609066226720167e-04,
          -8.4469463825703417e-02, 6.7414212068742568e-02,
          7.8690885456732640e-02, 2.0942876082128470e-02,
          -5.7612094059910711e-02, -3.6877452573057905e-02,
          6.2186018995475718e-02, 1.6756195153762834e-02,
          -1.9529521874195356e-02, 9.4102060629468451e-02,
          -4.9667356319851863e-02, -1.2763318000262142e-02,
          -3.0276169778978804e-02, 2.4359193710335458e-02,
          5.3316363081734840e-02, -2.4533403531559798e-03,
          6.3313833882209028e-02, -2.5349738809996473e-02,
          3.2498078304505393e-02, -1.0730325038328818e-01,
          9.2579733083883991e-03, -2.3068811675544181e-02,
          7.3298748399740363e-02, 5.0793225765933106e-02,
          -1.0964723871444004e-01, 7.3210121295790215e-02,
          6.6174720418919405e-02, 5.0737021833730696e-02,
          -3.1822659018636512e-02, 1.2360911211279552e-02,
          2.8655445985487651e-02, -7.3090285789153289e-02,
          -2.8854089925374252e-02, -5.7594160278580102e-02,
          -6.5283499707326262e-02, 3.0530949182989226e-02,
          -2.5256983423933163e-02, -4.8328227442002375e-03,
          4.7111613533260127e-02, 9.5912907480780282e-02,
          -9.0539543232501393e-02, 2.8574178205113012e-02,
          -3.2972909828991474e-02, 7.8456333988055932e-02,
          6.2397932002230788e-02, 6.1368360967736749e-02,
          6.2083228372132863e-02, -2.5919064788864851e-02,
          -2.7571747642173104e-02, -3.7620284593504492e-02,
          6.2900926754947045e-02, 7.9753362706254896e-02,
          4.8347427441373728e-02, -7.2506960699045983e-02,
          7.9508690628990103e-02, -7.0732166562705021e-02,
          -4.6381846269331728e-02, 1.2302380534224307e-02,
          4.4502213188489417e-02, -2.9654604455791336e-02,
          -2.5108752423047422e-02, 4.1760551375287933e-02,
          3.5806754545490219e-02, 3.5332676627646974e-03,
          6.0804418991732452e-03, 6.1313230306353925e-02,
          -6.6643955215569484e-02, -1.5424181138591985e-02,
          3.5878790289056293e-02, -8.6402772600338729e-03,
          -4.1157005080068254e-02, 5.2692548054151862e-02,
          -9.6027490895371857e-03, -2.8348332655427900e-02,
          -5.4673861621846532e-03, 1.1431269613573816e-02,
          3.9261255683765546e-02, -6.9758582141823997e-02,
          -1.2253170286279548e-01, 2.8922499349667775e-02,
          -1.4203057568472036e-01, -8.4796145587410582e-02,
          1.1289768241458852e-01, 1.9397543079987006e-02,
          -1.3311507849611414e-02, 6.3718767996967726e-02,
          1.8569240397595544e-02, -1.4952651686075665e-03,
          -7.2705876288396226e-02, 3.2305155025270711e-02,
          2.4304631713922852e-02, 3.7764446565232000e-02,
          -5.3982016564560927e-02, -9.3138389710252425e-03,
          -5.8069053709308219e-02, 5.4291590909228478e-02,
          6.8589943647640830e-02, 5.0747205078429038e-02,
          3.1679001613470611e-03, -5.5838215866449929e-02,
          1.1329270974126145e-02, 5.3392726717228528e-02,
          3.8670594897865056e-02, 3.4324180857397767e-02,
          -2.5365457653069693e-02, 1.6448696677089630e-02,
          -5.4255535078134819e-02, -2.6189988393016634e-02,
          1.3740210586751045e-02, -9.8231833194919651e-03,
          -2.2616142502113742e-02, -5.9859143021098050e-02,
          -5.1622201061504482e-02, -5.4812573947858163e-02,
          -1.3268442123037075e-02, -1.3997601072784527e-02,
          -3.3762294165853871e-02, 2.8381567011150029e-02,
          -3.7914296051933832e-02, -2.4826959273209579e-02,
          4.5255738659619047e-04, -7.1730606973521197e-02,
          5.4362007096785764e-02, 4.8632298164786980e-02,
          -7.0029519651156310e-03, 5.0362881260616089e-02,
          -7.5987513368900611e-02, -4.9036921175603591e-02,
          1.1298929980283620e-01, 3.5040907902128805e-02,
          7.2249208771558007e-02, -4.7716656630132116e-02,
          -8.7803508935631516e-03, -1.9235970534724011e-04,
          2.8898460114587257e-02, 2.1741137152564448e-02,
          5.3509243975903759e-02, -6.0259647191678950e-02,
          -2.2035027948190386e-02, -6.5852593631269773e-02,
          -8.5196195015902532e-02, -1.5638803864226874e-02,
          3.6690479677961685e-02, -7.1688649817960845e-02,
          -1.3349925419355117e-02, -6.3705833726375949e-02,
          -3.8689884212922299e-02, -2.6174722890150878e-02,
          -6.3439918747152213e-02, 2.9475055927394533e-02,
          2.6405427041609593e-02, -2.3182228631112065e-02,
          -4.0351335883658093e-02, 1.7328176820468558e-02,
          1.3857788243049741e-02, -5.4568868112699065e-02,
          8.6871462370037809e-03, -6.8996694378324888e-03,
          3.1088106255359474e-02, -1.6047162413017135e-02,
          -6.5745988260238697e-02, -3.6922597850803436e-02,
          1.0503619308043477e-01, 7.6268316395987787e-02,
          2.1437785088704805e-02, 6.2022241371537563e-02,
          5.1287823857774262e-01, -2.5476485647524267e-02,
          -3.2371453201959194e-02, -7.9152608949194445e-02,
          -2.6448313770392803e-02, 2.8550477941443459e-02,
          7.2299681094077700e-03, 5.4354572601771144e-02,
          -2.9688055239554603e-02, 4.2712415207458297e-02,
          3.2313437971659711e-02, 5.4948468421312444e-02,
          5.5775828512587035e-02, -4.8837116353139559e-02,
          -1.2000274212368796e-02, 9.2871164981074769e-02,
          1.3797856072104247e-02, -3.5461467577310106e-02,
          1.1998608165090409e-01, -5.2213151542659632e-02,
          4.5992371352924867e-02, -1.6572286306144198e-03,
          8.8875066089411179e-03, -5.5751416057825832e-02,
          1.0105952553383472e-01, 4.2106978886807117e-02,
          2.6399050594910899e-02, -7.3274307424126259e-02,
          6.6064942125163520e-02, 1.2336586130052989e-02,
          4.7186137860285263e-02, -2.0945710043589276e-03,
          -6.5161135895912145e-02, -4.3700756943809677e-02,
          -5.4546925778674843e-02, 8.6663640505073733e-02,
          5.3410711832521648e-02, 5.8471217899974462e-02,
          5.9442178818329493e-02, -2.6053138700674768e-02,
          -6.8761036788188193e-02, 8.0461919371876495e-02,
          1.3148978186133978e-02, 6.4090490033402045e-02,
          2.9358402036866627e-02, -1.5041316305033908e-01,
          -1.2683236920154914e-01, -6.4646976325171523e-02,
          -2.2460893511051076e-02, -5.8173613516031321e-03,
          -8.2102543994699934e-02, 3.3786644640456769e-02,
          4.8939233485585654e-02, 7.0904212502464425e-02,
          1.6930575571838951e-02, 7.4507294514785480e-02,
          5.5211289911095297e-03, -1.8923722256777600e-02,
          2.8926260760143315e-02, -3.3718085862143428e-02,
          -1.1231605096976146e-02, -3.0513960304663301e-02,
          4.8589697422496718e-03, -2.7353736040831838e-02,
          4.3922247094130319e-02, -2.7978580724908046e-02,
          -1.5769967711655376e-02, -4.4963202431196489e-02,
          2.8329618306433046e-02, 5.0660285793379396e-02,
          3.5790618260371783e-02, 5.6985603021854091e-02,
          9.2169269551579294e-02, -1.7129672033281040e-02,
          8.9172487280821333e-02, -1.2340350749140349e-02,
          -3.5841161060838019e-02, 3.0608282724707021e-02,
          -6.7084674977584510e-02, -2.1937789443008615e-02,
          -3.6222678169254358e-01, -1.1130058826758929e-02,
          -2.4096398034993978e-02, -1.2394561892841998e-02,
          5.5320727089839844e-02, -1.6700292169382919e-03,
          -2.7729998827881991e-02, -2.3423578633828272e-02,
          -2.9516191969163160e-02, 9.2376858109635529e-02,
          7.5911729726270026e-03, -5.7045627338331364e-02,
          -7.0140055112490093e-02, -7.7308126793786999e-02,
          1.8378947418727871e-02, 3.9699437278469529e-02,
          8.4698799029388663e-02, -1.7002244212676963e-02,
          -2.6920592665513114e-02, -9.1029824136794387e-03,
          1.0510234220183330e-02, -3.9066505521799334e-02,
          -4.3185261768056663e-02, -4.9307131634830727e-02,
          4.9148045624563569e-02, -4.8956909754378020e-03,
          9.0769566880188821e-02, 7.9244541226979118e-02,
          -4.5707433534840133e-03, -5.0785024217114630e-02,
          -7.5136759531906202e-04, 5.4358488747853892e-03,
          9.1387098428697289e-03, -7.7216367038474593e-02,
          5.4203984077334982e-02, -4.4003065197562446e-02,
          -4.0628836989814267e-02, -3.0189403983432690e-02,
          7.6885494017918679e-02, -7.6296204918802582e-02,
          -7.3542722147387746e-02, 1.8767536274035958e-02,
          -5.3439561440211572e-02, -1.1034295532418577e-02,
          -3.1708498054158825e-02, 3.5424910183284093e-02,
          -4.4565611160651088e-02, 2.7902805704404753e-02,
          9.0076448001218529e-02, -2.6687587271848185e-02,
          2.9230195764620860e-02, -2.8878932457522804e-02,
          4.4378348326123307e-02, 7.0130091573191805e-02,
          -4.0453634610968993e-02, -2.1248541389418684e-02,
          1.0064123718786017e-01, 3.4437528660505236e-02,
          -5.9518325729310741e-02, -6.7508876236585955e-02,
          4.6074397860376301e-02, -1.9504357165373949e-03,
          -4.7226475695012531e-02, -3.5623051013131138e-02,
          1.5018185628042655e-04, -4.7211056085756722e-02,
          2.6594090499792735e-03, -9.4621237628961432e-03,
          -3.2903451237087447e-02, 1.1779651426342665e-02,
          7.8663702273654601e-02, -9.0536437733304997e-02,
          2.7285847776831323e-02, 6.6994949972821863e-02,
          8.5924266694742180e-02, 1.4623404650124917e-02,
          1.4948544099034258e-01, -7.5081302968145663e-02,
          -5.6959367375363029e-02, 1.8048552360755272e-02,
          1.1913703324953668e+00, -1.5901960690655415e-02,
          -1.8714305069880328e-02, 7.0166943134789307e-03,
          -2.9502673994484047e-02, -3.9113485822549365e-02,
          -4.6307821670613050e-02, -4.4841004859645206e-02,
          1.8584755362499310e-02, 7.8870006958774372e-02,
          8.5442956987462626e-03, 9.2448152491965609e-03,
          1.6605196728747683e-02, 2.0872259575417166e-02,
          2.4503080992740935e-02, 3.3082105033911541e-02,
          1.3366498190900997e-02, 2.8826098323934374e-02,
          1.5497962536104659e-01, -7.2126821476322127e-03,
          3.5710639615121754e-02, -1.4824419775431411e-01,
          2.5055965302289616e-02, 3.4906940078479415e-02,
          8.2331458692891327e-03, -2.8571717912024414e-02,
          2.7010381808882079e-02, 3.7181541251739308e-02,
          1.6426963770654460e-01, -4.2967956197717247e-02,
          -4.3801604911943938e-02, -1.6173154448057100e-02,
          -3.5429058579095937e-02, 4.0772377477749776e-02,
          1.3382655780308055e-03, 7.6179559962811394e-02,
          4.9353710607845443e-02, 9.5076338530516724e-03,
          -8.2171958331825057e-03, -3.8363729576951881e-02,
          -4.0616946972955606e-02, 1.5791459856360784e-01,
          1.6387152720365106e-02, -6.3555001028782910e-03,
          3.4480189357243854e-02, -2.1087231713262664e-01,
          -1.5013890221918391e-01, -7.2277665321779519e-03,
          -3.0784485135118920e-02, 1.3024823815838058e-02,
          -1.3229971563346809e-02, -1.0560236926719193e-02,
          -3.0001913026853313e-02, 3.2476273172186931e-02,
          -4.3956324196021579e-02, 1.5499330979330598e-02,
          -1.2566218398982301e-01, -2.6768575346276164e-03,
          -2.2966218691199275e-02, -7.0254145114882786e-03,
          -5.2232901212290357e-03, 4.4147640765639394e-02,
          2.1622198912014924e-02, 1.7676390101423162e-02,
          1.2209343634143459e-02, -4.7895861381120869e-02,
          4.2033463995357033e-02, 1.3929409892884347e-02,
          -3.3596116476463017e-02, 6.5777472550736151e-03,
          2.0136072741355437e-02, 3.4487679603968764e-02,
          1.6984380613068292e-01, -4.6962271027536411e-02,
          1.2157095240342869e-01, 4.2728891963297995e-02,
          -1.8153106285117113e-01, 1.6890562809454463e-02,
          -2.5636927044978188e-02, -8.8693100560243727e-03 ]
      - [ -1.7787209004277120e+00, 5.6100270057066103e-02,
          7.6912638407016698e-01, 4.7582451914012214e-01,
          2.1156819134959490e-01, 6.3673776660847037e-01,
          -7.8539907195805858e-01, 6.6641736442698696e-01,
          -1.9810788883771632e-01, -1.0764091563300082e+00,
          4.4723657252230004e-01, -8.0771479414702629e-01,
          -6.2493089823292092e-01, 7.8448664849312399e-01,
          -5.5951302028805838e-01, -4.1002150513167007e-01,
          6.7622035078320997e-01, -6.4086223499094686e-01,
          -1.0719139535763629e+00, 7.1090983747485736e-01,
          2.1414775371000466e-01, -1.0537556809247031e+00,
          -2.7575069667059776e-01, -7.5432485671946148e-01,
          6.9604555200589113e-01, -1.1295444893084461e+00,
          -9.3153379651512325e-01, 4.3253105804696229e-01,
          -9.7391481091218812e-01, 5.5291704381620499e-01,
          6.2205782854228830e-01, 9.0777929205808711e-02,
          -1.5831075787049587e-01, 2.5437655267647785e-01,
          2.7593656349488244e-01, 8.5142393098174451e-01,
          -9.8330597566833966e-01, -6.5654384613315175e-01,
          -5.0376903752303992e-01, -7.0727605049726949e-01,
          -9.6358442234835118e-01, -9.7892145168771560e-01,
          4.7732969030262978e-01, -6.2900659565006761e-02,
          4.1414949629784492e-01, -8.9695524769509327e-01,
          -1.0186794723937880e+00, 4.6594456639014892e-01,
          8.1162821354340897e-01, -6.1856163761888427e-01,
          -6.1051261301006510e-01, 4.9667643860064517e-02,
          6.2885925758060435e-01, -7.9303564397812731e-01,
          -1.0599831425083610e+00, -5.0066524032449677e-01,
          7.0573768554032923e-01, -1.9034731776364849e-01,
          4.2823029019404985e-01, -5.6824904817098310e-01,
          2.9236029469172298e-01, 8.8986880925566517e-02,
          5.0054520245457812e-01, -2.8416880311431758e-01,
          8.4963163885967230e-01, -4.1916914707831349e-01,
          2.1139242294405891e-01, 2.9938060452084264e-01,
          5.6437993849638524e-01, 4.3735233181795019e-01,
          -4.9607111245713154e-01, 3.9917189421928112e-01,
          -1.0874988064010547e+00, 1.0402714367710784e-01,
          -1.2898243479249576e+00, 7.1419735825138686e-01,
          -8.8682239403133711e-01, 1.3632988833780227e-01,
          7.3345048221861597e-01, -3.0376269171310843e-01,
          -8.2456920636494446e-01 ]
