%YAML:1.0
my_nn: !!opencv-ml-ann-mlp
   layer_sizes: !!opencv-matrix
      rows: 1
      cols: 3
      dt: i
      data: [ 24, 80, 1 ]
   activation_function: SIGMOID_SYM
   f_param1: 5.9999999999999998e-01
   f_param2: 1.
   min_val: -9.4999999999999996e-01
   max_val: 9.4999999999999996e-01
   min_val1: -9.7999999999999998e-01
   max_val1: 9.7999999999999998e-01
   training_params:
      train_method: BACKPROP
      dw_scale: 1.0000000000000001e-01
      moment_scale: 1.0000000000000001e-01
      term_criteria: { epsilon:1.0000000116860974e-07, iterations:800 }
   input_scale: [ 1., 0., 1., 0., 1., 0., 1., 0., 1., 0., 1., 0., 1., 0.,
       1., 0., 1., 0., 1., 0., 1., 0., 1., 0., 1., 0., 1., 0., 1., 0.,
       1., 0., 1., 0., 1., 0., 1., 0., 1., 0., 1., 0., 1., 0., 1., 0.,
       1., 0. ]
   output_scale: [ 1.0526315789473684e+00, 0. ]
   inv_output_scale: [ 9.4999999999999996e-01, 0. ]
   weights:
      - [ 2.7879332141084416e+02, 3.0058226506114583e+00,
          1.3083725044471921e+00, -2.9581612056356876e+00,
          -5.0660496953994993e+00, -3.1813567402110072e+00,
          -3.0108828875040898e+00, -3.8982415554162015e+00,
          -3.0605263508927134e+00, -2.7895445214476915e+00,
          3.0897881470648900e+00, -3.2667086908076364e+01,
          -3.2324595403490783e+00, 2.9066993350534287e+00,
          -4.8952953356010704e+00, -3.1213987139274160e+00,
          -3.0686382429301240e+00, 3.7538346124295741e+00,
          2.3422971773410630e+00, 7.2185007095167304e+00,
          -3.1423815929931425e+00, 3.1062019138477703e+00,
          3.0686584174608651e+00, 2.8607172842702244e+00,
          3.0996893911788121e+00, -3.4308682243607000e+00,
          1.2890840874241671e+00, 3.1354142993473029e+00,
          -2.5809525579113797e+00, 9.3793876801040863e+00,
          3.0507978765329380e+00, 3.1260622064311678e+00,
          3.1507701598003877e+00, -1.7162146293998113e+00,
          5.6831434914080177e+00, 3.0356995437818366e+00,
          3.7618968975565652e+00, -3.0333243105976844e+00,
          1.0615645930229311e+01, -2.9611198584630460e+00,
          3.1195869238810832e+00, -2.9806530664749245e+00,
          -2.1131038474672530e+00, -1.4121426239702015e+00,
          3.1492026155160069e+00, 3.5866672932769279e+00,
          -6.6707840352338605e+00, -1.2096096603040014e+00,
          -5.7035348524148066e+00, 2.7848960582602502e+00,
          2.8061839715567118e+00, 2.0309224377583419e+01,
          2.9713419476445355e+00, -3.1053639287959953e+00,
          -4.6036725315966045e+00, -2.1643098352716743e+00,
          -3.7175806398834856e+00, 5.1554241138602528e+00,
          -2.9321531980352833e+00, 3.0638782193819090e+00,
          3.1544564859014730e+00, -4.6856106842977958e+00,
          2.9180826246136355e+00, -3.5971248173145312e+00,
          9.9504522209377910e+00, -3.1911485792705054e+00,
          -2.1472624358727384e+00, 3.1308261540181883e+00,
          2.8744264023563448e+00, 2.6678588811334127e+00,
          2.7679087226000274e+01, 2.3316451620241785e+00,
          2.9058022657923170e+00, 3.2173923321677478e+00,
          -2.7741832371545416e+00, -1.5051133730659956e+00,
          -2.7978259824392540e+00, 3.2590525099186585e+00,
          -4.6227944724996668e+00, -3.4932122548131761e+00,
          2.9253772368379202e+02, 2.8221824115520766e+00,
          1.6127839431452415e+01, -2.8705100856632346e+00,
          -2.4778554872578851e+00, -2.7996213103391145e+00,
          -2.7580111641132015e+00, -9.6293118434486158e-01,
          -2.9909090190348291e+00, -2.6940255468400260e+00,
          2.8085885768699614e+00, -9.2249258211250353e+00,
          -2.8742446357443718e+00, 2.8858335227581935e+00,
          -1.4112769660946816e+01, -2.7561470164497957e+00,
          -2.8010087846144778e+00, 2.6761278283576067e+00,
          -7.8004190973598782e+00, 6.0203648390048370e+00,
          -3.1216913383572145e+00, 2.8948186564778369e+00,
          3.4722688735273874e+00, 1.8065762798515070e+00,
          2.8802921857190613e+00, -2.8036482455494078e+00,
          -1.2632145468891320e-01, 2.8410148551628240e+00,
          -2.5216612149759086e+00, -2.6811289172489690e+01,
          2.9332067035815177e+00, 2.9591219176726686e+00,
          2.8256724502772599e+00, -1.6151279740113837e+00,
          3.4368696914673751e-02, 2.8683171943349346e+00,
          2.6500310868394781e+00, -2.7710648791049781e+00,
          -1.3849375737318647e+01, -2.8906374797943823e+00,
          2.7748592818341140e+00, -2.9158221627413403e+00,
          -1.9773075126406598e+00, -9.6522151936250122e-01,
          2.8622177418666559e+00, 2.7970007104317123e+00,
          6.1667649139713265e-01, -7.2491819962935666e-01,
          -1.2676589864403238e+00, 2.7312046258967917e+00,
          2.7487346302908953e+00, -2.4524780730582867e+00,
          3.0014640798392764e+00, -2.8785887583478131e+00,
          -1.8186985532025715e+00, -1.9307053046951477e+00,
          -2.7365303290638274e+00, 7.3486117986801487e+00,
          -2.7708803044917034e+00, 2.7617098415853709e+00,
          2.8473041932337106e+00, -1.7861813590612270e+00,
          2.8395947457686859e+00, -3.0088757358413867e+00,
          1.0987708497274676e+01, -2.7782008804172200e+00,
          -1.8654821987180108e+00, 2.9885272776939407e+00,
          2.6926047779871536e+00, 2.6485270078878949e+00,
          -8.3863292644538170e+00, 2.3569111641500644e+00,
          2.8385230574149869e+00, 3.0240399664472966e+00,
          -2.6635831408611397e+00, -2.3350155226944267e+00,
          -2.7900957625954810e+00, 2.9049110361906818e+00,
          -2.5318761049869210e+00, -2.8383270104296141e+00,
          1.5379259295460042e+02, 1.4910888243393641e+00,
          6.5267143337386360e+00, -2.3908229500040856e+00,
          -1.7576752322854938e+00, -2.7321321468242985e+00,
          -1.4855242036968810e+00, -6.5924084684225477e+00,
          -1.6687136731728494e+00, -1.3823752081470035e+00,
          1.6534501958570886e+00, -1.0465126692529991e+00,
          -1.6682840045702079e+00, 1.8303112027114925e+00,
          3.5419561069749941e+00, -1.5608591593356524e+00,
          -1.5427715189406350e+00, 2.0055844172925288e+00,
          -1.1400175770383534e+01, 4.8483923123649690e+00,
          -2.5938001157895045e+00, 1.8180834970963315e+00,
          2.7189061588806602e+00, 7.8303590210775742e-01,
          1.5084570315148096e+00, -1.9592285079625504e+00,
          -2.5896512898871125e+00, 1.6896835057313004e+00,
          -1.0103598625724781e+00, 2.6879140647153386e+00,
          1.7123845975929066e+00, 1.8381841541420070e+00,
          1.7484696031648734e+00, -1.0851763539084860e+00,
          1.1359348114521060e+00, 1.4946971344345807e+00,
          2.0111024082152742e+00, -1.5754399810406039e+00,
          -3.7278973691377626e+00, -2.7213382065399361e+00,
          1.8952743964510439e+00, -1.6943433159654870e+00,
          -1.1026767246002795e+00, -1.5374673590091650e+00,
          1.7114303645398530e+00, 2.2476660157389325e+00,
          8.7771523943431369e+00, -1.6451383803858912e+00,
          -2.2883499560849105e+00, 1.1049730446421737e+00,
          1.2014789026359165e+00, -1.2634046231695519e+01,
          2.1632229827330178e+00, -1.1916700554512170e+00,
          -2.6642755050688747e+00, -1.1052891323518432e+00,
          -2.1836851566047182e+00, -8.4974699699161622e+00,
          -1.4665938070603795e+00, 1.6239563801136101e+00,
          1.4888149678764022e+00, -9.5890942077341745e-01,
          1.4328753074447507e+00, -2.0708649207225238e+00,
          -8.2594525480601924e+00, -1.7378716877389011e+00,
          -9.5985937398186305e-01, 1.9991920547991968e+00,
          1.3107005391770312e+00, 1.2809361475421865e+00,
          -1.1463199282147791e+01, 1.1390674135476442e+00,
          1.4395711495228254e+00, 1.8535853026094655e+00,
          -1.1832043048341758e+00, 6.8924255565950765e-01,
          -1.4112664749784056e+00, 1.7195711600789796e+00,
          -2.1632901988733972e+00, -1.8409475316671935e+00,
          6.1283803163011221e+01, 6.7019983154108487e-01,
          -1.1107626162499358e+01, -6.1702763328371035e-01,
          2.7024243702500911e-01, -6.2440732807812283e-01,
          -5.7438092078917824e-01, -1.9590392365485081e+00,
          -6.6769903799660912e-01, -6.0918916144255542e-01,
          5.8510009113536710e-01, -1.3314492360066666e+01,
          -5.5598942855978373e-01, 6.6395971450983016e-01,
          3.0764905205491053e+00, -6.2452945142445893e-01,
          -6.0210111627933582e-01, 4.3425415362020375e-01,
          1.1374355446122252e+01, 1.4800379314922479e-01,
          -6.1997129425356234e-01, 6.1586954452847853e-01,
          8.1960999416237346e-01, 1.0803562698408127e+00,
          5.6668414138116918e-01, -4.0864247741626036e-01,
          -2.7342105024923522e+00, 6.4674979142632760e-01,
          -7.3976811267476172e-01, -1.3039369855722371e+00,
          5.4535488777512187e-01, 6.3871736404547363e-01,
          6.3396882645904140e-01, -9.8009942911016701e-01,
          -1.2397012688074494e+00, 6.4668727718742569e-01,
          3.9401200193865499e-01, -6.7370343956167389e-01,
          2.4832720519112517e+00, -8.3468297913629586e-01,
          6.4713567025755891e-01, -6.6518349753627970e-01,
          -8.4990646051492746e-01, -1.1655196712806459e+00,
          6.4223667919349414e-01, 4.2546086258655785e-01,
          3.5692438073944217e+00, -1.1868249535783872e+00,
          -1.6713257469834531e-02, 6.1385584014401218e-01,
          6.5681387974768057e-01, -9.5729128758570372e+00,
          6.8832250896674430e-01, -7.3610448030439013e-01,
          1.7664344931080081e-01, -7.1086847808811549e-01,
          -2.9468584972462547e-01, -3.6136082194615344e+00,
          -6.7205274315426589e-01, 6.9215784936590674e-01,
          6.9730878200154223e-01, 2.9892603500501962e+00,
          6.7834380376207704e-01, -3.8999067196706283e-01,
          -5.9489049068043194e+00, -5.9115555422199706e-01,
          -8.9762721379792876e-01, 4.8688365349515178e-01,
          6.7098688907838422e-01, 5.9391155114755612e-01,
          1.0870106400123534e+00, 5.6211038132420277e-01,
          6.5435266082066701e-01, 5.0651628661932901e-01,
          -6.1427966134877465e-01, -8.4725849461687925e+00,
          -6.8466159785141267e-01, 5.8781780158446673e-01,
          -1.0321210482199129e-01, -5.4840238422846166e-01,
          5.8976688518128313e+01, 6.6375138449379034e-01,
          -3.9505800161965019e+00, -6.2705465215821321e-01,
          4.3371903091447631e-02, -6.2816555661625217e-01,
          -6.5443477916507775e-01, -9.2351780503314385e-01,
          -6.1817643296449754e-01, -5.4542837312288472e-01,
          7.0357670700404562e-01, -9.4108761582423668e+00,
          -5.4662809633448850e-01, 6.9511986095884570e-01,
          6.2285143008263635e+00, -6.8996945149392619e-01,
          -6.9344624192744986e-01, 4.3183333043995720e-01,
          5.5245349686001530e+00, -9.7108388193157025e-01,
          -6.8493146298231722e-01, 5.6186074520856766e-01,
          3.7985793431834214e-01, 4.6949243232097049e-01,
          5.7567715319976565e-01, -5.0095885216963032e-01,
          -6.8602189459982299e-01, 6.0078677383056023e-01,
          -5.7374723178684506e-01, -2.6464048946157530e+00,
          6.4724821839305402e-01, 6.2248134629002738e-01,
          6.2780980134869957e-01, -8.7191764948339778e-01,
          -4.0983059037087072e-01, 5.6573435338187839e-01,
          5.1069729933534402e-01, -6.1078039280870966e-01,
          -5.5485834918620789e+00, -6.8522802207457711e-01,
          6.2596450425019434e-01, -5.9332918443136085e-01,
          -4.3925839249310522e-01, -4.3567921740930543e-01,
          5.7154280539385827e-01, 4.3880955680475120e-01,
          1.7507941475656681e+00, -5.5505113945683870e-01,
          -2.7306634337306213e-01, 4.1993357896991856e-01,
          5.7319842929135600e-01, -1.9171933205375860e-01,
          6.0559052362008237e-01, -6.2536282675161969e-01,
          -1.8253512274778391e-01, -4.7262934557326602e-01,
          -4.5107022666454250e-01, 2.0557772849578124e+00,
          -6.8047323018373218e-01, 7.0260168177653015e-01,
          5.6574950788076350e-01, -2.3226509359163767e+00,
          5.7700788124506064e-01, -4.4224399087696825e-01,
          4.2335779350952327e+00, -7.0244245230804214e-01,
          -8.4250896327399949e-01, 6.4139438828397000e-01,
          5.1255682934388802e-01, 6.0529006356590376e-01,
          -1.0451479719177444e+01, 4.4883133758593402e-01,
          6.5620857005722588e-01, 6.8560145245389470e-01,
          -6.1002914064357827e-01, -8.2034079956933201e+00,
          -6.2526819716737303e-01, 5.6679215298033503e-01,
          -3.3098840450003109e-01, -6.3451849602009325e-01,
          6.5257328310082286e+01, 6.7456557092915703e-01,
          -5.6639946628104267e+00, -3.2355129737404814e-01,
          4.8600452520975845e-01, -2.2433740767523788e-01,
          -7.2563987249693906e-01, -2.0724229585480025e-01,
          -4.3960173069358038e-01, -7.5573725809352255e-01,
          6.2138828454194861e-01, -7.3314444809979706e+00,
          -4.0261920029130055e-01, 4.9024303472578290e-01,
          -1.5512238821476112e+00, -5.4744691196125239e-01,
          -6.9658184074539442e-01, 2.1134774504474058e-01,
          2.5333435062614171e+01, 2.0895705247683396e+00,
          -1.8949949996321933e-01, 4.5514763128635094e-01,
          4.8500945450816368e-01, 1.4013430028096145e+00,
          6.2674374880754624e-01, -2.7169598539929046e-01,
          -8.9271594001547094e-01, 4.5859775814649573e-01,
          -9.8019430450922196e-01, -7.6556796910637122e+00,
          4.6056458642299858e-01, 4.2159186127019638e-01,
          5.0820080387680633e-01, -6.5385511008928043e-01,
          -1.2907655868217014e+00, 6.5971534321222258e-01,
          3.1540428395076714e-01, -6.8445397133446773e-01,
          9.9346530932931056e+00, -3.6216105799225301e-01,
          4.3557501872959281e-01, -5.8222115253903106e-01,
          -9.9829361420337992e-01, -1.1941916689729006e+00,
          4.3517874296544584e-01, 9.0648399512492275e-02,
          -2.9534013574532985e+00, -1.4062245869934129e+00,
          1.7724120791996714e-01, 1.0771452357491937e+00,
          9.7664376717810242e-01, 1.1583393242283524e+00,
          3.4062332673373608e-01, -9.0460991702779436e-01,
          4.3135340254038945e-01, -1.0467193439083260e+00,
          -1.1684735210243277e-01, 4.1847988921977688e+00,
          -7.4036025416079410e-01, 6.3551476055754852e-01,
          6.6185808936423907e-01, 1.5496757316079743e+00,
          7.7143755550869886e-01, 1.9785603043138925e-02,
          -1.2567888653794701e+00, -5.1477484666875473e-01,
          -6.7538933630418307e-01, 2.5912907442717592e-01,
          8.4497115784258159e-01, 8.0582155896554430e-01,
          1.0861532927960587e+01, 1.0196317848529766e+00,
          7.2430344925878143e-01, 2.9312055440729312e-01,
          -8.3294124637414801e-01, 3.6657986463714570e-01,
          -8.9228542400771893e-01, 4.2631532852005560e-01,
          2.1290399045047578e-01, -3.1379124199024272e-01,
          5.4972707332287818e+01, 6.9752535209049027e-01,
          -6.3144834161909689e+00, -9.5636608588539429e-01,
          -8.4071439651545310e-01, -8.6330191791165400e-01,
          -6.5664504210828722e-01, 2.0974910433993597e-02,
          -9.3286544502736879e-01, -5.7154976146925596e-01,
          8.0523318868153893e-01, -1.0599784614645211e+01,
          -7.6733056278766021e-01, 9.2162356150435709e-01,
          7.6311333516929336e-01, -8.2420566537830897e-01,
          -7.1057081799436961e-01, 8.3279808167613745e-01,
          2.4735881139414682e+00, -4.4015896668774968e+00,
          -9.4617974103151337e-01, 7.7845990466587733e-01,
          5.6676178020947254e-01, -5.9249908459127931e-01,
          7.0776173490882366e-01, -8.6581022135935448e-01,
          1.9795787013156225e+00, 7.3958524492597544e-01,
          -3.5715279611808243e-01, 6.0531625372012092e+00,
          7.9969009620083165e-01, 8.5629413050596148e-01,
          8.6740371502439062e-01, -2.3040148140037608e-01,
          9.1527983622612930e-01, 6.4431408269250767e-01,
          9.5620271299779780e-01, -6.8243823403191639e-01,
          -8.9436848432873273e+00, -8.0901156269348340e-01,
          7.6744758777948685e-01, -7.5008278549891172e-01,
          1.7502075108919934e-01, 7.9675718875270007e-01,
          8.0394900216098175e-01, 8.5303464188634170e-01,
          4.1184581318644753e+00, 1.0442734874934450e+00,
          -1.0382533699691030e+00, 2.8221739745328966e-01,
          5.0469633960501536e-01, 7.3974522980632571e+00,
          8.6306499198923026e-01, -4.6323565916107706e-01,
          -8.6173107098032542e-01, 2.9337471002894917e-02,
          -9.8000671528937700e-01, -1.7236723023227030e+00,
          -7.4757279644671282e-01, 7.8920726625602067e-01,
          7.2437204792498844e-01, -6.8651946152536070e+00,
          5.6540023453956922e-01, -8.7586068384695082e-01,
          5.7897490447385040e+00, -8.2042721465786361e-01,
          -3.6443546429254892e-01, 9.9973953770411039e-01,
          5.8930072417053958e-01, 4.0877207498783913e-01,
          -2.2265499190463629e+00, 1.4286448109491812e-01,
          6.9148556366534097e-01, 8.5453815244195686e-01,
          -5.5186203833681990e-01, -6.9800810985104986e+00,
          -5.7993919020077744e-01, 7.3243982311391786e-01,
          -9.3691912373621467e-01, -8.8495061892155902e-01,
          4.1994609646586419e+01, 3.0915418504132192e-01,
          -1.1414179187258453e+00, 1.6928897487166951e-02,
          1.4454327741927793e+00, -8.8090783798274785e-02,
          -2.9970437709801545e-01, -9.4927092194042412e-02,
          -1.6513604119991065e-01, -6.2604536039722414e-01,
          9.1077277043416366e-02, -1.5555546788885914e+00,
          -6.1516525216441374e-02, 1.5245665896634850e-01,
          4.3715997370472925e-01, -2.4544511996297871e-01,
          -3.4500026616189577e-01, -3.3643565104955114e-01,
          3.1484240187806560e+00, 3.2300985648964007e+00,
          -2.3181885106980493e-02, 1.8473161950432476e-01,
          3.4507811105640535e-01, 2.1773518755820040e+00,
          2.3986008786486671e-01, 2.2294440518672387e-01,
          -4.6819744585396963e+00, 1.6898582302354365e-01,
          -9.9824443607182978e-01, -1.4436947888032837e+01,
          7.4152514890958574e-02, 7.1146639521160793e-02,
          1.6332579401878208e-01, -1.6798857090995691e+00,
          -2.4709762193791169e+00, 3.1439824694671137e-01,
          -3.8043856634274642e-01, -2.7408854550516926e-01,
          9.7295996181705924e+00, -1.1406296695351199e-01,
          9.6296773709251271e-02, -1.9006058839350548e-01,
          -1.2760042647240146e+00, -1.7410537147848792e+00,
          1.1476688577163474e-01, -3.9282439863514174e-01,
          5.5233274996735124e+00, -2.2539966230016342e+00,
          1.9390276835193081e+00, 8.8111060739586156e-01,
          7.5570137440958818e-01, -1.1408673944110149e+01,
          1.7258032149207023e-01, -6.1378754859303042e-01,
          1.2163514925403096e+00, -1.4200808750503167e+00,
          3.5939120314671025e-01, -3.1298139527598177e+00,
          -4.0487087294882340e-01, 2.5580180696629223e-01,
          3.7355542435826339e-01, 8.5342787915064964e+00,
          5.2787710044754066e-01, 3.4241936704403148e-01,
          8.5169647329275477e+00, -2.4175255559704176e-01,
          -1.5216864440131455e+00, 6.4156075021642625e-02,
          7.1003718835806473e-01, 7.7099674946250052e-01,
          1.7281906460522748e+01, 8.6334888651874353e-01,
          4.7322578141415578e-01, -1.7108805229110263e-02,
          -8.3955200209519931e-01, -4.1253428647517060e-01,
          -5.4646699025035084e-01, 1.4939117364180407e-01,
          1.0065353840035214e+00, 2.3861974772337199e-01,
          3.6632701463472976e+01, 4.3455920904704487e-01,
          -1.7599854165582531e+00, -1.8165193105411934e+00,
          -1.0325862399600796e+00, -2.2235431087798103e+00,
          -4.7412425497640920e-01, -6.2425368433361355e+00,
          -7.9577380720708779e-01, -1.2715386116574429e-01,
          6.8504467830128490e-01, -1.0451156562314663e+01,
          -7.0079277950682461e-01, 9.3857145035191669e-01,
          -4.6487113702183258e-01, -6.1521103940857158e-01,
          -3.6534066462516557e-01, 1.2943945188953576e+00,
          -2.8361094970116185e+00, 8.7840009960974685e-01,
          -2.0637174224062198e+00, 9.8543127050779211e-01,
          2.6472376190661651e+00, -1.2358532421451867e+00,
          4.8166609680399075e-01, -1.0906014670186603e+00,
          3.1669297116273221e+00, 6.6476917161521509e-01,
          4.0495088180674205e-01, -7.5741884199101550e+00,
          6.8458326267764058e-01, 9.6810241451455759e-01,
          9.2132217474185030e-01, 1.7235132866969323e+00,
          8.1772838357420208e-01, 5.3714106103382731e-01,
          1.2812395086090902e+00, -4.3901096559385888e-01,
          -1.2658762525586278e+00, -2.1729011402591496e+00,
          8.4779412553875722e-01, -6.2588731351297544e-01,
          1.0896099242817938e+00, 1.8428989412795242e+00,
          8.8103614433691602e-01, 1.7861533983526787e+00,
          -3.2785795501739345e+00, 2.2207794158091549e+00,
          -1.5024589845381970e+00, -2.5454793169694639e-01,
          -8.6747247571525674e-02, -2.2520471617710256e+00,
          1.5422117604492704e+00, -1.7714369215846232e-01,
          -2.1306586125362510e+00, 1.0424852810560512e+00,
          -1.5023067991564927e+00, -7.5887820252652425e+00,
          -4.4900895604350827e-01, 6.2397688175082877e-01,
          4.3611810996837075e-01, 3.7986820410281830e-01,
          2.4729065838327902e-01, -1.5736171555363767e+00,
          -1.4564561908090092e+00, -6.3924981490055621e-01,
          1.3543507707676508e+00, 1.2506102872722036e+00,
          8.8161239174461892e-02, -1.6484936485008034e-01,
          5.9864866623314317e+00, -6.4168644908845318e-01,
          2.7430484055121002e-01, 1.1855067369640693e+00,
          7.0671058298807349e-02, 9.7097125034735543e-01,
          -1.2262746044110143e-01, 7.1691458740481318e-01,
          -1.3884163957110738e+00, -1.2192928914890382e+00,
          3.4627911189963342e+01, 5.4162677986970997e-01,
          -3.3613733455552155e+00, -1.7369069747360679e+00,
          -1.4523238577008875e+00, -2.1354832992567840e+00,
          -5.0694604890494466e-01, -4.4108157623752362e+00,
          -9.1057293832692654e-01, 4.0192754714117006e-03,
          8.0751476431626745e-01, -7.2228647035921956e-01,
          -7.7187645159540286e-01, 1.0245915214690933e+00,
          -1.0925276760272138e+00, -6.1773343349162368e-01,
          -5.1778317701808463e-01, 1.4411721061249634e+00,
          5.6294799634018631e+00, -2.9466563057455581e+00,
          -2.1073113633759215e+00, 1.1357912294167822e+00,
          2.1819315578869705e+00, -1.8748616008526058e+00,
          5.6790096490384745e-01, -1.1136615515943853e+00,
          6.5792616098357080e+00, 8.2111148192594463e-01,
          6.5586525534282780e-01, 1.1050006388530023e+00,
          9.6359123863253271e-01, 1.0899235514857970e+00,
          9.2992043256403745e-01, 2.6082361866283956e+00,
          1.6310244118325199e+00, 5.3872205876252255e-01,
          1.3462920524432209e+00, -5.5760831601313909e-01,
          -2.3989782373513854e+01, -2.1525363567403670e+00,
          9.4172057263613351e-01, -6.6079582005291126e-01,
          1.5555784717833319e+00, 2.7871169149317625e+00,
          8.5414683966538874e-01, 1.8727898541144472e+00,
          -1.2653264613321914e+01, 3.3318566204800271e+00,
          -1.6055660286220383e+00, -3.6987819602693606e-01,
          -9.6009820038293461e-02, -4.7575364233123310e+00,
          1.5492028815252610e+00, -3.0975912381125154e-02,
          -2.4913267629462363e+00, 1.6581527500062481e+00,
          -1.5804585961700095e+00, -1.5091145123313204e+01,
          -4.7022099765768544e-01, 7.0281526751641099e-01,
          4.4979185186351411e-01, -4.0343671587487471e+00,
          1.2517936727634255e-01, -1.8295765300077793e+00,
          -1.0672535919848183e+00, -6.6276529400002460e-01,
          1.8228447207428582e+00, 1.4241213183922061e+00,
          -8.4939247767843132e-02, -1.6071922060791582e-01,
          2.8441883910128016e+00, -8.4943574966088353e-01,
          3.4779562677764064e-01, 1.3451827996771792e+00,
          2.4668663970935570e-01, 7.8149156933155139e-01,
          -8.7327266828439373e-02, 8.0002302167374939e-01,
          -1.8041705785997437e+00, -1.2533959057486923e+00,
          6.0842325743322583e+01, 7.5937637653504519e-01,
          6.3201152237890401e+00, -2.0246589904407477e+00,
          -1.1155491933752764e+00, -2.2238144012614662e+00,
          -6.9419393613088531e-01, -4.3412292365590890e+00,
          -1.1466902991466681e+00, -3.1715740452309321e-01,
          9.3708838172997044e-01, 3.0894619596146531e+00,
          -1.0399109344455713e+00, 1.2696032198853839e+00,
          -2.3510179753698934e+00, -8.5472924013344587e-01,
          -6.7513578837394950e-01, 1.5413032031395342e+00,
          2.7689804618632756e+00, 3.6222848195754844e+00,
          -2.2134601106199052e+00, 1.3281668980575358e+00,
          2.7008918510625759e+00, -7.7878568190163955e-01,
          8.0204127020587923e-01, -1.3124789139029169e+00,
          4.0629562477747765e+00, 1.0776026961557688e+00,
          3.9686937233861669e-01, -2.9918529633408227e+01,
          1.1953600414502135e+00, 1.3278416284903554e+00,
          1.2211520408831507e+00, 1.4202073408744831e+00,
          5.4573590106533687e-01, 7.7636744919284628e-01,
          1.4036124000287855e+00, -8.2989492640702112e-01,
          9.6425587408728364e-01, -2.2103559880006221e+00,
          1.2012527598196938e+00, -9.2976772153702902e-01,
          1.0989564490450643e+00, 1.8630562502507180e+00,
          1.1835413736894300e+00, 1.9619304893984737e+00,
          -9.2632923164852397e+00, 2.0274063982716322e+00,
          -7.1798670651173546e-01, -1.4386995498170302e-01,
          7.8986188976968241e-02, -8.7565735893818246e+00,
          1.8688505627240770e+00, -3.1068537606366570e-01,
          -1.8675979011483446e+00, 1.0646302619006038e+00,
          -1.5978251226474627e+00, -6.7888690519477102e+00,
          -5.6916964662703406e-01, 8.2967523146919220e-01,
          6.2501078317851388e-01, -5.7505055295110452e+00,
          4.3984214259692145e-01, -1.8288101845379592e+00,
          1.1142544775455338e+01, -8.9616566733486724e-01,
          1.0834614980323931e+00, 1.6714921270945686e+00,
          2.9803448495979279e-01, 5.0029493533819872e-02,
          -4.4964002571539989e+00, -4.7459456474154443e-01,
          4.5444554764818468e-01, 1.6217439578859112e+00,
          -3.5075402304405048e-02, -7.4333420573205355e-01,
          -3.4425793925094039e-01, 9.9282774313373445e-01,
          -1.4643939603430483e+00, -1.4427490993552556e+00,
          5.3134816504446654e+01, 8.9452435229059180e-01,
          -1.2871820175015413e+01, -1.6989194869348605e+00,
          -2.2059087177991050e+00, -1.6525778787193470e+00,
          -8.0087192713381350e-01, -8.3028704924717545e-01,
          -1.0340040967830033e+00, -4.3448380370666106e-01,
          9.0402223040587981e-01, 5.5340730520154890e+00,
          -1.0425083466511105e+00, 1.2231971244414581e+00,
          2.0695670938951025e+00, -9.0777225087284397e-01,
          -8.0192347683469445e-01, 1.7699426493125734e+00,
          6.7104371324810341e-02, -4.7761718778710955e+00,
          -1.5781696216772017e+00, 1.1974086633945669e+00,
          1.2245252725735736e+00, -1.1676276017944716e+00,
          8.4693086204279333e-01, -1.4609002527037989e+00,
          5.2880696702866699e+00, 1.0517721032926444e+00,
          1.5433615741692555e-01, 1.3610449806065425e+01,
          1.1030780216148457e+00, 1.3364042390508448e+00,
          1.2470115530024415e+00, 1.6691304463071521e+00,
          3.4088844736446133e+00, 7.4556869963511052e-01,
          1.7849860925755476e+00, -8.5222034044599293e-01,
          -1.1971552940961077e+01, -1.5330530434475174e+00,
          1.2469454694985864e+00, -1.0623113288877912e+00,
          9.3863768771036282e-01, 2.0611096052411870e+00,
          1.0864948651546182e+00, 1.9182359413933983e+00,
          -1.1705942385521356e+01, 2.4824641654469328e+00,
          -2.6567451806336808e+00, 6.8642690135972025e-03,
          2.9615070577578717e-01, 1.3388837322899565e+00,
          1.4091853041081170e+00, -5.6644748550461343e-01,
          -2.6744075203584323e+00, 1.0556610330987168e+00,
          -1.8299575641601926e+00, -1.0569113117370845e+01,
          -7.1904280033290169e-01, 9.1401031130423527e-01,
          7.1437882979263823e-01, -9.5067335821314849e+00,
          5.3817387222882784e-01, -1.7135746202244901e+00,
          1.1702423776314348e+00, -9.7193468362522983e-01,
          1.1758928721877884e+00, 1.5091670795454866e+00,
          3.1945948322244277e-01, 2.2744542399927514e-01,
          3.9373670128321567e+00, -4.3129044769768865e-01,
          6.7447196757869865e-01, 1.3593460077864434e+00,
          -2.2758709469105634e-01, -9.7119518782842125e+00,
          -3.7689601224279912e-01, 1.0771927475886385e+00,
          -2.0704885488263889e+00, -1.4400949438124049e+00,
          2.2085389042259610e+01, 5.8086321575032751e-01,
          -9.1031922522991024e+00, -2.8025378870829964e+00,
          -2.6787046027867230e+00, -3.3038945211971633e+00,
          -4.8797997848156260e-01, -4.1541259419890313e+00,
          -1.2666494349707467e+00, 4.4899046475575438e-01,
          9.2559043781921191e-01, -2.6820726572608149e+00,
          -1.1187392418836928e+00, 1.3932642404476339e+00,
          -1.5593923062869969e+01, -7.1967068002955403e-01,
          -4.5172360666318651e-01, 2.2207812296431420e+00,
          1.5164877798091478e+01, -9.9443142904158477e-01,
          -2.9950348626590064e+00, 1.6272241812691550e+00,
          3.5959645815359873e+00, -2.0667196607214842e+00,
          5.3021883152482052e-01, -1.8243061793110029e+00,
          1.8772906092503530e+00, 9.1823324236711235e-01,
          1.4089599937211512e+00, -1.5469738724636533e+01,
          1.1764146035340100e+00, 1.7033545604945093e+00,
          1.2389404984175549e+00, 2.4862162119211413e+00,
          3.4272548004854944e+00, 3.6632273837844159e-01,
          2.1876521630626193e+00, -5.5485503156406080e-01,
          -1.4218090135261352e+01, -3.0253273509656484e+00,
          1.4235574317370754e+00, -8.7270709410900205e-01,
          2.1291501791783194e+00, 2.1669009690126937e+00,
          1.1979759728274295e+00, 2.9668590403484005e+00,
          1.7215014644212043e+00, 2.2109049899277915e+00,
          -2.7241036466818604e+00, -1.1772449579578741e+00,
          -8.3729115893765249e-01, 9.0007870966943475e+00,
          2.3152722730241364e+00, 3.2637630383583865e-01,
          -4.1655026300430906e+00, 2.1783386449090050e+00,
          -2.6458793364024227e+00, -1.9269743318370256e+01,
          -2.8444536327869685e-01, 6.4188390484578361e-01,
          2.4640572580646164e-01, -2.1309056996112039e+00,
          -2.4842520351602504e-01, -2.8280653260674224e+00,
          -6.4187228986412448e-01, -8.2400785281226518e-01,
          2.2683708887321714e+00, 2.1943023664611148e+00,
          -4.8325244168322817e-01, -8.2958487090634325e-01,
          1.2685013656896553e+01, -1.7078081249149815e+00,
          5.1566050402422443e-03, 1.9592682140447661e+00,
          8.2056354960163080e-01, 1.3758963835640293e+01,
          3.4412231138673549e-01, 1.0970413835624959e+00,
          -2.9529443269493560e+00, -2.0035748618431377e+00,
          1.4026446572765650e+02, 1.5064941224733033e+00,
          6.8700779223286226e+00, -2.3447029588718808e+00,
          -7.1914754461531361e-01, -2.6415114528450303e+00,
          -1.4277973698336273e+00, -4.4471863413212276e+00,
          -1.6748690690056369e+00, -1.2488967038687522e+00,
          1.5233863003569259e+00, -2.1501852984171830e+00,
          -1.4772337917463529e+00, 1.8051076489736535e+00,
          3.7575579928635328e-01, -1.4376922116174602e+00,
          -1.3089596744445706e+00, 1.6291670970113614e+00,
          -1.3525799461159016e+01, -2.5936829022561634e+00,
          -2.4117522711508608e+00, 1.8506043843727684e+00,
          2.9415977411775427e+00, 4.9787629961826907e-01,
          1.3911139594968163e+00, -1.5496133337839699e+00,
          -3.9627205815758798e-01, 1.6658813455431756e+00,
          -1.1093525704304779e+00, 6.1425430896823086e+00,
          1.6687765123308309e+00, 1.8378537679681293e+00,
          1.6364634286958470e+00, -1.3567188823834517e+00,
          -1.1941563070644114e+00, 1.3704485162740021e+00,
          1.3734357444701393e+00, -1.3926177204422041e+00,
          5.4372843271751288e+00, -2.7221302847431068e+00,
          1.7925043574860389e+00, -1.3847356106714577e+00,
          -1.3077943690134748e+00, -1.7450894277530538e+00,
          1.7615782576655423e+00, 1.7038481648383654e+00,
          -5.8937903356920325e+00, -1.4725743065210637e+00,
          2.0057825312006902e-01, 8.5345467181806456e-01,
          1.0553768398692902e+00, -1.5992263769498981e+01,
          2.3310989884057483e+00, -9.4169013340785090e-01,
          -1.2911496122619475e+00, -1.2691670203391980e+00,
          -1.7216563305297243e+00, -8.7812438349849842e+00,
          -1.4398838781054233e+00, 1.4138715078748962e+00,
          1.1471842751305583e+00, -3.6643963768753509e+00,
          1.1955385137361521e+00, -1.9600442596104959e+00,
          5.8142898414925401e+00, -1.4772408912863426e+00,
          -1.3033945286797535e+00, 1.8921176517365201e+00,
          1.2062556441898706e+00, 1.1796656226409139e+00,
          5.2488344708241206e+00, 1.3413722890740667e+00,
          1.2719071842418082e+00, 1.9382080998441855e+00,
          -1.1563399718483900e+00, 4.6915070013294038e+00,
          -1.1672869091997338e+00, 1.4505828944294801e+00,
          -1.2292961579658737e+00, -1.4685211387280372e+00,
          5.5472233409770460e+01, 6.5859453678512947e-01,
          5.9007345300836169e+00, -1.2906530065941706e+00,
          -7.0252279234233306e-01, -1.4315006403186488e+00,
          -6.2492365288651175e-01, -2.3935929678146439e+00,
          -8.6604621514360947e-01, -4.9354137115440622e-01,
          6.4789145201479414e-01, -2.6210924775048183e-01,
          -7.3942188471621562e-01, 8.9227384198797710e-01,
          -4.9294394666561386e-01, -6.7898141640471987e-01,
          -6.7550625266228581e-01, 9.4661358724119460e-01,
          -8.7443189108571744e+00, -4.1288679883342789e+00,
          -1.3630428893132529e+00, 1.0057512999460814e+00,
          1.6137307664954375e+00, -2.8046059240827997e-01,
          6.8641171260968503e-01, -8.4389253996941127e-01,
          -2.9955299416042607e+00, 7.1599881807164600e-01,
          -4.1739094280687616e-01, -5.0475924991837529e+00,
          7.3459804718365496e-01, 9.2628801146601714e-01,
          8.2191003325577228e-01, -1.0376606305143281e+00,
          6.9289745012399062e-01, 6.0375379018730702e-01,
          6.6832620046882518e-01, -6.3473760779808541e-01,
          1.3516738218498968e+01, -1.3616380725217996e+00,
          9.1276508221448938e-01, -5.7493294023762165e-01,
          -3.4242799055602269e-01, -6.3330942618991437e-01,
          9.2546124380382733e-01, 1.0302091950042018e+00,
          1.1341646805410521e+01, -6.4400608550706251e-01,
          -6.0539359797814984e-01, 2.3313669936810441e-01,
          3.1874575147166695e-01, 7.3792644075760077e+00,
          1.2938448850329471e+00, -3.7380284762462479e-01,
          -1.3605997368940579e+00, -3.3073488626433434e-01,
          -9.3524458712277536e-01, -6.7230807126973575e+00,
          -6.4817288286822516e-01, 7.0236583524843665e-01,
          5.4625882913274515e-01, 3.7498467787198901e+00,
          5.2219673395064936e-01, -1.0784166639018209e+00,
          -2.5091064738912337e+01, -6.1044208880577322e-01,
          -7.8188250762092337e-01, 9.6663206274817459e-01,
          4.4496860722515058e-01, 4.6766499293034164e-01,
          -3.9063447051545688e+00, 4.3788984069054804e-01,
          4.9492088337024037e-01, 1.0234697426284602e+00,
          -4.7126580659306472e-01, -8.4334747992259125e+00,
          -5.3738041643898327e-01, 7.4005062747188488e-01,
          -8.3618191769956662e-01, -7.6855636022849050e-01,
          5.7276494199356087e+01, 6.9508134652999576e-01,
          3.9749210403584625e+00, -9.9365863287512957e-01,
          -7.3625526584418666e-01, -1.1124647734383548e+00,
          -5.6340054418793972e-01, -8.7083233888023748e-01,
          -6.9222885950069180e-01, -5.5541714146404253e-01,
          5.9155866250763889e-01, 1.2452499783720492e+00,
          -6.8420000967406647e-01, 8.7849861254406114e-01,
          -4.5720865586382651e+00, -7.4159029463798964e-01,
          -6.1934555529942448e-01, 7.0084252717572570e-01,
          3.6929217621643220e+00, -1.7261364937024219e+00,
          -1.0957556174372181e+00, 8.1069567648592999e-01,
          1.1917054551053829e+00, 9.9301108089346179e-01,
          7.2270046733565874e-01, -7.8378099167188198e-01,
          -2.5116900184718847e+00, 7.4398070423437157e-01,
          -7.3845234119754155e-01, -8.5581483963225835e-01,
          8.0408992700998216e-01, 7.7578590597231334e-01,
          6.9444195309778656e-01, -1.0376716071283691e+00,
          8.5737220505157063e-01, 6.6231852091241161e-01,
          4.5081525344918505e-01, -7.0498137632439084e-01,
          -2.2778522594818632e+01, -1.1199514569986606e+00,
          8.2306174491100148e-01, -6.2496425474205453e-01,
          -9.2355324612652689e-01, -1.7930579400437805e+00,
          6.4362757319713881e-01, 9.1178190409407811e-01,
          -1.6257583503018622e-01, -1.9435847314240986e+00,
          -4.3044953641170897e-01, 4.8761705486614521e-01,
          5.8152719832788746e-01, 5.9244159870306516e+00,
          1.0262863837087932e+00, -4.9971862025232100e-01,
          -1.0788989007797776e+00, -8.5773679856897844e-01,
          -8.0498462053816411e-01, -5.5695152457517230e+00,
          -6.1882278706673166e-01, 7.2239259043095450e-01,
          5.7691730684531672e-01, 4.3729567942876688e+00,
          5.9969699964898104e-01, -9.6362561659780333e-01,
          1.0486422838813933e+01, -6.2584671562967686e-01,
          -9.1876557618553056e-01, 8.5889348758544692e-01,
          6.0926426062146932e-01, 6.1599112309887838e-01,
          -1.9950705652923897e+01, 6.7267923226580972e-01,
          4.9905203661511971e-01, 8.0196193697704898e-01,
          -5.5060701137829082e-01, -9.0485360235300742e+00,
          -5.8943668976611940e-01, 7.0105474065024231e-01,
          -6.9949742661025238e-01, -6.7226919144135044e-01,
          6.6016443920529255e+01, 8.4287762338791816e-01,
          9.9716988033214040e+00, -7.6063787293690499e-01,
          -1.9652142253815594e-01, -7.3539189706338182e-01,
          -7.7127739892222413e-01, 2.8753025899554582e-02,
          -8.9893680369412454e-01, -7.8527776190777510e-01,
          7.4724031567640092e-01, -4.5822527178017669e+00,
          -7.9472963191974733e-01, 8.0012193882314386e-01,
          2.4488791834558867e+00, -8.5616004955743552e-01,
          -7.5293565360655001e-01, 5.4977603432900968e-01,
          -9.0348008798884063e+00, -4.9394823097135376e-01,
          -7.2800923979388832e-01, 9.1055246197051432e-01,
          6.5155872850416918e-01, 5.6844335546250990e-01,
          8.5055879460764638e-01, -7.4147214649148863e-01,
          -1.5556534152679156e+00, 8.1096605381044029e-01,
          -8.5195841801083871e-01, 3.3080337030728075e+00,
          8.3561612486010295e-01, 8.8684326148399928e-01,
          6.9393167053084426e-01, -1.7435007860831797e+00,
          -1.1106212021200368e-01, 8.7056644520020321e-01,
          4.7545194882431613e-01, -8.6465439700760338e-01,
          -2.0748827481337644e+00, -6.6571388000380716e-01,
          8.1686578019562317e-01, -7.8825183765840190e-01,
          -1.0121917901007349e+00, -1.1128569241623494e+00,
          7.9969123674247744e-01, 6.8538628271199331e-01,
          8.2944655312870577e+00, -1.0898661468008899e+00,
          -6.9641001617153794e-02, 7.2433370556995258e-01,
          8.3879897016376148e-01, -2.3846038033842358e+00,
          8.5390570903089946e-01, -6.8079914851587853e-01,
          -4.2918498644269076e-01, -1.0453199767743506e+00,
          -5.4778138955994682e-01, -3.1641332212902693e+00,
          -7.3098941291201380e-01, 8.3711233235918636e-01,
          7.4089049838506227e-01, -1.7798965235958217e+00,
          6.9083423499475916e-01, -6.7859073821307359e-01,
          -1.1086505651876211e+01, -7.0443111653294344e-01,
          -1.5497907293146655e+00, 8.3699249685537502e-01,
          8.6952052704865945e-01, 9.4432363740300584e-01,
          -2.1882437148330268e+01, 1.0193428503117237e+00,
          8.4767985542548474e-01, 8.8741358037676998e-01,
          -9.5895120890017183e-01, -1.2114019366985527e+01,
          -7.8214749130874306e-01, 6.9353465367967593e-01,
          -4.4089507096665026e-01, -6.7797637681231626e-01,
          7.6681368005722774e+01, 8.4238170941472423e-01,
          -3.0257253487802989e+00, -4.8429424406533061e-01,
          -5.6213886703358362e-01, -5.4170763207539485e-01,
          -6.8878070743461117e-01, -4.6398904440470803e-02,
          -6.1499017833465552e-01, -9.7976527471609098e-01,
          6.4777707200539492e-01, 9.1490511913291108e+00,
          -7.1512069468572370e-01, 7.3607109282094485e-01,
          -8.4858795919373566e+00, -7.9560591869109587e-01,
          -8.7671208954042856e-01, 5.7012883762223709e-01,
          5.2105041407686359e-01, -2.9260870606407017e+00,
          -5.5982591926095282e-01, 6.5624128234596757e-01,
          7.0748870759888549e-01, 1.5542070427146208e+00,
          7.0614884019935020e-01, -5.5897890371573844e-01,
          -4.6125450196159132e+00, 7.8346383674598241e-01,
          -1.2877478081519615e+00, -8.2469349493263362e+00,
          8.1399877506737273e-01, 6.7623794385891578e-01,
          5.4185742994526565e-01, -2.0150933128871626e+00,
          9.9681284191428099e-01, 8.1345491578895512e-01,
          3.3262157743715726e-01, -7.6379003549608959e-01,
          -7.5303776731879513e+00, -5.6224048918227343e-01,
          6.7109140301301651e-01, -6.7830499047364090e-01,
          -1.5831247882878405e+00, -2.2916033694799358e+00,
          6.9186017918931841e-01, 4.7654286758392739e-01,
          6.8469733635402674e+00, -2.3806424345694794e+00,
          -2.3196780662429292e-01, 1.0915995266339471e+00,
          1.0107950926754519e+00, 7.4647137139945896e-01,
          7.3550673937508759e-01, -9.1800315034673252e-01,
          -5.4798245352427566e-01, -1.6274536373287469e+00,
          -4.3418344470429371e-01, 1.4126874563735137e+00,
          -8.1218244783315352e-01, 7.6305919043977066e-01,
          7.8441064449987352e-01, 1.4594169692545053e+01,
          9.2780878519649090e-01, -6.3950525326697261e-01,
          -2.1302010206883089e+00, -7.2932663617097948e-01,
          -1.7075749639827769e+00, 5.9226978204762493e-01,
          9.6930385096662020e-01, 1.1123510856308454e+00,
          -8.1091530744333866e+00, 1.2362829460792812e+00,
          9.0089773889126867e-01, 6.1911841046089777e-01,
          -1.0068609790736289e+00, -6.5999706840944716e+00,
          -9.2979555169935335e-01, 6.7524887584701609e-01,
          -4.7205622145467208e-01, -5.1736735185702698e-01,
          3.3342740513886966e+01, 2.5481921905735105e-01,
          6.5676694219819198e-01, 7.2706619980150555e-01,
          1.2923866540367983e+00, 8.5496653242635223e-01,
          -2.4439436384999069e-01, 1.5543961176047392e+00,
          2.6425571697649913e-01, -1.0011284836859013e+00,
          -1.4215961557504608e-01, 3.0001770436351496e+00,
          1.3396130692634531e-01, -1.8333388078963639e-01,
          -2.3664257847149996e+00, -9.8502243735392722e-02,
          -2.8835420767113190e-01, -8.5553760453132965e-01,
          -2.0303237855510829e+00, 3.8718804683515211e+00,
          8.1392238375201686e-01, -2.7334308681383024e-01,
          -8.0928364186673196e-01, 3.7832295129967131e+00,
          1.8090923230418651e-01, 7.0428618316072811e-01,
          -6.7493585654277615e+00, -6.0530626582682039e-02,
          -1.8179259920464168e+00, 1.9977731012782991e+00,
          -1.8043190767733869e-01, -3.4278602076185311e-01,
          -2.2720017034825821e-01, -3.4366441472168741e+00,
          -1.2530626516408554e+00, 3.3647707281824979e-01,
          -1.0538634136226350e+00, -2.7944091656000519e-01,
          7.3005134711295891e+00, 8.0035725886496711e-01,
          -2.7043919320511345e-01, 4.0003384643540564e-02,
          -2.9725272168414647e+00, -4.2569259213685200e+00,
          -1.2853163091192887e-01, -1.0474577089212753e+00,
          1.5554486971098491e+01, -4.7298702865049247e+00,
          1.2478792416588900e+00, 1.5713154149582371e+00,
          1.1728204053259244e+00, 3.0930334717480252e+00,
          -4.9079731183368697e-01, -7.7870869564114609e-01,
          1.2236319424069084e+00, -3.0175032939004311e+00,
          1.0715028722659865e+00, -2.4409314998686917e+00,
          -4.1353406686855343e-01, 5.5297482190170777e-02,
          3.5442575530778458e-01, 5.0548629916291903e+00,
          7.7511865284607506e-01, 9.1343249126982495e-01,
          8.8501133746747396e+00, -3.1135578630448323e-02,
          -2.8719555332418838e+00, -5.9508743411474774e-01,
          1.0468068067510781e+00, 1.3343197119660182e+00,
          -1.6867627316716522e+01, 2.0336358808365063e+00,
          6.1063054242458847e-01, -5.6190369992525147e-01,
          -1.3667558028943885e+00, -4.3485957548913056e+01,
          -9.3137420919921288e-01, -2.0315875451380291e-01,
          1.2705075724310146e+00, 6.9783313096163224e-01,
          4.7002001660375761e+01, 3.4667541658250761e-01,
          -1.7276719261824933e+00, -3.5398190897764015e-01,
          4.4824452976415197e-01, -3.5030176635502852e-01,
          -4.6194781354356101e-01, -2.2701025094826721e+00,
          -2.4240963215970712e-01, -8.5598780847951361e-01,
          3.2687651832313303e-01, 3.1553929939917418e+00,
          -2.7032173559588824e-01, 2.2770407612860794e-01,
          -3.2259332669722616e+00, -2.7527602374326504e-01,
          -4.9292497998177398e-01, -8.7126476790616081e-02,
          -1.9848029799858381e+01, 3.9089405348067259e+00,
          -2.9514333561414274e-01, 3.1592080430484953e-01,
          6.0633628787473903e-01, 1.3958556279328849e+00,
          2.9312985502802102e-01, -1.0191143181996298e-01,
          -3.4415904148353080e+00, 3.2159735788974125e-01,
          -1.1923565672959233e+00, -1.5040340601879373e+01,
          2.6834987347881262e-01, 2.4305976901809007e-01,
          1.9749517478332859e-01, -2.0225547797291754e+00,
          -5.9036541456509783e-01, 4.5735541189241219e-01,
          -1.9410111358578835e-01, -4.7111421844779272e-01,
          2.0256678359448046e+01, -4.8211351120487067e-01,
          2.4146978799539975e-01, -3.2162578338008790e-01,
          -1.5177851719953634e+00, -1.4098968604932949e+00,
          3.3573125575483170e-01, 9.1131078307223837e-03,
          3.6319282654257972e+00, -1.4341543978220510e+00,
          5.9753668077605426e-01, 1.1143487162964683e+00,
          9.4156032304193149e-01, -4.9277314669004708e+00,
          3.5104184079922635e-01, -6.2578347650907895e-01,
          4.3079051122305166e-02, -1.5480882443633344e+00,
          4.2375583067062239e-02, -3.6381407400219281e+00,
          -5.3020702170264866e-01, 2.9866671517944099e-01,
          4.8485460174712103e-01, 1.6292300486501166e+01,
          6.8154568336175980e-01, 8.1371585223500003e-03,
          -7.5639225254959541e+00, -3.3439959769770228e-01,
          -1.7806675576244611e+00, 8.0493323656987401e-02,
          8.3938912259374232e-01, 8.9797488788831714e-01,
          1.3978180503346465e+01, 1.2337227065264180e+00,
          6.1141949474910473e-01, 2.1410541939576666e-01,
          -9.1755049003289779e-01, -2.5123741164147251e+01,
          -6.9602383193940731e-01, 1.4449136345715224e-01,
          1.9093155416467392e-01, -3.8476399328560243e-02,
          4.3602021443205629e+01, 4.3746280554211286e-01,
          1.1737731470720677e+01, 1.1523896184419109e-02,
          8.0594104209871653e-01, 9.9724395979710181e-02,
          -5.2339514344479898e-01, 7.2194846741304186e-01,
          -1.2580644393802587e-01, -9.0476311837655210e-01,
          1.8242607656023277e-01, 9.1990252539157122e+00,
          -2.0041784101901922e-01, 8.0939632129416642e-02,
          -4.0824043612765832e+00, -3.7667997936478209e-01,
          -4.9687960840502682e-01, -3.6263571911035064e-01,
          1.5574541782200960e+01, 7.4917745681808716e+00,
          1.3400528789867747e-01, 8.9038487034525798e-02,
          -2.1072862309760527e-02, 3.2802225366945508e+00,
          4.1765421723684953e-01, 1.3648793329049469e-01,
          -1.2470548149674563e+00, 2.6520049611736002e-01,
          -1.3218329056927078e+00, 1.1825921653122344e+00,
          1.6764885948267544e-01, -4.5441469206952641e-02,
          1.5321520487397722e-01, -1.4174926945028969e+00,
          -9.5881167968428771e-01, 4.9628597065987645e-01,
          -3.1834719338084078e-01, -4.5051062890842114e-01,
          -1.3739509337047127e+00, 1.2887490013671563e-01,
          1.1961164972515285e-02, -2.2740333650008573e-01,
          -1.9752847397028710e+00, -2.4015548068397554e+00,
          1.4723795811416959e-01, -3.1880944663376420e-01,
          -3.8497952214499627e+00, -3.1009588131500072e+00,
          9.3363497650492400e-01, 1.2953185951726089e+00,
          1.0942383929176345e+00, 1.3797780525938990e+00,
          -5.4966131734642189e-02, -7.7698029122609402e-01,
          5.6133768333120515e-01, -2.1106541639947922e+00,
          3.9889498303059906e-01, -7.0304129909541091e+00,
          -6.0864202337923756e-01, 2.4812514762443572e-01,
          5.7566487778230613e-01, -6.8391178724665593e+00,
          7.2802805860866449e-01, 2.6917812651773970e-01,
          -3.2342773651794392e+00, -2.0488241495637810e-01,
          -1.5383172403918237e+00, -1.3942237361682022e-01,
          9.7240254301764084e-01, 1.0276491756659762e+00,
          -1.4196924120648594e+01, 1.5472210023851041e+00,
          5.5686811638016243e-01, -1.1428646124874373e-01,
          -1.1527610501990313e+00, -3.4754105532434139e+01,
          -9.1483614645788747e-01, 9.4767760361939124e-02,
          6.8896789013698767e-01, 1.5077864569386509e-01,
          6.2015913611767260e+01, 7.4598963387692663e-01,
          -6.6137368380400199e+00, -1.1960905287320887e+00,
          -5.7398037415289738e-01, -1.4183079280256476e+00,
          -7.4209734355425327e-01, -2.7903484955323958e+00,
          -8.2398771745187915e-01, -6.0418789832780473e-01,
          6.9559869684370745e-01, 8.6072646299502704e+00,
          -7.9436569122096168e-01, 8.6286533404269694e-01,
          -3.1122672582352111e+00, -7.6502357501645313e-01,
          -6.4365638672181591e-01, 8.0528552514287599e-01,
          -6.3513410520375926e+00, -3.8305872110507022e-01,
          -1.2875581494160058e+00, 9.0899417165131058e-01,
          1.6729241308820670e+00, -1.2814602958548266e-02,
          6.2808375454939414e-01, -7.5904624129873488e-01,
          1.5518233051686912e+00, 7.1188151430043323e-01,
          -3.9185025656983796e-01, -1.5971629127607896e+01,
          7.8346910694245064e-01, 9.4272812225487179e-01,
          7.2709125346940995e-01, -7.4919366828036060e-01,
          2.6417336665332175e-01, 7.4165642591267666e-01,
          7.0015661726874712e-01, -7.1048937987924177e-01,
          3.1378789337700244e+01, -1.4471025645729683e+00,
          7.8878782499080546e-01, -6.7874362452345305e-01,
          5.4710824034219077e-02, 8.6498617124181154e-01,
          8.0391591755885639e-01, 1.0673288557838647e+00,
          2.3530241577343971e+00, 8.8453774340135316e-01,
          -1.5693387376559856e-02, 4.0728178756749150e-01,
          5.7517874082207388e-01, -7.8128820037029865e+00,
          1.2142327640417536e+00, -6.3790446984699500e-01,
          -1.1039695528980837e+00, -1.3563663234840809e-01,
          -8.5900420226297669e-01, -6.5981572488679445e+00,
          -7.2896826044331198e-01, 7.5002031473134312e-01,
          7.1626423449029164e-01, -4.3122628465675037e+00,
          5.3984721592293639e-01, -1.1371073121930226e+00,
          -6.9685139234627531e+00, -7.6199211857300742e-01,
          -7.5499432219505835e-01, 9.3915065174738210e-01,
          5.8833052732577840e-01, 6.1834831716153182e-01,
          -1.2575250237412064e+01, 1.3842391272536922e-01,
          6.4876646526576931e-01, 9.8500498669267045e-01,
          -5.4080356750605474e-01, 1.0321164170462733e+01,
          -5.2982406184647812e-01, 7.0272528060548300e-01,
          -6.8430206427706697e-01, -8.1233603719152025e-01,
          6.2810620621292522e+01, 6.9055503002172702e-01,
          -2.8475374133694309e-01, -6.9357337609766234e-01,
          3.2231063204664129e-01, -8.0221327882565718e-01,
          -7.1801522688332886e-01, -2.2531854038615524e+00,
          -4.7309168073878294e-01, -8.0412407289062349e-01,
          5.3881496597927758e-01, 1.1155970579566917e+01,
          -5.2779981732152981e-01, 5.1995998310596125e-01,
          -5.1141859389362008e+00, -5.7980590473929861e-01,
          -7.2414995154780515e-01, 2.8678566906637870e-01,
          1.4523853950436651e+01, 8.7132802302070331e+00,
          -5.9971023975484228e-01, 5.8537685196833300e-01,
          9.5820856814745747e-01, 2.3191930823144875e+00,
          6.6348412117952105e-01, -4.7075621985831634e-01,
          1.8821405587129463e+00, 5.3202550612335808e-01,
          -9.6220613211652883e-01, 1.8210602276334811e+01,
          5.1063472582057945e-01, 4.6696383594198887e-01,
          5.5268451625610515e-01, 1.0710150082976089e-01,
          -8.8404227168512584e-01, 6.9617093625311643e-01,
          2.9429302592585960e-01, -6.9671014469277093e-01,
          -9.6764459860756471e+00, -7.7067034483883146e-01,
          6.2080361943281259e-01, -6.4228582013700286e-01,
          -9.4940145861487257e-01, -4.7505165569209479e-01,
          5.1364047568815607e-01, 3.3093036988060431e-01,
          -1.0911543098080353e+01, -7.5606965242741453e-01,
          5.0746075284747716e-01, 1.1369009625773556e+00,
          8.0540200059903400e-01, -2.7308300259214890e+00,
          7.1320570672636219e-01, -9.3277654433866419e-01,
          -2.6777633965397796e-01, -8.8166063772460446e-01,
          -2.9865996342487877e-01, 5.0782067778818374e-01,
          -7.0105009779083460e-01, 6.1178831749206852e-01,
          7.2780961099022790e-01, -1.0643115955575599e+00,
          7.7358323725600620e-01, -3.5977628748743640e-01,
          3.2727312092359739e+01, -5.4107613733230198e-01,
          -2.6885693954152429e-01, 4.8473452312658338e-01,
          7.6867646380822807e-01, 7.6557856113467737e-01,
          -1.1235960433532274e+01, 7.5963760537884506e-01,
          7.9849385563192077e-01, 5.6961808611851739e-01,
          -7.5420549317442676e-01, -1.3045790728875630e+00,
          -7.4814238174394199e-01, 5.1863641862955889e-01,
          1.1652996624604520e-02, -3.7588965627015142e-01,
          4.4021157762723462e+01, 4.1994750737165837e-01,
          -8.6579804310526320e+00, 2.0011973887456075e-01,
          1.5920422734674360e+00, 4.2411256488112076e-01,
          -4.0515357004982394e-01, -9.9005479094385992e-02,
          -1.2711938565083700e-01, -6.9843925021140063e-01,
          1.8557954085344019e-01, 1.3888551645658367e+01,
          -1.0347398630628541e-02, 1.6662600402415043e-01,
          2.5708786875804059e+00, -3.1327270506350646e-01,
          -4.2068421139413259e-01, -6.3144896581275056e-01,
          1.6935536203489317e+01, 8.8913304949971739e+00,
          4.2365871749857675e-01, 5.2814512944987159e-02,
          -2.7351663693956452e-01, 4.3494803508812545e+00,
          3.8521141472669440e-01, 2.8895540841750494e-01,
          -8.5318306190851096e+00, 1.2418305021192083e-01,
          -1.3577143917160772e+00, -8.3497048830874334e+00,
          1.2342266477944940e-01, -7.9814117351449013e-02,
          7.7927010525632681e-02, -3.3537348103664311e+00,
          -2.6501962406603106e+00, 3.8687704914541376e-01,
          -5.9169050085694175e-01, -4.4402699362519610e-01,
          2.3010292936680280e+01, 3.0171764322339467e-01,
          1.1370474501743175e-01, -2.4609618302046274e-01,
          -2.1368161854604621e+00, -2.9916349247065228e+00,
          1.1665072325841259e-01, -7.9029402987886521e-01,
          6.6856618248203121e+00, -3.9311667926376330e+00,
          2.3186080197953634e+00, 1.1354986250520660e+00,
          9.6518822610521282e-01, -5.6252516160775770e+00,
          -9.3085019304079239e-02, -9.1244574998734385e-01,
          1.6577499866348806e+00, -2.2502161394952664e+00,
          6.4598712867017227e-01, 4.1272576709781972e-01,
          -4.5559435305416907e-01, 3.7029524525728802e-01,
          4.7221778115822638e-01, 1.4233088848013486e+01,
          6.4689123193132614e-01, 6.6271840119821135e-01,
          2.4920777306415800e+01, -1.9702899960702372e-01,
          -2.7619900484210960e+00, -2.1096878457922758e-01,
          8.5580339350505130e-01, 9.7129566052620964e-01,
          7.3619645938546379e+00, 1.3084584507430368e+00,
          5.0450349482319212e-01, -1.9868275573576896e-01,
          -9.3701582740905898e-01, -2.2301165817162289e+01,
          -7.1050461345631799e-01, 1.4164207989071789e-01,
          1.3763494141257382e+00, 3.6714069648052589e-01,
          5.4351528872037341e+02, 5.9599622040852065e+00,
          4.6153222124317521e+00, -4.4915853921637074e+00,
          -5.3502568746749253e+00, -3.8080597006432098e+00,
          -5.9960754538143188e+00, 1.2394566311499937e+00,
          -5.6477027922155179e+00, -6.2393174049702314e+00,
          5.8743108954394945e+00, 5.8566885507349680e+00,
          -5.7417458334382703e+00, 5.5617404081123150e+00,
          6.1092414856391741e-01, -5.9008701485741666e+00,
          -6.0006603628145392e+00, 5.1997113265493615e+00,
          -5.6070960071479803e+00, 3.0466191975947230e+00,
          -4.0032084402435579e+00, 5.4042388726413648e+00,
          3.1295978141705616e+00, 5.9558970476184196e+00,
          5.9533636561211107e+00, -5.4539079198103737e+00,
          -5.7482081945290684e+00, 5.7473870327032346e+00,
          -6.4003094006419898e+00, 3.0221649893159510e+00,
          5.6800016250667644e+00, 5.3814501406841009e+00,
          5.6387689414874558e+00, -6.5204251622672009e+00,
          4.7471001262534553e+00, 5.9699388445575270e+00,
          5.4214497490698541e+00, -5.9607617318845945e+00,
          7.2252809099433364e+00, -3.8606395263311342e+00,
          5.5637535919948151e+00, -5.8625415655720765e+00,
          -6.5571865476502795e+00, -6.2504241103598881e+00,
          5.6266274164593808e+00, 4.7039368504120214e+00,
          7.9916257163755313e+00, -5.8704143427498359e+00,
          -5.1310518247342429e+00, 6.3708309422356297e+00,
          6.2847873702230794e+00, 9.4045585769719899e+00,
          4.6681831428610492e+00, -6.1599542976387207e+00,
          -3.9826584562326159e+00, -6.5218328171254223e+00,
          -5.0044472891654745e+00, -1.4723268257626276e+00,
          -6.0383664310296892e+00, 5.9076303947035536e+00,
          6.0363462878973539e+00, 8.4860850626277049e+00,
          6.1708567734089126e+00, -4.6944084495289022e+00,
          -4.6430818776853515e+00, -5.8176854682383103e+00,
          -6.4954813570559509e+00, 5.1322466265184472e+00,
          6.2093052980930930e+00, 6.3285046427524740e+00,
          -6.9265050982226510e+00, 6.5850317295334291e+00,
          6.1176811274646568e+00, 5.1474703971938709e+00,
          -6.2877735183164170e+00, 7.7508759302943018e+00,
          -6.2253148729629766e+00, 5.7504647164070670e+00,
          -4.9229961613523292e+00, -5.3936876119984980e+00 ]
      - [ 7.7475677754175010e-01, -1.5458057354194454e-01,
          7.2957603243061451e+00, 3.2862236438823946e+00,
          3.1855814283153916e+00, 4.0253912716110820e+00,
          7.4074440539046896e-02, 7.9176491499811874e+00,
          1.1602022574986501e+00, -9.8838217434407794e-01,
          -7.1427771178348154e-01, 1.2886445974517139e+01,
          8.8799379767530473e-01, -1.4138838658606478e+00,
          1.2069585251238664e+01, 4.0111851692549716e-01,
          -5.6429516748749832e-02, -2.4169646312147579e+00,
          -6.4717115874798337e+00, 1.0598945160240410e+01,
          3.7694118654567488e+00, -1.6076280526933582e+00,
          -4.6385469601721194e+00, 5.1687321813123379e+00,
          -1.7014961863788680e-01, 1.8360812153470614e+00,
          -8.2777879327119823e+00, -8.2617140024539137e-01,
          -2.4931623752496144e+00, 9.4626378298517793e+00,
          -1.0862071003177467e+00, -1.7165553619875147e+00,
          -1.1617790364416500e+00, -4.6985292015037654e+00,
          -4.6859819689163587e+00, -2.6456651194972824e-02,
          -2.1384830087630027e+00, 1.3057296786131167e-01,
          7.5053380854715881e+00, 3.9234162225698355e+00,
          -1.3562280297994207e+00, 5.4878131345943715e-01,
          -4.0644189384533265e+00, -5.4861921740492825e+00,
          -1.1490264353182007e+00, -3.2346851720843519e+00,
          1.2275874226746957e+01, -6.0124226853946485e+00,
          3.8154550655193868e+00, 2.3471311275978488e+00,
          1.6119084420444307e+00, -1.4952602061774719e+01,
          -2.8345548263120306e+00, -1.2570518524442920e+00,
          4.5131641613636120e+00, -4.0669290067376664e+00,
          2.8013429364197671e+00, 8.3816024025598370e+00,
          -1.0473188778795681e-01, -3.9773750886613674e-01,
          3.1336414263286255e-01, 7.3535931652627164e+00,
          8.1642133403400663e-01, 3.1267686060529862e+00,
          1.0067888992922711e+01, 6.1658504356395283e-01,
          -3.9265931237280580e+00, -2.3229257714656222e+00,
          1.1774515826712528e+00, 1.5664711905000566e+00,
          -8.6713756878193315e+00, 2.8972601780821554e+00,
          4.7322206155294277e-01, -2.1559226437005559e+00,
          -1.5863593000286904e+00, -2.2405149023900947e+01,
          -9.8822163392764095e-01, -8.6652465061483774e-01,
          3.2577083361308432e+00, 1.9223296456382739e+00,
          2.0692827453068503e+00 ]
