%YAML:1.0
my_nn: !!opencv-ml-ann-mlp
   layer_sizes: !!opencv-matrix
      rows: 1
      cols: 3
      dt: i
      data: [ 24, 80, 1 ]
   activation_function: GAUSSIAN
   f_param1: 5.9999999999999998e-01
   f_param2: 1.
   min_val: 5.0000000000000003e-02
   max_val: 1.
   min_val1: 2.0000000000000000e-02
   max_val1: 1.
   training_params:
      train_method: BACKPROP
      dw_scale: 1.0000000000000001e-01
      moment_scale: 1.0000000000000001e-01
      term_criteria: { epsilon:1.0000000116860974e-07, iterations:800 }
   input_scale: [ 1., 0., 1., 0., 1., 0., 1., 0., 1., 0., 1., 0., 1., 0.,
       1., 0., 1., 0., 1., 0., 1., 0., 1., 0., 1., 0., 1., 0., 1., 0.,
       1., 0., 1., 0., 1., 0., 1., 0., 1., 0., 1., 0., 1., 0., 1., 0.,
       1., 0. ]
   output_scale: [ 2.1052631578947367e+00, -1.1052631578947367e+00 ]
   inv_output_scale: [ 4.7499999999999998e-01, 5.2500000000000002e-01 ]
   weights:
      - [ -8.0950126706662573e+01, 1.2329542090767130e-01,
          2.6903459432131991e-02, 3.3457990607819366e-01,
          -8.9199236219603961e-02, 5.7580725248240150e-02,
          4.8209920377204722e-02, -2.1387857307303998e-02,
          -2.3369142081518361e-02, 1.9265836245894385e-01,
          5.1961120895839888e-02, 7.2806312384292984e-02,
          1.0821430213749721e-02, -2.4159293168468685e-01,
          -4.5346443376737738e-02, 5.3817180772502492e-02,
          -2.1551677468298579e-02, -2.1064893771910790e-02,
          6.8477729053464276e-02, -9.7564391944473059e-03,
          -3.2684316286782111e-01, 7.5214859296668837e-02,
          9.7286699296842416e-03, 3.7915997294696156e-02,
          4.8329919401748446e-02, 4.3843640036783475e-02,
          6.2267906482363890e-02, -1.2046418940564334e+00,
          -8.1081083220441288e-02, 3.2745299183777270e-02,
          2.0944328683509237e-02, 1.0891818161779213e-02,
          2.5279465092650963e+00, -4.8782182251508724e-02,
          -3.4043819141553150e-01, -3.8660015461443049e-02,
          -7.1567988190926177e-02, 4.8416503377770738e-02,
          -2.2939653842849625e+00, -1.7292964342332739e-01,
          -2.4376202145909312e-02, 6.5670766862369143e-03,
          8.0673184180083193e-03, -2.1961827394269141e-02,
          -4.8109846944265594e-01, -4.8901012168886211e-02,
          2.2773415707935249e-01, 2.6225421556758954e-01,
          4.5711307479841513e-02, 4.2585705217171602e-02,
          -1.1246496415579497e-01, 1.5255710610619003e-01,
          4.1684044147383964e-01, -1.7366778630879917e-02,
          2.6936282735395517e-01, 9.2495227919426725e-04,
          2.0052673382457195e-01, -1.8262530481042039e-01,
          2.2194214021583756e-02, 4.2270446416998070e-01,
          -6.0446645487477035e-03, -3.7423184438673311e-02,
          -2.7886530050628072e-01, -1.8305277842968845e-01,
          1.1728293025823069e+00, -3.6640107485303247e-02,
          9.6853500194981657e-01, 1.4035666449880471e+00,
          1.5863472646987484e-01, 5.5146835608988073e-02,
          8.6011929100538301e-02, -6.0739878579917006e-01,
          7.8544901656753638e-02, 6.0128945572802885e-02,
          1.5544244918296828e-02, -6.3842262640166028e-02,
          -8.1737722024449126e-03, 2.8756167515243285e-02,
          -1.3997237153442291e-01, -3.9032417836651435e-02,
          -1.6828355249865048e+01, 1.1438763649763405e-01,
          2.4440129534250010e-03, 2.6419006720023297e-01,
          6.4667520615681762e-02, 1.4219967913463899e-01,
          -1.1213065837078236e-02, 3.6253601200696255e-02,
          3.7814161267932273e-02, -6.9082305835656513e-02,
          -4.9007603551317065e-02, 7.8474236770681074e-03,
          -9.1545809056535164e-03, -1.6167267505271263e-01,
          -5.3174619672677288e-02, -1.9243717277041241e-02,
          -2.1076482517763052e-02, -1.3622056312100913e-02,
          -1.7025100975660036e-03, 4.6907190527403601e-02,
          1.1397442370672638e-01, 2.2016801611181143e-02,
          -7.8012546394327226e-03, -2.0989059807043495e-02,
          3.0682154956980644e-02, -3.1457244822335521e-03,
          2.8305791707406158e-02, 5.3531985674361027e-01,
          -2.3050536211822594e-02, 1.6649962505484023e-02,
          -3.2649627798891148e-02, -4.1683610915083942e-02,
          -2.5703951185814060e+00, 2.6737902642025722e-02,
          1.4180514526664117e-01, 7.2540370256117858e-03,
          -1.6168346315028609e-01, -3.2797012293328306e-02,
          2.2137816580104750e+00, -3.3956244124636142e-01,
          -3.7752440636384860e-02, -5.1756242964661530e-03,
          1.7870203100325020e-02, -1.0626227380901234e-02,
          2.2119276591310047e-01, -2.8665413710736304e-02,
          2.0713066669201621e-01, 2.4085023295230193e-01,
          8.0382955965607721e-03, 1.4879391973249143e-01,
          -2.3807910402054702e-01, -3.6197856390264897e-02,
          7.2624537631651637e-02, 2.8969364951180888e-02,
          2.0525840722184213e-01, 1.5262766089351482e-02,
          -2.8136136450248289e-02, -2.3409132742263572e-01,
          -6.2393972560654300e-02, -1.4060402514420692e-01,
          -6.7651260441949036e-03, 1.3358372594375181e-02,
          8.6278187191878741e-02, -1.8093308512297807e-01,
          -1.0807654034161085e+00, -3.7398365693333824e-02,
          -4.0968155957096919e-01, -1.3953214874942248e+00,
          2.0176411967398342e-01, 8.2318537811307879e-02,
          -2.9807283619427347e-02, 2.2481490315890873e-01,
          -3.5864922700015338e-02, -9.0064032860679225e-03,
          1.4239359835388285e-02, 1.5455976747194738e-02,
          3.5685486237162688e-02, 2.1585339010692827e-02,
          -9.7400598718150582e-03, -1.9057941308699439e-02,
          -3.7521599038396509e+01, 3.2477385934132309e-03,
          2.0195184796574998e-02, 6.7940325205525426e-02,
          -5.7192518551088853e-02, 2.0392345550613741e-02,
          1.4027406761442733e-02, 3.9159173685844083e-03,
          -2.3002304641671186e-02, -6.1588799568535121e-03,
          -4.6340119506886310e-02, -1.0164129512976725e-02,
          -2.9863457643533552e-02, -1.0339926389896416e-01,
          3.9564872741233166e-02, -2.0224095014391916e-02,
          4.0891987630426599e-03, 6.4018009012666341e-02,
          -8.9348546683275416e-03, 6.2798207596983666e-02,
          -4.6420523701151455e-02, 1.0133876326087113e-01,
          8.6233726496225613e-03, 1.7224343119085748e-03,
          -2.2391910786073492e-02, -4.1233183667184120e-02,
          8.4605556195089509e-03, -3.4484688888014287e-01,
          -6.5680336643950551e-02, -7.0082648940722594e-02,
          2.1893989411659393e-02, -6.8689171296683005e-02,
          3.8232552975386369e-01, 1.6863101307518211e-02,
          -3.3764516877505042e-02, 4.6545274112094644e-02,
          -2.3234514230218023e-02, -5.4729409572541474e-03,
          -3.7248254392412461e-01, -1.1896243527528844e-01,
          3.0437080588293915e-02, 9.7200992203481384e-03,
          -2.7432763653035916e-02, 8.6920821040009089e-03,
          -2.0838139202353331e-02, -5.2841522099191976e-02,
          1.0373115191191230e-02, 1.1361460129934099e-01,
          8.5788926034309817e-03, 7.4570186264312596e-02,
          -9.7025863384071986e-02, 4.5750699479691542e-02,
          -1.2260440782873430e-02, 2.2989729327932529e-02,
          5.3929367017041915e-02, -3.2422046808825086e-02,
          1.8494794775629458e-02, -5.3765669908960756e-02,
          5.5728051913948702e-02, 6.1805917600469037e-02,
          -5.7180262929025956e-02, -1.0958102573380001e-02,
          -4.0080407199929016e-02, -7.3272083405872240e-02,
          2.0861797009797689e-01, 5.8435433368971956e-04,
          2.5955548237279408e-01, 2.2359260712384468e-01,
          7.6575561932842012e-02, 5.5393994042547211e-02,
          -3.9331240042454231e-02, -2.0237265583902156e-01,
          -1.6246655562497773e-02, -1.6251137775117986e-02,
          -4.6397398543292348e-02, -8.4962496759853987e-03,
          2.6544390769118544e-02, -6.6861681077236029e-02,
          -8.3042110840888250e-02, 6.8889168380773913e-02,
          -1.8024073251514441e+01, 4.3842089006579883e-02,
          6.2141557615415802e-02, 1.0708018561894331e-01,
          4.9623661207467161e-02, 7.1532582539049469e-02,
          -4.3113167361985991e-02, 8.1718554936153556e-02,
          5.4243243517451439e-02, -4.9385751440640023e-02,
          3.1984011915962292e-04, -1.3407571860822082e-02,
          -3.6330405015343292e-02, -5.3701553207685923e-02,
          -5.5987921994029313e-02, -2.9070858772973111e-02,
          -4.5075276537157788e-02, -2.2610513348084442e-02,
          -1.5894111453307995e-03, 6.7385966014136642e-02,
          -3.7296773021786821e-02, -3.6947269764007161e-02,
          6.0861967300561377e-02, 1.6417396867230673e-02,
          -4.3163320592384501e-02, -2.2414087586898855e-03,
          5.7072580090143148e-02, -2.6710057328741749e-01,
          7.2849430868049125e-02, 2.2617476537137228e-02,
          -4.5479586607172814e-02, 3.8875805785964009e-02,
          5.4689366382543136e-01, 1.0229489955559678e-02,
          -1.3735973250762848e-01, -4.3726344644582658e-02,
          -1.3197153335998651e-01, -6.9885204197155548e-02,
          -4.5287544030679205e-01, -8.9296405611357862e-03,
          5.5570848589510280e-02, -5.0566893530685414e-02,
          5.1502250759170608e-02, 7.9064069922075930e-02,
          -9.3320033721996501e-02, 2.5858954353272047e-02,
          1.1621313408317362e-01, 1.0087532000815387e-01,
          4.8236233832834791e-02, -2.3642391112480912e-02,
          -3.6335196664204421e-02, -1.9975087289706345e-02,
          2.3419062843962285e-01, -5.6556640820652780e-02,
          4.0392197020620711e-02, 3.6180472491407441e-02,
          4.4328081763060405e-02, -1.2654710613084960e-01,
          -4.9432017710584003e-02, 1.0165462502329436e-01,
          -5.0665962670956174e-02, 2.7202827527969691e-02,
          -3.7220106948076090e-03, -6.9886805717951847e-02,
          3.1019808063636567e-01, 8.7469760157847076e-02,
          2.2866000051042956e-01, 3.4436427279001042e-01,
          -3.0883342060843730e-02, 4.3299734459308473e-02,
          7.2018638200532392e-02, -5.4491824458023246e-02,
          -7.4395361156807616e-02, 7.5887579872582515e-03,
          4.9339110043555311e-02, 2.1571523666359328e-02,
          -3.3443512453751746e-02, 4.5568026943474262e-02,
          3.6183537583775495e-02, -5.1781809843102128e-02,
          -9.8973751776626813e+00, -9.4682294120532487e-02,
          -5.8670047605629209e-02, 8.3585534498961389e-02,
          4.5519921575284499e-02, 4.1424550526707044e-03,
          4.2806959877236178e-02, 4.8873154901215542e-02,
          -5.3547507131590164e-02, 6.1499242075662180e-02,
          3.0795807993381826e-02, -1.4462411834371060e-02,
          -1.1030937116346803e-02, 9.3469875960263349e-02,
          1.7313447849235112e-02, 3.5820222491404215e-02,
          -5.0624334641363428e-02, -5.2997060731349507e-02,
          -6.3479813667839030e-02, 2.6903155570569048e-02,
          2.6121205131129477e-02, -3.6351685792716706e-02,
          -2.2141895576335505e-02, -7.3300361677441236e-02,
          -7.8364861245563949e-03, -4.1391714053822153e-03,
          2.0058327581205543e-02, -2.1490720920088505e-01,
          3.3116194541318089e-02, -2.9423919064400762e-02,
          -6.3763562776397401e-02, 5.9803643304927045e-02,
          2.4492795537329964e-01, -5.9191179562336363e-03,
          -2.1400747139534628e-02, 2.0322872977155276e-02,
          8.2300796437503338e-03, -3.0066287832879523e-02,
          -1.7340580221694046e-01, 1.4825597090928183e-02,
          -2.5171325343871963e-02, 3.9625003124287531e-02,
          -4.5870175249287375e-02, -8.8192846585898361e-05,
          -7.9437123779626209e-02, -3.4787902313053086e-02,
          3.0226807594209121e-02, 6.5938337981868836e-02,
          -7.3065694044654503e-02, -6.0616375285569950e-02,
          4.2889955359769291e-02, 2.9921753195759043e-02,
          1.2391011650488544e-02, 5.5429108193656873e-02,
          -8.9109058489740031e-02, -5.2968337512730133e-02,
          6.1833094184195719e-02, -5.3284274064925134e-02,
          -6.0620960878348562e-02, -2.7677009469686317e-03,
          4.8165010439015089e-02, 4.2272913174206117e-03,
          -2.4162507204052532e-02, 7.5836331599968068e-02,
          6.5801256679848860e-02, -4.9935825520159426e-02,
          1.1059389065911865e-01, 8.0095381426896317e-02,
          5.5643422711386475e-02, 1.4377797176325303e-02,
          1.4343756240526381e-02, -1.5809955853201822e-02,
          -5.6548837991597323e-02, 1.3649155989896754e-02,
          5.2913717495824408e-02, -4.7801895286148262e-02,
          8.6760975692991738e-02, 1.3027904065653474e-02,
          1.8819591990927913e-02, 3.0571009381764679e-02,
          -1.6023197147909592e+01, -4.1023286057952357e-02,
          -2.1338037776172682e-02, 1.9281492432446554e-01,
          5.1114620767385738e-02, 9.2487257171862527e-02,
          1.7745673542363517e-03, -8.1772579405671092e-02,
          -5.8497816492224684e-03, 2.0822267131395483e-02,
          5.2999924568917008e-02, -6.8262808746654240e-03,
          2.6858719011484442e-02, -1.5269964531873745e-01,
          -6.0098960130258033e-02, -5.3186664444128728e-02,
          6.4541132154693245e-02, -8.0566665186497674e-02,
          -3.3243486905531007e-02, 3.1811068283792959e-02,
          2.4158453417746622e-02, 1.9723312864057929e-02,
          7.1484793155765447e-02, -3.4989080323103175e-02,
          5.2548876527800506e-02, 4.2560168832427643e-02,
          -4.7009116215850341e-02, -2.1349053034278287e-01,
          3.9189800404369306e-02, -2.0974552647120108e-02,
          -6.1173964476926211e-02, 4.5874594024380641e-02,
          4.1033338846911915e-01, 4.4161427421126311e-02,
          -5.3180980818406554e-02, -5.4419344120451157e-02,
          -9.0119871675482577e-02, -5.1029576704085368e-03,
          -3.2808737312555014e-01, -5.0817438789527297e-02,
          -3.0200901592455549e-02, 8.0475059809402519e-02,
          -2.0144468643664499e-02, 2.8477776769467614e-03,
          -2.7254281586742707e-01, -2.1527275612706891e-02,
          2.5225886616194238e-03, 4.3546128892840714e-02,
          1.2494289333351503e-02, 4.7715413638811703e-02,
          -1.1720369735413240e-01, -6.6861708226432989e-02,
          2.3536847406609723e-01, -2.2670479114588672e-02,
          9.7175447785055741e-02, -1.8852594309311563e-02,
          -1.0518672624071008e-02, -1.0178696120415155e-01,
          8.7455817318920104e-02, -3.6281282042397900e-03,
          1.7614240785365075e-02, -5.3797037121043556e-02,
          -5.3739420154581281e-02, -3.5600392274326119e-02,
          2.4371365716144117e-01, 4.4471664096013781e-02,
          1.4396211401582026e-01, 2.9080212667178607e-01,
          3.1011036901050955e-02, 7.3677465798594646e-02,
          -3.6770498920352897e-02, -8.0062687104519858e-03,
          -7.0753027354012697e-03, 7.5511775150487511e-03,
          4.4675228617702491e-02, 2.3189315218453400e-02,
          7.0553264783252564e-02, 1.6652670994609771e-02,
          3.9231034073193664e-02, -5.8358890135029604e-03,
          2.1359617409865170e+00, 6.0797593258602310e-02,
          -5.4073519794924099e-02, -2.7173527356820840e-02,
          4.7900367677362700e-02, -5.7846352953727601e-02,
          5.5120626967351323e-02, -1.0893539103639658e-02,
          -3.2916557706955007e-02, 5.7161733058866040e-03,
          -8.2658001431436950e-02, -1.8621424310769189e-02,
          -3.5636548309120830e-02, 6.2421188232379354e-02,
          -4.0561210116037860e-02, -5.3511657012892386e-02,
          6.4723934135156327e-02, -6.2036147364986367e-02,
          1.7945644128295656e-02, -1.0712701160406065e-02,
          -1.7867149332773613e-02, 3.4553574623018310e-03,
          -2.8843191489838913e-02, -1.7553837217675332e-02,
          -4.8253338748021284e-02, -1.6453619123652053e-02,
          3.1450967000212611e-02, -7.9406578158721985e-02,
          7.0934039831394707e-03, 1.4542713877262947e-02,
          8.5260482432549869e-03, -3.8093032812699434e-02,
          -4.6593521916808442e-03, -1.2667968984539302e-02,
          4.5944183846556540e-02, 4.9738994143520121e-02,
          -4.1849165906343175e-02, -5.9222075773581071e-03,
          1.1524307182812936e-01, -1.4147576938311097e-02,
          1.5667254462227009e-02, 3.8228930435841371e-02,
          -1.8596731015731689e-02, 3.2955470304899488e-02,
          2.9682245745437652e-02, -1.7503966905615564e-02,
          -5.0467258244557549e-02, -1.1306371324284968e-01,
          -6.1886501035013274e-02, -7.9887954832930340e-03,
          6.2874618817915881e-02, -6.0609389041428104e-02,
          5.4169942418350506e-02, 2.8937835932320626e-02,
          -8.5083338238353734e-02, 3.2719453099301347e-02,
          6.7668206182600471e-02, 1.0292426972045005e-01,
          -3.1082355983848134e-02, -4.6617123904088530e-02,
          6.0978233008518795e-03, -5.2813854727514632e-02,
          -1.0542834808867725e-02, 3.2258703686886415e-02,
          -3.8649496260030711e-02, 2.3565195945247055e-02,
          8.2271699802770090e-02, 3.2438105338093437e-02,
          -7.6828717080521594e-02, -9.5931987761020937e-02,
          -3.5860127391863401e-02, 1.1211521483122138e-02,
          8.7967047441686055e-04, -5.7156215857474789e-02,
          -5.4451274902315411e-02, 8.3191625353557092e-02,
          -7.7753107319453951e-02, 9.8284666564186027e-03,
          5.7365062093533226e-03, -6.3983080809010259e-02,
          2.1313509586521370e-01, 2.1501411037149257e-02,
          3.4173840950655780e-02, -2.3509632985603771e-02,
          -2.1966518752554478e-02, -4.3704800816440376e-02,
          -8.9336357460554888e-03, -4.6148740982296620e-02,
          5.9830903836946954e-02, 8.4409831373346410e-03,
          -1.0800573659531614e-02, 2.7907070237461713e-02,
          -4.5667221705980213e-02, 4.7153249599155206e-02,
          4.5593782578154274e-02, 2.1863373209323893e-02,
          -1.3451016362780094e-02, 2.2087905921156826e-02,
          -6.0899713859433931e-03, -8.3132686418426041e-02,
          2.8540681538253246e-02, -4.6509043031542803e-02,
          -8.2593770571506103e-02, -6.8871413371023066e-02,
          2.6362109940178336e-02, 5.1795265715510894e-02,
          -3.8620213451935975e-02, -2.6939986165929141e-02,
          2.8353652419280038e-02, 8.0311550919002217e-02,
          -2.9426282651758319e-02, 4.4425720658404187e-02,
          -3.4297395896592614e-02, 2.8930458542717908e-02,
          7.3653304163111818e-02, 7.6278983502995265e-02,
          -2.0697106280965182e-02, 8.6291226852760236e-02,
          1.7498829377125544e-01, 2.1853331587693391e-02,
          3.1192966274653202e-02, -8.0772540147054900e-02,
          -6.1767258695435784e-02, 5.8409502133820596e-02,
          -2.4651133502038024e-02, -2.2878742869253454e-02,
          -1.3474793018834899e-02, -4.9042634354714079e-02,
          -3.0912516916401810e-02, -8.7761154058589211e-02,
          -4.8662626413935470e-02, 5.5561428580052322e-02,
          -2.9043412013999476e-02, 5.3757805506620973e-02,
          -7.8755970673450026e-02, 6.3815569914935352e-02,
          -6.8995758069536048e-02, 7.2703366015277937e-02,
          -2.3564973479129472e-02, -8.4141437887463838e-02,
          6.2272457091211902e-02, 9.8500859284921638e-02,
          2.1919685658688673e-03, -6.7085629174916603e-02,
          -7.7823799434213206e-02, 2.4913427657645929e-02,
          1.2431840290706644e-02, -7.5980071046317779e-02,
          -5.4958608599456629e-02, -2.6957884876554709e-02,
          -7.9378419236273964e-02, 5.1016278812115956e-02,
          -9.6745694147173777e-03, -1.0369109926923446e-01,
          4.9897595971268600e-03, 4.0075609622151599e-02,
          3.9385281168259366e-02, -7.1317438879891185e-02,
          1.6589222365067581e-02, -5.1254757197177953e-02,
          -6.6883913224509428e-01, -5.0680845072542488e-02,
          7.1109833646379447e-02, 4.4705111158935239e-02,
          3.8591928814501353e-02, 1.5222143438912912e-02,
          3.9627446413520685e-03, -4.4825277527735935e-02,
          -6.6310924665895929e-02, 4.8290506748539779e-03,
          -7.0310307812061689e-03, -3.1111442430367797e-02,
          3.6286521083486872e-02, -1.3214280760430786e-02,
          1.9049057348858187e-02, 5.6734205245303820e-03,
          1.5459771930775513e-02, 7.1209429157351699e-03,
          2.4010530829395110e-02, 5.2164969998650196e-02,
          -4.7102218260286988e-02, 8.2485888822205228e-02,
          -6.6052458265163219e-02, 4.1548231317074164e-02,
          -4.0292627736547206e-03, -1.4611693674809715e-02,
          2.6356142814330883e-02, 1.6549747644430266e-02,
          6.3401411005454586e-02, 4.5849581169993631e-02,
          -8.8568023873780849e-03, 2.4789833701186082e-02,
          -1.3114375218676280e-01, -2.4985220014803595e-02,
          7.3699228013875240e-02, -4.3065919083521927e-02,
          2.9612149976734840e-02, -5.3717772829576467e-02,
          8.8189793843732489e-02, 1.8804745335937820e-02,
          8.4774621506016806e-02, 3.1509084609118644e-02,
          -1.0946786948054102e-02, 4.9461422186631097e-02,
          -6.5681703543906317e-02, -4.2447103049119261e-03,
          7.6855459850996857e-02, 1.1696109097127221e-02,
          -5.1422308562401903e-02, -2.9602727979417241e-02,
          -1.4384582586080894e-02, 1.7380308886741434e-02,
          3.3712416962818903e-02, 7.2779170422112058e-02,
          -2.4284963828153164e-03, -5.6324735611656879e-02,
          -3.2193754052261742e-02, 5.3172243976764073e-02,
          -2.7585318372459835e-02, 4.1618574305139773e-02,
          -6.0790890093843745e-02, 4.1808389951093428e-02,
          -3.7426134853937060e-02, -1.0540107744561060e-01,
          -4.0267212902888490e-02, -1.7576450575585312e-02,
          -3.1570669524187536e-02, -1.3695151563864074e-02,
          -2.7363382937961495e-02, -7.2590758316522577e-03,
          3.9972402128299021e-02, 2.4233848621349523e-02,
          -3.6951176549620594e-02, 2.1840321741137803e-02,
          1.9054130230049478e-02, 5.9967964632903464e-02,
          -9.3133511824590981e-02, 7.4237721765939346e-02,
          5.6909475423356963e-03, 2.1698615244972658e-02,
          1.0633177013173025e+01, -1.0040644482959325e-01,
          4.4172981822243662e-02, -1.3655881146106666e-01,
          2.2612606785652758e-03, -9.4365189592676049e-02,
          3.0005757016781404e-02, -7.5487161717328888e-02,
          1.1508402186469473e-02, -4.7839575406682565e-02,
          6.2818643196093760e-02, -2.8944648157810206e-04,
          -3.4896569558570421e-02, 4.4563553571846083e-02,
          -3.3988275177358238e-02, -4.8939310649232695e-02,
          1.9907186387931340e-02, 8.1269525315606037e-02,
          2.6553771491541864e-03, -3.9743865319748571e-02,
          -3.7455942318075038e-02, -4.7106596377303377e-02,
          -5.2527737451654982e-02, 3.0710132423954376e-02,
          9.8706983034491345e-03, 8.6650488652356181e-02,
          2.4788058406118370e-02, 8.0471304755565062e-02,
          2.2291869147042224e-02, -7.7213630199305466e-02,
          1.5569304105161297e-02, -7.6091058339376461e-02,
          -2.2101564114113109e-01, -3.0231899021574637e-03,
          -1.2151329127223085e-02, 3.9323677857282142e-02,
          2.9323210825855281e-03, 6.7129321228449057e-02,
          2.2177920401691739e-01, 8.5934082714772514e-02,
          -2.3446827157189154e-02, -3.3832774639433586e-03,
          -3.1914047819259356e-02, -4.6644454569895417e-02,
          2.7013937213656143e-02, -2.6040198891172733e-02,
          -2.9856789484150447e-02, -7.9317103558869465e-02,
          7.0665601975402351e-02, -3.7372115954126539e-02,
          -4.0092349680249228e-03, 4.5908690980637427e-02,
          1.7136036897093098e-02, 1.6651481007789598e-02,
          -6.2904232639633781e-02, -4.6948950547994299e-02,
          8.7634900832715863e-03, 9.8331626195482941e-02,
          -7.2071155819774049e-04, 2.5610176323162927e-03,
          -5.4073975412405079e-02, -4.7187360809659268e-02,
          -3.2084686253893359e-02, 1.3764384132199309e-01,
          -2.2931505916771808e-01, 9.5315692002075139e-02,
          -1.0285100214906681e-02, -1.9613471521505751e-01,
          1.7623296544110264e-02, 1.0628994412435252e-03,
          4.8500568270778560e-02, 1.1056804645283485e-02,
          4.7250158471033026e-02, 6.7527556612204498e-02,
          2.9653038420788171e-02, -1.2918172360035561e-02,
          4.8107176690276143e-02, -2.6520727968247240e-02,
          5.5091948279706954e-02, 1.4368460209473846e-02,
          2.4396753915017499e+00, -8.7981437867236129e-03,
          6.3338124957136421e-02, 1.0710540335833996e-01,
          -4.1169759117167304e-02, -4.9274090497169035e-02,
          -4.8733924502960511e-02, -4.6314256344263678e-02,
          -5.1630093738661884e-02, 3.6571415335727407e-02,
          3.7130390684006107e-03, -5.4424490330491050e-02,
          -2.1805898491092816e-02, -1.3573171864883471e-01,
          -5.8220428549383245e-02, 6.5681485427251607e-02,
          -4.8639542269238299e-02, 4.6017263369701904e-02,
          3.0388697781821499e-02, -1.3721235784924596e-02,
          -1.7211290702918412e-02, 6.8965976109787705e-02,
          -7.3124813064071675e-02, -6.8513746234414039e-03,
          -3.2876719645681056e-02, 5.3913327156921553e-03,
          -4.7152812029251361e-02, 1.3593865496357349e-01,
          3.9446648154571336e-02, 1.0342030543781803e-02,
          6.0645405751100660e-02, -1.3114408075035536e-02,
          -4.9763516371617356e-01, -7.2345803712674558e-02,
          1.0937599579500898e-02, 6.3518140074612983e-02,
          -3.6312915543055171e-02, 2.1231006716394812e-02,
          4.3907553723708592e-01, 4.8607739172573964e-03,
          -5.3863073910270523e-02, 7.5242384220424535e-02,
          -3.0783503611606911e-02, -2.1015019144846648e-02,
          -1.6208724066884031e-01, -3.3191910624836403e-02,
          1.4516957372137851e-02, 1.1965078763057611e-01,
          5.6204917403276634e-02, -8.6620311328068286e-02,
          2.1014548672645173e-02, 5.9501650799253659e-02,
          1.8755059099694857e-01, -5.6857525303442860e-02,
          2.7214204825407120e-02, -4.0800260768745480e-03,
          4.2103880174625435e-02, -1.2599300338335129e-01,
          6.5900738187451749e-02, -1.4712075314779268e-03,
          -2.2385333919172544e-02, -4.4516562756928640e-02,
          1.1101965319310033e-02, -4.2245915388283713e-02,
          -1.2365088214922422e-01, 1.1057033799764729e-01,
          -5.0227963801315056e-02, -2.2232293891581723e-01,
          6.1551075265167204e-02, 4.5452297028634292e-02,
          -1.8702926430995770e-03, 2.9098376832126249e-02,
          -5.3855432379728528e-02, -2.1957501240548905e-02,
          -4.6871698441979220e-02, -5.0516284964581083e-02,
          4.3015027624931951e-02, -7.5837326080104114e-02,
          3.2148385555206285e-02, -4.6571641151078626e-02,
          1.8883344940647849e+01, -8.2328099414046590e-02,
          7.9759474280999068e-03, -1.9770997891719028e-01,
          1.6407028394282073e-02, -4.4479903555684860e-02,
          -3.8847482808861709e-02, -2.2467639047702829e-02,
          -4.0214865503237884e-02, 3.2770266225629799e-02,
          1.2395061418994487e-02, -7.6355661947735187e-02,
          4.3236249727510438e-02, 1.6623560962954800e-01,
          2.7892847578130974e-03, -6.5356271448434422e-02,
          4.9518690406248025e-02, -8.3626746180409078e-02,
          3.6129731382501730e-02, 4.9429439849138092e-02,
          6.9721722882179205e-02, 2.7969946812249912e-02,
          4.9745417199812132e-02, -3.8705661414694691e-02,
          -6.1800677970381045e-02, 3.4242848989529812e-02,
          -3.8716979404532892e-02, 2.9254542608932635e-02,
          8.8877922842073645e-02, 4.1933295291660816e-02,
          2.4024696386327708e-02, 6.6437337694238749e-02,
          -3.8428683356336213e-01, -7.0312704024788029e-03,
          3.9812567013717539e-03, -3.3801084822132094e-02,
          1.0316790864844021e-01, -3.2463246833425177e-02,
          4.4630291520571663e-01, 8.3697941258893613e-02,
          4.2000318785452080e-02, -3.8257698072906098e-02,
          4.9813092914470967e-02, -6.6163842721245480e-02,
          2.4494109585175008e-01, -3.4041691240345236e-02,
          -1.4056170693730050e-01, -2.1045184544389839e-01,
          -5.2555646437949501e-02, -1.1010649883786582e-01,
          1.0965368511203623e-01, -4.3664435906998263e-02,
          -2.1447158613348027e-01, 1.7965109056434985e-02,
          -1.6124460290436576e-01, 4.8787403445946301e-02,
          -4.2405243316599200e-02, 1.2843872929312142e-01,
          6.1349938107170907e-03, 1.4403911179140102e-02,
          -3.1894343221450079e-02, 4.2054179748610344e-02,
          2.4021972765071550e-02, 1.6583004762131856e-01,
          -2.6224204849778837e-01, -1.2448388926441750e-03,
          5.3319458938115412e-02, -3.6681744966691504e-01,
          -8.6550820871139592e-02, -7.9189986934656391e-03,
          -6.6435389589285009e-03, -1.4366741202918714e-02,
          -6.6932808700424840e-02, 2.5547019971367019e-02,
          5.9133587064165568e-04, 3.5239036227950223e-02,
          -6.4589984365710940e-03, 3.2609867931743072e-02,
          -3.2336335125951493e-02, 6.9989073255444317e-02,
          1.1535245453557714e+01, -6.2944372327842099e-02,
          6.3061868127353551e-02, 1.6545696379481115e-02,
          -3.5145405178658232e-02, -8.4060701086606987e-02,
          5.2667135076507068e-02, -2.7508340598870161e-02,
          -6.5834608552037141e-02, 1.8579981579351878e-02,
          2.4093320556609829e-02, -1.0674651953034216e-01,
          2.5866121011496393e-02, -3.1488275369239822e-02,
          5.4301998739735596e-02, -2.1331776240863045e-02,
          5.8261247838958696e-02, 5.0700962316242940e-03,
          -8.5656487236367762e-02, -6.4053093846953915e-02,
          6.6473918591447037e-02, -8.7897881360067855e-03,
          -3.2628758473647927e-02, 7.8723206128431422e-02,
          6.4633484236362893e-02, -1.5036090136424402e-02,
          -6.0381647372719144e-02, 8.9460776542370614e-04,
          7.4454954104545709e-02, -1.1819839982585456e-02,
          -7.3261778713684431e-02, 4.5188099911508328e-03,
          -3.2563314889440409e-01, -7.4982121225856166e-02,
          5.5998180184773795e-02, 6.2892587859222887e-02,
          4.6782094366902990e-02, 7.3548679716409937e-02,
          3.6185215070931848e-01, -3.4212801427590263e-02,
          5.8024271758990248e-02, 4.1634577843737995e-02,
          4.1333672846325262e-02, -1.1863153137299501e-02,
          2.2903380685893981e-02, -3.0135475346116106e-02,
          -6.8527458530112254e-03, -1.1900000464826916e-02,
          3.0469674533154557e-02, -6.9510728524092069e-02,
          3.1769335889478251e-02, -7.2385095582088235e-02,
          1.5598008716690297e-02, -5.6700181295886803e-02,
          -5.9556756910642647e-02, 4.8169745408428742e-02,
          -5.9256062699111878e-02, 1.1448211084067821e-01,
          -3.6659739880901168e-02, -4.7595705705893228e-02,
          -2.1869612953069339e-02, -6.0310211353405176e-02,
          7.1602950665227774e-02, 1.0837377758933309e-02,
          -2.2962279079960607e-01, -8.4927975583332010e-02,
          -1.0871957063072542e-01, -1.7657856299308139e-01,
          -8.8369138768623332e-02, 2.8206991704888371e-02,
          -4.2096453363560408e-03, -4.3321404448470262e-02,
          -5.6103305043172617e-03, 2.9413904618936525e-02,
          -2.7768412121611949e-02, -1.2268796218288095e-03,
          1.0026427392041718e-02, -2.5278755289368595e-02,
          1.6371962774676948e-02, -6.0785810185110971e-02,
          4.2980232315412259e+01, -6.8359307487416573e-02,
          -5.4201116991914988e-02, -5.1743987934099367e-01,
          -2.7939612873196577e-02, -9.1209419857565116e-02,
          -4.5922799959799622e-02, -2.9627245707136325e-02,
          -2.2629431551478571e-03, -1.6157669851405826e-01,
          9.3007999489516592e-04, 8.4838998569304477e-02,
          -6.0899794578930785e-02, 3.8086515173194374e-01,
          6.8943280008425215e-02, -2.3136680844317543e-02,
          4.5710959436433767e-02, 9.0704568546573858e-03,
          -6.9798923993736661e-02, -7.0188719451973067e-02,
          2.1437904244373820e-01, -7.3783235401345945e-02,
          3.3842457935256955e-02, -7.0589825653693261e-02,
          2.4255961389726442e-02, -3.5062402512914252e-02,
          1.5964658780602903e-03, 7.3482537806379378e-01,
          1.5845221143356687e-02, 1.6150127311403514e-02,
          -5.9111755683221509e-02, 6.6263246674235568e-02,
          -3.1778644796138167e+00, 5.4315569587851394e-02,
          1.5734114530053803e-01, -5.2343169058825405e-02,
          3.0088090647213933e-01, 5.7083482969715230e-02,
          2.6332420745308465e+00, 3.4516950732276863e-01,
          8.6633791069993818e-02, -2.2336156191195493e-02,
          8.7469473719018285e-03, 3.1201585896005218e-02,
          1.0342752810562206e+00, 1.1686052624813907e-01,
          -2.9385764267981962e-01, -3.5146926314284410e-01,
          -4.1059886141445290e-02, -2.0797086380113423e-02,
          1.3603832912142813e-01, -1.0233112473602125e-01,
          -7.8498683071322795e-01, 3.5163252377050883e-02,
          -3.4475985720440022e-01, -4.5247400851864086e-02,
          -1.1588715638023442e-01, 2.6538937647921101e-01,
          1.5382524843355163e-02, -2.1839366942025742e-01,
          -8.4912542108548355e-03, 7.2446397288193187e-02,
          1.8603475006978226e-01, 2.2122813476877595e-01,
          -1.7261331230303523e+00, -3.0149252874067594e-02,
          -6.0807734472686858e-01, -1.9514412214237573e+00,
          -1.4813149694518071e-01, -1.3534149348758856e-01,
          -7.9643245532307325e-02, 2.7816536412483400e-01,
          7.0485366770172184e-02, -5.4895929760648596e-02,
          3.7643099568056067e-02, -2.0273871904089216e-02,
          -6.6483374557551142e-02, -2.5714566816912147e-02,
          4.8168622544294354e-02, 5.3234535399479345e-02,
          2.0328088137073536e+01, -1.0361657164561919e-01,
          2.7614022711749012e-02, -1.2454734948534138e-01,
          -1.6068045464707349e-02, -5.8669816169122015e-02,
          2.3557442688210983e-02, 4.2281185473228872e-02,
          -5.4305231960865084e-02, -9.1560238157921664e-02,
          -8.1268188018048526e-02, 1.6298679473974804e-02,
          3.2228750435281200e-02, 3.6343803466914085e-02,
          -3.6057903014120374e-02, 5.1524175090141185e-02,
          5.9655579442667479e-02, -3.6943990952158889e-02,
          -8.5445016771825047e-02, -1.8401327847694667e-02,
          -4.1683998521364982e-03, 7.5727162068924972e-03,
          3.5068172564307346e-02, -3.5934960039596807e-02,
          -1.9322819733037951e-02, 9.2121747203489732e-03,
          3.7529742941009747e-02, 2.5381969873480714e-01,
          -2.1890077470046829e-02, -7.5152161690275929e-02,
          3.2766913144791784e-02, 3.0383682059060203e-02,
          -1.1022383099600377e+00, -2.2623137308586328e-02,
          7.3344070343358631e-02, -1.7917356592090327e-02,
          1.0802973004137841e-01, -5.7290758509169017e-02,
          9.8102723985300888e-01, 1.6560090817795928e-01,
          -1.8656115413579408e-02, -7.8058366827628081e-02,
          -3.5293320311492342e-02, -3.9888328372474028e-03,
          3.6171951419500464e-01, 3.7294074085639603e-02,
          -9.7057367154781429e-02, -1.7452132559784442e-01,
          -3.5524095739234984e-03, -1.0370331520662777e-01,
          1.4217852883226850e-01, -2.2052952602863697e-02,
          -1.7332563913660551e-01, -1.6118733016415813e-02,
          -6.7967400589653115e-02, 6.2981759797401352e-02,
          -4.0504636521281057e-02, 1.1758278453127764e-01,
          1.6644431109552906e-02, -3.1451847169999408e-02,
          6.2639502607750697e-02, 2.3422572970911489e-02,
          8.8654554670107188e-02, 1.2423132363772849e-01,
          -5.4721998816672013e-01, 1.8095023676313871e-02,
          -1.1498992934861010e-01, -6.1694797132969881e-01,
          -2.9298147343988782e-02, -1.0369478141413924e-01,
          5.7951649819523885e-03, 1.6189909912486039e-01,
          -7.2807744261476445e-02, 1.0112397001652415e-01,
          -6.7979008661072163e-02, -7.2350152407073048e-03,
          -4.3592870874470342e-02, -2.8975693662490552e-02,
          -4.0031556620689905e-02, -2.5661395598839752e-02,
          1.9907943131760899e+01, -8.2222806833460546e-02,
          -6.8487253865261194e-02, -2.3638267694154411e-01,
          -3.3614282955511290e-02, -1.1782319323021333e-01,
          5.4430034869440480e-02, 5.1458586380155255e-02,
          1.1258680779453007e-02, -3.4639225131954436e-02,
          -6.5023053677567944e-02, 2.2162889573418259e-02,
          -3.7481751506407791e-02, 1.0243163645156664e-01,
          8.3398883912004770e-02, 5.5902976984573534e-02,
          -3.8177785591820883e-02, 3.4584690140854947e-02,
          3.4081512638910787e-02, 6.0562966751351803e-02,
          7.7842372403897483e-03, -1.4077506857434671e-01,
          -1.9281619574127964e-02, 3.8126536137216060e-02,
          4.8274529005022646e-02, 2.4971622725120986e-02,
          -6.7512851913291511e-02, 1.4799238061287198e-01,
          3.3110110586396062e-02, -2.8244663998506139e-02,
          6.2306909598498425e-02, -4.1146324468095349e-04,
          -1.1331987443043892e+00, 3.5128598849277333e-02,
          9.8195599652926305e-02, 3.4157772173993933e-02,
          1.3290700065316671e-01, 6.1183844403099839e-02,
          1.0109324529323573e+00, 9.4306633087750169e-02,
          2.6887962962529106e-02, -9.9961691072404327e-03,
          5.0345095292334670e-02, 4.5347462214800210e-02,
          3.2942027915892380e-01, 9.6475533648290469e-03,
          -1.1169884315461555e-01, -1.1318362123669844e-01,
          -6.6847936146265455e-02, -9.8139253342406529e-02,
          1.5977228380491276e-01, -2.2762709851868519e-02,
          -2.0820794815472851e-01, 6.6344539716964815e-02,
          -8.4679410136427893e-02, -5.9781493910281243e-03,
          -3.8746236047039626e-02, 1.0610783334657704e-01,
          8.0502907146097813e-02, -6.5135526316425815e-02,
          7.5127376257649536e-02, -6.0081877039254078e-02,
          5.8366517830956553e-02, 1.3492200038219876e-01,
          -6.0984509675408860e-01, -2.7976442274663973e-02,
          -1.4168482405422411e-01, -7.0239678911959602e-01,
          -1.4306171169205817e-01, -5.1197579421772953e-03,
          -5.9144177282064690e-03, 1.4343664081075763e-01,
          -7.1913353489287818e-02, 1.6690584409417928e-03,
          -3.9740241793124291e-02, -6.8450495628621169e-02,
          4.1726552034428203e-02, -5.3778837673537409e-02,
          6.9608583204291752e-02, 1.9207809192211142e-02,
          1.9636361374967670e+01, -3.2722976552058594e-02,
          -2.3924883052789635e-02, -6.3106981838505105e-02,
          7.0966524784111057e-02, -5.1689984725118647e-02,
          8.5658274209651580e-02, -5.2958991067060070e-02,
          5.7384234458877047e-02, -2.8110188570280942e-02,
          4.3921525075378116e-02, -2.9261735519262536e-02,
          3.9392915317022804e-02, 5.4903028967530111e-02,
          6.1673197465762775e-02, -5.6770427638365040e-02,
          6.4840286344476444e-02, 7.4656090286954774e-02,
          4.9287950015301452e-02, 2.8930595383709401e-02,
          8.2311412023206909e-02, 6.1067482952873675e-02,
          1.5268680577912181e-02, 8.1812497907588613e-02,
          -7.9350869698993576e-02, 1.8738986610104109e-02,
          -9.2941711821545869e-03, 2.3314512332167847e-01,
          -1.3062179870726619e-02, -6.8101234773144489e-02,
          4.8898765116206317e-03, -7.2450238714300980e-02,
          -1.2869539917375441e+00, -1.3670323467913765e-02,
          -1.9168742998425402e-03, 7.5064487117811373e-03,
          -4.2067252387936641e-02, 5.0173784355615522e-02,
          1.1989934528197561e+00, 1.0256433160135633e-01,
          7.7238889252833023e-02, -4.8699995309311093e-02,
          2.1474573098105992e-02, -7.1017381632894436e-02,
          2.1502290943494462e-01, 3.9755206773390971e-02,
          -1.0183418200470734e-01, -5.0916896968413158e-02,
          -7.8974803144791807e-03, -9.5247325994706589e-02,
          1.0641310182928479e-01, -9.5952311799732109e-03,
          -1.7259714909443391e-01, -4.2474164297321114e-02,
          -1.0773389231950913e-01, -5.7579023125594077e-02,
          -1.3966474454227324e-02, 1.1885644319387566e-01,
          -5.7108532742482072e-02, -4.2668501220031588e-02,
          8.5074993241178759e-02, -4.4625595099573354e-02,
          2.5212799275653123e-02, 1.5673368266216976e-02,
          -7.0130897145245630e-01, -7.5863376667149604e-03,
          -2.6217904073980064e-01, -6.3777455798804916e-01,
          -2.0350908648213907e-02, -8.3181380452014370e-02,
          3.1073485733102351e-02, 9.0907297060137310e-02,
          2.6721470581572638e-02, -5.2383673223988285e-02,
          4.3809344358963248e-02, 6.5929558119600717e-02,
          -1.6901225300927782e-02, 2.5791214979987549e-02,
          8.1229437226125155e-03, 4.9408859049000692e-02,
          2.3386071851193066e+01, -7.7754862887579212e-02,
          4.9661938170347940e-02, -2.3383897335578258e-01,
          3.3114654808925177e-02, -8.4314331722281532e-02,
          -4.3569301043129933e-03, 1.8583443676254228e-02,
          4.2777940614404757e-02, 3.1279179707659428e-02,
          4.7400547255503279e-02, 2.0576044169726311e-02,
          -5.5848081529822985e-02, 2.2286928822161606e-01,
          -4.5442322190696978e-03, 5.3351315166956834e-02,
          5.4649029509706796e-03, -1.3365377237619346e-02,
          3.8742836141658958e-02, -4.7160313764275222e-02,
          1.7693092059063616e-02, -7.5441972272636146e-02,
          5.3911669124000902e-02, -6.9016346939362608e-02,
          6.5531752152279299e-02, -7.3076403171788901e-02,
          3.0436519075129984e-02, 1.1084137297398709e-01,
          5.7892239194741513e-02, -6.5251262158114498e-02,
          2.9162193617454403e-02, -5.3916057800696901e-02,
          -1.2213325329031002e+00, -4.9444061006860766e-02,
          2.8199999822617429e-02, 8.5556378235944350e-02,
          1.3427556300895985e-01, -5.0272478537179109e-02,
          1.0326760060549125e+00, 2.2390206984725661e-01,
          9.4045072347686720e-02, -7.5724596035642841e-02,
          -7.1491532495308249e-02, 3.3501463153177286e-02,
          4.6222268353532553e-01, -1.8520258920112775e-02,
          -6.7217075314102315e-02, -2.2412938886931788e-01,
          1.6009309218370231e-02, -3.1403796219506057e-02,
          1.7553644740523594e-01, -5.8207020760757282e-02,
          -3.3553580274945111e-01, -6.6463982577324707e-02,
          -2.4190364889242424e-01, -4.5976430429658773e-02,
          3.4781963897941651e-02, 1.3308270415201107e-01,
          -9.5344957438307995e-03, -8.7505784258718106e-02,
          -5.1954128727649242e-02, 5.3475440906706299e-02,
          3.6688434565870343e-02, 1.5402465444537991e-01,
          -6.1514852752025595e-01, -2.0288993198627352e-02,
          -1.8030002222975605e-01, -7.2817842286443346e-01,
          -3.2148797031123673e-02, -1.4852398146752993e-01,
          3.7085956222497808e-02, 1.1375274608922832e-01,
          4.3983414344759015e-03, 3.5759359981740846e-02,
          -4.7792884050302582e-02, 4.7486398774336844e-02,
          4.4829559489600514e-03, -3.9314166602096426e-02,
          5.6152161092343812e-02, -1.9014557661835112e-02,
          1.5663212786402063e+01, -8.8042604257908594e-02,
          1.1220696564889228e-02, -2.2651217566639728e-01,
          2.7075138316366171e-02, -7.8403930150416348e-04,
          -7.0933864550414186e-02, 2.9375332297719983e-03,
          4.8224696958225809e-02, 4.8418267186588317e-03,
          1.4320908032539338e-02, -4.9028353829445738e-02,
          -3.2928030707058777e-02, 6.2254123872025967e-02,
          5.7037107521737893e-02, 6.0074821484983547e-02,
          -3.4852270173591000e-02, 8.4899133686590897e-02,
          -6.3551948360630314e-02, -5.8992941842957648e-02,
          9.9871744957644920e-02, -6.6463697984417827e-02,
          7.3372863451157941e-02, -3.5215589539451926e-02,
          6.1538250874343114e-02, -6.7263209183689235e-02,
          -8.5890209378481838e-02, 2.6132395061671149e-01,
          6.9632119789486052e-02, 7.0271971959636692e-02,
          -2.8363014225566519e-02, 7.4086723505372215e-03,
          -8.0402907798975642e-01, 5.1132325847931523e-02,
          -3.0722477625274507e-02, -4.5049446937662764e-04,
          1.1033748374985090e-01, -9.8165758918551532e-03,
          6.4457773394035300e-01, 1.0615284573246139e-01,
          3.3468297536636660e-02, 3.1125434476229834e-02,
          6.3828165066351916e-02, 5.9296327896055982e-02,
          2.3676969811796980e-01, -6.7288361119320506e-03,
          -9.9182768263430754e-02, -7.7623102564914989e-02,
          3.9220986086056911e-02, 2.1821139471791571e-02,
          5.5575397577700400e-02, -4.7757063573290549e-02,
          -1.8568599766403765e-01, -5.3941925996983955e-02,
          -4.2265570442045465e-02, -1.6211048957305945e-02,
          -8.1969817100982806e-02, 2.8065305877371910e-02,
          -6.7078843067072916e-02, -1.2918802106897001e-01,
          3.9970892796478710e-02, -4.2583548137955257e-02,
          1.0133701900982871e-01, 2.3691899532852966e-02,
          -5.2766697360709858e-01, -1.5655822615443359e-02,
          -2.0152489762199977e-01, -5.0330995601629447e-01,
          -1.1013568144375982e-01, -1.0918647781627826e-01,
          -2.1982704537102538e-02, 8.7266733880732722e-02,
          5.5699339759529058e-02, 3.6911674443797525e-02,
          -2.7789896712628336e-02, -9.6248950032643776e-02,
          -2.2164161084437833e-02, -4.9444365817303334e-04,
          4.8381209761476848e-02, -2.6013219395341187e-02,
          1.7587053720866827e+01, -1.0517763335149981e-01,
          -6.8426604676484717e-02, -1.7655103623800078e-01,
          5.3997379692084943e-02, -1.1152965042102270e-01,
          -5.3777590912126957e-02, -5.5953521449848900e-03,
          5.8777095148512927e-03, -1.0633548589648824e-01,
          1.0828231715496916e-02, -5.8562131740637867e-02,
          7.4382370744185036e-02, 1.0197914518218772e-01,
          7.3808402980646060e-02, 6.0194664721777834e-02,
          -6.6719664399555005e-03, -1.0128500147257236e-02,
          3.9770661344654179e-02, -7.6212193968473882e-02,
          8.3544631357013802e-02, -3.6389571489092470e-02,
          -1.2070527902597375e-02, 1.4019460663561141e-02,
          -6.5538025101036887e-02, -7.2398392378091786e-02,
          -6.5126856150416079e-02, 7.2438875995233770e-02,
          -4.3026926973274371e-02, -3.6015160161912557e-02,
          -4.2859320964726964e-02, -4.0724749114124027e-02,
          -5.3144496082316517e-01, -2.9771293037541953e-02,
          -4.4402556711736083e-02, 4.0444638631330264e-02,
          9.2297602195484926e-02, 2.9261229928792126e-02,
          5.9592656177494818e-01, 6.5563666943054072e-02,
          -5.9705379814288535e-02, -5.4543622056505529e-02,
          -6.0128506471980529e-02, -5.9938794006237438e-02,
          2.7972971799293522e-01, 7.8893123190168307e-02,
          -1.9575766222731270e-01, -1.6397744466775274e-01,
          1.2984221687801188e-02, -5.3585717157899122e-02,
          1.1436254356032330e-01, 5.8955386054925091e-02,
          -1.0529688113248817e-01, 6.3555965448374189e-03,
          -1.0695157421918718e-01, -4.8008863052280769e-02,
          -5.8690510522119085e-02, 7.5667545971989117e-02,
          1.7106763312797618e-02, -4.8917721600577009e-02,
          2.6751340095039412e-02, 3.3157378257865029e-02,
          6.9962483995086241e-02, 2.4351587805637150e-03,
          -4.2517136468695726e-01, 2.0572355629559804e-02,
          -1.2816860957524934e-01, -3.9200356172436845e-01,
          -7.0529637116580571e-02, -1.1864054932349855e-01,
          -8.0001083884043908e-02, 3.8648870178460137e-02,
          -3.2766647121516009e-02, -1.5354669885414191e-02,
          -5.7210440674201040e-03, -6.8420661210925840e-02,
          1.1075683281602611e-03, 6.4357385807593384e-02,
          -5.6087698655781074e-02, 8.7230425445637705e-04,
          1.0720255917275546e+01, 3.1202049042370367e-02,
          -5.0144272682104502e-02, -1.3563319667367194e-02,
          -1.3861035699475402e-02, 2.6104229845313194e-02,
          -5.1498162416662725e-02, -2.2532798461147946e-02,
          5.7727322390677731e-02, -6.2601398382378465e-02,
          4.4648398607510256e-02, 5.8420127807387576e-02,
          2.6844125758448883e-02, 6.3493802673534619e-02,
          3.1406685011626571e-02, -2.0804871802926703e-03,
          1.4287576126895211e-02, -3.3330325308886587e-03,
          -6.4092913683885408e-02, 2.8899344957367557e-03,
          -1.6613429386273144e-02, -5.6848690685274143e-02,
          6.7963350295553351e-02, 4.7480436135441777e-02,
          -5.0065287059275071e-02, 1.4328785211280639e-02,
          1.7541839368037576e-02, 1.3945507863810169e-01,
          -5.2103042845506618e-02, -6.1257087365086303e-02,
          5.6585058740602059e-02, 2.9789430358706057e-02,
          -6.4971305992837824e-01, 5.5936775347529652e-02,
          7.1964406221117674e-02, 2.6242070388202813e-02,
          -6.6552995405327456e-02, 1.7311966605186926e-02,
          7.1926242335827084e-01, 8.5505807104788879e-03,
          3.1357678290124910e-02, -3.5985243675609811e-02,
          3.3138741753277245e-02, 6.8348901693311551e-02,
          1.7481287406563115e-01, -1.7473047841835197e-02,
          1.6260665983215464e-02, -1.2690279834495025e-01,
          -9.5012782411798506e-03, -3.1677652824822461e-02,
          -4.9335435806913235e-03, -6.7762346439120658e-02,
          -1.3075130696604437e-01, -4.8051230413230596e-02,
          -1.2664108222312961e-01, -4.9887088080901587e-02,
          -1.0512318532613918e-01, 1.1134012611603826e-01,
          2.6039038076610996e-02, -3.9231759328019408e-02,
          -1.1748180622981106e-02, 4.0627379656622095e-02,
          8.5742334417599472e-02, 5.8349246404171017e-02,
          -3.6522108497883132e-01, -6.8624977565647838e-02,
          -5.5862269649281919e-02, -3.6034901220616922e-01,
          -7.1969946837709464e-02, -6.3528141287642378e-02,
          5.6658172207081749e-03, 5.3403666921906720e-02,
          6.0709087235472976e-02, 7.8284966803897835e-03,
          7.0522050680861176e-02, 2.0316855868842291e-02,
          -2.3055310992391520e-03, -3.1049973896743908e-03,
          -5.2409946159525996e-02, -2.5094696801457476e-02,
          2.3053174022788507e+00, 2.1294225507232364e-02,
          3.9348256031057516e-02, 2.2729388186473840e-02,
          -7.0842314019622654e-02, -1.7589539754674668e-02,
          -6.1729213507574973e-02, 5.0775426992542685e-02,
          4.9253545113953266e-02, 4.7249348013111099e-02,
          -4.3152279868238129e-02, 5.7149665021408953e-02,
          -4.1116046300944335e-02, 1.8866660248766105e-02,
          -2.6846543580407920e-02, 2.2715603194905887e-03,
          -2.9017974886258621e-02, 5.9038949590492239e-02,
          3.3485261107207807e-02, -3.8944874003637921e-02,
          -7.1029643672762474e-02, -7.1264016437436878e-02,
          -2.1425047296238387e-02, 3.3123301185990328e-02,
          5.9472056962850954e-02, -7.3024215312035470e-02,
          -9.6382490239734678e-02, -1.2325432861500889e-01,
          9.1878931463714161e-02, -2.0460864069516077e-03,
          3.1327823544047333e-02, 3.4620917281649915e-03,
          1.0730230076371432e-01, -2.6447277294782141e-02,
          3.1678206501534550e-02, -3.2367067607431889e-02,
          -6.2411953497400287e-02, -4.1879656967816421e-05,
          -8.7800396587007737e-02, 6.9948465328373441e-02,
          -4.7108591186197632e-02, 4.4686722548319922e-02,
          7.8598922836106588e-02, -1.4941133953790393e-02,
          -2.4862455426732103e-02, -1.8226767086835716e-04,
          3.8852105482403879e-02, -6.8074433007301496e-02,
          -6.4904956077245751e-02, -5.6118531084518912e-02,
          2.0896121616305208e-02, -3.1674000262812044e-02,
          -4.6413377072213859e-02, -1.5904319762323975e-02,
          -6.6133625729101281e-02, 6.2697862331205736e-02,
          6.5604071333008593e-02, 2.6646673936667723e-03,
          -3.0787352841146962e-02, 8.7886386107139100e-02,
          -1.2398095133404192e-02, 4.7803334124362157e-03,
          -7.4431006226758523e-02, -2.1088964995570648e-02,
          4.8978452924226513e-02, -6.8508140601321287e-03,
          1.1047991207806017e-01, -1.5662834313873664e-02,
          4.6152679765213978e-03, 1.1200891316837986e-02,
          -1.0367464675865475e-02, -4.2202114259358874e-02,
          -4.0067525157536314e-03, 6.2100142978970645e-02,
          -3.4012499970225069e-02, 7.2076064624191694e-02,
          -2.2786609695844104e-02, -5.2818212181120872e-02,
          -2.2857172018762948e-02, -2.6884213925734028e-02,
          -9.9458498753975526e+00, -8.6363031913287355e-03,
          -4.1832113014744245e-02, 2.1452391105460047e-01,
          -5.3359648196785799e-02, -3.5398575046843579e-02,
          1.3473278644820202e-02, -3.9190761693884593e-02,
          -6.8327287749122292e-02, -2.8230237254866383e-02,
          7.5231966267092871e-03, -6.3379550091589590e-02,
          -7.4274110532272465e-03, -2.8716930770494218e-03,
          4.0241770304786664e-02, -8.8297137120468775e-03,
          4.7298728225945849e-03, 2.5082732945120060e-03,
          4.5535980666286668e-02, -2.5809902268250612e-02,
          6.8081061567172429e-03, 2.6869830303257380e-03,
          -1.7940120455500384e-02, -7.0798297265212362e-02,
          1.7473645199987776e-02, 5.0011777316429050e-02,
          -4.3905987653781217e-02, -1.4897042242768915e-01,
          -6.8392288312555269e-02, 3.8681734354450298e-02,
          6.2409465720276260e-02, 1.6826062258378596e-02,
          2.1845395759445840e-01, -7.0971660325523558e-02,
          -3.8450676525445406e-02, -2.5061517504133882e-02,
          -1.0809257475588864e-01, 7.2921842800312718e-03,
          -2.2090435507153192e-01, -1.2535348248774900e-01,
          -3.0760126216918184e-02, 6.3471363844125855e-02,
          -1.3150207961948830e-02, -4.3570477088468208e-02,
          -2.4538236961751531e-01, -2.7181721237864775e-02,
          8.2803618521985936e-02, 6.5710333195810308e-02,
          -6.3526877437556653e-02, -5.0375984582357244e-02,
          -9.1787213257904177e-02, 3.9609603092367253e-02,
          2.0794015179227185e-01, -4.4126124943706803e-02,
          4.4467419827117952e-02, 4.2378486315501875e-02,
          2.4697457492296987e-02, -9.1555879597541440e-02,
          7.0818042399559897e-02, -4.6934940002650673e-02,
          1.3683259808938393e-02, -6.1769425346918060e-02,
          5.0752574902451615e-02, -8.9943704572724908e-02,
          2.2238500863145483e-01, 9.8137515038813298e-03,
          3.0507686348481590e-02, 2.6847084176283170e-01,
          5.5411637456302738e-02, -5.2967472422487368e-03,
          5.6653781247100944e-02, -1.7508828191171586e-02,
          5.5828206679211560e-02, 1.2903302683328363e-02,
          2.7131276165542523e-02, -3.4627390585198224e-02,
          7.8975249206229864e-02, 4.7375264174330613e-02,
          3.4321806018717919e-02, 5.6437080630760764e-02,
          -5.4816058988034984e+00, 1.3746722112213375e-02,
          2.7364026665183200e-02, 1.7781487444250407e-01,
          -5.2476653471080562e-03, -4.5066951218781411e-02,
          -2.0127802308159541e-03, -1.3169863874492651e-02,
          3.7646634923904847e-02, 5.5750287808450552e-02,
          2.1404084044984797e-02, -6.3059450260338282e-02,
          6.7413634709078199e-02, -9.9889548167019601e-02,
          2.4542294634503570e-02, -4.4431241576551275e-02,
          -2.5406122682629994e-02, 6.4177930207926601e-02,
          1.3009824145099781e-02, -1.2586470665627496e-02,
          -6.8601641810883927e-03, 6.3776856240771784e-02,
          3.9009976505229492e-02, 9.7822228078267449e-03,
          -2.9264957849865075e-03, 7.9752242404197135e-02,
          1.6059857392468978e-02, -1.2833335989725392e-01,
          -4.1101959541286572e-02, 7.8072355160235488e-02,
          4.8653983986035966e-02, 3.9093626731216580e-02,
          4.4319282244881103e-01, 6.6089805605286267e-02,
          3.0240152684675451e-02, -5.0612398261288036e-02,
          -1.1796400759834551e-02, -3.0799566327209135e-02,
          -4.0099174401803223e-01, 3.2678158428339467e-02,
          -5.7775898089549985e-02, -4.8674514364246017e-02,
          4.8663270969129856e-03, -9.3256313634068361e-02,
          -1.3937146884899554e-01, 8.0326832698774636e-02,
          9.0649559769776494e-03, 6.5701768105078495e-02,
          4.4195064313702945e-02, -5.0675107201524679e-03,
          2.4608299571428578e-02, 1.2505038671901132e-02,
          8.1665039179997609e-02, -1.6582020630326284e-02,
          9.0722469365267761e-02, 4.0109080367010920e-02,
          3.7347389136700854e-02, 6.3610596852679835e-02,
          4.8443991013174925e-02, 6.6512791088754492e-02,
          -5.4290823541266055e-02, 1.6233072602769943e-02,
          -9.3677547087390706e-02, -6.1278832130996025e-02,
          1.2215889328216013e-01, -3.7969615711195365e-02,
          1.5232326920871025e-01, 3.2154619125986311e-01,
          5.1278538661757717e-02, -1.2194382149236674e-02,
          5.2431689479950819e-02, -2.3797687059128648e-02,
          6.6334879399265285e-03, -1.6686401901366499e-02,
          1.7917522346872706e-02, 1.2571963754951634e-02,
          -3.6446279127022932e-02, -1.3746264879315282e-03,
          2.3055221232848814e-02, 5.8444847022442160e-02,
          4.3062870136036713e+00, -1.9506004386008122e-02,
          -3.8711294629675083e-02, -3.6598102483230610e-01,
          -2.8068325762586398e-03, 2.7902681011499762e-02,
          -7.9634604022863868e-03, 1.2736175670434531e-02,
          -1.2132143100169955e-02, -1.4922127560873383e-02,
          2.6348700492085014e-02, -7.0261290092399316e-03,
          -5.6139419519899781e-04, 2.0194740136572695e-01,
          1.4480940046406352e-02, -1.5494872861694532e-02,
          -4.9472291196914371e-04, -1.3324645104518574e-02,
          -5.8401113034866918e-03, -1.4829889282611471e-02,
          4.6789479650917724e-02, -7.0076858762377056e-02,
          -1.4307603059065047e-02, 2.6731311899601408e-02,
          -3.4719758991862151e-02, 6.4011368515796133e-05,
          -8.3615537213088953e-03, 2.6455448956533617e-01,
          1.5413502961796183e-02, -7.4250143765259144e-03,
          1.8572574649881216e-02, 2.4823361228320098e-02,
          -3.3341262039032986e+00, -5.1509575017227513e-03,
          6.0004332082413042e-02, 1.4556547766032932e-03,
          5.6158301410450868e-02, -2.0083321543918928e-02,
          2.9460577637810106e+00, 5.8908496292896260e-02,
          -5.1748376869486246e-03, -1.2594070306084533e-02,
          -5.1583497785112637e-03, 3.8459763047086113e-03,
          8.1521684518221360e-01, 4.3259629218588481e-02,
          -1.5862514020404669e-01, -1.7161141995812093e-01,
          -6.9449235641244470e-04, 5.2380373052842440e-02,
          3.6553282788016415e-02, -2.2923629473863984e-02,
          -5.4600149614257565e-01, 1.8910811545603250e-02,
          -1.4461982014808930e-01, 6.0327871460007588e-03,
          -7.4887503431726496e-02, 9.3115788456159157e-02,
          2.1616232991225524e-02, -7.1006115337127584e-02,
          3.2105134972109921e-02, 5.6108676870458094e-03,
          4.6513189246856226e-02, 1.4095636022424562e-01,
          -1.7782392213125107e+00, 2.1689217691622305e-02,
          -1.8135003660599336e-01, -2.0618156040425317e+00,
          -9.5144981822844657e-02, -9.9577431122600153e-03,
          5.9003873890887794e-03, 1.2772928261133376e-01,
          -8.9059450745839982e-04, -2.7307847074757780e-02,
          -1.7455953041594575e-02, 9.5497561556689980e-03,
          -2.8682924129871418e-02, 3.9414311477095967e-03,
          6.4289272696065172e-02, 4.6490726465648734e-03 ]
      - [ -8.6037327180489545e+00, 2.2446014278989135e-01,
          1.3615845315229527e-01, 7.2196240227988995e-01,
          -8.2316064431087166e-01, 4.4928445844553017e-01,
          -3.8541200031584344e-01, -3.1578053110746085e-01,
          -4.0045349840096761e-01, -1.0912085280559265e+00,
          -6.4430399604471489e-01, -7.4822383788978833e-02,
          2.1265192340867281e-01, 4.5487607226981058e-01,
          2.1782027294849574e-01, 1.6586521800085791e-01,
          -5.7994585465585602e-01, -2.5147834867706192e-01,
          -6.3480735386589437e-01, 1.1618362976495801e-01,
          -1.0172382956228909e+00, 2.8025679397946202e-01,
          -3.5131105592163908e-01, -3.4390342389312489e-01,
          -1.4675664011851544e-01, -5.0974166957125311e-01,
          1.0779302790181682e-01, -1.5664623015125227e+00,
          1.1052343674759486e-01, 3.4328489107074540e-02,
          -6.1278639980609440e-01, -5.3777072186269981e-01,
          5.0530064792841252e+00, -4.1503974329268972e-01,
          -1.1796658085303120e+00, -1.4740364781084325e-02,
          7.4510709680814924e-01, -1.3693685822881568e-01,
          4.0816700607896230e+00, 6.3582083595865024e-01,
          1.5692538938021483e-01, 5.8569460276076224e-01,
          -3.5714455169396037e-01, -4.1165361222337465e-01,
          7.3767770490967721e-01, -8.0004961391155938e-01,
          4.3173230234145832e-01, 5.1595869898970781e-01,
          -1.2586775363009450e-01, 2.1445473494776041e-01,
          5.2227410955947107e-01, -8.0832221498962564e-01,
          6.9550295601591916e-01, 3.7801953084975783e-02,
          3.9896009078058009e-01, -9.5598555396552498e-01,
          -8.8606875632859905e-01, 5.0832030777034887e-01,
          -7.8271086273849089e-01, -1.0461959570961836e+00,
          -1.1691111060791055e+00, -7.7988915574082118e-01,
          -9.6026143454016843e-01, 5.1691307610001380e-01,
          1.8118322792600421e+00, -6.2252744414499218e-02,
          -1.3893126564356728e+00, 2.2821094822666876e+00,
          4.4792203382706725e-01, 2.7687254967858577e-01,
          -8.9575246224845795e-01, -1.1370971188601500e+00,
          -2.6345433207224522e-01, -1.7004543355609603e-01,
          -5.6320350968152610e-01, -3.4548792315345300e-01,
          -7.3778226416836756e-01, -2.3668742936329665e-01,
          -7.6963495414077920e-01, -4.2388085881323595e-01,
          2.7451052154700123e-01 ]
