%YAML:1.0
my_nn: !!opencv-ml-ann-mlp
   layer_sizes: !!opencv-matrix
      rows: 1
      cols: 3
      dt: i
      data: [ 24, 50, 1 ]
   activation_function: SIGMOID_SYM
   f_param1: 5.9999999999999998e-01
   f_param2: 1.
   min_val: -9.4999999999999996e-01
   max_val: 9.4999999999999996e-01
   min_val1: -9.7999999999999998e-01
   max_val1: 9.7999999999999998e-01
   training_params:
      train_method: BACKPROP
      dw_scale: 1.0000000000000001e-01
      moment_scale: 1.0000000000000001e-01
      term_criteria: { epsilon:1.0000000116860974e-07, iterations:800 }
   input_scale: [ 1., 0., 1., 0., 1., 0., 1., 0., 1., 0., 1., 0., 1., 0.,
       1., 0., 1., 0., 1., 0., 1., 0., 1., 0., 1., 0., 1., 0., 1., 0.,
       1., 0., 1., 0., 1., 0., 1., 0., 1., 0., 1., 0., 1., 0., 1., 0.,
       1., 0. ]
   output_scale: [ 1.0526315789473684e+00, 0. ]
   inv_output_scale: [ 9.4999999999999996e-01, 0. ]
   weights:
      - [ -4.2289441376634113e+02, 2.7777028388366403e+00,
          -3.1628777829966728e+00, 2.9875931056609950e+00,
          6.4324664189959113e-01, -3.0139175127495550e+00,
          9.6656111237739939e+00, 3.7952830169632508e+00,
          3.4760920231703984e+00, 3.4503941471651434e+00,
          -1.8470592207183817e+01, 2.7369731808940547e+00,
          3.4880570191553872e-01, -3.3704444172728545e+00,
          -6.4630129717539759e+00, 3.2378315192104621e+00,
          3.6227701699410226e+00, 2.8648974187350262e+00,
          3.2078380389358618e+00, -3.2417297766098421e+00,
          1.6749297912759459e+01, -2.6625420721884434e+00,
          -3.9399887441571391e+00, -2.6634410470207173e+00,
          6.8755597609095742e-01, -3.1821017942277705e+00,
          -3.3273625844218926e+00, -3.1362821412568320e+00,
          -3.5551114067996830e+00, -2.4555873090216491e+00,
          1.0797768771145618e+01, -3.1226701673421142e+00,
          -3.7131037964635549e+00, -7.2389157595721381e+00,
          -3.3306594877009146e+00, -3.3018113231276601e+01,
          3.8040606167121043e+00, -3.3631066326775620e+00,
          2.2552831125271489e+00, -2.9812674817067579e+00,
          -3.1278969672844457e+00, 3.5585553188768158e+00,
          3.0362824156232935e+00, -3.1806274000584671e+00,
          -9.4902326354832756e-02, 3.2066980264791316e+00,
          1.3828336513866220e+00, -3.3992237537443390e+00,
          3.5243848554232553e+00, 4.0884520286616022e+00,
          -3.9399249165988590e+02, 3.1375515611561635e+00,
          -3.0165310272648669e+00, 3.9827828669148859e+00,
          1.4067045307915733e+00, -3.2062740929357729e+00,
          5.6007626423002161e+00, 2.7831720022579471e+00,
          3.0973283326727068e+00, 2.7225795490537901e+00,
          9.2268066596338514e+00, 3.1917309682533088e+00,
          6.0813379445944475e+00, -3.0408998439406942e+00,
          2.6007922768774092e+00, 2.4078655387658889e+00,
          2.9908540054185973e+00, 3.3440928646098351e+00,
          3.0879382209345616e+00, -3.0382180554941129e+00,
          -1.4152659791307565e+00, -2.0590905712267880e+00,
          -2.8985940192842485e+00, -3.1007452382849374e+00,
          -2.0457483088346720e-01, -3.1206624573080992e+00,
          -1.0347209882621788e-01, -2.8043436506135402e+00,
          -3.0655884845389196e+00, -2.6251956720694678e+00,
          8.9284766642426039e+00, -2.9369606996825985e+00,
          -3.5076670965015427e-01, -1.4534151707774079e+01,
          -3.0365728306496123e+00, 6.7928694808654844e-01,
          3.2743255316483602e+00, -3.0800897149051445e+00,
          -2.3719524977852879e+00, -3.1738812490365058e+00,
          -3.0679110587827849e+00, 3.0453725956983546e+00,
          3.0657277704782899e+00, -3.0209399278246267e+00,
          2.0767667890625163e+00, -5.5753794058483552e-01,
          -4.6259939160134129e+00, -3.0902456627133943e+00,
          8.3339100429997592e-01, 3.8158905421245453e+00,
          -2.2061619634537831e+02, 2.9667242823835731e+00,
          -1.4874978507721603e+00, 7.9301621852050627e-02,
          -4.5494157639922364e+00, -2.1148571291229041e+00,
          3.1827313884844965e+00, 7.6930683981396797e-01,
          2.1489079003782399e+00, 9.2895815332805320e-01,
          1.2794074618126633e+01, 3.0038409826394492e+00,
          -7.6193647927137595e+00, -2.5975164906764916e+00,
          -7.6091212062870106e+00, 9.4653711515015815e-01,
          2.5207158649411752e+00, 2.9320836264156149e+00,
          2.2622540591529057e+00, -1.9447026591945074e+00,
          -1.3607974702353166e+01, -1.0701557282769258e+00,
          -2.7011321650769538e+00, -3.1986076237224403e+00,
          -4.2266770491274217e+00, -2.5470906534424924e+00,
          -7.9042339119346716e-01, -1.3171353793411371e+00,
          -2.3737603684590090e+00, -4.6598404276967793e+00,
          -1.1438997226567230e+01, -1.2527385092095480e+00,
          -2.5861930492933649e-01, 1.5152874163834237e+01,
          -2.5367114723364730e+00, -6.6474934534704211e-01,
          1.9119259714681767e+00, -2.3104126092471002e+00,
          2.7627069762110906e-01, -2.7986318914064485e+00,
          -1.7915658441469786e+00, 2.6656094034855715e+00,
          1.6799202628265570e+00, -1.8707784881435896e+00,
          -8.6486738814294806e-01, 8.3560971821944038e-02,
          -1.0068218012624065e+01, -2.3715670898236301e+00,
          2.4993848412411743e-01, 2.5650919557720879e+00,
          -8.4055460134932204e+01, 9.0186336330166927e-01,
          -7.0119769973726953e-01, -7.0007162341891522e+00,
          -1.0593740431933560e+00, -7.4654991370580326e-01,
          1.3534861003079590e+00, 8.2264696020362504e-01,
          5.7480856866700658e-01, 8.1586203944343816e-01,
          -1.2885017658000710e+00, 9.3225925410175903e-01,
          -2.6615766695050320e+00, -6.6428236982569511e-01,
          6.0465380633871115e+00, 7.0446507115664669e-01,
          6.2853830479060879e-01, 7.5617216133490173e-01,
          6.7905908632020251e-01, -7.2713437250914537e-01,
          -7.8780594193693503e+00, -5.7334872261502368e-01,
          -5.8846371215634041e-01, -9.3801139816943679e-01,
          6.5603981100180269e+00, -6.3388019562271347e-01,
          -2.2978668355878948e-01, -7.5009833485430966e-01,
          -5.6102611434874372e-01, -1.1984144748747174e+00,
          -6.7603982175162214e+00, -7.8058073649153292e-01,
          -3.4294816513153814e-01, -4.8497641929528967e+00,
          -6.4787736394609075e-01, -1.5408451874466818e+01,
          3.2456165758529104e-01, -6.8661883814249369e-01,
          8.4391818247888262e-01, -7.2644371050646572e-01,
          -6.0225977016681320e-01, 5.3282928672782082e-01,
          7.2693621169800116e-01, -5.9540030306524172e-01,
          1.3101803600535940e+01, 2.7617902723241694e-01,
          -7.3463644098880936e+00, -6.0869065172340009e-01,
          5.6795736796379959e-01, 2.5004228331448206e+00,
          -8.4091594954982540e+01, 9.7396753328896224e-01,
          -6.8590186586571888e-01, -1.1470684636101043e+00,
          -4.6115433211123529e+00, -7.9447485987809774e-01,
          4.0457155884446244e-01, 5.4223072123989013e-01,
          5.8347151079850601e-01, 5.4851619825443643e-01,
          1.2942769568867261e+00, 9.5879092381360020e-01,
          -5.4237372347898640e+00, -7.8305552335030315e-01,
          1.9483557184759800e-01, 5.1744810943990494e-01,
          6.1279757328095208e-01, 9.1600315251034559e-01,
          7.6719717223395933e-01, -7.4496115683295427e-01,
          -5.9246105757929091e-01, -4.3703855889012250e-01,
          -6.7288189392303843e-01, -1.0298181130825215e+00,
          -3.4160619499779652e+00, -7.4065457953990510e-01,
          -7.5230681906038976e-01, -7.0915219123620477e-01,
          -5.8163555634089636e-01, -1.1647045165020096e+00,
          6.2296202816758841e+00, -5.4158678614944422e-01,
          -5.5914265782226114e-01, -4.2992186644021064e+00,
          -6.3236119101869548e-01, -6.4790939804560876e+00,
          3.6841155694732280e-01, -7.5944829034319439e-01,
          1.5920728461032883e+00, -9.1299414843302540e-01,
          -7.1285510723172674e-01, 6.1257703510170425e-01,
          7.4965016040062171e-01, -6.3535313111976610e-01,
          1.0282793962042053e+01, 9.5823311579108716e-01,
          -1.3698551070659645e+01, -7.0372851625512123e-01,
          5.7611434519124904e-01, -3.2737234893198939e+00,
          -8.4908122078679298e+01, 2.1894063301662881e-01,
          -8.5690999185755212e-01, 2.4817180581378642e+00,
          -4.2894061957231049e+00, -3.9005479136321830e-01,
          -6.0029006911973126e-01, 1.4306837648763067e+00,
          2.5689550198617245e-01, 1.4186957800673203e+00,
          -1.7429949301362665e+01, 2.1591196506108587e-01,
          -2.2957717231982131e+00, -2.0612552285740263e-01,
          8.8999721453658722e+00, 1.3259158730996141e+00,
          1.9755545040616973e-01, 2.4988929424430811e-01,
          2.9339437922123307e-01, -4.9049974091021803e-01,
          -1.0649018860823747e+00, -1.3209888977172104e+00,
          -1.1677583769751902e-01, -1.8853817473499657e-01,
          -1.3484568025287103e-01, -3.0624491304827073e-01,
          -2.0246475638203933e+00, -1.0010743338712478e+00,
          -2.9391305971944776e-01, 1.7122806833702428e-01,
          -2.8414984643622900e+00, -1.1211540232142685e+00,
          -2.0748383463610565e+00, -9.6391609253287278e+00,
          -2.7752357019159390e-01, -6.4320301104463171e+00,
          5.7752040627363083e-02, -2.2753940002491038e-01,
          2.6140049376214671e+00, -2.1814546373583357e-01,
          -6.3094717426113234e-01, 3.5861544849310312e-02,
          7.5590813975346072e-01, -5.7251507780333954e-01,
          1.8107844891755991e+00, 2.2467578353732374e+00,
          4.3385979220457029e+00, -1.8971649183195838e-01,
          1.7795103219952078e+00, -8.4413984538856415e+00,
          -9.2405157340091520e+01, 9.0622729609965735e-01,
          -6.4868421518540409e-01, -4.3997847009417033e+00,
          2.4195151021810726e+00, -8.4637174431718243e-01,
          1.4044450815512349e-01, 4.0759150252455245e-01,
          7.5018952671588524e-01, 4.1120715569898642e-01,
          -3.4936337428098527e+00, 9.3460515586001480e-01,
          5.9259290909544848e+00, -7.9735090911182316e-01,
          4.3708302174955538e+00, 2.6334214707801251e-01,
          8.8636645304365513e-01, 9.0301978130698790e-01,
          8.6310523081504276e-01, -8.6520967787756475e-01,
          -5.1707378557831085e-01, -2.9880123406141483e-02,
          -7.8464533895486144e-01, -8.2324132508164949e-01,
          -2.0228994937491076e+00, -8.5852530957624740e-01,
          9.2287593612949315e-01, -6.7133398948729794e-01,
          -8.6088649184695543e-01, -7.1755427464248556e-01,
          9.4096475240464876e+00, -4.8069688797424442e-01,
          8.2325777550227508e-01, 5.1273039372695983e+00,
          -9.6298030560934600e-01, -6.1458335291039417e+00,
          8.1017469040077827e-01, -8.3921614942210199e-01,
          -2.3416385079023412e+00, -9.4312208354458726e-01,
          -8.5195337459767462e-01, 9.0750095939190434e-01,
          7.4552516228738674e-01, -7.7701979865654391e-01,
          1.4134817658005765e+00, -1.1996531628355835e+00,
          8.7836212928769031e-01, -9.0510107253220062e-01,
          -4.4443336428313857e-01, 1.1906125245934855e+00,
          -5.2996328891533622e+01, 3.0906747785965188e-01,
          -5.7055401391638683e-01, 1.2105591579152817e+00,
          -4.3467428108682293e+00, -2.6792107329684239e-01,
          -2.9047473616575483e+00, 1.1760588083655019e+00,
          4.8695454274007587e-02, 1.0571761667571593e+00,
          -1.2025132276869064e+01, 3.8394254958359186e-01,
          -7.0160339030102730e+00, -9.0932488895574565e-02,
          1.8587255266905931e+01, 1.2060105942992534e+00,
          -1.9498818456036612e-01, 3.1800650185922930e-01,
          1.0513022862926881e-01, -2.5715787755044889e-01,
          -1.6508114073079479e+01, -1.1493485211937728e+00,
          3.4008904101380188e-01, -4.0397352925296487e-01,
          4.4998655142190502e+00, -1.0150272384292772e-01,
          -2.0771106901258936e+00, -7.4884924412593967e-01,
          9.4004259749264379e-02, -1.4478795075537398e-01,
          1.2513591036545380e+01, -8.0385139521987148e-01,
          -2.2400663914472441e+00, -1.9301245734086528e+01,
          -2.5038535050437117e-02, -1.9798243025120976e+00,
          -3.3399270669209719e-01, 3.4911416415040128e-02,
          3.1921513654279536e+00, -2.8076409440700906e-01,
          -3.9035404360298714e-01, -1.6088752289171404e-01,
          4.5652498573403971e-01, -2.5765281102208237e-01,
          2.2850159078438654e+00, 2.7044137673974502e+00,
          -4.4865887494703465e+00, -7.2376319874827719e-02,
          1.9924158226406368e+00, 7.5742363878760921e-01,
          -6.2567650486181449e+01, 1.5914554177559259e+00,
          -3.6099113397663529e-01, -2.9229171148323339e+00,
          6.0706315848310810e+00, -9.6860154512162622e-01,
          1.3030495354220619e+00, 3.7616240330421137e-02,
          1.0347093539706751e+00, -9.0988799932742129e-02,
          1.1375267223131227e+00, 1.6466506098346496e+00,
          4.0010191154973693e+00, -1.3417716843905301e+00,
          6.2977484925517819e+00, -2.7517566910425117e-01,
          1.0623727094285367e+00, 1.6826059916713703e+00,
          1.0652510294839530e+00, -7.3892015086327656e-01,
          4.1231187374618905e+00, 6.0184871275337171e-01,
          -1.1484653973591095e+00, -1.6461629151841566e+00,
          1.2636714987269451e+00, -1.1934529678586445e+00,
          1.8221159879580087e+00, -1.3262747883831233e-01,
          -1.1627372038746955e+00, -2.7863690713731764e+00,
          4.9238274020084827e-01, -6.9728028405397963e-02,
          1.6175015018966610e+00, -1.0221063324290194e-02,
          -1.2271417798610906e+00, -2.5166212418056380e+00,
          1.0521910957849252e+00, -9.6835145255843624e-01,
          -1.6297415607945784e+00, -1.5531270586720241e+00,
          -5.2406499844642340e-01, 1.3526366927080093e+00,
          3.1353026415826085e-01, -6.0092535448298279e-01,
          9.4624063651102236e-02, -1.8849345858281170e+00,
          -1.7488313730627283e+01, -1.0832795559322097e+00,
          -1.0394054896747722e+00, 9.6061402660272357e+00,
          -6.2143619938828870e+01, 1.8498381553531102e+00,
          -2.1395790903960957e-01, -1.4606232736087916e+00,
          3.6832687478080750e+00, -1.1340241372355651e+00,
          -4.9318478276493605e-01, -3.1366062120499229e-02,
          1.1969768078552445e+00, -2.3734815201820636e-01,
          3.2869386195379682e+00, 1.8859089333261894e+00,
          8.8767583912537518e+00, -1.4413270017042519e+00,
          -3.3116005383841307e-01, -6.1264659837249935e-01,
          1.3237845879147130e+00, 1.8146481047579228e+00,
          1.2611338156541636e+00, -8.3098696273279438e-01,
          -1.7695988536268107e+01, 1.1648125841019481e+00,
          -1.4190961620717002e+00, -1.8864324357468742e+00,
          -1.7617990228241876e+01, -1.3616579333901033e+00,
          1.8917688597895788e+00, -2.4528176867580947e-02,
          -1.3171205781320212e+00, -3.0531619829340486e+00,
          -2.6586567797983025e+00, 3.0076153335846775e-02,
          1.6247396874743190e+00, -5.2100635769307893e+00,
          -1.3870722304518250e+00, 2.4880830026972047e+00,
          1.3274291025939116e+00, -1.1044425400841353e+00,
          -3.7269847961552554e+00, -1.5816038915721864e+00,
          -6.3480420525818149e-01, 1.4579333944146138e+00,
          2.8144611078497994e-01, -6.0504597514370995e-01,
          4.2266213533425112e-01, -2.0305743133398684e+00,
          -8.5270316974992451e+00, -1.3041242249196541e+00,
          -1.5531282029337767e+00, 1.9724550857608130e+00,
          -8.4213875357199669e+01, 1.7089883101871666e+00,
          -4.0049958646090267e-01, 1.0033843544646352e+01,
          -1.0769795407463636e+00, -1.2481412707101349e+00,
          -4.5888259527956116e-01, 3.6001295277157852e-01,
          1.4336163143827154e+00, 6.4176777664366816e-02,
          -8.1264667082308790e+00, 1.7933767390173072e+00,
          2.1316152957591874e+00, -1.4224879077680588e+00,
          -2.9248045203139297e+00, -1.5778246043971672e-01,
          1.3212269017341549e+00, 1.8638336095841286e+00,
          1.3664778507887161e+00, -1.0341534026553236e+00,
          -6.3173980298514838e+00, 7.1517374418165913e-01,
          -1.3555753423787111e+00, -1.7395963874267992e+00,
          -7.9430224824134124e+00, -1.4813906188940829e+00,
          -5.5255378550687094e-02, -2.3051667248604271e-01,
          -1.4075864426527924e+00, -1.7568971501534150e+00,
          7.3721209627476094e+00, -2.3722880124180887e-01,
          -3.0211608949192442e-01, -2.9284698368644097e+01,
          -1.3867950779514662e+00, 6.5618500410439629e-01,
          1.5712681249724540e+00, -1.2127069455325634e+00,
          1.8039302768740736e-01, -1.6906997402336947e+00,
          -8.8258174071454254e-01, 1.5082195723340539e+00,
          6.5974914116846994e-01, -8.6279777678933656e-01,
          1.6765089964600652e+00, 5.2309124539958074e-01,
          -1.0378239870136023e+01, -1.3820641079944458e+00,
          -1.8330981753009842e-01, -1.0009958031286752e+01,
          -1.0620040943020605e+02, 1.7668556374661235e+00,
          -6.2180867742923129e-01, -7.3026708647931953e+00,
          5.0050572668267295e+00, -1.2183918696192022e+00,
          1.1047448300909029e+00, 2.4073087400378687e-01,
          1.6320838383995158e+00, -5.9744946362743261e-03,
          -2.4513450052975521e+00, 1.6681996073380789e+00,
          9.8846485776457822e+00, -1.6802545033915426e+00,
          5.0947799361837882e+00, -4.2060798390904253e-01,
          1.7896525050915602e+00, 1.7992831114343160e+00,
          1.4264864959753025e+00, -1.2176423477262583e+00,
          3.9898743021077347e+00, 8.4959812846124372e-01,
          -1.9133708473502173e+00, -1.7833951373229890e+00,
          -1.2228918820917187e+01, -1.5370864545285492e+00,
          2.1030352133278063e+00, -2.7504088673235638e-01,
          -1.6148992952527605e+00, -2.6231539671571822e+00,
          1.5770644934356675e+00, -2.2457763003812958e-01,
          1.8737931961908481e+00, 1.8291147606953665e+01,
          -1.6921298302455376e+00, 1.1367562753544100e+01,
          1.9006999439008885e+00, -1.3976190225533531e+00,
          -2.9614367995876631e+00, -1.6857130362122630e+00,
          -1.0080566205208841e+00, 1.9286918277099336e+00,
          7.1503393970916496e-01, -9.0463858255807772e-01,
          5.4836730172207737e+00, -2.2633910216977506e+00,
          -5.9045091496774980e+00, -1.6504899999618303e+00,
          -1.4546123395469246e+00, 3.5681925152562872e+00,
          -4.8606723939358773e+01, 2.2573406710049460e+00,
          1.5632848322961185e-01, -2.3682499715907221e+00,
          -9.5529742364549930e-01, -1.2684537931614117e+00,
          4.5537557111724630e-01, -6.3268595227768298e-01,
          1.7944279564002481e+00, -9.8011008400331756e-01,
          -5.7884386143271351e+00, 2.1913736141859896e+00,
          8.1692626737640828e-01, -2.0842052875789032e+00,
          6.1054937511654268e+00, -1.4161921257411512e+00,
          1.9239895698174432e+00, 2.5139141903904045e+00,
          1.7536262192522933e+00, -9.7789954551771496e-01,
          7.5957146704283174e+00, 2.1267688883806923e+00,
          -2.0834502059644779e+00, -2.2580077319793541e+00,
          -1.1758718128351942e+01, -1.9066108388798342e+00,
          1.4800056305972547e+00, 4.8793477897652526e-01,
          -1.8214126762896807e+00, -3.2984375547438378e+00,
          8.1407960841232523e+00, 6.3474246847104099e-01,
          1.3479705746791628e+00, -2.6950555166066867e+01,
          -1.8522441770561977e+00, -2.0732505885399610e+00,
          2.1570493021244452e+00, -1.5578530409337115e+00,
          -2.7548350661364696e+00, -2.1677750726603500e+00,
          -5.1632550876724803e-01, 2.3089787735075347e+00,
          5.3923553920993531e-02, -5.9700198776273161e-01,
          -1.4357715916334229e+01, -1.3966349595106426e+00,
          1.1993562356728480e+01, -1.7985957828423234e+00,
          -1.9054308867802252e+00, 4.3193626860344061e+00,
          -1.7537527943693803e+02, 3.0115220214452032e+00,
          -1.2136728422877801e+00, -1.0777129971892170e+00,
          5.6799277971058981e-01, -2.1407800027468515e+00,
          -1.3061837885934182e+00, 3.5315788047234842e-01,
          2.0931065309454229e+00, 5.5747992977573979e-01,
          -7.7825239348492223e+00, 3.1671799800538731e+00,
          1.9224577952603112e+00, -2.6096248428405344e+00,
          -1.8255930275472519e+01, 8.3968794056108353e-01,
          2.1136335773512140e+00, 3.1506995498440564e+00,
          2.3802826236817038e+00, -1.8594612617480126e+00,
          -1.4550833169483445e+01, -1.3448562610624768e+00,
          -1.9422746150455443e+00, -3.3642720183356536e+00,
          -2.1937243005346638e+00, -2.5303093734704789e+00,
          -2.7675271380878974e-01, -1.1565523844676164e+00,
          -2.0586255409978502e+00, -4.4244827257169863e+00,
          1.0079518208304862e+01, -1.0709994507735310e+00,
          -3.1264280788090576e-01, 1.0016373777610957e+01,
          -2.3127583089510177e+00, -3.1825651962612000e+00,
          1.4497661385133764e+00, -2.0811474568948354e+00,
          -1.0553289084024988e+00, -2.8150575826452910e+00,
          -1.7242683384070163e+00, 2.1737034954770289e+00,
          1.4728049417427298e+00, -1.7230038281112097e+00,
          -8.4328843358591197e+00, -9.9376247123904391e-04,
          -7.9753618124367245e+00, -2.3458261599851449e+00,
          5.3776153274889971e-01, -3.1224637989324977e+00,
          -7.0031308747342123e+01, 1.2166843079491581e+00,
          -5.0508531936065348e-01, -5.7241441500625037e+00,
          -3.0506635479589232e+00, -9.6261351103246628e-01,
          3.8088855498614971e-01, -1.0245166006061261e-01,
          1.0328789322671499e+00, 1.6598475270250385e-01,
          -1.0306231549452518e+00, 1.2085542407654029e+00,
          -4.6224580806581042e+00, -1.1599318226462638e+00,
          -1.0276524750953193e+01, 2.3294649682785545e-01,
          9.6741355388642258e-01, 1.2170187761443612e+00,
          1.0698130193512105e+00, -7.5395342795197806e-01,
          3.3098063938855744e+00, -4.1608844158864572e-01,
          -8.1814580392774050e-01, -1.2729869442393689e+00,
          9.8400285834922823e+00, -1.1062823955171319e+00,
          2.9421769384164548e-01, -4.9213823029460135e-01,
          -9.7944118585023254e-01, -1.3012403690173275e+00,
          -1.7589511511796228e+01, -3.6537504928315007e-01,
          7.2462767593204513e-01, -4.9345871150653089e+00,
          -1.0867564295931649e+00, 1.0842057789646098e+00,
          6.8808903919707209e-01, -8.7819764541355638e-01,
          2.0048349735544982e-01, -1.2343178423428118e+00,
          -7.7790248549080487e-01, 9.1216124002719434e-01,
          5.7170449764115328e-01, -7.1581222393810973e-01,
          1.1884243500695968e+01, -5.9736179806150103e-01,
          2.0203250629480367e+00, -1.0568036694232275e+00,
          -1.9549889387589095e-01, -2.9047425090413688e+00,
          -7.5728215748415053e+01, 1.1454769815483234e+00,
          -5.3401178206228228e-01, 5.1764853679672962e-01,
          -2.1134277450536127e+00, -9.1046411724267440e-01,
          8.1800823548903667e-01, 3.5111676179181089e-01,
          9.7256064586796220e-01, 5.6469180367875083e-01,
          1.6002865045931692e+01, 1.1336722294093255e+00,
          2.0711376487565905e+00, -1.0424740905428651e+00,
          -9.3020946183335411e+00, 6.5806186521739340e-01,
          8.8967514055762587e-01, 1.1483892005652241e+00,
          1.0390192193976930e+00, -8.3929535308876801e-01,
          1.4264780732130582e+00, -7.4455525300175418e-01,
          -7.9513369636176379e-01, -1.2248756463976216e+00,
          -1.0703803619069300e+01, -1.0375068560062193e+00,
          -1.1078593525048086e+00, -6.1857087354662832e-01,
          -8.9821999768788618e-01, -1.5278554301403275e+00,
          3.5978622346557745e+00, -5.8322525699001770e-01,
          -1.0536377374642090e+00, -2.4065523946370937e+00,
          -9.3375363883885643e-01, -3.0040160916060925e+00,
          7.8409861785646773e-01, -8.0024503315006146e-01,
          -7.4211787312604560e-01, -1.1289714090691980e+00,
          -7.6647841598525523e-01, 8.2397687282634224e-01,
          6.3861024697793423e-01, -6.8658830887762023e-01,
          1.0082971469726560e+01, 9.2359564200950350e-01,
          2.5632957558770442e+00, -9.2418256892892536e-01,
          8.1229353970701823e-01, 1.7859884742560641e+00,
          -9.3645096937557895e+01, 6.3083993922926496e-01,
          -8.4795968801207933e-01, 2.4216319883428220e-01,
          -4.3116777830129882e+00, -7.3984772270697807e-01,
          1.1120772585369269e-01, 3.6968589497834514e-01,
          8.0087226751079776e-01, 7.1822010768054545e-01,
          9.2392952184282606e+00, 5.1007908495923282e-01,
          -2.6206864860458573e-01, -5.7628280103172358e-01,
          -3.8327032759980195e+00, 7.7796589480198841e-01,
          6.1559068452066290e-01, 4.9969172902302650e-01,
          7.1878252494148609e-01, -8.3320902108084338e-01,
          4.1747990775733399e+00, -1.2887260426162304e+00,
          -4.7381075497713254e-01, -3.9912154347021295e-01,
          8.3263524958884325e+00, -6.7564139968645032e-01,
          -1.1532993591166181e+00, -1.0206842137572307e+00,
          -6.6453322125625058e-01, 3.2582608159751253e-01,
          -1.3482649837062842e+01, -7.9287629419946104e-01,
          -5.7035501871280403e-01, -5.6406529890648525e+00,
          -6.3836668619426817e-01, -1.0018164078908591e+00,
          5.7058717528344349e-01, -6.4063750881447146e-01,
          9.8011515328751275e-01, -5.8445304947495480e-01,
          -9.1800254048801488e-01, 4.5302048274925888e-01,
          8.9329283803152837e-01, -8.9481249117358130e-01,
          1.2211118955679805e+01, 8.4282611168753219e-01,
          1.3579873618270351e+00, -7.9420878599737721e-01,
          7.5910550772641927e-01, -3.4917090429315798e+00,
          -9.3483111670053376e+01, 8.6893251697486029e-01,
          -9.7574998116700495e-01, -4.7659116869228688e+00,
          -1.5414551101123248e+00, -8.0336506006913100e-01,
          1.1493235406369968e+00, 9.0268908456696340e-01,
          8.5541987577697920e-01, 9.7807626690014837e-01,
          1.9212457660522908e+01, 9.3904928833704415e-01,
          9.6987910642177766e-01, -9.3533714525757505e-01,
          -5.3485657752033289e-01, 1.1438845079177939e+00,
          8.3418002870101771e-01, 1.0545998743037464e+00,
          9.0261504361951705e-01, -8.5457215303702638e-01,
          3.2465000320438850e+00, -1.2493950036400421e+00,
          -6.2328499873649690e-01, -1.0267619212055830e+00,
          3.8225173157498120e+00, -9.4648006910928451e-01,
          -1.1174332226848998e+00, -1.0671228380641076e+00,
          -7.2028977448205567e-01, -1.3067022417822955e+00,
          -3.8654278716851653e+00, -8.9867620106441704e-01,
          -9.3389645492244799e-01, -8.3396446054189717e+00,
          -8.2075259233408593e-01, 6.7441259173969046e+00,
          6.7197029077617609e-01, -8.3241725489930340e-01,
          9.7794465695865829e-01, -8.9083753600511317e-01,
          -8.2758282446030784e-01, 6.8803315054186764e-01,
          9.1035907340118183e-01, -9.0780231089459884e-01,
          8.2913675106493034e+00, 1.0107189239554637e+00,
          -6.2420644208873409e-03, -8.6873793874760974e-01,
          1.0067755242831113e+00, -2.8250816827657288e+00,
          -5.2071908146830630e+01, -3.7160449077958357e-01,
          -8.4427647559797880e-01, 8.6133984214789692e+00,
          -8.7941999767690007e+00, 1.3428137680221763e-01,
          3.4158424046791747e-01, 1.2756650790821107e+00,
          -4.8168941736905246e-01, 1.6378594166918747e+00,
          1.8181198895841753e+01, -3.1184405747072724e-01,
          -7.3847195962631371e+00, 5.1188859145512944e-01,
          3.9423211764118018e+00, 2.0280019116007706e+00,
          -6.4465249057381635e-01, -4.8131016499450346e-01,
          -2.7419674386099274e-01, 8.3908420271839840e-02,
          4.5780914331605249e+00, -2.7651765439896887e+00,
          7.8496544190127360e-01, 3.4548534574789475e-01,
          2.8607592082490627e+00, 4.0095731677362206e-01,
          -4.3015242075222471e+00, -9.9174697421639546e-01,
          5.1804676863328880e-01, 8.9680102763853309e-01,
          2.1080923600062600e+00, -1.1359693069949905e+00,
          -3.6637839588419348e+00, -5.9845402238676169e+00,
          4.3396913418962069e-01, -1.4163673810948354e+00,
          -7.6672453420894771e-01, 4.2848877117878642e-01,
          3.8787502325327874e+00, 3.8770571462069886e-01,
          -2.6571536678849883e-01, -7.2159882079883619e-01,
          5.5955961018649847e-01, -2.8346190654339543e-01,
          4.5586242010036173e+01, 3.9748485462568790e+00,
          5.9299061806618625e-01, 3.5012756378743448e-01,
          3.3307145474239750e+00, 7.3836106696637600e+00,
          -5.7436778074870297e+01, 6.1701027757948235e-01,
          -7.2676150541578499e-01, 6.0157234136848974e+00,
          4.2582930220243824e+00, -4.6287825039430291e-01,
          -7.4047675609244490e-01, 7.2161316505950601e-01,
          2.1920884330926568e-01, 9.7904377766638662e-01,
          -1.2238590463975507e+01, 5.8715267244819214e-01,
          4.8555291168492909e+00, -3.0774549303329357e-01,
          3.2311588923524779e+00, 1.0579619692489606e+00,
          1.9446384882315615e-01, 5.6493053122710002e-01,
          4.8411990175451752e-01, -2.9899088656966233e-01,
          -1.1164457399505547e+00, -1.3153131575134411e+00,
          -1.1973666628297762e-01, -6.7933261463464534e-01,
          4.7258436017092222e+01, -4.7191523910504651e-01,
          -7.1201747536746429e-01, -7.1820410164958404e-01,
          -2.5738113142855945e-01, -9.3276469371159321e-01,
          -3.1636899630574993e+00, -9.2980706511249456e-01,
          -7.8997882168102374e-01, -1.3620854608907589e+01,
          -2.8028171262470958e-01, 2.0815067708550763e+00,
          -6.0877521248700356e-02, -3.2651264885404524e-01,
          1.6022245252013907e+00, -4.7758558751794666e-01,
          -5.2572314100738882e-01, 1.3137858367799024e-01,
          5.7492132562656773e-01, -4.7994653886920235e-01,
          1.6023514446568871e+01, 6.8303587875743421e-01,
          -6.5838343930827099e+00, -2.6921550471821731e-01,
          1.1748379568781497e+00, 9.2952683551155495e+00,
          -7.0257864260735843e+01, 1.3051292915207824e-01,
          -7.4487103390438947e-01, 1.7746091399085461e+01,
          -4.6421254350254602e+00, -2.8644092905490953e-01,
          -2.6965883812797737e+00, 1.4214571347657508e+00,
          -5.4845381833235812e-02, 1.6234077413036032e+00,
          1.4240394501951101e+00, 4.7669665796475184e-02,
          1.7562214194501429e+00, 6.4355684664855209e-02,
          -5.1371669408673624e+00, 1.7371422406278627e+00,
          -2.0064975712331048e-01, 8.2062812968855051e-02,
          1.4776396046833554e-01, -2.7152122589852706e-01,
          -2.4693624817956208e-01, -1.9062587048722039e+00,
          2.8721123352331029e-01, -1.5058296846159869e-01,
          -2.2363856470451005e+01, -1.2880855215896522e-01,
          -3.8196168576606238e+00, -9.8323395975502070e-01,
          1.6495707037252691e-01, 5.9015577928455402e-02,
          -2.2923321278735815e+00, -1.1446809687913551e+00,
          -3.4490934987965458e+00, -2.3018422600744453e+00,
          7.9188791022734243e-03, 9.3173991659603423e+00,
          -2.6110523017455789e-01, 2.3844108728893643e-02,
          3.3512535854199341e+00, -4.1353129371413111e-02,
          -4.4278434832787089e-01, -2.7840594302307342e-01,
          6.3799666697511892e-01, -3.3769033269644833e-01,
          2.8221158551824256e+01, 3.6203721052957358e+00,
          9.0651092335131811e-01, 6.3838809687586068e-02,
          2.9724197844497877e+00, -1.0347097499179716e+01,
          -7.3159931865066042e+01, 1.1906845635989545e+00,
          -7.7244969493126392e-01, -4.4518953512599146e-01,
          -6.4663214930364021e-01, -9.4176462295996022e-01,
          -2.6241506609599026e+00, 7.3441330718064990e-01,
          9.2361372544193754e-01, 6.3004212202676246e-01,
          -1.9850716043147538e+00, 1.1848820429276741e+00,
          -1.6111154896812854e+00, -9.5152942863515810e-01,
          1.9771607368376871e+00, 4.8188782583318246e-01,
          7.5576048420661490e-01, 1.2472769909589096e+00,
          9.4441004767843162e-01, -8.3814684740620016e-01,
          -2.1518767715303280e-01, -2.7332143722324520e-01,
          -6.4591669545155295e-01, -1.2332243377634842e+00,
          1.0769303092117891e+01, -1.0018476769001163e+00,
          -8.8324593740460963e-02, -7.1715588647057438e-01,
          -7.4544793298191092e-01, -1.4898812216710620e+00,
          -2.5188130869410212e+00, -5.1393808752144865e-01,
          -3.1114709071097252e-01, -1.1563749728548492e+01,
          -8.1966931311941182e-01, 1.0782430505106770e+01,
          6.2611386248324907e-01, -7.7702800662254357e-01,
          2.8739062914850964e+00, -1.0606049829121245e+00,
          -7.4491929185628691e-01, 8.0086621376173628e-01,
          7.2714421521050165e-01, -8.2986715200643113e-01,
          -2.7945491513728387e+00, 6.5078358689840732e-01,
          -3.4635835227439133e+00, -8.8962711864158595e-01,
          5.9672583717497385e-01, -1.2813798486073555e+01,
          -8.8663886687022497e+01, 5.8766345044252577e-01,
          -7.8781995204365374e-01, 1.7745771619014391e+01,
          -6.2474070125090397e-01, -4.2624516531037315e-01,
          -2.7729360428952980e+00, 2.1082264578810159e+00,
          3.8380832850374524e-01, 1.7030399731691612e+00,
          9.0777342330151285e+00, 5.5786162319452237e-01,
          3.4042397678370429e+00, -3.8734815680422591e-01,
          4.5218137069253190e+00, 1.5383748256810144e+00,
          3.0275033268685975e-01, 4.7463849059818725e-01,
          4.9215695288770350e-01, -5.0644683671175772e-01,
          4.4155247439279472e+00, -1.3666980082410254e+00,
          -1.1672610146799862e-01, -5.8717798868898219e-01,
          -1.2231335870068143e+01, -4.2076439889488432e-01,
          -3.2002112867128645e+00, -9.4951752580637427e-01,
          -2.7724838931831686e-01, -7.0052459629730046e-01,
          1.9100206904975114e+01, -1.1347636211754188e+00,
          -3.8864424126028241e+00, 5.9510430086701236e+00,
          -4.0843193917417359e-01, 8.1383100576612808e+00,
          1.7714301265141569e-01, -4.4125604535325152e-01,
          2.0814277295078054e+00, -4.6634992864834890e-01,
          -6.4577701343976457e-01, 2.6807847714732730e-01,
          7.5838293483694219e-01, -6.2200522905569322e-01,
          -4.2196276882776020e+00, 3.5075610982167009e+00,
          -4.6318777535819994e-01, -3.5758470726247854e-01,
          2.9165135223966794e+00, -7.1508220657855839e+00,
          -4.7421355448517623e+01, -2.2076435760756177e-01,
          -7.7076651971717769e-01, 6.5982100861691393e+00,
          -1.1414058989794498e+01, 5.3407988432820970e-02,
          -4.1630151431431059e+00, 1.8901176270951761e+00,
          -2.8947995766628404e-01, 1.7510249395680588e+00,
          -1.8592517079276490e+01, -1.8966900490641309e-01,
          -2.2435879589802973e+01, 2.7513009904679187e-01,
          7.4635591773484284e+00, 1.9905661332337117e+00,
          -5.2471921539532773e-01, -2.7880562660694708e-01,
          -2.0714258374167077e-01, -1.2071182631366272e-01,
          -7.7614634560248685e+00, -1.7142172296036111e+00,
          6.5402015812556435e-01, 1.1789390383808090e-01,
          1.1547540900126849e+01, 2.2329401279396430e-01,
          -4.5636828418103006e+00, -1.0346774881917045e+00,
          3.1736620356088280e-01, 5.6744958534070833e-01,
          2.7993677031936176e+01, -1.0086449095268291e+00,
          -4.9552413924598948e+00, -9.4162162535951008e+00,
          2.0285387277771566e-01, 4.8457081951645344e+00,
          -7.7054443736413247e-01, 2.1788535745481463e-01,
          8.9929145089226541e+00, 2.2513841568358792e-01,
          -3.2808312598080608e-01, -5.5445269527591523e-01,
          5.2036471414509344e-01, -3.0827393675496145e-01,
          1.8066807001790206e+01, 6.1265426071628637e+00,
          -3.8022579605208993e+00, 2.7346245545073800e-01,
          4.0846473720696217e+00, -1.4342104174977866e+01,
          -7.8034568302331218e+02, 5.1512433184989881e+00,
          -6.4416917708148045e+00, 3.5335323625933159e+00,
          -4.6609218473247394e+00, -5.9596376396328754e+00,
          6.9365307250322850e-01, 6.2944381850319280e+00,
          5.8255637330777166e+00, 6.4041239433538468e+00,
          7.0718177466070635e+00, 5.0650411699755526e+00,
          -9.4750319062343387e+00, -5.4806789856431974e+00,
          -3.9240267695989255e+00, 6.5806201101323909e+00,
          5.7498604249765410e+00, 4.9533983871315446e+00,
          5.7480458578917251e+00, -6.1209480109927767e+00,
          1.0107653636901720e+01, -6.8927082829287221e+00,
          -5.7543269467375682e+00, -4.9143195605976215e+00,
          5.7768219125386446e+00, -5.5628405915878556e+00,
          -5.5683673043385697e+00, -6.4891214625749782e+00,
          -5.7986356705526196e+00, -3.5734523528558499e+00,
          -4.7984220716793127e+00, -6.5641944344790719e+00,
          -5.5531207815170305e+00, 6.3160492732091935e+00,
          -5.6753525321014786e+00, -9.4481089218204362e-01,
          6.0144637861013299e+00, -5.9159322033897688e+00,
          5.6355644916843426e+00, -5.2963438786747732e+00,
          -6.2540739197179658e+00, 5.6889960073023955e+00,
          6.3568294419711124e+00, -6.2664633971718837e+00,
          -5.6132353865341091e+00, 5.3802976313892783e+00,
          4.6793368217811917e+00, -5.7041036925615005e+00,
          5.9785870193005541e+00, -5.7183373227897158e+00 ]
      - [ 9.7417306320241237e-01, -3.6860978845225754e+00,
          -1.1036081593754679e-01, 1.3966872476293373e+01,
          -9.0492974762707856e+00, 2.1688970044089348e+00,
          -7.5211482208647666e+00, 2.2956000606286278e+00,
          -2.5176509383223302e+00, 2.0933763670936782e+00,
          5.0018934735794351e+00, -3.8004053194172283e+00,
          -9.9488738158079659e+00, 3.1111874572018365e+00,
          -7.7554818477146039e+00, 2.4266232068252203e+00,
          -2.7972080786028801e+00, -3.9218563333015215e+00,
          -2.6366334257448871e+00, 1.5451389444362440e+00,
          -1.5653906960960013e+01, -2.8979946057344645e+00,
          2.8677773832005613e+00, 3.9781024097918305e+00,
          6.2825007097714423e+00, 2.9482482258297318e+00,
          -5.7330257522996604e+00, -6.5442625305987367e-01,
          2.5591802117642382e+00, 5.6097645455094627e+00,
          7.4347229273865150e+00, -9.4079233841400478e-01,
          -5.6155809337752833e+00, 7.2575892786564289e+00,
          2.7717740589768343e+00, 1.6381363555990941e+01,
          -2.3549663341385481e+00, 2.2717728664944712e+00,
          7.3937662573255185e+00, 3.4595965922425034e+00,
          1.0683189343461430e+00, -3.0208687072204539e+00,
          -2.7150734309998176e-01, 1.0678096990126402e+00,
          1.8413458412542493e+01, 6.3316969433865671e+00,
          1.1915809728218251e+01, 2.7798714226663468e+00,
          4.8460228829939052e+00, -1.1579963690461344e+01,
          -2.9041830354803255e-01 ]
