%YAML:1.0
my_nn: !!opencv-ml-ann-mlp
   layer_sizes: !!opencv-matrix
      rows: 1
      cols: 3
      dt: i
      data: [ 24, 10, 1 ]
   activation_function: GAUSSIAN
   f_param1: 5.9999999999999998e-01
   f_param2: 1.
   min_val: 5.0000000000000003e-02
   max_val: 1.
   min_val1: 2.0000000000000000e-02
   max_val1: 1.
   training_params:
      train_method: BACKPROP
      dw_scale: 1.0000000000000001e-01
      moment_scale: 1.0000000000000001e-01
      term_criteria: { epsilon:1.0000000116860974e-07, iterations:200 }
   input_scale: [ 1., 0., 1., 0., 1., 0., 1., 0., 1., 0., 1., 0., 1., 0.,
       1., 0., 1., 0., 1., 0., 1., 0., 1., 0., 1., 0., 1., 0., 1., 0.,
       1., 0., 1., 0., 1., 0., 1., 0., 1., 0., 1., 0., 1., 0., 1., 0.,
       1., 0. ]
   output_scale: [ 2.1052631578947367e+00, -1.1052631578947367e+00 ]
   inv_output_scale: [ 4.7499999999999998e-01, 5.2500000000000002e-01 ]
   weights:
      - [ 6.5798133073334686e+00, -5.3826526052374972e-03,
          3.1269292980600598e+00, -1.6907318894292582e+00,
          1.5593483254321714e+00, 1.2550435356977914e+00,
          8.0151578116818356e-01, -3.8369785233654961e+00,
          -1.7530988029165098e+00, -5.2367759586732365e-01,
          1.5575711569623461e+01, -1.5636487494607727e-02,
          -1.2646823287399953e+00, 3.6234246413328042e-01,
          8.9969367150915225e-01, -2.7624894255746604e+00,
          5.4371572302976545e-01, -2.7130243790403745e+00,
          2.2144193850473965e+00, 3.2127202382624187e-01,
          9.7590093269215412e+00, -2.7843564249700248e-02,
          -2.6788723128271791e-01, 1.0923503058146131e+00,
          -8.5568580553226703e-01, 2.4976984724564013e+00,
          3.2228620095192815e+00, 2.3562711322752437e+00,
          3.4489093297433029e+00, -6.1450642106810738e-01,
          3.2496297653374171e+00, -5.0134085987643087e-02,
          4.4594074452655846e-01, -2.4702846128943201e+00,
          -1.2110813837773629e-01, 2.1340024540834976e+00,
          7.5024103870850689e-01, 1.3052141080784582e-01,
          4.0668907298183123e+00, 1.5518300087361701e+00,
          4.7337949119862494e-01, -8.9372467520293861e-03,
          -3.9417443798488807e+00, -1.8949426380550088e-01,
          8.7177688613996829e-02, -2.7721985699165996e+00,
          -1.7880352488458104e+00, -7.2955676325199581e-01,
          -3.5496208257125295e+00, 6.1086946667482067e-01,
          1.7653047318228532e+00, 3.1046210229017976e-02,
          -9.2789845525796744e-01, 3.0866022029176579e+00,
          1.0021138599824808e+00, -5.3572409787578013e-01,
          -1.0343472563476903e+00, 7.7778132224190355e-01,
          1.3892152247718268e+00, 1.9277032138331247e+00,
          -8.8650931042043385e-02, 9.7621179798692045e-02,
          9.3663466211768709e-01, 2.2115722403858329e+00,
          -3.3232695727749412e-01, -2.8919110931154446e+00,
          -1.4708410113286714e+00, -5.9715391213940061e-01,
          -2.0587340199766406e+00, -7.6073111306375329e-01,
          2.9506994403630329e+00, 1.0736109907385648e-02,
          1.2652573365705508e+00, -1.4178181172527169e+00,
          -2.0576475018412413e-01, -1.2643931916806577e+00,
          2.9377789621341144e+00, -4.7449348387736805e+00,
          5.8023637410311579e-01, 4.3706128443819570e-01,
          3.3731132332886062e+00, -4.2692147966499954e-03,
          2.9186145066558957e+00, -2.4438965553165479e+00,
          -5.6455609195392009e-01, 5.1521939294540431e-01,
          5.4122488406231168e+00, 1.1418962743295968e+00,
          9.8296291479423287e-02, -1.1401199815787993e-01,
          3.9319792432928731e+00, -7.5532720550088056e-02,
          3.4210744033479341e+00, -1.5030678287244925e+00,
          1.9756254421418578e+00, 9.6825959716653509e-01,
          3.4063277462525127e-01, -1.6830041614476934e+00,
          3.0371604932934733e+00, 1.2393022850446136e+00,
          3.9512983863111537e+00, 5.7897891314890463e-03,
          4.6868062744201362e+00, -1.0973852029283595e+00,
          -3.1336492366770075e+00, -1.9652484446149636e+00,
          7.9294690233233034e+00, -6.8589526805220880e-01,
          -9.8456883238719173e-01, -2.8217760327828110e+00,
          1.9730772689733986e+00, -3.0555819793759226e-02,
          4.2777644464131201e+00, -4.9183062095594982e-01,
          -1.2744940121161177e+00, 4.7699443316750232e+00,
          -8.3551249927693949e-01, -3.0525753223262910e+00,
          3.8235702455749299e+00, 4.6411611698999682e+00,
          5.8681474931366333e+00, -5.8445396981709975e-04,
          6.6105625948272335e+00, -1.8402055362401655e+00,
          -9.5738404242311093e-01, 1.4739294403948128e-01,
          -2.9822878056806359e+00, -2.1624630803807565e+00,
          4.6363662103545389e+00, 5.4072646505722999e-01,
          -1.2344292237695478e+00, -1.5032680666155271e-02,
          1.4900094553487921e+00, -2.3188280705550817e+00,
          1.2175139999021993e+00, 3.2198263868441397e+00,
          2.6842077177653545e+00, -1.0800743514555047e+00,
          -4.1657925059360584e-01, -1.4688310016836130e+00,
          -4.6852667171949012e+00, 6.4194925706514333e-02,
          1.5777607859169278e+00, 2.0947613746827267e+00,
          5.3988822276324833e-01, -2.2590394930836704e+00,
          1.1233403724350963e+00, 1.3804495596822386e+00,
          -3.1898148024131379e+00, -1.6203686659847558e+00,
          -2.3827604432976535e+00, -3.7295765224531964e-02,
          -2.6994664294280404e+00, 1.1525787612199461e+00,
          -8.5319321816531568e-02, 9.2258196278376270e-01,
          -1.1151752993620709e+00, 7.2251688248429835e-01,
          -3.1439272383187294e-01, 2.9615518497290572e-01,
          -6.4037215292539864e+00, -3.9708510344801100e-02,
          -4.9856014835384439e+00, -1.2751312199386580e+00,
          1.6231280577563802e+00, 3.5010996394182126e-01,
          2.0433336781826350e+00, 4.2993635648719071e+00,
          -2.2965636512612133e+00, -2.8599475149592157e+00,
          -2.0025273750977788e+00, -5.9560204288298738e-03,
          -6.8201446277119473e+00, -1.6300409294050215e+00,
          -1.8371205860837331e-01, 3.0484962791792602e+00,
          -2.6447220876990696e+00, 2.7236533449307205e+00,
          3.2864995683682761e+00, -6.2468504099145539e-01,
          -7.4523901300975250e+00, 2.3915872716353988e-02,
          -5.9913933145593594e+00, 6.4988817355226596e+00,
          -5.3621886737195279e-01, -1.0663822340322935e+00,
          -3.3060552713628226e+00, -6.4517751978503701e-01,
          -1.7758967526111644e-01, 4.0976209154234200e-01,
          -6.0732095575022518e+00, 7.5585747533456787e-02,
          -3.0188768396847214e+00, 2.9384485328129748e+00,
          1.3402117764505209e-01, -8.8426754922733564e-01,
          -1.1227973043685207e+00, -2.9472855329943204e-01,
          -3.8615846689694480e+00, -4.1634386485024893e-01,
          -3.3940150716001112e+00, -3.0197804901561185e-02,
          -2.7590812194569838e+00, 3.0570765940706499e+00,
          6.7923760942921974e-01, -1.4736933783484685e-01,
          -2.2667576470552131e+00, 6.6047662517756300e-01,
          3.7315887982037030e+00, -1.4206915031091397e-01,
          -6.2843264631188598e+00, -8.2499471369528565e-02,
          3.8129550337335254e+00, 2.5889705040890538e+00,
          6.0605626263850743e-01, 1.0170588169355310e+00,
          2.0378113563163667e+00, 2.5209060034029611e+00,
          -3.9814739077537915e+00, -2.1531577476786805e+00,
          -7.9299554007428441e-01, -6.6651966884312460e-03,
          -1.5572090714820117e+00, 3.5102511332423472e+00,
          -6.1601596136509285e-01, 5.6998567923296672e+00,
          -3.8854419672905088e-01, -8.4609828761787629e+00,
          -3.7023532364693743e+00, -2.4270516538645066e+00,
          -8.0381262146593997e+00, 6.5493316356287884e-02,
          -1.3552814627881595e+00, 1.7428813150519609e+00,
          -7.6859095635013930e-01, 8.6316650310867737e-01,
          -2.7957654869595205e+00, -1.0122640187451100e+00,
          -2.6710560571214970e+00, -3.4397172065442199e+00,
          4.3214256219617555e+00, 2.4659405269747255e-02,
          -2.7477884306564371e+00, -9.6520466008514416e-01,
          -1.0458747158253296e+00, -1.7413813183993925e+00,
          -2.8039202418123716e+00, 3.1838232022791679e+00,
          -3.5727594582859329e-01, 9.6737836215190853e-01 ]
      - [ -1.2593503827168487e-02, 1.1001911080437524e-02,
          1.3118573195043359e+00, -1.1876156055107436e+00,
          1.1583059818918813e+00, 7.6699359409130219e-01,
          9.7163818558328641e-01, -1.1757780297761347e+00,
          -7.8030131822196547e-01, 1.1410180198862321e+00,
          -2.4747928986788437e-01 ]
