%YAML:1.0
my_nn: !!opencv-ml-ann-mlp
   layer_sizes: !!opencv-matrix
      rows: 1
      cols: 3
      dt: i
      data: [ 24, 10, 1 ]
   activation_function: SIGMOID_SYM
   f_param1: 5.9999999999999998e-01
   f_param2: 1.
   min_val: -9.4999999999999996e-01
   max_val: 9.4999999999999996e-01
   min_val1: -9.7999999999999998e-01
   max_val1: 9.7999999999999998e-01
   training_params:
      train_method: BACKPROP
      dw_scale: 1.0000000000000001e-01
      moment_scale: 1.0000000000000001e-01
      term_criteria: { epsilon:1.0000000116860974e-07, iterations:200 }
   input_scale: [ 1., 0., 1., 0., 1., 0., 1., 0., 1., 0., 1., 0., 1., 0.,
       1., 0., 1., 0., 1., 0., 1., 0., 1., 0., 1., 0., 1., 0., 1., 0.,
       1., 0., 1., 0., 1., 0., 1., 0., 1., 0., 1., 0., 1., 0., 1., 0.,
       1., 0. ]
   output_scale: [ 1.0526315789473684e+00, 0. ]
   inv_output_scale: [ 9.4999999999999996e-01, 0. ]
   weights:
      - [ 2.4595409569993299e+02, 3.3526367789195577e+00,
          -4.7344747737832211e+00, 3.5973284886962853e+00,
          2.9726140322518786e+00, 2.7274159739123256e+00,
          8.9092981764759749e+00, -2.5596247084144612e+00,
          6.1597241921574595e+00, 3.2590665319459249e+00,
          1.5955979998743550e+02, 2.1982367861853209e+00,
          6.8908959984032103e-01, 1.2183140893938500e+00,
          2.7953722740356497e+00, -3.4659591367676406e+00,
          2.5075500170744873e+00, 3.4773938043662382e+00,
          7.6912404389411637e-01, 2.2224218933795528e+00,
          1.0709578867608772e+02, 1.4581237227404675e+00,
          -3.9356571661826618e+00, 1.1867371141619816e+00,
          1.8399718345100644e+00, 3.1397515098937636e+00,
          -1.1689850715922775e+01, -4.9473344472558303e+00,
          3.3361820544210241e+00, 2.0027752439915081e+00,
          2.0965248848634353e+01, 2.8176295260799628e-01,
          -4.2713516177369293e+00, -4.2594315761563530e+00,
          4.7991434059028965e-01, 1.2140954472709287e+00,
          -4.9889914388957299e+00, 1.0756859230162659e+00,
          5.4832208314074018e+00, 5.6526580049395769e-01,
          3.7685583010484692e+01, 2.2736681681372695e-01,
          -3.3585332417271632e+00, 2.0271769287305474e+00,
          4.5679848894637282e-01, 2.5307935409065689e+00,
          7.3158481948261356e-01, -2.2016561978699749e+00,
          2.9223013147439971e+00, 6.4464606885460707e-01,
          2.0654945909210443e+01, -7.8518862067790773e-01,
          2.9492986618763561e+00, -1.1376918031083420e+01,
          5.6228948288377954e-02, 3.7574187068867579e+00,
          3.0748778650339919e+00, 3.4694142816747525e-01,
          4.2206328979470475e+00, -6.8073652809343664e-04,
          5.1122331907892324e+01, 9.6888715302022532e-01,
          -1.3767938124632955e+00, 4.7184112650082826e+00,
          6.3756120680204798e-01, 3.1273732958291527e+00,
          2.4432529183854075e+00, 2.5186895301826112e-01,
          -8.7151432483939340e-01, 7.3344730818732962e-01,
          2.4476794712284999e+01, 1.1543276870057120e+00,
          -5.2368594888552886e+00, -2.1893510689787203e+00,
          7.2460718260003709e-01, 1.1112331809418365e+00,
          4.8505824308168755e-01, 1.1126898553479689e+01,
          -1.7555390598702845e+00, 9.0887824459808897e-01,
          1.3131192712939633e+01, 1.2097274415858466e+00,
          -1.0886499231778387e+01, -7.8903586888334694e+00,
          5.2981282323908307e-01, 2.0749141266281934e-01,
          -4.9341113017386133e+00, 3.1765547426049374e+00,
          1.2094264561140889e+01, 8.6713242507672572e-01,
          2.7372227509484421e+01, 2.0376784657982201e+00,
          -1.4261137443231961e+01, 1.4397720537367714e+01,
          8.9024604126376849e-01, -3.9016772321205364e+00,
          -2.0865255275352276e-01, 2.7728462829056646e+00,
          4.3819310441278431e-01, 1.2898882355977357e+00,
          4.0877169379725423e+01, 1.5201906602930597e+00,
          -8.3312274417861432e-01, -1.0010740062387521e+01,
          7.5974893444852376e-01, 2.3180880417081267e+00,
          4.0571762705011976e+00, 1.3004035138600722e+01,
          6.7918748319978777e+00, 1.1001020268126449e+00,
          5.0263351616396612e+01, 2.7377740458979480e+00,
          5.7180095235602046e-01, 7.3126598531327742e+00,
          1.3537487255454117e+00, -5.0203731289527544e+00,
          -4.3726845519481750e-01, 1.4920208141484222e+01,
          -5.6258939269668504e+00, 1.4467280451660820e+00,
          1.6728058157006473e+01, 3.1266321360727631e+00,
          -7.6760713974143009e+00, 1.1985356458045562e+01,
          1.3423749354366155e+00, 1.1581633199021667e-01,
          -5.4502719130069881e+00, 1.3984090939797762e+01,
          -4.6691498988492652e+00, 1.8241886669371565e+00,
          1.5309552515599023e+02, 1.3007542119157010e+00,
          -1.0098934389858126e+01, -4.4825191102181137e+00,
          1.7759131019336287e+00, -8.7514750238255790e+00,
          -6.4475535324653972e+00, -1.1770821226662690e+01,
          4.1762561638511349e+00, 1.8972058450534157e+00,
          5.4191599138216056e+01, 1.5544380317941553e-01,
          -1.8825168801936620e+00, -2.3316889929640632e+00,
          4.0276472327801888e-01, 1.2686090694067829e+00,
          4.7726435551579423e+00, 1.3639578427162165e+00,
          3.6136373376829551e+00, 3.8425419298509206e-01,
          4.8391818442269432e+01, -2.6649558878679186e-01,
          -1.2646436734049853e+00, 3.9656114810369476e+00,
          4.5346914740637329e-01, -1.1722995941630243e+00,
          -1.9529486568151289e+00, -5.4507694944804479e+00,
          -2.8182155930409452e+00, 3.8751038837151869e-01,
          5.6335269206707714e+01, 5.6019425756160951e-02,
          -3.9572384622037200e+00, -4.5595297429589658e+00,
          3.8375181007115933e-01, -1.6610965599933540e+00,
          6.2909792411605137e-01, -8.0758880028869324e+00,
          8.4769541721258523e+00, 4.3426210903410500e-01,
          4.9017234582738084e+01, 1.3457680201029845e-01,
          -2.0573642319955434e+00, 3.7600439332371605e+00,
          5.8042416250257578e-01, -3.7266466147508708e+00,
          4.7510861875198934e-01, -1.3825527338936254e+01,
          1.8970399858921991e+00, 5.1930888354872351e-01,
          5.1696518304783943e+01, -9.9162077179023844e-01,
          5.2956295834429845e+00, -1.6863575736902356e+00,
          1.8252569879675679e-01, 2.6998968555597829e+00,
          5.8933400698229477e+00, -1.2954223085160152e+01,
          -7.7710280535969662e+00, -1.9433952181110555e-02,
          3.4522820913978158e+01, -6.2533178348815444e-01,
          3.2549308734432429e+00, -3.4914901168978449e+00,
          -1.0137536037158366e-01, 3.0486052134113804e+00,
          7.4205883030608577e+00, -2.8398076958521046e-01,
          -4.6772100800952376e-01, -1.8192352498534742e-01,
          -1.8126175648136048e+01, -4.2456398725985312e-01,
          6.5500031840946149e-01, 6.8158355983457009e+00,
          3.5021430968280226e-01, -1.2455736848808519e+00,
          2.3191087353455000e+00, -5.8022669417855104e+00,
          -6.8034660683198545e-01, 1.2887454410596927e-01,
          7.8798918128798817e+01, 4.1889402541561621e-01,
          -2.4934764444192861e+00, -6.8571839871886855e+00,
          2.1369197307582791e-01, 3.0207227009274153e+00,
          1.0130623920623738e+00, -2.0105385078549367e+00,
          4.3125888399707311e+00, 5.5215554945767331e-01,
          2.8532100005522988e+01, -1.2358091386450519e-02,
          -7.0338868725287460e+00, -1.2875437580950160e+00,
          7.4099418559144348e-01, -9.4263867066797302e-01,
          2.4076874342176815e+01, 5.3149783482621302e+00,
          -1.6347032831144175e+00, 4.9516510033857764e-01,
          4.9618309864704848e+01, -6.7133153074133722e-01,
          -3.2794233974179674e+00, -4.2806086477470657e+00,
          1.6379436454434504e-01, 1.0888229275899705e-01,
          8.7025538643248161e+00, -8.4675878880447697e-01,
          -5.9784294332941821e+00, 7.8158003114166014e-02,
          3.8168114499297008e+02, 5.4132903257463996e+00,
          3.5981361499978735e+00, 6.2981472522699251e+00,
          4.9725895180338853e+00, -1.0891161529144716e+01,
          1.5292285968672410e+00, 3.4624681597405496e+00,
          -1.9534266352697829e+00, 4.9858684654012722e+00 ]
      - [ 2.4398609719931117e+00, -5.2713003322517127e-01,
          1.0092764024797432e+01, -8.3117777829407764e+00,
          1.7612047968138680e+00, -7.4169423698405499e+00,
          7.8799340024059683e+00, -3.3032020995435918e+00,
          -7.7893427452455821e+00, 1.0127659722693958e+00,
          5.5343528311150019e+00 ]
