%YAML:1.0
my_nn: !!opencv-ml-ann-mlp
   layer_sizes: !!opencv-matrix
      rows: 1
      cols: 3
      dt: i
      data: [ 24, 20, 1 ]
   activation_function: GAUSSIAN
   f_param1: 5.9999999999999998e-01
   f_param2: 1.
   min_val: 5.0000000000000003e-02
   max_val: 1.
   min_val1: 2.0000000000000000e-02
   max_val1: 1.
   training_params:
      train_method: BACKPROP
      dw_scale: 1.0000000000000001e-01
      moment_scale: 1.0000000000000001e-01
      term_criteria: { epsilon:1.0000000116860974e-07, iterations:500 }
   input_scale: [ 1., 0., 1., 0., 1., 0., 1., 0., 1., 0., 1., 0., 1., 0.,
       1., 0., 1., 0., 1., 0., 1., 0., 1., 0., 1., 0., 1., 0., 1., 0.,
       1., 0., 1., 0., 1., 0., 1., 0., 1., 0., 1., 0., 1., 0., 1., 0.,
       1., 0. ]
   output_scale: [ 2.1052631578947367e+00, -1.1052631578947367e+00 ]
   inv_output_scale: [ 4.7499999999999998e-01, 5.2500000000000002e-01 ]
   weights:
      - [ -4.3188012076658282e+00, 3.5785064731112666e+00,
          1.9295641621889501e+00, 4.8572373123378014e+00,
          1.3610967652855754e+00, 1.4826220517348845e+00,
          -3.6554705771437814e+00, 9.9438955062497711e-02,
          -2.7638966200720945e+00, -3.0222215789308322e+00,
          1.6028439188137289e-01, 5.0694023401376613e+00,
          -1.4704221327918743e+00, 7.9026157927332257e+00,
          3.3492780002758429e+00, 1.6611544308575492e+00,
          -1.4589492699941511e+00, 1.9405233697264922e-03,
          -2.4542646754346626e+00, 1.4716495411792494e+00,
          2.9670629926179323e+01, 1.1816216255360901e+00,
          -5.5492943830983488e-01, 3.2762764702359273e+00,
          -7.3076462766044140e-02, 1.5603428278506662e-01,
          -4.3515222364723821e-01, 2.1545948450025160e-01,
          1.8865376926073801e-01, 3.2999056915190406e+00,
          1.2521617723026084e+00, 1.3365388278342580e+00,
          -5.2111989161653387e+00, 4.3794730397888788e+00,
          -6.9864988640114793e+00, -2.1522081029644963e-01,
          -1.2313658362437543e+00, -2.7140662046105692e-03,
          -9.3248482508590125e-01, 1.2222747021182208e+00,
          -1.4438340280246802e+00, -7.8412275483912408e-01,
          6.1729116588461075e-01, 1.7188502441903515e+00,
          1.3497318086397483e+00, 1.0820437036041903e+00,
          1.9191643633521249e+00, 1.7250747332817895e-01,
          2.4104865640115114e+00, -4.2587722410961852e+00,
          7.5663499710971271e-01, -2.3573169140298833e+00,
          6.0374738520757598e-01, 1.7672345651592227e+00,
          -3.1191201944015021e+00, -9.3842398739043920e-01,
          5.4665319012478519e-01, 1.3545679890366992e-02,
          3.4355251049869144e+00, -3.3834055336248974e+00,
          5.0353054604804759e-01, 1.1096298024483691e+00,
          -1.8697597210833905e+00, -1.4651669351035945e+00,
          1.4117703691633015e+00, -5.5458104021019972e-01,
          1.5150741614071919e+00, -1.9233504221089653e-01,
          -6.2767396470575525e+00, -3.9685614452088749e+00,
          2.5014864329931243e+00, -4.6192380777755737e+00,
          -1.2733403319049066e+00, -1.8905044179077910e+00,
          -1.1536621993137619e+00, 8.1606422304715398e-01,
          -8.4103382551673256e-01, -5.9376084625928069e-02,
          -1.2114103399446494e+00, -1.7362671010085490e-01,
          2.6777986404765057e+00, 2.7377968679273952e+00,
          -1.9757937098756293e+00, 4.9648251813821291e+00,
          1.7122511048208842e+00, 1.6842699398763250e-01,
          1.8261896752772240e+00, -1.2543322334395066e-01,
          -5.0463024547149713e+00, -2.2743760597052760e+00,
          7.2545254538393333e-01, -5.3233649345365031e-01,
          -4.2520749267888291e+00, 7.5035398447107813e+00,
          -4.4778566963392414e+00, 1.7414166285822117e+00,
          -1.4890805174501702e+00, 4.7678944747579464e-02,
          5.3589714086441664e-01, 3.3303540208083353e+00,
          -8.7653315341517335e-01, 8.6632425666161395e-01,
          1.2082554719104230e+00, -4.5613297625291221e-01,
          -1.4733073741823759e+00, -6.3063043937962582e-01,
          4.1523924256407971e+00, 4.2668299868960178e-03,
          4.7576662327241986e-01, -3.1543343385618332e+00,
          5.1457518782824785e+00, -1.3458363406370362e+00,
          2.0898170360494523e+00, 4.4734636095831579e+00,
          -4.0358888680877056e+00, -1.3813036858795309e+00,
          -1.6744434680142029e+00, 2.6353163520910095e-02,
          -1.3597619949382325e+00, 6.8729344179712326e-01,
          2.9957032122753184e+00, 5.4071169411335767e+00,
          1.5107316761749658e+00, -2.4905187970661853e+00,
          -1.4470189831106930e+00, 5.0891880769503173e-01,
          2.6807014225560262e+00, 9.0347477399658010e-02,
          1.7686818624111829e+00, 5.7634344000016871e+00,
          -7.7481723673417136e-01, -7.4440841925072687e-01,
          1.7730376181680088e+00, 2.3561951920565303e+00,
          -7.2067823949555321e-01, 1.9265446767458874e+00,
          -8.6677723817496177e-01, -1.3977018989077297e-02,
          3.2430776204350344e+00, -1.6609037493851868e+00,
          4.9462796217295200e+00, 8.0554426372765171e+00,
          -5.6996647770773967e-01, 3.5540170086082958e+00,
          1.8520849798349268e+00, -3.4037941261095661e-01,
          1.3136117282799962e+00, 1.7455424936344860e-02,
          -1.8077575903190906e+00, 1.8361925862040804e+00,
          2.1725156659539326e+00, -2.5229776586927377e+00,
          -1.1139348270923211e+00, 1.3413665653782940e+00,
          -4.8281665100016441e-01, 2.0868848898971559e+00,
          8.5369488133667670e-01, -4.7121550837424406e-02,
          -1.3421493792028865e+00, 1.6227209364965487e+00,
          1.2410344640785059e+01, 6.4714749728499159e+00,
          2.1266992512925063e+00, 3.8597993477778361e+00,
          4.2772058900262100e-01, -2.3575559710343505e-01,
          -8.4196408377624401e+00, -7.4856683628716961e-02,
          4.2762877899720282e+00, -6.4452161156131664e+00,
          1.3811920304139125e+00, -1.5493677154210148e+00,
          -2.3560175321750569e+00, 1.4677565428467767e+00,
          4.1002779885631497e+00, -6.8420337078470478e-02,
          2.3408251628165591e+00, -1.7218551209987464e-02,
          -2.8701098077690981e+00, 1.3569702949589346e-01,
          1.2330891917969730e+01, -1.9553166257487147e+00,
          -6.4887789592796885e-01, 7.1047816048408681e+00,
          -5.2742557598949746e+00, -5.1697246961046461e-01,
          -4.7330995579133788e+00, -8.3092073431903626e-02,
          -7.1553545502570257e+00, -2.6226706497233536e+00,
          1.9787332210300557e-01, -7.5954663092246544e-01,
          1.1197181997707644e+00, 1.4565056815872612e+00,
          1.0225416093490378e+00, 1.2797486632090562e+00,
          2.7928293549636605e+00, 4.6125546900041899e-02,
          1.9813586401697023e+00, -1.2973962122216043e+00,
          -2.4007083600103161e+00, 1.3136825482138896e+01,
          3.1469709336181206e-01, 5.0676498502232334e+00,
          3.6274773414446542e+00, 1.5194855253767697e-01,
          1.1563967112335581e-01, 1.1600095918650424e-01,
          1.0092510510482356e+01, -1.0056339541941701e+00,
          8.8787595906166654e+00, -1.2129641569072482e+00,
          -9.4637333158314014e+00, 3.6247639640979146e+00,
          8.4276777916861381e+00, -2.0611839094836255e+00,
          2.1170321679437198e+00, -1.6527677746824333e-02,
          1.0313404845731964e+00, 1.8482763514789504e+00,
          -9.4890298658606103e+00, -6.6765999751784637e+00,
          1.1817490592643514e+00, 9.0226529558945039e+00,
          2.8505230029926190e+00, -8.6259911190214267e-01,
          -1.0177128390309660e+00, 7.1038208964205873e-02,
          -1.4491675788648417e+00, 1.8097173240433997e+00,
          1.1642194629193430e+01, -2.7912414548956921e+00,
          1.0585033431920158e+01, -1.2768425090348250e+00,
          4.7077701103393172e+00, -3.7344770518894248e+00,
          2.2412218935399779e+00, 7.0852780147027880e-02,
          1.1107545398879120e+00, -3.5577494887701713e+00,
          5.9797235924207692e+00, -6.0877161827689443e+00,
          1.0419455115054552e+00, 1.1306730011840399e+01,
          7.9943323615336004e-01, -4.6786080440292821e-01,
          -4.8983888513185967e+00, 1.2374314625100383e-01,
          -6.8083382662693259e-02, 1.2387055065306213e-01,
          3.4973969853151408e+00, -3.2654926922319483e+00,
          -1.6072462263393632e+00, 8.6802333520278996e-01,
          6.2549605680909552e+00, -1.7786122867339726e+00,
          4.3567394196378251e+00, 5.5823568996312420e-04,
          4.3020685008504556e+00, -9.7541935743618140e+00,
          -1.0331554355779161e+01, 3.0233186154772596e+00,
          2.3693724391422428e+00, -6.2010496921781550e+00,
          3.2482413322283121e+00, 1.8076935493045665e+00,
          4.7287324023388875e+00, -1.8174396563307874e-01,
          5.7042502646191817e-01, -8.5389183058791147e+00,
          -4.3010346564801294e+00, -2.7786953995023609e+00,
          7.2578646278971792e+00, -5.5576934665190540e+00,
          -3.9667292050196465e+00, 4.5668913292063271e+00,
          1.2153138633103386e+00, -1.3458632862843522e-02,
          -1.3865153148220335e+00, -2.6947368487472456e+00,
          -8.4336253636742615e+00, 2.8692868420547715e+00,
          -1.1896050893850385e+00, -3.0904021202820159e-01,
          2.0229167501041405e+00, 3.8229266130093842e-01,
          2.9659154576480127e+00, 5.6716370030442463e-02,
          8.3078961410320051e-01, -5.5598196251059653e+00,
          -2.5727134097607136e+00, -3.1118297521396863e+00,
          -2.1957088517528867e+00, -5.9929374140328386e+00,
          5.1892017949163316e-01, -7.5824926815798288e-01,
          -1.9145928684220028e+00, -3.4805951598778528e-02,
          3.1028566052066475e+00, 7.4942621015020441e+00,
          -3.5781542249374589e+00, -1.3364638726800107e+00,
          -6.6937844770586619e-01, -1.5635341959937712e+00,
          -9.1693060937219251e-01, 3.1408415654675181e-01,
          2.1100903203933248e+00, -4.2244598415760913e-02,
          -4.7552268562756419e+00, -4.1876418489322953e+00,
          -1.0353102187717063e+00, -2.5075508888535594e+00,
          3.3189805294694041e+00, 7.6675521356233600e-01,
          -1.7653882710794462e+00, 1.2610878639137719e+00,
          -1.8508614851865228e+00, 3.0315437654758207e-02,
          3.5113539544466845e+00, 3.8992178743934960e+00,
          -1.0557419560423554e+01, 8.0077351895603552e+00,
          -1.8281128070519479e+00, -1.3499140475264456e+01,
          -1.4710418099268674e+00, 4.1166019737372195e-01,
          -1.8993683736769321e-01, 1.1938706726343147e-01,
          4.1817397531124119e+00, -9.9988424133124987e+00,
          -1.1424033917295613e+00, -2.3636076011851910e+00,
          -2.8437956347000265e-01, -3.0247980701465709e+00,
          3.4733446686493172e+00, -3.8757661125657918e+00,
          -2.2616002401808912e+00, -5.2165402997698049e-02,
          2.3486996559762630e-01, 4.7196001304190895e+00,
          4.1368016100785104e-01, 1.4274571223183214e+00,
          -1.3352121558933405e+00, -3.5501453301718970e+00,
          -2.1732130483479026e+00, 2.9470505968743582e-01,
          -1.1545054869809264e+00, 1.9496078393067058e-02,
          -8.1103838603547338e+00, -3.1427382777553423e+00,
          1.0963132603908857e-01, 1.4602730052981514e+00,
          3.1478165060405474e+00, 3.0345205658886258e+00,
          -2.5022967461521839e+00, -2.0898208442176172e+00,
          -1.5597612878467138e+00, 2.2693567998468254e-02,
          -3.8725610141066663e-01, 1.1035103446292416e+00,
          -5.3665611631952510e+00, -1.8332556491838103e+00,
          3.2760706582512107e+00, -6.8456544788090632e+00,
          -4.8778437954876730e-01, 8.6966534473891813e-02,
          6.7489932018494114e+00, 2.6029338243853767e-01,
          2.4144725882534415e+00, 5.6826860739567575e+00,
          -1.2233397093417806e+00, 5.5519927971839396e+00,
          2.5110343330087249e-02, 1.1143469942340536e+00,
          -3.2794624808232529e+00, -4.5065683845752167e+00,
          -3.6357459604384506e+00, 1.6349224732493218e-04,
          1.3982023173933666e+00, 1.1359382776280589e+00,
          1.4210598868124857e+00, -1.7664263072311984e-01,
          -1.8142240806786603e-01, -4.0649098115544495e+00,
          -1.5154803878062773e-01, 7.3178152298613841e-01,
          3.0031383753210594e+00, 1.7698422683163992e-01,
          2.9441344697221289e-01, -1.0387331337564047e+00,
          -2.7539425720976816e+00, 1.6589200634393515e+00,
          -3.0204876275351678e-01, -3.4508825738005506e+00,
          -4.3031101333276277e-02, -3.4456547950702703e+00,
          -2.6557023562991833e+00, -1.4958061720055739e-02,
          8.4913409118498051e-01, 1.4666829639523873e+00,
          7.3149786719579959e+00, -2.1646239080714267e+00,
          -1.3689690699905381e+00, -2.3453163383329279e+00,
          -6.7811758384137322e-01, -3.9897391102108271e-01,
          2.0575849018558112e+00, -1.8008954902907287e-01,
          -3.0915775430942167e+00, 4.7466729463613716e-01,
          -2.1277856639166086e+00, 9.1175990672772633e-01,
          -3.4396065226685657e-01, 6.2529160281293428e-01,
          -4.3481814356440962e+00, -2.0686407012981407e+00,
          -2.4409922893856919e+00, -6.6812845082534541e-03,
          3.8032401229950952e+00, 2.1458950163761563e+00,
          -4.4198905238342796e+00, -8.3273617425217061e-01,
          -3.8820774761012995e+00, -3.1886184690264838e+00,
          2.3879645298637571e+00, 9.0339301552841966e-01,
          1.0938358524817167e+00, -1.6647981985397514e-01,
          4.9502557421827982e+00, -7.5450776835741162e-01,
          -1.5822940063825455e+00, 1.1214005469741699e+00,
          -5.6566779961949303e+00, -6.5823418999356476e-01,
          9.6832568586483492e-01, 3.4835536453154081e-01,
          -9.1566970477984388e-01, -4.0273870592048240e-02,
          3.2236018627151908e-01, 3.5516803073056042e+00,
          8.0791844696353614e+00, 9.5177582171993824e-01,
          1.0305022294470430e+00, 4.1075702168637989e+00,
          -2.0858786375502016e+00, -1.2487021445472699e+00,
          3.1934138359513540e+00, -1.9934227053646186e-01,
          -3.0277372288027418e+00, -3.0849203844568329e+00,
          7.0839478521281563e-01, 3.4686335899347633e+00,
          3.6376529801109205e+00, 8.4483280850065263e+00,
          -2.8157878738111184e+00, -4.5148642733494633e+00,
          -5.4903057543170419e-01, 1.1547996715477222e-02,
          4.2224078025148275e+00, 8.6083806510421219e+00,
          -1.8671889663374521e+00, -2.9635037701317644e+00,
          4.5939504500425200e-02, -3.6710899071104359e+00,
          8.4939638572856857e-01, 1.0341338312663838e-01,
          1.3865641691902293e+00, -2.3825660575052279e-01,
          2.6849242336016594e+00, 1.9171334381507070e+00,
          1.9244390261780120e+00, 2.3198334579393891e+00,
          2.1637482074039399e-01, -3.8679403525185574e+00,
          -1.4441187031898999e+00, 2.1551681371997500e+00,
          -2.8788095607532362e+00, 1.2371649320743631e-02,
          1.5791773919964671e+00, 3.7439558228480236e+00,
          8.8464725524015844e+00, -4.5035359487169195e+00,
          -1.1317844437970073e+00, -4.3575738861079847e+00,
          -2.2748295741964628e+00, 4.2977189582356097e+00,
          -4.9048998932672685e+00, -1.5578062040845711e-01,
          3.7267479252750518e-01, 3.1167641873398395e+00,
          -5.3965221571702804e+00, 1.8522120258952286e+00,
          1.0359434602125839e+00, -1.0717922868067044e+01,
          -1.3543476911996826e+00, 2.3726978902150805e-01,
          -4.3664880384305498e+00, 2.0167874697169272e-03,
          -9.2775363330746963e-01, -2.6485004000802510e+00 ]
      - [ 4.7072250411336419e-01, 1.1801163924761655e+00,
          -1.1159434145785676e+00, 1.5023069885171982e+00,
          1.2507137101090497e+00, -4.6381619322208306e-01,
          -1.3415351641396445e+00, -5.8322727265432606e-01,
          9.5878139078134628e-01, -1.6144728441460148e+00,
          -1.1710287446457885e+00, 1.4108006693613626e+00,
          1.0648278113823204e+00, -2.2788979935505149e+00,
          1.1053925510664122e+00, -8.2121354177501105e-01,
          -9.0168108407180125e-01, 1.1146372762118274e-01,
          8.2801926030510076e-01, -9.3807531354825047e-01,
          -8.6369834256202294e-01 ]
