%YAML:1.0
my_nn: !!opencv-ml-ann-mlp
   layer_sizes: !!opencv-matrix
      rows: 1
      cols: 3
      dt: i
      data: [ 24, 30, 1 ]
   activation_function: SIGMOID_SYM
   f_param1: 5.9999999999999998e-01
   f_param2: 1.
   min_val: -9.4999999999999996e-01
   max_val: 9.4999999999999996e-01
   min_val1: -9.7999999999999998e-01
   max_val1: 9.7999999999999998e-01
   training_params:
      train_method: BACKPROP
      dw_scale: 1.0000000000000001e-01
      moment_scale: 1.0000000000000001e-01
      term_criteria: { epsilon:1.0000000116860974e-07, iterations:500 }
   input_scale: [ 1., 0., 1., 0., 1., 0., 1., 0., 1., 0., 1., 0., 1., 0.,
       1., 0., 1., 0., 1., 0., 1., 0., 1., 0., 1., 0., 1., 0., 1., 0.,
       1., 0., 1., 0., 1., 0., 1., 0., 1., 0., 1., 0., 1., 0., 1., 0.,
       1., 0. ]
   output_scale: [ 1.0526315789473684e+00, 0. ]
   inv_output_scale: [ 9.4999999999999996e-01, 0. ]
   weights:
      - [ -4.5719222673190825e+02, 3.1469493215060287e+00,
          -3.4135132652868085e+00, 3.1488791691686129e+00,
          -3.2898731631890170e+00, 3.0175396812161384e+00,
          -5.3368913125041200e+00, 3.1408163775926417e+00,
          2.9136840360030130e+00, -3.4530976819605947e+00,
          -3.1703563398266335e+00, -1.0609685060291516e+00,
          3.4036559718140045e+00, -2.3192793432961958e+00,
          3.1824989230864564e+00, -5.1034809985055754e+00,
          -3.3994076398534077e+00, 3.7438136428860012e+00,
          2.7974094687754976e+00, 2.9925720988632993e+00,
          -3.3442115293911057e+00, 1.5391089552778576e+01,
          8.3573821910010793e+00, 8.0369968979552500e+00,
          -1.0982596232542432e+01, -3.2441886256978325e+00,
          -7.7967474825643661e+00, 3.1069077968769632e+00,
          -8.6564173686569994e+00, 3.4043987979767523e+00,
          -4.0736032229897012e+02, 2.7072324590654335e+00,
          -2.8841602398818393e+00, 2.8837107441458278e+00,
          -2.8538412094267787e+00, 2.6912502464639223e+00,
          -3.8394207313889930e+00, 2.8059405263076567e+00,
          2.6953635061493206e+00, -2.2971070289078885e+00,
          -2.8303740022993065e+00, -5.4034576332022137e+00,
          3.0078024108272756e+00, -2.9591365640102882e+00,
          2.6394158646738521e+00, -2.3487120560165566e+00,
          -3.1609341524877501e+00, -1.1209567578469235e+01,
          4.4580479706861693e+00, 3.8793663488323258e+00,
          -2.9003845096202459e+00, 9.7772564061715794e+00,
          -2.9010657518307785e+00, -3.2054990201649054e+00,
          -1.1247416844497897e+00, -2.9271322373105688e+00,
          -5.0678469865034270e-01, 2.7930265760755093e+00,
          -1.1168334141114715e+00, 3.3012296505119960e+00,
          -2.7980298353445471e+02, 1.7803060250053029e+00,
          -2.0369679161932757e+00, 1.7866205739729331e+00,
          -1.7394661962766818e+00, 1.3250007656689902e+00,
          8.9706551587295391e-01, 1.6342729638675511e+00,
          1.5069028275454279e+00, -9.8138954653345845e-01,
          -1.4847539780649237e+00, -1.7959764356990573e-01,
          2.7564972991224463e+00, -5.8594887503444069e+00,
          1.1278336462581153e+00, 4.1676172920577077e+00,
          -2.1207089377749666e+00, -6.9323380291432501e+00,
          2.2059557202621431e+00, 1.9299008029877045e+00,
          -2.2815200807253211e+00, -8.0156867729934635e+00,
          -4.6101268154599895e+00, 4.8081624288510154e+00,
          -7.0990674200380415e+00, -1.5079007674961595e+00,
          -6.8784665706292880e-01, 1.7160972080926222e+00,
          -5.1005098343813797e+00, 2.1807278399530925e+00,
          -1.2696529604847667e+02, 7.4828967657178957e-01,
          -7.2757394008432463e-01, 6.5481830003739705e-01,
          -6.8437332348017510e-01, 6.6008557594157313e-01,
          1.0835988467404791e+00, 7.3854346699867546e-01,
          6.8522984731576386e-01, -7.9434237500334071e-01,
          -7.3763588485306364e-01, 2.4632662833840763e-01,
          1.0479730566724488e+00, -9.6854590033430166e-01,
          8.1618398693013849e-01, 1.9598613205030382e-02,
          -7.3963094524761241e-01, 8.9108865866963516e+00,
          6.9273615076909467e-01, 6.5705584840109521e-01,
          -8.9006662568377204e-01, -8.4983502561842137e+00,
          -3.4085657971605959e-01, -3.2767772064075280e+00,
          -6.3556773608229378e+00, -7.2622343207220297e-01,
          -7.9453529727226782e+00, 7.1387575854466834e-01,
          1.1148993771138744e+00, 6.1627251077248368e-01,
          -1.3151180672738963e+02, 7.4449562903430067e-01,
          -5.6149873396808569e-01, 6.6629664298714564e-01,
          -6.6779402651485942e-01, 9.4744032778252374e-01,
          -5.9856408049434000e+00, 6.8838782243735075e-01,
          9.5565554043344869e-01, -1.2882282778095115e+00,
          -9.2342915340363207e-01, 2.0554722830539163e+00,
          6.1909791454176000e-01, -3.8683084587833311e-01,
          1.0682956582227869e+00, -3.8351205627839619e-01,
          -5.3769630278867253e-01, 1.2175027439613041e+01,
          3.6471342300190973e-01, 4.8993978405534455e-01,
          -6.7046731145152272e-01, 6.9517681148662041e+00,
          2.5584039268738636e+00, 8.2477240549885977e-01,
          -7.6685280895019003e+00, -8.0954080145543250e-01,
          -4.4008531745819459e+00, 8.0480886379918049e-01,
          3.8622850875140613e+00, 4.4726118074212984e-01,
          -1.2457267675320196e+02, 6.8243754493221465e-01,
          -1.8463505666715110e-01, 5.1693061932839490e-01,
          -6.0933121150278813e-01, 1.1305477386525074e+00,
          -7.3972644307036761e+00, 6.4756634386752288e-01,
          1.0503295552275711e+00, -1.4785758378640717e+00,
          -1.0495674869852012e+00, -2.3051525354702149e+00,
          8.7582793029398753e-02, -1.1071738923278984e+00,
          1.4256708818160790e+00, 3.5851975172518307e+00,
          -3.6847346530381263e-02, 5.4525475802548016e+00,
          -2.6405077751319372e-01, -8.5655759118781358e-02,
          -1.8837488613053503e-02, -1.6597678603864985e+01,
          -3.8793232731926546e+00, -1.2660133409938664e+01,
          -3.8630730485765818e+00, -8.9672531280823597e-01,
          4.4819972648001309e+00, 6.9825622724941239e-01,
          1.3798060643128935e+01, -1.3578537510092964e-01,
          -1.2611962015054034e+02, 7.6188165412303677e-01,
          -8.2575092636034686e-01, 6.7057892359620397e-01,
          -7.3645420032275721e-01, 9.4089159860580285e-01,
          -3.4869122111917212e+00, 7.9522881581327565e-01,
          9.5478340907084946e-01, -1.1617565502285141e+00,
          -9.6262689049543082e-01, -7.8364720035525615e-01,
          6.6003037691359145e-01, -2.8035595870184338e+00,
          1.1456114262151829e+00, 2.3897068637051446e+00,
          -7.3276010918038292e-01, 1.3216411016133864e+00,
          1.6554494266736466e-01, 6.5182178676707681e-01,
          -7.5981222199464737e-01, 1.4365213809968189e+01,
          1.6163614088603349e+01, 3.2843024382812871e+00,
          -1.9684917883136173e+00, -8.2103396585745614e-01,
          9.0603687962820301e-01, 7.9781695476515746e-01,
          7.6633564086466333e+00, 5.9295006658077010e-01,
          -7.2867200793183059e+01, 5.4578811999219268e-01,
          -7.9818251817994668e-01, 4.6641113310049509e-01,
          -5.6208171522066563e-01, 2.1063698642774756e-01,
          -1.3159732584000421e+00, 5.1337171096546219e-01,
          2.9647582383281412e-01, -4.1466711480421553e-01,
          -5.0572521997525366e-01, -2.0477432228080477e+00,
          1.1088785123399831e+00, 2.4525094187652882e-01,
          2.8265244018624930e-01, -8.8223650636371200e+00,
          -7.4041032761052450e-01, -7.2060226008295434e+00,
          3.7430574715747289e-01, 6.2420703698703917e-01,
          -8.5485166994518458e-01, 2.7198165990548020e+00,
          3.1266081593338892e+00, -1.0146028946554013e+01,
          1.2308543970844024e+00, -4.9661848887638399e-01,
          9.5665811564459402e-01, 3.9356028780934088e-01,
          -7.9193901108045779e+00, 6.7245282405566842e-01,
          -8.0659306833949387e+01, 7.1910837169645936e-01,
          -1.2164321214274687e+00, 7.8314371560513985e-01,
          -6.0519881985333335e-01, 1.0097767716661503e-01,
          -4.2517630444943298e-02, 7.0145479907758279e-01,
          -2.7038290278769785e-02, 4.4026915931174049e-01,
          -1.6878334299000516e-01, -6.8810721643431751e+00,
          2.5431925474837063e+00, 7.1376209739064560e+00,
          -3.3232636922284275e-01, 2.2870995583486646e+00,
          -1.2552402319263705e+00, -1.4100153384444769e+00,
          1.8732334816060403e+00, 1.4527364372639733e+00,
          -1.7599179253673096e+00, -5.5532052826372764e+00,
          -2.3667177274813844e+00, -7.1278552788188687e+00,
          -4.9953986962584782e+00, -2.8222179749094684e-01,
          -2.0026321293279114e+01, 5.3942575545723193e-01,
          -4.7668765832241089e+00, 1.5187739243212932e+00,
          -7.3585484223856952e+01, 8.1125527359841187e-01,
          -1.2641910455000245e+00, 8.1126049835420122e-01,
          -7.0677304132621932e-01, 2.7199593532654037e-01,
          7.6499544297167321e-01, 5.7680245656113560e-01,
          2.4612844230886877e-01, -3.1174064613299268e-01,
          -4.6306118617404934e-01, 2.0517872459875065e+01,
          1.9895753187034577e+00, 2.0951737218558028e-01,
          2.6197390617667971e-01, -3.0475047871420548e-02,
          -1.2785385505194291e+00, -4.6008459181278871e+00,
          1.0799489632085570e+00, 1.2042605659479699e+00,
          -1.5447506337856598e+00, 1.0413862452194506e+01,
          6.1584448149612987e+00, 8.6634859818535332e+00,
          5.7659746766752997e+00, -5.3809160716083260e-01,
          -1.5600298045218358e+01, 6.5449116141233887e-01,
          -8.1147849702212471e-01, 1.2796687944261369e+00,
          -1.0410434217855014e+02, 9.9216355966745573e-01,
          -1.5044809187307859e+00, 9.8864546854011048e-01,
          -8.6233197930411709e-01, 3.7281334977997027e-01,
          -2.5564388668080515e+00, 9.0368658808013869e-01,
          3.8538058004941150e-01, -3.9351385913714093e-02,
          -4.3736773291142017e-01, -1.9026947905835719e+01,
          2.4616433592954015e+00, -8.5699211175852585e-01,
          9.5136582394253669e-02, -1.8505926985759447e+00,
          -1.4221589132257870e+00, 4.6805486422544931e+00,
          1.7563010197089584e+00, 1.6259849147668308e+00,
          -1.9135356517135276e+00, 7.5263614220839434e+00,
          1.4430255439289317e+01, -2.1270352601746151e+01,
          -4.0225491708275065e+00, -6.6505757814984356e-01,
          2.1892354064878319e+00, 6.9694657942285076e-01,
          3.8232092578647801e+00, 1.6779681662521984e+00,
          -7.7542182720129802e+01, 1.0555225578111154e+00,
          -1.1342047654305398e+00, 1.0188258329076143e+00,
          -1.0931407194006908e+00, 8.8978344694570621e-01,
          -9.2061359708253292e+00, 9.8689451386779314e-01,
          7.9986316533069801e-01, -1.4096633346284435e+00,
          -9.9554385817852886e-01, 2.5259863560803993e+01,
          1.2022545013181374e+00, -2.8700521920142146e+00,
          1.1822821983665872e+00, -1.2815738849468798e+00,
          -1.1793079609484463e+00, -6.8683768868618902e+00,
          6.9371384774493583e-01, 1.0782920034751253e+00,
          -1.2609957397941194e+00, -2.4093656647763879e+00,
          4.9785326765170126e+00, -1.1134840168130928e+01,
          1.2238780491436543e+00, -9.5673340150993680e-01,
          6.8687060946051757e+00, 8.9850526307620016e-01,
          -1.5812108611006608e+00, 1.1628344944675320e+00,
          -5.4716828141549136e+01, 7.4934962706859620e-01,
          -1.4086413751446090e+00, 6.9809325431398050e-01,
          -6.3537054289141381e-01, -8.1252450804678841e-02,
          -1.3582336003569159e-01, 5.8248944557123106e-01,
          -8.0451915332755100e-02, 7.7443159860922040e-02,
          -2.0260268429839498e-01, 1.6686267920647456e+01,
          1.7832239163068295e+00, 1.0387493969874131e+00,
          -2.6993851216386444e-01, 2.1864393773108244e+00,
          -1.3332829377864888e+00, -6.3878732744315840e+00,
          7.5529524996732655e-01, 1.1335092455763467e+00,
          -1.7291137335794247e+00, 1.1280152801294372e+01,
          1.6915577252167903e+01, -6.3341570750624614e+00,
          4.8059487093617532e+00, -4.2929847610909522e-01,
          7.4771328556683123e+00, 4.1054303411348342e-01,
          -1.2218497890890877e+01, 1.4061429639763285e+00,
          -1.6694959627566820e+02, 1.7394498956422628e+00,
          -1.8975126673203526e+00, 1.7593734103278877e+00,
          -1.7378244460648538e+00, 1.3786347132184955e+00,
          -3.3745439985077819e-01, 1.7134590259098934e+00,
          1.4008479761877595e+00, 1.5921419878120283e-01,
          -1.2011734821176345e+00, -4.4604690476949829e+00,
          2.2784597285579098e+00, 7.0055879334679156e+00,
          5.6019026331796218e-01, 5.4835294395863343e+00,
          -1.7046381766266825e+00, -3.4274114095857198e+00,
          8.3271405975756196e-01, 1.2256973764036641e+00,
          -2.1436440938687924e+00, -2.9355161583262639e+00,
          -1.2353325599989832e+01, 1.5958434897740700e+01,
          5.8400046313381004e+00, -1.4498602546889154e+00,
          -1.4116461454245288e+01, 1.6833567595926888e+00,
          1.9723718222458482e+00, 1.5436200460651293e+00,
          -7.0554119609639159e+01, 7.0358876282332039e-01,
          -3.2852381990011903e-01, 5.3184526305437319e-01,
          -5.8211219538556103e-01, 1.0896929549565844e+00,
          -1.3298527094198167e+00, 6.7502194112816905e-01,
          1.0767837780703096e+00, -1.2782909565484031e+00,
          -9.7547060257342488e-01, -8.4286671241008513e+00,
          1.7245210421714696e-03, -1.3502729789327368e+00,
          1.2660931469118175e+00, -4.6185849607677412e+00,
          -8.3026300034672762e-02, 1.8028868853045719e+01,
          -3.4809246909825403e-01, -1.4093779849879257e-01,
          -1.9971346317420183e-01, 4.0247694843071216e+00,
          5.5383169715224181e+00, -6.4953395414494937e+00,
          5.4586958660576734e-01, -8.4987258743031335e-01,
          -6.1998183053326441e+00, 7.7234676812305170e-01,
          4.7064995461451438e-02, 3.7187418951491399e-02,
          -7.8088131245127855e+01, 6.2685627739723671e-01,
          -2.3650970035840363e-01, 4.8803987503906066e-01,
          -5.4844208020475549e-01, 1.0190835814457724e+00,
          -2.7022705200693506e+00, 5.0524379456761048e-01,
          1.1201417444369541e+00, -1.2888857386253485e+00,
          -7.7417180459156965e-01, 1.0589697169405509e+01,
          -1.3751366735742959e-01, -2.6031487718552282e+00,
          1.1533789764021523e+00, -4.2146893905932192e-01,
          -7.3860897259835315e-02, 3.4385932801946182e+00,
          -5.4460768695231454e-01, -2.7375159689418477e-01,
          -1.0128844182728523e-01, 1.2525631514767901e-01,
          2.6131301208152471e+00, 6.0070808293802278e+00,
          1.8740504658089683e+00, -8.2198727783316361e-01,
          -4.3314472891132301e+00, 7.0161920232493880e-01,
          -2.8567942276525291e+00, -1.1095951268481308e-01,
          -6.8558705580986782e+01, 7.6409979817573137e-01,
          -4.1253072777603733e-01, 6.4205243119360489e-01,
          -7.2119005895492216e-01, 1.2050415190739843e+00,
          -9.7366703684212936e+00, 7.9660169852226725e-01,
          1.0962064612532532e+00, -1.4721940385581922e+00,
          -1.0631349471213376e+00, -9.8310240633923609e+00,
          1.5955928819902832e-01, -5.2312783557307307e+00,
          1.4459208003668522e+00, 9.0221758128478591e+00,
          -3.3372365021038719e-01, 1.1988269257100391e+01,
          -5.9526839722216854e-02, 1.3883195852463992e-01,
          -2.7392066333412801e-01, -1.9531493952511498e+00,
          -4.8313667566630425e+00, 7.3822141034984634e+00,
          -5.7757915698611333e+00, -8.8271417281740316e-01,
          -1.4183816060512886e+01, 8.0068729502989799e-01,
          6.9764360239022976e+00, 1.3650576666752273e-01,
          -8.5510616625860862e+01, 7.2224463922282445e-01,
          -5.5555687821239874e-01, 5.7313811904234491e-01,
          -6.9312659392281561e-01, 8.6045595824585652e-01,
          -1.1613432405517727e+01, 6.4085962940048635e-01,
          9.0221667186482468e-01, -9.6972781660627627e-01,
          -7.3207179589903226e-01, 9.1952227663255552e+00,
          5.1133960849496973e-01, -9.9711506606306628e+00,
          1.1034078298543988e+00, 7.1662426491647420e+00,
          -3.9219826791511531e-01, -1.1498015390709742e+00,
          1.8989643673882450e-01, 2.6118457282108187e-01,
          -5.8174823354694916e-01, -7.0682303208534467e+00,
          -8.4000235002827139e+00, 1.2257459699834978e+01,
          1.8261319579186410e+00, -7.4054443524005242e-01,
          -1.0775757460367620e+01, 6.8351684269907909e-01,
          6.4643367146271427e+00, 3.6992429066980798e-01,
          -4.7591510007978400e+01, 1.8936806583356802e-01,
          5.3752441968640741e-01, 1.4849127409772331e-01,
          -3.2499972550256534e-01, 1.2561004750707694e+00,
          -1.5713287125441919e+01, 1.9816352737387266e-01,
          1.2860589804859934e+00, -2.4860435619542298e+00,
          -1.0873597892033424e+00, -1.6393379332658116e+00,
          -1.7038244002058154e+00, -1.3766627866801647e+01,
          2.1863624776105204e+00, 1.3439046188265307e+00,
          9.2768483803625956e-01, 1.3248446980743042e+01,
          -1.8444424725747210e+00, -1.2577098906511490e+00,
          9.4346352975587477e-01, 3.0952866119190388e+00,
          -2.0401970006264500e+00, 2.6686832444638440e+00,
          4.2377632594929118e+00, -7.9386585981281999e-01,
          9.6331762762588706e+00, 4.5356357701211786e-01,
          3.8405842743989349e+00, -1.1053592330581237e+00,
          -7.7553960296150564e+01, 4.4796263969375444e-01,
          1.1815512111639451e-01, 2.7750015655661131e-01,
          -3.1255200109804071e-01, 1.1075179090793419e+00,
          7.5630193917288100e+00, 3.7231793500565208e-01,
          1.0581085755719570e+00, -2.1221263683150924e+00,
          -9.1739108072831721e-01, -3.4049223659647172e+00,
          -9.7806685313124564e-01, -1.3533832964118604e+01,
          1.6694160420644697e+00, -4.9760342297080706e+00,
          3.5493100825416529e-01, -2.7590254340879548e+00,
          -9.0864753643323759e-01, -5.7905244181346527e-01,
          4.2532599532039567e-01, -3.2246178269283643e+00,
          -2.6847072412495123e+00, -4.2629075110201349e+00,
          2.8925534118967744e+00, -7.3119569339676171e-01,
          -3.8713982935830776e-01, 4.9653210586295882e-01,
          1.6701442384588454e+01, -5.2168988849664610e-01,
          -8.2990445119109481e+01, 3.9209962122399217e-01,
          1.2509443317931239e-02, 2.8335250306698545e-01,
          -4.2185204005791543e-01, 8.8252269313101894e-01,
          -1.0600873032510725e+01, 4.6899918931299056e-01,
          9.6911776604565525e-01, -2.1360503984003008e+00,
          -9.6687901660777764e-01, 5.1743058992516318e+00,
          -3.0135857789341408e-01, -6.1370496026909427e+00,
          1.6402805824087456e+00, 5.5834829485912367e+00,
          1.2411223263012239e-01, -3.8454519894916679e+00,
          -4.3225408270587595e-01, -3.4533019963574568e-01,
          1.0648405189477832e-01, -1.4093263880589002e+00,
          -1.0250720823974140e+00, 1.4336691022256707e+00,
          1.1216439596933540e+01, -7.8406903907147618e-01,
          -1.1904555126255001e+00, 4.1280788143247776e-01,
          2.5670047903541249e+01, -2.2435413332452847e-01,
          -1.0796233797538969e+02, 8.5324084754876206e-01,
          -7.1581865196492822e-01, 7.0823675289223043e-01,
          -8.7307241330667995e-01, 9.3220259186237608e-01,
          5.5937718618765375e+00, 7.8946841434136417e-01,
          9.9263803314208754e-01, -1.1326145252402549e+00,
          -8.7960505758581309e-01, -8.1105296171208856e+00,
          5.8790348183469632e-01, 7.5775373903338805e-01,
          1.0287159171080322e+00, 1.9295607339045786e+00,
          -6.6404230985729118e-01, 9.6552061213226903e+00,
          2.5928583460184614e-02, 5.3860204161624747e-01,
          -8.3170677358647149e-01, -8.5943657751824082e-02,
          1.1258039016879465e+01, -3.9558211600596440e+00,
          -1.4226618121973872e-01, -7.7129550705700989e-01,
          1.6697263841674814e+00, 7.5012228461688557e-01,
          1.2702124720931275e+01, 6.1836689935315003e-01,
          -1.1295531104622084e+02, 6.9579536765738637e-01,
          -3.2936251849507431e-01, 6.0554490952016271e-01,
          -6.5877393098445081e-01, 1.0985039150643976e+00,
          -1.5994724883373472e+01, 5.9615819426390315e-01,
          1.2155549558705674e+00, -2.9405755073643167e+00,
          -1.1813862958037582e+00, 7.3064479910596400e+00,
          1.8357801814386621e-01, -3.5319197739884273e-01,
          2.1761101408083721e+00, -2.4295276540994760e+01,
          -1.5613777074553370e-01, 5.5255474014876982e-01,
          -4.7977533823582519e-01, -2.4219697400577878e-01,
          -3.3629657525074458e-01, -7.9114716444658404e+00,
          -2.8765240286997389e+00, -1.2663410176583684e+01,
          9.7296090695784221e-01, -1.0883098879328355e+00,
          -8.1867450841748024e+00, 6.4819138299646217e-01,
          1.4524577119314772e+01, -3.7309465463880574e-03,
          -7.2276718958276120e+01, 4.0594574938224981e-01,
          2.5649544744660968e-01, 3.0940742380628516e-01,
          -3.3311284675405051e-01, 9.2192467762166164e-01,
          -9.1942405999830323e-01, 3.7729386233482914e-01,
          1.0527000894842304e+00, -2.2009976982014505e+00,
          -9.0221616179543052e-01, -1.9904454887555505e+00,
          -6.4095895756324028e-01, 7.8101098362228756e+00,
          1.6737803912031461e+00, -3.0193954746179884e+01,
          4.8997899635506104e-01, 8.2217025599280902e+00,
          -1.1652218222275081e+00, -6.0864467661449106e-01,
          3.1585638315098030e-01, 1.2669096665996451e+00,
          -6.3692388982020383e+00, 8.2107213742385259e+00,
          2.7323204798083687e+00, -7.6774363654759414e-01,
          -3.1985498768254228e+00, 4.1043188878989784e-01,
          -1.8732579185450744e+00, -5.7070659120612355e-01,
          -7.6802233590266928e+02, 5.9728500281190753e+00,
          -5.6442789994521725e+00, 5.9933342161205463e+00,
          -5.9432868197101856e+00, 6.2240005816585766e+00,
          4.6566892755412104e+00, 6.0400806145275965e+00,
          6.1842608086366564e+00, -5.4387905138489803e+00,
          -6.0834135399912102e+00, 9.3309184756307193e+00,
          4.7877758840726905e+00, 3.4140856236251943e-01,
          5.8706998052254304e+00, -3.9934011438236356e+00,
          -5.5751114069905325e+00, 7.0130569114645844e+00,
          4.2622933464075530e+00, 5.1323657633455095e+00,
          -5.3251774645878784e+00, -3.7657465006969715e-01,
          -8.4629528833822683e+00, -2.6786976144271226e+00,
          -4.2924603630118296e-01, -6.0248323269678128e+00,
          8.9305240956794716e+00, 6.0658783135931653e+00,
          5.0640240656519042e+00, 5.4576467167329952e+00 ]
      - [ 5.5491857464253991e-01, -9.6187146878767993e-01,
          2.2246126035417890e+00, -1.1853547131657309e+00,
          9.1224517428583651e-01, 5.2714022575101083e-01,
          -1.3581357254742128e+01, -9.9629423358696334e-01,
          4.7938236131039846e-01, -2.8933379321753900e+00,
          -3.6298861037268221e-01, -9.8390107135818319e+00,
          -3.9158922923843278e+00, -1.0685727697118409e+01,
          1.9808382404330021e+00, -1.0013290647374070e+01,
          2.5998917830536019e+00, 7.4029672430897238e+00,
          -4.2775683405945468e+00, -3.2952562862848400e+00,
          2.8859953727037646e+00, -1.3585181050181376e+01,
          -2.4672885038408756e+00, 3.5160425820846251e+00,
          3.9103300612830063e+00, 1.5551600972416485e-02,
          6.8155555175550679e+00, -7.9202778583560418e-01,
          1.1953853196337072e+01, -3.0047905677274915e+00,
          2.1774074482796930e+00 ]
