%YAML:1.0
my_nn: !!opencv-ml-ann-mlp
   layer_sizes: !!opencv-matrix
      rows: 1
      cols: 3
      dt: i
      data: [ 24, 30, 1 ]
   activation_function: SIGMOID_SYM
   f_param1: 5.9999999999999998e-01
   f_param2: 1.
   min_val: -9.4999999999999996e-01
   max_val: 9.4999999999999996e-01
   min_val1: -9.7999999999999998e-01
   max_val1: 9.7999999999999998e-01
   training_params:
      train_method: BACKPROP
      dw_scale: 1.0000000000000001e-01
      moment_scale: 1.0000000000000001e-01
      term_criteria: { epsilon:1.0000000116860974e-07, iterations:500 }
   input_scale: [ 1., 0., 1., 0., 1., 0., 1., 0., 1., 0., 1., 0., 1., 0.,
       1., 0., 1., 0., 1., 0., 1., 0., 1., 0., 1., 0., 1., 0., 1., 0.,
       1., 0., 1., 0., 1., 0., 1., 0., 1., 0., 1., 0., 1., 0., 1., 0.,
       1., 0. ]
   output_scale: [ 1.0526315789473684e+00, 0. ]
   inv_output_scale: [ 9.4999999999999996e-01, 0. ]
   weights:
      - [ -5.2691557759310790e+01, 6.7798621551335287e+00,
          1.0803830247412936e+01, 3.1808269562761358e+00,
          3.2337940338301951e+00, 2.9934804462537934e+00,
          -4.2203023846759100e+00, -3.0218512541018199e+00,
          3.0850786177792258e+00, 7.0800973096921860e+00,
          2.4963273005377959e+00, 3.2145766750877969e+00,
          -3.1607501339445676e+00, -2.8108814109505027e+00,
          2.7105148162414960e+00, -1.2341521061057705e+01,
          -3.0644411220201073e+00, 2.9535303626391118e+00,
          9.6747527263446980e+00, 2.6544254071331452e+00,
          8.5919245513566516e+00, -9.2939822893433970e+00,
          3.0979900641587226e+00, -3.0338675691470911e+00,
          -1.1370579122013570e+01, 6.3933412065244513e+00,
          -8.6656365407920468e+00, 2.8612633421823244e+00,
          2.3384764572242180e+00, -2.7096580785995683e+00,
          -1.4200168199108047e+01, 6.7808532594509952e-01,
          -1.4979938887593041e+00, 1.5327525730401401e+00,
          6.2691748614825527e-01, 5.4468514500029197e-01,
          1.3930982196178059e+01, -1.2489370996310292e+00,
          1.4234879793213917e+00, 1.0332698572811461e+00,
          4.8628996424971010e-01, 1.5177349554871677e+00,
          -6.3583143366331052e-01, -6.6563556463783558e-01,
          1.2366807068167498e+00, 1.3150384925866986e+01,
          -2.5891105391625974e-01, 6.8787286164172523e-01,
          -4.7532869372810443e-01, 1.8607201470369561e-01,
          8.5865606847131937e-01, 2.3369422543946583e-01,
          8.9657051355030792e-01, -4.5599408549966403e-01,
          1.6669319531639775e+00, 1.4779057019104282e+00,
          -4.6660648811612432e-01, 1.3328669113124008e+00,
          7.3895296599373461e-01, -5.5797602213225850e-01,
          1.6382712125598651e+01, 5.2881109924471315e-01,
          -5.1836874947930678e-01, 1.3567100168536248e+00,
          7.8025221054012481e-02, 7.2248976598978221e-01,
          1.7119214216656449e+00, -1.0791082288813429e+00,
          1.2474690583083972e+00, 1.5228589872354376e-01,
          1.3040552625804771e+00, 1.2837095719173979e+00,
          -4.5806313023146134e-01, -1.1817361237949748e+00,
          1.2188523922668821e+00, 1.3830908113316751e+00,
          -1.0026772989595776e+00, 7.7447254640016483e-01,
          -5.7159672954564655e-01, 1.8555072317716339e+00,
          -1.4661996216852993e+00, 2.9615500239186482e-01,
          8.3577167674315789e-01, -9.2229994933025905e-01,
          1.3502428199500494e+00, -9.7906427876256724e-02,
          9.8397914912650475e-01, -2.4130034271588174e+00,
          1.0374801308157193e+00, -9.0008183244502504e-01,
          -2.5922978851868063e+01, -1.5267750829226992e-01,
          -3.1175509681834407e-01, 5.7111204058263998e-01,
          5.0720749800597964e-01, 8.0756438944398323e-01,
          -3.1018635456428036e+00, -7.0636345116989441e-01,
          6.6357417428227095e-01, -3.5358758140145308e-01,
          8.9605758247040879e-01, 6.1725249233109380e-01,
          -6.4097841701293823e-01, -8.5179244321727920e-01,
          8.2424580183676543e-01, 6.4752724302282094e-01,
          -9.9673253562504649e-01, 7.3471170335419134e-01,
          -3.9486106936785526e-01, 1.2771468878648946e+00,
          -9.7629579704963176e-01, 4.4449081509079524e-01,
          8.2645207067156523e-01, -7.9123878179491081e-01,
          6.5925469684867255e-01, -5.0831762145096149e-01,
          7.4066584986475481e-01, 3.3425188950851292e-01,
          8.1383059641797972e-01, -9.3225265864958862e-01,
          -9.3205188008920850e+00, 4.3278597092989446e-01,
          3.6463815153639684e-01, 6.1005718804040354e-01,
          1.7734352750476137e-01, 5.7635951472082392e-01,
          -7.2126562612448106e+00, -4.6858415374965956e-01,
          5.3435670397011703e-01, 3.8477394487900746e-01,
          9.8790455968966628e-01, 4.6527261169331047e-01,
          -2.5156657732519805e-01, -8.4697453253134469e-01,
          6.3441317865684976e-01, 5.0243905747365514e-01,
          -7.5965016453975276e-01, 5.1503385331496321e-01,
          1.6228171609721997e-01, 1.3575643764823011e+00,
          -1.8095494836456624e-01, -3.3732045402687089e-01,
          5.3946461421459879e-01, -6.1182183570997317e-01,
          -8.2652352983919736e-02, 8.4629543139180877e-02,
          7.2044821391772484e-02, -1.9880492239502563e+00,
          9.0848222611989848e-01, -7.2971140843145543e-01,
          -2.1100165025818001e+01, 1.4594419476544840e+00,
          2.9680449209249873e+00, 8.5711402973385320e-01,
          8.4284684729700365e-01, 9.6538199236724243e-01,
          3.3653357775810240e+00, -9.9149327398801668e-01,
          8.2596638239057119e-01, 1.3126161853472398e+00,
          7.0808490478317820e-01, 8.4574659105456917e-01,
          -1.0147191220421441e+00, -7.5020081983903730e-01,
          7.1312240473199218e-01, -5.2729837368592021e+00,
          -1.1094583613019495e+00, 1.0337217225811135e+00,
          2.3071497512769135e+00, 7.5083485741518752e-01,
          1.2998384643385077e+00, -2.1727655750244836e+00,
          9.2205311099035792e-01, -9.9495235806697924e-01,
          -2.7027622413233243e+00, 9.8524532099128992e-01,
          -1.5483834219501733e+00, 2.7132728146040335e+00,
          7.5593919178678781e-01, -8.9238827901728868e-01,
          -4.3762128427971181e+00, -8.4997199302755871e-02,
          -3.6523109932802017e-01, 1.7369942093271248e-01,
          2.2356550110543293e-02, 4.5330454934231051e-01,
          -4.6664640089675888e+00, -1.6664944583474253e-01,
          2.0076658187705101e-01, -1.8654428066107565e-01,
          1.3927056646130385e+00, 1.7559909831519160e-01,
          -8.8187604520983412e-02, -9.4203740054315888e-01,
          7.3117942740580766e-01, 2.9500078730344046e+00,
          -8.8930502129495181e-01, 3.3854409906835342e-01,
          -6.6552707482132267e-01, 1.5988897773923314e+00,
          -1.0580635815248980e+00, 3.5443450047118741e-01,
          2.5995398160603767e-01, -6.5952914817830322e-01,
          5.8467348752836246e-01, -3.0586464140782699e-01,
          6.7759108205849861e-01, 1.0177389383535106e-01,
          1.2031151736529992e+00, -8.7223911835533696e-01,
          -1.1699967514043356e+01, 1.4900504872082942e+00,
          2.9654585153951234e+00, 4.1860752213839103e-01,
          7.8875144142822873e-01, 8.7912333875995019e-01,
          -3.9222826246021478e+00, -6.3446450879169314e-01,
          6.2318714277824694e-01, 1.6247249881454888e+00,
          6.2885055986364435e-01, 4.7781709150681445e-01,
          -7.9875078347679818e-01, -7.2616825303466970e-01,
          5.9781428476370480e-01, -4.4527562787423234e+00,
          -1.0350389793327879e+00, 7.3631794906252035e-01,
          2.3978445269885342e+00, 7.2066395893170554e-01,
          1.9598515642511241e+00, -2.3909491763519224e+00,
          8.1213315154652854e-01, -8.7019578557751986e-01,
          -2.8989851252782706e+00, 1.3328232752832492e+00,
          -2.0304091208005288e+00, 6.9866590626833256e-03,
          6.0972758262830073e-01, -6.7912484652480698e-01,
          -3.0727352538455907e+01, 9.6782383924860982e-01,
          2.9561757340541788e+00, 1.7412069905416727e-01,
          7.7536750274193766e-01, 8.6303647752513934e-01,
          -2.1357181331751542e+00, -5.2051291947713074e-01,
          3.4411885854746649e-01, 1.0678805818634616e+00,
          6.6091917956139179e-01, 3.1426306734781118e-01,
          -7.8203837090991968e-01, -7.4738181583967844e-01,
          4.7753745941792525e-01, -1.8695712079819069e+00,
          -9.5247824357745126e-01, 8.1007421129173518e-01,
          1.5842306297145312e+00, 6.8368433939799544e-01,
          4.7229040938156436e-01, -1.7067324824319563e+00,
          6.6936405908121366e-01, -9.1586081324507529e-01,
          -2.0626430148223545e+00, 5.1908804568431066e-01,
          -9.5886302501016230e-01, 6.0283262436769878e+00,
          7.4071903676962270e-01, -8.4728109460232259e-01,
          -1.9412085269648891e+01, 1.6692160834813776e+00,
          4.0194331765973965e+00, 2.3142769152857628e-01,
          6.8946709201575740e-01, 6.6087160437107817e-01,
          -4.9612588315798947e+00, -4.4836297382525175e-01,
          3.7725660005167988e-01, 1.7745154478009744e+00,
          8.3256825117106192e-01, 4.0567757386958736e-01,
          -7.2683773011674468e-01, -6.0527240650170766e-01,
          4.8728692427973136e-01, -1.5897310312866859e+00,
          -7.7672588982310720e-01, 7.4749819196697864e-01,
          3.0096406320900493e+00, 8.9528895381785734e-01,
          1.9765008567593552e+00, -2.8405676682911669e+00,
          6.2794427284384535e-01, -8.4417856430970750e-01,
          -3.8732725859537136e+00, 1.2458906421092051e+00,
          -2.2134654909393134e+00, -1.3397479567210389e+00,
          6.6928853507266872e-01, -7.0619217860463734e-01,
          -2.5980387952734368e+01, 1.2933864207815333e+00,
          1.9823692259986505e+00, 5.8403719691122102e-01,
          1.0783846688242726e+00, 8.8239457900690366e-01,
          -3.2565486631977874e+00, -7.5547484444076130e-01,
          7.0755057656817300e-01, 1.5156752287984971e+00,
          1.3793233362864333e-02, 6.6355569983393148e-01,
          -1.0976643141822386e+00, -3.7308301573488079e-01,
          4.0300333338698052e-01, -4.1488772992712093e+00,
          -8.5204194052556492e-01, 8.1931572692073951e-01,
          2.0438098328414025e+00, -9.5394339166738770e-02,
          2.5470273386671947e+00, -1.8739643536468724e+00,
          8.9362459525422566e-01, -8.3996033542369730e-01,
          -2.5518496436143079e+00, 1.5769158620005297e+00,
          -2.1474604975598917e+00, -7.9488492144237155e-01,
          2.8261686094414329e-01, -6.2050989409678348e-01,
          -5.5938658046317784e+01, -1.5127281667700314e+00,
          -1.6650287808435889e+00, -3.1910190693858431e-01,
          5.8584857182872863e-01, 5.2898612073361051e-01,
          -2.7814817109073418e+00, -2.7209322646809408e-01,
          3.8082387810568337e-02, -1.4387035314043175e+00,
          1.2206333741188591e+00, -2.0148999824741728e-01,
          -3.6590027452584573e-01, -8.1587522363609521e-01,
          5.5386752704209419e-01, 3.9546303416617240e-01,
          -7.6550575137839771e-01, 5.3757029903486464e-01,
          -1.4681296738684533e+00, 1.4956202280268776e+00,
          -1.1061291017073713e+00, 1.6923485241266716e+00,
          4.5173721741706907e-01, -7.8517214031236227e-01,
          1.5013447405137643e+00, -1.2480555675960694e+00,
          1.2642547405843738e+00, -5.1933558745922221e+00,
          1.1171378748933474e+00, -8.9531229896077880e-01,
          -3.3865763655399462e+01, -8.4417341663885737e-01,
          -9.6889322685262125e-01, -2.8641767167909998e-01,
          5.9330086316783803e-01, 7.5711463798970724e-01,
          -8.1943812311746136e+00, -2.0953618872084451e-01,
          -5.2442063595133925e-03, -7.4157960119907396e-01,
          7.4751151912151814e-01, -2.8922943052431221e-01,
          -4.8699642253065778e-01, -6.3413305278762022e-01,
          3.7947083167835627e-01, 4.2689909504751844e+00,
          -8.1598876784414731e-01, 6.1924439964348765e-01,
          -1.0042052737968490e+00, 7.1762015497794029e-01,
          -8.7855087533447074e-01, 8.2838014299376161e-01,
          4.2004848654511823e-01, -7.3333177828984764e-01,
          1.0857097356893168e+00, -7.2440744920487832e-01,
          8.3195036791925359e-01, -3.6587356612139299e-02,
          7.5967855551965768e-01, -8.2689109393464300e-01,
          -3.1520962602562179e+01, -1.3899996738931264e+00,
          -3.6186329551992422e+00, 1.6669450173150974e-01,
          2.6855159887549224e-01, -1.8705939058941023e-01,
          7.4014387137529383e+00, -2.7027324479744463e-01,
          3.1626437378260275e-01, -1.3843039024911745e+00,
          -1.3205433907210953e-01, 2.0564384135797803e-01,
          -7.3147160749413215e-02, 2.1052415989833654e-02,
          2.3826077705498772e-01, -5.5837560900525440e-01,
          7.5215178378354497e-01, -7.0369188869966945e-03,
          -2.2850785844393506e+00, -6.8746044933121797e-01,
          -5.9104560681132179e-01, 2.4613475744696829e+00,
          1.3816871101992440e-01, 2.8051098026920468e-01,
          2.8936758892484966e+00, -6.6845271053241440e-01,
          1.4157274131625619e+00, -1.4592927500521332e+01,
          6.0043300578165648e-02, 1.7640669128472675e-01,
          -3.8540265937558956e+01, -1.5688227686830811e+00,
          -3.3361898546757618e+00, -2.0827226048829819e-01,
          3.3303892095511806e-01, 2.0631185367922483e-01,
          -9.8036998995056124e-01, -1.1940680332482061e-01,
          9.5992404107039311e-03, -1.5111241893011402e+00,
          4.9549102759848496e-01, -3.2266597754775278e-02,
          -2.0555019134518582e-01, -3.4216641093977052e-01,
          3.1697848011293334e-01, -1.1468557314738839e-01,
          -1.5533555821961992e-01, 2.0735924254320456e-01,
          -2.2908019072442438e+00, 5.0689583710219488e-01,
          -8.9556011905366861e-01, 2.3725211360317582e+00,
          2.2094835761408033e-01, -1.7137490771046807e-01,
          2.7666006229816311e+00, -1.0032196356455154e+00,
          1.4452216162161835e+00, -1.2448246035337688e+01,
          5.8544109105614073e-01, -3.8879991544321119e-01,
          -2.4699594556468199e+01, 6.1653629280253516e-02,
          -3.1655502282937953e-01, 2.0682307367530939e-01,
          5.3265818687649291e-01, 3.8042327507748197e-01,
          -8.4938943028131042e-01, -4.4552838273574380e-01,
          2.6820139273204818e-01, 3.0447748884137188e-01,
          5.7573905070279617e-02, 2.4895390270664725e-01,
          -5.1507266679458341e-01, -3.0578944334709596e-01,
          3.0027403200415015e-01, -9.6926605677693589e-01,
          -2.5667290313016317e-01, 4.0824335784908505e-01,
          2.7298677384294834e-01, -2.0238348986984425e-01,
          1.2647240078923030e+00, -1.6543207844726626e-01,
          3.9900703846636992e-01, -3.1471886058562037e-01,
          -2.3600380475003618e-01, 5.2195541839883863e-01,
          -7.1323496835239231e-01, -6.7695966821039635e+00,
          1.6879772217083433e-01, -2.8984303412820644e-01,
          -4.8483606150372559e+01, -2.3195661775639715e+00,
          -4.3935933099638875e+00, -3.1650935593469259e-01,
          3.2728573562738561e-01, 2.9459965596996374e-01,
          3.2797719302126378e+00, -1.7711007762908273e-01,
          -2.1883894073903244e-03, -2.5605783035830694e+00,
          8.6023897281498662e-01, -1.5323474609443896e-01,
          -1.9607118652588540e-01, -6.4796569303265905e-01,
          5.0484358553816033e-01, 6.8591041318229773e-01,
          -1.5980275757631440e-01, 3.3463060153040219e-01,
          -3.5749743168685186e+00, 8.5240906994397225e-01,
          -2.4580779192013615e+00, 3.5410849530883253e+00,
          3.0966062117514315e-01, -3.7068686947871227e-01,
          4.2291367817484495e+00, -1.8725504248688338e+00,
          2.7813738394202145e+00, -1.4850158693823571e+01,
          8.1507530915511239e-01, -5.0628857863372967e-01,
          -2.0284299351395070e+01, 1.8564603157070769e+00,
          2.6801226690047573e+00, 6.9773501425390760e-01,
          8.0780489663661892e-01, 5.3885016648347073e-01,
          2.1799350315426444e-01, -8.0491295317757905e-01,
          8.5090351499326877e-01, 2.1297526611579181e+00,
          -4.1378743981944915e-01, 6.9572077414384870e-01,
          -9.5263421722712982e-01, -1.4413161531236299e-02,
          3.5945735408026380e-01, -2.5039276109654280e+00,
          -4.8225119491365737e-02, 5.3038312195311943e-01,
          2.7773915877489213e+00, -9.3339455021081941e-01,
          3.2876977822420308e+00, -2.6423636143481528e+00,
          5.6977027382214418e-01, -2.1580333718296527e-01,
          -3.1828610200521585e+00, 2.2106440428778917e+00,
          -2.9196972113827315e+00, -7.4354454521511881e+00,
          -1.0316030562330650e-01, -4.2417041658350148e-02,
          -4.8855134779744084e+01, -2.6986089003459646e+00,
          -5.7373902443552591e+00, -1.4526681523295693e-01,
          2.8374469870511465e-01, 7.9752987294841093e-02,
          8.3093530301637006e+00, -3.1874914669841764e-01,
          1.3508260141526091e-01, -2.8821051792326706e+00,
          1.4016607147342719e-01, -3.1624257233087309e-02,
          -2.5209819880033918e-01, -1.5235787858356850e-01,
          2.9294140265761642e-01, 2.1486064651764343e+00,
          2.9061788102293224e-02, 2.7400877734966844e-01,
          -4.3459914184073156e+00, -4.2672137304822766e-01,
          -2.7805991784343731e+00, 4.2438847758491365e+00,
          2.4485325164663321e-01, -4.8154835407199489e-02,
          5.3469729377856874e+00, -2.1410546309998963e+00,
          3.4279461116493746e+00, -8.3169640204854633e-01,
          2.1459561562291399e-01, -1.8878102006254591e-01,
          -4.5591752898667522e+01, -1.0416117220627465e+00,
          -6.4032029046252870e-01, -9.3523130451018982e-02,
          6.6156474686552935e-01, 6.5364783900865198e-01,
          -1.6370020611775988e+00, -3.6228121285062054e-01,
          2.2201510478046954e-01, -1.2416078049781920e+00,
          8.0746242371869303e-01, 1.9686915035702010e-01,
          -5.4672229926881777e-01, -7.2109636015722234e-01,
          5.2443990371018101e-01, 2.1620775873412607e-01,
          -7.6536910025465776e-01, 6.1706205459639996e-01,
          -1.2678548985606743e+00, 8.9382628474188930e-01,
          -2.1631234481061603e+00, 1.2926065633543764e+00,
          5.4361173782927130e-01, -6.4217291525859987e-01,
          1.1845515890380807e+00, -1.3789498137208003e+00,
          1.6065942164663634e+00, -4.2860528578885058e+00,
          7.9806386185457123e-01, -6.6455490662497441e-01,
          -3.5032352185500066e+01, -1.9929352516744287e-02,
          8.7638058923576889e-01, 1.3386878731766727e-01,
          5.8935672138581707e-01, 5.7493676979820019e-01,
          7.3705476527350848e+00, -5.2399175093484440e-01,
          4.0913274108754349e-01, -3.4347482182286287e-01,
          2.3718427691592717e-01, 1.9086888792536086e-01,
          -6.4429228802709759e-01, -4.1469772292835433e-01,
          4.4275908022520771e-01, 5.3537314274681380e+00,
          -3.8909977281951907e-01, 4.8709933600379934e-01,
          -5.0295576532735475e-01, -1.0528141775670387e-01,
          -2.7640325039187501e+00, 1.0590949942993128e-01,
          5.6709574294124043e-01, -4.1663611303723153e-01,
          6.1593798174336090e-01, -1.0867237704116561e+00,
          1.5664758161439749e+00, 3.9204159010016810e+00,
          3.3246165735238220e-01, -4.6491344517651417e-01,
          -3.6242147089725663e+01, -1.3716086768151703e+00,
          -2.2705271028455956e+00, -9.8031004011292673e-04,
          4.3777370100079022e-01, 6.6728423037692230e-01,
          -7.3453994128906333e+00, -2.6810404272701222e-01,
          9.4875852851890652e-02, -1.5094939512749290e+00,
          1.5204824136728810e+00, 2.6773090413710770e-02,
          -2.9356712961352160e-01, -1.1520710842089175e+00,
          7.2494260894314366e-01, 6.8453027952276091e-01,
          -1.1308549266189234e+00, 5.6254120923282847e-01,
          -2.0011897940123067e+00, 1.9467864927220608e+00,
          -1.9785312411400517e+00, 1.8754826358667245e+00,
          3.9809851828935205e-01, -9.0855113240780805e-01,
          2.0818298699628084e+00, -1.2746182516421969e+00,
          1.8706758302780926e+00, -9.8540924335396589e+00,
          1.3142040333068779e+00, -1.0217975999248241e+00,
          4.2423438973505574e+00, 3.5164452501077119e+00,
          5.3410974000361007e+00, 1.2524460521963683e+00,
          1.1071501490326128e+00, 1.1649323378384877e+00,
          1.1584742972988373e+01, -1.1667050523109919e+00,
          1.2967037198055535e+00, 3.5638653134966725e+00,
          -9.1699185431719565e-02, 1.2318837948663723e+00,
          -1.4020748832298919e+00, -4.0108643404982847e-01,
          8.3331954725214408e-01, -5.6466393538004747e+00,
          -1.0275702482185713e+00, 1.1636415261856521e+00,
          4.7840331630707054e+00, -4.5861352605952005e-01,
          4.1868837581413016e+00, -4.7110340398463739e+00,
          1.0819191351179385e+00, -1.0389570988040040e+00,
          -5.1144909765110542e+00, 3.0595336239179365e+00,
          -4.2134658000899128e+00, 1.1390717106545326e+01,
          1.0398421269448136e-05, -5.7001417373377894e-01,
          -3.9141862275943836e+01, -5.1361232965875692e-01,
          -1.1444890718832379e+00, 3.0286291670361787e-01,
          5.6973962325638583e-01, 5.5584585893932381e-01,
          -1.6471154443412439e+00, -6.4933864802340402e-01,
          5.3363408660194911e-01, -8.3179076566979715e-01,
          6.2897459662378963e-01, 3.9303265076803151e-01,
          -4.6214202417753214e-01, -5.8457363831596698e-01,
          5.8251606836739911e-01, 1.6098206476758372e+00,
          -5.7596391969115723e-01, 6.4017501286924772e-01,
          -1.1203245240899473e+00, 6.7011294362617346e-01,
          -1.9182573760092019e+00, 9.5520681936060547e-01,
          6.2200832486137236e-01, -5.4680164391306418e-01,
          1.6202022229981983e+00, -9.8422118158827543e-01,
          1.5039938823654420e+00, -6.1275678558280333e+00,
          5.2037029437523419e-01, -6.1055664319355063e-01,
          -1.0754940620440702e+02, 4.8920981784629325e-01,
          -1.2408008444966745e+00, 2.2630128968779015e+00,
          3.1860021446712974e+00, 3.2307803288936259e+00,
          -2.8961704116380629e+00, -2.8615131696998097e+00,
          2.6805122565500090e+00, 2.3224663892927769e-01,
          3.6463994956151979e+00, 2.4885203579290271e+00,
          -3.0347009801747120e+00, -3.4652657190121965e+00,
          3.0129107755763997e+00, 5.9974589726232885e-01,
          -3.2705466342146554e+00, 3.1496891203022073e+00,
          -7.6133359984402182e-01, 3.8885100353385598e+00,
          -6.8723464029945991e-01, 6.0722516347210409e-01,
          3.0700473462182853e+00, -3.3023962197397401e+00,
          1.5035502662182378e+00, 4.4609173059198742e-01,
          4.8010615383280686e-01, 2.6282060091224704e+00,
          3.4095822110647340e+00, -3.3704974279131137e+00 ]
      - [ 3.7588809375473184e+00, 3.0437371304810674e+00,
          4.4596405844610221e+00, 6.6464326465209644e-01,
          -2.7326960539865861e+00, -2.7124694922847414e+00,
          5.5128389094247989e+00, 1.1668148544351884e+00,
          -4.7220728960459701e-01, 3.2279332220003782e+00,
          -1.7065497207664004e+00, 1.1972658583154934e-01,
          2.4998182380367449e+00, 2.0477987897329366e+00,
          -1.0771493437796551e+00, -7.7862198303367247e+00,
          3.4840656282978144e+00, -2.2805014433958912e+00,
          3.9720995448045864e+00, -2.9020415441138474e+00,
          4.1040029540371270e+00, -3.8913947022830442e+00,
          -2.0521873837618307e+00, 2.9961473809998211e+00,
          -4.4102172692462638e+00, 3.0825296790260035e+00,
          -3.7897659580366505e+00, -6.8947676593924481e+00,
          -1.1678163271682314e+00, 2.0417488416102225e+00,
          -3.7387537872343639e+00 ]
