%YAML:1.0
my_nn: !!opencv-ml-ann-mlp
   layer_sizes: !!opencv-matrix
      rows: 1
      cols: 3
      dt: i
      data: [ 24, 20, 1 ]
   activation_function: GAUSSIAN
   f_param1: 5.9999999999999998e-01
   f_param2: 1.
   min_val: 5.0000000000000003e-02
   max_val: 1.
   min_val1: 2.0000000000000000e-02
   max_val1: 1.
   training_params:
      train_method: BACKPROP
      dw_scale: 1.0000000000000001e-01
      moment_scale: 1.0000000000000001e-01
      term_criteria: { epsilon:1.0000000116860974e-07, iterations:200 }
   input_scale: [ 1., 0., 1., 0., 1., 0., 1., 0., 1., 0., 1., 0., 1., 0.,
       1., 0., 1., 0., 1., 0., 1., 0., 1., 0., 1., 0., 1., 0., 1., 0.,
       1., 0., 1., 0., 1., 0., 1., 0., 1., 0., 1., 0., 1., 0., 1., 0.,
       1., 0. ]
   output_scale: [ 2.1052631578947367e+00, -1.1052631578947367e+00 ]
   inv_output_scale: [ 4.7499999999999998e-01, 5.2500000000000002e-01 ]
   weights:
      - [ 1.4322728977246017e+01, -1.7843773168827098e-02,
          3.8180718266865692e+00, -1.1772142069341619e-01,
          -4.9268598869940483e-01, -1.5046935640517511e-01,
          7.3031257413279622e+00, 3.1957264301409986e-02,
          -1.0274795272478618e+00, 8.8404541435502515e-01,
          -3.3843949815049279e-01, -1.2338477612169612e+00,
          4.3943771283348898e+00, 2.3864076292590339e-02,
          1.4912830119621896e+00, -4.0581541722244951e-01,
          -2.7275893642117186e+00, 4.7580857940465304e-01,
          -1.7846848027040854e-02, -7.5637831623964286e-02,
          -2.2646086258555398e+00, 2.0480579789127495e-02,
          3.7223863406648977e-01, 1.3447443569852394e-01,
          -4.2267825182581631e-01, -9.4608097450745984e-02,
          4.3744548667128610e-02, -7.9464978144380416e-01,
          -2.4145419671872350e+00, 1.5011591990276363e+00,
          1.0193238970512121e-02, -1.4507901446783122e+00,
          -1.2568026496971640e+00, -1.8810194997614021e-02,
          -2.3012250990885827e-01, 3.8062410490053464e+00,
          -8.8670294717085945e+00, 1.4998744850581569e-01,
          3.1055130792702504e-03, 3.2524198452140343e-02,
          -7.5398351772205530e+00, -4.1704842222134095e-02,
          -6.1374549689108793e-01, -1.7772971258841170e+00,
          1.4716410892658283e+00, 3.6323929939011061e-02,
          -2.2766807782826413e+00, 1.4647567009107682e-01,
          -5.8318065918412952e-02, -3.6073254815742362e-01,
          1.6355849886644641e-01, 8.4987657242132242e-01,
          -2.1752515555341287e+00, -3.1690472479771983e-02,
          1.3136454262892385e+00, -5.1583690567325524e-01,
          3.6784843554533837e+00, -1.1464550484628350e-01,
          -1.1488767596483762e-02, 2.3232947181826383e-01,
          -7.6386658591577197e+00, 9.9935021039369246e-03,
          -1.2805003492694700e-01, -1.3368131034059521e-02,
          1.6364264373295596e+00, -3.7479983838521386e-02,
          3.1254837384873548e+00, 1.3571910439205203e-02,
          -2.4587554850712726e-01, 1.3606610896457860e+00,
          -3.8654757524312966e-01, -1.0750543918378959e+00,
          2.7534993839359081e+00, 1.5683627009446865e-02,
          -1.3306060602090135e+00, -4.5360685426437568e+00,
          -2.3937793287663314e+00, 3.0399449035842485e-01,
          4.8383103405236980e-03, 1.8860091784479949e-01,
          5.6604491794809719e-01, 4.5360734965365010e-02,
          -7.4839231460191613e-01, -3.7752365299497170e-01,
          1.2410454481588216e+00, -8.8458192909735819e-02,
          -3.2253289240348849e-02, 7.1093432921074048e-02,
          -4.9554482728064719e-01, -1.3421344090233972e-01,
          -3.9669571590330931e-02, -3.5295923586539957e-01,
          1.4312638755699072e+00, 4.4840680075869596e-03,
          -1.1460253685435013e+00, 1.0292382598286665e+00,
          -1.8377413614898122e+00, 1.9688982042565839e-01,
          2.0862293156913830e-02, -1.0185691874935941e-01,
          -5.5968180911429313e+00, 1.8643883587605544e-02,
          4.9265669546347217e+00, -6.2983772551799999e-01,
          -1.4120642663485918e+00, -1.1884764739147838e-01,
          2.6031195241232634e+00, -5.0613111913503595e-01,
          -3.8186841990944309e-01, -6.9679727910834433e-01,
          -6.8577748278498107e-01, 9.1273127072880239e-02,
          1.5587561324041219e+00, 1.0782167891450031e-01,
          1.1350722051953102e-01, -4.3588466924388702e-01,
          -3.3108384123304666e+00, 6.4842323646509259e-01,
          -6.4479387322229853e-02, 3.4193205252996607e-02,
          3.2416173100065775e+00, -7.5188935977732712e-04,
          2.9981406232357113e+00, -3.1117827603633952e-01,
          -1.8699435079598861e-01, -9.3954944857357989e-02,
          1.0014504790054943e+00, -3.1639724775092644e-02,
          -3.7707558765432658e-01, 6.2992949682004440e-01,
          -4.3615529331859658e-02, 4.0210332557106310e-01,
          1.7644566569567735e+00, -6.7909922244700563e-02,
          -1.8290065406567972e+00, -1.9832652019084198e+00,
          -3.8252438578623149e+00, 4.7438244994988631e-02,
          -2.7624271158315311e-02, -6.7882139556589158e-02,
          -2.1406652915603877e+00, 3.5423809099249866e-02,
          2.5726702531143736e-01, 1.0523320293441851e+00,
          2.8870374377412561e-01, 5.0015603079524407e-02,
          -2.2805825593192379e+00, -9.0128128909207059e-02,
          -1.4096470169052773e+00, 4.0162101160699298e-01,
          3.7894502639953909e-01, -1.2118088936362841e+00,
          4.7387367081204129e-01, -3.2575040660734737e-02,
          -9.2816196655843286e-01, -1.4104346280719862e+00,
          -2.9270174441787975e+00, -1.9059693341685369e-01,
          6.9361705262347391e-03, 2.0992129719276204e-01,
          -2.4519749060643592e-01, -7.2489914460250104e-02,
          5.6077485821371491e+00, -1.6865057826579848e+00,
          1.1858527718357181e+00, -1.6321220389368887e-01,
          -4.8826637200314256e+00, -8.1829557477606940e-01,
          7.5510530908313067e-01, 2.9605401681993255e+00,
          -9.9040327072705869e-01, 2.5467097231990934e+00,
          3.4873107747828787e+00, 1.5776142187147493e-01,
          4.2286484677766625e+00, 8.7782587828958576e+00,
          3.3115073068097818e+00, 9.0994608863977744e-01,
          2.7881481291179917e-02, -7.1978194616279315e-02,
          1.6992415909558833e+00, -1.9064569712019346e-02,
          -2.4945835293326768e+00, -8.0819831027007016e-01,
          1.5137945583540611e+00, 3.1027539403028815e-02,
          -3.7050464836207370e-01, 7.6640640380731462e-01,
          1.3811200905149035e+00, -9.2518550062638327e-01,
          -1.3440849604342579e-02, 1.0330901200309710e-01,
          -2.7896661782334284e+00, 2.1748993188710281e-02,
          -3.3652561201229092e-01, -3.5752882347231751e+00,
          3.6504595803195432e+00, -4.8635156614270217e-02,
          4.5305644525853658e-02, 2.2133589758113534e-01,
          6.8308389796087781e+00, -1.5890674017908099e-02,
          5.4788967279585581e+00, -2.3103532671134075e+00,
          1.0356766076053956e+00, 1.7831440772983032e-02,
          4.5354559237342480e+00, 4.5437666591756987e-01,
          7.5705287088088902e-01, -5.4989048069071955e-01,
          -3.5317120851167194e-01, 5.8902867836593409e-01,
          3.7531555819090743e+00, 1.0856572942795056e-01,
          1.3093203665192428e+00, -9.3644880689052046e-01,
          1.9509648667536448e+00, 2.0023584735218178e-01,
          -2.0621785875602799e-02, 6.9997635783390799e-02,
          1.5448727914299448e+01, 4.3352724718252612e-02,
          -2.2021084708650469e+00, 9.2481039665506493e-01,
          -2.4836381919172545e+00, -2.4079082933126227e-02,
          -3.3669587816664676e-01, -6.1376798461467763e-01,
          -1.0520177307840486e+00, 1.4253202841258292e+00,
          -1.5695432522689731e-02, -4.1609158712475064e-01,
          -2.3966201230363273e+00, -4.3909562097641887e-02,
          -7.4841169699344912e-01, 4.6436174069472376e+00,
          -3.6683152926886327e+00, 1.4590539681051837e-01,
          4.4317971674133032e-02, -3.2451290472468597e-01,
          5.9105754894165186e+00, -3.3884025199154781e-02,
          -1.8615788002894675e+00, -1.3959467320479912e+00,
          4.4826471627108484e+00, -1.3493695319977023e-01,
          2.3684386575873582e+00, 1.6317541095285135e-01,
          -1.8383495575782610e-01, 8.3369916013405640e-02,
          -7.5953699928221829e-01, 4.9386375178604375e-01,
          -1.1844089006568752e-01, 5.3789892157155746e-02,
          1.1698442694002134e+00, -6.6087288659798538e-01,
          2.8401017732570919e+00, 7.2692417692666256e-01,
          -8.5136846801623006e-02, 2.0845268192784816e-01,
          1.3311216036584096e+01, -4.2158777573737129e-02,
          5.4058200429676733e+00, 5.0758658251237265e-01,
          -1.1133418384481486e+00, 1.0148308080120554e-01,
          -6.2168144069355691e-01, -7.5742424204435821e-01,
          -4.0962920887559789e-01, 3.9213327343483717e-01,
          -4.9367526024312364e-01, 1.0910919735323985e+00,
          2.9703456279050862e+00, 4.3807037704911692e-02,
          3.1908342358366992e+00, 2.7073368810345029e+00,
          7.4762433433172493e-01, 2.2226437954800587e-01,
          -6.5023059648935233e-02, -5.7993074344781029e-02,
          4.1357551203245810e+00, 3.0039985689164890e-02,
          5.7291788765506224e-01, 1.4678806920151815e+00,
          -1.2631983350204197e+00, 8.6672330040417633e-02,
          -3.4181957851940359e+00, 2.6549412542274765e-02,
          -8.4461461196783538e-01, 1.7594330270654273e+00,
          4.0055726454990848e-01, -1.5415666093754095e+00,
          1.2919664802851076e-02, -1.4355257241684913e-01,
          8.1335376839662576e-01, -4.7933688576467182e+00,
          -5.5063023045387531e+00, -4.2458466630587521e-01,
          3.2738133088767378e-02, -2.5982206897078380e-01,
          1.6805113255702835e+01, 7.2431230785962392e-02,
          -2.0094281250292806e-01, -1.7107514678728113e+00,
          2.7340584778673769e+00, -6.6940249732846055e-02,
          5.4799337196261710e+00, -9.9772086156191861e-02,
          3.3195583363939163e-01, 2.3343895306635933e+00,
          1.0234696671632822e-01, 1.7581631489569165e+00,
          2.9948399322179595e+00, 6.0824692381493531e-02,
          2.2672451620081304e+00, 3.0290920492190998e-01,
          2.3985171899684721e+00, 8.8514323931308120e-03,
          -2.4245726940608500e-02, 2.2078902097297223e-01,
          6.9037231694701164e+00, -3.0220983751837589e-02,
          2.6594337381461419e-01, -2.4577036176944028e-01,
          2.1432053832363982e+00, 9.3133734708233037e-02,
          -8.0052882283998927e-01, 3.9641950955949329e-01,
          4.1291944736673009e-01, 1.4578342979164649e+00,
          6.6991729329883920e-01, -1.7443547579275467e-01,
          1.1118910883033473e+00, -8.2377185859995691e-02,
          9.5619134264191752e-01, 2.2482181464986315e+00,
          -4.3218662176748655e-02, -5.3618762883941962e-01,
          5.4470377009593361e-02, -1.5746240045543825e-01,
          2.0322423349144355e+01, -6.1619717314463550e-02,
          7.6075924654438820e+00, -2.7711251001177932e+00,
          1.2733852184654899e+00, -2.3207639492182053e-03,
          -2.5170257098137148e+00, 1.3515972929752545e-01,
          9.2021483294036954e-01, 2.1217398276561532e+00,
          2.0745999921586675e-01, 2.5287155068257281e+00,
          -1.3498325003297478e+00, 3.2307115044421623e-02,
          5.9662633089516044e+00, -4.0279115064556414e+00,
          2.6059958577128941e+00, -2.3675553275848080e-01,
          4.9586690138036734e-04, 5.1797794984489776e-01,
          -3.1357587115247068e+00, -4.3567311676247805e-02,
          -8.0968939611761783e+00, 5.4752300981065460e-01,
          2.9589819142558778e+00, 1.9681250941369763e-01,
          9.3738285681978928e-01, 1.1744965187780443e+00,
          2.7050265205185524e+00, 2.3252135695337413e+00,
          4.7855024095192389e-01, -9.7812166786047805e-01,
          3.2220244444685888e+00, 1.4502460329412914e-02,
          -6.2682992627711522e+00, -4.0970100303562900e+00,
          5.5245833909152626e+00, -5.5598773010989144e-01,
          1.3440942549942556e-01, 3.6887366062655369e-01,
          3.6129794701840519e+00, 1.4209142082035612e-02,
          4.2879979683426352e+00, 1.1519816263069858e+00,
          -1.4087277325707368e+00, 1.5199820130202794e-02,
          -1.3899151436265862e+00, 9.0087148518991272e-02,
          -4.9965362459652206e-03, 5.4684768544781770e+00,
          -3.1089647741804510e-01, -1.1787056868729597e+00,
          4.2296182904103841e+00, 1.9948382280142032e-02,
          1.5495444679627339e+00, 2.3149410027704942e+00,
          -2.7243743498613675e+00, 1.0362203248069964e-01,
          -6.8234245504270083e-02, -4.3173635381912628e-01,
          -5.1913773871348763e+00, 2.4687446423587878e-02,
          5.4396976737046587e-01, -3.0054567397852694e-01,
          6.6578160393896935e-01, 2.3851004926445618e-01,
          3.1871280579285466e-01, 8.8481564174905858e-01,
          1.9665685660281751e+00, 2.3822091762109703e+00,
          4.3562483647810268e-01, -9.3780321258746679e-01,
          3.4417520388438243e+00, -1.3167180130392472e-01,
          2.3359177839436489e+00, -1.7758516065209757e+00,
          2.5288247270905080e+00, -7.7220060038041782e-01,
          -6.7760913004456622e-02, 2.7197364265651841e-01,
          1.0157817287433510e+01, 3.2378796332217054e-02,
          7.6237331895727192e-02, 7.1204360394816857e-01,
          -9.3242437516057119e+00, -5.1033181007186956e-02,
          3.7719058266442644e+00, -3.6806027168222327e-01,
          -3.6240131870386066e-01, -6.5241055545904494e-02,
          2.0417222524551029e-01, 1.5636166221371148e+00,
          -1.7257949112377942e+00, -2.7358622756845054e-02,
          -4.6736976522905840e+00, 5.6569848514577989e+00,
          -2.8581399274589323e+00, 6.3158580492955307e-02,
          7.8665282949378114e-03, -3.8566932950357863e-01,
          -1.2751028694673483e+01, -1.2018746923921872e-02,
          4.5699287630491181e-01, 1.7698579537865677e+00,
          -8.5341490554895536e+00, -1.8327921332689120e-02,
          1.1587949233301666e+00, -4.6597005734871816e-01,
          -1.4421962056218878e+00, -1.0704171755648899e+00,
          2.2581593911706963e-01, -7.9709739681741132e-01,
          -3.3688699914014273e+00, -6.7315897736441879e-02,
          -6.5983646932070650e-01, 4.9894514727174482e+00,
          1.4085724070695979e-01, -1.4942116332910887e-01,
          1.2458695636727401e-02, -3.8341537817843185e-01,
          3.1735707364598773e+00, -9.8095833148773692e-03,
          -3.2824906021043168e+00, -4.5697466415964677e-01,
          -5.1471907062709454e-01, -1.2408269203450056e-01,
          -6.7111720319392087e-01, -5.0731359996399894e-01,
          -1.6872614365706478e+00, 6.6291141262200715e-01,
          1.4511761422697406e-01, 1.8709992241025733e-01,
          -1.8551474718213958e+00, -3.5081768782341011e-02,
          -4.0015450349660342e-01, 1.8600606585486794e+00,
          -3.6444947714223792e+00, 1.2960804002660264e-01,
          -1.9066794440462283e-02, -5.5861854056992392e-02,
          2.2799955503743057e+00, 1.7992325359446046e-02,
          -5.3215420076300788e+00, 2.8050009662645366e-02,
          -1.8718964236095890e+00, 1.3242746424180263e-01,
          -4.2780380405008653e+00, 3.5478322719356975e-01,
          9.2844386746436647e-01, -8.4077541917161502e-01,
          3.9262120884002422e-01, 3.3087549180506437e-01,
          -1.3563570256753676e+00, 6.2052504558745517e-04,
          1.5603074637918974e+00, -5.2252765024248635e+00,
          4.1538632772377824e+00, -5.4692002208591495e-01,
          2.6161043557558390e-02, -2.5674783443007776e-02 ]
      - [ 5.2876231051016021e-02, -2.1889926810883226e-01,
          1.3248826499782411e+00, -5.4528796083728981e-01,
          2.0476539558912608e+00, 2.5223770795442951e-01,
          -1.8798246323490417e+00, 5.4716158611092502e-01,
          6.9300638690716754e-01, 2.0661444961974804e+00,
          5.7397921562747822e-01, -1.0258929448146525e+00,
          1.3577027949965936e+00, 1.0889016984047734e-01,
          2.4273418655893426e+00, 1.4535969969159255e+00,
          1.1408903730497344e+00, 6.5356917976614082e-01,
          5.9276924713243334e-02, -9.1938015697573361e-01,
          -5.8034004385832560e-01 ]
