%YAML:1.0
my_nn: !!opencv-ml-ann-mlp
   layer_sizes: !!opencv-matrix
      rows: 1
      cols: 3
      dt: i
      data: [ 24, 50, 1 ]
   activation_function: GAUSSIAN
   f_param1: 5.9999999999999998e-01
   f_param2: 1.
   min_val: 5.0000000000000003e-02
   max_val: 1.
   min_val1: 2.0000000000000000e-02
   max_val1: 1.
   training_params:
      train_method: BACKPROP
      dw_scale: 1.0000000000000001e-01
      moment_scale: 1.0000000000000001e-01
      term_criteria: { epsilon:1.0000000116860974e-07, iterations:500 }
   input_scale: [ 1., 0., 1., 0., 1., 0., 1., 0., 1., 0., 1., 0., 1., 0.,
       1., 0., 1., 0., 1., 0., 1., 0., 1., 0., 1., 0., 1., 0., 1., 0.,
       1., 0., 1., 0., 1., 0., 1., 0., 1., 0., 1., 0., 1., 0., 1., 0.,
       1., 0. ]
   output_scale: [ 2.1052631578947367e+00, -1.1052631578947367e+00 ]
   inv_output_scale: [ 4.7499999999999998e-01, 5.2500000000000002e-01 ]
   weights:
      - [ -7.9482024962525255e+00, 3.3977547312783146e-01,
          -1.0610340696893804e-01, 3.8037411750584610e-01,
          -7.7786649837521260e-02, -3.5830986504438507e-02,
          1.2339022005528191e-02, 1.9456237263539108e-01,
          -5.5215279869881638e-02, -4.6189080307662569e-02,
          4.0165119233665281e-02, 7.5073951370020611e-02,
          -2.9276698091145015e-02, -1.5064451640814875e+00,
          -4.1502014683950901e-03, 8.2380953163204325e-03,
          -4.4427849124469072e-02, 8.0256184504842132e-01,
          2.5153170563773969e-01, 4.0834920288618654e-02,
          2.1212444068881325e-02, 3.1757335890524768e-01,
          4.2795814039590388e-02, 3.6698259740669598e-01,
          2.3178307032773562e-01, -4.5353308139097342e-01,
          -1.7086155975725679e+00, 3.0158897330799617e-02,
          -4.1025179322416855e-01, -5.4638770277253119e-02,
          -2.2977662381351752e-02, 6.8615882925648575e-02,
          -5.8860518618100337e-03, 3.2776610292992218e-02,
          6.1555455819582328e-01, 1.6264116167383796e-02,
          -4.6162435001450289e-05, 2.8925135685891823e-01,
          3.3820038360095138e-02, 4.2975397549506456e-01,
          -7.3771456544755476e-02, -4.0893454354010594e-02,
          -2.6521625228858536e-02, -1.0551970428203616e+00,
          1.6890919783411101e-02, 7.6017997424831993e-02,
          -3.3132873565174409e-01, 5.1593674992951144e-01,
          4.3401835836495553e-02, 2.1138840156390257e-02,
          1.7257876717038581e+00, -4.2865116591471947e-01,
          6.6339118121682361e-02, -4.7717623492449446e-01,
          -4.9673835793786349e-02, -4.3247787694504984e-02,
          -5.3203617222528712e-02, -1.5918380542990981e-01,
          7.3040610867781089e-02, -1.2779770841514484e-02,
          3.6971087679619367e-02, -6.6345600240552610e-02,
          5.0174668020287853e-03, -1.7743028477868068e+00,
          5.9090265404978047e-02, 3.3004913558507959e-02,
          -5.5624644977832739e-02, -2.5515704455312260e+00,
          -4.5646263300646195e-01, -5.8663808457182220e-02,
          4.8668931059085020e-02, -3.6233258138812960e+00,
          -2.8716676177902703e-02, -6.2013999439179612e-01,
          -2.1133704541761131e-01, 3.9922275544002633e-01,
          -2.1729539387647456e+00, 2.0479157043934972e-02,
          3.5158195996160052e-01, 8.2399369204238404e-02,
          2.7614447346822637e-02, -6.8509802520622151e-02,
          4.8640396949350607e-02, -2.3067508569694851e-02,
          -1.9762919332393944e-01, -4.8701426106050015e-02,
          5.9960923545561130e-02, -2.9186707352919694e-01,
          -1.5469293574100700e-02, -5.0632536062113243e-01,
          6.2485724343221849e-01, 2.1845145196286334e-02,
          4.2532691979923709e-02, 8.5029444337090843e-01,
          5.7118351329477346e-02, -1.1850616923174931e-01,
          1.8602725833017658e-01, -2.1580249132719026e-01,
          -4.8665338722751340e-02, -5.8167040542620951e-02,
          1.3025681384647461e+00, -8.3806339765242621e-01,
          -6.4584826684325011e-02, -8.4786468931125980e-01,
          1.7346344283149719e-02, -5.2131336683101284e-02,
          2.2797516669128435e-03, 1.9607239339625229e-02,
          -6.0089674479289520e-02, 7.2603944324391729e-03,
          8.1054228002380956e-03, -5.5620592450965428e-02,
          2.6342176395499867e-02, -1.9474877031761360e+00,
          -4.6292436882661277e-02, -6.3914935618198401e-02,
          1.1462227004829699e-02, -8.4902993696388118e-01,
          -8.0830470606085536e-01, 4.3710137192592605e-02,
          5.1193620957166598e-02, -1.4095178670956523e+00,
          -1.0605318589800588e-02, -9.8992486473309982e-01,
          -2.2827645866330942e-02, 8.6502114506141137e-01,
          -3.3357122525401985e+00, -2.2833149359866585e-02,
          9.5151261972247037e-01, -8.3368587105059934e-03,
          2.3104546649365131e-02, -4.7754578674749957e-04,
          -5.2045831399309406e-02, 1.9587964207429469e-02,
          -5.2261781841835730e-01, -2.0379067188563200e-02,
          3.4860409851582140e-02, -5.0428192217630952e-02,
          -4.8367340489503183e-03, -1.0310072612503192e+00,
          7.9939079825813897e-01, 5.0172273797255085e-02,
          4.5856546549912627e-02, 3.1398863741090360e-01,
          -2.5940393698196333e-02, -2.0698975503538157e-02,
          -1.4950259902309018e-01, -7.8191416288541260e-01,
          -3.0693530812399020e-02, -4.1781785934096372e-02,
          -2.6548893547139061e+00, 1.3589864497173890e-01,
          -3.0492623342881102e-02, 2.3015229567915643e-01,
          3.8239783000635214e-02, 3.5500379673180392e-02,
          -4.7714359249849903e-02, 3.2821357648295413e-02,
          1.1357490137619762e-02, 5.5243306736969297e-02,
          -7.0902539695138614e-02, 8.7658529104265123e-02,
          -1.5796670334673565e-02, 2.5987869652533141e-01,
          -2.3636319722245336e-02, 3.2970952667317956e-02,
          -6.1244200831485240e-02, -2.8754778928198910e-01,
          9.4086266693080886e-02, 3.7474382276263860e-02,
          -3.0054064500306531e-02, -7.9165628666474933e-02,
          8.2689615285692269e-02, 2.2055059651480760e-01,
          1.0480202005916410e-01, -4.9103269203862730e-02,
          1.8679096822715646e-01, -5.3046171577144910e-03,
          -2.2597931310936986e-01, -7.6391527226465555e-02,
          -7.8599036531307662e-02, 7.6931395216139828e-02,
          -8.1688586581791636e-02, 3.5497730057786010e-02,
          5.1623355733576182e-01, -2.3556781734117931e-03,
          -1.5418606280023233e-02, 1.1316032215941499e-01,
          6.2735128456574168e-02, 1.3531416326864756e-01,
          -2.7389000836940669e-01, -6.5926985829076273e-02,
          -6.4545836383478675e-02, 1.3466758701698614e-01,
          1.9940461389231943e-03, -1.9445837846423612e-02,
          -1.8406374323955043e-02, 1.9707056829408359e-02,
          -7.2817128335701409e-03, 5.7004215220879451e-02,
          -2.6359965317089089e+00, 8.7393157675802913e-02,
          -2.9971844036585489e-02, 1.1254577783243198e-01,
          2.0443701031246174e-02, -9.3964672913432348e-04,
          -3.9291746297237105e-02, 2.8952711230019957e-02,
          6.5997511989883226e-02, -5.9167764862094727e-02,
          5.0720107953304491e-02, -3.1724632463455325e-02,
          -2.8794146697249601e-02, 3.1396578738942726e-01,
          -2.4145990781827917e-02, -5.1048236441430063e-02,
          -4.1802128493622151e-02, -7.8765508522786937e-02,
          2.0022211879477594e-01, 6.8226759729404758e-03,
          3.1047891936298481e-02, 1.8326451703798530e-02,
          5.8545911193834149e-02, 1.4112102715410579e-01,
          1.3911929416306468e-01, -9.6995673924875500e-02,
          4.5943180193561900e-01, 5.1342805718677172e-02,
          -2.2023846988976920e-01, -8.8989340720374982e-02,
          4.9231327189010167e-02, -1.5027682894201802e-02,
          8.8686248940123391e-02, 2.6219283649147572e-02,
          5.7015085455316117e-01, -5.0869134825797725e-02,
          -8.8244851708944597e-02, 9.7873854760123224e-02,
          4.3185477836571839e-02, 1.7460920505787295e-01,
          -1.6535970565255279e-01, -8.2459313374023541e-02,
          -5.9546873855155356e-02, 3.0283913529017709e-01,
          6.3968067699174652e-02, -1.7751853349344107e-02,
          -7.2597774066277571e-02, 1.8617750984104306e-01,
          -2.8003189558249576e-02, -7.0534934573946703e-02,
          -3.5082132155687873e+00, 3.7713887387197809e-01,
          -6.3975422776259405e-03, 3.2526396203150870e-01,
          1.2740228733277670e-02, 2.7837405547482839e-02,
          -2.1294989227499291e-02, -2.5523752569933750e-02,
          2.8493068055582254e-02, 6.7518387923668849e-02,
          1.1409112557950657e-02, 5.5999266578653506e-02,
          5.5087680610079529e-02, 4.7687921754542989e-01,
          6.9739430367022737e-02, -3.5858393247564471e-02,
          6.4346955739310291e-02, -7.0823123646435204e-01,
          3.7658707197455743e-01, -6.0286118763637264e-02,
          -5.5476191352594184e-02, -5.9286800861634970e-01,
          4.6541589582529078e-03, 4.3818124232399008e-01,
          1.8179556157126738e-02, -2.3410998547118886e-01,
          1.7684696643960873e-01, 2.2748875491194104e-02,
          -4.2149001064316916e-01, -2.9768354961438048e-02,
          -4.4815918572391901e-02, -5.5131063441848371e-02,
          4.3541004509232942e-02, 5.1256307346956569e-02,
          9.5021960084590218e-01, 4.3028647472818850e-02,
          5.9368683626143517e-02, 1.0176685734575608e-01,
          4.3802565816605535e-02, 4.6414211710629361e-01,
          -6.0922792880161769e-01, 4.6399425043513791e-02,
          -8.7471016230915757e-02, 4.4143243874354798e-01,
          4.7395121477093446e-02, 8.7667879424495165e-02,
          -6.6147850791919913e-02, 2.4675749824113052e-01,
          -1.0571211982431574e-02, 7.3227512010999113e-02,
          -2.0743348907087551e+00, 1.7439430188808117e-01,
          -1.0167120882967388e-01, 1.3633215546919547e-01,
          1.2357719762303926e-02, -5.8893170655701668e-02,
          3.8397240971290797e-02, 1.4848827321539598e-01,
          -1.1559219662444891e-02, -6.5460001417490046e-02,
          -2.6684152423556314e-02, 4.9690893917007532e-02,
          6.7639363464951460e-02, 2.4646134489415958e-01,
          1.4456809750885679e-02, 1.6696586342353392e-02,
          5.3314718218827939e-02, 2.5105922309607509e-02,
          7.6201860777761143e-02, -6.3284972421485008e-02,
          1.2208741730174603e-02, 3.4292094534286964e-02,
          1.5127352109744287e-02, 3.8011014895713464e-02,
          1.0507245931990766e-01, -1.5545941490834275e-01,
          3.6129297668385374e-01, 3.9826904730165417e-02,
          -1.8638541841218992e-01, 7.2936472069299138e-02,
          5.0315818046417229e-02, -3.0418923045033418e-02,
          -6.1644601298176498e-02, 4.5344711605144479e-02,
          3.2989940231722487e-01, -5.5634818086961316e-02,
          -5.7293716072431425e-03, 1.7139947776101086e-01,
          -5.6227756372366232e-02, 1.0513982255114962e-01,
          -1.2485595445157076e-01, -1.5517505749517791e-02,
          9.8944692608873161e-02, 4.0223033644884415e-01,
          2.2105999867137772e-02, 9.7242412287372931e-02,
          -7.1683028160583390e-02, 2.2300315508381921e-01,
          3.2826270002271007e-02, -3.5502587393357606e-02,
          -3.5198983869492908e+00, 3.2455032631455000e-01,
          3.6619500193849366e-02, 1.8368084460861825e-01,
          1.3925009445599466e-02, -5.6569117902410267e-02,
          7.1325252674966200e-02, -2.6412468252841447e-03,
          -5.4943105668973223e-02, -3.1558070774414665e-02,
          4.2159932909126702e-02, -5.2467571228944625e-02,
          1.3933932300640101e-02, 4.0823923608981849e-01,
          -7.0968399822184461e-02, 5.9017716973578785e-02,
          7.8847624422349240e-03, 2.5555476025758465e-02,
          3.3008827209605845e-01, 1.0304352696974189e-01,
          -3.9216543138720583e-02, -2.3680170575062068e-02,
          5.0098240690717132e-02, 2.8170001733040068e-01,
          1.3057111890992817e-01, -2.0167829048213670e-01,
          9.5403744118807021e-01, 4.6275926711928969e-02,
          -3.0444583996244295e-01, -6.2620123225354304e-02,
          -5.2568722466357631e-02, -1.3528015822092258e-03,
          3.8425499206664916e-02, -6.4132083429428915e-02,
          4.8589458455687073e-01, 8.9007295754364016e-02,
          2.6271829705431598e-03, 1.8504694087455806e-01,
          -2.3110527547828746e-02, 3.2731255355566369e-01,
          -3.1922095104824227e-01, 2.6504021860184437e-02,
          -2.6290808504408424e-02, 3.1607672149376037e-01,
          -4.5628281503175220e-03, 6.0917230029578400e-03,
          -1.4692341069260292e-01, 1.7100218630301925e-01,
          2.9253684237630750e-02, 3.0191659798726067e-02,
          -4.1129724213942662e+00, 2.4739222168752870e-01,
          4.6897876005531469e-02, 2.8162332284678721e-01,
          -8.2894813743289386e-02, 4.1510188246413879e-02,
          3.3398149302829080e-03, -9.9315440071375493e-04,
          -9.2637313817911966e-03, -4.4442775110333711e-02,
          5.3186707860837422e-02, 6.4046606340260395e-02,
          1.8452176330242927e-02, 5.5818374098734580e-01,
          2.6784660492269359e-02, -4.0596827315287042e-02,
          4.3962224260346482e-02, -1.9701229152044691e-01,
          2.3688693221956186e-01, -1.7252142259059869e-02,
          -5.3515528544370645e-02, -8.8317384502080570e-03,
          2.1279580696951555e-02, 3.1902372095833492e-01,
          -5.8831369643174217e-03, -1.7645798742610858e-01,
          1.1075964086724583e+00, 5.8205676116889878e-02,
          -2.4317885434548511e-01, -3.5488631897185333e-02,
          -4.7698395092185771e-02, 4.5053842643587014e-02,
          -4.2959824114435760e-02, -2.6958811254786174e-02,
          5.1988154435755141e-01, -4.5532490700306183e-02,
          -1.0823430454799178e-02, 1.0135554826280647e-01,
          -6.5166070943329518e-02, 3.3182345771007832e-01,
          -3.6906304806331897e-01, 3.4280643025175327e-02,
          -4.7050620571900181e-02, 3.3692567884382463e-01,
          -8.7124537566470230e-03, 1.0883890269835550e-02,
          -6.9841112099284938e-02, 2.1905638731703925e-01,
          4.0707274158966848e-02, -5.7663377651091356e-02,
          -5.1169880341897089e+00, 2.9914124155839034e-01,
          1.9636360372328437e-02, 2.8342572203697108e-01,
          5.2951218970396487e-02, -6.8503962743032609e-02,
          -5.1911091875262230e-02, 2.3350685657882109e-02,
          -3.4231764112532558e-02, 3.1671636200088171e-02,
          4.5197301217214235e-02, 7.2520538521948827e-02,
          4.7652935770882400e-02, 5.6494801837578168e-01,
          -1.3468239689105438e-02, 1.8954744374058911e-02,
          1.3662967128027247e-02, -3.8852835140756735e-02,
          3.1250534768769783e-01, 6.9619033147886686e-02,
          -2.8579229577510797e-02, 3.3261422221205823e-02,
          -9.0226367115715217e-02, 2.7715317779354787e-01,
          9.0299057913262051e-02, -3.2771871818834453e-01,
          1.1583262658660809e+00, -6.1449653416379493e-02,
          -2.9103222711922538e-01, 2.0088307133538954e-02,
          3.6087638204018245e-02, 5.5439580463304702e-02,
          -5.7141735275518100e-02, -6.1233180937517069e-02,
          5.9450413847047745e-01, -1.4676784489227263e-02,
          5.1924050668402014e-02, 1.0005511194494719e-01,
          -5.3693030417407347e-02, 3.6483008940031170e-01,
          -1.6887869541999120e-01, 2.6397292833676774e-03,
          -5.2087877231358094e-04, 3.3475300064549579e-01,
          -2.4357946219200826e-02, 7.7159789666120263e-02,
          -7.9917049699147202e-02, 3.8669317168915995e-01,
          7.1145928483949253e-02, -2.1776851624946612e-02,
          -3.3758732804695710e+00, 9.5546641828730317e-01,
          -5.0776568818617626e-02, 8.6538340632707411e-01,
          -3.0643042933213035e-04, 2.7735770956290418e-02,
          7.8455900564440656e-02, 1.0216837558272152e-01,
          -7.7824108979850343e-02, 7.8901574177357270e-02,
          -4.2997585236128330e-02, -6.1069750194180468e-03,
          5.5605812865329209e-02, 1.6147553005033066e+00,
          3.8142890176132573e-02, -6.7429714689685130e-02,
          4.0250984181649609e-02, -4.9260214907599575e-02,
          8.4819327423550772e-01, 1.7527960162445497e-02,
          3.2719160216027908e-02, 9.1288881546201384e-01,
          -1.6080455268721889e-02, 8.5973830450748756e-01,
          3.0621356150481342e-02, -7.8749688612987900e-01,
          1.7911927085042181e+00, 3.2352783390988456e-03,
          -9.7344998288666962e-01, 9.8631857154815312e-04,
          -9.4307312357154623e-03, 3.7308340337477819e-02,
          2.5373024403985839e-02, 5.7326801965951753e-02,
          1.4210216438495347e+00, 7.1494537281456591e-02,
          1.5270987733113453e-02, -1.4479361018980022e-02,
          2.9414433366734789e-02, 8.6864710663445455e-01,
          -1.1653162554306127e+00, -8.2608026915017646e-02,
          6.7769981840155674e-02, 7.5859237443463634e-01,
          -8.6853901601200864e-02, 7.8079197315707893e-02,
          1.2712725219904070e-01, 7.5388522924883339e-01,
          8.3896916383347828e-02, 2.2729159431837836e-03,
          -4.0015877232663186e+00, 5.9565248170139506e-01,
          -4.9087338522836491e-02, 5.6754698204528076e-01,
          -6.0215839620378617e-02, -5.2735458526242215e-02,
          3.0952090771403769e-02, 3.2339411583468772e-02,
          -5.5842855923362016e-02, 1.9463273549043439e-02,
          -8.4992007241472559e-02, -2.2757945574277978e-02,
          -5.9664217736387214e-02, 1.0641641285007468e+00,
          6.3095620487455067e-02, -3.2420135873727128e-02,
          7.0818562066935181e-02, 2.4910929810772228e-01,
          5.3591679569952955e-01, -8.1997060734459379e-02,
          8.0481364359409075e-03, 4.2498171301289922e-01,
          5.2533401330466932e-02, 4.7179720059412228e-01,
          1.1972505678562301e-02, -5.6977198224793391e-01,
          1.3323695839753353e+00, -1.2069544195608713e-02,
          -4.9527656227545480e-01, 1.0263791963800969e-01,
          -2.3109219921456377e-02, -6.0117390821733729e-02,
          5.7336053569821792e-02, 4.8642052125738910e-02,
          1.0469844801533410e+00, 6.6048817701499146e-02,
          -6.9817584112387254e-02, 8.0558582540126659e-03,
          -6.3287776929526363e-02, 5.6544185056959761e-01,
          -4.9211132587871526e-01, -2.5663951935282252e-02,
          -4.2956804585526670e-02, 1.3049769874609147e+00,
          -5.2315755672554039e-02, -1.4708214613579264e-02,
          5.1127401163339019e-02, 6.5012400218546473e-01,
          6.3559836030258096e-02, 1.3118682832743409e-02,
          -3.3434061592477327e+00, 2.0069426747484298e-01,
          -6.6780005170102283e-02, 2.9536893323499874e-01,
          1.7947138957615957e-02, 6.2252671138613061e-02,
          5.7574995883935026e-02, 2.5642908850307865e-02,
          4.0150286038108676e-02, -4.5506763886750630e-02,
          -5.9742774117583421e-02, 5.0377418013633914e-02,
          1.9416211110581921e-02, 6.4995619235948809e-01,
          9.4686322250132765e-03, -3.7710974036737448e-02,
          -3.3649637254456910e-02, 1.7684584690079144e-01,
          3.5690779915327719e-01, -7.7629683675761981e-03,
          3.9059892413614544e-02, 3.3607334128539357e-01,
          -6.5751093643231454e-03, 3.0369237396303234e-01,
          1.0216809181322377e-01, -3.1847224640102240e-01,
          1.3444640912609731e+00, -1.2381958767409626e-02,
          -2.7571678520503645e-01, -2.2897048147599301e-02,
          2.4327130954754226e-02, -3.1471812804251209e-02,
          2.4947720698246457e-02, -6.8189055940860568e-02,
          5.1798328952035977e-01, 5.0414949430208453e-02,
          2.6749862188558942e-03, 5.4864949797704433e-02,
          6.8538059970819530e-04, 2.4187493992813824e-01,
          -2.7199066346035866e-01, 9.2796514680091979e-02,
          -2.5736750121921507e-02, 3.8899072856833883e-01,
          -6.1557995320516118e-02, -1.0862490233816793e-02,
          -1.2589559494496760e-01, 2.5764598263242544e-01,
          9.5427831502713584e-02, -2.7591705275809536e-02,
          -1.1098060480271263e+00, 3.2873675657981488e-01,
          9.8170346161323987e-02, 3.1363824880081131e-01,
          7.1736270359977539e-02, 1.9962509390353704e-02,
          3.8029579418609044e-02, -6.2864808370996381e-02,
          6.1714174584856993e-02, 1.6084377572807416e-02,
          1.6174365443890123e-03, -7.1553064147815509e-02,
          1.0867347621572944e-02, 6.9050124437667870e-01,
          -9.5950499541995221e-02, -2.4505319173424533e-02,
          7.7968725727306232e-02, -5.3323807275634749e-01,
          2.7218517675179660e-01, 2.5226619141551099e-02,
          -7.4346829397107739e-02, 3.2717229365765307e-02,
          -3.7087387762592991e-03, 1.6225698048215331e-01,
          -1.7324043519155360e-01, -3.1534210917724209e-01,
          9.2415479528902755e-01, 2.0599173432486760e-02,
          -4.0028227798666782e-01, -1.0522224853352181e-02,
          -3.6495977417894655e-02, -6.2289517444196286e-02,
          1.4224448803866726e-02, 2.6202607613503594e-02,
          1.0271333366829034e+00, 3.7197971663772665e-02,
          6.9357669876640715e-02, -1.4579673230758375e-01,
          6.0455799034949576e-02, 3.2501113633991902e-01,
          -3.1693298495334871e-01, -2.8299099537903213e-02,
          -7.1456498243639227e-02, 2.3926550811646732e+00,
          2.1302900349384195e-02, -5.6904403058508669e-02,
          1.2521738063751162e-01, 3.1121407475456364e-01,
          3.8358477397046835e-02, 4.7721692088442763e-02,
          -3.3208347981383297e+00, 4.5502152475604235e-01,
          -1.6115986673337700e-02, 3.8284576851492247e-01,
          5.6396558858997525e-02, 1.9524863383322669e-02,
          -7.1299206298733320e-02, -3.4875834361176763e-02,
          2.0679911018282475e-02, 7.8909608031463629e-02,
          -4.4744959999399786e-02, 2.9984369745718709e-02,
          4.4841224129421924e-02, 9.4373810700743022e-01,
          9.2308608932632166e-02, 9.7565731385894589e-04,
          4.0487123349475761e-03, -3.9111003424933283e-01,
          4.0079667148500131e-01, 2.5821650964561679e-02,
          2.1920407562879312e-02, -1.7809931665714782e-01,
          -9.5260554099274430e-03, 4.3866733804377894e-01,
          6.3970126384074386e-03, -4.5752545039094089e-01,
          1.3032300603169460e+00, -2.5133806557125677e-02,
          -4.2953646018514235e-01, -2.8227552364814583e-03,
          -2.6635707230646819e-02, 3.7001513298646663e-02,
          -2.7985530950901751e-02, 3.3525569812703368e-02,
          7.6616213926971921e-01, -2.9472423682335394e-02,
          -1.5083627091799171e-02, -1.3528504258663548e-01,
          -1.2832607377143463e-02, 3.9788536138818142e-01,
          -2.9721052806507042e-01, 7.2598211269627483e-02,
          4.9503340902680507e-03, 1.2372126589194108e+00,
          3.0880355083846910e-02, 1.8635653656753466e-02,
          5.8252501672221860e-02, 6.1251957870083107e-01,
          -4.2809085673264774e-02, -8.2299877117434250e-02,
          -3.6228562065658387e+00, 2.1782858717298173e-01,
          3.1140933932745002e-02, 2.3683447972703595e-01,
          1.7492595197584046e-02, 3.9129307290637759e-02,
          7.3236362230556786e-03, 1.1531562881093322e-02,
          -1.8791454263345157e-02, -6.5438068777392125e-02,
          8.3357442160307271e-03, -5.9656518248504098e-02,
          -5.0248017015176207e-02, 3.8363479268468487e-01,
          3.9423432662208852e-02, -4.0414442656578967e-02,
          -1.5879664541726995e-02, -3.9049308427138280e-01,
          1.4184308596067588e-01, 5.2501106375073298e-02,
          1.7282278830143355e-02, -3.9720582096797036e-01,
          -3.4824708497567879e-02, 2.0272244366531877e-01,
          -6.8249497463086367e-02, -1.4516175230413259e-01,
          9.6222171554872593e-01, -6.4582836336912995e-03,
          -2.4629469225629835e-01, 1.1134045937520562e-02,
          -7.8527867100037216e-02, -3.1657386336476967e-02,
          2.9462530517955058e-02, 8.2934358882365072e-04,
          2.9048116596486556e-01, -5.1744616781689824e-02,
          -3.1012061291597146e-02, 6.9747892835532191e-02,
          6.8256496772597583e-02, 1.1625091523744353e-01,
          -1.1408178499159934e-02, 8.5668833426360641e-02,
          3.1103299502484728e-02, 1.7364640625517186e-01,
          9.7202175108032727e-03, -6.6302685249760990e-02,
          -3.1002377123162169e-02, 2.2980643603355236e-01,
          -3.8985366090173786e-02, 4.0782395570660095e-02,
          -3.2661040528748710e+00, 5.1782646149080691e-01,
          -4.1944651897668217e-02, 4.5956319586915345e-01,
          7.5271903532778114e-02, -1.1899040155510991e-02,
          -2.5191838331878765e-02, -5.6413116099813858e-02,
          5.9082069268119063e-02, 6.8654207799758615e-02,
          4.1421962336380784e-02, 3.1741041676224858e-03,
          -5.1028210679463547e-03, 1.2692762251575196e+00,
          6.2807929129688727e-03, -1.0693522721117637e-02,
          -7.1518702822098906e-02, -5.6359903270650047e-01,
          5.9072002087791897e-01, 2.7704324933827920e-02,
          1.2933512235083471e-02, -1.9038078689121132e-01,
          -5.7954675952143417e-02, 3.8357051612244819e-01,
          -3.1410465437884186e-02, -5.0819943936263023e-01,
          1.6739680288308540e+00, 4.2576570602012899e-03,
          -6.6514373841774310e-01, -9.3778075705526376e-02,
          2.8321115563014348e-02, -4.5603930168251622e-02,
          -3.4218094295604969e-02, -7.5093193631316987e-02,
          1.1075885025164087e+00, -4.1941047123720507e-04,
          6.6066261317791489e-02, -1.2502487702904341e-01,
          -1.2555536235334406e-02, 4.8355397390099525e-01,
          -4.3688595954463549e-01, -3.6494228722636539e-03,
          -5.2123637420799111e-02, 2.2064600103279322e+00,
          4.2194327154279947e-02, -5.8007090550250121e-02,
          1.0473221217952214e-01, 6.8094722735541924e-01,
          -3.4590216073735240e-02, 4.0290852233484004e-04,
          -2.7081823484975014e+00, 3.2889731597553395e-01,
          3.5660372292192467e-02, 3.0572139289916656e-01,
          3.7238229642133060e-02, -3.1766488535367524e-02,
          6.3257413564300091e-02, 1.2678132990778479e-01,
          1.0818466522239476e-02, 4.9869079687051565e-02,
          -5.6253021035208427e-02, -5.1003734870728026e-02,
          2.6983345366127769e-02, 6.3309730808668629e-01,
          2.8767161374177379e-02, 3.8353321816999568e-02,
          -6.8245513034617969e-02, -8.2090093890538635e-03,
          2.6193749683050355e-01, 1.5809561915632601e-02,
          -6.8956334715013792e-02, 2.3036931916545417e-01,
          6.6639737882910305e-02, 2.7823355199487870e-01,
          3.3602047921084274e-02, -2.6847314238439252e-01,
          1.3892616396435511e+00, -4.4632420348712218e-02,
          -2.4122783839681705e-01, 1.5629072944703743e-02,
          4.4914785387027187e-02, -1.6774173196150273e-02,
          -6.9938162311836444e-02, 4.2583752721111565e-03,
          3.3122924156670402e-01, 8.0855264579211147e-02,
          -1.0723577954942071e-01, 1.4553038269745336e-01,
          -4.7407817597539346e-03, 2.5033644470080435e-01,
          -2.7752569216440692e-01, -4.9577805701675401e-02,
          2.4634766011732956e-03, -2.9365809129301802e-02,
          5.3233077116870815e-02, 6.8427125694416280e-02,
          -7.7624418384968771e-03, 2.0243915118895159e-01,
          -2.7928119293107522e-02, -3.0346460116086629e-02,
          -3.4304731942601072e+00, 2.1725927013868210e-01,
          4.7617695685320087e-02, 3.4929276212445665e-01,
          -7.5741841059822346e-03, 3.0117947973980791e-02,
          -8.2813841148377851e-02, 1.1672370639821907e-02,
          -1.0795572368098592e-01, 1.1090029802235311e-02,
          5.7488414633779024e-02, 1.7676786302806075e-02,
          -5.4168027758146074e-02, 3.3169740567000988e-01,
          -6.4597706528075491e-02, 1.6268274739236584e-02,
          -2.2511658978708139e-02, -6.9703200706035348e-02,
          2.9907959094294501e-01, 1.0511830507060203e-02,
          3.1937822141312612e-02, 2.1303218186899640e-03,
          -7.0077072453002015e-02, 2.9133449012977902e-01,
          -1.9447198105447972e-02, -3.5754634970100613e-01,
          9.8063559009385937e-01, -5.7831846548418227e-02,
          -2.3363803843710232e-01, -2.6932670416006763e-02,
          7.1921899983907176e-04, 4.4339784799546478e-02,
          2.1443640169793235e-02, 1.1182916163573454e-02,
          4.1391065661344206e-01, 2.0722053846730884e-02,
          2.5908424668370733e-02, 1.2840264411998453e-01,
          -2.8366817110730882e-02, 2.4653937650145244e-01,
          -2.1515372124118998e-01, -1.8815317931070771e-02,
          -7.3208687218676545e-03, 3.8151900517714266e-01,
          -2.1491514943391653e-02, 6.0169510193019998e-02,
          -1.7578155470136990e-02, 4.1669034020490525e-01,
          -4.7873164951810328e-02, -1.8081478397285695e-02,
          -3.8667473907783818e+00, 8.4499019605259587e-02,
          7.4924177864437013e-03, 9.0756654051835084e-02,
          3.4327948682912141e-02, 2.8069290167130775e-02,
          3.8354019908080385e-02, -1.2148621589697223e-02,
          -5.0058937308318743e-02, 5.4424814701125944e-02,
          3.6811524194423136e-02, -2.3801863764262989e-02,
          -3.4012762761541505e-02, 3.1318898314416865e-01,
          1.9704524102734232e-02, 5.8302121271604015e-02,
          5.5235851133646020e-02, -2.6284150872852163e-01,
          2.1098285697292610e-02, -5.2870197851604635e-02,
          3.8086960947332778e-02, -4.9772585503504330e-01,
          5.9905472516597766e-02, -5.0702563182387335e-03,
          5.1376976435251562e-02, -1.8872954606103753e-01,
          7.3097990436868443e-01, -2.3860292197889744e-02,
          -8.1551922869602861e-02, 7.8034275461399423e-05,
          2.6274597403002649e-02, 7.7099149246917589e-02,
          2.0294468172576123e-02, 1.9280917869924551e-02,
          2.2882178726361604e-01, -5.6245750077197919e-02,
          -2.3889673011468628e-02, 5.5602402729203103e-02,
          5.2630696494019580e-02, 5.9754381099976321e-02,
          1.0203931923899023e-02, -3.9497882805553473e-03,
          1.6867622235122177e-02, 4.9613794353323093e-01,
          3.5976909453712652e-02, 2.6568362861878247e-02,
          -1.1887593840852466e-01, 1.8620287750152381e-01,
          -7.6745858339521272e-02, -3.1671412814345781e-02,
          -4.1760179102454451e+00, 2.9231087537387274e-01,
          -5.2308903936943993e-03, 2.1671498461293090e-01,
          -6.1898590250412812e-02, -3.3760592576617655e-02,
          -3.1784363085514786e-02, 7.0996682874032491e-02,
          -4.6260028494000835e-02, -6.7163603064534796e-02,
          -5.4177105465433986e-02, -1.2727220646901103e-02,
          -5.3685958251962297e-02, 5.0758512395926025e-01,
          -2.6006084202588008e-02, -2.2280174112032661e-02,
          1.8020570118256838e-02, -1.7598844378048764e-01,
          3.0679629472000647e-01, 2.6565931337374633e-02,
          3.9950077051224102e-02, -8.5116818340487718e-02,
          -1.7874370644814667e-02, 1.9143967936559453e-01,
          1.0558695467351860e-02, -2.5409223365253591e-01,
          9.9736005908326641e-01, -2.1265492532091916e-03,
          -1.4644253811835023e-01, 2.1544675707344144e-02,
          4.1570602332178193e-02, 6.6534151795952887e-02,
          4.2723601176497109e-02, 7.8314870168412390e-02,
          4.3717447335643878e-01, 3.7270440045532541e-03,
          -6.8186925629024786e-02, -1.9235689786698935e-02,
          -2.5567036767189407e-02, 1.8451423731591804e-01,
          -2.2676110895731319e-01, -8.5627951873078659e-02,
          8.7006670870724515e-02, 1.6125575514357546e-01,
          -5.9027103279166465e-02, -7.3052786046844580e-03,
          -5.1778136505475837e-02, 2.3603607681677977e-01,
          3.5857995045969614e-02, 5.3347030456965247e-02,
          -4.1548059265011013e+00, 3.5180584149702016e-01,
          -5.5697854753379225e-02, 3.9751700824534397e-01,
          -4.1133549590459041e-02, 3.6278105271654202e-04,
          -6.4104785274147142e-03, 6.5272537167106338e-03,
          4.7267967770507534e-02, 4.8850799908501524e-02,
          -5.3292582045543716e-03, 5.6974927024344341e-02,
          6.4108957059577434e-02, 9.0397991723606341e-01,
          -2.7269845482453155e-03, -1.1079376610463806e-02,
          -4.0078995498201240e-03, 6.7855903265453293e-02,
          3.5339688134801978e-01, 5.0480529761088447e-03,
          -1.8422047095480801e-02, 2.1486499570906886e-01,
          -3.0939891547480326e-03, 3.1587451643717396e-01,
          3.2067886797296566e-02, -4.7957802909246083e-01,
          1.2451957478976992e+00, 3.6067656038534276e-02,
          -4.5049888180335512e-01, 2.4822859653579501e-03,
          -5.6796175075708569e-02, 7.7879780906972576e-02,
          5.5399221882608006e-02, 6.4780581242990284e-02,
          8.5094118417092734e-01, -4.3525121960193668e-02,
          -2.1592171086549487e-02, 1.0685088075898444e-01,
          6.4880889990542326e-02, 3.7457688067249106e-01,
          -3.3999366765999989e-01, 5.2644999707955296e-02,
          8.3243715796229273e-02, 2.5143497516127761e-01,
          5.5333497165032920e-02, 6.8439817393156091e-02,
          -8.1156052665874348e-02, 3.8815277836177497e-01,
          -9.4959769014619111e-02, 5.5670294752149733e-02,
          -4.2867818323940270e+00, 4.1671540276526742e-01,
          -8.2112149732783093e-02, 4.8874072623398468e-01,
          -2.5562702373207940e-02, -5.2503414110932331e-02,
          -5.6309063102712706e-02, -3.9016763875623368e-02,
          -2.4461304386993232e-02, 5.4402748094474129e-03,
          5.4794328165720559e-02, -1.2281429648441660e-02,
          -6.1829055389009235e-02, 3.1476084330570414e-01,
          -8.3899786372648548e-03, 6.9973098708724923e-02,
          9.6733709652060025e-03, -1.1059222532455841e+00,
          4.1243654060235807e-01, 5.7004408564599138e-02,
          -6.0813152745652160e-02, -1.3244021553227867e+00,
          -6.4775442088504359e-02, 4.7592511895913236e-01,
          -2.9741433458988550e-02, -4.2187125946767107e-01,
          -1.1957275424702503e-01, 6.0723809931760003e-03,
          -4.1997342077354466e-01, -2.5614258640213786e-02,
          4.6106419024349338e-02, -3.4620749310452217e-03,
          1.0623339017850135e-02, -3.9425044522746040e-02,
          9.4363597667677235e-01, -5.2908870053659644e-04,
          6.6267631893601645e-02, -2.2823521754152400e-02,
          -6.9559668273073388e-02, 4.8562005853390888e-01,
          -5.1586765422977388e-01, -2.5824939370073571e-02,
          -1.6091607560099000e-03, -9.6583887719079775e-02,
          3.7754892952011170e-02, -5.2405250645369036e-02,
          -6.4038126174846291e-02, 3.0162147547998730e-01,
          1.3117975170743694e-02, -1.5665277515011639e-02,
          -4.9831130761435620e+00, 4.9723864572015691e-01,
          -4.1222029285499416e-02, 3.9827251626317889e-01,
          3.4882961141304694e-02, 6.9827181874913866e-02,
          5.3783536239987377e-02, 5.1369812915890059e-02,
          4.3730904606696153e-02, -6.1486523035311123e-02,
          -1.4620929384365166e-02, 6.5874516818540133e-02,
          -3.9550292917985293e-02, 1.0086344115744179e+00,
          3.3859760100886378e-02, 5.9425945171927064e-02,
          -8.6225565063519138e-02, 2.3733366893449955e-02,
          5.1557601033669453e-01, -6.9134124622792947e-02,
          4.1298305325836532e-02, 2.1896558148787218e-01,
          -4.6122515702948577e-02, 4.8175579244822569e-01,
          4.0112757868234448e-02, -5.4342436546094508e-01,
          1.4355874407911147e+00, 1.5661123505674598e-02,
          -4.8956130801352848e-01, 4.6978673308336986e-02,
          2.5339966261251873e-02, -4.5405410711599932e-02,
          7.8843169719560752e-03, -7.5064790629514211e-02,
          8.8867509676720258e-01, -1.8718728407014280e-02,
          3.3767210534442253e-02, 7.8074139898555881e-03,
          4.8873175455755626e-02, 4.7584817218178421e-01,
          -5.1498342012332021e-01, 4.3683625185614992e-02,
          -3.1807048709709344e-02, 2.6655278761524992e-01,
          -5.8918734132026078e-02, -3.4920658470341384e-02,
          3.7918331325567526e-04, 5.1517876410771080e-01,
          4.8791843200141578e-02, 4.4455780158112509e-02,
          1.7411817226610231e+00, -7.9462196055161749e-01,
          8.7838568718889537e-02, -8.5240749816222139e-01,
          -2.5104245318203728e-02, 5.0933512450329045e-02,
          1.2692118197741686e-02, -8.8087547583617323e-02,
          3.3377765089110861e-02, -2.2255571911863992e-02,
          -4.4897089653816767e-03, -2.2908647857981624e-02,
          8.4446326802018531e-04, -2.5274726654426822e+00,
          -3.6242588746242331e-02, -5.0645181305658650e-03,
          1.9066519224865582e-02, -2.0165057670761204e+00,
          -7.5351992915077692e-01, -2.5587483372543074e-02,
          -2.4740691616399191e-02, -2.5177169264596424e+00,
          -4.5489085250681087e-03, -8.7569654813169762e-01,
          -7.0461812319873959e-02, 8.2551544479432659e-01,
          -4.3065631600596870e+00, -2.3822642282575406e-02,
          7.7567727305317624e-01, 2.0838828119185256e-02,
          9.0443593515063554e-03, -2.2270815661751844e-02,
          -3.8286216258730695e-02, -3.4110723373813379e-02,
          3.6494944476739878e-02, -9.6761203966574134e-03,
          -5.6698275335562542e-02, -1.2741789309438487e-01,
          -1.6741171120394423e-02, -8.0940568065297769e-01,
          8.6708740075354340e-01, 1.2396007373528218e-02,
          4.5886522827029631e-02, 1.6938720268551406e+00,
          -3.6656897559283884e-02, -1.7919538232314750e-02,
          1.9208330004012591e-01, -7.1274936651205223e-01,
          -1.7727221524397936e-02, 1.5057356602038887e-02 ]
      - [ -1.4917954773986919e+00, -1.1584760382687875e+00,
          9.0173088163880799e-01, -1.1425791821852660e+00,
          -4.1768674883512429e-02, 2.1227985120097381e-01,
          8.1125758859941621e-01, 9.8916778810906492e-01,
          8.1867667675963729e-01, -2.9290111081141357e-01,
          -2.0067494894093085e-01, 8.6950960629493090e-01,
          3.4500774056370059e-01, -2.4604004210325390e+00,
          1.0005124444046806e-01, 8.3619271464464417e-01,
          1.2790136017126180e-01, 2.1733546973491213e+00,
          -1.1257279410949366e+00, 8.6849558802673898e-01,
          4.1598318623430647e-01, 1.5844889590509181e+00,
          1.1123592365929974e-01, -1.1758439738796183e+00,
          1.0678174988429598e+00, -1.1573296998433329e+00,
          -3.9987391363690752e+00, 2.6985177814572570e-01,
          -1.1926618166116680e+00, 6.9229634593265965e-01,
          8.3625233480374206e-01, 7.0872362802249445e-01,
          2.4258224410768844e-02, 9.8548167675603915e-01,
          -1.4051370340619833e+00, 7.9238738613880910e-01,
          1.1368107289771479e+00, 1.1053392132842244e+00,
          1.0243604367299317e+00, -1.1845967461027120e+00,
          -1.2567152592028386e+00, 7.6481987305872787e-02,
          -2.7674824061351727e-01, 3.1190826441609873e+00,
          2.5828808368885031e-01, 8.6706643999197597e-01,
          1.1528804998461475e+00, -1.1491804483995374e+00,
          1.2140281681939502e+00, 2.0970530698514830e-01,
          -3.5122223169509681e-01 ]
