%YAML:1.0
my_nn: !!opencv-ml-ann-mlp
   layer_sizes: !!opencv-matrix
      rows: 1
      cols: 3
      dt: i
      data: [ 24, 20, 1 ]
   activation_function: SIGMOID_SYM
   f_param1: 5.9999999999999998e-01
   f_param2: 1.
   min_val: -9.4999999999999996e-01
   max_val: 9.4999999999999996e-01
   min_val1: -9.7999999999999998e-01
   max_val1: 9.7999999999999998e-01
   training_params:
      train_method: BACKPROP
      dw_scale: 1.0000000000000001e-01
      moment_scale: 1.0000000000000001e-01
      term_criteria: { epsilon:1.0000000116860974e-07, iterations:500 }
   input_scale: [ 1., 0., 1., 0., 1., 0., 1., 0., 1., 0., 1., 0., 1., 0.,
       1., 0., 1., 0., 1., 0., 1., 0., 1., 0., 1., 0., 1., 0., 1., 0.,
       1., 0., 1., 0., 1., 0., 1., 0., 1., 0., 1., 0., 1., 0., 1., 0.,
       1., 0. ]
   output_scale: [ 1.0526315789473684e+00, 0. ]
   inv_output_scale: [ 9.4999999999999996e-01, 0. ]
   weights:
      - [ -6.0755246382998484e+02, -1.8937632238063465e+01,
          -3.7223395289521410e+00, -1.5412111233496328e+01,
          4.1317574758643243e+00, -1.2864440560851818e+01,
          2.8142906399329659e+00, 2.8400870225686954e+00,
          -2.7463759095013445e+00, 2.8305918477407266e+00,
          2.7777193079854552e+00, 2.0047025519701673e+00,
          -1.7519858253639530e+01, -1.1933542132190624e+01,
          5.0537134429954982e+00, -2.0428945976769494e+01,
          -2.8558175827558925e+00, 3.0691766688191193e+00,
          4.1605649533150224e+00, -5.0296074261695241e+00,
          -7.4403059391546719e+02, 1.0425374949615181e+01,
          -2.7441023731374725e-01, 1.6462215877436553e-01,
          1.8020381125541054e+00, 1.2288141055814652e+01,
          2.2376554180077846e+00, 2.1575158478946568e+00,
          -2.2924261699738913e+00, 2.1936372807021725e+00,
          2.2180675939971981e+00, 6.6193698726154537e-01,
          -2.9450199286351291e+00, 2.9587619467932175e+01,
          -2.0654354914605415e+00, 3.4915802820484969e+00,
          -5.0848741155709987e-01, 2.1698994773636553e+00,
          -9.5077070844660927e+00, -2.0602267457699477e+00,
          -2.7974021387074470e+02, 1.6651755353930362e+01,
          -2.5270751126928132e-01, 5.8240890922825672e+00,
          3.4064825326982695e+00, -1.3606709733649655e+01,
          1.0630479146256651e+00, 1.0801798518499226e+00,
          -1.1157875697121522e+00, 9.7991054821307710e-01,
          1.2622022934752943e+00, 1.7322133247719435e-01,
          1.0490130638750111e+01, 3.8318453244872903e+00,
          2.0156755251300829e-01, 1.4258727069222923e+01,
          -9.4614933544042001e-01, 1.2003009632949460e+00,
          -6.7581107698764660e+00, -2.8071940229107875e+00,
          -3.2420011222545600e+02, -2.7443135524595146e+01,
          -1.3959554110642827e+00, 8.1894887256733746e+00,
          4.2879557937675494e-01, 3.6272014670377478e-01,
          6.4781362750088933e-01, 9.7280166594793915e-01,
          -7.3263800988465022e-01, 5.0508854579491769e-01,
          1.0057578167090637e+00, 3.5905906435172121e+00,
          -6.2472211699969211e+00, 4.7379937759924289e+00,
          1.9349543750278149e+00, -7.1270852906825199e+00,
          -1.3803438108428974e+00, 4.8613256832340529e-01,
          -1.6395012742611854e+00, -3.0536271708933138e+00,
          -3.3637135819480147e+02, -3.0466534196930642e+01,
          -2.5195987226953709e+00, 1.0377059886315230e+00,
          2.3182529926067836e+00, -4.9348599445434678e+00,
          7.4686697807053748e-01, 6.7852420338698727e-01,
          -6.3814210584681874e-01, 7.3615990048471669e-01,
          6.4692126056618704e-01, 3.5558253762845968e+00,
          -5.8288324550535018e+00, 3.8082208114932076e-01,
          8.2004687663319000e+00, -3.3788763362471093e+00,
          -1.7369653750443617e+00, 9.5966771426613917e-01,
          6.6083911531744732e+00, 1.0140492052034224e+01,
          -2.3441541629762597e+02, -5.0836432900972026e+00,
          5.9288052955268078e-01, 1.2024489983652488e+01,
          2.3720060944213501e+00, 3.8253680046487837e+00,
          6.7450565932964068e-01, 1.6054725927394423e-01,
          -3.6419577416987320e-01, 1.1812788749372203e+00,
          -3.4648504098587984e-01, 1.9404278420467977e+00,
          5.0171441302503073e-01, 6.9216020506309812e+00,
          1.5313641757983451e-01, -1.3341832147675744e+01,
          4.6821408447950541e-01, 1.2591291053085876e+00,
          2.1655877740135349e+01, -3.9805160130301936e-01,
          -4.1354905585935296e+02, -9.7014604664933781e+00,
          -2.8462773249844773e+00, -1.4574839129955334e+01,
          1.2801086076667363e+00, -2.0894344377233969e+00,
          1.0525198415208872e+00, 1.0901143405235083e+00,
          -1.0885968584666248e+00, 1.0476157923464058e+00,
          1.2862321528148890e+00, 2.0458133181209202e+00,
          -1.1431905172406179e+01, 1.2316200805617214e-01,
          6.3328605354616068e+00, -9.0421397628877074e+00,
          -2.3230618217916299e+00, 9.8097790959479880e-01,
          6.4521371809429002e+00, -7.7353795354188049e-01,
          -3.4132318136930155e+02, -8.4741101041513254e+00,
          -2.5912608767237112e-03, -1.3025613596087358e+00,
          4.6647592151345807e-01, 1.0974392807982178e+00,
          6.8198933942391005e-01, 6.5760783282553548e-01,
          -7.1259094417377655e-01, 7.5108999593816950e-01,
          5.3135870938412166e-01, 1.0356856883329975e+00,
          -9.5635711199343998e+00, -3.8584897706966794e+00,
          -3.5032638022813951e+00, -1.5187632646105298e+00,
          -6.2637026527349005e-01, 6.8005820785979132e-01,
          8.1570985839145838e+00, 3.3600549138292746e-01,
          -3.9800527436121416e+02, -1.2207964268858683e-01,
          -2.6965067366685552e-01, 6.0511511003750753e+00,
          1.5158947101413458e+00, -1.0501123651160780e+00,
          7.5469289946212181e-01, 5.9977151613423196e-01,
          -6.1498188962476308e-01, 7.3923378216616020e-01,
          4.2504844340133741e-01, -6.0576690065512828e-01,
          1.8940896509713097e+00, 4.6458125577209998e-02,
          3.5282798434777205e+00, 6.3452753148210315e+00,
          1.4945425636581312e-02, 8.6850529310951163e-01,
          -6.5424049124807782e-01, 9.6664287666775583e-01,
          -3.1329822631871974e+02, 1.0846748283569760e+01,
          -4.2780608551923721e-01, 5.1301792097902350e+00,
          4.0520177862193274e-01, 6.2054695530269477e+00,
          8.7773081405190834e-01, 1.0956518426662347e+00,
          -1.0468440615141372e+00, 9.3582259231198406e-01,
          1.1183074144160039e+00, -2.7648831502452037e-01,
          5.9954239054894876e+00, 2.0368451830877339e+00,
          -1.4962303439937952e+00, 1.6419186264210108e+01,
          -1.3698173991762244e+00, 9.7552058275809572e-01,
          3.9762364599684834e+00, -1.4211385208139291e+01,
          -4.2008070443656550e+02, 2.2764711287360457e+00,
          1.3843841805680681e+00, -5.8046374702748640e+00,
          2.1372412639417140e-01, -1.8647693559659089e+01,
          1.0113415191852064e+00, 1.2902890766351247e+00,
          -8.2182276756333983e-01, 6.8292342434887898e-01,
          1.2150897902437947e+00, 1.3965749251511899e+00,
          -5.1945392879198138e-02, 1.3111227060298811e+01,
          -9.8603494955846005e-01, 3.1485109842714616e+00,
          -2.7935609085415442e-01, 6.7819767136147324e-01,
          2.6944190498447064e+01, 8.3371665747264760e+00,
          -4.8238103785507718e+02, -2.6505610562969855e+00,
          -2.2271014420711630e+00, -1.8040775495298348e+01,
          -7.2870143144314170e-01, 7.0562057158238600e+00,
          1.3465028273200466e+00, 1.6034186112650797e+00,
          -1.5073788554631848e+00, 1.2115865265959269e+00,
          1.7505480743330788e+00, -2.9564661776873069e-01,
          1.3345624593024095e+01, -5.4217263320028239e+00,
          3.5276075782323346e+00, 1.1630740389756783e+01,
          -1.4178631367591228e+00, 1.1018213895773450e+00,
          -8.0955052511164407e+00, 1.0436041207474863e+01,
          -4.4315593383518029e+02, -6.4869999873164982e-02,
          -1.6162623173937896e+00, -4.0652998713697004e+00,
          -2.2757793625106073e+00, 2.4647857254694601e+00,
          9.1193847625825530e-01, 1.1745261235938911e+00,
          -1.1096283514600547e+00, 6.0313752346463323e-01,
          1.4879082147962781e+00, 1.9276873064896471e+00,
          5.5814525228386271e+00, 9.5452980171369628e+00,
          1.9819766655650053e+00, 1.8216802384281255e+01,
          -1.9313896639022679e+00, 3.0751180408925083e-01,
          8.4726718035265414e+00, -2.1923582322825595e+01,
          -3.0895948198875334e+02, -2.0458989916615700e+01,
          -1.0587047102235141e+00, -1.7772817354342660e+01,
          -1.5813169626304051e+00, 3.2003505905595084e+01,
          1.3405897255864694e+00, 1.1914561395294301e+00,
          -1.4037350222931313e+00, 1.2831689843369964e+00,
          9.7523964597641777e-01, -3.3051261596426857e+00,
          3.0065857099274540e+00, -1.1749165226498519e+01,
          2.2488873606690869e+00, 2.1023651130519372e+01,
          1.7810736469946653e-01, 1.0826663782850916e+00,
          1.3720000046112611e+01, 4.6348113500139343e+00,
          -3.9641865860915095e+02, -1.5546020089792605e+00,
          1.6746960250889681e-01, 3.5392596400039094e+00,
          7.0561437438192331e-01, -1.2472847289235341e+01,
          1.0351997754231408e+00, 9.0160411058531031e-01,
          -9.4329070994896003e-01, 9.1009968635099669e-01,
          8.2769935864102673e-01, -2.9476507284216695e+00,
          -1.6289703281028327e+00, 3.6692309576057189e+00,
          2.0108045688998036e-01, -1.6210972322118302e+01,
          -6.2922630600686813e-02, 9.8052353603577158e-01,
          -2.0267051917277858e+00, -4.8543787708056376e+00,
          -3.9032657768632731e+02, 2.0114120428783266e+01,
          1.8185047786175448e+00, 2.7285774440852407e+01,
          3.6266591131526904e+00, 1.1189946264662531e+00,
          8.2425821049629966e-01, 6.7855596392516182e-01,
          -4.9724066711447534e-01, 9.3403591346979542e-01,
          2.6656073841159722e-01, -4.6778845846878534e+00,
          -1.1792855838697673e+01, 1.3695394571768285e+01,
          -1.5180163010826255e+00, -4.9458559674184235e+00,
          1.4133200286054701e+00, 1.1800319565670392e+00,
          -2.3445441029087505e+01, 1.8407624401280099e+01,
          -5.3345016498331790e+02, -2.1609809884698525e+00,
          2.9563846512001812e+00, -1.0656862928746257e+01,
          1.7104722186736201e+00, -2.2623081032945013e+01,
          1.1877881533719015e+00, 5.5403555888307998e-01,
          -8.6673211165740716e-01, 1.5210453219024462e+00,
          -7.5847850991284230e-02, -2.8186947097380357e+00,
          -1.9401213463551108e+00, 2.1688423402759307e+00,
          -1.1202227885119509e+01, -8.1658317599263537e+00,
          1.8691527031625852e+00, 1.4726789668266635e+00,
          8.8837339922775307e+00, 1.4731123155414251e+01,
          -3.7948684172775864e+02, 3.0321542410973850e+00,
          -1.4962737982591243e+00, 2.6867698683586017e+01,
          1.8537336710366698e-01, 7.3458485528232762e+00,
          1.0893231360199602e+00, 1.6140908624119201e+00,
          -1.1728867462045636e+00, 5.2719034528560138e-01,
          1.9908693046876356e+00, 1.9408773867202285e+00,
          2.4542700264633721e+00, -1.9883808187693134e+01,
          3.6618229717937920e+00, 2.6869799827540963e-01,
          -1.9862418395502337e+00, 3.8941915475201988e-01,
          -1.8754375660774276e+01, -1.0078617383053803e+00,
          -4.4401097423959129e+02, -2.7638847319095011e-01,
          -3.1781337497417994e-01, 1.0201019120551290e+01,
          2.4692420311050642e+00, -2.2035859362934214e+00,
          9.6506656367479160e-01, 7.6006609171521089e-01,
          -6.4507693450803882e-01, 9.0395759376910223e-01,
          5.4483377867920646e-01, 6.8191666587502564e-01,
          -7.5966978475705691e+00, 5.5876174821835187e+00,
          2.4637024454337499e+00, 4.9841608709635628e+00,
          4.1304815481912738e-01, 9.9771659374201282e-01,
          -1.7407812793427635e+01, 2.0000969821715703e+01,
          -6.0237080795224927e+02, -7.9067425855596172e+00,
          -7.6932199015586755e-01, -2.7537957239669377e+00,
          1.3788480352250843e+00, -1.4326309877510097e+01,
          1.0845299472716827e+00, 1.0488445848852266e+00,
          -9.8470996058048588e-01, 9.0570536745463315e-01,
          1.0522923136407389e+00, 4.2417100070621316e+00,
          -4.2635913309424955e+00, -2.3026567086609915e+00,
          2.5480903000439437e-01, -2.3229568671012156e+01,
          -1.4279628849520121e+00, 1.0747569106818948e+00,
          -1.5791513371138004e+00, 9.8930488943190511e+00,
          -4.9223066663335447e+02, -2.2235965195566947e+00,
          6.9343713682078034e-01, -4.4822139603070861e+00,
          1.2420042940727676e+00, -3.9843060519132978e+00,
          8.2793007444955646e-01, 8.8651568790123858e-01,
          -7.0074105194749281e-01, 7.5768765116368852e-01,
          8.6534880659933067e-01, -1.2551439375781075e+00,
          3.8472531066187283e+00, -3.2943356942576614e+00,
          -1.5468785908058430e-01, -8.6965773601609655e+00,
          4.5603967271968568e-02, 7.3594907032418877e-01,
          -2.1291471295425604e+00, 6.7889763037755042e+00,
          -4.8462359029869828e+02, 5.9274373008386026e-02,
          -3.0430817147921285e+00, 2.2741326212387385e+01,
          2.6918001752856275e+00, 3.6265625751226866e+00,
          1.2155530089951423e+00, 1.3051485250847878e+00,
          -1.0879057571241408e+00, 1.1712604824069461e+00,
          1.3589718264259372e+00, 5.3441148532572766e+00,
          -3.5708460267750515e+00, 5.3155130951488179e+00,
          4.3370123187944554e+00, 1.1076241973716874e+01,
          -2.7232076585049043e+00, 1.4009381643165169e+00,
          1.0808388526494801e+00, 9.6483564825573094e+00,
          -2.5337243554359949e+02, 4.8601250739921023e+00,
          4.1769930604617498e+00, 4.7675702590950042e+00,
          1.8063506252104187e+00, 4.3282631232460993e+00,
          6.2167301494256866e-01, 6.1042508370577606e-02,
          -6.2743791919880421e-01, 1.5074059424967914e+00,
          -4.9650515926188465e-01, -2.0500027371151890e+00,
          1.4176251355257756e+00, 7.8376539905376807e+00,
          -1.2032689222826228e+01, -1.6870901896049828e+00,
          2.1256437463085014e+00, 1.3927549986019867e+00,
          2.6897277285608179e+00, -1.3522949353069302e+01,
          -2.7401516907952009e+02, -8.3261413498436774e+00,
          1.7355633305720326e+00, 5.8739955668334050e+00,
          2.1492881391569956e+00, 3.4985719504553636e+01,
          6.8303080888442369e-01, 5.2458798284225039e-01,
          -5.2140746773403934e-01, 9.7324135823783664e-01,
          2.0027781510943915e-01, 1.5742487041622680e-01,
          4.6427831974587863e-01, -5.1119755741251636e+00,
          -4.2238949039640623e+00, 1.0719060179297983e+00,
          -4.2511404355719061e-02, 1.0453691432020022e+00,
          -1.1358208215990166e+01, -7.9456344625136461e+00,
          -8.8399479901240932e+02, 2.4969185986082945e+01,
          -2.8299003227566235e+00, 1.5437069195472478e+01,
          4.7636411342346907e+00, -9.4233223316262826e+00,
          4.8855510027246396e+00, 4.8679204112204211e+00,
          -4.7143651872268197e+00, 4.8459005439239826e+00,
          4.7889650176393710e+00, 2.9657201643947304e+00,
          1.8228937194065509e+00, 7.3821257892778878e+00,
          3.9296565785072350e+00, -2.9962742623634906e+00,
          -3.0650785912603249e+00, 4.9473388256042972e+00,
          -1.1995994941745440e+01, -2.6440751679950565e+00 ]
      - [ 9.1164299749878308e-01, 3.5716090543489978e+00,
          5.3091188595967775e+00, 1.6951113848365484e+01,
          4.5903834053942303e+00, 4.1129740038440943e+00,
          7.0463801023058137e-01, 3.0086879108973674e-01,
          2.9657577041832367e-01, 5.5473262863058059e-01,
          -6.3057133977278224e-01, -6.1962166118320461e+00,
          -1.2751764207031368e+01, -1.3146160649002267e+01,
          -8.8101361587227682e+00, -9.0242981929482209e+00,
          4.1755960239266727e+00, 1.0918430251943607e+00,
          8.2272272024722231e+00, 4.6998641835279820e+00,
          1.6133266110387454e+00 ]
